~o
<STREAMINFO> 1 25
<VECSIZE> 25<NULLD><MFCC_D_N_Z_0><DIAGC>
~s "silst"
<MEAN> 25
 -1.678305e+00 -3.581115e+00 2.360520e-01 4.329417e+00 3.275896e+00 2.818604e+00 -5.733820e-01 3.130313e+00 -2.978181e+00 9.446927e-01 6.212574e-01 1.666912e+00 -1.597081e-02 7.620744e-03 -1.217138e-02 5.163159e-02 -1.339493e-02 6.287367e-02 -4.036627e-02 4.016946e-02 -3.442807e-02 1.179032e-02 -1.702297e-02 -3.522078e-03 -7.993729e-02
<VARIANCE> 25
 2.839942e+00 5.599563e+00 7.971785e+00 1.012929e+01 1.096361e+01 1.406339e+01 1.508592e+01 1.652386e+01 1.514095e+01 1.487438e+01 1.232832e+01 1.168536e+01 1.239784e-01 2.463391e-01 4.046141e-01 6.286173e-01 8.091000e-01 1.052597e+00 1.248449e+00 1.403011e+00 1.391817e+00 1.311741e+00 1.241768e+00 1.134144e+00 4.785953e-02
<GCONST> 6.749584e+01
~h "b"
<BEGINHMM>
<NUMSTATES> 5
<STATE> 2
<MEAN> 25
 -1.643794e+00 -2.666340e+00 4.789540e+00 5.915897e-01 2.426844e+00 3.223870e+00 -3.910267e+00 3.031787e+00 -8.233789e-01 -1.154247e+00 2.804547e+00 -4.356993e-01 -2.856311e-02 2.214680e-02 6.498182e-02 3.213812e-03 -1.131377e-02 1.303896e-01 -1.099954e-01 1.989907e-02 1.232261e-01 5.305994e-03 -9.227131e-02 2.087671e-04 -1.663865e-02
<VARIANCE> 25
 2.394035e+01 2.383178e+01 2.494265e+01 3.133738e+01 2.863246e+01 2.443755e+01 2.318242e+01 3.213124e+01 2.522962e+01 2.869213e+01 3.075881e+01 2.005953e+01 2.589879e-01 5.814215e-01 6.905684e-01 9.949434e-01 1.351154e+00 1.488690e+00 2.203193e+00 1.981965e+00 2.051850e+00 1.697517e+00 1.865659e+00 1.620826e+00 2.350203e-01
<GCONST> 8.593896e+01
<STATE> 3
<MEAN> 25
 1.626516e+00 4.331008e-02 2.413562e+00 4.842762e+00 3.212657e+00 3.588679e+00 -1.675441e+00 2.282358e+00 -1.248686e+00 5.792196e-01 -1.194833e+00 2.788182e-01 -3.036186e-01 6.991673e-01 2.699832e-01 -5.686350e-01 -1.131054e+00 -6.895298e-01 -4.318147e-01 -9.933918e-01 7.555546e-01 -6.711020e-01 -8.905295e-01 -7.522846e-01 2.793684e+00
<VARIANCE> 25
 2.465776e+01 2.554080e+01 3.387121e+01 2.787989e+01 2.726420e+01 2.981122e+01 1.715205e+01 2.930083e+01 2.904682e+01 1.589603e+01 1.429696e+01 1.537046e+01 4.688285e+00 3.912000e+00 6.209955e+00 4.957745e+00 4.374261e+00 5.140939e+00 3.417359e+00 5.118713e+00 4.801111e+00 2.919226e+00 3.554410e+00 3.165720e+00 8.350489e+00
<GCONST> 1.031845e+02
<STATE> 4
<MEAN> 25
 2.552204e+00 3.995839e+00 5.944418e+00 2.048163e+00 -5.320373e+00 -4.034638e+00 -3.139458e+00 -1.517801e+00 -1.123164e+00 -2.602129e+00 -2.385815e+00 -2.529839e+00 2.344976e-01 -1.050144e-01 -4.561151e-01 -9.772491e-01 -7.441463e-01 -4.502112e-01 8.651902e-03 -1.681005e-01 7.459893e-01 -1.953397e-01 8.687955e-02 -3.287523e-01 1.931406e+00
<VARIANCE> 25
 6.560160e+01 4.768759e+01 8.141132e+01 6.677583e+01 7.076082e+01 7.871023e+01 5.168509e+01 4.969607e+01 7.846770e+01 4.111486e+01 3.087676e+01 3.472261e+01 3.232035e+00 4.063004e+00 5.491337e+00 6.486869e+00 6.349943e+00 8.592473e+00 3.986279e+00 5.390060e+00 7.306554e+00 4.135327e+00 3.709059e+00 4.684708e+00 1.299723e+01
<GCONST> 1.161716e+02
<TRANSP> 5
 0.000000e+00 1.000000e+00 0.000000e+00 0.000000e+00 0.000000e+00
 0.000000e+00 7.334653e-01 2.665348e-01 0.000000e+00 0.000000e+00
 0.000000e+00 0.000000e+00 3.682236e-01 6.317765e-01 0.000000e+00
 0.000000e+00 0.000000e+00 0.000000e+00 7.704314e-01 2.295686e-01
 0.000000e+00 0.000000e+00 0.000000e+00 0.000000e+00 0.000000e+00
<ENDHMM>
~h "d"
<BEGINHMM>
<NUMSTATES> 5
<STATE> 2
<MEAN> 25
 3.725298e-01 -2.323176e+00 -1.059967e+00 -3.745785e-01 2.006201e+00 7.017874e-01 1.425693e+00 3.157505e+00 7.188920e-01 1.840712e+00 1.862360e+00 6.763943e-01 -4.057780e-01 -3.462362e-01 2.719453e-01 5.644496e-01 8.001972e-01 3.169291e-01 -3.885266e-02 3.444506e-02 -9.432296e-02 5.026648e-02 9.179664e-02 1.965970e-01 -4.498817e-01
<VARIANCE> 25
 1.607192e+01 8.119849e+00 1.636327e+01 3.280505e+01 2.984060e+01 4.462750e+01 1.970306e+01 2.020855e+01 1.832828e+01 1.746389e+01 1.948396e+01 2.435734e+01 9.031520e-01 9.155998e-01 1.126627e+00 1.821788e+00 1.962861e+00 2.488087e+00 1.755314e+00 2.582588e+00 2.028388e+00 1.762145e+00 1.671510e+00 1.832399e+00 3.375380e-01
<GCONST> 8.714944e+01
<STATE> 3
<MEAN> 25
 -1.105548e-01 -2.456245e+00 2.585065e-02 2.943124e+00 3.976514e+00 2.022761e+00 1.934657e-01 2.139464e+00 -1.187076e+00 8.534219e-01 1.429676e+00 -2.569758e-01 1.710172e-02 -2.044167e-02 1.321157e-01 1.934439e-01 -2.508074e-03 1.839140e-01 -2.170207e-01 -3.506189e-02 -3.976032e-01 -2.527759e-01 6.590027e-02 1.885612e-01 -2.619848e-01
<VARIANCE> 25
 1.353900e+01 1.136323e+01 1.593611e+01 2.194591e+01 1.612765e+01 4.246199e+01 2.576429e+01 1.596943e+01 2.021822e+01 1.951451e+01 2.014548e+01 1.944177e+01 4.284436e-01 8.966377e-01 1.246247e+00 1.381193e+00 1.286635e+00 1.624995e+00 1.695714e+00 2.092481e+00 2.010633e+00 2.047068e+00 1.831296e+00 1.890683e+00 1.505796e-01
<GCONST> 8.369095e+01
<STATE> 4
<MEAN> 25
 -1.659378e+00 -3.741076e+00 -5.207959e-02 4.013699e+00 3.207979e+00 2.745500e+00 -8.680261e-01 3.096228e+00 -3.035828e+00 1.318977e+00 9.407048e-01 1.164093e+00 -1.667039e-02 2.349933e-02 -1.083973e-02 4.294530e-02 -2.937764e-02 5.357610e-02 -3.882366e-02 9.197523e-03 -4.228359e-02 -3.029427e-03 -3.798340e-02 1.018122e-02 -8.439010e-02
<VARIANCE> 25
 3.612853e+00 4.759832e+00 6.061958e+00 8.101263e+00 1.038505e+01 1.592476e+01 1.398905e+01 1.352911e+01 1.579415e+01 1.245294e+01 1.066032e+01 1.166141e+01 1.087507e-01 2.589841e-01 4.032296e-01 5.771862e-01 6.904801e-01 9.423929e-01 1.127098e+00 1.212009e+00 1.400215e+00 1.192162e+00 1.141586e+00 1.262937e+00 4.409672e-02
<GCONST> 6.575302e+01
<TRANSP> 5
 0.000000e+00 1.000000e+00 0.000000e+00 0.000000e+00 0.000000e+00
 0.000000e+00 6.526876e-01 3.473125e-01 0.000000e+00 0.000000e+00
 0.000000e+00 0.000000e+00 5.685128e-01 4.314872e-01 0.000000e+00
 0.000000e+00 0.000000e+00 0.000000e+00 9.576576e-01 4.234245e-02
 0.000000e+00 0.000000e+00 0.000000e+00 0.000000e+00 0.000000e+00
<ENDHMM>
~h "f"
<BEGINHMM>
<NUMSTATES> 5
<STATE> 2
<MEAN> 25
 -1.526544e+00 -4.429511e+00 1.155212e+00 4.630331e+00 4.113787e+00 1.200864e+00 3.797933e-01 4.096733e+00 -2.511271e+00 2.777954e+00 2.537290e-01 3.338185e-01 -6.265171e-02 -4.170216e-02 -4.332411e-02 6.885836e-02 7.132038e-03 8.519964e-02 -2.209361e-02 -1.626647e-02 -5.374527e-03 6.038514e-03 -4.232306e-02 -1.506193e-02 -1.013625e-01
<VARIANCE> 25
 3.811863e+00 5.518319e+00 4.794094e+00 1.009357e+01 8.929367e+00 9.304069e+00 1.098845e+01 1.472818e+01 1.596243e+01 1.208763e+01 1.143653e+01 1.151613e+01 1.634621e-01 2.990807e-01 4.219626e-01 6.402959e-01 9.223009e-01 9.483428e-01 1.196882e+00 1.337637e+00 1.605403e+00 1.233780e+00 1.233949e+00 1.192655e+00 6.312487e-02
<GCONST> 6.683882e+01
<STATE> 3
<MEAN> 25
 -1.388503e+01 4.054545e+00 -8.291327e-01 5.713542e+00 1.706662e+00 1.760111e+00 -8.395018e-02 8.697831e-01 3.770708e+00 4.074073e-01 -6.650952e-01 1.247429e+00 -9.258419e-01 4.947381e-01 7.381139e-02 -7.572360e-04 -1.239500e-01 -5.342352e-02 6.351133e-02 -1.566806e-01 3.171129e-01 -1.561686e-01 -1.699487e-01 6.066107e-02 9.638727e-01
<VARIANCE> 25
 4.975039e+01 2.689967e+01 2.227396e+01 2.204904e+01 1.048904e+01 1.657613e+01 1.516571e+01 2.148448e+01 2.516794e+01 1.460537e+01 1.937579e+01 1.517691e+01 1.616203e+00 1.885718e+00 1.448081e+00 1.855679e+00 9.212324e-01 1.474545e+00 1.698964e+00 1.603839e+00 2.267674e+00 1.784967e+00 1.986987e+00 1.327133e+00 1.396085e+00
<GCONST> 8.799123e+01
<STATE> 4
<MEAN> 25
 -4.494182e+00 2.342568e+00 -2.683918e+00 -2.794268e+00 -6.139820e+00 1.790785e+00 4.752307e+00 -2.946536e+00 2.047401e+00 -9.205943e-02 -2.405495e+00 1.438110e+00 1.941455e+00 1.416680e-01 -4.168828e-01 -2.004570e+00 -9.542506e-01 7.311278e-01 -9.427591e-02 -4.430412e-01 -1.819543e-01 -1.445910e+00 -7.547255e-01 1.234492e-01 9.202774e-01
<VARIANCE> 25
 2.382428e+02 3.710397e+01 2.859517e+01 1.214902e+02 9.744025e+01 2.399073e+01 6.959547e+01 6.805051e+01 3.544110e+01 3.196683e+01 2.414721e+01 1.589160e+01 1.437619e+01 3.271483e+00 2.599479e+00 1.050586e+01 5.432195e+00 3.683056e+00 3.672880e+00 4.859962e+00 2.927405e+00 6.035489e+00 4.041778e+00 1.901981e+00 2.081262e+00
<GCONST> 1.110699e+02
<TRANSP> 5
 0.000000e+00 1.000000e+00 0.000000e+00 0.000000e+00 0.000000e+00
 0.000000e+00 9.529374e-01 4.706266e-02 0.000000e+00 0.000000e+00
 0.000000e+00 0.000000e+00 9.136671e-01 8.633291e-02 0.000000e+00
 0.000000e+00 0.000000e+00 0.000000e+00 6.429076e-01 3.570925e-01
 0.000000e+00 0.000000e+00 0.000000e+00 0.000000e+00 0.000000e+00
<ENDHMM>
~h "g"
<BEGINHMM>
<NUMSTATES> 5
<STATE> 2
<MEAN> 25
 -8.476474e-01 -3.879064e+00 -8.545926e-01 2.769630e+00 3.983712e+00 4.778801e+00 -1.915514e+00 1.911983e+00 -2.182827e+00 4.798589e-01 1.844089e+00 7.629037e-01 -5.475024e-03 -5.279255e-03 -1.060211e-02 4.747143e-02 -1.749686e-02 4.303236e-02 -1.679557e-02 5.061531e-02 -4.429141e-02 4.803927e-02 -3.124024e-02 2.125065e-02 -8.976346e-02
<VARIANCE> 25
 2.957820e+00 3.586283e+00 4.794506e+00 8.329513e+00 8.233189e+00 1.105746e+01 1.235046e+01 1.360499e+01 1.286227e+01 1.197458e+01 1.146735e+01 1.152677e+01 1.313795e-01 2.459772e-01 3.817245e-01 6.270484e-01 8.690282e-01 1.102316e+00 1.024352e+00 1.205258e+00 1.397563e+00 1.416942e+00 1.153755e+00 1.271821e+00 5.407057e-02
<GCONST> 6.500750e+01
<STATE> 3
<MEAN> 25
 -2.218693e-01 -2.755839e+00 -2.053503e+00 2.738338e+00 2.664040e+00 4.618462e+00 -1.127267e+00 2.871526e+00 -1.532189e+00 2.168631e+00 1.192052e+00 1.148389e+00 -6.590126e-01 -3.274925e-01 1.989929e-01 -1.707569e+00 -1.684013e+00 -2.394892e+00 1.697510e+00 -1.456553e+00 4.509817e-01 -1.483621e+00 -1.976864e+00 -3.170009e-01 4.366477e+00
<VARIANCE> 25
 8.366523e+00 4.031530e+00 5.892744e+00 1.527521e+01 1.000269e+01 2.464507e+01 2.064025e+01 2.012332e+01 7.882193e+00 1.039397e+01 2.176035e+01 1.510046e+01 3.194376e+00 4.134656e+00 3.611287e+00 9.579411e+00 7.316116e+00 8.996304e+00 9.824542e+00 4.599504e+00 2.740161e+00 5.780791e+00 3.679936e+00 4.017936e+00 8.903782e+00
<GCONST> 9.746735e+01
<STATE> 4
<MEAN> 25
 8.847688e-01 -1.350636e+00 2.673914e+00 -6.745110e+00 -5.681343e+00 -9.333689e+00 8.180367e+00 -1.203530e+00 1.341775e+00 -6.035544e-01 -5.070403e+00 -1.876349e+00 3.127109e-01 3.123065e-01 4.958833e-01 -3.253556e-01 -6.246969e-01 -7.428150e-01 4.363769e-02 -1.949334e-01 4.254913e-02 6.863679e-02 2.288712e-01 -1.799962e-01 1.338709e+00
<VARIANCE> 25
 3.212469e+01 4.008593e+01 6.997071e+01 5.182267e+01 7.433443e+01 6.255795e+01 1.434451e+02 5.329175e+01 4.530941e+01 6.753615e+01 3.035382e+01 2.769873e+01 2.481630e+00 1.607446e+00 4.866410e+00 4.100324e+00 4.451876e+00 5.264679e+00 5.836602e+00 4.067443e+00 3.799678e+00 4.439795e+00 2.778198e+00 2.566557e+00 1.309440e+01
<GCONST> 1.115109e+02
<TRANSP> 5
 0.000000e+00 1.000000e+00 0.000000e+00 0.000000e+00 0.000000e+00
 0.000000e+00 9.783731e-01 2.162687e-02 0.000000e+00 0.000000e+00
 0.000000e+00 0.000000e+00 5.016785e-01 4.983216e-01 0.000000e+00
 0.000000e+00 0.000000e+00 0.000000e+00 9.209704e-01 7.902966e-02
 0.000000e+00 0.000000e+00 0.000000e+00 0.000000e+00 0.000000e+00
<ENDHMM>
~h "k"
<BEGINHMM>
<NUMSTATES> 5
<STATE> 2
<MEAN> 25
 -1.478586e+00 -2.301599e+00 9.030386e-01 1.568511e+00 -1.658430e+00 -2.644801e+00 1.093663e-01 2.961319e+00 -1.646809e+00 1.824196e+00 4.733619e-01 3.652863e-01 -9.339544e-01 -6.904410e-01 -1.291899e+00 6.366495e-03 -1.393010e-01 6.212407e-02 -1.877928e-01 7.395018e-01 8.366596e-01 -3.863169e-01 1.338990e-01 -5.336788e-01 1.633928e+00
<VARIANCE> 25
 3.673160e+01 1.507669e+01 3.344484e+01 3.879991e+01 4.820472e+01 6.378293e+01 5.113050e+01 3.409999e+01 2.539365e+01 2.338229e+01 1.793264e+01 1.965003e+01 4.188025e+00 2.768562e+00 7.838510e+00 4.253956e+00 4.904924e+00 5.459270e+00 6.730985e+00 4.274072e+00 4.348906e+00 3.352960e+00 2.815788e+00 2.968587e+00 5.974552e+00
<GCONST> 1.063727e+02
<STATE> 3
<MEAN> 25
 -4.294229e+00 -4.538656e+00 -5.339374e+00 2.376135e-01 -9.706385e-01 -2.515080e+00 -4.895039e+00 4.571456e+00 3.899777e+00 -3.683815e-01 1.662920e-02 -1.553462e+00 -6.255482e-01 -1.770174e-01 -1.377946e+00 -8.575875e-01 -6.507722e-01 -4.365839e-02 -6.743472e-01 -5.156655e-01 1.513073e+00 -1.292228e-01 -9.128660e-02 -1.988225e-01 3.320249e+00
<VARIANCE> 25
 4.381603e+01 3.662494e+01 7.375788e+01 3.426798e+01 8.509705e+01 9.379295e+01 9.472263e+01 6.187850e+01 5.946523e+01 4.323907e+01 2.228811e+01 2.721719e+01 6.288203e+00 4.047782e+00 1.377478e+01 7.466216e+00 8.335891e+00 1.059630e+01 1.170523e+01 7.849156e+00 6.137740e+00 5.439073e+00 4.054466e+00 4.630616e+00 8.791400e+00
<GCONST> 1.185696e+02
<STATE> 4
<MEAN> 25
 1.522459e+00 1.525879e+00 -4.716031e+00 -6.841935e+00 -3.293765e+00 -1.473639e+00 -9.918354e-01 -3.291613e+00 4.887760e+00 -7.591540e-01 6.022847e-01 -2.647671e+00 1.983674e-01 5.067860e-01 -1.157469e-01 -4.117085e-01 7.553269e-02 1.545039e-01 3.193589e-01 -1.773325e-01 3.253294e-02 -1.932563e-01 1.037664e-01 1.062696e-01 2.038000e-01
<VARIANCE> 25
 7.620538e+01 5.686255e+01 7.739965e+01 8.695354e+01 6.526918e+01 1.000831e+02 7.942696e+01 6.274511e+01 6.991171e+01 2.837532e+01 3.787278e+01 3.752604e+01 5.556931e+00 3.005780e+00 5.002602e+00 5.085358e+00 3.687757e+00 5.153409e+00 4.203581e+00 4.303155e+00 4.610183e+00 3.318046e+00 3.655667e+00 3.684669e+00 3.801813e+00
<GCONST> 1.138413e+02
<TRANSP> 5
 0.000000e+00 1.000000e+00 0.000000e+00 0.000000e+00 0.000000e+00
 0.000000e+00 5.022438e-01 4.977562e-01 0.000000e+00 0.000000e+00
 0.000000e+00 0.000000e+00 5.551628e-01 4.448371e-01 0.000000e+00
 0.000000e+00 0.000000e+00 0.000000e+00 8.308055e-01 1.691945e-01
 0.000000e+00 0.000000e+00 0.000000e+00 0.000000e+00 0.000000e+00
<ENDHMM>
~h "l"
<BEGINHMM>
<NUMSTATES> 5
<STATE> 2
<MEAN> 25
 6.368666e+00 5.652610e-01 -2.977545e+00 -5.740680e+00 -5.524955e+00 -1.161803e+00 -2.684658e+00 -6.888123e+00 7.376075e+00 -5.299917e-01 -2.267200e+00 -5.520863e+00 2.509159e-01 1.273881e-01 -8.645500e-02 -4.847641e-01 -4.636864e-01 -7.701424e-02 -3.069821e-01 -7.632685e-02 1.255320e-01 -6.644833e-02 2.049091e-01 4.080719e-01 1.698045e-01
<VARIANCE> 25
 2.976990e+01 3.325831e+01 6.398543e+01 1.240874e+02 5.924010e+01 6.890623e+01 1.039720e+02 8.960984e+01 6.380819e+01 5.505658e+01 5.627523e+01 5.507498e+01 2.182521e+00 2.071055e+00 3.537918e+00 5.357071e+00 5.023437e+00 6.410044e+00 6.001240e+00 6.144410e+00 4.161276e+00 4.162015e+00 4.398783e+00 3.792972e+00 2.714785e+00
<GCONST> 1.136765e+02
<STATE> 3
<MEAN> 25
 8.654125e+00 3.079012e+00 -2.466888e+00 -1.288484e+01 -7.322848e+00 -1.764108e+00 4.078451e-01 -3.202540e+00 3.936373e+00 -1.033484e+00 -1.315340e+00 2.338600e+00 -1.602741e-01 -4.034638e-04 2.658652e-01 6.086130e-01 1.929176e-02 -4.780467e-01 4.505694e-01 8.956460e-01 -6.857111e-01 1.550272e-01 2.527266e-01 3.854897e-01 -1.114850e+00
<VARIANCE> 25
 3.593411e+01 2.825515e+01 4.869448e+01 1.108260e+02 4.676834e+01 5.402204e+01 5.978624e+01 6.638443e+01 3.711926e+01 4.742418e+01 2.982252e+01 4.857747e+01 1.040932e+00 1.403261e+00 1.237206e+00 2.671376e+00 2.195167e+00 2.802179e+00 3.634930e+00 3.546285e+00 2.223425e+00 2.883706e+00 2.304251e+00 2.588479e+00 8.033168e-01
<GCONST> 1.017084e+02
<STATE> 4
<MEAN> 25
 2.977344e+00 3.103478e-01 -1.396532e+00 -3.214608e+00 -2.261473e+00 -1.361590e+00 2.108869e+00 1.881328e+00 1.674820e+00 8.013265e-01 1.896888e+00 6.690277e-01 -7.278210e-01 -2.898878e-01 2.961275e-01 8.403683e-01 6.243502e-01 2.771727e-01 4.775888e-02 1.117800e-01 -7.990648e-02 7.189827e-02 4.623809e-02 -8.911726e-02 -6.183214e-01
<VARIANCE> 25
 3.248914e+01 2.715458e+01 2.319166e+01 5.586590e+01 4.998721e+01 3.306495e+01 3.302032e+01 3.996906e+01 3.453277e+01 2.819344e+01 2.417046e+01 2.145840e+01 7.762248e-01 1.082188e+00 1.078746e+00 1.741875e+00 1.754557e+00 1.920241e+00 1.986152e+00 2.131200e+00 1.783676e+00 1.919105e+00 1.534699e+00 1.320066e+00 4.365255e-01
<GCONST> 9.184545e+01
<TRANSP> 5
 0.000000e+00 1.000000e+00 0.000000e+00 0.000000e+00 0.000000e+00
 0.000000e+00 7.957178e-01 2.042822e-01 0.000000e+00 0.000000e+00
 0.000000e+00 0.000000e+00 6.963622e-01 3.036378e-01 0.000000e+00
 0.000000e+00 0.000000e+00 0.000000e+00 7.414880e-01 2.585120e-01
 0.000000e+00 0.000000e+00 0.000000e+00 0.000000e+00 0.000000e+00
<ENDHMM>
~h "m"
<BEGINHMM>
<NUMSTATES> 5
<STATE> 2
<MEAN> 25
 5.449431e+00 2.253965e+00 5.319254e-01 1.198356e+00 1.884591e+00 -3.431216e-01 1.854013e+00 -2.810806e+00 1.787476e+00 1.617495e+00 1.280468e+00 -2.856005e+00 6.840766e-01 3.382135e-01 7.621461e-01 4.615825e-01 2.250871e-01 8.205330e-02 3.508722e-01 -1.046462e+00 -7.378135e-01 2.935618e-03 7.139649e-01 -8.655064e-01 -3.457924e-01
<VARIANCE> 25
 4.153613e+01 2.530347e+01 6.119594e+01 4.448903e+01 2.829743e+01 4.458447e+01 3.300816e+01 8.101196e+01 4.368214e+01 3.490260e+01 2.660141e+01 5.993835e+01 2.527433e+00 2.804581e+00 2.721505e+00 1.407369e+00 2.670376e+00 2.763375e+00 3.577944e+00 4.390767e+00 1.957766e+00 1.816179e+00 3.828899e+00 1.399760e+00 1.342382e+00
<GCONST> 1.018453e+02
<STATE> 3
<MEAN> 25
 1.006609e+01 4.286098e+00 4.310335e+00 3.313148e+00 3.219972e+00 -3.439637e+00 3.527926e+00 -7.576393e+00 -1.272051e+00 8.863695e-01 3.778934e+00 -7.909376e+00 8.637211e-01 8.981200e-01 8.350189e-01 4.121107e-01 -1.484716e-01 -1.487763e-01 5.773138e-01 -1.163095e+00 -8.914196e-01 -3.628933e-01 6.093599e-02 -5.829579e-01 -2.805580e-01
<VARIANCE> 25
 3.581877e+01 2.403726e+01 3.577810e+01 2.656550e+01 2.162667e+01 3.637305e+01 3.595644e+01 7.119180e+01 3.213515e+01 4.126423e+01 3.200260e+01 5.386493e+01 3.354571e+00 2.867921e+00 3.352312e+00 1.509249e+00 2.548946e+00 3.048515e+00 5.311092e+00 4.996551e+00 3.023737e+00 2.741860e+00 3.110297e+00 4.297497e+00 3.221353e+00
<GCONST> 1.038114e+02
<STATE> 4
<MEAN> 25
 5.249018e+00 2.195820e+00 3.983872e+00 1.548880e+00 -4.180460e+00 -5.034868e+00 -2.204606e-01 -3.778301e+00 7.991054e-01 -2.211035e+00 -3.384157e-01 -5.227929e+00 -3.668902e-01 -3.636970e-01 -1.250490e-02 -2.979044e-01 -5.146920e-01 -1.699442e-01 -2.308469e-01 5.494030e-01 3.936505e-01 -1.101402e-01 -1.291605e-01 2.349213e-01 8.548744e-01
<VARIANCE> 25
 8.073239e+01 5.041423e+01 6.599534e+01 4.302247e+01 7.789509e+01 6.097642e+01 8.207316e+01 7.385531e+01 5.538625e+01 5.415450e+01 4.064552e+01 7.994248e+01 5.273170e+00 3.189262e+00 4.602992e+00 3.041985e+00 6.368917e+00 4.321410e+00 5.157910e+00 7.656394e+00 4.083293e+00 3.744394e+00 3.745978e+00 5.354104e+00 5.243412e+00
<GCONST> 1.153130e+02
<TRANSP> 5
 0.000000e+00 1.000000e+00 0.000000e+00 0.000000e+00 0.000000e+00
 0.000000e+00 2.031254e-01 7.968746e-01 0.000000e+00 0.000000e+00
 0.000000e+00 0.000000e+00 6.260433e-01 3.739567e-01 0.000000e+00
 0.000000e+00 0.000000e+00 0.000000e+00 8.910499e-01 1.089501e-01
 0.000000e+00 0.000000e+00 0.000000e+00 0.000000e+00 0.000000e+00
<ENDHMM>
~h "n"
<BEGINHMM>
<NUMSTATES> 5
<STATE> 2
<MEAN> 25
 2.532328e+00 -7.334898e-01 3.057839e+00 2.949627e+00 2.723561e+00 -1.306190e+00 2.506812e-01 2.120323e+00 -3.114284e-01 1.312500e+00 4.389573e-01 1.655328e+00 -8.823919e-01 -1.055462e+00 -2.284355e-01 5.192515e-01 7.696645e-01 7.582974e-01 -1.580730e-02 2.032591e-01 -2.931473e-01 -6.592459e-02 2.085088e-01 1.639584e-01 -7.759037e-01
<VARIANCE> 25
 1.275092e+01 1.855990e+01 1.008613e+01 1.800012e+01 2.249260e+01 1.910240e+01 1.827991e+01 2.080013e+01 1.886320e+01 2.002034e+01 1.760443e+01 1.190143e+01 9.652890e-01 9.334874e-01 1.267721e+00 1.427993e+00 1.777209e+00 1.427868e+00 1.753632e+00 1.909236e+00 1.898976e+00 1.588293e+00 1.615664e+00 1.517078e+00 1.647368e-01
<GCONST> 8.272367e+01
<STATE> 3
<MEAN> 25
 -6.053117e-01 -3.994043e+00 8.986759e-01 3.573066e+00 4.349645e+00 2.161428e+00 1.545442e-01 2.525679e+00 -1.894085e+00 7.884284e-01 5.990863e-01 1.242812e+00 -3.860684e-02 -1.547205e-02 -5.120542e-02 3.272549e-02 -5.009563e-02 5.961992e-02 -6.036848e-02 1.161214e-02 -6.172240e-02 1.329956e-02 -2.425462e-03 2.746772e-03 -1.211144e-01
<VARIANCE> 25
 2.270823e+00 5.733755e+00 7.022748e+00 1.054430e+01 1.204818e+01 1.345783e+01 1.263346e+01 1.513396e+01 1.559914e+01 1.605484e+01 1.183393e+01 1.108635e+01 1.070862e-01 2.521229e-01 4.251074e-01 6.109777e-01 8.064185e-01 9.775923e-01 1.068904e+00 1.162853e+00 1.309709e+00 1.209561e+00 1.150875e+00 1.067194e+00 3.279303e-02
<GCONST> 6.582758e+01
<STATE> 4
<MEAN> 25
 -1.880902e+00 -3.828546e+00 -4.915725e-01 5.093754e+00 3.231318e+00 3.034125e+00 -8.909799e-01 3.917440e+00 -3.177373e+00 2.038527e+00 1.469387e-01 1.406912e+00 -2.340190e-02 6.328183e-02 -2.763531e-02 3.350311e-02 -1.366663e-02 6.222545e-02 -2.294753e-03 4.656842e-02 5.209429e-03 1.697404e-02 2.196844e-02 -1.231564e-02 -7.542625e-02
<VARIANCE> 25
 3.371541e+00 5.630264e+00 6.337383e+00 9.817252e+00 1.153136e+01 1.461660e+01 1.429559e+01 1.612878e+01 1.561819e+01 1.510192e+01 1.365036e+01 1.219446e+01 1.969871e-01 2.919590e-01 4.412706e-01 6.903173e-01 8.866268e-01 1.048766e+00 1.298264e+00 1.651958e+00 1.391006e+00 1.554173e+00 1.359763e+00 1.210171e+00 6.836633e-02
<GCONST> 6.939882e+01
<TRANSP> 5
 0.000000e+00 1.000000e+00 0.000000e+00 0.000000e+00 0.000000e+00
 0.000000e+00 6.999995e-01 3.000005e-01 0.000000e+00 0.000000e+00
 0.000000e+00 0.000000e+00 9.566019e-01 4.339812e-02 0.000000e+00
 0.000000e+00 0.000000e+00 0.000000e+00 9.258123e-01 7.418767e-02
 0.000000e+00 0.000000e+00 0.000000e+00 0.000000e+00 0.000000e+00
<ENDHMM>
~h "p"
<BEGINHMM>
<NUMSTATES> 5
<STATE> 2
<MEAN> 25
 -1.778397e+00 -3.149076e+00 -1.351758e+00 -1.414840e+00 -4.206059e+00 -2.833496e+00 1.611100e+00 1.676033e+00 2.865136e+00 -7.810198e-01 2.347701e-01 1.400961e-01 -3.769516e-01 -4.576957e-01 1.018989e+00 9.259583e-01 2.114403e-01 4.039363e-01 -3.311578e-01 4.107369e-02 -2.883002e-01 1.690885e-02 -2.117553e-02 1.676452e-01 2.024763e-01
<VARIANCE> 25
 3.147006e+01 1.787919e+01 3.190768e+01 3.679705e+01 5.548692e+01 2.814136e+01 4.732766e+01 3.016492e+01 2.746476e+01 2.168076e+01 3.424086e+01 2.540978e+01 4.219856e+00 2.797816e+00 3.322492e+00 3.809514e+00 3.182460e+00 2.307784e+00 4.325101e+00 4.938290e+00 4.059030e+00 1.372537e+00 2.640510e+00 1.675731e+00 2.863844e+00
<GCONST> 1.014421e+02
<STATE> 3
<MEAN> 25
 -1.147882e+00 -2.673566e+00 1.321078e+00 -4.661005e-01 -2.225775e+00 -2.062177e+00 2.130200e-01 5.868587e-01 6.603175e-01 -7.415386e-01 1.036800e+00 6.598138e-01 -4.573510e-01 -7.706676e-02 8.376506e-01 7.187829e-01 7.204423e-01 5.021852e-01 -7.345288e-01 -4.907548e-01 -1.064872e+00 2.645895e-01 1.255837e-01 2.832876e-01 -3.494435e-01
<VARIANCE> 25
 1.586499e+01 1.371236e+01 2.459480e+01 3.468446e+01 5.530090e+01 3.040007e+01 3.718459e+01 2.763033e+01 3.247408e+01 1.634209e+01 1.896957e+01 1.858164e+01 1.360793e+00 7.805084e-01 1.802283e+00 1.855527e+00 1.312307e+00 1.404529e+00 3.312616e+00 3.728772e+00 2.087494e+00 1.219554e+00 1.927984e+00 1.918897e+00 3.724427e-01
<GCONST> 9.022720e+01
<STATE> 4
<MEAN> 25
 -1.878961e+00 -4.172601e+00 -8.296719e-02 3.145815e+00 1.623543e+00 2.263234e+00 -2.027682e+00 2.085029e+00 -3.594358e+00 5.777647e-01 1.046801e+00 1.463059e+00 -2.776799e-02 2.935708e-02 1.112006e-03 4.933349e-02 -2.496659e-02 1.028383e-01 -6.357113e-02 3.740102e-02 -4.374798e-02 2.479015e-02 -1.870510e-02 -3.241561e-03 -1.021924e-01
<VARIANCE> 25
 2.556068e+00 4.100280e+00 6.995112e+00 9.743628e+00 1.052106e+01 1.492872e+01 1.252784e+01 1.395034e+01 1.655917e+01 1.144260e+01 1.059062e+01 1.162164e+01 1.197165e-01 2.454139e-01 4.077769e-01 6.365955e-01 8.510172e-01 9.959807e-01 1.173435e+00 1.605139e+00 1.636705e+00 1.260637e+00 1.080211e+00 1.117541e+00 4.397548e-02
<GCONST> 6.617569e+01
<TRANSP> 5
 0.000000e+00 1.000000e+00 0.000000e+00 0.000000e+00 0.000000e+00
 0.000000e+00 3.556918e-01 6.443081e-01 0.000000e+00 0.000000e+00
 0.000000e+00 0.000000e+00 2.262130e-01 7.737871e-01 0.000000e+00
 0.000000e+00 0.000000e+00 0.000000e+00 9.598911e-01 4.010882e-02
 0.000000e+00 0.000000e+00 0.000000e+00 0.000000e+00 0.000000e+00
<ENDHMM>
~h "r"
<BEGINHMM>
<NUMSTATES> 5
<STATE> 2
<MEAN> 25
 -3.308702e+00 -7.807130e-02 -5.070682e+00 -1.283160e+00 -1.722372e+00 4.310322e-01 1.729241e+00 -1.260513e+00 6.610271e+00 -1.378468e-01 2.354507e-01 -2.845320e+00 -1.196745e-01 1.608561e-01 -3.040901e-01 5.889192e-01 3.338871e-02 -1.710000e-01 -1.650014e-01 -6.183647e-01 4.211458e-01 -4.180191e-02 2.774156e-01 6.879517e-02 4.685266e-01
<VARIANCE> 25
 1.103489e+02 4.282626e+01 5.303528e+01 7.638985e+01 3.892767e+01 4.894877e+01 3.857954e+01 5.395124e+01 6.525845e+01 3.496044e+01 2.059902e+01 5.926844e+01 3.237609e+00 2.596585e+00 3.716067e+00 3.202842e+00 2.129048e+00 4.017792e+00 2.827308e+00 5.519279e+00 2.422686e+00 3.087575e+00 2.845422e+00 2.566864e+00 3.423194e+00
<GCONST> 1.074787e+02
<STATE> 3
<MEAN> 25
 5.670836e+00 1.160001e-01 -3.424453e+00 4.498821e+00 -2.194683e+00 -8.265879e-01 -2.810803e+00 -5.013386e+00 5.290410e+00 -1.029738e+00 1.291008e+00 -1.437637e+00 1.519126e+00 2.499320e-01 -3.215075e-01 1.549230e+00 1.933226e-01 -8.979519e-01 -1.070614e+00 -6.156164e-01 4.898919e-01 -9.484487e-01 1.586090e-01 -1.201445e-01 7.807093e-01
<VARIANCE> 25
 1.076233e+02 4.313294e+01 7.802477e+01 5.785614e+01 4.991639e+01 7.244653e+01 8.926208e+01 5.310627e+01 5.857447e+01 4.957415e+01 5.043542e+01 3.097606e+01 8.538635e+00 5.992023e+00 5.630159e+00 4.926770e+00 4.860054e+00 6.832783e+00 6.921787e+00 5.542862e+00 4.442101e+00 4.423373e+00 4.243265e+00 4.183602e+00 4.927508e+00
<GCONST> 1.166468e+02
<STATE> 4
<MEAN> 25
 8.583615e+00 1.588311e+00 -1.328089e+00 4.943296e+00 -7.287012e+00 -6.946038e+00 -4.542008e+00 -7.687023e+00 4.809072e+00 -3.765180e+00 4.103533e+00 -6.231049e-01 -1.375112e-01 -1.244608e-01 3.872516e-01 -5.032709e-01 -4.149508e-01 1.572748e-02 1.224590e-01 3.192562e-02 -3.520603e-01 2.199313e-01 -3.363392e-02 2.025021e-01 -3.076132e-02
<VARIANCE> 25
 7.155550e+01 7.950401e+01 1.207637e+02 9.594381e+01 5.025223e+01 7.821225e+01 5.671962e+01 8.871557e+01 6.497266e+01 4.435976e+01 5.844157e+01 3.576843e+01 2.579819e+00 2.408751e+00 4.617450e+00 4.649434e+00 4.733377e+00 5.276322e+00 3.893662e+00 4.079621e+00 4.521452e+00 4.546529e+00 3.811300e+00 3.109257e+00 2.158506e+00
<GCONST> 1.135039e+02
<TRANSP> 5
 0.000000e+00 1.000000e+00 0.000000e+00 0.000000e+00 0.000000e+00
 0.000000e+00 7.385943e-01 2.614057e-01 0.000000e+00 0.000000e+00
 0.000000e+00 0.000000e+00 6.687024e-01 3.312976e-01 0.000000e+00
 0.000000e+00 0.000000e+00 0.000000e+00 8.661059e-01 1.338942e-01
 0.000000e+00 0.000000e+00 0.000000e+00 0.000000e+00 0.000000e+00
<ENDHMM>
~h "s"
<BEGINHMM>
<NUMSTATES> 5
<STATE> 2
<MEAN> 25
 -6.734623e+00 7.011804e+00 1.370145e-01 1.229137e+00 3.289298e+00 -4.878170e+00 1.766214e+00 5.642422e-01 1.982182e-01 7.577787e-01 5.909373e-01 1.255825e+00 -2.738292e+00 3.293828e+00 -9.469082e-01 -7.687860e-01 1.453543e+00 -9.545609e-01 6.304836e-01 -3.033638e-01 4.869712e-01 -9.414104e-02 6.144220e-01 5.130370e-02 1.937394e+00
<VARIANCE> 25
 6.296084e+01 7.100811e+01 6.673561e+01 4.684373e+01 8.415753e+01 5.418596e+01 3.518216e+01 4.674159e+01 4.381046e+01 2.789156e+01 2.593998e+01 2.171876e+01 3.500748e+00 3.938583e+00 3.425279e+00 3.564232e+00 3.459258e+00 4.542667e+00 3.265621e+00 2.825048e+00 3.058170e+00 2.480429e+00 2.600709e+00 1.919890e+00 3.905292e+00
<GCONST> 1.067713e+02
<STATE> 3
<MEAN> 25
 -1.741801e+01 1.788964e+01 -6.216959e+00 -4.477816e-01 9.340948e+00 -5.908836e+00 3.060458e+00 1.459087e+00 9.987789e-01 1.960494e+00 1.670216e+00 1.755631e+00 -1.840725e-01 4.025625e-01 -5.379344e-01 5.385320e-01 -2.039082e-01 4.529675e-01 1.387442e-01 -2.075867e-01 8.923651e-02 4.519008e-02 -6.084163e-02 -1.685376e-01 3.436810e-01
<VARIANCE> 25
 2.085838e+01 2.183007e+01 1.836100e+01 3.476557e+01 3.118112e+01 1.778717e+01 1.756760e+01 2.297783e+01 1.792263e+01 1.690794e+01 1.069642e+01 9.014632e+00 1.335333e+00 1.749609e+00 9.821881e-01 1.420727e+00 1.363219e+00 1.418748e+00 1.297394e+00 1.319153e+00 1.214046e+00 1.061175e+00 8.282493e-01 7.405275e-01 1.955883e+00
<GCONST> 8.394241e+01
<STATE> 4
<MEAN> 25
 -1.379181e+01 1.408886e+01 -8.744478e+00 7.251585e+00 3.349279e+00 -1.001223e+00 3.867946e+00 -1.545119e+00 2.658397e+00 8.703189e-01 1.834188e+00 1.117966e+00 4.919984e-01 -1.065843e+00 4.105299e-01 2.101289e-01 -3.301835e-01 3.609966e-01 -1.182864e-01 1.797512e-03 -9.057280e-02 -1.750038e-01 -2.125989e-01 4.012540e-02 -5.807731e-01
<VARIANCE> 25
 2.508867e+01 5.250303e+01 1.793195e+01 1.814737e+01 1.762214e+01 2.190922e+01 1.401782e+01 1.405592e+01 1.494017e+01 1.205926e+01 1.300747e+01 1.020559e+01 1.182625e+00 1.168281e+00 7.996975e-01 1.003285e+00 1.035522e+00 1.376982e+00 1.106180e+00 1.116105e+00 1.231103e+00 1.363875e+00 1.198674e+00 8.223782e-01 1.047752e+00
<GCONST> 8.145624e+01
<TRANSP> 5
 0.000000e+00 1.000000e+00 0.000000e+00 0.000000e+00 0.000000e+00
 0.000000e+00 7.455764e-01 2.544236e-01 0.000000e+00 0.000000e+00
 0.000000e+00 0.000000e+00 8.238713e-01 1.761287e-01 0.000000e+00
 0.000000e+00 0.000000e+00 0.000000e+00 8.865236e-01 1.134764e-01
 0.000000e+00 0.000000e+00 0.000000e+00 0.000000e+00 0.000000e+00
<ENDHMM>
~h "t"
<BEGINHMM>
<NUMSTATES> 5
<STATE> 2
<MEAN> 25
 -3.795415e+00 5.573739e+00 -3.040023e+00 -2.503392e-02 -2.585318e+00 -5.179473e+00 -6.325135e-01 -1.491139e+00 2.986139e+00 1.324106e+00 -6.196847e-01 1.702273e+00 -2.533207e+00 1.274675e+00 -5.740687e-01 1.132425e-01 7.663854e-01 2.085414e-01 5.637739e-01 4.678581e-01 5.727063e-01 -3.951280e-01 -1.132454e-01 3.169526e-01 1.157299e+00
<VARIANCE> 25
 8.146037e+01 5.767193e+01 4.906705e+01 4.744370e+01 5.451888e+01 5.558361e+01 6.700380e+01 6.024753e+01 3.819958e+01 3.658847e+01 3.410849e+01 2.605185e+01 7.686656e+00 6.901299e+00 4.806478e+00 4.325153e+00 5.288569e+00 6.009806e+00 5.747281e+00 6.123198e+00 4.361484e+00 3.888843e+00 3.379802e+00 2.567965e+00 3.309970e+00
<GCONST> 1.127205e+02
<STATE> 3
<MEAN> 25
 -1.303708e+01 9.190095e+00 -3.500858e+00 -1.541857e+00 5.904006e+00 -4.707495e+00 3.144251e+00 2.771636e+00 2.152842e+00 -6.648211e-01 9.135668e-01 2.167545e+00 5.772517e-01 -1.138067e+00 4.369891e-01 4.354956e-02 2.297611e-01 -1.172117e-01 -1.390862e-02 -5.303234e-03 -2.305004e-01 -1.928246e-01 -5.973111e-02 -5.870036e-02 -8.924742e-01
<VARIANCE> 25
 3.700782e+01 5.056145e+01 2.641480e+01 3.272347e+01 3.733763e+01 3.507541e+01 2.867725e+01 3.112278e+01 2.490047e+01 2.253414e+01 1.941195e+01 1.736728e+01 1.680939e+00 1.626916e+00 1.655996e+00 1.874282e+00 1.697658e+00 2.216961e+00 1.937279e+00 2.942917e+00 1.805926e+00 1.612194e+00 1.958792e+00 1.636450e+00 1.205150e+00
<GCONST> 9.399008e+01
<STATE> 4
<MEAN> 25
 -4.233521e+00 -8.538899e-01 -5.803916e-01 2.313401e+00 4.118255e+00 -1.253633e+00 1.689072e+00 2.060194e-01 -7.553846e-01 -1.993429e-01 1.225255e+00 9.424990e-01 5.759046e-01 -5.730807e-01 2.906002e-01 1.273954e-01 -2.111613e-01 4.578714e-01 -2.204983e-01 1.097646e-01 -2.041355e-01 6.386372e-02 -6.556396e-02 -3.434389e-02 -4.147467e-01
<VARIANCE> 25
 2.007906e+01 1.810090e+01 1.672232e+01 2.009690e+01 1.917196e+01 2.547675e+01 1.956208e+01 2.535947e+01 2.235049e+01 1.759032e+01 1.707577e+01 1.532598e+01 1.089669e+00 9.556572e-01 7.961339e-01 1.071206e+00 1.308815e+00 1.749617e+00 1.587272e+00 1.810453e+00 1.859152e+00 1.425570e+00 1.494980e+00 1.707623e+00 6.893651e-01
<GCONST> 8.490458e+01
<TRANSP> 5
 0.000000e+00 1.000000e+00 0.000000e+00 0.000000e+00 0.000000e+00
 0.000000e+00 7.346435e-01 2.653565e-01 0.000000e+00 0.000000e+00
 0.000000e+00 0.000000e+00 7.962362e-01 2.037639e-01 0.000000e+00
 0.000000e+00 0.000000e+00 0.000000e+00 7.207365e-01 2.792635e-01
 0.000000e+00 0.000000e+00 0.000000e+00 0.000000e+00 0.000000e+00
<ENDHMM>
~h "v"
<BEGINHMM>
<NUMSTATES> 5
<STATE> 2
<MEAN> 25
 7.293918e+00 1.919709e+00 2.627301e+00 2.626638e+00 -2.076071e+00 -5.885416e+00 -5.075386e+00 -7.158443e-01 -2.904072e-01 1.380382e+00 -9.913552e-01 -1.746129e+00 -8.519303e-01 -3.562350e-01 -2.453266e-01 1.546544e-01 1.095209e+00 1.225814e+00 5.907532e-01 4.783365e-01 6.020080e-02 1.831049e-01 2.808387e-01 9.207399e-02 -9.745905e-01
<VARIANCE> 25
 2.772854e+01 2.121265e+01 3.062370e+01 2.749602e+01 2.767906e+01 4.246397e+01 2.988176e+01 3.317180e+01 3.107164e+01 2.937146e+01 1.926452e+01 2.874605e+01 1.088795e+00 1.954966e+00 1.652011e+00 1.446525e+00 2.285411e+00 1.685011e+00 2.295378e+00 2.658045e+00 2.152795e+00 2.042759e+00 1.274287e+00 1.590135e+00 2.266531e-01
<GCONST> 9.164751e+01
<STATE> 3
<MEAN> 25
 3.971528e+00 1.831183e-01 3.378034e+00 2.896070e+00 2.502085e+00 -9.589283e-01 -1.542415e+00 -2.411090e-01 1.518197e-01 1.467874e+00 9.282125e-01 -2.632956e-01 -1.060508e+00 -9.538083e-01 -3.714295e-01 2.504974e-01 1.102057e+00 1.072504e+00 7.776510e-01 -7.760429e-02 5.856365e-03 3.040172e-01 1.025448e-01 -5.933325e-02 -7.224711e-01
<VARIANCE> 25
 2.648436e+01 1.615828e+01 2.201809e+01 2.931111e+01 2.609008e+01 2.571033e+01 4.096669e+01 3.055193e+01 2.705809e+01 2.574658e+01 1.818448e+01 1.697252e+01 7.438095e-01 4.024289e-01 9.317176e-01 1.545910e+00 1.068500e+00 1.480452e+00 1.723851e+00 2.618836e+00 1.605044e+00 1.362632e+00 1.457300e+00 1.069016e+00 1.205644e-01
<GCONST> 8.462974e+01
<STATE> 4
<MEAN> 25
 -2.394516e+00 -2.720723e+00 1.708445e+00 4.408105e+00 5.619215e+00 2.395325e+00 2.548331e+00 1.522294e+00 -5.887738e-01 8.745084e-01 1.153383e+00 1.103058e+00 -6.085406e-02 -3.630224e-02 -1.892727e-02 3.113417e-02 1.406112e-02 3.688745e-02 -9.011314e-03 3.790638e-02 -3.202551e-02 3.614526e-02 -5.277440e-02 2.640551e-02 -1.106095e-01
<VARIANCE> 25
 1.024384e+01 5.739100e+00 7.419160e+00 1.490676e+01 1.199422e+01 1.849641e+01 1.773477e+01 1.815148e+01 1.597645e+01 2.373571e+01 1.394049e+01 1.194929e+01 1.724634e-01 2.627066e-01 4.613533e-01 6.976714e-01 8.289846e-01 1.161045e+00 1.434112e+00 1.560916e+00 1.290846e+00 1.368384e+00 1.398929e+00 1.112306e+00 5.913141e-02
<GCONST> 7.167941e+01
<TRANSP> 5
 0.000000e+00 1.000000e+00 0.000000e+00 0.000000e+00 0.000000e+00
 0.000000e+00 6.948547e-01 3.051453e-01 0.000000e+00 0.000000e+00
 0.000000e+00 0.000000e+00 4.052369e-01 5.947631e-01 0.000000e+00
 0.000000e+00 0.000000e+00 0.000000e+00 9.412383e-01 5.876172e-02
 0.000000e+00 0.000000e+00 0.000000e+00 0.000000e+00 0.000000e+00
<ENDHMM>
~h "w"
<BEGINHMM>
<NUMSTATES> 5
<STATE> 2
<MEAN> 25
 1.232626e+01 8.203211e+00 2.073468e+00 -5.219614e+00 -6.248460e+00 2.261429e+00 -2.952004e+00 -1.188309e+00 -2.711146e+00 -5.424466e+00 -6.663299e-01 2.211304e+00 1.276531e+00 8.533916e-01 -1.684707e-01 -1.978513e+00 -1.412493e+00 1.054028e+00 6.908792e-02 -1.214150e+00 3.684222e-01 -1.088794e+00 -7.205369e-02 2.571089e-01 1.046855e+00
<VARIANCE> 25
 6.304477e+01 4.049161e+01 2.803894e+01 9.153120e+01 4.772216e+01 7.200195e+01 4.112033e+01 4.427616e+01 2.834577e+01 4.810834e+01 2.785646e+01 2.041020e+01 4.374964e+00 4.392703e+00 2.971549e+00 4.486408e+00 3.754206e+00 7.009437e+00 3.018185e+00 5.114128e+00 4.528491e+00 5.065568e+00 2.939323e+00 2.081452e+00 2.804535e+00
<GCONST> 1.083803e+02
<STATE> 3
<MEAN> 25
 1.080090e+01 5.928120e+00 -4.303895e+00 -1.918628e+01 -9.482659e+00 9.898559e+00 -1.445556e+00 -1.539277e+01 8.162936e+00 -2.710365e+00 2.094231e+00 -1.551306e+00 -1.357898e+00 -1.834771e+00 -6.287233e-01 -7.064751e-02 1.460925e+00 -1.801842e+00 6.888247e-01 2.058133e-01 2.439321e+00 2.118382e+00 -3.969995e-01 -1.944772e+00 2.200639e+00
<VARIANCE> 25
 3.511146e+01 4.308516e+01 2.477944e+01 8.742689e+01 4.580907e+01 8.499506e+01 6.976178e+01 6.033114e+01 8.903693e+01 1.816524e+02 3.065418e+01 7.074355e+01 1.332049e+00 3.304015e+00 2.211609e+00 8.651749e+00 4.826535e+00 1.027863e+01 7.606216e+00 1.212563e+01 6.261132e+00 1.110480e+01 5.577726e+00 7.518115e+00 2.974587e+00
<GCONST> 1.168642e+02
<STATE> 4
<MEAN> 25
 7.269373e+00 -2.390394e-01 -8.658605e+00 -2.002331e+01 -7.056732e-01 7.575932e+00 5.695370e+00 -9.426358e+00 8.676679e+00 -1.609615e+00 1.492697e+00 -4.765996e+00 -3.576817e-01 -8.553346e-01 -5.111595e-01 1.490633e+00 7.671539e-01 -1.201116e+00 5.192420e-01 9.861014e-01 -1.030601e+00 6.955924e-01 -6.038250e-01 -8.109611e-01 2.272944e-01
<VARIANCE> 25
 3.336412e+01 3.607802e+01 2.425580e+01 1.002333e+02 1.291441e+02 9.461655e+01 6.709995e+01 4.617569e+01 5.901239e+01 6.745871e+01 4.548783e+01 5.783434e+01 6.782075e-01 1.225827e+00 1.268268e+00 3.128015e+00 2.867478e+00 3.370948e+00 3.183169e+00 3.392224e+00 2.627957e+00 3.540392e+00 1.663144e+00 2.846677e+00 1.233811e+00
<GCONST> 1.042867e+02
<TRANSP> 5
 0.000000e+00 1.000000e+00 0.000000e+00 0.000000e+00 0.000000e+00
 0.000000e+00 8.635605e-01 1.364395e-01 0.000000e+00 0.000000e+00
 0.000000e+00 0.000000e+00 7.043127e-01 2.956873e-01 0.000000e+00
 0.000000e+00 0.000000e+00 0.000000e+00 7.794341e-01 2.205659e-01
 0.000000e+00 0.000000e+00 0.000000e+00 0.000000e+00 0.000000e+00
<ENDHMM>
~h "y"
<BEGINHMM>
<NUMSTATES> 5
<STATE> 2
<MEAN> 25
 -2.120201e+00 -2.679227e+00 -2.597345e-02 3.117529e+00 4.119554e+00 3.147114e+00 9.798415e-01 3.074564e+00 -2.007974e+00 5.766790e-01 6.470788e-02 1.794129e+00 -2.317251e-02 1.728150e-02 -1.853031e-02 3.141417e-02 -9.197383e-03 6.572378e-02 -7.772349e-03 4.132893e-03 -1.996499e-02 2.891538e-02 -1.820536e-02 2.001105e-02 -8.534071e-02
<VARIANCE> 25
 3.391101e+00 3.970743e+00 5.341610e+00 9.646590e+00 1.086613e+01 1.721665e+01 1.407241e+01 1.590901e+01 1.288167e+01 1.395037e+01 1.126774e+01 1.042282e+01 1.119873e-01 2.430176e-01 3.824761e-01 5.833659e-01 8.424358e-01 1.048659e+00 1.093428e+00 1.340254e+00 1.334333e+00 1.241150e+00 1.132062e+00 1.064626e+00 4.458313e-02
<GCONST> 6.582399e+01
<STATE> 3
<MEAN> 25
 -2.735745e+00 -1.777202e+00 -1.224754e-01 4.272862e+00 2.175232e+00 3.436347e+00 -4.307771e-01 2.571766e+00 -2.053715e+00 1.226653e+00 -1.240511e+00 1.062277e+00 3.772289e-01 1.525266e+00 8.637474e-01 -1.994580e-01 -4.531999e-01 -1.297850e+00 -8.964055e-01 -1.215246e+00 -7.942583e-01 -3.074997e-01 -6.544278e-01 -1.094896e+00 1.652705e+00
<VARIANCE> 25
 5.724556e+00 8.768486e+00 2.156636e+01 2.231332e+01 3.759996e+01 2.742185e+01 3.052145e+01 2.969936e+01 1.604534e+01 2.545569e+01 1.656135e+01 1.112723e+01 3.769818e+00 4.015307e+00 3.108746e+00 1.494940e+00 1.959160e+00 3.644949e+00 4.768250e+00 3.308060e+00 1.045286e+01 4.341326e+00 1.683160e+00 1.585424e+00 3.251435e+00
<GCONST> 9.596923e+01
<STATE> 4
<MEAN> 25
 -2.828317e+00 7.293784e+00 9.477069e+00 -1.715773e-02 -7.836764e+00 -6.017423e+00 -3.477936e+00 -1.649042e+00 -7.149174e+00 -6.763471e-01 -2.135293e+00 -3.112292e+00 -2.285383e-01 -2.803597e-01 -7.340229e-02 -6.745830e-01 -1.391635e+00 -1.271653e+00 2.896217e-02 -2.809216e-02 8.070831e-01 4.705916e-02 -2.001353e-01 -3.240696e-01 3.014462e+00
<VARIANCE> 25
 2.284344e+01 1.025196e+02 5.777727e+01 4.090726e+01 8.364120e+01 4.564328e+01 4.765000e+01 2.879842e+01 7.878638e+01 4.090676e+01 1.844302e+01 3.778714e+01 3.376054e+00 1.064643e+01 6.422839e+00 3.729345e+00 5.901066e+00 8.127290e+00 7.811930e+00 4.486621e+00 6.669599e+00 4.441567e+00 2.309251e+00 4.453147e+00 6.211490e+00
<GCONST> 1.133005e+02
<TRANSP> 5
 0.000000e+00 1.000000e+00 0.000000e+00 0.000000e+00 0.000000e+00
 0.000000e+00 9.730042e-01 2.699582e-02 0.000000e+00 0.000000e+00
 0.000000e+00 0.000000e+00 2.020475e-01 7.979525e-01 0.000000e+00
 0.000000e+00 0.000000e+00 0.000000e+00 8.032853e-01 1.967147e-01
 0.000000e+00 0.000000e+00 0.000000e+00 0.000000e+00 0.000000e+00
<ENDHMM>
~h "z"
<BEGINHMM>
<NUMSTATES> 5
<STATE> 2
<MEAN> 25
 1.891298e-01 7.640242e+00 -3.041178e+00 1.216612e-01 2.234849e+00 -5.401692e+00 8.790874e-01 8.522038e-01 7.747356e-01 5.080694e+00 -2.270961e+00 -9.129723e-01 -1.963767e+00 3.381648e+00 -7.515736e-01 2.123192e-01 9.401243e-01 -1.391722e+00 1.835103e-01 -7.197836e-02 2.858238e-01 -4.013484e-01 7.723418e-01 -4.165077e-01 1.276883e+00
<VARIANCE> 25
 9.379412e+01 1.115229e+02 2.690401e+01 7.841235e+01 6.134278e+01 6.808910e+01 4.347184e+01 4.063491e+01 2.937988e+01 4.559541e+01 4.938832e+01 2.526228e+01 7.747443e+00 9.033256e+00 2.630311e+00 4.236883e+00 4.547491e+00 4.195770e+00 3.081323e+00 5.742697e+00 3.049438e+00 3.666919e+00 3.211800e+00 2.673406e+00 3.788687e+00
<GCONST> 1.113773e+02
<STATE> 3
<MEAN> 25
 -1.470048e+01 1.822979e+01 -7.626318e+00 1.123416e-01 9.270772e+00 -7.154984e+00 5.704023e+00 2.366017e-01 7.569245e-01 1.611219e+00 1.045080e+00 1.560316e+00 3.126097e-02 -4.577382e-01 1.155311e-01 3.842970e-01 8.580617e-02 1.288293e-01 2.488635e-01 -4.198117e-01 3.789622e-02 -2.888635e-01 -9.518697e-02 1.919587e-01 -3.714700e-01
<VARIANCE> 25
 3.096362e+01 3.532130e+01 1.519919e+01 4.167926e+01 3.842385e+01 1.926970e+01 3.966279e+01 3.537102e+01 1.748508e+01 1.072910e+01 1.413765e+01 9.550364e+00 1.527348e+00 1.767107e+00 5.229868e-01 8.804590e-01 8.554471e-01 1.330480e+00 9.945561e-01 1.254864e+00 1.063734e+00 9.931980e-01 6.851678e-01 8.302582e-01 1.259457e+00
<GCONST> 8.367859e+01
<STATE> 4
<MEAN> 25
 -6.106593e+00 1.414587e+01 -1.127951e+00 9.976921e+00 1.335734e+00 -9.782295e+00 -3.220040e-01 -1.227997e+00 2.157122e+00 -3.438984e+00 -7.331910e+00 -1.337699e+00 4.239902e-01 -2.017267e+00 1.018672e+00 -3.054384e-01 -1.242149e+00 5.161112e-02 1.007472e-01 3.956397e-01 -6.761260e-01 -5.703272e-01 -1.321321e-01 -1.803148e-02 9.105656e-01
<VARIANCE> 25
 1.533891e+01 1.139257e+02 2.132876e+01 4.364663e+01 4.731781e+01 3.835730e+01 6.521749e+01 2.611804e+01 2.134633e+01 1.858529e+01 4.233689e+01 2.958335e+01 1.382595e+00 2.030775e+00 3.072901e+00 1.589197e+00 2.575194e+00 4.372506e+00 4.157287e+00 2.532714e+00 4.050282e+00 2.098023e+00 4.293199e+00 2.196742e+00 1.842588e+00
<GCONST> 1.006980e+02
<TRANSP> 5
 0.000000e+00 1.000000e+00 0.000000e+00 0.000000e+00 0.000000e+00
 0.000000e+00 7.474604e-01 2.525397e-01 0.000000e+00 0.000000e+00
 0.000000e+00 0.000000e+00 8.938816e-01 1.061184e-01 0.000000e+00
 0.000000e+00 0.000000e+00 0.000000e+00 7.512462e-01 2.487537e-01
 0.000000e+00 0.000000e+00 0.000000e+00 0.000000e+00 0.000000e+00
<ENDHMM>
~h "aa"
<BEGINHMM>
<NUMSTATES> 5
<STATE> 2
<MEAN> 25
 5.669790e+00 5.946446e+00 -2.674551e+00 -1.151818e+01 -1.143261e+00 7.574759e+00 -1.858224e+00 -7.310665e+00 7.198998e+00 -5.262215e+00 5.800980e-01 -2.659408e+00 8.792887e-01 -6.006690e-01 -1.887964e-01 -1.664885e+00 -5.731224e-02 7.572955e-01 6.840562e-01 -5.104667e-01 7.202136e-01 -4.209629e-01 -7.004164e-02 -6.193130e-01 1.973578e+00
<VARIANCE> 25
 5.677483e+01 5.205548e+01 3.685982e+01 1.614742e+02 3.858393e+01 1.162626e+02 7.925229e+01 6.032525e+01 8.178587e+01 7.658408e+01 4.255198e+01 6.046556e+01 7.209687e+00 4.204108e+00 2.534806e+00 7.041429e+00 4.717803e+00 7.160901e+00 6.317206e+00 4.450645e+00 4.116485e+00 4.194721e+00 3.958751e+00 4.807772e+00 5.532915e+00
<GCONST> 1.167616e+02
<STATE> 3
<MEAN> 25
 9.763610e+00 -1.714900e+00 -6.848768e+00 -1.644383e+01 7.037159e-01 7.035149e+00 9.227950e+00 -7.364277e+00 7.147933e+00 -1.064945e+00 -2.357856e+00 -5.398658e+00 1.222275e-01 1.325889e-02 2.712002e-01 8.695758e-01 -3.036560e-01 -4.038072e-01 -1.606472e-01 5.204634e-01 -5.671012e-01 8.194906e-01 -1.951294e-02 1.437610e-01 -1.022414e+00
<VARIANCE> 25
 1.601912e+01 3.481694e+01 3.764783e+01 7.831750e+01 4.544941e+01 6.562268e+01 4.595653e+01 5.456202e+01 3.442865e+01 4.568446e+01 6.581026e+01 1.120349e+02 1.058445e+00 1.151554e+00 1.740181e+00 2.577141e+00 1.769126e+00 2.771064e+00 3.477144e+00 3.031628e+00 2.299809e+00 2.296170e+00 2.693449e+00 2.217892e+00 1.307634e+00
<GCONST> 1.017169e+02
<STATE> 4
<MEAN> 25
 5.319029e+00 7.586212e-01 -2.566182e+00 -8.006850e+00 -5.754620e-01 2.520606e+00 3.792547e+00 1.060293e+00 5.438391e+00 2.250795e+00 -3.689988e+00 -1.533508e+00 -4.522215e-01 -2.626124e-01 2.211544e-01 9.119491e-01 3.035879e-01 -2.448198e-01 -2.443440e-01 2.827573e-01 -3.093598e-01 2.334670e-02 2.543276e-01 -2.157954e-01 -7.414448e-01
<VARIANCE> 25
 6.904967e+01 4.531981e+01 2.514930e+01 3.611393e+01 3.168638e+01 6.767531e+01 2.250136e+01 4.210238e+01 2.915808e+01 3.437464e+01 5.621959e+01 5.076728e+01 6.327068e+00 3.050385e+00 1.722722e+00 2.804937e+00 1.774866e+00 4.411484e+00 2.591611e+00 4.168950e+00 3.279921e+00 2.552159e+00 3.253629e+00 2.727606e+00 1.695502e+00
<GCONST> 1.040071e+02
<TRANSP> 5
 0.000000e+00 1.000000e+00 0.000000e+00 0.000000e+00 0.000000e+00
 0.000000e+00 8.749477e-01 1.250523e-01 0.000000e+00 0.000000e+00
 0.000000e+00 0.000000e+00 8.747851e-01 1.252149e-01 0.000000e+00
 0.000000e+00 0.000000e+00 0.000000e+00 7.898286e-01 2.101714e-01
 0.000000e+00 0.000000e+00 0.000000e+00 0.000000e+00 0.000000e+00
<ENDHMM>
~h "ae"
<BEGINHMM>
<NUMSTATES> 5
<STATE> 2
<MEAN> 25
 -8.153380e-01 -7.956058e-03 2.625483e-01 2.100480e+00 3.761532e+00 -2.080120e+00 1.893475e+00 2.551762e+00 6.839572e-01 -7.884269e-01 5.460290e-01 1.139786e+00 1.467639e-01 -1.051169e+00 -5.024294e-01 -4.748276e-01 9.437674e-02 -2.467752e-01 7.833775e-01 1.276187e-01 -1.752263e-01 -3.694415e-01 -7.985992e-01 -1.104389e-01 5.648438e-01
<VARIANCE> 25
 3.207926e+01 2.197544e+01 2.001136e+01 1.968998e+01 3.964016e+01 5.887814e+01 4.082092e+01 2.910843e+01 4.506513e+01 1.881357e+01 2.718683e+01 2.520048e+01 2.609389e+00 2.268296e+00 2.516245e+00 2.309197e+00 2.284316e+00 6.497664e+00 5.375323e+00 2.016420e+00 1.440887e+00 1.275525e+00 2.183231e+00 6.897719e-01 6.660004e+00
<GCONST> 9.812189e+01
<STATE> 3
<MEAN> 25
 3.202860e+00 -5.877584e+00 -5.185935e+00 -2.331720e+00 -1.154893e+00 -8.596371e+00 1.043370e+01 4.240432e+00 3.556585e+00 -4.231555e+00 -6.063914e+00 -2.531101e+00 3.937307e-01 -5.560931e-01 -1.417339e-01 -5.361333e-01 -2.336976e-01 -9.396514e-01 5.488478e-01 2.800229e-01 1.047916e-01 -4.178155e-02 -3.372651e-01 -3.620527e-01 1.773731e+00
<VARIANCE> 25
 3.278167e+01 3.272755e+01 3.528330e+01 2.430677e+01 3.718572e+01 6.006129e+01 7.952498e+01 3.689682e+01 2.623449e+01 3.935948e+01 4.228125e+01 3.284111e+01 2.205693e+00 3.483205e+00 2.469726e+00 3.213047e+00 2.565691e+00 5.226484e+00 6.766873e+00 1.988931e+00 1.802419e+00 1.916202e+00 4.179552e+00 1.835394e+00 1.782735e+01
<GCONST> 1.050141e+02
<STATE> 4
<MEAN> 25
 2.317262e+00 -3.736199e+00 -1.404409e+00 -1.882292e+00 1.567683e-01 -8.091437e+00 6.207300e+00 3.997889e+00 1.636258e+00 -6.831719e-01 -2.819726e+00 -4.842393e-01 -2.745991e-02 -2.553257e-01 -4.629282e-02 3.315653e-01 -6.050109e-02 4.892770e-01 -1.931675e-01 -7.845877e-02 -1.043358e-01 1.384248e-01 1.170371e-01 -1.174928e-01 -6.845511e-01
<VARIANCE> 25
 2.201491e+01 1.309656e+01 1.165329e+01 2.719462e+01 4.152280e+01 7.543132e+01 6.801337e+01 2.979115e+01 1.932216e+01 2.049536e+01 2.570830e+01 3.014713e+01 6.226450e-01 8.090178e-01 6.512208e-01 8.423678e-01 1.621554e+00 1.445179e+00 1.228989e+00 1.387354e+00 1.390191e+00 1.885272e+00 1.295346e+00 1.267822e+00 1.343353e+00
<GCONST> 8.752113e+01
<TRANSP> 5
 0.000000e+00 1.000000e+00 0.000000e+00 0.000000e+00 0.000000e+00
 0.000000e+00 1.613438e-01 8.386562e-01 0.000000e+00 0.000000e+00
 0.000000e+00 0.000000e+00 7.626539e-01 2.373461e-01 0.000000e+00
 0.000000e+00 0.000000e+00 0.000000e+00 3.643269e-01 6.356731e-01
 0.000000e+00 0.000000e+00 0.000000e+00 0.000000e+00 0.000000e+00
<ENDHMM>
~h "ah"
<BEGINHMM>
<NUMSTATES> 5
<STATE> 2
<MEAN> 25
 1.275590e+00 -6.966527e-01 -1.467419e+00 -2.095855e+00 -1.842834e+00 -4.220262e+00 5.811641e-01 1.042012e+00 2.755827e+00 1.538494e+00 -3.695465e+00 -2.464436e+00 8.451639e-01 -4.278818e-01 -4.572791e-01 -7.603177e-01 1.606920e-01 -5.719863e-01 -1.034757e-01 -2.588366e-01 9.615765e-01 5.898322e-01 -8.723810e-01 -9.903754e-01 1.778124e+00
<VARIANCE> 25
 5.965792e+01 3.799924e+01 3.517651e+01 5.335771e+01 4.929299e+01 7.997904e+01 6.164318e+01 4.249834e+01 5.198130e+01 3.483716e+01 4.810938e+01 4.003159e+01 6.493043e+00 2.478912e+00 3.599553e+00 5.761806e+00 4.994079e+00 7.057058e+00 5.638853e+00 4.277655e+00 5.524211e+00 4.406430e+00 5.004741e+00 3.229772e+00 1.104834e+01
<GCONST> 1.133588e+02
<STATE> 3
<MEAN> 25
 7.199099e+00 -9.303896e-01 -4.242253e+00 -4.513111e+00 -1.594845e+00 -7.819358e+00 -1.233644e-01 -8.627450e-01 5.413227e+00 4.398442e+00 -6.185286e+00 -6.088491e+00 2.985343e-01 4.561141e-01 2.801489e-01 2.491021e-01 1.279574e-01 2.106527e-01 -1.158132e-01 -1.090209e-01 -2.513191e-02 5.677713e-02 1.418809e-01 2.128529e-01 -9.484710e-01
<VARIANCE> 25
 3.402143e+01 3.569118e+01 4.192698e+01 4.412280e+01 5.722064e+01 1.068523e+02 7.399787e+01 5.594882e+01 4.299667e+01 4.093156e+01 5.157796e+01 4.309961e+01 1.272041e+00 1.253594e+00 2.335793e+00 2.303007e+00 2.812023e+00 4.440960e+00 3.184445e+00 3.344545e+00 2.718674e+00 2.412776e+00 3.521921e+00 2.280246e+00 1.987752e+00
<GCONST> 1.044890e+02
<STATE> 4
<MEAN> 25
 5.047785e+00 1.525312e+00 1.597643e+00 -1.241490e+00 -2.151362e-01 -3.853522e+00 8.257385e-01 -1.840414e-01 1.696218e+00 1.516574e+00 -1.980872e+00 -4.926223e-01 -2.939064e-01 -1.283644e-01 2.876300e-01 1.965390e-01 2.725874e-01 5.421377e-01 -1.588463e-02 2.290637e-01 -2.446981e-01 -2.779995e-01 5.380507e-01 3.981437e-01 -9.633129e-01
<VARIANCE> 25
 5.509792e+01 3.686513e+01 4.175515e+01 4.878598e+01 4.646395e+01 4.956433e+01 4.967456e+01 4.716122e+01 4.586677e+01 2.927864e+01 3.504109e+01 3.199430e+01 1.701251e+00 1.356098e+00 1.731032e+00 1.878700e+00 1.765379e+00 2.303503e+00 2.393245e+00 3.315381e+00 2.548529e+00 2.026326e+00 2.948259e+00 1.783563e+00 6.503165e-01
<GCONST> 9.926883e+01
<TRANSP> 5
 0.000000e+00 1.000000e+00 0.000000e+00 0.000000e+00 0.000000e+00
 0.000000e+00 4.960722e-01 5.039278e-01 0.000000e+00 0.000000e+00
 0.000000e+00 0.000000e+00 7.376242e-01 2.623758e-01 0.000000e+00
 0.000000e+00 0.000000e+00 0.000000e+00 6.300479e-01 3.699522e-01
 0.000000e+00 0.000000e+00 0.000000e+00 0.000000e+00 0.000000e+00
<ENDHMM>
~h "ao"
<BEGINHMM>
<NUMSTATES> 5
<STATE> 2
<MEAN> 25
 -3.394118e+00 7.395171e+00 -1.176046e+01 -1.317693e+01 -3.200734e+00 8.617998e+00 -2.335560e-01 3.766274e-02 1.877275e+00 -8.187487e+00 5.177636e+00 2.791010e-01 1.435298e+00 2.085142e+00 -4.892901e-02 -3.245534e+00 -1.894620e+00 1.130813e+00 6.860552e-01 -1.630714e+00 1.448787e+00 -1.922427e+00 -7.377433e-01 5.056413e-01 2.539391e+00
<VARIANCE> 25
 4.312480e+01 3.607757e+01 1.790815e+02 1.159380e+02 5.084489e+01 5.362156e+01 6.070523e+01 4.860643e+01 6.565522e+01 5.124062e+01 1.278021e+02 5.609048e+01 1.387020e+01 2.080460e+00 1.348143e+01 1.312831e+01 7.249891e+00 7.248105e+00 6.711191e+00 5.488506e+00 5.766465e+00 1.004621e+01 1.208453e+01 6.679967e+00 4.696493e+00
<GCONST> 1.222402e+02
<STATE> 3
<MEAN> 25
 8.412346e+00 1.249332e+01 -3.772804e+00 -2.286990e+01 -1.523486e+01 1.410139e+01 7.940194e+00 -9.912489e+00 1.081918e+01 -9.851650e+00 -6.074755e+00 4.157300e+00 2.259687e+00 5.111479e-01 2.279505e-01 -2.628461e+00 -2.287580e+00 1.334896e+00 9.198591e-02 -1.545515e+00 1.943710e+00 -1.303764e+00 8.382814e-01 3.081620e-01 1.822827e+00
<VARIANCE> 25
 4.351218e+01 3.150633e+01 2.919627e+01 5.803537e+01 1.018360e+02 5.648741e+01 5.812234e+01 4.022672e+01 4.956482e+01 1.348902e+02 7.476056e+01 3.230623e+01 6.038162e+00 2.567087e+00 1.658285e+00 9.120384e+00 7.549717e+00 6.081983e+00 3.032928e+00 3.060898e+00 8.520492e+00 6.071295e+00 5.505887e+00 3.615779e+00 4.009989e+00
<GCONST> 1.134552e+02
<STATE> 4
<MEAN> 25
 1.021960e+01 1.326424e+01 -5.138019e+00 -2.737277e+01 -1.568394e+01 5.896579e+00 2.558565e+00 -7.243029e+00 1.664381e+01 -1.665027e+01 2.631691e+00 4.255242e+00 7.279381e-02 -5.429531e-01 -3.871380e-03 5.495559e-01 1.433029e-01 -7.303519e-01 1.691290e-01 3.297848e-01 -4.209055e-01 7.770800e-01 1.608938e-01 -1.615009e-01 -4.490558e-01
<VARIANCE> 25
 1.225385e+01 3.027402e+01 1.715881e+01 6.197578e+01 3.621343e+01 1.036643e+02 3.230937e+01 5.132642e+01 6.114290e+01 6.256909e+01 2.913016e+01 2.880891e+01 4.533517e-01 1.068572e+00 9.828051e-01 2.841135e+00 1.934897e+00 1.690191e+00 1.609511e+00 2.262992e+00 2.762112e+00 3.018864e+00 1.715145e+00 1.751936e+00 6.403387e-01
<GCONST> 9.501336e+01
<TRANSP> 5
 0.000000e+00 1.000000e+00 0.000000e+00 0.000000e+00 0.000000e+00
 0.000000e+00 7.522728e-01 2.477271e-01 0.000000e+00 0.000000e+00
 0.000000e+00 0.000000e+00 6.748342e-01 3.251657e-01 0.000000e+00
 0.000000e+00 0.000000e+00 0.000000e+00 9.380623e-01 6.193773e-02
 0.000000e+00 0.000000e+00 0.000000e+00 0.000000e+00 0.000000e+00
<ENDHMM>
~h "aw"
<BEGINHMM>
<NUMSTATES> 5
<STATE> 2
<MEAN> 25
 5.938022e+00 2.170298e+00 -4.864485e+00 -1.120815e+01 1.091995e+00 5.456323e+00 -3.239018e-01 -4.440024e+00 8.330384e+00 2.058262e+00 -1.380064e+00 -7.334088e+00 1.621451e-01 -1.884178e-01 -4.819378e-01 -4.137683e-01 2.696734e-01 2.240511e-01 3.930973e-01 -3.005008e-01 2.786532e-01 -3.931761e-02 -2.409107e-01 -3.430794e-01 1.277703e+00
<VARIANCE> 25
 3.770974e+01 5.252514e+01 2.748623e+01 7.636303e+01 4.581845e+01 5.822960e+01 6.430908e+01 5.835405e+01 3.850698e+01 5.427081e+01 4.794056e+01 3.636335e+01 3.865775e+00 3.155732e+00 2.707998e+00 4.779042e+00 4.099545e+00 4.387140e+00 4.987238e+00 6.131692e+00 5.490031e+00 4.280494e+00 4.177342e+00 4.236085e+00 8.725491e+00
<GCONST> 1.119833e+02
<STATE> 3
<MEAN> 25
 6.848267e+00 -3.399304e+00 -1.111904e+01 -1.161358e+01 4.632297e+00 3.700620e+00 6.316331e+00 -3.482967e+00 1.620410e+00 5.975385e+00 -4.542728e+00 -9.155890e+00 3.521902e-01 3.716048e-01 -1.619476e-01 -2.195469e-02 -2.876346e-01 -2.477821e-01 7.093668e-02 2.003300e-01 -4.476392e-01 6.890597e-01 2.986432e-01 4.237316e-01 -1.169363e+00
<VARIANCE> 25
 3.496751e+01 2.360593e+01 3.371414e+01 6.287412e+01 4.722927e+01 2.978172e+01 5.086746e+01 5.107593e+01 3.571409e+01 5.389314e+01 4.342136e+01 2.657338e+01 6.326942e-01 1.276331e+00 1.359912e+00 2.747293e+00 1.873704e+00 1.866320e+00 1.791187e+00 2.653771e+00 1.592268e+00 1.735226e+00 2.398315e+00 2.096240e+00 5.508928e-01
<GCONST> 9.599673e+01
<STATE> 4
<MEAN> 25
 3.770366e+00 2.512003e+00 -6.804260e+00 -6.498511e+00 1.876471e+00 4.662669e-01 3.923865e+00 2.361809e+00 9.587002e-01 5.190887e+00 4.402687e-01 -1.926139e+00 -9.872668e-01 1.652140e-02 8.359343e-01 4.046102e-01 5.640911e-02 -1.416203e-01 3.854818e-02 6.342941e-01 3.007326e-01 -1.125718e+00 3.953255e-01 3.855093e-01 -9.776946e-01
<VARIANCE> 25
 9.359936e+01 3.932469e+01 5.236242e+01 2.954663e+01 3.146949e+01 2.546856e+01 1.719091e+01 3.115730e+01 3.248821e+01 4.500882e+01 1.531362e+01 1.525291e+01 4.481541e+00 3.158579e+00 2.561368e+00 2.201650e+00 1.843822e+00 3.012141e+00 1.927560e+00 2.086237e+00 1.831354e+00 2.278291e+00 1.674068e+00 1.862243e+00 1.068017e+00
<GCONST> 9.733039e+01
<TRANSP> 5
 0.000000e+00 1.000000e+00 0.000000e+00 0.000000e+00 0.000000e+00
 0.000000e+00 9.282346e-01 7.176535e-02 0.000000e+00 0.000000e+00
 0.000000e+00 0.000000e+00 9.205698e-01 7.943023e-02 0.000000e+00
 0.000000e+00 0.000000e+00 0.000000e+00 8.430818e-01 1.569182e-01
 0.000000e+00 0.000000e+00 0.000000e+00 0.000000e+00 0.000000e+00
<ENDHMM>
~h "ay"
<BEGINHMM>
<NUMSTATES> 5
<STATE> 2
<MEAN> 25
 -2.593846e+00 3.790126e+00 -3.588485e-01 3.225172e+00 4.987986e-01 2.443016e+00 -2.609039e+00 -2.147472e+00 1.421159e+00 -1.220513e+00 -1.428316e+00 2.502215e-01 2.285595e+00 6.413598e-01 -4.597595e-01 -1.389802e+00 -8.695827e-01 -2.284523e-01 1.639067e-01 -2.048610e+00 9.289812e-01 -9.492729e-01 -3.898992e-01 -5.162022e-01 3.264870e+00
<VARIANCE> 25
 1.458350e+02 5.118251e+01 7.693087e+01 6.855341e+01 3.174183e+01 2.861868e+01 3.801903e+01 5.213734e+01 8.229716e+01 3.555454e+01 3.169391e+01 2.329798e+01 1.256702e+01 6.698372e+00 7.616898e+00 8.352894e+00 3.794005e+00 5.558560e+00 4.795637e+00 6.208455e+00 9.053634e+00 5.007389e+00 5.164009e+00 4.142038e+00 8.488246e+00
<GCONST> 1.164688e+02
<STATE> 3
<MEAN> 25
 1.048045e+01 2.337611e+00 -5.866555e+00 -1.124021e+01 -5.265085e+00 4.403889e+00 1.221991e+00 -1.099021e+01 9.594357e+00 -6.266542e+00 -1.654078e+00 -2.831464e+00 -1.463751e-01 -1.403932e+00 -3.230636e-01 -1.288169e+00 9.123777e-01 2.415786e-02 1.227143e+00 2.770706e-01 3.713251e-01 3.581913e-01 -2.814548e-01 -1.290412e+00 1.671490e+00
<VARIANCE> 25
 2.473004e+01 9.408994e+01 9.869398e+01 1.703778e+02 7.704831e+01 7.488134e+01 9.513750e+01 7.584441e+01 9.148237e+01 8.529209e+01 5.540543e+01 7.951395e+01 4.294201e+00 1.822611e+00 3.159995e+00 4.248794e+00 5.300110e+00 6.109065e+00 7.981222e+00 7.442188e+00 5.551140e+00 3.442526e+00 3.519542e+00 4.051943e+00 4.001086e+00
<GCONST> 1.175372e+02
<STATE> 4
<MEAN> 25
 6.230465e+00 -6.206794e+00 -5.783858e+00 -7.910016e+00 9.074826e-01 -4.369091e+00 7.116535e+00 -3.277382e+00 6.051030e+00 -7.427359e-01 -2.537186e+00 -8.496618e+00 9.010759e-02 2.009299e-01 3.139672e-01 4.072863e-01 -4.020611e-01 -5.427927e-01 -2.202510e-01 4.920220e-01 -2.757319e-01 1.437213e-01 8.103947e-02 3.685468e-01 -7.823973e-01
<VARIANCE> 25
 1.046536e+01 2.743689e+01 4.939806e+01 4.078164e+01 9.002201e+01 1.121341e+02 3.245159e+01 6.904710e+01 3.371315e+01 4.159820e+01 3.445284e+01 3.616363e+01 5.974404e-01 8.802096e-01 1.673917e+00 1.663001e+00 3.234169e+00 3.679857e+00 2.185280e+00 3.347323e+00 2.172283e+00 2.662190e+00 1.988423e+00 2.072692e+00 9.222711e-01
<GCONST> 9.846076e+01
<TRANSP> 5
 0.000000e+00 1.000000e+00 0.000000e+00 0.000000e+00 0.000000e+00
 0.000000e+00 7.790549e-01 2.209451e-01 0.000000e+00 0.000000e+00
 0.000000e+00 0.000000e+00 8.480841e-01 1.519159e-01 0.000000e+00
 0.000000e+00 0.000000e+00 0.000000e+00 9.481899e-01 5.181010e-02
 0.000000e+00 0.000000e+00 0.000000e+00 0.000000e+00 0.000000e+00
<ENDHMM>
~h "ch"
<BEGINHMM>
<NUMSTATES> 5
<STATE> 2
<MEAN> 25
 -6.717150e+00 -9.058986e-01 1.720786e+00 9.358638e+00 2.133330e+00 2.245983e+00 -3.669100e+00 3.604390e+00 2.615905e+00 -2.798272e+00 -1.634994e+00 4.935996e+00 7.969899e-01 -4.622133e-01 -6.900077e-02 -2.645774e-01 -2.969946e-01 6.297116e-01 -5.424431e-01 -3.043245e-01 3.097974e-01 -3.412180e-01 1.840388e-01 2.594064e-01 -3.411442e-01
<VARIANCE> 25
 4.294324e+01 2.594653e+01 5.811255e+01 3.869424e+01 3.265941e+01 3.774455e+01 4.241222e+01 1.390191e+01 4.693190e+01 2.896433e+01 2.565596e+01 2.494705e+01 1.674291e+00 4.380013e+00 1.054544e+01 6.263042e+00 5.328912e+00 5.739065e+00 3.282686e+00 9.971038e-01 7.514302e+00 3.621735e+00 1.757484e+00 2.092938e+00 8.103872e-01
<GCONST> 1.030386e+02
<STATE> 3
<MEAN> 25
 2.387555e-01 -4.392521e+00 1.622306e+00 5.301190e+00 4.167655e+00 3.208428e+00 5.761540e-01 2.848302e+00 -2.420136e+00 2.010497e+00 8.448586e-01 2.352336e+00 -1.729566e-02 -5.160404e-02 2.655619e-02 5.097470e-02 -3.508078e-02 1.557791e-01 -2.479942e-02 1.809046e-01 3.816910e-02 1.038202e-01 -9.708625e-02 -5.688334e-02 -1.366518e-01
<VARIANCE> 25
 1.695197e+00 1.095681e+01 3.008345e+00 5.223798e+00 6.382378e+00 8.726936e+00 1.086767e+01 1.520231e+01 1.024840e+01 1.280633e+01 1.176311e+01 1.413061e+01 3.073054e-01 2.576683e-01 4.300667e-01 5.320606e-01 9.388757e-01 7.522449e-01 1.255453e+00 1.287783e+00 1.299292e+00 9.036102e-01 1.227942e+00 8.144939e-01 3.985192e-02
<GCONST> 6.380074e+01
<STATE> 4
<MEAN> 25
 -9.705669e+00 1.509501e+00 2.550343e+00 6.390851e-01 -5.687388e+00 -4.107113e-01 -1.171210e+00 3.924744e-01 5.507196e+00 -4.439322e-01 -1.385105e+00 1.641163e+00 -4.991741e-01 7.536685e-02 -2.730307e-02 -7.502377e-02 -4.068861e-01 -4.853916e-01 -4.718837e-01 -5.378016e-01 6.884208e-01 -5.599826e-02 -2.463385e-01 -3.056403e-01 1.329732e+00
<VARIANCE> 25
 1.276307e+02 2.575090e+01 2.233421e+01 3.550944e+01 2.972576e+01 8.971130e+01 2.778382e+01 4.803610e+01 3.035203e+01 2.019223e+01 2.041603e+01 2.158278e+01 9.072073e+00 2.561538e+00 2.852374e+00 4.319981e+00 4.403872e+00 6.593259e+00 2.500846e+00 4.546804e+00 3.842586e+00 2.621044e+00 3.393399e+00 2.229329e+00 8.643678e+00
<GCONST> 1.062587e+02
<TRANSP> 5
 0.000000e+00 1.000000e+00 0.000000e+00 0.000000e+00 0.000000e+00
 0.000000e+00 7.232360e-01 2.767639e-01 0.000000e+00 0.000000e+00
 0.000000e+00 0.000000e+00 9.265947e-01 7.340531e-02 0.000000e+00
 0.000000e+00 0.000000e+00 0.000000e+00 8.991461e-01 1.008539e-01
 0.000000e+00 0.000000e+00 0.000000e+00 0.000000e+00 0.000000e+00
<ENDHMM>
~h "dh"
<BEGINHMM>
<NUMSTATES> 5
<STATE> 2
<MEAN> 25
 3.137105e+00 2.861308e+00 -1.175082e+00 -1.624424e+00 -7.007757e+00 -9.821621e+00 -4.906414e+00 -4.494032e+00 9.413591e+00 -8.796819e-01 -8.432821e+00 -6.004153e+00 1.193792e+00 -1.310745e+00 6.255943e-02 -7.261727e-01 -3.304548e-01 -8.459021e-02 -4.437130e-01 -3.315596e-01 5.377853e-01 4.943404e-01 7.754667e-02 -9.376260e-01 5.729327e-01
<VARIANCE> 25
 3.416792e+01 3.139969e+01 2.288019e+01 2.773874e+01 4.091912e+01 3.010927e+01 6.217212e+01 6.564452e+01 2.850865e+01 2.632566e+01 3.203501e+01 3.575659e+01 2.811584e+00 2.285219e+00 2.228487e+00 3.067311e+00 3.229130e+00 2.282861e+00 4.109206e+00 6.076649e+00 2.667439e+00 3.253798e+00 3.340575e+00 3.449136e+00 3.228316e+00
<GCONST> 1.032478e+02
<STATE> 3
<MEAN> 25
 1.091946e+01 -4.316777e+00 -1.519254e+00 -2.001430e-01 -9.674882e+00 -9.681077e+00 -6.395301e+00 1.056048e+00 9.122276e+00 7.374573e+00 -5.921096e+00 -3.461786e+00 -4.016854e-01 1.851835e-01 -5.761783e-02 -3.646414e-02 8.095590e-01 4.616224e-01 -4.257677e-03 5.391501e-01 -5.917920e-01 1.979327e-01 6.242942e-01 5.292939e-01 -1.265519e+00
<VARIANCE> 25
 1.868572e+01 1.928535e+01 1.065358e+01 5.061995e+01 2.941143e+01 5.833141e+01 3.971316e+01 7.167174e+01 2.127176e+01 2.174533e+01 3.113106e+01 4.922773e+01 1.540288e+00 1.376066e+00 8.732267e-01 2.206906e+00 8.276618e-01 2.538837e+00 1.960700e+00 3.641432e+00 1.517369e+00 2.535970e+00 2.134402e+00 2.132328e+00 3.642175e-01
<GCONST> 9.296543e+01
<STATE> 4
<MEAN> 25
 5.390838e+00 -2.770042e+00 -3.239063e+00 -6.903535e+00 4.236040e-01 -7.473263e+00 -1.298932e+00 -2.498229e+00 4.101706e+00 5.014810e+00 -4.005963e+00 -1.198216e+01 -8.975177e-02 1.354872e-01 1.077787e-01 5.509363e-02 3.384927e-01 2.268809e-01 4.312926e-01 -3.363854e-01 -4.975090e-01 -5.090987e-02 1.287702e-01 4.549060e-01 -8.434795e-01
<VARIANCE> 25
 2.194821e+01 1.998540e+01 3.738655e+01 5.862677e+01 2.655741e+01 3.060275e+01 2.194284e+01 3.659403e+01 4.730961e+01 3.464167e+01 6.531728e+01 6.691262e+01 1.186042e+00 1.446267e+00 1.413597e+00 2.310925e+00 1.811615e+00 3.929712e+00 2.197281e+00 3.356508e+00 2.415658e+00 2.222783e+00 3.374367e+00 4.479872e+00 1.224749e+00
<GCONST> 9.917983e+01
<TRANSP> 5
 0.000000e+00 1.000000e+00 0.000000e+00 0.000000e+00 0.000000e+00
 0.000000e+00 8.698001e-01 1.301999e-01 0.000000e+00 0.000000e+00
 0.000000e+00 0.000000e+00 8.751148e-01 1.248852e-01 0.000000e+00
 0.000000e+00 0.000000e+00 0.000000e+00 8.719866e-01 1.280134e-01
 0.000000e+00 0.000000e+00 0.000000e+00 0.000000e+00 0.000000e+00
<ENDHMM>
~h "eh"
<BEGINHMM>
<NUMSTATES> 5
<STATE> 2
<MEAN> 25
 3.095979e+00 8.274593e-01 1.863631e+00 -1.993293e+00 -3.429884e+00 -8.794549e+00 1.080617e+00 9.646055e-01 1.517033e+00 -2.104283e+00 -5.583391e+00 -2.221475e+00 5.092809e-01 -1.146876e+00 -6.316958e-02 -8.958252e-01 -7.167152e-01 -1.613420e+00 1.178577e+00 1.055544e+00 6.539320e-01 -1.587889e-01 -5.852920e-01 -5.171531e-01 2.737345e+00
<VARIANCE> 25
 4.727018e+01 5.215098e+01 5.102615e+01 4.961217e+01 6.845213e+01 6.483549e+01 7.297749e+01 4.151270e+01 4.159167e+01 3.014460e+01 5.524454e+01 4.492290e+01 5.086934e+00 4.383397e+00 4.765625e+00 2.660242e+00 4.095702e+00 6.504981e+00 6.160284e+00 4.712664e+00 3.288082e+00 3.389645e+00 5.682779e+00 2.956051e+00 7.329859e+00
<GCONST> 1.124778e+02
<STATE> 3
<MEAN> 25
 3.708993e+00 -3.571031e+00 -4.392715e+00 -4.625405e+00 -4.965808e+00 -1.177018e+01 8.138251e+00 3.868471e+00 7.583474e+00 -1.340116e+00 -5.522884e+00 -5.852673e+00 1.165349e-02 2.138409e-01 2.568357e-02 1.115681e-01 1.806171e-02 5.134552e-02 -4.246362e-02 4.066929e-03 1.138423e-02 1.981587e-01 -4.985880e-02 2.019993e-01 -7.038343e-01
<VARIANCE> 25
 3.811404e+01 1.950208e+01 3.589887e+01 2.356610e+01 2.697867e+01 5.383966e+01 5.929805e+01 3.634328e+01 2.767555e+01 2.694737e+01 4.050323e+01 3.212815e+01 1.933004e+00 1.117146e+00 2.040601e+00 1.435077e+00 1.814783e+00 2.492205e+00 3.161828e+00 2.831082e+00 1.660383e+00 2.018687e+00 1.700600e+00 1.650465e+00 1.314805e+00
<GCONST> 9.610123e+01
<STATE> 4
<MEAN> 25
 4.303939e+00 6.126317e-01 1.244933e+00 -2.032398e+00 -6.363959e+00 -1.052568e+01 2.258197e+00 1.883412e+00 4.257612e+00 1.908662e+00 -3.371771e+00 -1.597771e+00 -1.071614e-01 2.389114e-01 1.512269e-01 4.344372e-01 3.501147e-01 4.668338e-01 -5.977512e-01 -3.835443e-01 -1.246284e-01 1.727580e-02 4.162056e-01 1.743379e-01 -1.028174e+00
<VARIANCE> 25
 3.075730e+01 2.247914e+01 3.169606e+01 2.885527e+01 2.739207e+01 5.196759e+01 3.254208e+01 4.932364e+01 5.411271e+01 3.085047e+01 2.504733e+01 2.531619e+01 2.340653e+00 2.016022e+00 1.799240e+00 1.621137e+00 1.617942e+00 2.881016e+00 2.775179e+00 2.746954e+00 2.834722e+00 2.642001e+00 2.002149e+00 1.509160e+00 1.452939e+00
<GCONST> 9.750377e+01
<TRANSP> 5
 0.000000e+00 1.000000e+00 0.000000e+00 0.000000e+00 0.000000e+00
 0.000000e+00 7.374877e-01 2.625122e-01 0.000000e+00 0.000000e+00
 0.000000e+00 0.000000e+00 8.900777e-01 1.099223e-01 0.000000e+00
 0.000000e+00 0.000000e+00 0.000000e+00 7.590558e-01 2.409442e-01
 0.000000e+00 0.000000e+00 0.000000e+00 0.000000e+00 0.000000e+00
<ENDHMM>
~h "er"
<BEGINHMM>
<NUMSTATES> 5
<STATE> 2
<MEAN> 25
 -3.226392e+00 -3.605589e+00 -9.542526e-01 1.659281e+00 3.959328e+00 2.107207e+00 -5.142178e-01 1.648149e+00 -1.740556e+00 -7.136552e-01 5.577218e-01 1.416857e+00 -1.011999e-01 -4.260167e-02 -9.855714e-03 5.955359e-02 4.804467e-02 1.787404e-01 3.251800e-02 -1.146967e-02 -1.613859e-01 -1.145550e-01 -8.401612e-03 -3.134457e-02 -1.693558e-01
<VARIANCE> 25
 7.490699e+00 4.901825e+00 6.019750e+00 7.571460e+00 1.382848e+01 1.414334e+01 1.260783e+01 1.627309e+01 2.111456e+01 1.667259e+01 1.086352e+01 1.351873e+01 2.179257e-01 2.668195e-01 4.947398e-01 5.758347e-01 1.007879e+00 1.164239e+00 1.257759e+00 1.588426e+00 1.760316e+00 1.450517e+00 9.599708e-01 1.297460e+00 9.156872e-02
<GCONST> 7.034051e+01
<STATE> 3
<MEAN> 25
 -1.785505e+00 -1.323109e+00 -1.747102e+00 1.861341e+00 8.564059e-01 1.227902e+00 -9.692373e-01 1.842555e+00 -1.751792e-01 -2.233502e-01 4.586858e-01 1.439591e+00 4.833979e-02 -1.734073e-02 2.417894e-01 1.869525e-01 -4.107586e-02 5.916640e-01 2.105636e-01 -9.669226e-02 -5.269478e-01 -8.221135e-01 -3.621935e-01 -3.879501e-01 -2.213404e-01
<VARIANCE> 25
 3.235840e+01 1.228896e+01 9.514559e+00 2.840457e+01 4.024737e+01 3.768745e+01 3.885804e+01 2.680566e+01 4.438850e+01 1.926502e+01 2.355409e+01 1.782756e+01 1.478028e+00 8.095378e-01 1.512465e+00 1.298485e+00 1.473943e+00 1.640416e+00 1.676910e+00 1.524439e+00 2.452042e+00 2.530635e+00 1.245398e+00 1.322769e+00 3.167066e-01
<GCONST> 8.844670e+01
<STATE> 4
<MEAN> 25
 -1.342266e+00 -1.907871e+00 -2.070008e+00 2.977705e-02 -1.148352e+00 1.886434e+00 -1.036818e+00 2.448557e+00 -2.379698e+00 -1.380451e+00 -3.777103e-01 -7.830352e-02 2.358595e-01 2.773299e-02 1.103964e-01 -1.902675e-01 -1.351283e-01 1.563650e-01 1.333750e-01 1.167766e-01 -1.057371e-01 1.098045e-02 -1.489554e-01 -2.608406e-01 2.856699e-02
<VARIANCE> 25
 1.293953e+01 8.671310e+00 1.302088e+01 2.443297e+01 2.931388e+01 2.640617e+01 1.866094e+01 1.710842e+01 3.064975e+01 1.587643e+01 2.372458e+01 1.605935e+01 1.478694e+00 6.674691e-01 1.407236e+00 2.376719e+00 2.593385e+00 3.212053e+00 1.517512e+00 2.177311e+00 2.061703e+00 2.451987e+00 1.680872e+00 1.511501e+00 4.535857e-01
<GCONST> 8.724921e+01
<TRANSP> 5
 0.000000e+00 1.000000e+00 0.000000e+00 0.000000e+00 0.000000e+00
 0.000000e+00 9.205154e-01 7.948462e-02 0.000000e+00 0.000000e+00
 0.000000e+00 0.000000e+00 1.131035e-01 8.868965e-01 0.000000e+00
 0.000000e+00 0.000000e+00 0.000000e+00 5.572806e-01 4.427195e-01
 0.000000e+00 0.000000e+00 0.000000e+00 0.000000e+00 0.000000e+00
<ENDHMM>
~h "ey"
<BEGINHMM>
<NUMSTATES> 5
<STATE> 2
<MEAN> 25
 1.591268e+00 4.998947e-01 7.957899e+00 -4.945448e+00 -1.302613e+01 -9.803357e+00 3.889841e+00 -9.805220e-02 -6.532977e-01 1.482695e+00 6.731929e-01 -1.357129e+00 -6.800938e-02 5.807857e-01 8.052801e-01 -2.307126e-01 -6.220342e-01 -3.955599e-01 2.220105e-01 -7.560723e-01 -4.750092e-01 1.658884e-01 5.777958e-02 1.533365e-01 5.770013e-01
<VARIANCE> 25
 1.620993e+01 1.864995e+01 3.585612e+01 2.650518e+01 4.279207e+01 4.919451e+01 5.857562e+01 2.305136e+01 3.461695e+01 3.060018e+01 2.692370e+01 2.294228e+01 8.784212e-01 1.141805e+00 1.813993e+00 1.660808e+00 2.511431e+00 3.298811e+00 4.395047e+00 2.037384e+00 2.868744e+00 2.415614e+00 2.632649e+00 1.810976e+00 7.117222e+00
<GCONST> 9.763933e+01
<STATE> 3
<MEAN> 25
 -5.191493e-01 5.203522e+00 9.982453e+00 1.880794e+00 -1.190054e+01 -8.133271e+00 8.046300e-01 -2.565558e+00 1.084105e+00 -2.419150e+00 -1.434042e+00 -9.003845e-02 3.775184e-01 -1.385899e-02 -2.780335e-01 1.267164e-01 3.409323e-01 -9.327318e-02 -1.009736e-02 1.528803e-01 3.189772e-01 1.749101e-02 -2.961403e-01 1.060382e-01 -5.021667e-01
<VARIANCE> 25
 1.026657e+02 3.707915e+01 6.081055e+01 3.549664e+01 4.275214e+01 5.063371e+01 4.997044e+01 3.600790e+01 4.558718e+01 3.413298e+01 2.979216e+01 2.558126e+01 5.735181e+00 2.675233e+00 3.249534e+00 1.884623e+00 2.207634e+00 3.459097e+00 3.800720e+00 2.539507e+00 2.896647e+00 2.505721e+00 1.791376e+00 2.318775e+00 1.667039e+00
<GCONST> 1.037901e+02
<STATE> 4
<MEAN> 25
 3.834800e+00 7.541602e+00 9.514423e+00 -3.777113e+00 -9.117740e+00 -6.414979e+00 1.128925e+00 -5.998654e+00 -4.028503e+00 3.918020e+00 -1.253073e+00 1.670629e+00 1.415627e-02 6.278225e-02 -2.972971e-01 5.633931e-01 9.696565e-01 3.345518e-01 -4.977552e-01 1.688801e-03 5.574093e-02 -1.141904e-01 3.997293e-01 9.955274e-02 -1.288857e+00
<VARIANCE> 25
 3.288620e+01 2.308426e+01 4.973190e+01 6.121746e+01 6.874088e+01 4.787564e+01 3.802800e+01 5.436851e+01 4.366066e+01 3.170860e+01 2.699204e+01 2.508315e+01 1.561063e+00 2.013217e+00 2.236158e+00 1.662426e+00 2.236948e+00 2.220629e+00 2.867512e+00 2.703417e+00 2.417666e+00 2.142630e+00 2.133072e+00 1.362053e+00 7.323260e-01
<GCONST> 9.859291e+01
<TRANSP> 5
 0.000000e+00 1.000000e+00 0.000000e+00 0.000000e+00 0.000000e+00
 0.000000e+00 8.677489e-01 1.322511e-01 0.000000e+00 0.000000e+00
 0.000000e+00 0.000000e+00 8.813575e-01 1.186425e-01 0.000000e+00
 0.000000e+00 0.000000e+00 0.000000e+00 8.717332e-01 1.282668e-01
 0.000000e+00 0.000000e+00 0.000000e+00 0.000000e+00 0.000000e+00
<ENDHMM>
~h "hh"
<BEGINHMM>
<NUMSTATES> 5
<STATE> 2
<MEAN> 25
 -6.294378e+00 -3.961931e+00 4.407199e-01 -2.303783e+00 7.308707e-01 3.612615e+00 4.682734e+00 1.600187e+00 2.415966e+00 -2.713908e+00 -2.472515e+00 2.060440e+00 -1.885191e-01 1.388499e-01 -1.221479e-01 -1.445183e+00 2.766086e-01 4.151262e-01 1.874616e+00 -5.561361e-02 8.091539e-01 -7.206851e-01 -1.072056e+00 -5.332448e-01 2.167236e+00
<VARIANCE> 25
 1.349557e+01 3.033137e+01 1.215006e+01 7.403100e+01 6.703640e+01 6.544136e+01 7.027160e+01 8.039645e+01 5.085235e+01 3.346918e+01 4.196658e+01 2.322062e+01 2.983104e+00 3.245135e+00 1.519853e+00 6.038630e+00 4.970154e+00 5.006857e+00 5.768232e+00 6.241672e+00 6.619291e+00 3.844028e+00 3.713589e+00 4.005125e+00 3.640885e+00
<GCONST> 1.086236e+02
<STATE> 3
<MEAN> 25
 -1.379096e+00 1.632007e+00 -3.502072e+00 -8.735619e+00 1.661647e+00 2.835123e+00 8.949756e+00 1.286246e+00 9.511246e+00 -5.430588e+00 -4.738637e+00 -4.397329e+00 1.364307e+00 8.717866e-01 -8.761120e-01 -1.049678e+00 -4.137198e-02 -3.174001e-01 -6.501331e-01 -6.443233e-01 1.141260e+00 7.932438e-02 6.209712e-01 -1.234986e+00 2.457859e+00
<VARIANCE> 25
 6.230255e+01 2.383199e+01 3.594872e+01 1.425076e+02 4.759583e+01 1.025476e+02 3.539636e+01 4.603163e+01 4.325287e+01 2.618507e+01 4.315031e+01 5.190764e+01 4.794459e+00 3.109605e+00 1.978422e+00 6.467495e+00 2.603042e+00 3.861367e+00 3.036368e+00 3.868278e+00 4.165496e+00 1.930361e+00 2.631591e+00 4.037962e+00 3.468150e+00
<GCONST> 1.081406e+02
<STATE> 4
<MEAN> 25
 7.924195e+00 2.841886e+00 -7.171186e+00 -1.603076e+01 2.099942e+00 3.451983e+00 2.626726e+00 -1.096608e+01 8.028814e+00 1.175812e+00 -1.187328e+00 -7.086206e+00 4.702910e-01 2.409337e-01 2.719744e-02 7.416905e-02 -2.851563e-01 -2.957056e-01 -3.302112e-01 -2.134217e-01 -4.977660e-01 1.478239e-01 1.724835e-01 3.987657e-01 -7.508052e-01
<VARIANCE> 25
 1.982214e+01 2.365707e+01 3.648144e+01 7.763731e+01 3.910720e+01 5.953822e+01 7.559167e+01 3.412824e+01 3.325929e+01 3.127147e+01 1.935030e+01 1.046429e+02 6.585900e-01 1.170259e+00 1.942347e+00 4.932365e+00 1.380853e+00 3.446400e+00 2.540982e+00 3.371451e+00 2.501878e+00 2.030738e+00 1.980386e+00 2.892006e+00 1.801194e+00
<GCONST> 9.988126e+01
<TRANSP> 5
 0.000000e+00 1.000000e+00 0.000000e+00 0.000000e+00 0.000000e+00
 0.000000e+00 8.076957e-01 1.923044e-01 0.000000e+00 0.000000e+00
 0.000000e+00 0.000000e+00 7.981393e-01 2.018607e-01 0.000000e+00
 0.000000e+00 0.000000e+00 0.000000e+00 8.974944e-01 1.025056e-01
 0.000000e+00 0.000000e+00 0.000000e+00 0.000000e+00 0.000000e+00
<ENDHMM>
~h "ih"
<BEGINHMM>
<NUMSTATES> 5
<STATE> 2
<MEAN> 25
 -2.153198e+00 5.496609e+00 7.806595e+00 2.094548e+00 -7.500890e+00 -3.009905e+00 -1.165264e+00 -4.668211e+00 -2.705183e+00 -2.902424e+00 -1.264350e+00 -1.551652e+00 3.427629e-01 7.688972e-01 2.445599e+00 -6.685531e-01 -2.086409e+00 -1.089544e+00 -4.814889e-02 -7.441422e-01 -1.658059e+00 -6.602541e-01 -2.593507e-01 -8.197047e-01 2.629309e+00
<VARIANCE> 25
 8.172738e+01 5.520969e+01 9.829263e+01 6.501225e+01 8.047536e+01 5.632613e+01 4.968993e+01 5.020644e+01 5.340907e+01 4.935444e+01 5.105063e+01 3.393510e+01 9.008137e+00 5.925913e+00 6.241664e+00 6.398655e+00 5.608188e+00 4.665377e+00 4.885239e+00 4.966465e+00 6.226756e+00 5.771854e+00 3.851738e+00 2.630010e+00 6.615526e+00
<GCONST> 1.166042e+02
<STATE> 3
<MEAN> 25
 1.892619e-01 7.851970e+00 1.585497e+01 -4.210794e+00 -1.599423e+01 -6.424028e+00 -2.236855e+00 -6.502539e+00 -1.023361e+01 -1.207380e+00 -1.173859e+00 -4.941155e+00 3.518849e-01 2.394408e-01 -1.265807e-01 -1.391977e-01 2.360858e-01 5.918279e-02 -2.369606e-01 -2.031495e-01 3.481002e-02 4.579971e-01 1.996033e-01 1.726240e-01 -9.404740e-01
<VARIANCE> 25
 1.687923e+01 2.750039e+01 3.876954e+01 3.623791e+01 2.460213e+01 4.115971e+01 3.117259e+01 3.253621e+01 2.920053e+01 5.198803e+01 2.060566e+01 2.993256e+01 1.018006e+00 1.507411e+00 1.594006e+00 2.230318e+00 2.466439e+00 2.277545e+00 1.781901e+00 1.975104e+00 2.748369e+00 2.356514e+00 1.991167e+00 2.168723e+00 1.421784e+00
<GCONST> 9.529062e+01
<STATE> 4
<MEAN> 25
 -5.016646e-01 8.026404e+00 8.306988e+00 -3.209645e+00 -8.933212e+00 -3.109453e+00 -3.008533e+00 -7.022808e+00 -1.278798e+00 1.227841e+00 -4.836160e-01 1.371707e+00 -2.437640e-01 -4.739364e-01 -9.317076e-01 4.666856e-01 8.393999e-01 4.904351e-02 -1.411042e-01 2.162282e-01 8.682720e-01 5.160981e-02 -1.545127e-01 4.344230e-01 -7.682407e-01
<VARIANCE> 25
 1.077731e+02 2.988736e+01 4.615689e+01 6.298400e+01 3.618227e+01 7.566535e+01 6.436595e+01 6.110674e+01 4.974947e+01 4.257133e+01 4.048218e+01 2.023325e+01 3.435248e+00 1.607105e+00 2.204018e+00 2.445050e+00 1.978516e+00 3.178264e+00 2.292061e+00 3.451355e+00 2.922188e+00 2.386562e+00 3.386147e+00 1.848812e+00 1.473803e+00
<GCONST> 1.040218e+02
<TRANSP> 5
 0.000000e+00 1.000000e+00 0.000000e+00 0.000000e+00 0.000000e+00
 0.000000e+00 7.704350e-01 2.295650e-01 0.000000e+00 0.000000e+00
 0.000000e+00 0.000000e+00 8.901943e-01 1.098057e-01 0.000000e+00
 0.000000e+00 0.000000e+00 0.000000e+00 8.148032e-01 1.851968e-01
 0.000000e+00 0.000000e+00 0.000000e+00 0.000000e+00 0.000000e+00
<ENDHMM>
~h "iy"
<BEGINHMM>
<NUMSTATES> 5
<STATE> 2
<MEAN> 25
 2.267218e+00 3.805074e+00 8.964930e+00 1.954322e+00 -9.367779e+00 -7.251554e+00 1.958886e+00 -6.084188e+00 -4.546518e+00 -4.399649e+00 -8.516819e-01 -1.881849e+00 1.798750e-01 7.673780e-01 1.901312e+00 -1.353500e+00 -1.922395e+00 -5.020238e-01 -3.056877e-01 -7.132039e-01 -1.530396e+00 1.559968e-01 2.561589e-01 -6.040421e-01 2.106196e+00
<VARIANCE> 25
 1.007873e+02 5.889248e+01 5.621297e+01 4.486103e+01 8.982973e+01 6.467725e+01 7.860728e+01 9.114502e+01 7.113906e+01 4.843072e+01 2.948267e+01 3.776807e+01 5.086622e+00 4.632082e+00 3.795871e+00 2.916710e+00 6.487419e+00 4.330953e+00 5.940856e+00 5.892286e+00 5.065194e+00 4.548986e+00 4.083341e+00 2.527718e+00 4.449615e+00
<GCONST> 1.145921e+02
<STATE> 3
<MEAN> 25
 -2.170622e-01 8.313251e+00 1.592907e+01 -4.719636e+00 -1.571519e+01 -6.910491e+00 -2.072126e+00 -8.623955e+00 -9.548042e+00 -3.489338e-01 -1.652411e+00 -5.498229e+00 4.025466e-01 -7.091612e-03 -4.599525e-02 1.336595e-01 4.746368e-01 -4.245806e-02 -1.157451e-01 8.676514e-03 2.817004e-01 2.942804e-01 -3.548841e-02 4.343341e-02 -7.654208e-01
<VARIANCE> 25
 2.518363e+01 2.545704e+01 3.518683e+01 3.564741e+01 2.950943e+01 5.059407e+01 4.785075e+01 3.494840e+01 3.198945e+01 3.239657e+01 2.565435e+01 3.247912e+01 1.269553e+00 1.586490e+00 1.636172e+00 2.159442e+00 2.766708e+00 2.469679e+00 2.592450e+00 2.304291e+00 2.496477e+00 1.918436e+00 2.124408e+00 2.116349e+00 1.352469e+00
<GCONST> 9.698677e+01
<STATE> 4
<MEAN> 25
 5.919991e+00 1.531661e+00 6.948238e+00 2.837194e-01 -4.912470e+00 -6.779507e+00 -4.823416e+00 -3.590794e+00 -1.454830e+00 1.487750e-01 1.792892e+00 9.260880e-01 -1.298895e-01 -4.544093e-01 -1.211593e+00 1.321281e-01 1.049598e+00 4.633764e-01 1.760814e-01 6.503699e-01 7.116239e-01 -5.811615e-02 4.407787e-02 8.871213e-02 -7.867993e-01
<VARIANCE> 25
 3.200717e+01 2.626725e+01 7.042774e+01 7.294865e+01 3.910026e+01 6.852829e+01 3.706330e+01 5.525629e+01 4.059974e+01 3.140765e+01 1.962608e+01 3.737127e+01 1.559024e+00 1.306217e+00 2.449479e+00 2.141138e+00 1.803990e+00 2.106854e+00 1.413740e+00 2.494883e+00 2.913039e+00 2.426081e+00 2.469023e+00 2.702290e+00 7.336141e-01
<GCONST> 9.899984e+01
<TRANSP> 5
 0.000000e+00 1.000000e+00 0.000000e+00 0.000000e+00 0.000000e+00
 0.000000e+00 7.735307e-01 2.264694e-01 0.000000e+00 0.000000e+00
 0.000000e+00 0.000000e+00 9.082809e-01 9.171914e-02 0.000000e+00
 0.000000e+00 0.000000e+00 0.000000e+00 7.985921e-01 2.014079e-01
 0.000000e+00 0.000000e+00 0.000000e+00 0.000000e+00 0.000000e+00
<ENDHMM>
~h "jh"
<BEGINHMM>
<NUMSTATES> 5
<STATE> 2
<MEAN> 25
 -1.934305e+00 -4.861080e+00 -7.917998e-01 3.109556e+00 3.439643e-01 7.794729e-01 -1.201165e-01 1.674084e+00 -5.666922e+00 -4.689295e-01 9.887983e-01 -1.623981e-01 7.297941e-02 -2.712082e-02 -3.492010e-02 -3.917557e-02 1.429908e-01 -2.350957e-02 -1.379123e-01 1.415108e-01 -1.555066e-01 5.344048e-03 6.102196e-02 -5.747538e-03 -2.195668e-01
<VARIANCE> 25
 5.804464e+00 6.955253e+00 8.511874e+00 7.856462e+00 2.081534e+01 2.017524e+01 1.159079e+01 1.454032e+01 1.937732e+01 1.757470e+01 1.428809e+01 1.054535e+01 4.475299e-01 3.028689e-01 6.955727e-01 1.168283e+00 1.879138e+00 2.736451e+00 1.634652e+00 1.469069e+00 2.397243e+00 2.035191e+00 1.775815e+00 1.198208e+00 1.701172e-01
<GCONST> 7.673711e+01
<STATE> 3
<MEAN> 25
 4.147357e+00 -2.444044e+00 5.127511e+00 -7.260334e-01 -6.367482e+00 -4.569610e+00 -4.419093e+00 3.940565e-01 -1.488840e-01 1.494942e-01 1.302043e+00 -3.152765e+00 -9.342293e-01 4.415216e-02 2.504769e-01 -3.835455e-01 6.478050e-01 5.824140e-01 6.065300e-01 -4.573593e-01 -6.126256e-02 -6.849402e-01 -7.339416e-01 2.162947e-01 -2.551354e-01
<VARIANCE> 25
 5.837227e+00 2.186451e+01 2.480925e+01 7.831415e+00 5.340940e+01 1.692561e+01 6.556764e+00 5.539170e+00 1.418160e+01 9.423074e+00 1.566783e+01 8.015028e+00 2.221383e+00 3.172315e+00 1.866256e+00 8.788201e-01 1.707555e+00 2.779389e+00 1.295722e+00 6.653942e-01 1.730405e+00 7.947364e-01 1.413864e+00 1.149769e+00 1.213090e+00
<GCONST> 8.104662e+01
<STATE> 4
<MEAN> 25
 -4.961842e+00 6.547122e+00 5.056648e+00 2.476373e-01 -5.085028e+00 -4.129793e+00 -6.571423e-01 -9.085429e-01 1.459542e-01 -3.219901e-01 -8.443294e-01 4.437196e-01 -8.789440e-01 5.443736e-01 -6.627858e-01 -1.506256e-01 5.662760e-01 -1.088907e+00 -4.122646e-01 1.309345e-01 2.540717e-01 -2.292669e-01 -3.326161e-01 5.710140e-01 3.901759e-01
<VARIANCE> 25
 1.003875e+02 4.134940e+01 4.315901e+01 1.757309e+01 8.529876e+01 6.071269e+01 4.325797e+01 2.304050e+01 2.969732e+01 2.781734e+01 1.281829e+01 5.668477e+00 1.276988e+01 6.095640e+00 1.974945e+00 1.398692e+00 1.447522e+00 1.109885e+01 5.669336e+00 4.246111e+00 3.823039e+00 2.798241e+00 1.124990e+00 6.341603e-01 2.553152e+00
<GCONST> 1.016667e+02
<TRANSP> 5
 0.000000e+00 1.000000e+00 0.000000e+00 0.000000e+00 0.000000e+00
 0.000000e+00 9.355096e-01 6.449040e-02 0.000000e+00 0.000000e+00
 0.000000e+00 0.000000e+00 6.664278e-01 3.335722e-01 0.000000e+00
 0.000000e+00 0.000000e+00 0.000000e+00 8.496282e-01 1.503718e-01
 0.000000e+00 0.000000e+00 0.000000e+00 0.000000e+00 0.000000e+00
<ENDHMM>
~h "ng"
<BEGINHMM>
<NUMSTATES> 5
<STATE> 2
<MEAN> 25
 5.475463e+00 -5.965780e+00 -9.739845e+00 -9.228132e+00 3.385629e+00 1.258598e+00 1.699116e+00 -6.657116e+00 6.393278e+00 -1.799999e-01 -1.017117e+00 -7.105264e+00 5.167146e-01 6.303548e-01 -5.547075e-02 -3.786568e-01 1.687723e-01 -1.682694e-01 -2.910401e-01 -4.261362e-01 -4.192674e-01 1.577988e-01 1.707832e-01 3.872206e-01 -1.224993e+00
<VARIANCE> 25
 5.091144e+01 2.115911e+01 3.627605e+01 3.073985e+01 2.263382e+01 3.547377e+01 2.298453e+01 2.486790e+01 3.583065e+01 3.291074e+01 3.350127e+01 4.493547e+01 3.570191e-01 3.893343e-01 1.072934e+00 1.127081e+00 1.588628e+00 2.304886e+00 1.105721e+00 1.831815e+00 2.049950e+00 1.428110e+00 2.429585e+00 1.298749e+00 2.595535e-01
<GCONST> 8.846679e+01
<STATE> 3
<MEAN> 25
 9.212736e+00 2.267337e+00 -6.591959e-01 -3.194508e+00 2.218794e+00 -1.061620e+00 2.154250e+00 -3.635123e+00 -4.838303e-01 3.422650e+00 -7.995635e-01 -1.125322e+00 -9.119717e-01 -3.869379e-01 6.539741e-01 1.341374e+00 3.732711e-01 5.236994e-01 1.460414e-01 1.144164e+00 -1.897507e-01 5.364661e-02 4.462368e-01 2.804717e-01 -1.206459e+00
<VARIANCE> 25
 2.176177e+01 1.273365e+01 3.861477e+01 3.559409e+01 2.596112e+01 1.759339e+01 1.673523e+01 5.344022e+01 2.582180e+01 1.284269e+01 1.703542e+01 1.546940e+01 1.029924e+00 1.111467e+00 1.405336e+00 1.049726e+00 2.120963e+00 1.699351e+00 2.281664e+00 2.491492e+00 1.691419e+00 1.496091e+00 1.342692e+00 1.081930e+00 1.481368e-01
<GCONST> 8.603159e+01
<STATE> 4
<MEAN> 25
 -8.522506e-01 -2.801871e+00 1.897315e+00 5.724062e+00 4.799703e+00 2.773592e+00 1.614394e+00 3.547011e+00 -1.469647e+00 2.387531e+00 3.890881e-01 1.911506e+00 -8.012700e-02 -2.307610e-02 -6.177710e-02 7.692254e-02 1.369267e-02 8.110847e-02 -4.152592e-02 6.673230e-02 -3.915394e-03 1.414601e-02 -3.240494e-02 1.257655e-02 -1.331953e-01
<VARIANCE> 25
 1.620685e+00 3.759304e+00 5.936014e+00 1.277590e+01 8.503292e+00 1.002973e+01 1.083602e+01 1.307948e+01 1.385149e+01 1.486933e+01 1.247371e+01 1.059818e+01 1.387758e-01 2.352684e-01 3.928297e-01 5.535883e-01 7.804391e-01 8.724872e-01 1.014475e+00 1.407921e+00 1.612219e+00 1.391887e+00 1.120650e+00 1.181750e+00 4.196730e-02
<GCONST> 6.463740e+01
<TRANSP> 5
 0.000000e+00 1.000000e+00 0.000000e+00 0.000000e+00 0.000000e+00
 0.000000e+00 9.068281e-01 9.317192e-02 0.000000e+00 0.000000e+00
 0.000000e+00 0.000000e+00 8.895504e-01 1.104497e-01 0.000000e+00
 0.000000e+00 0.000000e+00 0.000000e+00 9.713082e-01 2.869186e-02
 0.000000e+00 0.000000e+00 0.000000e+00 0.000000e+00 0.000000e+00
<ENDHMM>
~h "ow"
<BEGINHMM>
<NUMSTATES> 5
<STATE> 2
<MEAN> 25
 5.941535e+00 6.469007e+00 -7.774671e+00 -1.869297e+01 -6.156362e+00 1.225183e+01 -2.755546e+00 -6.968138e+00 7.061405e+00 -6.142909e+00 2.461833e+00 3.664612e+00 9.837252e-01 1.594558e+00 -4.783523e-01 -3.548744e+00 -6.485699e-01 1.811633e+00 -3.505059e-01 -5.750335e-01 1.276371e+00 -1.638777e+00 6.490552e-01 9.192573e-01 1.912764e+00
<VARIANCE> 25
 3.108130e+01 4.251420e+01 3.955478e+01 1.722179e+02 4.556841e+01 6.870368e+01 3.566253e+01 7.269366e+01 4.993082e+01 9.584095e+01 2.752452e+01 3.172225e+01 3.830191e+00 2.057399e+00 5.432465e+00 1.516211e+01 3.651240e+00 6.845598e+00 3.876153e+00 6.517099e+00 4.477487e+00 5.399234e+00 2.938012e+00 2.657735e+00 8.878272e+00
<GCONST> 1.134622e+02
<STATE> 3
<MEAN> 25
 1.039072e+01 1.229294e+01 -4.162530e+00 -2.215876e+01 -9.180999e+00 3.818135e+00 -3.390350e+00 -3.706090e+00 6.854524e+00 -1.072274e+01 3.727759e+00 4.667188e+00 1.137170e-01 -2.472935e-01 3.291010e-01 8.515725e-01 1.365675e-01 -8.488723e-01 1.110920e-01 3.614491e-01 -4.809452e-01 4.382379e-01 1.591233e-02 -6.857704e-02 -8.394576e-01
<VARIANCE> 25
 1.997492e+01 4.760109e+01 2.387132e+01 9.817660e+01 4.466072e+01 1.037229e+02 2.670992e+01 5.197105e+01 4.936388e+01 8.471751e+01 2.926904e+01 2.746307e+01 5.915338e-01 1.013043e+00 8.710397e-01 1.773119e+00 2.026958e+00 1.605298e+00 1.929521e+00 2.260710e+00 1.866074e+00 2.867765e+00 1.686315e+00 1.594172e+00 3.658361e-01
<GCONST> 9.550424e+01
<STATE> 4
<MEAN> 25
 3.074457e+00 -9.399451e-01 1.901689e+00 8.397996e-01 6.801597e-01 -2.052836e+00 -2.534703e+00 2.294024e+00 -2.482923e+00 1.794388e+00 1.962635e+00 3.104974e+00 -6.571376e-01 -4.753307e-01 7.901092e-02 6.963195e-01 7.097646e-01 4.988376e-01 2.774723e-01 2.725501e-01 6.325696e-02 6.042415e-02 -1.658058e-01 -2.439465e-01 -4.843244e-01
<VARIANCE> 25
 2.638289e+01 1.415900e+01 6.348159e+00 3.297456e+01 3.859625e+01 3.854414e+01 3.020096e+01 2.236282e+01 1.771938e+01 1.433079e+01 2.082341e+01 1.354043e+01 5.968969e-01 6.455138e-01 5.316859e-01 1.083482e+00 1.538579e+00 1.852804e+00 2.084542e+00 1.913857e+00 1.975147e+00 1.578348e+00 1.173807e+00 1.334116e+00 1.904826e-01
<GCONST> 8.306629e+01
<TRANSP> 5
 0.000000e+00 1.000000e+00 0.000000e+00 0.000000e+00 0.000000e+00
 0.000000e+00 7.673019e-01 2.326982e-01 0.000000e+00 0.000000e+00
 0.000000e+00 0.000000e+00 9.479408e-01 5.205924e-02 0.000000e+00
 0.000000e+00 0.000000e+00 0.000000e+00 8.557783e-01 1.442217e-01
 0.000000e+00 0.000000e+00 0.000000e+00 0.000000e+00 0.000000e+00
<ENDHMM>
~h "oy"
<BEGINHMM>
<NUMSTATES> 5
<STATE> 2
<MEAN> 25
 1.025451e+01 2.511496e+00 -4.030352e+00 -1.598364e+01 -1.203798e+01 5.819641e+00 -1.956541e+00 -7.587114e+00 9.963032e+00 -3.842474e+00 -2.276355e-02 -2.255944e+00 2.673737e-01 1.169717e-01 2.829058e-01 1.114641e-01 -1.527598e-01 -5.421578e-01 2.733677e-02 -1.385854e-01 -6.217779e-01 4.062558e-01 -1.344317e-01 6.006799e-02 9.822455e-02
<VARIANCE> 25
 6.251561e+01 4.822721e+01 3.317307e+01 1.294211e+02 4.886360e+01 2.306980e+02 7.842665e+01 4.096394e+01 7.247073e+01 1.397057e+02 3.726731e+01 2.720761e+01 3.993023e+00 2.594281e+00 3.874365e+00 7.434236e+00 4.778950e+00 9.578275e+00 5.072460e+00 3.911098e+00 5.857485e+00 8.044092e+00 2.150594e+00 3.422316e+00 1.429949e+00
<GCONST> 1.145885e+02
<STATE> 3
<MEAN> 25
 -1.962262e+00 1.234637e+01 1.127700e+00 -6.933012e+00 -5.420658e+00 -8.587726e+00 -1.024500e+00 -2.672175e-01 -8.311809e+00 4.043725e+00 -8.850253e-01 6.391150e-01 -1.974007e+00 1.603919e+00 -8.714085e-01 7.101029e-01 1.639629e+00 -1.615027e-01 4.799590e-01 1.165792e+00 5.990926e-01 -2.259541e-01 1.987677e-01 2.420108e-01 -1.740462e-01
<VARIANCE> 25
 9.704117e+01 3.554197e+01 2.703360e+01 4.865772e+01 7.932664e+01 2.184988e+01 5.872908e+01 2.984156e+01 4.530275e+01 1.917672e+01 3.748293e+01 2.599415e+01 6.062375e+00 2.350286e+00 9.337748e-01 4.679828e+00 3.484820e+00 2.772804e+00 6.314637e+00 2.901182e+00 4.072719e+00 3.039189e+00 2.117472e+00 2.191017e+00 4.271995e-01
<GCONST> 1.023577e+02
<STATE> 4
<MEAN> 25
 -1.538749e+01 1.514095e+01 -6.053396e+00 -2.920114e-01 1.250729e+01 -1.011370e+01 6.597830e+00 1.108703e+00 -5.488110e-01 2.778584e+00 1.087764e+00 1.192100e+00 3.240327e-01 -7.070844e-01 9.049411e-02 5.811342e-01 3.730893e-01 1.630030e-01 6.484490e-01 -2.901664e-01 -2.898987e-02 -1.687609e-01 -2.104176e-01 -1.036540e-01 -8.215024e-01
<VARIANCE> 25
 1.506400e+01 1.635493e+01 5.563275e+00 1.854334e+01 2.462235e+01 5.971675e+00 1.664658e+01 2.514715e+01 2.038004e+01 1.325080e+01 8.992306e+00 5.877820e+00 8.373599e-01 8.780770e-01 3.350776e-01 1.168793e+00 8.721050e-01 5.133825e-01 8.850363e-01 2.103905e+00 9.208975e-01 1.009621e+00 7.537413e-01 6.115139e-01 4.733911e-01
<GCONST> 7.366183e+01
<TRANSP> 5
 0.000000e+00 1.000000e+00 0.000000e+00 0.000000e+00 0.000000e+00
 0.000000e+00 9.662921e-01 3.370788e-02 0.000000e+00 0.000000e+00
 0.000000e+00 0.000000e+00 8.704930e-01 1.295070e-01 0.000000e+00
 0.000000e+00 0.000000e+00 0.000000e+00 9.307597e-01 6.924033e-02
 0.000000e+00 0.000000e+00 0.000000e+00 0.000000e+00 0.000000e+00
<ENDHMM>
~h "sh"
<BEGINHMM>
<NUMSTATES> 5
<STATE> 2
<MEAN> 25
 3.403493e+00 1.204592e+00 4.932906e+00 2.978005e+00 3.741878e+00 -3.228988e-01 -7.727689e-02 2.100030e+00 -2.212027e-01 1.544788e-01 9.542364e-01 3.267374e+00 -1.229597e+00 -1.065868e+00 -8.221161e-01 -3.580161e-02 9.588313e-01 1.058863e+00 9.269021e-02 -2.379476e-01 -1.059767e+00 -4.245204e-02 7.903998e-01 1.615427e-01 -9.223299e-01
<VARIANCE> 25
 1.757954e+01 1.296455e+01 1.310126e+01 1.217921e+01 1.309832e+01 1.698754e+01 1.213769e+01 1.840472e+01 2.633689e+01 1.337875e+01 9.739693e+00 7.992419e+00 8.305017e-01 4.829768e-01 1.081132e+00 1.203401e+00 1.177037e+00 1.224094e+00 1.430203e+00 1.798822e+00 1.314675e+00 1.338134e+00 1.211797e+00 1.100953e+00 2.116475e-01
<GCONST> 7.744167e+01
<STATE> 3
<MEAN> 25
 -1.788812e+00 -2.845093e+00 -2.734696e-02 3.098224e+00 4.025372e+00 2.735534e+00 -7.820858e-01 3.089193e+00 -3.536498e+00 5.963217e-01 4.243675e-01 1.899468e+00 -3.003468e-02 1.430803e-02 -4.382925e-02 4.243381e-02 -4.045893e-02 3.941569e-02 -2.691887e-02 3.673067e-02 -1.509711e-02 7.390521e-03 -4.517908e-02 -2.980864e-02 -1.000777e-01
<VARIANCE> 25
 1.912384e+00 3.171999e+00 5.558857e+00 8.883394e+00 9.398209e+00 1.397009e+01 1.156444e+01 1.372086e+01 1.400121e+01 1.219197e+01 1.088835e+01 1.037589e+01 1.129145e-01 1.913010e-01 3.453754e-01 5.819009e-01 7.245835e-01 1.122245e+00 1.096076e+00 1.258531e+00 1.400155e+00 1.361059e+00 9.607539e-01 1.093573e+00 3.124245e-02
<GCONST> 6.336412e+01
<STATE> 4
<MEAN> 25
 -2.251733e+00 -1.722570e+00 -4.974245e-01 4.940957e+00 3.739142e+00 3.715695e+00 -4.528291e-01 3.255989e+00 -3.137392e+00 1.843385e-01 -3.297288e-01 5.769069e-01 -2.902352e-01 1.890096e-01 -5.596531e-02 -3.968297e-01 4.065267e-01 -1.533325e+00 -1.198264e-01 -8.736467e-01 2.891074e-01 -1.192190e-01 -5.463368e-01 -3.145215e-01 2.628018e-01
<VARIANCE> 25
 3.314795e+00 2.165459e+00 3.154702e+00 1.361063e+01 1.401162e+01 1.616733e+01 1.507247e+01 2.263307e+01 1.266534e+01 1.363920e+01 6.569934e+00 4.494728e+00 4.215631e-01 8.570698e-01 8.478215e-01 1.745638e+00 1.731586e+00 2.029742e+00 2.523473e+00 3.850014e+00 2.215630e+00 2.939497e+00 6.988308e-01 1.617282e+00 2.366509e-01
<GCONST> 7.492977e+01
<TRANSP> 5
 0.000000e+00 1.000000e+00 0.000000e+00 0.000000e+00 0.000000e+00
 0.000000e+00 7.568096e-01 2.431904e-01 0.000000e+00 0.000000e+00
 0.000000e+00 0.000000e+00 9.790258e-01 2.097417e-02 0.000000e+00
 0.000000e+00 0.000000e+00 0.000000e+00 8.589144e-02 9.141086e-01
 0.000000e+00 0.000000e+00 0.000000e+00 0.000000e+00 0.000000e+00
<ENDHMM>
~h "sp"
<BEGINHMM>
<NUMSTATES> 3
<STATE> 2
~s "silst"
<TRANSP> 3
 0.000000e+00 5.226421e-01 4.773579e-01
 0.000000e+00 9.534903e-01 4.650971e-02
 0.000000e+00 0.000000e+00 0.000000e+00
<ENDHMM>
~h "th"
<BEGINHMM>
<NUMSTATES> 5
<STATE> 2
<MEAN> 25
 -1.093285e+01 4.009851e+00 -4.353406e-01 2.808673e+00 3.111104e+00 1.060485e+00 -5.537203e-02 -1.517672e-01 4.036058e+00 5.345640e-02 -3.454132e-01 1.511006e+00 3.539540e-01 -5.988764e-01 1.686181e-01 3.375850e-01 2.552847e-01 1.928507e-01 4.756521e-02 2.940617e-01 -2.351033e-01 -6.314346e-02 6.919631e-02 1.177657e-01 -6.705994e-01
<VARIANCE> 25
 3.276498e+01 8.464734e+00 1.488592e+01 1.435983e+01 1.978945e+01 1.221680e+01 1.879154e+01 2.132433e+01 2.495751e+01 1.812340e+01 1.727946e+01 1.033857e+01 1.690682e+00 6.350604e-01 8.727302e-01 8.992836e-01 1.143045e+00 1.727319e+00 1.341391e+00 1.422902e+00 1.749064e+00 1.180283e+00 1.163287e+00 8.028292e-01 2.639464e-01
<GCONST> 8.019800e+01
<STATE> 3
<MEAN> 25
 -1.424803e+00 -2.831009e+00 1.547026e+00 2.787992e+00 3.384630e+00 1.976944e-01 -1.921191e-01 1.683919e+00 -3.132687e+00 -5.894572e-01 4.288747e-01 1.106245e+00 -2.644293e-02 -9.922773e-01 2.054281e-01 3.773881e-01 8.195471e-01 1.178211e+00 6.111122e-01 1.053238e+00 7.688963e-02 9.228680e-01 3.957147e-01 -4.939246e-01 -6.517200e-01
<VARIANCE> 25
 2.526301e+01 5.046232e+00 8.646418e+00 8.282293e+00 2.063396e+01 7.626061e+00 9.251563e+00 1.665109e+01 2.998667e+01 1.603046e+01 1.343908e+01 6.580302e+00 1.156673e+00 4.011496e-01 4.845806e-01 6.900571e-01 1.989111e+00 8.751177e-01 1.605495e+00 1.243789e+00 3.036550e+00 1.379783e+00 9.229942e-01 1.273166e+00 9.265402e-02
<GCONST> 7.441714e+01
<STATE> 4
<MEAN> 25
 -8.628528e-01 -4.023088e+00 1.457316e+00 4.295807e+00 4.273573e+00 3.256540e+00 5.064417e-01 3.597664e+00 -2.294151e+00 2.379687e+00 1.467585e+00 1.576756e+00 -2.077813e-02 1.889668e-02 -3.830709e-02 5.123994e-02 -3.618928e-02 3.305841e-02 -2.240600e-02 5.211300e-02 -1.105779e-02 2.674154e-02 -9.763793e-03 2.279912e-02 -9.350894e-02
<VARIANCE> 25
 3.964296e+00 3.785375e+00 5.253658e+00 7.574227e+00 1.083749e+01 1.270115e+01 1.187059e+01 1.607855e+01 1.389742e+01 1.392678e+01 1.202518e+01 1.064162e+01 1.167437e-01 1.947328e-01 3.844592e-01 5.615928e-01 8.075532e-01 9.797024e-01 1.080571e+00 1.286203e+00 1.180942e+00 1.222685e+00 1.199728e+00 1.141216e+00 3.412827e-02
<GCONST> 6.471468e+01
<TRANSP> 5
 0.000000e+00 1.000000e+00 0.000000e+00 0.000000e+00 0.000000e+00
 0.000000e+00 8.409520e-01 1.590480e-01 0.000000e+00 0.000000e+00
 0.000000e+00 0.000000e+00 4.530734e-01 5.469267e-01 0.000000e+00
 0.000000e+00 0.000000e+00 0.000000e+00 9.709986e-01 2.900142e-02
 0.000000e+00 0.000000e+00 0.000000e+00 0.000000e+00 0.000000e+00
<ENDHMM>
~h "uh"
<BEGINHMM>
<NUMSTATES> 5
<STATE> 2
<MEAN> 25
 3.210563e+00 -8.008764e-01 5.334827e+00 1.029180e+01 1.159309e+01 3.428652e+00 1.253464e-01 7.503879e+00 3.915890e+00 -2.305296e+00 -3.501792e-01 3.878800e+00 9.519490e-02 2.281176e-01 8.549568e-02 3.736246e-02 -3.310899e-01 -4.045968e-02 1.727321e-01 -5.286979e-02 -1.414022e-01 -1.508507e-01 2.396029e-01 4.218632e-02 9.337705e-02
<VARIANCE> 25
 1.273328e+01 3.430282e+00 2.456034e+01 2.879789e+01 2.786436e+01 2.273327e+01 3.485387e+01 1.404130e+01 3.325365e+01 1.684393e+01 1.695680e+01 1.572928e+01 3.184552e-01 8.870005e-01 5.382192e-01 4.638882e-01 1.315692e+00 2.346904e+00 2.701807e+00 1.637610e+00 2.377578e+00 2.243501e+00 1.404923e+00 1.971267e+00 6.078577e-01
<GCONST> 8.300170e+01
<STATE> 3
<MEAN> 25
 1.341382e+00 7.393592e+00 -5.119969e+00 -3.371124e+00 -4.265013e+00 3.780497e+00 -2.091902e+00 -7.396520e+00 4.245065e+00 -8.131114e+00 -9.824396e-01 2.601975e+00 2.316520e+00 2.175678e+00 -1.303437e+00 -2.791254e+00 -3.565120e+00 1.372700e+00 -1.445207e+00 -4.478948e+00 5.818081e-01 -3.128948e+00 -1.354612e+00 6.792853e-01 4.445765e+00
<VARIANCE> 25
 6.468785e+01 4.800465e+01 1.095746e+02 1.342262e+02 7.952577e+01 1.475047e+02 1.988495e+01 1.177718e+02 2.990516e+01 6.874010e+01 1.878403e+01 1.939136e+01 3.456902e+00 3.969766e+00 1.290222e+01 1.785011e+01 6.430637e+00 8.308513e+00 2.587919e+00 1.216835e+01 6.191378e+00 5.243032e+00 2.830421e+00 5.224015e+00 8.508733e+00
<GCONST> 1.180402e+02
<STATE> 4
<MEAN> 25
 6.484359e+00 7.919743e+00 -5.238221e+00 -1.132252e+01 -1.362013e+01 5.465627e+00 -1.073290e+01 -1.325223e+01 1.975073e+00 -1.186731e+01 -2.442416e-01 5.881338e+00 7.316440e-03 -5.356987e-01 2.380758e-01 3.434263e-01 5.205054e-01 -3.450484e-01 -3.153874e-01 7.006099e-01 -1.848037e-01 6.310031e-01 1.730059e-01 3.147522e-02 -4.249420e-01
<VARIANCE> 25
 2.318248e+01 4.356919e+01 5.315223e+01 1.633243e+02 5.886543e+01 1.140443e+02 5.021922e+01 6.233036e+01 3.764077e+01 6.138784e+01 2.815064e+01 4.108545e+01 1.685815e+00 1.653718e+00 2.335674e+00 4.404456e+00 4.208537e+00 5.716844e+00 4.617786e+00 3.771432e+00 3.026761e+00 3.061307e+00 1.873624e+00 2.467756e+00 2.039442e+00
<GCONST> 1.074571e+02
<TRANSP> 5
 0.000000e+00 1.000000e+00 0.000000e+00 0.000000e+00 0.000000e+00
 0.000000e+00 8.775343e-01 1.224657e-01 0.000000e+00 0.000000e+00
 0.000000e+00 0.000000e+00 7.207621e-01 2.792379e-01 0.000000e+00
 0.000000e+00 0.000000e+00 0.000000e+00 9.349412e-01 6.505884e-02
 0.000000e+00 0.000000e+00 0.000000e+00 0.000000e+00 0.000000e+00
<ENDHMM>
~h "uw"
<BEGINHMM>
<NUMSTATES> 5
<STATE> 2
<MEAN> 25
 -6.395683e+00 3.416890e+00 3.000878e+00 2.125676e+00 -5.045573e+00 -2.458381e+00 -4.953609e+00 -4.160405e+00 3.968307e+00 -3.810840e+00 -5.027978e-01 -1.107314e+00 1.309716e+00 6.924744e-01 5.512121e-02 -1.527853e-01 -4.869444e-01 4.603954e-01 -6.223441e-01 -1.094072e+00 2.248037e-01 -5.311325e-01 5.776489e-02 -5.326632e-01 1.509530e+00
<VARIANCE> 25
 1.070975e+02 5.642843e+01 6.592138e+01 6.368319e+01 1.102250e+02 8.647497e+01 7.677134e+01 5.959778e+01 5.239670e+01 8.767913e+01 3.589869e+01 3.673178e+01 8.542040e+00 5.239597e+00 4.442346e+00 4.942843e+00 5.917062e+00 7.880738e+00 6.483473e+00 5.177551e+00 6.281512e+00 8.804988e+00 3.297736e+00 3.940602e+00 5.243699e+00
<GCONST> 1.186845e+02
<STATE> 3
<MEAN> 25
 9.691008e+00 2.241618e+00 -1.734263e+00 -8.962260e-01 -8.249601e+00 -9.784281e-01 -9.721029e+00 -7.781425e+00 4.773682e+00 9.249501e-01 2.234031e+00 -4.882975e+00 2.608582e-01 -1.215980e-01 -9.851089e-02 -4.490669e-01 1.055906e-01 -4.262697e-02 1.747429e-01 2.108782e-01 -4.904747e-02 4.796512e-01 2.111781e-01 2.811697e-01 -3.633599e-01
<VARIANCE> 25
 2.814752e+01 6.467570e+01 5.415682e+01 6.312566e+01 6.884894e+01 1.305663e+02 5.706366e+01 8.001445e+01 4.925343e+01 6.830372e+01 4.536463e+01 5.223105e+01 1.842527e+00 2.698335e+00 3.118654e+00 3.513916e+00 4.038744e+00 6.314539e+00 3.697996e+00 3.906953e+00 3.683761e+00 4.751559e+00 3.589064e+00 4.568606e+00 2.438047e+00
<GCONST> 1.114703e+02
<STATE> 4
<MEAN> 25
 1.050245e+01 1.052627e+01 1.575749e-01 -9.197284e+00 -9.011494e+00 8.999524e-01 -2.011309e+00 -8.235421e+00 -3.325546e-01 -6.975324e+00 2.429692e+00 -5.096256e-01 -2.870198e-01 -4.382399e-01 2.062457e-01 2.752022e-01 4.306814e-01 -7.222811e-01 1.040006e-01 5.251154e-01 -2.642954e-01 3.575329e-01 -8.943738e-02 3.173249e-01 -8.992419e-01
<VARIANCE> 25
 2.314528e+01 5.187156e+01 2.348788e+01 6.198386e+01 4.687000e+01 1.029590e+02 3.796471e+01 5.212713e+01 5.195304e+01 1.263990e+02 2.559279e+01 3.640200e+01 1.305905e+00 1.214681e+00 1.230480e+00 2.478052e+00 1.997060e+00 2.748150e+00 1.950932e+00 2.760783e+00 2.113952e+00 3.326954e+00 1.847982e+00 1.838142e+00 5.433409e-01
<GCONST> 9.954575e+01
<TRANSP> 5
 0.000000e+00 1.000000e+00 0.000000e+00 0.000000e+00 0.000000e+00
 0.000000e+00 8.781232e-01 1.218769e-01 0.000000e+00 0.000000e+00
 0.000000e+00 0.000000e+00 9.085510e-01 9.144901e-02 0.000000e+00
 0.000000e+00 0.000000e+00 0.000000e+00 8.908153e-01 1.091847e-01
 0.000000e+00 0.000000e+00 0.000000e+00 0.000000e+00 0.000000e+00
<ENDHMM>
~h "zh"
<BEGINHMM>
<NUMSTATES> 5
<STATE> 2
<MEAN> 25
 -4.618273e+00 5.272246e+00 4.934603e+00 1.101762e+00 -1.346732e+01 -7.796575e+00 -5.321458e+00 -4.458986e+00 4.849302e+00 -5.630659e+00 3.013140e-01 2.506238e+00 2.258660e-01 -2.446475e-01 -6.243321e-01 9.023085e-03 -1.167120e-01 -1.873682e-01 -5.839779e-01 4.480575e-02 1.702738e-01 3.076551e-03 -4.248959e-01 -1.532317e-01 -4.631577e-01
<VARIANCE> 25
 9.509683e+01 4.464725e+01 2.790169e+01 1.854882e+01 1.782098e+01 5.053395e+01 3.825431e+01 1.978049e+01 1.213395e+01 1.928266e+01 3.395422e+01 1.184690e+01 6.241674e+00 3.585999e+00 2.106036e+00 1.205230e+00 1.881276e+00 3.470378e+00 2.098390e+00 1.711617e+00 1.233557e+00 2.700327e+00 1.645991e+00 1.438151e+00 4.614359e-01
<GCONST> 9.392012e+01
<STATE> 3
<MEAN> 25
 5.897846e+00 -4.961787e-01 -1.820988e+00 6.627849e-01 -6.543948e+00 -4.401510e+00 -2.111196e+00 1.872521e+00 6.542868e+00 1.463720e+00 -3.581173e+00 -3.053771e+00 -1.283061e-01 2.149623e-02 1.230456e-01 2.033186e-02 1.107327e+00 7.972881e-01 7.428367e-01 1.366293e-01 -3.250031e-01 1.911180e-01 1.878714e-01 7.459092e-02 -1.295043e+00
<VARIANCE> 25
 1.135746e+02 1.411856e+01 4.244398e+01 1.442431e+01 8.272002e+01 7.415222e+01 6.954877e+01 3.353465e+01 3.255691e+01 2.699783e+01 1.805405e+01 2.299645e+01 1.575840e+00 9.662215e-01 1.081883e+00 1.233337e+00 2.889846e+00 1.913049e+00 2.936694e+00 1.744187e+00 3.353317e+00 1.715822e+00 1.456138e+00 1.777104e+00 1.873388e-01
<GCONST> 9.410573e+01
<STATE> 4
<MEAN> 25
 -1.357890e+00 -2.129775e+00 -1.813647e+00 1.337269e+00 6.985232e+00 3.716889e+00 1.610815e+00 2.048032e+00 -2.436015e+00 6.604654e-01 1.093864e+00 1.300134e+00 -7.718837e-02 -1.648432e-02 -7.895372e-02 1.951044e-02 1.368008e-02 4.162965e-02 -7.251304e-02 1.907640e-02 -9.611966e-02 8.979603e-03 2.891672e-02 4.362410e-02 -1.357549e-01
<VARIANCE> 25
 4.200600e+00 8.278461e+00 1.528265e+01 9.363651e+00 1.188510e+01 1.203250e+01 1.171316e+01 1.538780e+01 1.769516e+01 1.575595e+01 1.189515e+01 1.043359e+01 1.640990e-01 2.774897e-01 5.014234e-01 6.642615e-01 8.899247e-01 1.091860e+00 1.236338e+00 1.340991e+00 1.888415e+00 1.387370e+00 1.291860e+00 1.243077e+00 6.878098e-02
<GCONST> 7.011639e+01
<TRANSP> 5
 0.000000e+00 1.000000e+00 0.000000e+00 0.000000e+00 0.000000e+00
 0.000000e+00 9.300796e-01 6.992032e-02 0.000000e+00 0.000000e+00
