~o
<STREAMINFO> 1 25
<VECSIZE> 25<NULLD><MFCC_D_N_Z_0><DIAGC>
~s "silst"
<MEAN> 25
 -1.652773e+00 -3.543782e+00 2.822887e-01 4.332204e+00 3.383320e+00 2.801930e+00 -4.714606e-01 3.121610e+00 -2.830903e+00 1.040254e+00 6.123074e-01 1.639871e+00 -1.693912e-02 5.543966e-03 -1.543054e-02 5.211454e-02 -1.348497e-02 6.839386e-02 -3.938647e-02 4.199363e-02 -3.154272e-02 9.685632e-03 -1.467986e-02 -1.788763e-03 -8.387946e-02
<VARIANCE> 25
 2.756901e+00 5.469680e+00 7.791699e+00 9.956787e+00 1.077865e+01 1.396383e+01 1.455225e+01 1.568478e+01 1.506628e+01 1.458600e+01 1.239329e+01 1.147510e+01 1.228011e-01 2.490329e-01 4.084480e-01 6.154668e-01 7.925071e-01 1.036109e+00 1.218278e+00 1.364869e+00 1.382448e+00 1.294841e+00 1.243416e+00 1.123888e+00 4.619005e-02
<GCONST> 6.709109e+01
~h "b"
<BEGINHMM>
<NUMSTATES> 5
<STATE> 2
<MEAN> 25
 -1.350031e+00 -2.424467e+00 4.871196e+00 3.927937e-01 2.340939e+00 3.080692e+00 -3.938528e+00 2.868285e+00 -6.273457e-01 -1.185695e+00 2.975826e+00 -5.350747e-01 -5.492835e-02 -3.086103e-02 3.609891e-02 -2.057975e-02 1.417822e-02 1.137711e-01 -1.251385e-01 5.182657e-02 6.691621e-02 2.664708e-02 -1.000754e-01 3.241353e-02 -3.228348e-02
<VARIANCE> 25
 2.657237e+01 2.491971e+01 2.440252e+01 3.280009e+01 3.015573e+01 2.624377e+01 2.324414e+01 3.265286e+01 2.548951e+01 2.919916e+01 2.978580e+01 2.115556e+01 2.695085e-01 6.457273e-01 7.280731e-01 1.134845e+00 1.426966e+00 1.371829e+00 2.224101e+00 1.962804e+00 2.172445e+00 1.882141e+00 1.810810e+00 1.636567e+00 2.083723e-01
<GCONST> 8.662395e+01
<STATE> 3
<MEAN> 25
 1.779423e+00 1.467866e-01 2.357554e+00 4.635267e+00 3.001532e+00 3.512153e+00 -1.225255e+00 1.933270e+00 -8.483512e-01 7.677273e-01 -9.110675e-01 3.888065e-01 -5.729139e-01 7.512301e-01 4.324242e-01 -3.511673e-01 -1.163761e+00 -5.582213e-01 -5.031471e-01 -1.167304e+00 5.615062e-01 -8.569336e-01 -1.049675e+00 -6.506026e-01 3.140117e+00
<VARIANCE> 25
 2.856116e+01 2.365928e+01 3.082117e+01 3.331986e+01 2.954143e+01 3.194634e+01 2.099354e+01 2.757126e+01 2.755094e+01 1.661131e+01 1.601724e+01 1.647284e+01 4.344320e+00 4.289123e+00 7.386596e+00 5.014765e+00 5.331684e+00 6.332589e+00 3.999741e+00 5.447368e+00 4.343667e+00 4.093260e+00 3.683547e+00 3.861820e+00 8.337709e+00
<GCONST> 1.051010e+02
<STATE> 4
<MEAN> 25
 2.226202e+00 3.678216e+00 5.828577e+00 2.644882e+00 -5.075143e+00 -4.439004e+00 -3.929925e+00 -1.423991e+00 -1.126210e+00 -2.449003e+00 -2.878544e+00 -2.696296e+00 1.757839e-01 -1.250687e-01 -4.495696e-01 -8.880852e-01 -7.059852e-01 -3.946454e-01 -1.165305e-02 -2.382222e-01 7.071497e-01 -2.878160e-01 8.514895e-02 -3.077207e-01 1.994818e+00
<VARIANCE> 25
 6.958503e+01 4.635616e+01 7.605456e+01 6.484733e+01 7.231742e+01 7.513294e+01 5.004818e+01 5.109052e+01 7.877871e+01 4.349793e+01 3.188049e+01 3.447519e+01 3.212441e+00 3.885072e+00 5.156689e+00 5.741458e+00 6.460274e+00 8.942863e+00 4.211905e+00 5.529623e+00 7.541810e+00 4.495903e+00 3.770120e+00 4.870870e+00 1.346565e+01
<GCONST> 1.162687e+02
<TRANSP> 5
 0.000000e+00 1.000000e+00 0.000000e+00 0.000000e+00 0.000000e+00
 0.000000e+00 7.318273e-01 2.681727e-01 0.000000e+00 0.000000e+00
 0.000000e+00 0.000000e+00 4.125614e-01 5.874386e-01 0.000000e+00
 0.000000e+00 0.000000e+00 0.000000e+00 7.550396e-01 2.449604e-01
 0.000000e+00 0.000000e+00 0.000000e+00 0.000000e+00 0.000000e+00
<ENDHMM>
~h "d"
<BEGINHMM>
<NUMSTATES> 5
<STATE> 2
<MEAN> 25
 -5.037156e-01 -1.504333e+00 -1.117408e+00 -1.393138e+00 5.488273e-01 -1.330739e+00 1.028955e+00 2.112693e+00 1.700321e-01 5.682857e-01 5.439331e-01 -5.589139e-01 -2.634094e-01 -3.153556e-01 3.506370e-01 4.909265e-01 9.128967e-01 3.397667e-01 -4.572332e-03 -1.020847e-01 1.132749e-01 -6.581579e-03 1.833147e-01 1.109019e-01 -6.307686e-01
<VARIANCE> 25
 1.676806e+01 1.552854e+01 2.656456e+01 4.346972e+01 3.258506e+01 6.312410e+01 1.884243e+01 2.569613e+01 2.239021e+01 2.186637e+01 2.401936e+01 2.924081e+01 1.275274e+00 1.312331e+00 1.414809e+00 2.744670e+00 1.803698e+00 4.032967e+00 1.968873e+00 2.725088e+00 2.329918e+00 2.292110e+00 1.525049e+00 2.088681e+00 6.977472e-01
<GCONST> 9.313003e+01
<STATE> 3
<MEAN> 25
 -7.181118e-01 -2.459792e+00 2.438338e-01 3.259489e+00 3.632231e+00 4.772541e-01 -6.416065e-01 1.082321e+00 -1.678971e+00 -3.683921e-02 1.205649e+00 -8.476210e-01 8.050490e-02 -8.816535e-03 1.783769e-01 1.380561e-01 -1.053535e-02 2.859201e-01 -2.811065e-01 -2.139690e-02 -3.936861e-01 -7.499808e-02 1.770877e-01 1.156957e-01 -2.449125e-01
<VARIANCE> 25
 1.238061e+01 1.447659e+01 2.118179e+01 1.774554e+01 1.993437e+01 5.019387e+01 3.930072e+01 2.290899e+01 2.095011e+01 2.223930e+01 2.193032e+01 2.014310e+01 3.890697e-01 8.422282e-01 1.071836e+00 1.332888e+00 1.509083e+00 1.751439e+00 1.787017e+00 2.375986e+00 2.158655e+00 2.213237e+00 2.059738e+00 1.536321e+00 1.974262e-01
<GCONST> 8.576315e+01
<STATE> 4
<MEAN> 25
 -1.464314e+00 -3.815800e+00 -3.108424e-01 3.781295e+00 2.730956e+00 2.745210e+00 -1.223426e+00 2.991086e+00 -3.171150e+00 1.346732e+00 9.932936e-01 9.364040e-01 -1.519163e-02 1.996254e-02 -1.993158e-02 3.556309e-02 -2.037523e-02 4.963846e-02 -6.430372e-02 5.484737e-03 -5.786958e-02 -1.535854e-02 -4.159291e-02 5.730037e-03 -7.795697e-02
<VARIANCE> 25
 3.666568e+00 5.494531e+00 6.545115e+00 7.606514e+00 1.026298e+01 1.663502e+01 1.402172e+01 1.339559e+01 1.584883e+01 1.233733e+01 1.055379e+01 1.214363e+01 1.098866e-01 2.353462e-01 3.882588e-01 5.661919e-01 6.922440e-01 9.481779e-01 1.172751e+00 1.130559e+00 1.497651e+00 1.272132e+00 1.148085e+00 1.242211e+00 4.301785e-02
<GCONST> 6.590681e+01
<TRANSP> 5
 0.000000e+00 1.000000e+00 0.000000e+00 0.000000e+00 0.000000e+00
 0.000000e+00 5.455690e-01 4.544310e-01 0.000000e+00 0.000000e+00
 0.000000e+00 0.000000e+00 6.597829e-01 3.402171e-01 0.000000e+00
 0.000000e+00 0.000000e+00 0.000000e+00 9.490608e-01 5.093914e-02
 0.000000e+00 0.000000e+00 0.000000e+00 0.000000e+00 0.000000e+00
<ENDHMM>
~h "f"
<BEGINHMM>
<NUMSTATES> 5
<STATE> 2
<MEAN> 25
 -1.280417e+00 -4.864122e+00 1.030484e+00 4.956870e+00 4.039566e+00 9.649740e-01 -9.550621e-02 4.228802e+00 -2.519966e+00 2.827553e+00 -3.455522e-01 2.952787e-01 -6.097816e-02 -2.985549e-02 -3.850419e-02 6.614224e-02 1.037857e-03 7.012993e-02 -2.111643e-02 3.406235e-04 -6.954172e-03 -2.420329e-02 -1.968259e-02 -5.366040e-03 -1.001692e-01
<VARIANCE> 25
 3.001720e+00 5.219154e+00 4.542376e+00 9.414598e+00 8.906072e+00 9.746824e+00 1.088798e+01 1.421683e+01 1.512773e+01 1.136073e+01 1.237940e+01 1.157537e+01 1.404478e-01 2.721185e-01 4.036708e-01 6.389194e-01 9.181112e-01 9.733362e-01 1.209149e+00 1.339717e+00 1.494462e+00 1.172246e+00 1.202660e+00 1.229103e+00 5.242019e-02
<GCONST> 6.582491e+01
<STATE> 3
<MEAN> 25
 -1.382145e+01 3.925426e+00 -7.278571e-01 5.849172e+00 1.683629e+00 1.778037e+00 -5.274659e-02 9.180560e-01 3.804109e+00 4.023536e-01 -5.418743e-01 1.248526e+00 -8.615493e-01 4.428777e-01 7.602049e-02 -2.825864e-02 -1.107234e-01 -2.758386e-02 6.642887e-02 -1.644340e-01 2.926499e-01 -1.907207e-01 -2.177270e-01 4.355503e-02 9.634926e-01
<VARIANCE> 25
 5.089317e+01 2.720458e+01 2.213959e+01 2.279944e+01 1.048805e+01 1.616087e+01 1.497947e+01 2.108549e+01 2.486780e+01 1.462814e+01 1.982500e+01 1.477632e+01 1.726692e+00 1.980121e+00 1.530268e+00 1.892802e+00 9.325327e-01 1.465825e+00 1.682099e+00 1.645297e+00 2.269315e+00 1.904049e+00 2.141246e+00 1.308133e+00 1.351242e+00
<GCONST> 8.828661e+01
<STATE> 4
<MEAN> 25
 -3.414687e+00 2.222713e+00 -2.682000e+00 -3.707555e+00 -6.257900e+00 2.545597e+00 5.224989e+00 -3.653641e+00 1.120334e+00 -1.303845e+00 -2.846536e+00 1.694334e+00 3.044374e+00 3.772185e-01 -7.056414e-01 -2.813880e+00 -1.420007e+00 1.200134e+00 -3.061133e-02 -7.283531e-01 -2.966876e-01 -1.808719e+00 -9.012074e-01 2.915284e-01 1.240047e+00
<VARIANCE> 25
 2.304464e+02 3.774645e+01 3.019942e+01 1.145247e+02 1.037046e+02 2.404672e+01 7.032348e+01 6.599025e+01 3.158112e+01 3.580695e+01 2.867253e+01 1.608786e+01 1.616532e+01 2.964409e+00 2.510148e+00 1.196918e+01 5.762228e+00 4.672967e+00 3.890360e+00 5.668993e+00 3.512868e+00 6.394853e+00 4.427557e+00 2.106419e+00 2.175687e+00
<GCONST> 1.123763e+02
<TRANSP> 5
 0.000000e+00 1.000000e+00 0.000000e+00 0.000000e+00 0.000000e+00
 0.000000e+00 9.530526e-01 4.694737e-02 0.000000e+00 0.000000e+00
 0.000000e+00 0.000000e+00 9.183214e-01 8.167851e-02 0.000000e+00
 0.000000e+00 0.000000e+00 0.000000e+00 6.228153e-01 3.771847e-01
 0.000000e+00 0.000000e+00 0.000000e+00 0.000000e+00 0.000000e+00
<ENDHMM>
~h "g"
<BEGINHMM>
<NUMSTATES> 5
<STATE> 2
<MEAN> 25
 -8.138065e-01 -3.875916e+00 -9.053484e-01 2.809308e+00 3.946557e+00 4.763720e+00 -2.057128e+00 1.972593e+00 -2.208607e+00 5.267482e-01 1.853176e+00 7.593544e-01 -4.071310e-03 -1.244440e-03 5.241888e-03 5.185747e-02 -2.138106e-02 4.427760e-02 -1.224224e-02 6.306133e-02 -4.757569e-02 5.029792e-02 -5.219265e-02 5.982550e-03 -9.222316e-02
<VARIANCE> 25
 2.942234e+00 3.624569e+00 4.687000e+00 8.384194e+00 8.175507e+00 1.124718e+01 1.138101e+01 1.346551e+01 1.291091e+01 1.198221e+01 1.154737e+01 1.153694e+01 1.321727e-01 2.485152e-01 3.708906e-01 6.208169e-01 8.486941e-01 1.110982e+00 1.027679e+00 1.206499e+00 1.399936e+00 1.434068e+00 1.163700e+00 1.301195e+00 5.673058e-02
<GCONST> 6.498595e+01
<STATE> 3
<MEAN> 25
 -4.532275e-01 -3.038659e+00 -2.052886e+00 2.993672e+00 2.583456e+00 4.025200e+00 -6.638733e-01 2.785330e+00 -1.334621e+00 1.816200e+00 9.985867e-01 1.220195e+00 -7.037007e-01 -2.551377e-01 3.692615e-01 -1.530087e+00 -1.718970e+00 -2.559591e+00 1.551950e+00 -1.633049e+00 4.342569e-01 -1.551383e+00 -2.058777e+00 -3.657568e-01 4.570324e+00
<VARIANCE> 25
 8.582893e+00 5.073532e+00 5.737247e+00 1.747427e+01 9.673551e+00 3.433784e+01 2.288621e+01 1.954010e+01 8.346852e+00 1.165167e+01 2.174505e+01 1.416556e+01 3.290345e+00 4.001156e+00 3.822647e+00 9.505753e+00 7.033307e+00 1.004714e+01 9.781940e+00 4.739597e+00 2.714391e+00 6.390595e+00 3.635972e+00 3.780733e+00 8.947985e+00
<GCONST> 9.847511e+01
<STATE> 4
<MEAN> 25
 7.603268e-01 -1.294207e+00 2.829840e+00 -7.064788e+00 -5.661068e+00 -8.774379e+00 8.013899e+00 -1.676188e+00 1.242373e+00 -9.751434e-01 -5.645967e+00 -1.263653e+00 2.368939e-01 2.939240e-01 5.049831e-01 -3.675120e-01 -6.868179e-01 -6.204242e-01 7.506865e-02 -3.482533e-02 -4.906845e-02 6.858644e-02 1.924000e-01 -5.146330e-02 1.420530e+00
<VARIANCE> 25
 3.450042e+01 4.243820e+01 7.559074e+01 5.317431e+01 8.093316e+01 6.067430e+01 1.512901e+02 5.300403e+01 4.607447e+01 7.042521e+01 2.893617e+01 2.626361e+01 2.639165e+00 1.731032e+00 4.977839e+00 4.305956e+00 4.650704e+00 4.835219e+00 6.045464e+00 3.850187e+00 3.806354e+00 4.081091e+00 2.564349e+00 2.528112e+00 1.286199e+01
<GCONST> 1.117527e+02
<TRANSP> 5
 0.000000e+00 1.000000e+00 0.000000e+00 0.000000e+00 0.000000e+00
 0.000000e+00 9.779755e-01 2.202449e-02 0.000000e+00 0.000000e+00
 0.000000e+00 0.000000e+00 5.367033e-01 4.632967e-01 0.000000e+00
 0.000000e+00 0.000000e+00 0.000000e+00 9.141524e-01 8.584758e-02
 0.000000e+00 0.000000e+00 0.000000e+00 0.000000e+00 0.000000e+00
<ENDHMM>
~h "k"
<BEGINHMM>
<NUMSTATES> 5
<STATE> 2
<MEAN> 25
 -1.336905e+00 -2.288075e+00 5.974277e-01 2.156162e+00 -8.387469e-01 -1.106681e+00 5.304883e-01 2.946576e+00 -2.241601e+00 2.105085e+00 3.155601e-01 5.008321e-01 -1.173900e+00 -7.849455e-01 -1.614180e+00 5.113532e-02 -1.358539e-01 2.828924e-01 -4.726489e-01 6.620917e-01 9.009032e-01 -4.450286e-01 7.648662e-03 -5.149613e-01 2.186352e+00
<VARIANCE> 25
 3.397213e+01 1.381110e+01 3.105138e+01 3.164520e+01 3.846743e+01 5.004069e+01 5.578562e+01 3.335098e+01 2.109359e+01 2.093879e+01 1.705917e+01 1.763164e+01 5.166891e+00 2.973711e+00 9.192300e+00 5.224215e+00 5.875405e+00 6.242708e+00 6.792239e+00 4.762624e+00 4.840906e+00 3.799634e+00 2.873122e+00 3.428771e+00 6.322687e+00
<GCONST> 1.066027e+02
<STATE> 3
<MEAN> 25
 -4.202971e+00 -5.061934e+00 -8.587117e+00 -1.406138e-01 -9.542499e-01 -3.849970e-01 -6.947007e+00 3.851571e+00 4.032187e+00 -8.528806e-01 -1.092970e-02 -1.484329e+00 -1.169437e+00 1.079584e-01 -1.653673e+00 -1.275069e+00 -6.806293e-01 -5.878350e-01 -1.206692e+00 -7.188960e-01 1.692334e+00 6.162547e-02 1.890775e-01 2.815389e-01 4.084652e+00
<VARIANCE> 25
 3.818831e+01 3.728538e+01 7.847437e+01 6.432528e+01 1.005914e+02 1.305865e+02 9.422996e+01 7.076591e+01 5.513919e+01 4.758741e+01 2.809324e+01 3.531141e+01 6.385736e+00 4.353330e+00 1.200344e+01 9.153997e+00 8.923748e+00 1.376575e+01 1.084507e+01 8.130579e+00 5.376057e+00 5.963342e+00 3.650754e+00 5.570709e+00 7.641022e+00
<GCONST> 1.206234e+02
<STATE> 4
<MEAN> 25
 -1.369936e+00 9.743484e-01 -3.260154e+00 -4.922718e+00 -4.204875e+00 -4.215059e+00 -1.226757e+00 -2.692566e+00 4.328268e+00 -5.203071e-01 -6.727228e-02 -1.729212e+00 3.098883e-01 5.172554e-01 1.624674e-01 -2.708248e-01 1.175106e-01 2.677283e-01 5.847091e-01 -2.052500e-01 8.111858e-02 -2.475494e-01 -6.708588e-03 -1.090731e-01 1.356747e-01
<VARIANCE> 25
 9.089876e+01 5.200109e+01 7.281622e+01 6.473199e+01 5.784548e+01 9.604980e+01 6.586915e+01 5.970526e+01 6.594430e+01 2.538714e+01 3.633895e+01 3.202533e+01 6.257955e+00 3.057436e+00 4.702581e+00 3.697132e+00 3.219998e+00 4.024992e+00 4.040240e+00 4.065999e+00 4.292807e+00 3.347534e+00 3.853111e+00 2.924954e+00 2.729599e+00
<GCONST> 1.115078e+02
<TRANSP> 5
 0.000000e+00 1.000000e+00 0.000000e+00 0.000000e+00 0.000000e+00
 0.000000e+00 4.709177e-01 5.290823e-01 0.000000e+00 0.000000e+00
 0.000000e+00 0.000000e+00 5.302319e-01 4.697681e-01 0.000000e+00
 0.000000e+00 0.000000e+00 0.000000e+00 8.252882e-01 1.747119e-01
 0.000000e+00 0.000000e+00 0.000000e+00 0.000000e+00 0.000000e+00
<ENDHMM>
~h "l"
<BEGINHMM>
<NUMSTATES> 5
<STATE> 2
<MEAN> 25
 6.399665e+00 1.728172e+00 -2.009722e+00 -4.974550e+00 -5.443749e+00 -1.002773e+00 -4.057776e+00 -6.500094e+00 7.104911e+00 -1.158494e+00 -2.136987e+00 -5.153512e+00 1.557343e-01 7.040080e-02 -1.900090e-01 -8.205883e-01 -3.781615e-01 5.611956e-02 -1.263320e-01 -1.299513e-01 1.794816e-01 -7.085931e-02 2.937794e-01 4.830276e-01 4.357255e-01
<VARIANCE> 25
 2.689494e+01 3.867380e+01 6.829951e+01 9.858024e+01 6.654955e+01 8.180196e+01 1.043199e+02 9.462319e+01 6.447497e+01 5.073540e+01 5.285520e+01 4.551390e+01 2.361752e+00 2.340478e+00 3.880880e+00 5.619589e+00 5.951905e+00 7.469157e+00 6.564693e+00 6.805834e+00 4.618697e+00 4.786195e+00 4.586323e+00 4.452918e+00 2.801916e+00
<GCONST> 1.149157e+02
<STATE> 3
<MEAN> 25
 1.011864e+01 4.945360e+00 -4.783951e+00 -1.698477e+01 -7.792152e+00 2.108479e+00 -1.701397e-01 -5.983627e+00 4.910703e+00 -2.412600e+00 -3.829953e-01 3.401627e+00 1.433720e-01 5.474807e-02 3.423804e-01 5.326325e-01 -2.950684e-02 -4.303383e-01 3.135852e-01 8.436202e-01 -6.858426e-01 5.832191e-02 2.529941e-01 4.225711e-01 -1.298998e+00
<VARIANCE> 25
 2.566373e+01 2.671083e+01 4.938985e+01 9.391591e+01 3.983290e+01 6.424065e+01 4.736484e+01 6.478429e+01 3.329245e+01 4.273254e+01 2.728791e+01 4.183269e+01 8.505068e-01 1.382444e+00 1.164623e+00 3.097297e+00 2.236283e+00 2.518226e+00 3.147473e+00 3.493241e+00 2.268786e+00 3.039774e+00 2.122094e+00 2.579398e+00 4.851245e-01
<GCONST> 9.957420e+01
<STATE> 4
<MEAN> 25
 3.697453e+00 3.220463e-01 -1.316993e+00 -3.839650e+00 -2.069525e+00 -8.879646e-01 2.659667e+00 2.702276e+00 1.787535e+00 8.932603e-01 2.268196e+00 1.240753e+00 -9.130130e-01 -4.707135e-01 3.217463e-01 9.614352e-01 6.715058e-01 2.048837e-01 -6.634969e-02 9.801191e-02 -1.237615e-01 1.735879e-01 -3.576210e-02 -2.052313e-01 -7.039989e-01
<VARIANCE> 25
 2.972338e+01 2.300624e+01 2.112336e+01 5.050849e+01 4.703543e+01 3.445685e+01 3.185171e+01 3.783860e+01 2.931556e+01 2.420320e+01 2.026382e+01 2.053753e+01 6.756510e-01 9.227243e-01 1.035269e+00 1.690107e+00 1.719423e+00 1.712330e+00 1.735652e+00 2.132888e+00 1.710233e+00 1.672899e+00 1.537021e+00 1.463270e+00 2.759905e-01
<GCONST> 8.957785e+01
<TRANSP> 5
 0.000000e+00 1.000000e+00 0.000000e+00 0.000000e+00 0.000000e+00
 0.000000e+00 7.972594e-01 2.027406e-01 0.000000e+00 0.000000e+00
 0.000000e+00 0.000000e+00 7.794591e-01 2.205409e-01 0.000000e+00
 0.000000e+00 0.000000e+00 0.000000e+00 7.933652e-01 2.066348e-01
 0.000000e+00 0.000000e+00 0.000000e+00 0.000000e+00 0.000000e+00
<ENDHMM>
~h "m"
<BEGINHMM>
<NUMSTATES> 5
<STATE> 2
<MEAN> 25
 5.753333e+00 1.843474e+00 2.114524e-01 1.447189e-01 5.250579e-01 -1.832997e+00 -2.695331e-01 -3.017825e+00 8.181524e-01 1.048817e+00 2.727560e+00 -3.802057e+00 1.225694e+00 1.058828e+00 1.176090e+00 6.680374e-01 6.787042e-01 -5.729533e-01 5.384964e-01 -1.738841e+00 -1.148223e+00 -7.085571e-02 4.461272e-01 -1.143986e+00 -2.789182e-01
<VARIANCE> 25
 4.040440e+01 2.630044e+01 4.597906e+01 4.142212e+01 2.121204e+01 5.943659e+01 4.518501e+01 6.232222e+01 4.891831e+01 4.209796e+01 2.566319e+01 5.913517e+01 3.886108e+00 4.067484e+00 4.348639e+00 1.889113e+00 4.016430e+00 3.264401e+00 3.663239e+00 4.610981e+00 2.137199e+00 1.795789e+00 3.340445e+00 2.336488e+00 2.722664e+00
<GCONST> 1.051730e+02
<STATE> 3
<MEAN> 25
 1.123972e+01 5.012370e+00 5.549827e+00 3.772954e+00 3.319758e+00 -5.026379e+00 2.487141e+00 -8.164750e+00 -1.946027e+00 5.362062e-01 3.570985e+00 -8.757414e+00 4.295022e-01 5.712292e-01 4.878648e-01 4.802430e-01 -1.405726e-01 1.857201e-01 2.529281e-01 -1.904108e-01 -4.423696e-01 -2.827615e-01 -2.142826e-01 5.325924e-02 -6.800839e-01
<VARIANCE> 25
 2.349218e+01 1.765753e+01 2.484827e+01 2.130534e+01 1.694882e+01 3.200896e+01 4.836611e+01 4.985412e+01 3.018213e+01 4.636847e+01 2.863203e+01 5.720005e+01 2.836754e+00 2.677085e+00 2.831065e+00 1.353461e+00 2.030052e+00 2.549019e+00 4.447058e+00 5.882848e+00 3.319873e+00 2.651993e+00 2.524012e+00 5.138306e+00 2.684405e+00
<GCONST> 1.009796e+02
<STATE> 4
<MEAN> 25
 5.430987e+00 3.106312e+00 5.152873e+00 2.082960e+00 -4.458273e+00 -5.243618e+00 -1.184450e+00 -3.973553e+00 1.837635e-02 -1.520847e+00 -1.176250e+00 -4.619327e+00 -3.009236e-01 -3.384302e-01 -1.390094e-01 -3.229796e-01 -5.136145e-01 -1.427483e-01 -2.056140e-01 5.009699e-01 4.602974e-01 -1.826154e-01 -1.081766e-01 1.843907e-01 8.446866e-01
<VARIANCE> 25
 7.271539e+01 5.706392e+01 8.154369e+01 4.177385e+01 7.667765e+01 5.381547e+01 9.045052e+01 6.561658e+01 6.294035e+01 6.382207e+01 3.974241e+01 8.318840e+01 5.740901e+00 3.177289e+00 4.551116e+00 2.593974e+00 6.231377e+00 4.841944e+00 5.147566e+00 7.325777e+00 4.066339e+00 4.518187e+00 3.462315e+00 5.801796e+00 4.656364e+00
<GCONST> 1.156849e+02
<TRANSP> 5
 0.000000e+00 1.000000e+00 0.000000e+00 0.000000e+00 0.000000e+00
 0.000000e+00 1.786667e-01 8.213333e-01 0.000000e+00 0.000000e+00
 0.000000e+00 0.000000e+00 6.929364e-01 3.070636e-01 0.000000e+00
 0.000000e+00 0.000000e+00 0.000000e+00 8.927100e-01 1.072900e-01
 0.000000e+00 0.000000e+00 0.000000e+00 0.000000e+00 0.000000e+00
<ENDHMM>
~h "n"
<BEGINHMM>
<NUMSTATES> 5
<STATE> 2
<MEAN> 25
 3.751198e+00 8.327290e-01 3.865500e+00 2.883568e+00 2.420992e+00 -1.822866e+00 8.555517e-02 1.828613e+00 -2.702470e-01 1.371659e+00 3.092614e-01 1.566923e+00 -9.327784e-01 -1.065130e+00 -1.877706e-01 4.960439e-01 9.125286e-01 7.706953e-01 1.272122e-02 1.819863e-01 -4.183121e-01 -1.271844e-01 3.485831e-01 2.187206e-01 -8.477696e-01
<VARIANCE> 25
 1.708193e+01 2.520613e+01 1.437025e+01 2.220468e+01 2.691361e+01 1.904712e+01 1.802836e+01 2.397175e+01 1.976502e+01 1.865674e+01 1.759931e+01 1.300499e+01 8.766150e-01 9.407718e-01 1.410416e+00 1.527231e+00 2.014883e+00 1.417434e+00 1.846544e+00 2.038418e+00 1.848776e+00 1.532002e+00 1.744589e+00 1.542798e+00 1.616341e-01
<GCONST> 8.458748e+01
<STATE> 3
<MEAN> 25
 -4.560520e-01 -3.817239e+00 1.123801e+00 4.156102e+00 4.721038e+00 2.393078e+00 2.498817e-01 2.709944e+00 -2.090084e+00 9.639739e-01 7.199389e-01 1.423852e+00 -4.614676e-02 -1.868401e-02 -5.879683e-02 2.479376e-02 -4.492205e-02 5.469604e-02 -4.687050e-02 3.646177e-03 -6.131432e-02 8.517323e-03 8.718867e-03 1.388768e-03 -1.237131e-01
<VARIANCE> 25
 2.209890e+00 5.846932e+00 6.918523e+00 1.116845e+01 1.171862e+01 1.273943e+01 1.342277e+01 1.653807e+01 1.660768e+01 1.711211e+01 1.151757e+01 1.118993e+01 1.102382e-01 2.450830e-01 3.786966e-01 5.977724e-01 7.865399e-01 9.276435e-01 1.049063e+00 1.245568e+00 1.284951e+00 1.252391e+00 1.127464e+00 1.108498e+00 3.395388e-02
<GCONST> 6.594154e+01
<STATE> 4
<MEAN> 25
 -2.287373e+00 -4.237994e+00 -8.479778e-01 4.096191e+00 2.648212e+00 2.308222e+00 -8.883984e-01 3.767851e+00 -3.281900e+00 1.673749e+00 3.195695e-01 1.072937e+00 -4.183624e-02 5.950877e-02 -2.466091e-02 3.658828e-02 -1.818907e-02 5.919149e-02 1.978482e-02 6.895404e-02 2.085548e-02 3.999106e-02 1.329231e-02 -1.721375e-02 -7.383045e-02
<VARIANCE> 25
 3.769860e+00 6.300564e+00 6.404537e+00 1.090020e+01 1.297549e+01 1.592444e+01 1.427828e+01 1.710079e+01 1.482799e+01 1.500409e+01 1.335826e+01 1.314449e+01 2.507440e-01 3.678980e-01 5.156947e-01 7.569110e-01 1.057508e+00 1.204409e+00 1.331994e+00 1.705680e+00 1.374997e+00 1.537889e+00 1.291531e+00 1.224648e+00 7.887027e-02
<GCONST> 7.116807e+01
<TRANSP> 5
 0.000000e+00 1.000000e+00 0.000000e+00 0.000000e+00 0.000000e+00
 0.000000e+00 7.097918e-01 2.902082e-01 0.000000e+00 0.000000e+00
 0.000000e+00 0.000000e+00 9.505785e-01 4.942152e-02 0.000000e+00
 0.000000e+00 0.000000e+00 0.000000e+00 9.082456e-01 9.175439e-02
 0.000000e+00 0.000000e+00 0.000000e+00 0.000000e+00 0.000000e+00
<ENDHMM>
~h "p"
<BEGINHMM>
<NUMSTATES> 5
<STATE> 2
<MEAN> 25
 -8.433968e-01 -2.771305e+00 -3.336376e+00 -3.066459e+00 -4.443174e+00 -3.243787e+00 8.689609e-02 2.517288e+00 5.057724e+00 -1.243192e+00 -5.823309e-01 -1.973694e+00 -1.034761e+00 -6.386737e-01 7.656345e-01 2.905333e-01 -4.504827e-01 -2.423425e-02 4.008025e-01 8.496459e-01 7.217533e-02 -2.101126e-02 -1.711343e-01 4.840173e-01 8.302945e-01
<VARIANCE> 25
 4.469857e+01 2.124495e+01 3.209491e+01 3.780061e+01 4.893382e+01 3.693990e+01 5.699761e+01 3.471407e+01 3.863091e+01 2.832948e+01 3.130990e+01 3.018224e+01 4.498431e+00 3.015333e+00 3.417609e+00 4.435230e+00 3.931741e+00 3.327948e+00 6.210574e+00 5.968253e+00 3.463049e+00 1.549875e+00 2.477321e+00 2.281297e+00 3.966292e+00
<GCONST> 1.051432e+02
<STATE> 3
<MEAN> 25
 2.533622e-01 -3.002985e+00 -4.135638e-02 -2.511990e+00 -2.978566e+00 -2.566376e+00 1.195148e+00 2.535235e+00 1.250871e+00 5.458504e-01 1.314795e+00 7.010496e-01 -5.374928e-01 1.301163e-01 8.422461e-01 6.901954e-01 6.100720e-01 4.785427e-01 -3.285201e-01 -5.211916e-01 -9.276589e-01 1.951049e-01 3.455451e-01 6.049044e-01 -5.572127e-01
<VARIANCE> 25
 1.324980e+01 1.137391e+01 1.162643e+01 3.086674e+01 5.043272e+01 4.022991e+01 4.210003e+01 2.561539e+01 2.613735e+01 2.631952e+01 1.871135e+01 1.832285e+01 1.098512e+00 7.246019e-01 1.559621e+00 1.732191e+00 1.444179e+00 2.146746e+00 2.948627e+00 2.906948e+00 2.245316e+00 1.603413e+00 1.940656e+00 1.788993e+00 3.616417e-01
<GCONST> 8.936877e+01
<STATE> 4
<MEAN> 25
 -1.722798e+00 -4.197689e+00 -2.888798e-01 2.918169e+00 1.584847e+00 2.718094e+00 -1.932249e+00 1.978990e+00 -3.421113e+00 4.467539e-01 1.208695e+00 1.638662e+00 -3.385359e-02 2.714579e-02 -1.124168e-02 4.836058e-02 -3.645803e-02 8.635176e-02 -6.404310e-02 2.420257e-02 -4.498450e-02 2.806268e-02 -3.411875e-02 1.256450e-02 -1.082564e-01
<VARIANCE> 25
 2.210940e+00 4.026973e+00 5.869567e+00 9.759911e+00 1.038684e+01 1.609923e+01 1.352156e+01 1.379620e+01 1.645447e+01 1.125237e+01 1.025249e+01 1.171260e+01 1.212615e-01 2.403528e-01 4.055405e-01 6.870143e-01 8.740090e-01 9.917038e-01 1.156716e+00 1.551862e+00 1.620757e+00 1.227371e+00 1.099541e+00 1.131574e+00 4.259583e-02
<GCONST> 6.591771e+01
<TRANSP> 5
 0.000000e+00 1.000000e+00 0.000000e+00 0.000000e+00 0.000000e+00
 0.000000e+00 4.782349e-01 5.217651e-01 0.000000e+00 0.000000e+00
 0.000000e+00 0.000000e+00 5.275249e-01 4.724751e-01 0.000000e+00
 0.000000e+00 0.000000e+00 0.000000e+00 9.616114e-01 3.838863e-02
 0.000000e+00 0.000000e+00 0.000000e+00 0.000000e+00 0.000000e+00
<ENDHMM>
~h "r"
<BEGINHMM>
<NUMSTATES> 5
<STATE> 2
<MEAN> 25
 -2.976792e+00 8.902863e-02 -4.752252e+00 -2.397104e+00 -2.414126e+00 -5.815575e-02 1.561124e+00 -5.417851e-01 6.253363e+00 -2.769624e-01 2.081337e-01 -2.367786e+00 -2.073953e-01 7.729799e-03 -2.906636e-01 5.340286e-01 1.054568e-01 -2.200750e-02 -5.159495e-02 -5.265222e-01 2.610850e-01 1.519514e-01 2.101208e-01 -1.322970e-01 3.858318e-01
<VARIANCE> 25
 1.083588e+02 4.267740e+01 4.909038e+01 8.233652e+01 4.544584e+01 5.254843e+01 3.488538e+01 5.188727e+01 6.024620e+01 3.312805e+01 1.969524e+01 5.620870e+01 3.203274e+00 2.677285e+00 3.502659e+00 3.081895e+00 1.984120e+00 3.647241e+00 2.742190e+00 5.289536e+00 2.506079e+00 3.623579e+00 2.732642e+00 2.486550e+00 3.231565e+00
<GCONST> 1.070552e+02
<STATE> 3
<MEAN> 25
 5.896569e+00 2.503493e-01 -2.630656e+00 4.566790e+00 -2.161058e+00 -8.045932e-01 -2.795508e+00 -4.400592e+00 4.771137e+00 -1.126170e+00 5.453026e-01 -1.579626e+00 1.658220e+00 9.469461e-02 -4.923982e-01 1.718780e+00 9.651194e-02 -1.145283e+00 -1.090113e+00 -5.944746e-01 6.474110e-01 -9.410232e-01 3.231525e-01 4.871570e-02 7.904652e-01
<VARIANCE> 25
 1.031253e+02 4.730815e+01 7.407606e+01 7.574576e+01 5.681438e+01 6.968561e+01 9.120195e+01 6.263078e+01 6.102612e+01 5.139688e+01 5.431354e+01 2.783957e+01 8.331618e+00 6.140759e+00 5.879957e+00 4.880744e+00 5.623581e+00 6.921063e+00 6.346231e+00 5.437971e+00 4.783940e+00 4.262838e+00 4.172904e+00 3.844699e+00 4.580893e+00
<GCONST> 1.171853e+02
<STATE> 4
<MEAN> 25
 9.528732e+00 8.499217e-01 -2.076968e+00 6.122391e+00 -7.721565e+00 -7.637475e+00 -4.985680e+00 -8.406199e+00 5.553495e+00 -4.535326e+00 4.474828e+00 -5.891430e-01 -5.113981e-02 -1.436058e-01 5.446000e-01 -4.183640e-01 -3.833344e-01 -8.477858e-02 4.571106e-02 1.012902e-01 -6.253015e-01 1.460954e-01 6.269243e-02 2.347619e-01 -1.626725e-01
<VARIANCE> 25
 6.597411e+01 8.141264e+01 1.264854e+02 6.321377e+01 5.028296e+01 6.965461e+01 5.529215e+01 9.493787e+01 6.965232e+01 3.936220e+01 5.817581e+01 3.230712e+01 1.791796e+00 2.084523e+00 3.827749e+00 3.730615e+00 4.650706e+00 4.583755e+00 3.712829e+00 3.763726e+00 4.204487e+00 4.352558e+00 3.735850e+00 2.950326e+00 1.659213e+00
<GCONST> 1.111910e+02
<TRANSP> 5
 0.000000e+00 1.000000e+00 0.000000e+00 0.000000e+00 0.000000e+00
 0.000000e+00 7.561892e-01 2.438108e-01 0.000000e+00 0.000000e+00
 0.000000e+00 0.000000e+00 6.810572e-01 3.189428e-01 0.000000e+00
 0.000000e+00 0.000000e+00 0.000000e+00 8.448088e-01 1.551911e-01
 0.000000e+00 0.000000e+00 0.000000e+00 0.000000e+00 0.000000e+00
<ENDHMM>
~h "s"
<BEGINHMM>
<NUMSTATES> 5
<STATE> 2
<MEAN> 25
 -7.751150e+00 7.237189e+00 -1.735458e+00 1.824063e+00 4.952115e+00 -4.173513e+00 1.773809e+00 1.273355e+00 6.421940e-01 2.783390e-01 1.295979e+00 1.300831e+00 -2.845264e+00 3.504774e+00 -1.141856e+00 -8.551306e-01 1.573221e+00 -1.014179e+00 7.105176e-01 -3.263282e-01 5.639197e-01 -5.551759e-02 6.610068e-01 -1.344543e-03 2.132771e+00
<VARIANCE> 25
 6.309775e+01 7.578284e+01 3.569905e+01 4.056078e+01 6.165207e+01 4.937836e+01 3.518041e+01 3.714476e+01 3.897115e+01 2.799408e+01 2.248598e+01 1.980737e+01 2.978599e+00 3.591360e+00 2.900514e+00 3.381720e+00 3.008246e+00 4.602232e+00 3.101338e+00 2.742431e+00 2.881952e+00 2.531737e+00 2.311069e+00 1.866641e+00 3.763078e+00
<GCONST> 1.041838e+02
<STATE> 3
<MEAN> 25
 -1.751475e+01 1.823613e+01 -5.953492e+00 -9.936112e-01 1.028925e+01 -5.834846e+00 3.275232e+00 1.627826e+00 7.030153e-01 2.588080e+00 1.564648e+00 1.707595e+00 -1.573580e-01 3.364835e-01 -5.395221e-01 6.178827e-01 -3.124804e-01 3.778690e-01 1.551495e-01 -2.756895e-01 1.474344e-01 4.075275e-02 -7.610138e-02 -1.137537e-01 4.146049e-01
<VARIANCE> 25
 2.117205e+01 2.066296e+01 1.623107e+01 2.925360e+01 2.318501e+01 1.710903e+01 1.728993e+01 2.259225e+01 1.705959e+01 1.359169e+01 9.916899e+00 8.326077e+00 1.249265e+00 1.583122e+00 7.746679e-01 1.057524e+00 1.269952e+00 1.230332e+00 1.146771e+00 1.212117e+00 1.129674e+00 9.581015e-01 7.749310e-01 7.111921e-01 1.722787e+00
<GCONST> 8.128695e+01
<STATE> 4
<MEAN> 25
 -1.406053e+01 1.450030e+01 -9.063462e+00 7.432864e+00 2.938291e+00 -1.079075e+00 3.644522e+00 -1.579843e+00 2.876801e+00 5.946039e-01 1.895938e+00 1.126617e+00 4.497041e-01 -1.023688e+00 3.729192e-01 1.913827e-01 -2.766854e-01 3.773709e-01 -9.591192e-02 5.076416e-03 -1.024716e-01 -1.519286e-01 -2.119400e-01 2.667805e-02 -6.140749e-01
<VARIANCE> 25
 2.332438e+01 4.627416e+01 1.629156e+01 1.782343e+01 1.642904e+01 2.185466e+01 1.321092e+01 1.387285e+01 1.407624e+01 1.200113e+01 1.303142e+01 1.003172e+01 1.203221e+00 1.223516e+00 9.204912e-01 1.189276e+00 1.035607e+00 1.413995e+00 1.124129e+00 1.118748e+00 1.198303e+00 1.340365e+00 1.207437e+00 8.307715e-01 1.071249e+00
<GCONST> 8.133284e+01
<TRANSP> 5
 0.000000e+00 1.000000e+00 0.000000e+00 0.000000e+00 0.000000e+00
 0.000000e+00 7.256504e-01 2.743496e-01 0.000000e+00 0.000000e+00
 0.000000e+00 0.000000e+00 8.109480e-01 1.890521e-01 0.000000e+00
 0.000000e+00 0.000000e+00 0.000000e+00 8.844448e-01 1.155552e-01
 0.000000e+00 0.000000e+00 0.000000e+00 0.000000e+00 0.000000e+00
<ENDHMM>
~h "t"
<BEGINHMM>
<NUMSTATES> 5
<STATE> 2
<MEAN> 25
 -4.112417e+00 6.039372e+00 -3.011331e+00 -4.781152e-01 -2.449374e+00 -5.363299e+00 -7.761068e-01 -1.624030e+00 2.621706e+00 1.472545e+00 -6.274040e-01 1.562690e+00 -2.663555e+00 1.316442e+00 -7.068539e-01 1.275305e-01 8.264084e-01 1.726195e-01 5.154021e-01 4.180444e-01 6.690913e-01 -3.952749e-01 -8.315332e-03 3.864568e-01 1.143043e+00
<VARIANCE> 25
 7.910857e+01 5.674591e+01 5.256817e+01 4.553676e+01 5.736525e+01 5.633810e+01 6.530689e+01 5.592933e+01 3.701342e+01 3.883781e+01 3.656692e+01 2.895146e+01 7.163637e+00 6.955559e+00 4.717628e+00 4.096837e+00 5.002013e+00 6.059050e+00 5.485658e+00 5.882217e+00 4.476023e+00 3.835433e+00 3.504640e+00 2.620983e+00 3.441299e+00
<GCONST> 1.127085e+02
<STATE> 3
<MEAN> 25
 -1.395609e+01 1.051945e+01 -4.129049e+00 -1.837212e+00 6.532526e+00 -4.758004e+00 3.207946e+00 2.658604e+00 2.258807e+00 -3.808232e-01 1.160677e+00 2.339159e+00 5.771364e-01 -1.097376e+00 3.467135e-01 5.557690e-02 2.894465e-01 -1.139669e-01 8.588658e-02 -4.498706e-02 -1.525162e-01 -1.652387e-01 3.102470e-02 -6.943898e-02 -9.695174e-01
<VARIANCE> 25
 2.338290e+01 4.779365e+01 2.506392e+01 3.254940e+01 3.847557e+01 3.311390e+01 2.870762e+01 3.068737e+01 2.408394e+01 2.132059e+01 1.562770e+01 1.632639e+01 1.387234e+00 1.578820e+00 1.439631e+00 1.598869e+00 1.437043e+00 1.766750e+00 1.700067e+00 2.765131e+00 1.729179e+00 1.396564e+00 1.683365e+00 1.498212e+00 9.540029e-01
<GCONST> 9.124086e+01
<STATE> 4
<MEAN> 25
 -4.967754e+00 8.727363e-02 -8.782298e-01 1.964429e+00 4.703520e+00 -1.805577e+00 2.821860e+00 -2.991521e-01 3.261218e-02 -1.231413e-01 1.176086e+00 1.168362e+00 9.280281e-01 -8.963518e-01 5.317479e-01 1.671292e-01 -2.636051e-01 7.118897e-01 -3.443063e-01 1.665587e-01 -2.958995e-01 1.179851e-01 -2.224196e-01 -4.482900e-02 -5.809200e-01
<VARIANCE> 25
 1.584285e+01 1.575653e+01 1.822498e+01 2.221732e+01 2.089062e+01 2.529201e+01 2.331977e+01 2.399764e+01 2.368334e+01 1.873406e+01 1.896697e+01 1.668053e+01 8.819967e-01 1.042899e+00 9.862556e-01 1.371669e+00 1.570813e+00 1.474833e+00 2.176102e+00 2.055326e+00 1.749842e+00 1.574779e+00 1.643231e+00 1.999319e+00 3.973795e-01
<GCONST> 8.575665e+01
<TRANSP> 5
 0.000000e+00 1.000000e+00 0.000000e+00 0.000000e+00 0.000000e+00
 0.000000e+00 7.489408e-01 2.510593e-01 0.000000e+00 0.000000e+00
 0.000000e+00 0.000000e+00 7.978190e-01 2.021811e-01 0.000000e+00
 0.000000e+00 0.000000e+00 0.000000e+00 6.994877e-01 3.005123e-01
 0.000000e+00 0.000000e+00 0.000000e+00 0.000000e+00 0.000000e+00
<ENDHMM>
~h "v"
<BEGINHMM>
<NUMSTATES> 5
<STATE> 2
<MEAN> 25
 8.052933e+00 1.242525e+00 1.766389e+00 1.507088e+00 -3.230953e+00 -6.870268e+00 -5.044711e+00 -7.005215e-01 1.010369e+00 1.449485e+00 -1.554563e+00 -3.238130e+00 -5.071290e-01 6.047043e-02 5.883259e-02 2.397162e-01 1.178757e+00 1.108799e+00 2.953868e-01 4.039818e-01 2.033422e-02 1.517809e-01 1.581154e-01 1.014065e-01 -1.114721e+00
<VARIANCE> 25
 2.859266e+01 2.145724e+01 3.383106e+01 2.441689e+01 2.692909e+01 4.521208e+01 3.328819e+01 3.356259e+01 3.170848e+01 3.198557e+01 1.969082e+01 2.870148e+01 1.269722e+00 1.668568e+00 1.454412e+00 1.262674e+00 2.519351e+00 1.595811e+00 2.244319e+00 2.785726e+00 2.325459e+00 2.261574e+00 1.005591e+00 1.781296e+00 3.032449e-01
<GCONST> 9.209753e+01
<STATE> 3
<MEAN> 25
 3.933911e+00 4.565600e-01 4.035438e+00 3.890959e+00 2.661257e+00 -1.944273e+00 -2.274992e+00 -1.095293e+00 -4.688911e-01 1.213868e+00 1.455761e+00 4.626825e-01 -1.132827e+00 -1.126734e+00 -4.923292e-01 2.290266e-01 1.102991e+00 1.272784e+00 9.900911e-01 2.980989e-01 -1.267531e-01 1.865116e-01 1.800379e-01 1.131474e-01 -7.852182e-01
<VARIANCE> 25
 2.212160e+01 1.457963e+01 1.857386e+01 2.594466e+01 2.218624e+01 2.708360e+01 3.372171e+01 3.213778e+01 2.480597e+01 2.920356e+01 1.921854e+01 1.564406e+01 6.503816e-01 5.545778e-01 1.055289e+00 1.506224e+00 1.054973e+00 1.694004e+00 2.277332e+00 2.602166e+00 1.677239e+00 1.550744e+00 1.746846e+00 1.009519e+00 1.410958e-01
<GCONST> 8.494725e+01
<STATE> 4
<MEAN> 25
 -2.470683e+00 -2.696859e+00 1.673119e+00 4.249211e+00 5.569489e+00 2.369749e+00 2.596583e+00 1.588077e+00 -5.239192e-01 7.824342e-01 1.236468e+00 1.151372e+00 -6.250232e-02 -3.820650e-02 -2.335437e-02 2.731583e-02 1.465821e-02 2.235627e-02 -4.278873e-02 2.868159e-02 -2.189101e-02 4.384008e-02 -5.115856e-02 -3.698900e-03 -1.104443e-01
<VARIANCE> 25
 9.998157e+00 5.532220e+00 7.381435e+00 1.445855e+01 1.172171e+01 1.838011e+01 1.742603e+01 1.793396e+01 1.598572e+01 2.356681e+01 1.338735e+01 1.219106e+01 1.492622e-01 2.490970e-01 4.506520e-01 6.957243e-01 7.968841e-01 1.144402e+00 1.371295e+00 1.539608e+00 1.268912e+00 1.385698e+00 1.382672e+00 1.144679e+00 5.620717e-02
<GCONST> 7.112218e+01
<TRANSP> 5
 0.000000e+00 1.000000e+00 0.000000e+00 0.000000e+00 0.000000e+00
 0.000000e+00 6.654781e-01 3.345219e-01 0.000000e+00 0.000000e+00
 0.000000e+00 0.000000e+00 5.932948e-01 4.067052e-01 0.000000e+00
 0.000000e+00 0.000000e+00 0.000000e+00 9.413438e-01 5.865615e-02
 0.000000e+00 0.000000e+00 0.000000e+00 0.000000e+00 0.000000e+00
<ENDHMM>
~h "w"
<BEGINHMM>
<NUMSTATES> 5
<STATE> 2
<MEAN> 25
 1.101571e+01 8.148637e+00 2.953715e+00 -2.915944e+00 -4.996296e+00 6.495437e-01 -2.249856e+00 -7.568801e-01 -3.372267e+00 -4.208698e+00 -1.165607e+00 1.935966e+00 1.310354e+00 1.093131e+00 2.692149e-02 -1.762825e+00 -1.397254e+00 6.932006e-01 3.027539e-01 -1.148666e+00 2.329175e-01 -1.163306e+00 -2.164656e-01 3.053319e-01 1.086102e+00
<VARIANCE> 25
 8.346565e+01 4.497934e+01 2.814157e+01 7.533634e+01 4.498380e+01 5.819648e+01 3.756167e+01 4.478072e+01 2.752571e+01 4.435369e+01 2.792264e+01 1.600574e+01 5.469767e+00 4.814348e+00 2.818827e+00 4.027720e+00 3.791918e+00 7.211712e+00 3.380090e+00 4.410814e+00 4.293194e+00 3.522447e+00 2.325899e+00 1.809173e+00 2.297474e+00
<GCONST> 1.070403e+02
<STATE> 3
<MEAN> 25
 1.174643e+01 7.295794e+00 -3.170009e+00 -2.061143e+01 -9.409291e+00 1.081179e+01 -5.205673e-01 -1.459797e+01 7.368914e+00 -5.503862e+00 1.140031e+00 8.254380e-01 -1.257509e+00 -1.733308e+00 -1.155921e+00 -6.983680e-01 1.464719e+00 -6.561384e-01 4.138643e-01 -3.889276e-01 2.125437e+00 2.042273e+00 6.981779e-02 -1.766893e+00 2.395878e+00
<VARIANCE> 25
 3.067767e+01 3.378458e+01 2.839134e+01 1.050167e+02 5.439805e+01 6.233408e+01 6.740771e+01 7.189668e+01 9.568039e+01 1.603197e+02 3.403370e+01 6.294228e+01 1.263739e+00 2.975143e+00 2.197957e+00 7.886229e+00 4.836432e+00 1.121937e+01 7.146022e+00 1.308518e+01 5.916579e+00 9.564486e+00 5.384003e+00 5.974209e+00 2.662357e+00
<GCONST> 1.160080e+02
<STATE> 4
<MEAN> 25
 5.725242e+00 -2.631300e+00 -9.689513e+00 -1.713513e+01 5.030624e+00 5.884166e+00 5.599388e+00 -9.174532e+00 6.643456e+00 -3.618514e-01 8.519834e-01 -5.876856e+00 -2.315307e-01 -7.688941e-01 -3.208457e-01 1.461052e+00 3.227604e-01 -1.509193e+00 3.980745e-01 9.718181e-01 -9.230987e-01 4.332225e-01 -6.047972e-01 -8.037974e-01 1.081211e-01
<VARIANCE> 25
 2.764743e+01 2.136606e+01 1.628266e+01 6.494408e+01 1.292983e+02 8.541465e+01 6.609832e+01 3.421466e+01 4.773420e+01 3.521434e+01 4.501991e+01 4.612759e+01 6.664428e-01 9.538510e-01 9.706230e-01 3.086755e+00 2.843206e+00 2.863065e+00 2.644041e+00 3.143328e+00 2.151666e+00 3.105121e+00 2.129883e+00 3.060683e+00 7.505575e-01
<GCONST> 9.973667e+01
<TRANSP> 5
 0.000000e+00 1.000000e+00 0.000000e+00 0.000000e+00 0.000000e+00
 0.000000e+00 8.628262e-01 1.371739e-01 0.000000e+00 0.000000e+00
 0.000000e+00 0.000000e+00 7.806206e-01 2.193794e-01 0.000000e+00
 0.000000e+00 0.000000e+00 0.000000e+00 8.056848e-01 1.943152e-01
 0.000000e+00 0.000000e+00 0.000000e+00 0.000000e+00 0.000000e+00
<ENDHMM>
~h "y"
<BEGINHMM>
<NUMSTATES> 5
<STATE> 2
<MEAN> 25
 -2.267000e+00 -2.287047e+00 5.692229e-02 2.646615e+00 4.380940e+00 3.389577e+00 1.173011e+00 3.353901e+00 -2.040837e+00 3.772871e-01 -4.355241e-03 2.025180e+00 -1.870832e-02 2.312940e-02 -9.066558e-03 4.199233e-02 1.107348e-02 7.136738e-02 -1.279074e-03 -1.468214e-03 -1.202658e-02 3.388607e-02 -2.909535e-02 2.543548e-02 -7.782022e-02
<VARIANCE> 25
 3.642457e+00 3.583574e+00 4.366980e+00 8.446462e+00 1.101557e+01 1.736024e+01 1.482500e+01 1.693951e+01 1.259854e+01 1.413586e+01 1.142889e+01 9.652804e+00 9.610814e-02 2.537412e-01 3.720162e-01 5.508889e-01 8.571687e-01 1.087861e+00 1.150124e+00 1.409693e+00 1.356453e+00 1.259993e+00 1.137748e+00 9.902946e-01 4.394709e-02
<GCONST> 6.543399e+01
<STATE> 3
<MEAN> 25
 -2.536012e+00 -1.820944e+00 -5.512403e-01 4.486918e+00 3.013422e+00 3.631777e+00 -9.380524e-01 2.385956e+00 -2.693342e+00 1.015099e+00 -1.557021e+00 1.415496e+00 1.556287e-01 1.962354e+00 1.024814e+00 -4.024422e-01 -5.640293e-01 -1.628235e+00 -1.036756e+00 -1.537330e+00 -6.765360e-01 5.368567e-02 -6.985222e-01 -1.176844e+00 2.187530e+00
<VARIANCE> 25
 5.489333e+00 6.258576e+00 9.584676e+00 2.197643e+01 2.629912e+01 2.374024e+01 2.602898e+01 2.555413e+01 1.884658e+01 2.421990e+01 1.637658e+01 9.926958e+00 4.216473e+00 6.251209e+00 3.894932e+00 1.468423e+00 2.629270e+00 6.246165e+00 5.348309e+00 4.000278e+00 1.213106e+01 3.651865e+00 1.781979e+00 1.859579e+00 4.799795e+00
<GCONST> 9.642024e+01
<STATE> 4
<MEAN> 25
 -2.786738e+00 9.078953e+00 1.046034e+01 -7.668561e-01 -7.718296e+00 -5.867803e+00 -3.729701e+00 -2.603328e+00 -7.919379e+00 -5.786988e-01 -2.181805e+00 -3.504118e+00 -3.870562e-01 -3.600599e-01 8.694451e-02 -7.314580e-01 -1.736463e+00 -1.162799e+00 1.556247e-01 6.267587e-03 7.866549e-01 2.648620e-01 6.223246e-03 -4.548270e-02 3.107211e+00
<VARIANCE> 25
 2.276488e+01 9.749931e+01 5.398450e+01 3.765432e+01 8.186285e+01 4.562365e+01 5.185210e+01 2.426250e+01 8.195074e+01 3.934172e+01 1.854995e+01 3.918378e+01 3.406502e+00 1.010018e+01 5.909658e+00 4.154401e+00 5.176792e+00 7.659489e+00 7.297303e+00 4.540651e+00 5.207817e+00 4.450836e+00 2.009936e+00 4.222241e+00 6.085563e+00
<GCONST> 1.123064e+02
<TRANSP> 5
 0.000000e+00 1.000000e+00 0.000000e+00 0.000000e+00 0.000000e+00
 0.000000e+00 9.648003e-01 3.519973e-02 0.000000e+00 0.000000e+00
 0.000000e+00 0.000000e+00 3.787965e-01 6.212035e-01 0.000000e+00
 0.000000e+00 0.000000e+00 0.000000e+00 7.683186e-01 2.316814e-01
 0.000000e+00 0.000000e+00 0.000000e+00 0.000000e+00 0.000000e+00
<ENDHMM>
~h "z"
<BEGINHMM>
<NUMSTATES> 5
<STATE> 2
<MEAN> 25
 -3.820904e-01 8.031739e+00 -2.298509e+00 1.441141e+00 1.691678e+00 -5.122962e+00 1.005987e+00 9.107128e-01 7.140426e-01 3.583942e+00 -8.493321e-01 -1.724951e-02 -1.917262e+00 3.280531e+00 -7.115532e-01 1.113933e-01 1.013465e+00 -1.315449e+00 1.197352e-01 -1.456601e-01 1.737017e-01 -2.896035e-01 6.477541e-01 -4.622335e-01 1.355108e+00
<VARIANCE> 25
 9.087830e+01 1.208666e+02 2.225453e+01 6.719463e+01 6.431351e+01 7.262998e+01 4.468042e+01 4.221887e+01 2.897451e+01 3.150498e+01 3.012046e+01 1.742443e+01 7.309363e+00 8.829656e+00 2.605706e+00 4.465568e+00 4.447354e+00 4.748584e+00 3.135290e+00 5.730927e+00 2.828559e+00 3.441441e+00 2.423095e+00 2.416684e+00 3.799541e+00
<GCONST> 1.095706e+02
<STATE> 3
<MEAN> 25
 -1.472235e+01 1.701340e+01 -7.419144e+00 4.056449e-01 9.258980e+00 -7.281354e+00 6.447988e+00 1.576319e-01 3.109573e-01 1.307256e+00 1.528152e+00 1.755018e+00 1.766418e-01 -6.013870e-01 8.695094e-02 3.581175e-01 3.579354e-02 8.986922e-02 2.370344e-01 -4.288522e-01 1.156328e-01 -2.753025e-01 -1.927107e-01 1.673040e-01 -3.659300e-01
<VARIANCE> 25
 3.268936e+01 4.624964e+01 1.627529e+01 3.904243e+01 3.478539e+01 1.850533e+01 3.019836e+01 3.926255e+01 1.703583e+01 9.838829e+00 1.051093e+01 1.065583e+01 1.413309e+00 1.820616e+00 5.077201e-01 8.662646e-01 8.423925e-01 1.274928e+00 1.020486e+00 1.161867e+00 9.460927e-01 1.061511e+00 6.854936e-01 7.129747e-01 1.275401e+00
<GCONST> 8.300485e+01
<STATE> 4
<MEAN> 25
 -5.657625e+00 1.425675e+01 -1.553288e+00 9.594380e+00 1.536442e+00 -9.400735e+00 -1.518955e+00 -1.383590e+00 2.405400e+00 -3.021574e+00 -7.455840e+00 -1.381536e+00 2.574910e-01 -1.748340e+00 8.187048e-01 -1.449795e-01 -1.063563e+00 1.413835e-01 -1.106188e-03 5.277797e-01 -5.228422e-01 -6.367049e-01 -1.004756e-01 -5.306254e-02 7.595763e-01
<VARIANCE> 25
 1.355151e+01 1.210260e+02 1.748244e+01 4.732423e+01 4.541957e+01 4.117845e+01 7.055287e+01 2.815570e+01 2.092890e+01 1.711617e+01 4.207222e+01 2.875575e+01 1.291271e+00 2.093734e+00 2.583623e+00 1.543410e+00 2.668038e+00 3.641051e+00 4.080192e+00 2.244508e+00 3.610553e+00 1.911585e+00 3.847920e+00 1.995109e+00 1.733742e+00
<GCONST> 9.956135e+01
<TRANSP> 5
 0.000000e+00 1.000000e+00 0.000000e+00 0.000000e+00 0.000000e+00
 0.000000e+00 7.439753e-01 2.560247e-01 0.000000e+00 0.000000e+00
 0.000000e+00 0.000000e+00 8.756629e-01 1.243371e-01 0.000000e+00
 0.000000e+00 0.000000e+00 0.000000e+00 7.631578e-01 2.368422e-01
 0.000000e+00 0.000000e+00 0.000000e+00 0.000000e+00 0.000000e+00
<ENDHMM>
~h "aa"
<BEGINHMM>
<NUMSTATES> 5
<STATE> 2
<MEAN> 25
 4.800864e+00 6.681269e+00 -2.293175e+00 -9.433073e+00 -1.244145e+00 6.148183e+00 -2.403296e+00 -7.127713e+00 5.526857e+00 -4.840865e+00 1.303463e-01 -1.032003e+00 1.102084e+00 -6.176205e-01 -2.270152e-01 -2.047480e+00 -2.688062e-01 1.012080e+00 7.394760e-01 -5.995499e-01 1.034308e+00 -6.495895e-01 1.017154e-02 -8.178247e-01 2.231925e+00
<VARIANCE> 25
 6.236182e+01 5.391776e+01 3.872540e+01 1.536656e+02 4.210424e+01 1.252490e+02 7.703574e+01 6.577524e+01 8.256161e+01 7.133628e+01 4.216381e+01 5.094864e+01 7.874794e+00 4.590237e+00 2.697959e+00 6.781474e+00 4.939511e+00 7.843569e+00 7.115064e+00 5.026456e+00 3.834347e+00 4.060278e+00 3.968361e+00 4.224969e+00 5.038548e+00
<GCONST> 1.171228e+02
<STATE> 3
<MEAN> 25
 9.408607e+00 -1.568848e+00 -6.921292e+00 -1.767481e+01 7.810313e-01 8.326158e+00 9.437066e+00 -8.020516e+00 8.216651e+00 -2.694752e+00 -1.287836e+00 -5.948703e+00 1.359523e-01 -1.134638e-01 1.334741e-01 8.842115e-01 -2.697760e-01 -5.281435e-01 7.246956e-04 5.114037e-01 -6.728787e-01 9.501219e-01 -8.585497e-02 1.436762e-02 -8.524623e-01
<VARIANCE> 25
 1.556059e+01 3.344848e+01 3.369784e+01 8.522710e+01 4.489994e+01 6.349016e+01 3.993123e+01 5.088855e+01 3.860395e+01 5.419131e+01 7.011446e+01 1.107315e+02 7.862573e-01 9.024016e-01 1.515944e+00 2.734668e+00 2.117611e+00 2.594313e+00 3.495830e+00 2.570481e+00 2.206292e+00 2.168129e+00 2.766839e+00 2.543415e+00 1.257887e+00
<GCONST> 1.010636e+02
<STATE> 4
<MEAN> 25
 5.957631e+00 3.389231e-01 -2.592365e+00 -7.618366e+00 -9.668972e-01 2.489829e+00 2.922803e+00 1.779093e-01 5.952884e+00 2.988253e+00 -3.315105e+00 -2.872256e+00 -5.523530e-01 -7.984570e-02 3.225902e-01 7.394739e-01 1.711154e-01 -1.112743e-01 -3.582309e-01 1.966104e-01 -3.074376e-01 9.575522e-03 2.305236e-01 2.858349e-02 -8.466671e-01
<VARIANCE> 25
 6.560338e+01 4.184843e+01 2.646644e+01 3.484878e+01 3.054545e+01 6.713313e+01 2.632305e+01 4.530838e+01 2.696642e+01 3.270551e+01 5.483497e+01 6.108062e+01 5.843230e+00 3.290060e+00 2.076290e+00 2.843147e+00 1.691600e+00 4.180191e+00 2.776258e+00 4.101132e+00 3.397360e+00 2.560938e+00 3.269332e+00 2.649503e+00 1.654351e+00
<GCONST> 1.042458e+02
<TRANSP> 5
 0.000000e+00 1.000000e+00 0.000000e+00 0.000000e+00 0.000000e+00
 0.000000e+00 8.516808e-01 1.483192e-01 0.000000e+00 0.000000e+00
 0.000000e+00 0.000000e+00 8.838112e-01 1.161888e-01 0.000000e+00
 0.000000e+00 0.000000e+00 0.000000e+00 8.216806e-01 1.783194e-01
 0.000000e+00 0.000000e+00 0.000000e+00 0.000000e+00 0.000000e+00
<ENDHMM>
~h "ae"
<BEGINHMM>
<NUMSTATES> 5
<STATE> 2
<MEAN> 25
 -4.664300e+00 -8.205968e-01 1.253002e+00 2.527760e+00 -8.533410e-01 1.956160e-01 2.358739e+00 1.007514e+00 2.693019e+00 -2.487631e+00 7.696214e-01 4.536211e-01 -4.584180e-02 -7.459595e-01 -2.700566e-01 -7.516436e-01 -6.772608e-01 -1.350574e+00 1.313251e+00 -6.695730e-02 2.219827e-01 -6.386053e-01 -9.859719e-01 -5.348430e-01 2.680949e+00
<VARIANCE> 25
 9.615930e+01 2.097803e+01 2.117842e+01 1.855000e+01 5.518481e+01 5.663156e+01 5.143682e+01 5.319585e+01 4.498885e+01 1.675509e+01 2.041541e+01 1.540023e+01 6.400414e+00 4.351472e+00 3.465155e+00 2.973126e+00 3.351253e+00 6.750679e+00 8.518290e+00 5.297543e+00 2.493021e+00 1.783826e+00 3.775706e+00 1.008946e+00 1.352858e+01
<GCONST> 1.058895e+02
<STATE> 3
<MEAN> 25
 3.311193e+00 -6.468198e+00 -6.204494e+00 -2.725586e+00 -1.373346e+00 -8.261554e+00 1.070980e+01 5.265731e+00 4.191545e+00 -5.445576e+00 -6.563413e+00 -3.478646e+00 4.962464e-01 -6.180068e-01 -2.889816e-01 -6.030563e-01 -3.457748e-01 -1.040270e+00 5.406545e-01 3.593488e-01 5.487876e-02 -8.260371e-02 2.819322e-03 -5.142745e-01 1.957697e+00
<VARIANCE> 25
 3.642448e+01 3.533927e+01 3.929757e+01 2.467602e+01 4.446206e+01 4.551464e+01 7.242731e+01 4.175930e+01 2.794753e+01 3.300943e+01 3.738538e+01 3.404062e+01 2.780805e+00 3.149531e+00 2.843371e+00 3.637715e+00 2.307726e+00 5.165908e+00 6.419183e+00 2.001626e+00 2.088289e+00 1.915765e+00 4.989357e+00 1.714765e+00 1.471102e+01
<GCONST> 1.053469e+02
<STATE> 4
<MEAN> 25
 3.444851e+00 -4.380180e+00 -2.288140e+00 -3.934218e+00 -4.382951e+00 -1.327337e+01 6.863935e+00 5.792049e+00 3.337499e+00 -6.424809e-01 -4.271996e+00 -4.732409e+00 2.540951e-01 1.885616e-01 4.896031e-02 2.169532e-01 2.751397e-01 2.919902e-01 -1.174899e-01 -2.291413e-01 -1.527491e-01 4.130025e-01 1.072158e-01 -5.733035e-02 -1.004717e+00
<VARIANCE> 25
 1.708827e+01 2.031520e+01 1.263262e+01 2.226594e+01 2.398214e+01 5.680312e+01 5.781654e+01 3.199929e+01 2.186130e+01 3.851434e+01 3.876031e+01 3.489509e+01 7.582857e-01 1.198199e+00 1.106620e+00 8.689317e-01 1.421639e+00 1.274914e+00 2.766895e+00 2.165175e+00 1.166871e+00 1.581123e+00 1.500986e+00 1.333449e+00 2.192866e+00
<GCONST> 9.046282e+01
<TRANSP> 5
 0.000000e+00 1.000000e+00 0.000000e+00 0.000000e+00 0.000000e+00
 0.000000e+00 3.725504e-01 6.274496e-01 0.000000e+00 0.000000e+00
 0.000000e+00 0.000000e+00 7.326734e-01 2.673266e-01 0.000000e+00
 0.000000e+00 0.000000e+00 0.000000e+00 7.289769e-01 2.710231e-01
 0.000000e+00 0.000000e+00 0.000000e+00 0.000000e+00 0.000000e+00
<ENDHMM>
~h "ah"
<BEGINHMM>
<NUMSTATES> 5
<STATE> 2
<MEAN> 25
 1.051097e+00 -8.300797e-01 -1.001293e+00 -2.268298e+00 -2.529838e+00 -4.829185e+00 3.143857e-01 6.168666e-01 3.982513e+00 1.261529e+00 -4.278222e+00 -3.286860e+00 1.059856e+00 -4.295003e-01 -6.358582e-01 -9.276975e-01 3.224992e-01 -4.128743e-01 -1.040484e-01 -5.820479e-01 1.202468e+00 6.717344e-01 -8.882387e-01 -1.174839e+00 1.943121e+00
<VARIANCE> 25
 5.778141e+01 3.933612e+01 4.040083e+01 5.394951e+01 6.172989e+01 8.466651e+01 6.922540e+01 4.906849e+01 5.436601e+01 3.566991e+01 4.885213e+01 4.038073e+01 6.265475e+00 2.932122e+00 4.090889e+00 5.702129e+00 5.204471e+00 6.761607e+00 5.832664e+00 4.607687e+00 5.725479e+00 4.518472e+00 5.315172e+00 3.563917e+00 9.056021e+00
<GCONST> 1.145222e+02
<STATE> 3
<MEAN> 25
 7.373286e+00 -1.388381e+00 -4.726691e+00 -5.178913e+00 -1.634446e+00 -6.268644e+00 4.405991e-01 -2.561371e+00 6.669320e+00 5.131393e+00 -5.433099e+00 -7.353631e+00 3.723024e-01 5.255303e-01 1.957596e-01 2.252831e-01 -1.366672e-02 2.153152e-01 -1.642724e-01 -1.296139e-01 -1.038483e-01 1.206827e-01 1.271523e-01 2.797448e-01 -1.040959e+00
<VARIANCE> 25
 2.902027e+01 2.961903e+01 3.190906e+01 4.266612e+01 5.173379e+01 1.030807e+02 7.593481e+01 6.621648e+01 4.421842e+01 4.505434e+01 5.236272e+01 4.130847e+01 1.053599e+00 1.010416e+00 2.097506e+00 2.392731e+00 2.637524e+00 4.108370e+00 3.058112e+00 3.764450e+00 2.797785e+00 2.520787e+00 3.212633e+00 2.043005e+00 1.401658e+00
<GCONST> 1.029749e+02
<STATE> 4
<MEAN> 25
 6.323321e+00 3.461659e+00 3.005614e+00 -1.194098e+00 -2.151603e+00 -5.887473e+00 3.653076e-01 -1.923404e+00 2.006578e+00 1.879773e+00 -2.940298e+00 -1.264060e+00 -1.521775e-01 1.009698e-01 4.324476e-01 1.431909e-01 2.796538e-01 6.628761e-01 1.001641e-02 2.569691e-01 -3.855723e-01 -5.235235e-01 6.478212e-01 5.303278e-01 -1.129331e+00
<VARIANCE> 25
 4.551568e+01 3.836894e+01 5.647832e+01 5.114122e+01 4.831194e+01 4.859481e+01 4.650126e+01 4.451554e+01 5.759262e+01 3.063482e+01 3.910554e+01 3.436026e+01 1.832215e+00 1.394338e+00 2.459968e+00 2.145206e+00 2.011804e+00 2.425767e+00 2.587435e+00 3.931349e+00 2.629192e+00 2.039692e+00 3.250388e+00 1.979630e+00 7.715785e-01
<GCONST> 1.012439e+02
<TRANSP> 5
 0.000000e+00 1.000000e+00 0.000000e+00 0.000000e+00 0.000000e+00
 0.000000e+00 5.930763e-01 4.069237e-01 0.000000e+00 0.000000e+00
 0.000000e+00 0.000000e+00 7.802091e-01 2.197910e-01 0.000000e+00
 0.000000e+00 0.000000e+00 0.000000e+00 6.311373e-01 3.688627e-01
 0.000000e+00 0.000000e+00 0.000000e+00 0.000000e+00 0.000000e+00
<ENDHMM>
~h "ao"
<BEGINHMM>
<NUMSTATES> 5
<STATE> 2
<MEAN> 25
 -2.642705e+00 7.103080e+00 -1.253590e+01 -1.406790e+01 -3.255725e+00 8.707483e+00 -7.706232e-03 -6.005136e-02 2.165437e+00 -8.199361e+00 5.926640e+00 3.849435e-01 1.094443e+00 2.095886e+00 -3.049733e-02 -3.176698e+00 -1.825496e+00 1.069307e+00 7.368323e-01 -1.740569e+00 1.652496e+00 -1.936475e+00 -6.366892e-01 3.887904e-01 2.677443e+00
<VARIANCE> 25
 3.899563e+01 3.687423e+01 1.744845e+02 1.140890e+02 5.388896e+01 5.519782e+01 6.416607e+01 5.243267e+01 7.138384e+01 5.349685e+01 1.211874e+02 5.699226e+01 1.228134e+01 2.077779e+00 1.405739e+01 1.385195e+01 7.570849e+00 7.313866e+00 6.702457e+00 6.294042e+00 6.100837e+00 1.105983e+01 1.217415e+01 6.833512e+00 5.251983e+00
<GCONST> 1.228821e+02
<STATE> 3
<MEAN> 25
 8.608393e+00 1.328863e+01 -3.332644e+00 -2.301664e+01 -1.568021e+01 1.470599e+01 7.270831e+00 -9.773325e+00 1.084030e+01 -1.089687e+01 -6.134515e+00 4.279091e+00 2.287547e+00 4.498537e-01 1.899512e-01 -2.612722e+00 -2.323115e+00 1.204799e+00 -9.176634e-02 -1.394266e+00 1.962681e+00 -1.036389e+00 1.018324e+00 4.988171e-01 1.613112e+00
<VARIANCE> 25
 3.631508e+01 2.903917e+01 2.502636e+01 5.872841e+01 9.294436e+01 5.512542e+01 5.721770e+01 3.887067e+01 4.991365e+01 1.287890e+02 7.116700e+01 3.296413e+01 6.267815e+00 2.543099e+00 1.429306e+00 7.813935e+00 6.778389e+00 5.661234e+00 2.890268e+00 2.280488e+00 7.073146e+00 4.634635e+00 5.159409e+00 3.591500e+00 3.054566e+00
<GCONST> 1.112192e+02
<STATE> 4
<MEAN> 25
 1.023502e+01 1.394864e+01 -5.183190e+00 -2.826704e+01 -1.583380e+01 6.334105e+00 2.432758e+00 -7.775344e+00 1.761326e+01 -1.769116e+01 2.793048e+00 4.484701e+00 9.448291e-02 -4.571041e-01 2.930636e-02 5.212719e-01 1.173434e-01 -7.472424e-01 1.763218e-01 2.992178e-01 -3.367321e-01 6.251778e-01 9.017181e-02 -1.242675e-01 -4.257656e-01
<VARIANCE> 25
 1.238113e+01 2.431808e+01 1.703896e+01 5.568431e+01 3.709679e+01 9.551342e+01 3.181263e+01 4.392756e+01 5.186622e+01 5.098523e+01 3.029275e+01 2.853356e+01 4.018008e-01 9.012628e-01 9.644822e-01 2.623932e+00 1.903085e+00 1.648913e+00 1.453957e+00 2.047153e+00 2.530736e+00 2.741902e+00 1.556545e+00 1.733056e+00 6.058325e-01
<GCONST> 9.314238e+01
<TRANSP> 5
 0.000000e+00 1.000000e+00 0.000000e+00 0.000000e+00 0.000000e+00
 0.000000e+00 7.440783e-01 2.559217e-01 0.000000e+00 0.000000e+00
 0.000000e+00 0.000000e+00 6.825619e-01 3.174381e-01 0.000000e+00
 0.000000e+00 0.000000e+00 0.000000e+00 9.322041e-01 6.779589e-02
 0.000000e+00 0.000000e+00 0.000000e+00 0.000000e+00 0.000000e+00
<ENDHMM>
~h "aw"
<BEGINHMM>
<NUMSTATES> 5
<STATE> 2
<MEAN> 25
 5.407136e+00 2.371701e+00 -4.843389e+00 -1.017989e+01 6.839511e-02 5.710385e+00 -9.216740e-01 -4.194999e+00 8.091689e+00 2.140563e+00 -1.205463e+00 -7.468344e+00 4.425015e-01 -2.632296e-01 -5.132052e-01 -3.184399e-01 9.963910e-02 1.591155e-01 2.573018e-01 -1.632003e-01 1.194501e-01 2.738375e-01 -3.669136e-01 -4.385567e-01 1.195509e+00
<VARIANCE> 25
 3.624773e+01 5.788797e+01 2.708447e+01 8.209249e+01 3.589305e+01 5.385637e+01 6.635420e+01 5.282125e+01 3.404868e+01 5.064090e+01 5.101947e+01 3.664294e+01 4.103935e+00 3.714190e+00 2.712064e+00 4.631646e+00 2.993879e+00 4.502185e+00 5.128552e+00 4.619382e+00 4.617277e+00 3.604839e+00 4.144262e+00 4.259987e+00 8.539748e+00
<GCONST> 1.108661e+02
<STATE> 3
<MEAN> 25
 6.107567e+00 -3.946873e+00 -1.144993e+01 -1.217500e+01 5.434527e+00 4.451343e+00 7.132207e+00 -3.698618e+00 1.425992e+00 5.123579e+00 -4.393945e+00 -9.673820e+00 3.047441e-01 4.699326e-01 -1.678060e-01 -1.695373e-01 -1.982223e-01 -2.256052e-01 1.149903e-01 9.247500e-02 -3.839958e-01 6.939471e-01 2.751961e-01 3.402174e-01 -1.088836e+00
<VARIANCE> 25
 3.579383e+01 2.089412e+01 3.561760e+01 5.875255e+01 4.169013e+01 2.802096e+01 4.282691e+01 5.033387e+01 3.622415e+01 5.463649e+01 4.281322e+01 2.168633e+01 6.364328e-01 1.100664e+00 1.348854e+00 2.421265e+00 1.881549e+00 1.643855e+00 1.731546e+00 2.611761e+00 1.479068e+00 1.669126e+00 2.236827e+00 1.908129e+00 6.027261e-01
<GCONST> 9.468773e+01
<STATE> 4
<MEAN> 25
 4.453405e+00 2.731088e+00 -6.500347e+00 -6.023324e+00 1.528080e+00 2.088277e-01 3.742619e+00 2.334092e+00 1.335543e+00 5.727475e+00 9.748603e-02 -1.656812e+00 -9.339848e-01 4.615580e-02 8.427635e-01 5.097317e-01 1.247575e-01 -1.814258e-01 4.873570e-02 6.652874e-01 2.679180e-01 -1.218284e+00 5.062647e-01 4.701349e-01 -1.037200e+00
<VARIANCE> 25
 9.882207e+01 3.927396e+01 4.240361e+01 3.212619e+01 3.205571e+01 2.640837e+01 1.967285e+01 3.292321e+01 3.302456e+01 4.837442e+01 1.923280e+01 1.659648e+01 4.371015e+00 2.965948e+00 2.561623e+00 2.535836e+00 1.886965e+00 3.446120e+00 2.116866e+00 2.187557e+00 1.876229e+00 2.310268e+00 2.083722e+00 2.070269e+00 1.089653e+00
<GCONST> 9.863695e+01
<TRANSP> 5
 0.000000e+00 1.000000e+00 0.000000e+00 0.000000e+00 0.000000e+00
 0.000000e+00 9.098631e-01 9.013694e-02 0.000000e+00 0.000000e+00
 0.000000e+00 0.000000e+00 9.183354e-01 8.166467e-02 0.000000e+00
 0.000000e+00 0.000000e+00 0.000000e+00 8.441637e-01 1.558363e-01
 0.000000e+00 0.000000e+00 0.000000e+00 0.000000e+00 0.000000e+00
<ENDHMM>
~h "ay"
<BEGINHMM>
<NUMSTATES> 5
<STATE> 2
<MEAN> 25
 -4.706648e+00 6.074996e+00 -2.625776e+00 3.693683e+00 8.578088e-01 1.257617e+00 -1.481850e+00 -2.222573e+00 1.788577e+00 -9.123771e-01 -5.876755e-01 1.871574e-01 1.587884e+00 4.720544e-01 -3.859517e-01 -9.918835e-01 -7.182826e-01 -3.668746e-01 1.312632e-01 -1.611236e+00 9.780157e-01 -6.993506e-01 -2.690187e-01 -5.109645e-01 2.928995e+00
<VARIANCE> 25
 1.417976e+02 7.495683e+01 8.129649e+01 5.925545e+01 3.250695e+01 3.396130e+01 4.606889e+01 4.701272e+01 7.099751e+01 3.184531e+01 2.893506e+01 1.984446e+01 1.148561e+01 6.601430e+00 6.696095e+00 6.280171e+00 3.493133e+00 4.780394e+00 4.954204e+00 5.812232e+00 7.635742e+00 4.729881e+00 4.498847e+00 3.694188e+00 8.815705e+00
<GCONST> 1.152786e+02
<STATE> 3
<MEAN> 25
 1.021354e+01 1.611014e+00 -6.350390e+00 -1.161142e+01 -5.391384e+00 4.461692e+00 1.498310e+00 -1.020952e+01 1.017659e+01 -6.133077e+00 -1.195579e+00 -3.425789e+00 -1.138418e-01 -1.406843e+00 -2.069995e-01 -1.192031e+00 9.401960e-01 -1.014286e-01 1.338760e+00 2.817801e-01 1.486261e-01 4.177661e-01 -3.267865e-01 -1.364942e+00 1.515258e+00
<VARIANCE> 25
 2.374414e+01 9.636639e+01 9.018580e+01 1.730112e+02 7.978221e+01 7.905493e+01 9.715308e+01 7.484992e+01 7.935249e+01 8.568510e+01 5.218245e+01 8.000078e+01 4.100921e+00 1.648159e+00 3.065469e+00 4.609405e+00 5.023625e+00 6.141930e+00 7.405998e+00 6.413495e+00 5.727713e+00 3.752245e+00 3.369335e+00 3.890302e+00 3.925123e+00
<GCONST> 1.169976e+02
<STATE> 4
<MEAN> 25
 6.077058e+00 -6.755387e+00 -5.362939e+00 -7.289267e+00 1.203730e+00 -5.762606e+00 7.478703e+00 -3.123288e+00 6.442462e+00 -1.043630e+00 -2.458794e+00 -9.120017e+00 8.348329e-02 2.316129e-01 3.892275e-01 4.509018e-01 -4.659315e-01 -6.352895e-01 -2.448915e-01 5.532506e-01 -2.529674e-01 1.672393e-01 6.734762e-02 4.321283e-01 -7.837462e-01
<VARIANCE> 25
 9.704368e+00 2.607650e+01 5.182904e+01 3.605182e+01 8.509900e+01 1.018232e+02 3.043909e+01 7.066571e+01 3.571816e+01 4.177163e+01 3.116533e+01 3.398346e+01 6.072463e-01 8.891351e-01 1.751486e+00 1.572960e+00 3.215796e+00 3.676492e+00 2.094446e+00 3.277228e+00 2.143962e+00 2.563483e+00 1.891919e+00 1.998551e+00 9.729375e-01
<GCONST> 9.782725e+01
<TRANSP> 5
 0.000000e+00 1.000000e+00 0.000000e+00 0.000000e+00 0.000000e+00
 0.000000e+00 8.114514e-01 1.885486e-01 0.000000e+00 0.000000e+00
 0.000000e+00 0.000000e+00 8.478511e-01 1.521489e-01 0.000000e+00
 0.000000e+00 0.000000e+00 0.000000e+00 9.390866e-01 6.091338e-02
 0.000000e+00 0.000000e+00 0.000000e+00 0.000000e+00 0.000000e+00
<ENDHMM>
~h "ch"
<BEGINHMM>
<NUMSTATES> 5
<STATE> 2
<MEAN> 25
 -5.868546e+00 -1.291491e+00 1.960234e+00 9.122660e+00 2.638505e+00 2.413441e+00 -4.149701e+00 2.578264e+00 2.908078e+00 -3.227549e+00 -1.251671e+00 4.983215e+00 8.588925e-01 -3.276781e-01 -2.697057e-01 -2.593546e-01 -6.771801e-02 6.521057e-01 -5.799741e-01 -4.322390e-01 2.084876e-01 -3.228987e-01 1.735885e-01 2.816952e-01 -4.736799e-01
<VARIANCE> 25
 3.152889e+01 1.792204e+01 5.923292e+01 3.756568e+01 3.621925e+01 3.825568e+01 3.498793e+01 2.278703e+01 4.666041e+01 2.366746e+01 2.467559e+01 2.178219e+01 1.624852e+00 4.088192e+00 8.457913e+00 6.040070e+00 5.276758e+00 5.710345e+00 3.572571e+00 8.450872e-01 7.872327e+00 3.694753e+00 1.489279e+00 2.128764e+00 5.068490e-01
<GCONST> 1.013826e+02
<STATE> 3
<MEAN> 25
 3.939078e-01 -3.149377e+00 2.036500e+00 4.764762e+00 4.879035e+00 4.040843e+00 6.315283e-01 3.009170e+00 -2.867430e+00 1.996158e+00 1.671738e-01 3.070711e+00 -1.571960e-02 -3.277247e-02 -2.391733e-02 2.845096e-02 -5.927183e-02 1.276054e-01 -8.076897e-02 2.047648e-01 3.147627e-02 9.249530e-02 -5.959786e-02 -4.344145e-03 -1.289233e-01
<VARIANCE> 25
 1.284481e+00 1.069734e+01 3.249405e+00 5.650807e+00 6.116925e+00 9.031871e+00 9.927605e+00 1.480376e+01 1.177276e+01 1.343147e+01 1.435642e+01 1.532003e+01 2.142038e-01 2.169495e-01 3.925599e-01 5.849315e-01 7.569750e-01 6.685031e-01 1.089079e+00 1.412924e+00 1.397685e+00 1.210946e+00 1.691268e+00 1.332368e+00 3.171094e-02
<GCONST> 6.403348e+01
<STATE> 4
<MEAN> 25
 -9.573297e+00 8.369402e-01 1.943815e+00 2.896753e-01 -5.397389e+00 2.111603e-01 -8.710173e-01 3.820039e-02 6.136045e+00 -3.623528e-01 -1.440343e+00 1.416353e+00 -2.890539e-01 2.015162e-01 5.267506e-02 -3.369898e-01 -6.275088e-01 8.220808e-02 -1.282464e-01 -5.641733e-01 3.571888e-01 -2.063798e-01 -4.177949e-01 -3.325023e-01 1.331137e+00
<VARIANCE> 25
 1.263202e+02 2.872433e+01 2.740301e+01 3.659506e+01 3.511214e+01 9.864736e+01 2.195579e+01 4.452529e+01 3.923677e+01 1.828935e+01 1.968265e+01 2.354884e+01 8.974378e+00 2.972291e+00 2.999614e+00 5.127585e+00 5.022828e+00 8.903257e+00 2.347368e+00 4.389319e+00 5.308131e+00 2.550226e+00 3.012066e+00 2.154349e+00 8.507557e+00
<GCONST> 1.075702e+02
<TRANSP> 5
 0.000000e+00 1.000000e+00 0.000000e+00 0.000000e+00 0.000000e+00
 0.000000e+00 7.208578e-01 2.791422e-01 0.000000e+00 0.000000e+00
 0.000000e+00 0.000000e+00 9.518822e-01 4.811779e-02 0.000000e+00
 0.000000e+00 0.000000e+00 0.000000e+00 9.055892e-01 9.441081e-02
 0.000000e+00 0.000000e+00 0.000000e+00 0.000000e+00 0.000000e+00
<ENDHMM>
~h "dh"
<BEGINHMM>
<NUMSTATES> 5
<STATE> 2
<MEAN> 25
 9.333925e-01 4.671832e+00 -1.831508e+00 -1.296908e+00 -6.647266e+00 -9.072097e+00 -6.406217e+00 -5.438203e+00 8.397382e+00 -9.905009e-01 -7.603955e+00 -5.237828e+00 9.451327e-01 -1.442149e+00 1.355025e-02 -9.917243e-01 -4.355223e-01 1.084692e-01 -9.047898e-01 1.441754e-01 4.566944e-01 7.026292e-01 -2.128488e-01 -1.248270e+00 9.383201e-01
<VARIANCE> 25
 3.325001e+01 3.764337e+01 2.497144e+01 3.170354e+01 3.256256e+01 3.363758e+01 6.626836e+01 7.536366e+01 3.147136e+01 2.166569e+01 3.406887e+01 3.934504e+01 3.621401e+00 1.851204e+00 2.301068e+00 2.791857e+00 3.208297e+00 1.927764e+00 2.947195e+00 5.214265e+00 2.707632e+00 2.590720e+00 3.378201e+00 3.185383e+00 2.666023e+00
<GCONST> 1.026154e+02
<STATE> 3
<MEAN> 25
 1.062198e+01 -4.111557e+00 -1.743665e+00 -6.627115e-01 -1.014818e+01 -1.001399e+01 -6.080660e+00 7.757573e-01 9.356887e+00 7.040188e+00 -6.259759e+00 -3.684460e+00 -2.819543e-01 1.378492e-02 -1.510226e-01 1.813563e-01 7.474936e-01 3.671246e-01 1.270418e-01 5.667650e-01 -4.272240e-01 9.901297e-02 6.180739e-01 5.097339e-01 -1.279162e+00
<VARIANCE> 25
 1.900276e+01 1.916250e+01 9.640170e+00 4.648026e+01 2.919957e+01 5.267073e+01 3.714957e+01 6.831981e+01 2.119541e+01 2.316726e+01 2.925296e+01 4.882762e+01 1.831514e+00 1.600063e+00 8.229579e-01 2.078635e+00 8.851420e-01 2.721323e+00 2.149099e+00 3.317169e+00 1.747532e+00 2.344065e+00 2.157843e+00 1.923406e+00 3.059418e-01
<GCONST> 9.269186e+01
<STATE> 4
<MEAN> 25
 4.028581e+00 -3.575044e+00 -5.111291e+00 -8.834800e+00 1.064863e-01 -7.057962e+00 -8.157852e-01 -1.839427e+00 6.378970e+00 4.415889e+00 -4.350228e+00 -1.036166e+01 -1.217207e-01 3.427754e-02 1.378396e-01 -2.105991e-02 3.699994e-01 3.642976e-01 4.566913e-01 -2.429425e-01 -4.559450e-01 3.689670e-02 1.060066e-01 5.108827e-01 -7.409024e-01
<VARIANCE> 25
 1.456715e+01 1.823026e+01 1.435562e+01 4.413673e+01 2.451094e+01 3.602306e+01 2.316458e+01 3.049288e+01 2.109762e+01 3.618863e+01 7.420912e+01 6.933560e+01 1.216788e+00 1.444873e+00 1.361380e+00 2.624844e+00 2.168136e+00 4.586393e+00 2.266725e+00 3.087108e+00 2.626829e+00 2.637458e+00 3.651348e+00 3.599264e+00 1.362944e+00
<GCONST> 9.740871e+01
<TRANSP> 5
 0.000000e+00 1.000000e+00 0.000000e+00 0.000000e+00 0.000000e+00
 0.000000e+00 8.563964e-01 1.436035e-01 0.000000e+00 0.000000e+00
 0.000000e+00 0.000000e+00 8.872551e-01 1.127449e-01 0.000000e+00
 0.000000e+00 0.000000e+00 0.000000e+00 8.490557e-01 1.509443e-01
 0.000000e+00 0.000000e+00 0.000000e+00 0.000000e+00 0.000000e+00
<ENDHMM>
~h "eh"
<BEGINHMM>
<NUMSTATES> 5
<STATE> 2
<MEAN> 25
 2.550249e+00 1.562190e+00 2.310008e+00 -1.157712e+00 -3.136231e+00 -7.545713e+00 -1.312241e-01 -2.114038e-01 6.594859e-01 -1.820708e+00 -5.165037e+00 -2.104467e+00 5.617541e-01 -1.098509e+00 -4.711045e-02 -9.362009e-01 -1.030878e+00 -1.750584e+00 9.168687e-01 1.021186e+00 6.354744e-01 -1.869579e-01 -4.899156e-01 -4.411431e-01 3.053217e+00
<VARIANCE> 25
 5.820834e+01 5.097522e+01 5.145545e+01 5.067016e+01 7.022075e+01 7.148696e+01 6.520516e+01 3.914323e+01 4.359400e+01 3.111646e+01 5.494547e+01 4.080606e+01 5.730209e+00 5.560944e+00 5.247499e+00 2.813923e+00 3.868756e+00 7.083342e+00 6.572167e+00 5.130549e+00 3.937711e+00 3.603478e+00 6.063501e+00 3.130199e+00 7.006255e+00
<GCONST> 1.136274e+02
<STATE> 3
<MEAN> 25
 4.206448e+00 -4.330195e+00 -4.327878e+00 -4.863627e+00 -4.602934e+00 -1.220889e+01 8.681747e+00 4.247507e+00 7.224453e+00 -1.194670e+00 -5.517881e+00 -6.372552e+00 6.320331e-02 9.982690e-02 -1.006532e-01 1.022092e-01 6.413127e-02 -1.101903e-02 1.336061e-01 8.702610e-02 4.710267e-02 1.736206e-01 -7.376355e-02 8.241787e-02 -5.931748e-01
<VARIANCE> 25
 1.964703e+01 1.561000e+01 3.357549e+01 2.287655e+01 2.816924e+01 5.585097e+01 5.844378e+01 3.472656e+01 2.857936e+01 2.582159e+01 4.155882e+01 3.117827e+01 7.556102e-01 9.839226e-01 1.858451e+00 1.286955e+00 1.825430e+00 2.213247e+00 3.143156e+00 2.479437e+00 1.604480e+00 1.954230e+00 1.564958e+00 1.597189e+00 1.311600e+00
<GCONST> 9.341917e+01
<STATE> 4
<MEAN> 25
 4.155514e+00 1.154445e+00 9.819095e-01 -2.202491e+00 -8.297213e+00 -1.119130e+01 2.950241e+00 1.447506e+00 3.495970e+00 1.019955e+00 -3.507676e+00 -1.667534e+00 -1.728779e-01 3.835323e-01 4.588271e-03 3.949560e-01 2.151318e-01 3.823109e-01 -5.844437e-01 -3.881960e-01 3.020650e-03 -1.385035e-01 4.216798e-01 2.932769e-01 -1.099517e+00
<VARIANCE> 25
 2.961433e+01 2.295082e+01 3.617002e+01 2.795949e+01 3.064491e+01 4.594148e+01 4.210263e+01 4.854195e+01 6.514442e+01 3.138516e+01 2.873007e+01 2.614059e+01 2.762979e+00 2.007517e+00 2.003733e+00 1.741215e+00 1.798540e+00 3.492456e+00 3.621197e+00 3.264992e+00 2.917514e+00 2.525690e+00 2.619704e+00 1.723113e+00 1.386795e+00
<GCONST> 9.960616e+01
<TRANSP> 5
 0.000000e+00 1.000000e+00 0.000000e+00 0.000000e+00 0.000000e+00
 0.000000e+00 7.398323e-01 2.601676e-01 0.000000e+00 0.000000e+00
 0.000000e+00 0.000000e+00 8.818741e-01 1.181259e-01 0.000000e+00
 0.000000e+00 0.000000e+00 0.000000e+00 7.912194e-01 2.087805e-01
 0.000000e+00 0.000000e+00 0.000000e+00 0.000000e+00 0.000000e+00
<ENDHMM>
~h "er"
<BEGINHMM>
<NUMSTATES> 5
<STATE> 2
<MEAN> 25
 -3.377814e+00 -3.428454e+00 -1.206562e+00 1.335715e+00 4.112936e+00 2.238709e+00 -3.340213e-01 1.445198e+00 -1.697795e+00 -7.213385e-01 5.377021e-01 1.141232e+00 -7.361895e-02 -3.124791e-02 6.973918e-03 9.546103e-02 4.292947e-02 1.582940e-01 2.497606e-02 4.060936e-02 -1.126128e-01 -6.043452e-02 -3.902539e-02 -2.817971e-02 -1.544322e-01
<VARIANCE> 25
 5.860556e+00 4.181017e+00 5.392410e+00 8.276231e+00 1.354109e+01 1.448830e+01 1.247787e+01 1.663140e+01 1.934777e+01 1.599137e+01 1.112659e+01 1.403468e+01 2.087851e-01 2.574261e-01 4.857919e-01 5.807883e-01 9.826921e-01 1.186691e+00 1.227087e+00 1.516028e+00 1.719509e+00 1.412189e+00 9.926255e-01 1.359830e+00 8.510379e-02
<GCONST> 6.965280e+01
<STATE> 3
<MEAN> 25
 -1.933222e+00 -1.625536e+00 -1.306026e+00 2.476425e+00 6.257092e-01 8.414881e-01 -3.300873e-01 1.676411e+00 -1.471153e-01 -1.871717e-01 -2.871652e-01 1.048203e+00 4.251562e-02 6.271444e-02 2.914314e-01 2.134873e-01 -1.206729e-01 4.399306e-01 6.619784e-02 -2.363378e-01 -6.162171e-01 -7.885873e-01 -3.921078e-01 -4.250323e-01 -1.730663e-01
<VARIANCE> 25
 3.022486e+01 1.177907e+01 1.066620e+01 2.680475e+01 4.330081e+01 3.977988e+01 4.174780e+01 2.111198e+01 4.957929e+01 1.665277e+01 2.167274e+01 1.857425e+01 1.654830e+00 9.473521e-01 1.774024e+00 1.298036e+00 1.488387e+00 1.927412e+00 2.000804e+00 1.775752e+00 2.597683e+00 2.299323e+00 1.117444e+00 1.361003e+00 3.701921e-01
<GCONST> 8.924270e+01
<STATE> 4
<MEAN> 25
 -1.388993e+00 -1.923521e+00 -1.785101e+00 1.424437e-01 -1.214813e+00 1.674821e+00 -1.198315e+00 2.260348e+00 -2.581863e+00 -1.501435e+00 -6.815070e-01 1.275428e-02 2.455837e-01 4.099185e-02 8.501942e-02 -2.639849e-01 -1.510156e-01 1.880895e-01 9.086552e-02 -1.248154e-03 -7.646640e-02 5.056048e-02 -7.519240e-02 -2.256165e-01 1.150077e-02
<VARIANCE> 25
 1.107076e+01 8.224736e+00 1.383908e+01 2.307573e+01 2.911996e+01 2.762729e+01 1.922600e+01 1.661101e+01 3.190166e+01 1.569577e+01 2.292247e+01 1.688973e+01 1.486879e+00 6.370195e-01 1.398772e+00 2.211278e+00 2.591222e+00 3.315363e+00 1.488563e+00 2.296000e+00 1.726720e+00 2.217596e+00 1.748819e+00 1.619923e+00 4.664680e-01
<GCONST> 8.693206e+01
<TRANSP> 5
 0.000000e+00 1.000000e+00 0.000000e+00 0.000000e+00 0.000000e+00
 0.000000e+00 9.202724e-01 7.972762e-02 0.000000e+00 0.000000e+00
 0.000000e+00 0.000000e+00 9.108790e-02 9.089121e-01 0.000000e+00
 0.000000e+00 0.000000e+00 0.000000e+00 5.459041e-01 4.540959e-01
 0.000000e+00 0.000000e+00 0.000000e+00 0.000000e+00 0.000000e+00
<ENDHMM>
~h "ey"
<BEGINHMM>
<NUMSTATES> 5
<STATE> 2
<MEAN> 25
 1.318361e+00 3.619279e-01 7.820092e+00 -5.292451e+00 -1.298030e+01 -9.439548e+00 4.182397e+00 2.237371e-01 -7.100770e-01 1.974046e+00 4.785007e-01 -1.300817e+00 -8.094402e-02 5.690715e-01 7.918466e-01 -2.865124e-01 -5.932252e-01 -3.660558e-01 2.411075e-01 -7.875589e-01 -4.867981e-01 1.913389e-01 5.575425e-02 1.716613e-01 6.515477e-01
<VARIANCE> 25
 1.541874e+01 1.715073e+01 3.636645e+01 2.726699e+01 4.167629e+01 4.918456e+01 5.840672e+01 2.146708e+01 3.242795e+01 3.361080e+01 2.724135e+01 2.104417e+01 7.996616e-01 1.087926e+00 1.888078e+00 1.614877e+00 2.493179e+00 3.275048e+00 4.500190e+00 2.032483e+00 2.897206e+00 2.462903e+00 2.636605e+00 1.730485e+00 7.185993e+00
<GCONST> 9.727247e+01
<STATE> 3
<MEAN> 25
 -2.857860e-01 5.088840e+00 1.044434e+01 2.291634e+00 -1.186511e+01 -7.830794e+00 5.088777e-01 -2.687274e+00 9.815888e-01 -2.734234e+00 -1.312518e+00 -1.657003e-01 3.626211e-01 2.030470e-02 -2.119124e-01 1.064864e-01 2.798574e-01 -5.122571e-02 1.656513e-02 3.394958e-02 2.632807e-01 -3.074462e-02 -2.621092e-01 9.756301e-02 -5.099619e-01
<VARIANCE> 25
 1.052423e+02 3.697808e+01 5.609490e+01 3.563359e+01 4.634436e+01 5.073666e+01 4.936033e+01 3.860189e+01 4.753705e+01 3.309109e+01 2.772146e+01 2.393428e+01 5.628850e+00 2.631061e+00 3.311584e+00 1.915129e+00 2.154319e+00 3.538743e+00 3.628853e+00 2.675157e+00 2.909764e+00 2.409562e+00 1.685335e+00 2.135867e+00 1.574834e+00
<GCONST> 1.035165e+02
<STATE> 4
<MEAN> 25
 3.349555e+00 7.908045e+00 1.057691e+01 -4.255455e+00 -1.053651e+01 -7.044570e+00 1.461004e+00 -7.403920e+00 -4.807600e+00 4.072430e+00 -1.216585e+00 1.592931e+00 1.531257e-01 1.295112e-01 -3.648583e-01 6.335448e-01 9.697710e-01 1.712522e-01 -6.178527e-01 9.927748e-02 1.480773e-01 -8.303423e-02 3.317132e-01 6.733823e-02 -1.392660e+00
<VARIANCE> 25
 3.032270e+01 2.369414e+01 4.847404e+01 5.922396e+01 6.135703e+01 4.962378e+01 4.031032e+01 4.783469e+01 4.239619e+01 3.128774e+01 3.267481e+01 2.673660e+01 1.616983e+00 2.139338e+00 2.247565e+00 1.672587e+00 2.416680e+00 2.097159e+00 3.054598e+00 2.774802e+00 2.385806e+00 2.352928e+00 2.318241e+00 1.449290e+00 7.920701e-01
<GCONST> 9.906431e+01
<TRANSP> 5
 0.000000e+00 1.000000e+00 0.000000e+00 0.000000e+00 0.000000e+00
 0.000000e+00 8.713377e-01 1.286623e-01 0.000000e+00 0.000000e+00
 0.000000e+00 0.000000e+00 8.759139e-01 1.240861e-01 0.000000e+00
 0.000000e+00 0.000000e+00 0.000000e+00 8.484042e-01 1.515957e-01
 0.000000e+00 0.000000e+00 0.000000e+00 0.000000e+00 0.000000e+00
<ENDHMM>
~h "hh"
<BEGINHMM>
<NUMSTATES> 5
<STATE> 2
<MEAN> 25
 -5.771761e+00 -4.147632e+00 9.049065e-01 -1.378378e+00 6.386435e-01 1.326092e+00 3.937280e+00 1.768498e+00 1.178888e+00 -2.194319e+00 -1.413199e+00 2.394860e+00 -7.168037e-02 2.187277e-02 -2.065524e-03 -9.354274e-01 1.625680e-01 2.992756e-01 1.486379e+00 -5.835504e-02 6.298053e-01 -4.857222e-01 -7.432534e-01 -4.961365e-01 1.547353e+00
<VARIANCE> 25
 1.167213e+01 2.561288e+01 1.078680e+01 5.848445e+01 6.555293e+01 7.363323e+01 6.706573e+01 6.601305e+01 4.385026e+01 2.658303e+01 4.287066e+01 2.117018e+01 2.765136e+00 2.786429e+00 1.216032e+00 5.902660e+00 4.340279e+00 4.574080e+00 6.122231e+00 5.272967e+00 5.527449e+00 3.631466e+00 3.924964e+00 3.364630e+00 4.034175e+00
<GCONST> 1.062942e+02
<STATE> 3
<MEAN> 25
 -1.577990e+00 1.561670e+00 -3.793684e+00 -8.275200e+00 1.961091e+00 2.895109e+00 8.632126e+00 6.340008e-01 9.729646e+00 -5.618683e+00 -4.322133e+00 -4.370420e+00 1.109033e+00 8.188112e-01 -1.065063e+00 -1.260840e+00 -7.563314e-02 -1.245199e-01 -5.123748e-01 -6.143878e-01 1.113053e+00 6.020380e-02 6.305976e-01 -1.286829e+00 2.408532e+00
<VARIANCE> 25
 6.255790e+01 2.016066e+01 3.396336e+01 1.266942e+02 4.854844e+01 1.033587e+02 3.511392e+01 4.693900e+01 3.904286e+01 2.885982e+01 4.316423e+01 5.808505e+01 4.326116e+00 2.892397e+00 1.818536e+00 5.314555e+00 2.443512e+00 4.260379e+00 3.234328e+00 3.998146e+00 4.157184e+00 2.061924e+00 2.426145e+00 3.868021e+00 3.207796e+00
<GCONST> 1.074869e+02
<STATE> 4
<MEAN> 25
 7.700731e+00 1.309424e+00 -8.514664e+00 -1.612341e+01 3.989547e+00 1.264522e+00 6.175325e+00 -1.086889e+01 8.050752e+00 8.158876e-01 -1.357722e+00 -1.016894e+01 5.390819e-01 1.548377e-01 -3.039136e-03 8.794024e-02 -4.133120e-01 -6.289120e-01 -4.750561e-01 -2.464141e-01 -6.352539e-01 2.965654e-01 2.003140e-01 4.351337e-01 -9.076844e-01
<VARIANCE> 25
 2.135366e+01 1.540876e+01 2.966849e+01 6.649207e+01 3.295159e+01 5.167279e+01 5.580416e+01 3.568403e+01 3.521663e+01 2.699848e+01 1.822801e+01 5.916109e+01 6.415036e-01 1.469836e+00 1.559412e+00 4.610003e+00 1.400306e+00 3.599739e+00 2.904193e+00 3.483345e+00 2.360634e+00 2.090257e+00 1.978049e+00 2.896839e+00 2.069315e+00
<GCONST> 9.812193e+01
<TRANSP> 5
 0.000000e+00 1.000000e+00 0.000000e+00 0.000000e+00 0.000000e+00
 0.000000e+00 8.550676e-01 1.449324e-01 0.000000e+00 0.000000e+00
 0.000000e+00 0.000000e+00 8.102446e-01 1.897554e-01 0.000000e+00
 0.000000e+00 0.000000e+00 0.000000e+00 8.498262e-01 1.501738e-01
 0.000000e+00 0.000000e+00 0.000000e+00 0.000000e+00 0.000000e+00
<ENDHMM>
~h "ih"
<BEGINHMM>
<NUMSTATES> 5
<STATE> 2
<MEAN> 25
 -1.788858e+00 4.997713e+00 7.949783e+00 2.247537e+00 -7.908369e+00 -2.979709e+00 -1.234796e+00 -4.271737e+00 -2.399426e+00 -2.993539e+00 -9.148313e-01 -1.574088e+00 1.857082e-01 6.793049e-01 2.358814e+00 -7.253621e-01 -1.989366e+00 -1.054370e+00 9.146637e-02 -6.405646e-01 -1.568298e+00 -5.872609e-01 -1.694657e-01 -7.657955e-01 2.536783e+00
<VARIANCE> 25
 8.835213e+01 5.743435e+01 9.741149e+01 6.700610e+01 7.791989e+01 5.555091e+01 5.141407e+01 5.007269e+01 5.473587e+01 4.914944e+01 4.899760e+01 3.267815e+01 8.979548e+00 5.792510e+00 6.027616e+00 6.800635e+00 5.359089e+00 4.575075e+00 4.530210e+00 4.902936e+00 6.255825e+00 5.656971e+00 3.828528e+00 2.575102e+00 6.074115e+00
<GCONST> 1.163886e+02
<STATE> 3
<MEAN> 25
 1.110425e-01 8.033995e+00 1.604771e+01 -4.958675e+00 -1.615018e+01 -5.900629e+00 -1.740086e+00 -6.842463e+00 -1.056342e+01 -2.568442e-01 -8.951703e-01 -5.051656e+00 3.824819e-01 2.267685e-01 -1.074337e-01 -2.078984e-01 2.221535e-01 3.421621e-02 -1.814669e-01 -2.753044e-01 -7.273756e-02 4.521740e-01 1.574440e-01 1.959696e-01 -9.662905e-01
<VARIANCE> 25
 1.748119e+01 2.717436e+01 3.584953e+01 3.973590e+01 2.278590e+01 4.551519e+01 3.200363e+01 3.331036e+01 2.616364e+01 5.137661e+01 1.962140e+01 2.959266e+01 9.255548e-01 1.456191e+00 1.431157e+00 2.103608e+00 2.310889e+00 2.081914e+00 1.692876e+00 1.853199e+00 2.306931e+00 2.148402e+00 1.850090e+00 1.979107e+00 1.359673e+00
<GCONST> 9.417614e+01
<STATE> 4
<MEAN> 25
 -1.081221e+00 8.012753e+00 9.017629e+00 -1.963112e+00 -9.227815e+00 -3.535410e+00 -3.593482e+00 -6.317287e+00 -2.170178e+00 3.752803e-01 -6.404735e-01 1.389406e+00 -2.871686e-01 -4.675095e-01 -1.048906e+00 6.273480e-01 9.231606e-01 -4.035920e-02 -1.445516e-01 3.142224e-01 9.649072e-01 2.695642e-02 -1.613107e-01 5.046805e-01 -7.705977e-01
<VARIANCE> 25
 1.016243e+02 2.987068e+01 3.869340e+01 5.366863e+01 3.342112e+01 7.520784e+01 5.635433e+01 6.033510e+01 4.657368e+01 4.633191e+01 4.047351e+01 1.743591e+01 3.616673e+00 1.634674e+00 2.608685e+00 2.395834e+00 2.102342e+00 3.472456e+00 1.949486e+00 3.196167e+00 2.920241e+00 2.791222e+00 3.345685e+00 1.879430e+00 1.385311e+00
<GCONST> 1.034904e+02
<TRANSP> 5
 0.000000e+00 1.000000e+00 0.000000e+00 0.000000e+00 0.000000e+00
 0.000000e+00 7.878621e-01 2.121379e-01 0.000000e+00 0.000000e+00
 0.000000e+00 0.000000e+00 8.876622e-01 1.123379e-01 0.000000e+00
 0.000000e+00 0.000000e+00 0.000000e+00 8.119270e-01 1.880731e-01
 0.000000e+00 0.000000e+00 0.000000e+00 0.000000e+00 0.000000e+00
<ENDHMM>
~h "iy"
<BEGINHMM>
<NUMSTATES> 5
<STATE> 2
<MEAN> 25
 3.417618e-01 3.666995e+00 7.417376e+00 2.498171e+00 -8.865488e+00 -6.722355e+00 2.919626e+00 -5.863047e+00 -3.214041e+00 -5.446166e+00 -1.424103e+00 -9.255587e-01 2.732176e-01 5.010278e-01 2.029590e+00 -1.433955e+00 -2.071238e+00 -6.348358e-01 -3.647302e-01 -6.143793e-01 -1.812942e+00 2.604234e-02 1.383735e-01 -5.957263e-01 2.317652e+00
<VARIANCE> 25
 1.019742e+02 5.050316e+01 6.519658e+01 5.510829e+01 7.523740e+01 6.019044e+01 7.134389e+01 9.848988e+01 7.431819e+01 3.741487e+01 2.734027e+01 2.623603e+01 5.106063e+00 4.714686e+00 3.835129e+00 3.483745e+00 5.992487e+00 4.012144e+00 5.655467e+00 6.358974e+00 5.318785e+00 4.818353e+00 4.408607e+00 2.311153e+00 4.700605e+00
<GCONST> 1.141103e+02
<STATE> 3
<MEAN> 25
 -5.455160e-01 9.064018e+00 1.700159e+01 -4.429991e+00 -1.657544e+01 -6.567528e+00 -2.929791e+00 -9.325384e+00 -1.041096e+01 -5.597643e-01 -1.726491e+00 -5.987403e+00 3.831994e-01 1.157475e-01 1.313156e-01 7.129142e-02 3.640697e-01 7.031980e-02 -7.523161e-02 -1.179847e-01 1.972812e-01 3.110342e-01 2.329946e-02 -5.729277e-02 -8.296241e-01
<VARIANCE> 25
 1.943028e+01 2.373543e+01 2.653549e+01 3.426580e+01 2.470000e+01 4.506961e+01 3.979128e+01 2.936463e+01 2.737307e+01 3.154425e+01 2.535872e+01 3.303262e+01 9.058470e-01 1.634044e+00 1.357284e+00 2.168403e+00 2.710421e+00 2.369848e+00 2.141050e+00 2.002588e+00 2.119739e+00 1.848780e+00 2.033635e+00 1.849811e+00 9.331239e-01
<GCONST> 9.387222e+01
<STATE> 4
<MEAN> 25
 5.214265e+00 1.117320e+00 9.529012e+00 2.487623e+00 -5.330488e+00 -8.493068e+00 -4.374294e+00 -3.377450e+00 -2.960888e+00 7.153339e-01 1.251700e+00 5.986086e-01 -9.450258e-02 -5.340832e-01 -1.331164e+00 2.382381e-01 1.183811e+00 3.207202e-01 -3.889887e-02 6.978409e-01 9.296362e-01 3.911385e-02 -1.900478e-02 1.372221e-01 -7.776472e-01
<VARIANCE> 25
 2.852812e+01 2.409744e+01 5.595274e+01 3.190826e+01 4.826847e+01 6.583107e+01 3.477075e+01 6.022459e+01 3.147663e+01 3.020956e+01 2.211411e+01 3.573268e+01 1.552714e+00 1.368988e+00 2.109682e+00 1.855821e+00 1.655651e+00 2.125209e+00 1.254763e+00 2.582369e+00 3.161331e+00 2.190610e+00 2.155059e+00 2.853651e+00 7.774817e-01
<GCONST> 9.726025e+01
<TRANSP> 5
 0.000000e+00 1.000000e+00 0.000000e+00 0.000000e+00 0.000000e+00
 0.000000e+00 7.361501e-01 2.638499e-01 0.000000e+00 0.000000e+00
 0.000000e+00 0.000000e+00 8.906521e-01 1.093479e-01 0.000000e+00
 0.000000e+00 0.000000e+00 0.000000e+00 7.900969e-01 2.099031e-01
 0.000000e+00 0.000000e+00 0.000000e+00 0.000000e+00 0.000000e+00
<ENDHMM>
~h "jh"
<BEGINHMM>
<NUMSTATES> 5
<STATE> 2
<MEAN> 25
 -1.874586e+00 -4.898006e+00 -8.860821e-01 3.121212e+00 3.702024e-01 7.516830e-01 -4.609328e-02 1.757577e+00 -5.721746e+00 -5.375878e-01 1.063614e+00 -1.340439e-01 3.970568e-02 -2.092160e-02 -3.296853e-02 -2.733510e-02 1.104841e-01 5.242639e-03 -1.327603e-01 1.040686e-01 -1.058967e-01 3.758461e-02 8.306152e-02 -1.390832e-02 -2.023517e-01
<VARIANCE> 25
 5.689414e+00 6.960764e+00 8.725333e+00 7.675507e+00 2.184852e+01 1.929084e+01 1.167015e+01 1.411614e+01 1.979363e+01 1.716650e+01 1.461352e+01 9.865505e+00 4.086860e-01 3.165447e-01 6.199526e-01 1.142191e+00 1.904095e+00 2.729370e+00 1.699756e+00 1.568470e+00 2.242049e+00 2.063884e+00 1.802893e+00 1.214097e+00 1.479625e-01
<GCONST> 7.642049e+01
<STATE> 3
<MEAN> 25
 4.109647e+00 -2.700927e+00 4.831726e+00 -7.692384e-01 -6.848284e+00 -4.882564e+00 -4.339249e+00 3.805486e-01 5.586311e-01 5.429996e-01 1.141619e+00 -3.628539e+00 -9.141351e-01 1.682541e-01 4.337904e-01 -4.949206e-01 5.969288e-01 5.179055e-01 3.591270e-01 -4.269502e-01 -2.331553e-01 -6.125115e-01 -7.403311e-01 2.031230e-01 -2.557344e-01
<VARIANCE> 25
 5.427544e+00 2.053302e+01 2.373012e+01 7.225625e+00 5.327520e+01 1.697322e+01 6.127391e+00 5.069920e+00 1.949076e+01 1.064410e+01 1.492569e+01 9.870985e+00 2.309590e+00 3.284225e+00 2.335693e+00 9.361182e-01 1.660944e+00 2.600523e+00 2.347580e+00 6.100706e-01 1.912103e+00 8.120245e-01 1.292933e+00 1.108401e+00 1.155635e+00
<GCONST> 8.195092e+01
<STATE> 4
<MEAN> 25
 -6.648275e+00 7.288026e+00 3.212027e+00 -5.765039e-01 -1.931664e+00 -2.867702e+00 1.640900e+00 -8.908494e-01 5.402604e-01 1.180100e+00 -6.433129e-01 7.197994e-01 -6.485534e-01 3.247498e-01 -3.674638e-01 7.238162e-02 4.534332e-01 -8.265170e-01 9.153587e-02 9.860439e-02 2.979360e-01 -3.098696e-01 -3.059366e-01 5.196076e-01 1.098066e-01
<VARIANCE> 25
 9.582298e+01 3.593322e+01 5.246647e+01 1.611827e+01 1.093309e+02 3.738311e+01 3.613330e+01 2.120589e+01 2.756195e+01 2.702544e+01 1.111732e+01 5.616755e+00 1.174191e+01 5.699275e+00 1.472734e+00 1.233049e+00 1.094627e+00 9.528672e+00 4.807017e+00 4.047452e+00 3.546222e+00 2.525503e+00 1.088436e+00 7.532465e-01 2.758054e+00
<GCONST> 9.965699e+01
<TRANSP> 5
 0.000000e+00 1.000000e+00 0.000000e+00 0.000000e+00 0.000000e+00
 0.000000e+00 9.347484e-01 6.525166e-02 0.000000e+00 0.000000e+00
 0.000000e+00 0.000000e+00 6.939346e-01 3.060654e-01 0.000000e+00
 0.000000e+00 0.000000e+00 0.000000e+00 8.637766e-01 1.362234e-01
 0.000000e+00 0.000000e+00 0.000000e+00 0.000000e+00 0.000000e+00
<ENDHMM>
~h "ng"
<BEGINHMM>
<NUMSTATES> 5
<STATE> 2
<MEAN> 25
 5.582071e+00 -5.679972e+00 -9.680652e+00 -9.477450e+00 3.471701e+00 9.416474e-01 1.561626e+00 -7.027392e+00 6.088497e+00 -1.988917e-01 -1.194623e+00 -7.106984e+00 5.377098e-01 6.237557e-01 -3.710390e-02 -2.682800e-01 1.596802e-01 -1.455046e-01 -2.429936e-01 -3.811248e-01 -3.956458e-01 1.850342e-01 1.068578e-01 4.148823e-01 -1.239099e+00
<VARIANCE> 25
 5.033797e+01 2.185658e+01 3.514869e+01 3.167403e+01 2.153100e+01 3.742576e+01 2.411409e+01 2.834855e+01 3.629922e+01 3.238832e+01 3.329564e+01 4.360133e+01 3.264937e-01 3.892684e-01 1.034419e+00 1.363138e+00 1.727246e+00 2.260411e+00 1.133394e+00 1.849049e+00 1.992144e+00 1.442881e+00 2.233801e+00 1.295012e+00 2.681392e-01
<GCONST> 8.871918e+01
<STATE> 3
<MEAN> 25
 9.001256e+00 2.339530e+00 1.482898e-01 -2.396005e+00 2.049071e+00 -7.639921e-01 2.594396e+00 -2.948272e+00 -5.827500e-01 3.552739e+00 -6.323222e-01 -6.227573e-01 -9.863443e-01 -4.417192e-01 6.223833e-01 1.298101e+00 4.453804e-01 5.232225e-01 4.251484e-02 1.185801e+00 -1.287671e-01 3.466222e-02 5.697921e-01 2.486002e-01 -1.162552e+00
<VARIANCE> 25
 2.336995e+01 1.446260e+01 3.722746e+01 3.050403e+01 2.627772e+01 1.678473e+01 1.667713e+01 4.663204e+01 2.626331e+01 1.224114e+01 1.759828e+01 1.298575e+01 8.912138e-01 1.076025e+00 1.433492e+00 1.143551e+00 1.900647e+00 1.713051e+00 2.449355e+00 2.574175e+00 1.843857e+00 1.444320e+00 1.505496e+00 1.049307e+00 1.430258e-01
<GCONST> 8.572119e+01
<STATE> 4
<MEAN> 25
 -1.013486e+00 -3.287514e+00 1.952463e+00 6.137511e+00 4.930341e+00 2.510814e+00 1.842975e+00 3.711090e+00 -1.146672e+00 2.609226e+00 3.358710e-01 1.683171e+00 -7.652112e-02 -2.027559e-02 -7.583568e-02 7.559674e-02 -6.848353e-03 6.969291e-02 -4.812417e-02 4.709908e-02 -1.878468e-02 6.930232e-03 -4.359684e-02 1.148532e-02 -1.371139e-01
<VARIANCE> 25
 1.370132e+00 2.578227e+00 5.833395e+00 1.322097e+01 7.815062e+00 8.646244e+00 1.097593e+01 1.282650e+01 1.278912e+01 1.572266e+01 1.126676e+01 9.648272e+00 1.297234e-01 2.170901e-01 4.123434e-01 5.123173e-01 7.947791e-01 9.427916e-01 1.042833e+00 1.422022e+00 1.610426e+00 1.425331e+00 1.019628e+00 1.136514e+00 4.247782e-02
<GCONST> 6.350753e+01
<TRANSP> 5
 0.000000e+00 1.000000e+00 0.000000e+00 0.000000e+00 0.000000e+00
 0.000000e+00 9.107653e-01 8.923472e-02 0.000000e+00 0.000000e+00
 0.000000e+00 0.000000e+00 8.914053e-01 1.085946e-01 0.000000e+00
 0.000000e+00 0.000000e+00 0.000000e+00 9.644488e-01 3.555129e-02
 0.000000e+00 0.000000e+00 0.000000e+00 0.000000e+00 0.000000e+00
<ENDHMM>
~h "ow"
<BEGINHMM>
<NUMSTATES> 5
<STATE> 2
<MEAN> 25
 5.662106e+00 5.569072e+00 -8.039947e+00 -1.709805e+01 -6.016013e+00 1.123473e+01 -2.578035e+00 -6.472219e+00 5.730648e+00 -5.217996e+00 2.045050e+00 3.067145e+00 1.226798e+00 1.778496e+00 -5.896480e-01 -4.008405e+00 -8.711587e-01 2.076834e+00 -5.591499e-01 -8.990864e-01 1.700704e+00 -1.897303e+00 7.004212e-01 8.563427e-01 2.282913e+00
<VARIANCE> 25
 3.650882e+01 4.166219e+01 4.441265e+01 1.822721e+02 5.079571e+01 7.741316e+01 4.226323e+01 7.462523e+01 5.233315e+01 1.053505e+02 2.564051e+01 3.547995e+01 4.540778e+00 2.160826e+00 6.035295e+00 1.626827e+01 3.748407e+00 7.945786e+00 4.539445e+00 6.665613e+00 4.390189e+00 5.637988e+00 3.105169e+00 2.464488e+00 9.525908e+00
<GCONST> 1.152067e+02
<STATE> 3
<MEAN> 25
 9.960099e+00 1.289718e+01 -4.853427e+00 -2.435968e+01 -8.938796e+00 5.898605e+00 -3.900343e+00 -4.392165e+00 8.172731e+00 -1.196573e+01 3.860333e+00 4.791263e+00 2.533909e-01 -8.393773e-02 3.349508e-01 6.720530e-01 6.426262e-02 -8.261290e-01 1.912460e-01 3.498767e-01 -5.046426e-01 3.114079e-01 7.025384e-02 -7.396080e-03 -8.097309e-01
<VARIANCE> 25
 2.040496e+01 4.466155e+01 2.271513e+01 7.233485e+01 4.773594e+01 9.127692e+01 2.349289e+01 5.461954e+01 4.139391e+01 7.271086e+01 2.872624e+01 2.660042e+01 4.731529e-01 9.148796e-01 1.009545e+00 2.184012e+00 1.917159e+00 1.649937e+00 1.719908e+00 2.236065e+00 1.743216e+00 2.780241e+00 1.736742e+00 1.565463e+00 4.540996e-01
<GCONST> 9.459216e+01
<STATE> 4
<MEAN> 25
 7.846109e+00 2.084275e+00 1.571789e+00 -4.367761e+00 -4.806584e+00 -5.813283e+00 -3.137571e+00 1.368299e+00 -1.747728e+00 2.072989e+00 4.283981e+00 4.097817e+00 -1.228290e+00 -9.795021e-01 2.795263e-01 1.223299e+00 9.612569e-01 2.984080e-01 1.017871e-01 3.346472e-01 7.124323e-02 4.942296e-01 -2.412818e-01 -2.359566e-01 -8.780622e-01
<VARIANCE> 25
 2.553178e+01 1.804220e+01 7.728541e+00 2.392786e+01 2.362751e+01 3.601104e+01 3.407310e+01 2.417897e+01 2.012450e+01 1.866208e+01 1.315087e+01 1.615145e+01 3.303227e-01 7.126799e-01 7.189345e-01 1.566486e+00 2.176573e+00 2.291733e+00 2.566646e+00 1.916762e+00 2.456869e+00 1.937582e+00 1.142934e+00 1.522195e+00 1.121401e-01
<GCONST> 8.384549e+01
<TRANSP> 5
 0.000000e+00 1.000000e+00 0.000000e+00 0.000000e+00 0.000000e+00
 0.000000e+00 7.243719e-01 2.756281e-01 0.000000e+00 0.000000e+00
 0.000000e+00 0.000000e+00 9.441712e-01 5.582874e-02 0.000000e+00
 0.000000e+00 0.000000e+00 0.000000e+00 8.700550e-01 1.299451e-01
 0.000000e+00 0.000000e+00 0.000000e+00 0.000000e+00 0.000000e+00
<ENDHMM>
~h "oy"
<BEGINHMM>
<NUMSTATES> 5
<STATE> 2
<MEAN> 25
 1.315981e+01 1.966798e+00 -3.778718e+00 -1.675611e+01 -1.369374e+01 7.418982e+00 -1.504327e+00 -8.894512e+00 1.015772e+01 -4.591630e+00 1.977666e-01 -2.864444e+00 1.595614e-01 -2.194602e-01 2.717424e-01 4.871383e-01 -1.597944e-01 -1.045276e+00 -3.448133e-01 -2.618621e-02 -5.984542e-01 7.196656e-01 -1.259602e-01 7.684329e-02 -2.995778e-02
<VARIANCE> 25
 1.280691e+01 4.242596e+01 3.421099e+01 1.296832e+02 3.620309e+01 1.901985e+02 8.315935e+01 3.468436e+01 6.677236e+01 1.513407e+02 3.822138e+01 2.585432e+01 1.750424e+00 1.718001e+00 3.740833e+00 6.991683e+00 4.442143e+00 8.506263e+00 4.766641e+00 4.303240e+00 5.597180e+00 8.494425e+00 1.964710e+00 3.554300e+00 1.195950e+00
<GCONST> 1.105654e+02
<STATE> 3
<MEAN> 25
 -1.961709e+00 1.222586e+01 1.206132e+00 -6.966452e+00 -5.555182e+00 -1.162574e+01 -2.974960e+00 -2.554097e-01 -7.749638e+00 4.968526e+00 -1.439190e+00 6.985993e-01 -2.361086e+00 1.927540e+00 -8.734224e-01 3.432657e-01 1.794940e+00 -2.358395e-01 7.274475e-01 7.243330e-01 5.106770e-01 -1.790675e-01 4.252236e-01 4.500889e-01 -1.199410e-01
<VARIANCE> 25
 9.415627e+01 3.794716e+01 2.256719e+01 4.631838e+01 6.872291e+01 7.572518e+01 6.883904e+01 2.819689e+01 4.289419e+01 2.186292e+01 3.660679e+01 2.424176e+01 6.202150e+00 2.738765e+00 1.169229e+00 5.789134e+00 3.259730e+00 2.815808e+00 6.192195e+00 3.584668e+00 4.358129e+00 2.846650e+00 2.122752e+00 2.161319e+00 3.963953e-01
<GCONST> 1.040180e+02
<STATE> 4
<MEAN> 25
 -1.538774e+01 1.530580e+01 -6.144489e+00 -3.522758e-01 1.233766e+01 -1.029573e+01 6.469853e+00 1.043079e+00 -5.075833e-01 2.827881e+00 1.196419e+00 1.319448e+00 3.067576e-01 -6.879263e-01 6.595173e-02 5.900868e-01 3.888020e-01 2.245260e-01 6.574553e-01 -2.489650e-01 -3.431782e-02 -1.883030e-01 -2.005774e-01 -1.248542e-01 -8.011529e-01
<VARIANCE> 25
 1.457149e+01 1.571422e+01 5.467493e+00 1.793176e+01 2.496556e+01 7.335905e+00 1.623151e+01 2.507921e+01 2.006854e+01 1.312809e+01 9.097557e+00 6.703576e+00 8.107988e-01 8.501967e-01 3.424703e-01 1.155103e+00 8.432439e-01 6.470751e-01 8.663389e-01 2.065045e+00 8.882086e-01 9.970499e-01 7.488289e-01 6.077622e-01 4.725808e-01
<GCONST> 7.388799e+01
<TRANSP> 5
 0.000000e+00 1.000000e+00 0.000000e+00 0.000000e+00 0.000000e+00
 0.000000e+00 9.596900e-01 4.031008e-02 0.000000e+00 0.000000e+00
 0.000000e+00 0.000000e+00 8.886144e-01 1.113856e-01 0.000000e+00
 0.000000e+00 0.000000e+00 0.000000e+00 9.314177e-01 6.858225e-02
 0.000000e+00 0.000000e+00 0.000000e+00 0.000000e+00 0.000000e+00
<ENDHMM>
~h "sh"
<BEGINHMM>
<NUMSTATES> 5
<STATE> 2
<MEAN> 25
 4.609839e+00 2.100947e+00 5.150736e+00 2.960990e+00 3.215986e+00 -1.656682e+00 -3.454996e-01 2.285956e+00 7.464600e-02 1.231970e-01 2.486543e-01 3.003309e+00 -1.286732e+00 -9.420474e-01 -7.065793e-01 -1.082275e-01 9.992701e-01 1.141031e+00 -3.608893e-02 -2.564171e-01 -9.840211e-01 -1.562762e-02 1.064836e+00 2.686154e-01 -9.945171e-01
<VARIANCE> 25
 2.044209e+01 1.248119e+01 1.387785e+01 1.308201e+01 1.396997e+01 2.207914e+01 1.360413e+01 1.797323e+01 3.032063e+01 1.438391e+01 1.243419e+01 8.405069e+00 5.703033e-01 6.256924e-01 1.235898e+00 1.127945e+00 1.165140e+00 1.072507e+00 1.630270e+00 1.740197e+00 1.319667e+00 1.411823e+00 1.295674e+00 1.220851e+00 2.060378e-01
<GCONST> 7.871675e+01
<STATE> 3
<MEAN> 25
 -1.743255e+00 -2.706528e+00 7.588585e-02 2.988549e+00 4.620372e+00 3.302569e+00 -7.735921e-01 3.340432e+00 -3.835971e+00 5.960441e-01 1.937141e-01 1.787794e+00 -3.207884e-02 5.579611e-03 -4.220552e-02 5.037170e-02 -3.023124e-02 5.092848e-02 -3.460546e-02 4.148106e-02 -2.190190e-03 8.583024e-03 -6.593876e-02 -3.684054e-02 -1.008753e-01
<VARIANCE> 25
 1.856800e+00 3.086007e+00 5.694355e+00 9.166094e+00 7.515767e+00 1.231358e+01 1.189216e+01 1.378609e+01 1.427561e+01 1.201910e+01 1.069278e+01 9.948666e+00 1.042887e-01 1.617407e-01 3.473726e-01 5.270854e-01 6.524293e-01 1.070885e+00 1.100737e+00 1.317665e+00 1.411610e+00 1.370523e+00 9.441641e-01 1.060340e+00 2.953234e-02
<GCONST> 6.245891e+01
<STATE> 4
<MEAN> 25
 -2.145617e+00 -2.602371e+00 -8.661138e-01 4.002723e+00 3.064209e+00 2.377713e+00 -8.156740e-01 2.203624e+00 -3.453025e+00 -7.643514e-01 -3.430018e-01 1.250646e+00 -2.282855e-01 4.777069e-02 9.776729e-02 -4.022242e-01 1.027903e-01 -1.490577e+00 -4.444842e-02 -7.206032e-01 -3.782982e-01 5.530144e-02 -8.630811e-01 -3.303757e-01 2.590626e-01
<VARIANCE> 25
 4.362598e+00 2.909276e+00 4.404870e+00 9.590218e+00 1.095812e+01 2.500631e+01 1.219361e+01 2.848210e+01 1.332755e+01 1.776853e+01 1.284692e+01 8.336803e+00 4.775349e-01 7.753704e-01 9.375663e-01 2.053255e+00 2.216735e+00 1.523428e+00 2.297015e+00 3.386683e+00 2.796651e+00 2.614714e+00 5.211586e-01 1.452737e+00 2.738182e-01
<GCONST> 7.718170e+01
<TRANSP> 5
 0.000000e+00 1.000000e+00 0.000000e+00 0.000000e+00 0.000000e+00
 0.000000e+00 7.747474e-01 2.252526e-01 0.000000e+00 0.000000e+00
 0.000000e+00 0.000000e+00 9.742745e-01 2.572554e-02 0.000000e+00
 0.000000e+00 0.000000e+00 0.000000e+00 2.074383e-01 7.925617e-01
 0.000000e+00 0.000000e+00 0.000000e+00 0.000000e+00 0.000000e+00
<ENDHMM>
~h "sp"
<BEGINHMM>
<NUMSTATES> 3
<STATE> 2
~s "silst"
<TRANSP> 3
 0.000000e+00 4.869437e-01 5.130563e-01
 0.000000e+00 9.734071e-01 2.659295e-02
 0.000000e+00 0.000000e+00 0.000000e+00
<ENDHMM>
~h "th"
<BEGINHMM>
<NUMSTATES> 5
<STATE> 2
<MEAN> 25
 -1.141668e+01 4.372153e+00 -7.203746e-01 2.730930e+00 3.020700e+00 1.026798e+00 2.370033e-02 -3.382389e-02 4.445305e+00 4.306109e-02 -3.498406e-01 1.350328e+00 3.041981e-01 -5.133812e-01 1.063700e-01 3.502505e-01 2.799466e-01 1.823898e-01 -2.264702e-02 2.759531e-01 -2.820012e-01 -1.297498e-01 1.323346e-01 1.164696e-01 -6.373379e-01
<VARIANCE> 25
 2.878642e+01 7.801580e+00 1.450133e+01 1.438677e+01 1.835689e+01 1.285705e+01 1.720857e+01 2.138017e+01 2.340664e+01 1.786841e+01 1.689027e+01 1.110764e+01 1.643217e+00 6.410930e-01 9.200576e-01 8.243791e-01 1.063120e+00 1.804451e+00 1.158476e+00 1.306883e+00 1.568402e+00 1.289457e+00 1.237208e+00 7.336670e-01 2.864426e-01
<GCONST> 7.954297e+01
<STATE> 3
<MEAN> 25
 -9.934386e-01 -2.513787e+00 1.298411e+00 2.213707e+00 2.693816e+00 -8.865238e-01 -1.107538e+00 7.159656e-01 -3.488187e+00 -5.695165e-01 3.204348e-01 1.730316e+00 -4.525182e-02 -1.099635e+00 1.662504e-01 3.492496e-01 8.967059e-01 1.135609e+00 4.123348e-01 1.115909e+00 1.073543e-01 1.028149e+00 4.655831e-01 -3.007136e-01 -6.757250e-01
<VARIANCE> 25
 2.270434e+01 5.363426e+00 6.999026e+00 6.677241e+00 2.527086e+01 7.907588e+00 1.234134e+01 2.075871e+01 2.920275e+01 1.736676e+01 1.326445e+01 1.048417e+01 1.371774e+00 3.985256e-01 5.801238e-01 8.084124e-01 1.928296e+00 8.124999e-01 1.629199e+00 1.397910e+00 2.980314e+00 1.511341e+00 1.050125e+00 1.453253e+00 1.160365e-01
<GCONST> 7.628561e+01
<STATE> 4
<MEAN> 25
 -6.294068e-01 -3.742021e+00 1.587645e+00 4.506692e+00 4.463157e+00 3.241570e+00 6.332748e-01 3.587930e+00 -2.332662e+00 2.402436e+00 1.373675e+00 1.370107e+00 -1.990402e-02 2.258009e-02 -2.898084e-02 5.238160e-02 -3.025097e-02 6.603567e-02 -9.413371e-03 5.904074e-02 -8.595012e-03 2.049737e-02 -2.615818e-02 1.617273e-02 -1.018240e-01
<VARIANCE> 25
 3.500879e+00 2.778321e+00 5.406673e+00 7.171659e+00 1.051963e+01 1.342202e+01 1.176588e+01 1.575152e+01 1.434572e+01 1.383809e+01 1.187032e+01 1.019091e+01 1.132375e-01 1.932507e-01 3.910689e-01 5.390685e-01 8.308535e-01 1.017172e+00 1.028039e+00 1.201831e+00 1.234759e+00 1.119192e+00 1.115402e+00 1.014543e+00 3.559683e-02
<GCONST> 6.391430e+01
<TRANSP> 5
 0.000000e+00 1.000000e+00 0.000000e+00 0.000000e+00 0.000000e+00
 0.000000e+00 8.399894e-01 1.600106e-01 0.000000e+00 0.000000e+00
 0.000000e+00 0.000000e+00 5.765508e-01 4.234491e-01 0.000000e+00
 0.000000e+00 0.000000e+00 0.000000e+00 9.705026e-01 2.949733e-02
 0.000000e+00 0.000000e+00 0.000000e+00 0.000000e+00 0.000000e+00
<ENDHMM>
~h "uh"
<BEGINHMM>
<NUMSTATES> 5
<STATE> 2
<MEAN> 25
 3.158010e+00 -8.573189e-01 5.239868e+00 1.020710e+01 1.149380e+01 3.394146e+00 8.203816e-02 7.451499e+00 3.963802e+00 -2.221098e+00 -4.889978e-01 3.916684e+00 6.347928e-02 1.257203e-01 2.857724e-02 4.506734e-02 -2.797417e-01 -1.044761e-01 2.215740e-01 2.181305e-02 -2.135297e-01 -4.431647e-02 2.790311e-01 4.624126e-02 1.499002e-02
<VARIANCE> 25
 1.349262e+01 3.728312e+00 2.571123e+01 2.974765e+01 3.020540e+01 2.277172e+01 3.523479e+01 1.370472e+01 3.264875e+01 1.799013e+01 1.688744e+01 1.522978e+01 2.286450e-01 3.394337e-01 3.877033e-01 4.686964e-01 1.350747e+00 1.974857e+00 2.794960e+00 1.490312e+00 2.084423e+00 1.678836e+00 1.368819e+00 2.028882e+00 2.376089e-01
<GCONST> 8.012695e+01
<STATE> 3
<MEAN> 25
 8.909903e-01 6.215750e+00 -4.051959e+00 -2.054493e+00 -4.576573e+00 2.236057e+00 -2.184536e+00 -6.452422e+00 2.745878e+00 -7.369936e+00 -1.251126e+00 1.548948e+00 2.298991e+00 2.159980e+00 -9.028060e-01 -2.258872e+00 -3.274174e+00 1.497685e+00 -1.415084e+00 -3.787613e+00 6.246002e-01 -3.244195e+00 -1.090514e+00 4.360035e-01 4.135133e+00
<VARIANCE> 25
 5.823094e+01 5.106824e+01 1.043650e+02 1.268826e+02 7.863137e+01 1.505104e+02 1.746927e+01 1.147842e+02 4.113001e+01 7.404992e+01 2.260511e+01 2.659865e+01 3.048524e+00 4.255225e+00 1.247692e+01 1.724164e+01 6.311319e+00 7.645681e+00 2.850887e+00 1.399419e+01 5.766609e+00 4.746794e+00 3.074763e+00 5.037691e+00 8.128261e+00
<GCONST> 1.184803e+02
<STATE> 4
<MEAN> 25
 6.971986e+00 8.472176e+00 -5.876706e+00 -1.171582e+01 -1.487334e+01 7.306127e+00 -1.133882e+01 -1.426752e+01 2.664854e+00 -1.280575e+01 -5.868353e-02 6.171333e+00 9.448186e-02 -4.599654e-01 2.534514e-01 2.675381e-01 5.727077e-01 -2.698503e-01 -2.358685e-01 6.653276e-01 -1.739466e-01 6.652343e-01 1.399104e-01 9.942955e-02 -4.593863e-01
<VARIANCE> 25
 2.155198e+01 4.407746e+01 5.280660e+01 1.688169e+02 4.205005e+01 8.166380e+01 4.847090e+01 5.590616e+01 3.259892e+01 5.379978e+01 2.755209e+01 3.955890e+01 1.222881e+00 1.654861e+00 2.401980e+00 3.850007e+00 4.312796e+00 5.095208e+00 4.730726e+00 3.668305e+00 3.118814e+00 2.866291e+00 1.930474e+00 2.474395e+00 1.916268e+00
<GCONST> 1.056859e+02
<TRANSP> 5
 0.000000e+00 1.000000e+00 0.000000e+00 0.000000e+00 0.000000e+00
 0.000000e+00 8.775634e-01 1.224366e-01 0.000000e+00 0.000000e+00
 0.000000e+00 0.000000e+00 7.610064e-01 2.389936e-01 0.000000e+00
 0.000000e+00 0.000000e+00 0.000000e+00 9.282029e-01 7.179716e-02
 0.000000e+00 0.000000e+00 0.000000e+00 0.000000e+00 0.000000e+00
<ENDHMM>
~h "uw"
<BEGINHMM>
<NUMSTATES> 5
<STATE> 2
<MEAN> 25
 -7.778434e+00 3.147145e+00 3.595020e+00 1.666103e+00 -5.778479e+00 -2.288620e+00 -3.798838e+00 -3.508495e+00 3.670568e+00 -3.301702e+00 -4.506430e-02 -8.447910e-01 1.515841e+00 7.675658e-01 3.625830e-01 3.780138e-02 -6.473852e-01 4.277540e-01 -7.686299e-01 -1.101892e+00 -9.521075e-02 -7.009859e-01 3.626041e-02 -6.170298e-01 1.496349e+00
<VARIANCE> 25
 1.029926e+02 5.696375e+01 6.112049e+01 7.117490e+01 1.174458e+02 9.575414e+01 7.389567e+01 5.803858e+01 5.204290e+01 8.379734e+01 3.434689e+01 3.013652e+01 8.242971e+00 4.801651e+00 4.524785e+00 5.282858e+00 5.809321e+00 8.066353e+00 6.480323e+00 3.794922e+00 6.165306e+00 8.425313e+00 3.432331e+00 3.272630e+00 4.553363e+00
<GCONST> 1.178031e+02
<STATE> 3
<MEAN> 25
 1.029274e+01 2.005651e+00 -1.289221e+00 -5.322873e-01 -8.413098e+00 -1.125615e-01 -9.521639e+00 -8.027563e+00 3.768492e+00 1.442833e+00 2.933393e+00 -5.685815e+00 2.731889e-01 -8.000934e-02 -1.524357e-01 -5.119970e-01 2.384398e-01 -1.934294e-02 9.934064e-02 5.092423e-02 6.570193e-03 4.880828e-01 1.102372e-01 2.080467e-01 -3.460710e-01
<VARIANCE> 25
 2.367521e+01 5.723295e+01 5.651295e+01 6.623875e+01 6.964579e+01 1.277684e+02 5.501813e+01 6.554665e+01 5.419637e+01 7.788705e+01 4.649777e+01 4.617671e+01 1.180638e+00 2.493031e+00 3.427687e+00 3.589808e+00 3.611241e+00 6.082834e+00 3.786606e+00 3.948858e+00 3.951567e+00 4.605351e+00 3.733075e+00 4.092070e+00 1.866457e+00
<GCONST> 1.103256e+02
<STATE> 4
<MEAN> 25
 1.049039e+01 1.107876e+01 5.724822e-01 -8.950570e+00 -9.103413e+00 1.072390e+00 -1.774273e+00 -8.736108e+00 -1.007329e+00 -8.344873e+00 2.158595e+00 -8.868968e-01 -2.881391e-01 -4.714063e-01 1.659936e-01 3.075348e-01 4.376041e-01 -7.525203e-01 3.195011e-02 6.010245e-01 -1.945458e-01 3.178567e-01 -7.230496e-02 3.083120e-01 -8.417514e-01
<VARIANCE> 25
 2.373892e+01 5.274296e+01 2.041789e+01 6.053658e+01 5.113948e+01 1.045623e+02 3.660237e+01 4.619376e+01 4.881015e+01 1.233223e+02 2.878553e+01 3.781335e+01 1.322070e+00 1.099463e+00 1.262217e+00 2.459072e+00 2.108851e+00 2.861735e+00 1.891501e+00 2.564508e+00 2.118544e+00 3.442055e+00 1.887498e+00 1.836852e+00 5.118916e-01
<GCONST> 9.935555e+01
<TRANSP> 5
 0.000000e+00 1.000000e+00 0.000000e+00 0.000000e+00 0.000000e+00
 0.000000e+00 8.544228e-01 1.455772e-01 0.000000e+00 0.000000e+00
 0.000000e+00 0.000000e+00 9.003380e-01 9.966200e-02 0.000000e+00
 0.000000e+00 0.000000e+00 0.000000e+00 8.756198e-01 1.243802e-01
 0.000000e+00 0.000000e+00 0.000000e+00 0.000000e+00 0.000000e+00
<ENDHMM>
~h "zh"
<BEGINHMM>
<NUMSTATES> 5
<STATE> 2
<MEAN> 25
 -7.220251e+00 6.067423e+00 6.027811e+00 1.369539e+00 -1.303645e+01 -5.736581e+00 -3.716847e+00 -4.755859e+00 4.271178e+00 -5.214175e+00 8.362056e-01 2.484175e+00 1.519258e-01 -2.948580e-01 -5.896814e-01 -9.051183e-03 1.491576e-03 -1.739944e-01 -5.156028e-01 -2.415774e-02 7.655562e-02 -3.370780e-02 -4.652266e-01 -5.226202e-02 -4.143134e-01
<VARIANCE> 25
 9.971406e+01 3.701423e+01 1.998031e+01 1.720610e+01 1.693090e+01 7.100504e+01 3.768317e+01 1.815705e+01 1.108517e+01 2.475873e+01 3.191462e+01 1.172657e+01 6.430881e+00 3.473835e+00 1.983502e+00 1.149575e+00 1.773624e+00 3.483885e+00 2.157300e+00 1.584643e+00 1.126379e+00 2.524721e+00 1.550608e+00 1.233394e+00 4.244042e-01
<GCONST> 9.297793e+01
<STATE> 3
<MEAN> 25
 7.607361e+00 -9.447442e-01 -2.571107e+00 4.204215e-01 -6.744077e+00 -6.037300e+00 -3.431470e+00 1.942547e+00 6.755244e+00 9.043636e-01 -3.899174e+00 -2.815955e+00 -7.031958e-02 8.073824e-03 2.372726e-02 1.232691e-02 9.788951e-01 7.793898e-01 6.696991e-01 1.979737e-01 -2.116065e-01 2.485386e-01 2.035677e-01 -3.641556e-02 -1.309772e+00
<VARIANCE> 25
 5.783765e+01 1.357141e+01 3.558549e+01 1.424137e+01 8.999343e+01 6.221712e+01 7.340690e+01 3.250847e+01 3.151270e+01 2.791178e+01 1.660108e+01 2.388608e+01 1.602366e+00 9.969266e-01 1.256464e+00 1.296256e+00 3.202125e+00 1.904935e+00 2.945773e+00 1.807863e+00 3.452635e+00 1.834724e+00 1.531929e+00 2.015623e+00 1.722837e-01
<GCONST> 9.366257e+01
<STATE> 4
<MEAN> 25
 -8.470550e-01 -2.191448e+00 -2.321909e+00 1.472013e+00 7.665149e+00 3.429309e+00 1.747777e+00 1.964312e+00 -2.529486e+00 1.732027e-01 7.263056e-01 1.855834e+00 -8.151829e-02 -2.351709e-02 -1.060137e-01 -6.763374e-03 -1.209161e-02 6.337553e-03 -1.030654e-01 -1.774819e-02 -1.271212e-01 -3.416767e-02 3.354643e-02 4.842529e-02 -1.413121e-01
<VARIANCE> 25
 4.382472e+00 1.055657e+01 1.886138e+01 9.032800e+00 1.135360e+01 1.016385e+01 1.289242e+01 1.510164e+01 1.971687e+01 1.459404e+01 1.142056e+01 9.676669e+00 1.831652e-01 3.183115e-01 5.745534e-01 7.187299e-01 9.774463e-01 1.173388e+00 1.371684e+00 1.488949e+00 2.170991e+00 1.320218e+00 1.210857e+00 1.220759e+00 7.563560e-02
<GCONST> 7.129293e+01
<TRANSP> 5
 0.000000e+00 1.000000e+00 0.000000e+00 0.000000e+00 0.000000e+00
 0.000000e+00 9.276294e-01 7.237057e-02 0.000000e+00 0.000000e+00
