~o
<STREAMINFO> 1 25
<VECSIZE> 25<NULLD><MFCC_D_N_Z_0><DIAGC>
~s "silst"
<MEAN> 25
 1.835575e+00 4.012454e+00 1.321371e+00 -5.109316e+00 -4.688894e+00 -7.558682e-01 -4.894744e-01 -5.281640e+00 2.829311e+00 -4.343447e+00 -2.170403e-01 -1.739706e+00 1.141015e-01 2.038681e-01 1.259694e-03 -2.954900e-01 -2.119422e-01 -2.727903e-01 7.021451e-02 -1.635061e-01 1.510688e-01 -1.039301e-01 -1.819712e-02 -3.552710e-02 3.784893e-01
<VARIANCE> 25
 9.280036e+01 8.666768e+01 8.778831e+01 1.621265e+02 9.574891e+01 1.029273e+02 6.119847e+01 7.251516e+01 8.823759e+01 7.752481e+01 3.513415e+01 6.137503e+01 3.536325e+00 3.329448e+00 3.017203e+00 4.591295e+00 3.999516e+00 4.900206e+00 3.792967e+00 4.730897e+00 4.676609e+00 3.829848e+00 2.477298e+00 2.984519e+00 4.962121e+00
<GCONST> 1.160482e+02
~h "b"
<BEGINHMM>
<NUMSTATES> 5
<STATE> 2
<MEAN> 25
 -9.769842e-01 -2.986108e+00 1.205224e+00 5.480347e+00 3.590606e+00 3.329153e+00 -2.531990e-02 3.494639e+00 -2.416401e+00 1.290541e+00 1.381462e+00 1.945198e+00 3.867706e-03 8.154619e-03 -1.398829e-02 3.826804e-02 -1.556007e-02 9.080219e-02 -4.790355e-02 3.928242e-02 -3.134847e-02 5.351710e-04 -2.864220e-02 -3.188593e-03 -6.822858e-02
<VARIANCE> 25
 4.031541e+00 7.010535e+00 8.204041e+00 9.943067e+00 1.202538e+01 1.494369e+01 1.501842e+01 1.530912e+01 1.448378e+01 1.468052e+01 1.363323e+01 1.195413e+01 1.214065e-01 2.479518e-01 4.181364e-01 5.861281e-01 7.587708e-01 1.116299e+00 1.229653e+00 1.236630e+00 1.428369e+00 1.187015e+00 1.284412e+00 1.201509e+00 5.841119e-02
<GCONST> 6.823755e+01
<STATE> 3
<MEAN> 25
 9.403202e-01 -6.512336e-01 1.834372e+00 4.976009e+00 3.822265e+00 3.959948e+00 -1.597628e+00 2.533308e+00 -2.183400e+00 4.676616e-01 -4.017024e-01 6.991214e-01 -2.131488e-01 6.945826e-01 2.551316e-02 -1.179900e+00 -1.226309e+00 -5.885388e-01 -5.905554e-01 -1.179892e+00 1.205175e+00 -3.213234e-01 -9.724105e-01 -9.250199e-01 3.081648e+00
<VARIANCE> 25
 1.542770e+01 1.861124e+01 2.941796e+01 2.324786e+01 2.435334e+01 2.170182e+01 2.184026e+01 2.490742e+01 2.184448e+01 1.473156e+01 1.685513e+01 1.385136e+01 4.006708e+00 4.487926e+00 6.891839e+00 6.356047e+00 4.384295e+00 6.031632e+00 4.230962e+00 6.148849e+00 4.806488e+00 3.367686e+00 4.529694e+00 3.842689e+00 8.135905e+00
<GCONST> 1.028708e+02
<STATE> 4
<MEAN> 25
 2.513126e+00 2.874039e+00 2.452607e+00 -1.527752e+00 -4.078224e+00 -8.032656e-01 -3.048270e+00 -1.889222e+00 3.580909e+00 -1.216424e+00 -2.221578e+00 -3.495759e+00 3.941853e-01 6.291490e-03 -3.499503e-01 -9.635453e-01 -6.955436e-01 -6.320736e-01 3.781867e-02 -3.360415e-01 8.987307e-01 -1.357566e-01 -2.544132e-02 -4.184898e-01 2.133993e+00
<VARIANCE> 25
 9.691354e+01 5.819339e+01 6.593963e+01 1.111416e+02 5.804152e+01 1.108973e+02 7.009447e+01 6.156727e+01 8.211533e+01 3.739885e+01 3.967722e+01 3.575710e+01 4.551888e+00 4.167962e+00 4.603885e+00 6.551903e+00 6.197028e+00 8.134124e+00 4.227809e+00 6.594140e+00 7.746890e+00 4.178621e+00 3.878293e+00 4.490341e+00 1.311695e+01
<GCONST> 1.184172e+02
<TRANSP> 5
 0.000000e+00 1.000000e+00 0.000000e+00 0.000000e+00 0.000000e+00
 0.000000e+00 9.597833e-01 4.021669e-02 0.000000e+00 0.000000e+00
 0.000000e+00 0.000000e+00 4.726020e-01 5.273980e-01 0.000000e+00
 0.000000e+00 0.000000e+00 0.000000e+00 7.737898e-01 2.262102e-01
 0.000000e+00 0.000000e+00 0.000000e+00 0.000000e+00 0.000000e+00
<ENDHMM>
~h "d"
<BEGINHMM>
<NUMSTATES> 5
<STATE> 2
<MEAN> 25
 1.093842e+00 -1.981944e+00 -2.099532e+00 -3.184858e+00 -8.795235e-01 -9.538042e-01 9.630598e-01 2.867516e+00 9.509596e-01 1.204686e+00 1.973068e+00 7.979861e-01 -5.432370e-01 -6.753750e-01 4.531228e-01 7.728204e-01 8.796235e-01 4.130955e-01 -6.918485e-02 4.375531e-01 4.132543e-02 3.463795e-01 1.520039e-01 7.261901e-02 -6.996074e-01
<VARIANCE> 25
 2.245797e+01 7.078953e+00 1.376766e+01 4.616682e+01 3.168761e+01 3.416948e+01 1.356545e+01 2.527122e+01 1.892792e+01 2.016782e+01 1.634916e+01 2.336926e+01 1.060833e+00 7.210139e-01 1.263841e+00 2.433664e+00 1.912777e+00 2.550148e+00 1.508223e+00 2.886950e+00 2.028579e+00 1.857625e+00 1.420270e+00 2.069978e+00 2.589040e-01
<GCONST> 8.715013e+01
<STATE> 3
<MEAN> 25
 -1.803529e-01 -3.313366e+00 2.994713e-01 2.751819e+00 4.510773e+00 2.866195e+00 1.478291e+00 2.504341e+00 -7.430212e-01 1.224822e+00 2.223702e+00 7.846447e-01 9.662792e-03 -1.039652e-01 1.472649e-01 2.112499e-01 5.859974e-02 1.356089e-01 -1.707796e-01 -2.257527e-02 -4.163849e-01 -1.921520e-02 4.931458e-02 1.394115e-01 -1.916152e-01
<VARIANCE> 25
 8.605684e+00 5.680039e+00 8.645697e+00 1.455320e+01 1.124680e+01 2.616067e+01 2.225195e+01 1.928040e+01 1.780689e+01 1.785935e+01 1.513377e+01 1.716210e+01 3.610122e-01 5.516261e-01 8.912421e-01 1.304503e+00 1.190480e+00 1.295406e+00 1.663878e+00 2.210613e+00 1.832429e+00 1.811297e+00 1.783601e+00 1.557584e+00 8.202702e-02
<GCONST> 7.773208e+01
<STATE> 4
<MEAN> 25
 -1.765132e+00 -3.731475e+00 4.707915e-03 4.342034e+00 3.267028e+00 2.813648e+00 -4.931085e-01 3.437138e+00 -2.831572e+00 1.436606e+00 6.782126e-01 1.292581e+00 -1.964470e-02 2.642999e-02 -1.777120e-02 3.557102e-02 -2.587009e-02 4.254822e-02 -3.909508e-02 3.342345e-03 -3.345174e-02 7.068644e-04 -2.191246e-02 -2.714528e-03 -6.719816e-02
<VARIANCE> 25
 2.674662e+00 3.833664e+00 5.212048e+00 7.422822e+00 9.020437e+00 1.358383e+01 1.302394e+01 1.349517e+01 1.414716e+01 1.233621e+01 1.084992e+01 1.114166e+01 9.673255e-02 2.248761e-01 3.747039e-01 5.920036e-01 7.251523e-01 8.978696e-01 1.176905e+00 1.286860e+00 1.332348e+00 1.177624e+00 1.161185e+00 1.226323e+00 4.643738e-02
<GCONST> 6.425087e+01
<TRANSP> 5
 0.000000e+00 1.000000e+00 0.000000e+00 0.000000e+00 0.000000e+00
 0.000000e+00 6.761677e-01 3.238324e-01 0.000000e+00 0.000000e+00
 0.000000e+00 0.000000e+00 7.414899e-01 2.585101e-01 0.000000e+00
 0.000000e+00 0.000000e+00 0.000000e+00 9.741604e-01 2.583960e-02
 0.000000e+00 0.000000e+00 0.000000e+00 0.000000e+00 0.000000e+00
<ENDHMM>
~h "f"
<BEGINHMM>
<NUMSTATES> 5
<STATE> 2
<MEAN> 25
 -1.385884e+00 -4.111684e+00 1.499005e+00 5.200912e+00 4.334991e+00 1.826819e+00 3.096308e-01 3.639304e+00 -2.205325e+00 2.405650e+00 2.118226e-01 9.135866e-01 -4.854967e-02 -2.561660e-02 -2.977549e-02 7.384642e-02 2.353652e-02 9.130456e-02 -3.740585e-02 -1.574245e-03 8.039290e-03 3.282814e-02 -4.435481e-02 8.157519e-03 -1.069841e-01
<VARIANCE> 25
 4.031443e+00 5.715900e+00 4.626783e+00 1.139173e+01 9.726318e+00 1.089108e+01 1.222387e+01 1.373748e+01 1.528890e+01 1.347691e+01 1.301206e+01 1.131449e+01 1.501216e-01 2.552501e-01 4.136971e-01 6.277341e-01 8.441566e-01 8.722429e-01 1.275150e+00 1.302797e+00 1.596113e+00 1.440664e+00 1.418869e+00 1.135673e+00 4.703655e-02
<GCONST> 6.699974e+01
<STATE> 3
<MEAN> 25
 -1.373929e+01 5.520622e+00 -1.681275e+00 5.856046e+00 2.030301e+00 1.406204e+00 2.167814e-01 5.859315e-01 3.718309e+00 5.958745e-01 -3.845487e-01 1.314060e+00 -8.033208e-01 4.746938e-01 1.758345e-02 6.519045e-03 -1.386336e-01 1.537175e-02 1.176996e-01 -1.891803e-01 2.814186e-01 -1.774167e-01 -1.634800e-01 3.001317e-02 9.122378e-01
<VARIANCE> 25
 4.794467e+01 4.076471e+01 2.559038e+01 2.017355e+01 1.188682e+01 1.886345e+01 1.664770e+01 2.440494e+01 2.285404e+01 1.500542e+01 1.929401e+01 1.406349e+01 1.881812e+00 2.104208e+00 1.462151e+00 1.713973e+00 9.936662e-01 1.491623e+00 1.790491e+00 1.859805e+00 2.367105e+00 1.969230e+00 2.006422e+00 1.176405e+00 1.579252e+00
<GCONST> 8.937845e+01
<STATE> 4
<MEAN> 25
 -3.514917e+00 2.536741e+00 -3.630955e+00 -3.306279e+00 -6.131445e+00 2.554862e+00 5.197275e+00 -3.027354e+00 2.116430e+00 -6.950932e-01 -2.801701e+00 1.616395e+00 2.428249e+00 6.989160e-02 -4.607878e-01 -1.880070e+00 -9.658043e-01 7.495015e-01 -7.302804e-02 -5.365127e-01 -1.490707e-01 -1.318438e+00 -7.600558e-01 -1.665694e-01 9.002466e-01
<VARIANCE> 25
 2.267009e+02 3.568954e+01 2.658647e+01 1.140775e+02 1.008181e+02 2.572265e+01 6.794039e+01 6.889614e+01 3.729548e+01 3.782327e+01 2.855398e+01 1.873631e+01 1.541525e+01 4.062815e+00 2.233768e+00 1.089550e+01 5.811750e+00 3.895854e+00 3.813451e+00 5.851254e+00 3.003185e+00 6.488459e+00 4.637562e+00 2.666289e+00 2.338407e+00
<GCONST> 1.126970e+02
<TRANSP> 5
 0.000000e+00 1.000000e+00 0.000000e+00 0.000000e+00 0.000000e+00
 0.000000e+00 9.514935e-01 4.850646e-02 0.000000e+00 0.000000e+00
 0.000000e+00 0.000000e+00 9.177558e-01 8.224417e-02 0.000000e+00
 0.000000e+00 0.000000e+00 0.000000e+00 6.363539e-01 3.636462e-01
 0.000000e+00 0.000000e+00 0.000000e+00 0.000000e+00 0.000000e+00
<ENDHMM>
~h "g"
<BEGINHMM>
<NUMSTATES> 5
<STATE> 2
<MEAN> 25
 -8.429328e-01 -3.888575e+00 -8.277438e-01 2.799184e+00 3.952628e+00 4.790362e+00 -1.926412e+00 1.970040e+00 -2.268211e+00 4.910308e-01 1.786474e+00 7.626778e-01 -1.344281e-02 -2.613170e-04 1.131875e-03 5.326802e-02 -1.115695e-02 6.511752e-02 -4.028127e-03 4.917235e-02 -3.183586e-02 4.591758e-02 -4.776010e-02 1.793983e-02 -8.726256e-02
<VARIANCE> 25
 2.850745e+00 3.531573e+00 4.520861e+00 8.355025e+00 7.882681e+00 1.098016e+01 1.226123e+01 1.334006e+01 1.272548e+01 1.201598e+01 1.139750e+01 1.119975e+01 1.301844e-01 2.457271e-01 3.691033e-01 6.226433e-01 8.539875e-01 1.070837e+00 1.025931e+00 1.219844e+00 1.406622e+00 1.426943e+00 1.153944e+00 1.280621e+00 4.521689e-02
<GCONST> 6.453804e+01
<STATE> 3
<MEAN> 25
 -7.569635e-01 -3.073931e+00 -1.546974e+00 3.575907e+00 3.087993e+00 4.192969e+00 -1.474756e-01 3.255725e+00 -1.458368e+00 1.826125e+00 2.993402e-01 1.985839e+00 -6.670876e-01 -2.288318e-01 2.807239e-01 -1.402857e+00 -1.712463e+00 -2.422307e+00 1.645810e+00 -1.505491e+00 4.500293e-01 -1.538046e+00 -2.199392e+00 -3.897515e-01 4.630940e+00
<VARIANCE> 25
 7.160384e+00 4.594633e+00 7.411990e+00 1.361312e+01 9.358907e+00 3.439118e+01 1.855860e+01 1.567647e+01 8.212377e+00 1.171848e+01 1.089892e+01 9.872885e+00 3.245047e+00 3.951488e+00 3.709384e+00 9.744689e+00 7.012929e+00 1.048726e+01 9.557852e+00 5.183218e+00 2.637070e+00 6.414286e+00 3.003423e+00 3.758299e+00 7.662611e+00
<GCONST> 9.637479e+01
<STATE> 4
<MEAN> 25
 1.864414e+00 -1.487341e+00 2.492731e+00 -6.169715e+00 -5.317044e+00 -9.049483e+00 7.615489e+00 6.409630e-03 1.105545e+00 2.137079e-01 -5.740955e+00 -1.585545e+00 1.812853e-01 3.156843e-01 2.983754e-01 -2.333571e-01 -4.899831e-01 -4.655778e-01 6.606532e-02 4.683195e-03 5.662929e-02 8.073498e-02 1.398793e-01 -4.372916e-02 1.123910e+00
<VARIANCE> 25
 3.807323e+01 3.835038e+01 6.868052e+01 5.032243e+01 7.041827e+01 5.521285e+01 1.337753e+02 6.706895e+01 4.135333e+01 6.998115e+01 2.672077e+01 2.450888e+01 2.555939e+00 1.695981e+00 4.747127e+00 3.830964e+00 4.134494e+00 4.431470e+00 6.114020e+00 4.468267e+00 3.729324e+00 4.130809e+00 2.537924e+00 2.264167e+00 1.125670e+01
<GCONST> 1.106907e+02
<TRANSP> 5
 0.000000e+00 1.000000e+00 0.000000e+00 0.000000e+00 0.000000e+00
 0.000000e+00 9.779619e-01 2.203809e-02 0.000000e+00 0.000000e+00
 0.000000e+00 0.000000e+00 5.321474e-01 4.678526e-01 0.000000e+00
 0.000000e+00 0.000000e+00 0.000000e+00 9.288143e-01 7.118575e-02
 0.000000e+00 0.000000e+00 0.000000e+00 0.000000e+00 0.000000e+00
<ENDHMM>
~h "k"
<BEGINHMM>
<NUMSTATES> 5
<STATE> 2
<MEAN> 25
 -1.480064e+00 -2.309314e+00 5.215243e-01 1.540479e+00 -1.202438e+00 -2.265101e+00 -4.533314e-01 2.797812e+00 -2.181383e+00 1.841779e+00 2.522164e-01 8.740844e-01 -1.110367e+00 -8.114373e-01 -1.393896e+00 1.975120e-01 2.803287e-01 2.048003e-01 -2.501871e-01 6.869856e-01 9.001969e-01 -4.557006e-01 1.654909e-01 -4.038576e-01 1.458708e+00
<VARIANCE> 25
 4.080092e+01 2.065568e+01 3.143814e+01 3.857519e+01 4.151685e+01 5.830572e+01 5.791774e+01 3.423563e+01 2.118379e+01 2.312163e+01 1.707366e+01 1.996761e+01 4.048702e+00 2.588853e+00 8.898974e+00 4.954933e+00 4.527027e+00 5.769881e+00 6.645839e+00 4.455658e+00 4.515002e+00 4.333400e+00 2.565993e+00 3.032722e+00 5.513249e+00
<GCONST> 1.067135e+02
<STATE> 3
<MEAN> 25
 -3.497648e+00 -4.250206e+00 -8.264393e+00 1.247995e-01 -5.042241e-01 -7.395470e-02 -6.808566e+00 3.168508e+00 4.111107e+00 -3.989681e-01 7.883081e-02 -8.585224e-01 -7.764866e-01 -9.364001e-04 -1.209765e+00 -8.514852e-01 -3.586359e-01 -3.640048e-01 -8.059648e-01 -6.717685e-01 1.617128e+00 7.564800e-03 3.509620e-02 -1.048894e-01 3.266165e+00
<VARIANCE> 25
 4.335427e+01 4.068936e+01 7.752061e+01 6.107931e+01 9.401731e+01 1.266479e+02 1.002112e+02 7.684016e+01 6.095301e+01 4.393638e+01 2.840356e+01 2.944974e+01 5.684222e+00 4.690054e+00 1.191217e+01 8.979785e+00 7.791417e+00 1.251894e+01 1.247643e+01 8.186226e+00 5.607910e+00 6.572402e+00 3.567659e+00 5.408674e+00 8.573022e+00
<GCONST> 1.207188e+02
<STATE> 4
<MEAN> 25
 2.653488e+00 -3.614473e-02 -3.925351e+00 -6.522120e+00 -1.957048e+00 -1.661308e+00 -1.209760e+00 -2.767399e+00 6.084576e+00 -6.590178e-01 2.587278e-01 -3.040118e+00 2.149541e-01 3.796938e-01 6.897619e-02 -3.810945e-01 1.458427e-02 1.986609e-01 5.166510e-01 -1.148194e-03 -5.765555e-02 -2.100242e-01 7.877931e-02 -4.481325e-02 5.033773e-02
<VARIANCE> 25
 8.097451e+01 4.165252e+01 5.200625e+01 8.304987e+01 5.040662e+01 9.526626e+01 7.196989e+01 7.483558e+01 5.649416e+01 2.839905e+01 3.233065e+01 4.115306e+01 5.675278e+00 3.021819e+00 4.651073e+00 4.511937e+00 3.511768e+00 4.292506e+00 3.922000e+00 4.365942e+00 4.671738e+00 3.019352e+00 3.379179e+00 3.046205e+00 3.213826e+00
<GCONST> 1.116682e+02
<TRANSP> 5
 0.000000e+00 1.000000e+00 0.000000e+00 0.000000e+00 0.000000e+00
 0.000000e+00 4.370826e-01 5.629174e-01 0.000000e+00 0.000000e+00
 0.000000e+00 0.000000e+00 5.344062e-01 4.655938e-01 0.000000e+00
 0.000000e+00 0.000000e+00 0.000000e+00 8.050050e-01 1.949950e-01
 0.000000e+00 0.000000e+00 0.000000e+00 0.000000e+00 0.000000e+00
<ENDHMM>
~h "l"
<BEGINHMM>
<NUMSTATES> 5
<STATE> 2
<MEAN> 25
 5.343056e+00 1.619768e+00 -3.580105e-01 -3.903493e+00 -6.615516e+00 -3.024146e+00 -2.549533e+00 -6.472088e+00 5.012058e+00 -2.505976e+00 -1.422465e+00 -6.266243e+00 8.911930e-02 -1.044272e-01 -2.730682e-01 -5.355495e-01 -2.951397e-01 -6.659209e-02 -1.165608e-01 1.743732e-02 2.100154e-01 -1.344813e-02 8.137776e-02 1.129076e-01 4.587128e-01
<VARIANCE> 25
 4.178815e+01 4.477394e+01 7.958498e+01 9.021707e+01 6.492236e+01 7.858382e+01 1.010000e+02 9.349147e+01 7.074105e+01 5.766975e+01 5.747491e+01 4.875211e+01 2.586405e+00 2.550641e+00 3.627712e+00 5.575377e+00 5.060834e+00 6.722302e+00 6.296799e+00 6.444389e+00 4.348733e+00 4.653484e+00 4.417677e+00 4.032860e+00 3.441402e+00
<GCONST> 1.155497e+02
<STATE> 3
<MEAN> 25
 9.044219e+00 3.210034e+00 -3.497155e+00 -1.281520e+01 -6.548670e+00 5.008000e-01 1.076280e+00 -2.716297e+00 3.442462e+00 -2.263147e-01 -2.665102e-01 1.567830e+00 -2.090521e-01 -1.115285e-01 3.259433e-01 5.591390e-01 1.867102e-01 -1.865499e-01 1.931773e-01 5.817584e-01 -4.912267e-01 1.178150e-01 2.085182e-01 3.788130e-01 -1.145238e+00
<VARIANCE> 25
 2.740289e+01 2.868712e+01 4.833170e+01 1.062761e+02 5.141047e+01 7.501099e+01 4.930339e+01 6.860016e+01 3.472068e+01 4.289675e+01 2.705826e+01 5.623044e+01 1.116064e+00 1.473382e+00 1.102690e+00 2.771474e+00 2.292084e+00 2.735431e+00 3.056064e+00 3.021928e+00 2.130165e+00 2.859446e+00 1.902159e+00 2.795659e+00 5.102759e-01
<GCONST> 1.006538e+02
<STATE> 4
<MEAN> 25
 -1.413049e-01 -3.225102e+00 -3.157293e-01 2.115722e+00 1.956105e+00 3.754452e-01 3.195417e-01 1.399188e+00 -9.560994e-01 1.503217e+00 9.571719e-01 3.761257e-01 -2.912391e-01 -1.157671e-01 4.807672e-02 3.600959e-01 2.237364e-01 1.542580e-01 -4.487368e-02 -4.178718e-02 -1.329768e-01 -1.144035e-02 1.970582e-02 -2.688555e-03 -2.714537e-01
<VARIANCE> 25
 1.098949e+01 1.610963e+01 1.401753e+01 3.164918e+01 2.806192e+01 1.963100e+01 2.687398e+01 2.708301e+01 3.174602e+01 2.322272e+01 2.083548e+01 1.614046e+01 4.317043e-01 5.113713e-01 6.647048e-01 1.219459e+00 1.241920e+00 1.214235e+00 1.535366e+00 1.848560e+00 1.572689e+00 1.486364e+00 1.372803e+00 1.190332e+00 1.575142e-01
<GCONST> 8.176602e+01
<TRANSP> 5
 0.000000e+00 1.000000e+00 0.000000e+00 0.000000e+00 0.000000e+00
 0.000000e+00 8.358508e-01 1.641491e-01 0.000000e+00 0.000000e+00
 0.000000e+00 0.000000e+00 8.012626e-01 1.987374e-01 0.000000e+00
 0.000000e+00 0.000000e+00 0.000000e+00 8.344622e-01 1.655378e-01
 0.000000e+00 0.000000e+00 0.000000e+00 0.000000e+00 0.000000e+00
<ENDHMM>
~h "m"
<BEGINHMM>
<NUMSTATES> 5
<STATE> 2
<MEAN> 25
 2.702844e+00 1.792173e+00 -3.713628e-01 3.871379e-01 8.139454e-01 -1.137238e+00 -3.764594e-01 -3.363795e+00 -5.939447e-01 5.528806e-01 1.825450e+00 -5.819560e-01 2.619284e-01 2.981970e-01 4.755082e-01 5.073191e-01 1.812243e-01 2.305037e-01 2.353680e-01 -2.729912e-01 -5.802582e-01 -5.078042e-01 5.438339e-01 -5.400192e-01 -2.775940e-01
<VARIANCE> 25
 6.735458e+01 2.354662e+01 3.187859e+01 3.673224e+01 2.343240e+01 2.887728e+01 3.955364e+01 5.886327e+01 1.877480e+01 4.147442e+01 1.744391e+01 2.753535e+01 3.160408e+00 1.808681e+00 2.119542e+00 1.918719e+00 2.365456e+00 2.337180e+00 2.316600e+00 2.428883e+00 1.500977e+00 1.968563e+00 2.490417e+00 1.631878e+00 1.389871e+00
<GCONST> 9.688199e+01
<STATE> 3
<MEAN> 25
 7.923532e+00 6.049228e+00 4.363620e+00 3.534980e+00 1.224740e+00 -2.233986e+00 1.910100e+00 -6.992606e+00 -3.227538e+00 -6.678349e-01 2.369034e+00 -5.558187e+00 7.249233e-01 8.255153e-01 6.921990e-01 6.825577e-01 -4.039505e-01 -1.283956e-01 5.534579e-01 -7.408843e-01 5.852984e-02 -7.271299e-01 -7.286195e-02 -8.516921e-01 8.740149e-01
<VARIANCE> 25
 5.123764e+01 3.509339e+01 3.964391e+01 3.633726e+01 3.063164e+01 3.148606e+01 6.214841e+01 6.812296e+01 2.519963e+01 3.309762e+01 2.873876e+01 5.979349e+01 6.624203e+00 5.093061e+00 4.874244e+00 1.831246e+00 3.884622e+00 3.258125e+00 5.038215e+00 6.392079e+00 2.927171e+00 2.694732e+00 2.467723e+00 4.799158e+00 5.331175e+00
<GCONST> 1.080405e+02
<STATE> 4
<MEAN> 25
 2.978955e+00 5.675234e+00 6.624169e+00 4.351509e+00 -6.184371e+00 -6.053038e+00 -1.810736e+00 -2.481812e+00 7.608569e-01 -5.072069e+00 -1.451957e+00 -1.864140e+00 -3.718874e-01 -4.484859e-01 -2.133451e-01 -4.363519e-01 -3.757108e-01 -2.201277e-01 -1.742325e-01 7.866817e-01 3.198689e-01 -1.107628e-01 -2.347742e-01 4.076808e-01 5.076660e-01
<VARIANCE> 25
 8.596766e+01 5.778998e+01 7.876070e+01 3.947710e+01 7.316060e+01 5.897696e+01 6.090028e+01 5.700305e+01 4.960708e+01 5.211592e+01 3.602357e+01 4.349995e+01 5.340629e+00 3.647676e+00 3.462510e+00 2.773170e+00 5.370899e+00 5.366350e+00 3.683054e+00 6.641072e+00 4.153206e+00 4.042490e+00 3.141485e+00 4.524057e+00 4.631548e+00
<GCONST> 1.130338e+02
<TRANSP> 5
 0.000000e+00 1.000000e+00 0.000000e+00 0.000000e+00 0.000000e+00
 0.000000e+00 1.810986e-01 8.189014e-01 0.000000e+00 0.000000e+00
 0.000000e+00 0.000000e+00 4.849367e-01 5.150633e-01 0.000000e+00
 0.000000e+00 0.000000e+00 0.000000e+00 8.537533e-01 1.462467e-01
 0.000000e+00 0.000000e+00 0.000000e+00 0.000000e+00 0.000000e+00
<ENDHMM>
~h "n"
<BEGINHMM>
<NUMSTATES> 5
<STATE> 2
<MEAN> 25
 3.882467e+00 3.979517e-01 3.572084e+00 2.378030e+00 2.331446e+00 -1.897387e+00 8.214558e-02 1.851646e+00 -6.306174e-01 1.300106e+00 5.248494e-01 1.549130e+00 -1.044186e+00 -1.079489e+00 -1.754935e-01 6.040241e-01 9.330482e-01 7.626921e-01 9.434225e-02 2.719812e-01 -2.696750e-01 6.230802e-02 3.043326e-01 2.060232e-01 -8.439282e-01
<VARIANCE> 25
 1.756851e+01 2.010038e+01 1.253404e+01 1.976227e+01 2.648941e+01 2.047737e+01 1.830463e+01 2.328167e+01 1.962672e+01 1.963453e+01 1.604017e+01 1.252516e+01 7.639922e-01 7.248909e-01 1.202399e+00 1.403027e+00 1.777274e+00 1.483142e+00 1.799558e+00 2.038035e+00 1.839041e+00 1.621816e+00 1.647664e+00 1.423946e+00 1.372354e-01
<GCONST> 8.309421e+01
<STATE> 3
<MEAN> 25
 -4.762687e-01 -3.644089e+00 8.997395e-01 3.903872e+00 4.570258e+00 2.621691e+00 5.208494e-02 2.903071e+00 -1.855209e+00 1.079109e+00 6.233664e-01 1.416327e+00 -3.661697e-02 -9.400660e-03 -4.858316e-02 2.711786e-02 -4.342274e-02 4.548633e-02 -5.594837e-02 1.120745e-02 -4.897323e-02 1.058702e-02 1.675189e-03 5.180526e-03 -1.136755e-01
<VARIANCE> 25
 1.849593e+00 5.823273e+00 7.146801e+00 1.123386e+01 1.104041e+01 1.207125e+01 1.277087e+01 1.605904e+01 1.608687e+01 1.651772e+01 1.148530e+01 1.106034e+01 1.106107e-01 2.532064e-01 3.964520e-01 5.856550e-01 7.684035e-01 9.183308e-01 1.020469e+00 1.192317e+00 1.310431e+00 1.247600e+00 1.161502e+00 1.111507e+00 3.383130e-02
<GCONST> 6.552470e+01
<STATE> 4
<MEAN> 25
 -2.319841e+00 -4.203841e+00 -1.519686e+00 3.756073e+00 2.772661e+00 2.167704e+00 -1.263667e+00 3.459587e+00 -3.605829e+00 1.187507e+00 -1.213998e-01 1.004449e+00 -2.711461e-02 3.497639e-02 -4.132463e-02 2.916183e-02 -1.259851e-02 5.924329e-02 -2.729592e-03 8.076926e-02 -1.162241e-02 2.418784e-02 -1.715743e-02 -3.757010e-02 -7.575684e-02
<VARIANCE> 25
 2.605973e+00 6.186449e+00 7.992496e+00 1.012323e+01 1.138019e+01 1.546829e+01 1.408489e+01 1.544627e+01 1.403679e+01 1.455599e+01 1.358940e+01 1.238252e+01 1.896961e-01 2.895266e-01 4.638751e-01 7.031587e-01 9.239517e-01 1.139751e+00 1.362753e+00 1.520657e+00 1.397764e+00 1.502705e+00 1.385362e+00 1.182056e+00 6.407055e-02
<GCONST> 6.936462e+01
<TRANSP> 5
 0.000000e+00 1.000000e+00 0.000000e+00 0.000000e+00 0.000000e+00
 0.000000e+00 7.235902e-01 2.764098e-01 0.000000e+00 0.000000e+00
 0.000000e+00 0.000000e+00 9.602187e-01 3.978124e-02 0.000000e+00
 0.000000e+00 0.000000e+00 0.000000e+00 9.271812e-01 7.281879e-02
 0.000000e+00 0.000000e+00 0.000000e+00 0.000000e+00 0.000000e+00
<ENDHMM>
~h "p"
<BEGINHMM>
<NUMSTATES> 5
<STATE> 2
<MEAN> 25
 -4.074460e-02 -3.300596e+00 -2.366152e+00 -3.179384e+00 -4.067255e+00 -3.616127e+00 1.645755e-01 2.691620e+00 3.290489e+00 1.132470e+00 -8.753235e-01 -1.813057e-02 -4.742711e-01 -5.588065e-01 8.112149e-01 4.379064e-01 2.504608e-02 1.150746e-01 1.097098e-01 3.083542e-01 -2.699286e-01 1.419989e-01 -9.936945e-02 1.330616e-01 7.647635e-02
<VARIANCE> 25
 4.451869e+01 1.779296e+01 2.008522e+01 3.944488e+01 4.364535e+01 5.086790e+01 5.752454e+01 3.660747e+01 3.134706e+01 2.938996e+01 2.687707e+01 2.460820e+01 3.351910e+00 2.637801e+00 1.863363e+00 2.881889e+00 2.531193e+00 2.365653e+00 4.836029e+00 4.286294e+00 2.828765e+00 1.669088e+00 2.197233e+00 1.568209e+00 3.694256e+00
<GCONST> 1.007520e+02
<STATE> 3
<MEAN> 25
 2.918212e-01 -3.094132e+00 6.342807e-02 -1.658885e+00 -1.155393e+00 -1.460552e+00 5.342355e-01 3.010884e+00 1.163291e+00 8.434196e-01 1.717391e+00 1.583596e+00 -7.073478e-01 -5.961451e-02 9.283072e-01 1.136046e+00 1.010510e+00 7.755313e-01 -3.493049e-01 -5.893385e-01 -7.098809e-01 7.255188e-02 5.760803e-01 2.449258e-01 -5.193672e-01
<VARIANCE> 25
 1.097695e+01 1.420571e+01 1.070086e+01 2.459026e+01 2.978751e+01 3.347872e+01 2.171118e+01 2.306328e+01 2.788267e+01 2.043919e+01 1.775646e+01 1.101900e+01 7.687627e-01 6.893069e-01 1.307844e+00 1.227274e+00 1.129561e+00 1.806827e+00 2.662578e+00 2.957336e+00 2.101934e+00 1.267773e+00 1.557197e+00 1.387414e+00 2.484777e-01
<GCONST> 8.428510e+01
<STATE> 4
<MEAN> 25
 -2.051750e+00 -4.144029e+00 -4.602627e-01 2.977631e+00 1.464578e+00 3.026161e+00 -1.908776e+00 2.401264e+00 -3.462715e+00 4.841915e-01 8.197721e-01 1.548667e+00 -2.163523e-02 2.577799e-02 -5.394727e-03 5.220146e-02 -2.266224e-02 7.908300e-02 -3.933294e-02 3.161141e-02 -2.601890e-02 1.503398e-02 -1.832553e-02 2.814475e-03 -8.488218e-02
<VARIANCE> 25
 2.396693e+00 3.589494e+00 6.844054e+00 1.011152e+01 1.005457e+01 1.593674e+01 1.308924e+01 1.468694e+01 1.612689e+01 1.232910e+01 1.105702e+01 1.162258e+01 1.172466e-01 2.545569e-01 4.274035e-01 6.837003e-01 8.574173e-01 1.043739e+00 1.283602e+00 1.663074e+00 1.652883e+00 1.249285e+00 1.047616e+00 1.138754e+00 4.578209e-02
<GCONST> 6.654298e+01
<TRANSP> 5
 0.000000e+00 1.000000e+00 0.000000e+00 0.000000e+00 0.000000e+00
 0.000000e+00 4.987655e-01 5.012345e-01 0.000000e+00 0.000000e+00
 0.000000e+00 0.000000e+00 5.334313e-01 4.665687e-01 0.000000e+00
 0.000000e+00 0.000000e+00 0.000000e+00 9.686226e-01 3.137742e-02
 0.000000e+00 0.000000e+00 0.000000e+00 0.000000e+00 0.000000e+00
<ENDHMM>
~h "r"
<BEGINHMM>
<NUMSTATES> 5
<STATE> 2
<MEAN> 25
 -5.715576e+00 4.045794e+00 -6.287895e+00 -2.904887e-01 -9.684172e-01 -3.417243e-01 2.702987e+00 -1.276557e+00 5.532709e+00 2.384269e-01 4.895968e-01 -2.293213e+00 -3.002941e-01 1.371067e-01 -3.181354e-01 4.336875e-01 -1.384602e-01 -1.836921e-01 -2.141183e-02 -3.427261e-01 3.635173e-01 4.409735e-02 1.707712e-01 -1.711471e-02 4.904982e-01
<VARIANCE> 25
 1.117724e+02 8.689101e+01 5.448309e+01 7.880141e+01 4.230376e+01 4.561651e+01 3.504185e+01 4.229571e+01 6.073824e+01 2.745544e+01 2.057862e+01 4.701711e+01 3.338049e+00 3.424022e+00 3.511657e+00 2.535861e+00 1.918960e+00 3.237306e+00 2.608067e+00 5.029120e+00 2.276124e+00 2.860571e+00 2.597035e+00 2.101446e+00 3.361945e+00
<GCONST> 1.064593e+02
<STATE> 3
<MEAN> 25
 3.976233e+00 -1.004634e+00 -3.228884e+00 3.912227e+00 -3.492254e+00 -1.060726e+00 -2.324296e+00 -3.018766e+00 5.298032e+00 -1.261514e-01 -2.032280e-01 -1.419891e+00 1.488955e+00 -2.361107e-01 -1.175553e-01 1.370974e+00 -2.299786e-01 -8.469657e-01 -1.031823e+00 -2.926989e-01 3.008638e-01 -7.853627e-01 1.537612e-01 -1.316283e-01 8.301944e-01
<VARIANCE> 25
 1.274393e+02 3.527058e+01 7.457090e+01 7.949501e+01 5.259021e+01 6.482412e+01 8.763141e+01 6.946241e+01 5.814745e+01 4.354105e+01 4.519617e+01 3.099142e+01 9.144724e+00 4.186715e+00 5.926312e+00 5.639019e+00 6.609168e+00 6.644300e+00 7.020319e+00 5.382673e+00 5.585338e+00 4.295506e+00 3.530610e+00 3.917544e+00 4.836926e+00
<GCONST> 1.169239e+02
<STATE> 4
<MEAN> 25
 9.878178e+00 3.698763e-01 -1.501053e+00 4.264350e+00 -7.860634e+00 -7.373055e+00 -3.830071e+00 -6.302418e+00 5.128333e+00 -2.656006e+00 3.550499e+00 -2.456908e-01 -4.702414e-02 1.131719e-01 3.565665e-01 -4.556625e-01 -1.793842e-01 -1.963429e-01 6.552771e-02 -3.606405e-03 -5.032719e-01 2.187227e-01 -3.121208e-02 2.996893e-01 -1.925587e-01
<VARIANCE> 25
 6.157351e+01 4.014161e+01 1.132527e+02 8.750101e+01 4.882960e+01 7.585107e+01 5.871745e+01 1.076120e+02 6.411102e+01 3.562606e+01 4.645755e+01 3.390495e+01 2.913018e+00 1.950386e+00 4.246901e+00 4.420660e+00 4.162354e+00 4.723575e+00 3.913825e+00 3.946654e+00 4.278930e+00 4.907987e+00 3.767538e+00 2.962842e+00 2.112646e+00
<GCONST> 1.116158e+02
<TRANSP> 5
 0.000000e+00 1.000000e+00 0.000000e+00 0.000000e+00 0.000000e+00
 0.000000e+00 7.545279e-01 2.454721e-01 0.000000e+00 0.000000e+00
 0.000000e+00 0.000000e+00 6.483698e-01 3.516302e-01 0.000000e+00
 0.000000e+00 0.000000e+00 0.000000e+00 8.307063e-01 1.692937e-01
 0.000000e+00 0.000000e+00 0.000000e+00 0.000000e+00 0.000000e+00
<ENDHMM>
~h "s"
<BEGINHMM>
<NUMSTATES> 5
<STATE> 2
<MEAN> 25
 -8.299711e+00 8.568993e+00 -1.629027e+00 1.499093e+00 5.028649e+00 -4.836972e+00 1.393318e+00 5.254473e-01 2.574462e-01 5.737355e-01 1.324192e+00 7.887299e-01 -2.851369e+00 3.524457e+00 -1.252627e+00 -8.770933e-01 1.542075e+00 -1.041890e+00 5.540208e-01 -2.166400e-01 4.365031e-01 1.404026e-02 6.146739e-01 -1.570399e-02 2.212199e+00
<VARIANCE> 25
 4.895350e+01 9.566180e+01 4.188141e+01 4.673774e+01 5.039243e+01 5.438164e+01 4.003986e+01 4.641682e+01 3.513872e+01 2.824184e+01 2.196932e+01 2.009828e+01 2.971796e+00 4.634020e+00 2.972634e+00 3.459669e+00 3.139662e+00 4.743173e+00 3.903418e+00 3.132395e+00 2.852779e+00 2.608886e+00 2.546037e+00 1.921216e+00 3.275276e+00
<GCONST> 1.053506e+02
<STATE> 3
<MEAN> 25
 -1.728939e+01 1.788827e+01 -6.287363e+00 -1.684288e-01 9.681549e+00 -5.876736e+00 3.807797e+00 8.880111e-01 1.134615e+00 2.226106e+00 1.709629e+00 1.667735e+00 -1.027897e-01 1.240355e-01 -4.077135e-01 5.904998e-01 -2.058321e-01 4.166171e-01 1.225235e-01 -2.118404e-01 1.179228e-01 3.553238e-03 -7.329582e-02 -1.085028e-01 1.907501e-01
<VARIANCE> 25
 1.970068e+01 2.265969e+01 1.572007e+01 3.256786e+01 2.678109e+01 1.958702e+01 1.801217e+01 2.167772e+01 1.637516e+01 1.503783e+01 9.532104e+00 8.757893e+00 1.197439e+00 1.629374e+00 7.842528e-01 1.220136e+00 1.268385e+00 1.244849e+00 1.157443e+00 1.099206e+00 1.049912e+00 9.220998e-01 7.703657e-01 7.575489e-01 1.688962e+00
<GCONST> 8.172233e+01
<STATE> 4
<MEAN> 25
 -1.098338e+01 1.033998e+01 -7.215203e+00 6.991303e+00 3.182720e+00 -2.504870e-01 2.080123e+00 -9.764926e-01 1.490789e+00 3.408199e-01 2.019797e+00 7.384344e-01 3.683835e-01 -8.315820e-01 3.132893e-01 9.446518e-02 -2.650891e-01 3.073757e-01 -8.904395e-02 2.996326e-02 -9.671371e-02 -1.015288e-01 -1.484616e-01 5.457531e-02 -5.287532e-01
<VARIANCE> 25
 4.539024e+01 1.041303e+02 3.214212e+01 1.747116e+01 1.473557e+01 1.931733e+01 1.861995e+01 1.366140e+01 2.115242e+01 1.110736e+01 1.214195e+01 8.549832e+00 1.013386e+00 1.149668e+00 8.393703e-01 9.926788e-01 1.017307e+00 1.280842e+00 1.233610e+00 1.037820e+00 1.129072e+00 1.342261e+00 1.225184e+00 7.395084e-01 8.608305e-01
<GCONST> 8.267990e+01
<TRANSP> 5
 0.000000e+00 1.000000e+00 0.000000e+00 0.000000e+00 0.000000e+00
 0.000000e+00 7.091135e-01 2.908864e-01 0.000000e+00 0.000000e+00
 0.000000e+00 0.000000e+00 8.355880e-01 1.644120e-01 0.000000e+00
 0.000000e+00 0.000000e+00 0.000000e+00 8.841196e-01 1.158803e-01
 0.000000e+00 0.000000e+00 0.000000e+00 0.000000e+00 0.000000e+00
<ENDHMM>
~h "t"
<BEGINHMM>
<NUMSTATES> 5
<STATE> 2
<MEAN> 25
 -3.493885e+00 6.636952e+00 -3.231430e+00 -8.832024e-01 -1.651984e+00 -4.934625e+00 -3.501992e-01 -1.524443e+00 2.680621e+00 1.485973e+00 -6.359141e-01 1.700550e+00 -2.443241e+00 1.278352e+00 -5.363168e-01 1.744383e-01 9.156970e-01 2.651052e-01 6.283024e-01 4.883632e-01 3.685137e-01 -4.351799e-01 -4.547080e-02 2.357645e-01 8.485821e-01
<VARIANCE> 25
 9.232208e+01 5.545617e+01 5.078955e+01 4.440708e+01 6.064116e+01 5.828811e+01 6.022875e+01 5.359309e+01 3.515905e+01 3.795079e+01 3.672118e+01 2.660562e+01 7.391189e+00 6.841054e+00 4.509777e+00 4.175008e+00 5.299087e+00 5.481245e+00 4.900548e+00 5.422877e+00 3.760976e+00 3.557694e+00 3.467492e+00 2.465540e+00 3.180421e+00
<GCONST> 1.119436e+02
<STATE> 3
<MEAN> 25
 -1.201809e+01 8.664041e+00 -3.695828e+00 -1.139964e+00 6.797489e+00 -4.117020e+00 3.616891e+00 1.668697e+00 1.556972e+00 -5.420758e-01 1.220199e+00 1.922088e+00 7.385656e-01 -1.221802e+00 4.308902e-01 2.476694e-01 1.440944e-01 1.134147e-01 -1.821684e-02 -1.172289e-01 -2.583767e-01 -8.810469e-02 -1.623557e-02 4.210914e-03 -1.001908e+00
<VARIANCE> 25
 3.520541e+01 5.494197e+01 2.309055e+01 2.993517e+01 3.056092e+01 2.511387e+01 2.379829e+01 3.133995e+01 2.298636e+01 2.153551e+01 1.594612e+01 1.595908e+01 1.319638e+00 1.280229e+00 1.388343e+00 1.474859e+00 1.395306e+00 1.874027e+00 1.635554e+00 2.569824e+00 1.696242e+00 1.356435e+00 1.486521e+00 1.402406e+00 7.851891e-01
<GCONST> 9.001854e+01
<STATE> 4
<MEAN> 25
 -1.839503e+00 -3.604097e+00 1.018888e+00 3.625577e+00 3.584191e+00 2.202884e+00 -1.893123e-01 1.996905e+00 -2.626570e+00 2.773627e-01 7.812976e-01 1.560393e+00 3.375804e-02 -6.029532e-02 1.887142e-02 4.689820e-02 -5.254586e-02 1.163423e-01 -8.418557e-02 5.684244e-02 -5.047690e-02 1.905157e-02 -3.594492e-02 -1.683478e-02 -1.341716e-01
<VARIANCE> 25
 5.773206e+00 7.272441e+00 9.566972e+00 1.084587e+01 1.107161e+01 1.488623e+01 1.705770e+01 1.702210e+01 1.744143e+01 1.432006e+01 1.300698e+01 1.060601e+01 2.706870e-01 3.546940e-01 4.599553e-01 6.523651e-01 9.148142e-01 1.165430e+00 1.183705e+00 1.399880e+00 1.434671e+00 1.323136e+00 1.190852e+00 1.117025e+00 9.411726e-02
<GCONST> 7.113478e+01
<TRANSP> 5
 0.000000e+00 1.000000e+00 0.000000e+00 0.000000e+00 0.000000e+00
 0.000000e+00 7.472221e-01 2.527779e-01 0.000000e+00 0.000000e+00
 0.000000e+00 0.000000e+00 8.355536e-01 1.644463e-01 0.000000e+00
 0.000000e+00 0.000000e+00 0.000000e+00 9.370871e-01 6.291295e-02
 0.000000e+00 0.000000e+00 0.000000e+00 0.000000e+00 0.000000e+00
<ENDHMM>
~h "v"
<BEGINHMM>
<NUMSTATES> 5
<STATE> 2
<MEAN> 25
 7.399958e+00 3.532669e+00 8.164146e+00 3.656591e+00 -5.081363e+00 -8.281543e+00 -7.968603e+00 -4.913387e+00 -3.520346e+00 1.509012e+00 4.759372e-01 3.263757e-01 -6.219678e-01 -2.612232e-02 -5.966049e-01 4.452002e-01 1.173858e+00 9.017657e-01 2.679909e-01 4.149312e-01 2.567216e-01 4.474791e-02 4.179578e-01 6.807913e-01 -9.976482e-01
<VARIANCE> 25
 1.716876e+01 2.154482e+01 5.121502e+01 2.674972e+01 4.265038e+01 4.347153e+01 2.283015e+01 3.870868e+01 2.683138e+01 2.881215e+01 1.980438e+01 3.050412e+01 8.003416e-01 1.789667e+00 1.485697e+00 1.652464e+00 1.761381e+00 1.948228e+00 1.794945e+00 2.314553e+00 2.125811e+00 2.293547e+00 1.521548e+00 2.376866e+00 2.423659e-01
<GCONST> 9.181327e+01
<STATE> 3
<MEAN> 25
 2.353959e+00 -6.882638e-01 2.421412e+00 2.697786e+00 1.334353e+00 -1.950329e+00 -1.856293e+00 7.150345e-03 -1.608275e-01 1.096663e+00 1.621119e+00 1.136611e+00 -1.106720e+00 -1.009768e+00 -4.458477e-01 2.006924e-01 9.593710e-01 1.053949e+00 9.350150e-01 3.084210e-01 9.041563e-02 2.582183e-02 1.234846e-02 -2.303125e-01 -7.160602e-01
<VARIANCE> 25
 1.689178e+01 1.191544e+01 1.688757e+01 2.169926e+01 2.385958e+01 2.843629e+01 3.620688e+01 3.256160e+01 2.739844e+01 2.575622e+01 1.736610e+01 1.582731e+01 6.995454e-01 5.741739e-01 1.000291e+00 1.564911e+00 1.302172e+00 1.447409e+00 1.969060e+00 2.126956e+00 1.648817e+00 1.459273e+00 1.544778e+00 1.145039e+00 1.389598e-01
<GCONST> 8.399986e+01
<STATE> 4
<MEAN> 25
 -2.005018e+00 -3.437915e+00 1.216290e+00 4.575395e+00 4.982398e+00 2.365559e+00 2.116886e+00 2.625085e+00 -8.631027e-01 1.517583e+00 8.285006e-01 1.360701e+00 -4.734408e-02 -1.653433e-02 -2.168829e-02 2.901113e-02 -8.280128e-04 5.851340e-02 -2.462912e-02 6.318649e-02 -1.515805e-02 4.229750e-02 -1.692156e-02 1.900552e-02 -1.109263e-01
<VARIANCE> 25
 6.801805e+00 5.137101e+00 6.703777e+00 1.173511e+01 1.193008e+01 1.565491e+01 1.678439e+01 1.670785e+01 1.525234e+01 1.961137e+01 1.321539e+01 1.124923e+01 1.269629e-01 2.518405e-01 4.337683e-01 6.250447e-01 8.114761e-01 1.038958e+00 1.301773e+00 1.387049e+00 1.316467e+00 1.270288e+00 1.227437e+00 1.078126e+00 4.834881e-02
<GCONST> 6.887181e+01
<TRANSP> 5
 0.000000e+00 1.000000e+00 0.000000e+00 0.000000e+00 0.000000e+00
 0.000000e+00 7.645906e-01 2.354094e-01 0.000000e+00 0.000000e+00
 0.000000e+00 0.000000e+00 6.746376e-01 3.253624e-01 0.000000e+00
 0.000000e+00 0.000000e+00 0.000000e+00 9.589969e-01 4.100306e-02
 0.000000e+00 0.000000e+00 0.000000e+00 0.000000e+00 0.000000e+00
<ENDHMM>
~h "w"
<BEGINHMM>
<NUMSTATES> 5
<STATE> 2
<MEAN> 25
 1.354858e+01 9.361533e+00 2.970626e+00 -6.342927e+00 -6.999656e+00 1.486643e+00 -4.732145e+00 -1.478327e+00 -3.097308e+00 -5.423118e+00 -1.387489e+00 2.009952e+00 1.186599e+00 8.971241e-01 -1.838459e-01 -1.825199e+00 -1.307272e+00 1.054013e+00 2.667104e-01 -9.157441e-01 4.561715e-01 -1.050060e+00 -1.181033e-01 4.175272e-01 8.737794e-01
<VARIANCE> 25
 4.494344e+01 3.300521e+01 2.729262e+01 7.070822e+01 3.828448e+01 8.564200e+01 3.525662e+01 4.388533e+01 2.212632e+01 3.331126e+01 2.713593e+01 1.654004e+01 3.995890e+00 3.830416e+00 2.496498e+00 3.842743e+00 4.517325e+00 7.487717e+00 3.456443e+00 4.401550e+00 3.725725e+00 3.290013e+00 2.496915e+00 1.891222e+00 2.316708e+00
<GCONST> 1.050942e+02
<STATE> 3
<MEAN> 25
 1.127257e+01 6.230016e+00 -4.432065e+00 -1.966454e+01 -9.647290e+00 1.141076e+01 -8.637429e-01 -1.230807e+01 6.753934e+00 -3.690700e+00 1.610717e+00 2.422590e-01 -1.164173e+00 -1.902986e+00 -1.090883e+00 -2.981232e-01 1.396795e+00 -8.901762e-01 6.330007e-01 -3.246330e-01 2.180045e+00 1.802218e+00 -3.392619e-02 -1.851684e+00 2.105926e+00
<VARIANCE> 25
 3.607018e+01 3.429465e+01 2.205602e+01 1.002132e+02 4.948168e+01 8.030788e+01 6.810913e+01 7.931075e+01 8.744167e+01 1.232077e+02 2.558261e+01 6.253033e+01 1.372082e+00 3.077367e+00 2.271840e+00 8.063228e+00 4.677670e+00 1.330667e+01 7.006856e+00 1.145104e+01 5.839816e+00 6.416749e+00 4.262605e+00 5.823078e+00 3.668288e+00
<GCONST> 1.153120e+02
<STATE> 4
<MEAN> 25
 7.091429e+00 -1.851576e+00 -9.983996e+00 -1.488632e+01 -1.289463e+00 6.501534e+00 3.885074e+00 -7.001290e+00 7.217715e+00 8.177154e-01 2.001619e-02 -6.920519e+00 -2.302020e-01 -7.434542e-01 -1.624717e-01 1.750646e+00 2.684326e-01 -1.574918e+00 1.901882e-01 1.365334e+00 -1.178082e+00 7.188760e-01 -8.531465e-01 -1.021375e+00 2.333239e-02
<VARIANCE> 25
 3.842015e+01 2.287081e+01 2.791719e+01 7.792991e+01 9.390479e+01 8.778932e+01 6.647129e+01 3.901479e+01 6.286146e+01 2.858955e+01 5.221700e+01 4.680066e+01 7.774791e-01 1.380279e+00 1.374915e+00 3.760057e+00 2.686070e+00 3.888845e+00 3.407486e+00 4.366015e+00 2.959744e+00 3.866110e+00 1.603237e+00 3.064323e+00 9.475750e-01
<GCONST> 1.033184e+02
<TRANSP> 5
 0.000000e+00 1.000000e+00 0.000000e+00 0.000000e+00 0.000000e+00
 0.000000e+00 8.030283e-01 1.969717e-01 0.000000e+00 0.000000e+00
 0.000000e+00 0.000000e+00 7.185583e-01 2.814418e-01 0.000000e+00
 0.000000e+00 0.000000e+00 0.000000e+00 6.882997e-01 3.117003e-01
 0.000000e+00 0.000000e+00 0.000000e+00 0.000000e+00 0.000000e+00
<ENDHMM>
~h "y"
<BEGINHMM>
<NUMSTATES> 5
<STATE> 2
<MEAN> 25
 -2.185164e+00 -2.857795e+00 -1.473257e-01 3.107972e+00 3.789090e+00 2.818485e+00 6.495085e-01 2.815010e+00 -2.240829e+00 4.983865e-01 1.189937e-01 1.746471e+00 -2.536605e-02 1.124602e-02 -1.581746e-02 4.170350e-02 -5.693399e-03 6.534368e-02 -5.963448e-03 1.174407e-02 -2.959193e-02 3.097862e-02 -2.150660e-02 1.859389e-02 -7.990333e-02
<VARIANCE> 25
 3.012805e+00 4.387972e+00 5.262903e+00 9.410162e+00 1.090673e+01 1.765283e+01 1.434563e+01 1.716658e+01 1.254736e+01 1.446227e+01 1.167706e+01 1.027986e+01 1.068953e-01 2.394774e-01 4.031791e-01 5.975929e-01 8.391411e-01 1.030971e+00 1.141379e+00 1.458897e+00 1.288177e+00 1.222150e+00 1.150816e+00 1.070075e+00 4.255138e-02
<GCONST> 6.596831e+01
<STATE> 3
<MEAN> 25
 -2.322167e+00 -2.146084e+00 -7.759817e-01 4.800066e+00 3.817191e+00 4.157149e+00 -1.577771e-01 2.959876e+00 -2.868340e+00 1.110244e+00 -1.308656e+00 1.535272e+00 -7.909395e-02 1.790520e+00 8.451442e-01 -4.384249e-01 -5.293895e-01 -1.699996e+00 -9.615670e-01 -1.614230e+00 -5.611710e-01 1.357112e-01 -5.757809e-01 -1.238443e+00 2.283139e+00
<VARIANCE> 25
 2.882135e+00 6.074538e+00 9.546227e+00 1.560409e+01 9.785383e+00 1.787083e+01 1.455375e+01 2.233131e+01 1.812905e+01 2.090506e+01 1.564472e+01 7.935662e+00 4.432774e+00 5.723277e+00 3.868901e+00 1.584717e+00 3.375638e+00 6.094497e+00 5.338116e+00 4.402559e+00 1.200028e+01 3.650840e+00 1.695813e+00 1.745207e+00 4.007534e+00
<GCONST> 9.300124e+01
<STATE> 4
<MEAN> 25
 -3.358784e+00 9.326221e+00 9.831781e+00 -1.112422e+00 -7.723063e+00 -5.086918e+00 -2.753691e+00 -2.428448e+00 -8.160358e+00 5.667061e-03 -2.112454e+00 -3.210174e+00 -3.452654e-01 -3.850060e-01 9.239343e-02 -8.020568e-01 -2.031316e+00 -1.337786e+00 4.215278e-02 -5.122361e-02 7.999811e-01 1.878678e-01 6.657349e-02 -9.830694e-02 3.642850e+00
<VARIANCE> 25
 2.585498e+01 1.072184e+02 6.755231e+01 3.828943e+01 8.929792e+01 4.443411e+01 4.886754e+01 2.744925e+01 8.744825e+01 3.629695e+01 1.973420e+01 3.653433e+01 3.538084e+00 1.124871e+01 6.264936e+00 4.531299e+00 5.003957e+00 8.361921e+00 7.797490e+00 4.879865e+00 5.524978e+00 4.307833e+00 2.171813e+00 4.056422e+00 4.932139e+00
<GCONST> 1.132072e+02
<TRANSP> 5
 0.000000e+00 1.000000e+00 0.000000e+00 0.000000e+00 0.000000e+00
 0.000000e+00 9.729946e-01 2.700536e-02 0.000000e+00 0.000000e+00
 0.000000e+00 0.000000e+00 3.977582e-01 6.022418e-01 0.000000e+00
 0.000000e+00 0.000000e+00 0.000000e+00 7.471570e-01 2.528429e-01
 0.000000e+00 0.000000e+00 0.000000e+00 0.000000e+00 0.000000e+00
<ENDHMM>
~h "z"
<BEGINHMM>
<NUMSTATES> 5
<STATE> 2
<MEAN> 25
 2.918524e-02 7.393345e+00 -1.684332e+00 1.287047e+00 2.151003e+00 -4.493820e+00 5.759009e-01 3.935722e-01 5.132735e-01 3.857578e+00 -5.741751e-01 6.140758e-02 -1.855109e+00 3.417035e+00 -5.691664e-01 2.131203e-01 1.066883e+00 -1.523237e+00 9.322125e-02 -2.653789e-01 1.048289e-01 -2.743700e-01 6.355650e-01 -3.711103e-01 1.451249e+00
<VARIANCE> 25
 9.409238e+01 1.188979e+02 1.639748e+01 7.458023e+01 5.684855e+01 6.835966e+01 4.378671e+01 3.884735e+01 3.033010e+01 3.304612e+01 2.901760e+01 1.783456e+01 7.540556e+00 8.832265e+00 2.599173e+00 4.698242e+00 4.389960e+00 4.223487e+00 3.170070e+00 5.611541e+00 2.852380e+00 3.643953e+00 2.447627e+00 2.461408e+00 3.858086e+00
<GCONST> 1.092286e+02
<STATE> 3
<MEAN> 25
 -1.458106e+01 1.684773e+01 -7.028930e+00 8.195497e-02 9.809462e+00 -7.407520e+00 6.438503e+00 3.447967e-01 1.787733e-01 1.311784e+00 1.623883e+00 1.935605e+00 2.004697e-01 -5.737153e-01 7.017146e-02 3.135646e-01 -2.432584e-02 6.440751e-02 2.371042e-01 -3.628307e-01 1.763008e-01 -2.338332e-01 -2.112712e-01 1.473387e-01 -3.283127e-01
<VARIANCE> 25
 3.718057e+01 4.884151e+01 1.642890e+01 3.846198e+01 3.176413e+01 1.856524e+01 3.290706e+01 4.068243e+01 1.796447e+01 1.058236e+01 1.080043e+01 9.670279e+00 1.376482e+00 1.916631e+00 5.518571e-01 8.759639e-01 7.657551e-01 1.196445e+00 1.004343e+00 1.094188e+00 9.909954e-01 1.004704e+00 7.052945e-01 6.605057e-01 1.286588e+00
<GCONST> 8.310911e+01
<STATE> 4
<MEAN> 25
 -5.511688e+00 1.581209e+01 -1.319473e+00 1.008972e+01 4.923187e-01 -1.018998e+01 -2.303826e+00 -6.424936e-01 2.462826e+00 -3.026674e+00 -8.074079e+00 -1.793045e+00 1.614926e-01 -1.754703e+00 9.361355e-01 -2.406822e-01 -1.177206e+00 -8.438715e-02 2.141045e-01 2.284382e-01 -6.933197e-01 -6.951763e-01 -1.230699e-01 3.175131e-02 1.018726e+00
<VARIANCE> 25
 1.638094e+01 1.065319e+02 1.828697e+01 4.664673e+01 4.331554e+01 3.701624e+01 6.866098e+01 2.493936e+01 2.458896e+01 2.116774e+01 4.028501e+01 2.667937e+01 1.424947e+00 2.375268e+00 3.076165e+00 1.728247e+00 2.952650e+00 3.784350e+00 3.757492e+00 2.441312e+00 4.109998e+00 2.050708e+00 4.282339e+00 1.974491e+00 1.558278e+00
<GCONST> 1.004503e+02
<TRANSP> 5
 0.000000e+00 1.000000e+00 0.000000e+00 0.000000e+00 0.000000e+00
 0.000000e+00 7.285482e-01 2.714518e-01 0.000000e+00 0.000000e+00
 0.000000e+00 0.000000e+00 8.710676e-01 1.289324e-01 0.000000e+00
 0.000000e+00 0.000000e+00 0.000000e+00 7.442759e-01 2.557241e-01
 0.000000e+00 0.000000e+00 0.000000e+00 0.000000e+00 0.000000e+00
<ENDHMM>
~h "aa"
<BEGINHMM>
<NUMSTATES> 5
<STATE> 2
<MEAN> 25
 5.407816e+00 6.629778e+00 -1.745614e+00 -8.304479e+00 -6.870257e-01 6.102218e+00 -2.601643e+00 -6.378356e+00 5.199183e+00 -4.408291e+00 -7.336257e-02 -1.872321e+00 9.994068e-01 -3.926135e-01 -5.962495e-02 -1.695569e+00 -1.715884e-01 7.865494e-01 5.320254e-01 -6.032897e-01 8.214801e-01 -6.092167e-01 -2.498270e-02 -6.323683e-01 2.013633e+00
<VARIANCE> 25
 6.202752e+01 5.154454e+01 4.834663e+01 1.670647e+02 3.863676e+01 1.113160e+02 7.090297e+01 6.159946e+01 9.184669e+01 6.559550e+01 3.743076e+01 6.018494e+01 7.404289e+00 4.805285e+00 2.827927e+00 6.839910e+00 4.625389e+00 7.342162e+00 6.470086e+00 4.348047e+00 3.684492e+00 3.920055e+00 3.726875e+00 4.446585e+00 5.206373e+00
<GCONST> 1.167098e+02
<STATE> 3
<MEAN> 25
 9.259565e+00 -1.489388e+00 -7.117559e+00 -1.766578e+01 1.289922e+00 7.559569e+00 9.403248e+00 -8.258411e+00 8.019912e+00 -2.527568e+00 -1.398517e+00 -6.385355e+00 1.488180e-01 -1.155820e-01 1.671017e-01 9.107413e-01 -2.457588e-01 -4.937735e-01 -2.010206e-02 4.884872e-01 -6.599992e-01 9.323878e-01 -1.366523e-01 4.988693e-02 -8.730476e-01
<VARIANCE> 25
 1.526857e+01 3.308306e+01 3.309857e+01 8.288435e+01 4.907844e+01 7.261412e+01 3.982428e+01 5.085617e+01 3.779317e+01 5.328691e+01 6.930358e+01 1.095755e+02 7.513470e-01 9.536816e-01 1.475419e+00 2.632670e+00 2.106243e+00 2.644239e+00 3.488503e+00 2.560399e+00 2.228795e+00 2.140548e+00 2.694422e+00 2.709069e+00 1.256550e+00
<GCONST> 1.011329e+02
<STATE> 4
<MEAN> 25
 6.078594e+00 3.988712e-01 -2.793278e+00 -7.633769e+00 -9.734271e-01 2.643608e+00 2.954042e+00 -2.317661e-01 5.897998e+00 2.896301e+00 -3.264636e+00 -2.650404e+00 -5.794497e-01 -1.071895e-01 2.779222e-01 7.119642e-01 2.005791e-01 -1.370212e-01 -3.100728e-01 2.667772e-01 -3.269834e-01 -7.553552e-02 2.421999e-01 7.425860e-03 -8.546333e-01
<VARIANCE> 25
 6.639034e+01 4.126321e+01 2.806828e+01 3.399035e+01 3.042612e+01 6.797318e+01 2.618171e+01 4.840562e+01 2.748458e+01 3.294773e+01 5.437839e+01 5.708014e+01 5.972636e+00 3.396954e+00 2.119826e+00 2.890753e+00 1.719159e+00 4.123242e+00 2.799110e+00 4.158257e+00 3.458698e+00 2.534788e+00 3.241211e+00 2.639916e+00 1.699843e+00
<GCONST> 1.044352e+02
<TRANSP> 5
 0.000000e+00 1.000000e+00 0.000000e+00 0.000000e+00 0.000000e+00
 0.000000e+00 8.724808e-01 1.275193e-01 0.000000e+00 0.000000e+00
 0.000000e+00 0.000000e+00 8.897753e-01 1.102247e-01 0.000000e+00
 0.000000e+00 0.000000e+00 0.000000e+00 8.218188e-01 1.781812e-01
 0.000000e+00 0.000000e+00 0.000000e+00 0.000000e+00 0.000000e+00
<ENDHMM>
~h "ae"
<BEGINHMM>
<NUMSTATES> 5
<STATE> 2
<MEAN> 25
 -9.247184e-01 -1.206882e+00 -1.981741e-01 1.516571e+00 2.159285e+00 -1.182041e+00 3.482649e-01 6.770885e-01 -4.584462e-02 -2.021719e+00 5.705721e-01 1.140263e+00 1.112825e-01 -8.054408e-01 -1.876579e-01 -5.570414e-01 -2.397472e-01 -7.764980e-01 1.047609e+00 -7.682207e-02 -4.535709e-02 -5.334925e-01 -1.154295e+00 -2.794407e-01 1.743943e+00
<VARIANCE> 25
 2.336368e+01 1.756449e+01 1.336848e+01 2.096903e+01 4.024773e+01 4.387624e+01 3.808207e+01 3.584213e+01 4.498953e+01 1.658563e+01 1.682845e+01 2.297985e+01 2.666608e+00 3.102254e+00 2.930377e+00 2.724960e+00 2.794536e+00 4.895908e+00 6.737092e+00 2.226181e+00 1.772654e+00 1.184979e+00 3.086743e+00 1.152368e+00 1.238824e+01
<GCONST> 9.891027e+01
<STATE> 3
<MEAN> 25
 3.689101e+00 -2.771059e+00 -4.558084e+00 -6.190674e+00 -3.573629e+00 -9.489210e+00 6.091934e+00 1.529992e+00 4.759828e+00 -3.417447e+00 -4.467955e+00 -2.088023e+00 2.573247e-01 -6.041791e-02 2.890738e-02 -1.513927e-01 -5.469196e-02 -2.117556e-01 1.847282e-01 2.080144e-02 -1.228974e-01 3.481719e-02 1.503091e-01 1.170397e-01 -6.092215e-02
<VARIANCE> 25
 2.884443e+01 4.386546e+01 2.289181e+01 7.182330e+01 2.230230e+01 6.833472e+01 8.465991e+01 6.191480e+01 2.333778e+01 2.922528e+01 3.500726e+01 4.167586e+01 1.479334e+00 2.044735e+00 1.777561e+00 2.973229e+00 1.453058e+00 3.556811e+00 4.461167e+00 2.875429e+00 1.756206e+00 1.713056e+00 2.975106e+00 2.024428e+00 9.115581e+00
<GCONST> 1.022719e+02
<STATE> 4
<MEAN> 25
 -1.700796e+00 -9.436158e-01 2.144937e+00 5.226185e+00 3.313337e+00 3.724567e+00 1.540262e+00 2.772835e+00 -3.023996e+00 -8.393579e-01 1.180637e+00 3.843691e+00 -2.561036e-02 -2.159943e-02 2.361126e-02 1.094017e-01 -1.945473e-02 2.093095e-01 -8.227638e-02 9.149767e-02 -5.491534e-02 1.178374e-01 -1.096142e-01 -1.005971e-01 -1.777613e-01
<VARIANCE> 25
 8.522787e+00 8.138531e+00 8.775466e+00 2.945528e+01 1.691329e+01 4.115020e+01 2.660352e+01 2.573061e+01 1.913237e+01 1.848613e+01 1.339377e+01 1.809926e+01 2.222980e-01 3.252607e-01 4.664746e-01 7.193696e-01 8.914446e-01 1.613510e+00 2.135532e+00 1.299562e+00 1.707123e+00 1.927751e+00 1.116257e+00 1.381667e+00 2.163586e-01
<GCONST> 7.793328e+01
<TRANSP> 5
 0.000000e+00 1.000000e+00 0.000000e+00 0.000000e+00 0.000000e+00
 0.000000e+00 2.528799e-01 7.471201e-01 0.000000e+00 0.000000e+00
 0.000000e+00 0.000000e+00 8.677415e-01 1.322586e-01 0.000000e+00
 0.000000e+00 0.000000e+00 0.000000e+00 8.100981e-01 1.899019e-01
 0.000000e+00 0.000000e+00 0.000000e+00 0.000000e+00 0.000000e+00
<ENDHMM>
~h "ah"
<BEGINHMM>
<NUMSTATES> 5
<STATE> 2
<MEAN> 25
 -6.797759e-01 -4.567066e-01 -8.411134e-01 -8.905297e-01 -2.509503e+00 -3.347608e+00 6.687430e-01 2.178290e-01 2.470174e+00 1.124648e+00 -3.160945e+00 -1.705813e+00 7.722195e-01 -1.828143e-01 -1.177816e-01 -7.321932e-01 -1.294522e-01 -7.140967e-01 8.880122e-02 -7.074973e-01 6.621417e-01 4.638672e-01 -5.045034e-01 -8.725691e-01 1.743298e+00
<VARIANCE> 25
 7.595546e+01 3.748582e+01 5.220952e+01 5.154137e+01 5.781464e+01 7.835181e+01 5.489328e+01 5.580584e+01 5.104860e+01 3.777013e+01 4.626308e+01 3.484762e+01 6.980586e+00 3.199749e+00 4.616455e+00 5.188978e+00 5.414604e+00 6.788568e+00 4.799626e+00 4.863680e+00 5.538721e+00 4.972472e+00 4.863174e+00 3.558036e+00 7.618941e+00
<GCONST> 1.144283e+02
<STATE> 3
<MEAN> 25
 7.549320e+00 -1.365152e+00 -4.072505e+00 -4.276656e+00 -2.589326e+00 -7.491970e+00 9.162701e-01 -2.159808e+00 4.861346e+00 5.328347e+00 -4.984464e+00 -6.920883e+00 2.036145e-01 4.422118e-01 1.667356e-01 2.806144e-01 1.259015e-01 1.504779e-01 -2.043055e-01 -2.672086e-02 -1.011190e-01 -7.212307e-02 1.978665e-01 3.346341e-01 -8.393676e-01
<VARIANCE> 25
 3.695123e+01 2.990338e+01 4.020770e+01 4.281332e+01 4.680304e+01 9.458747e+01 6.557958e+01 7.100108e+01 4.323467e+01 4.542187e+01 5.555888e+01 4.916145e+01 1.101397e+00 1.174629e+00 2.425313e+00 2.019744e+00 3.203425e+00 4.496686e+00 3.200194e+00 4.119589e+00 3.246629e+00 2.945766e+00 3.240717e+00 2.622656e+00 1.598572e+00
<GCONST> 1.047021e+02
<STATE> 4
<MEAN> 25
 3.866614e+00 2.022716e+00 2.805249e+00 -1.471406e+00 -1.949884e+00 -4.082981e+00 2.110154e-01 -2.161916e+00 9.259330e-01 1.003356e+00 -1.398468e+00 4.784632e-02 -1.198330e-01 -2.772094e-02 2.943954e-01 2.894694e-01 3.072580e-01 5.345522e-01 -9.566206e-02 3.970304e-01 -2.746320e-01 -4.855826e-01 3.051267e-01 2.674901e-01 -9.469801e-01
<VARIANCE> 25
 5.956860e+01 4.478294e+01 5.315499e+01 4.680943e+01 6.207210e+01 5.323308e+01 4.869958e+01 4.543604e+01 4.535382e+01 3.004337e+01 3.714042e+01 3.156290e+01 1.580280e+00 1.366406e+00 2.006051e+00 2.054816e+00 2.333966e+00 2.385514e+00 2.712906e+00 3.566520e+00 2.801534e+00 2.293064e+00 3.291645e+00 1.967056e+00 9.409311e-01
<GCONST> 1.015838e+02
<TRANSP> 5
 0.000000e+00 1.000000e+00 0.000000e+00 0.000000e+00 0.000000e+00
 0.000000e+00 6.365630e-01 3.634370e-01 0.000000e+00 0.000000e+00
 0.000000e+00 0.000000e+00 7.692905e-01 2.307095e-01 0.000000e+00
 0.000000e+00 0.000000e+00 0.000000e+00 6.118076e-01 3.881924e-01
 0.000000e+00 0.000000e+00 0.000000e+00 0.000000e+00 0.000000e+00
<ENDHMM>
~h "ao"
<BEGINHMM>
<NUMSTATES> 5
<STATE> 2
<MEAN> 25
 -3.342715e+00 7.223728e+00 -1.283341e+01 -1.421508e+01 -3.294484e+00 8.545057e+00 -3.248041e-01 -1.410903e-01 2.598190e+00 -8.121243e+00 6.033528e+00 1.622874e-02 1.038201e+00 2.045048e+00 2.067492e-01 -2.885042e+00 -1.619025e+00 1.043721e+00 8.162632e-01 -1.606992e+00 1.550553e+00 -2.034918e+00 -6.077282e-01 3.707079e-01 2.472100e+00
<VARIANCE> 25
 4.394365e+01 3.558934e+01 1.724279e+02 1.121418e+02 5.181828e+01 5.803965e+01 6.959814e+01 5.178252e+01 7.360841e+01 5.247289e+01 1.221690e+02 5.827958e+01 1.224490e+01 2.498418e+00 1.360682e+01 1.355630e+01 7.647367e+00 7.036523e+00 6.687155e+00 5.734793e+00 6.309928e+00 1.095403e+01 1.278744e+01 6.721694e+00 4.957751e+00
<GCONST> 1.230610e+02
<STATE> 3
<MEAN> 25
 8.260450e+00 1.295785e+01 -3.210959e+00 -2.186143e+01 -1.553300e+01 1.385161e+01 7.755468e+00 -9.355133e+00 1.035742e+01 -1.046835e+01 -6.331076e+00 3.895539e+00 2.375256e+00 3.770952e-01 2.419601e-01 -2.626824e+00 -2.305774e+00 1.209220e+00 1.160863e-01 -1.306676e+00 1.561428e+00 -1.115145e+00 9.740747e-01 4.669424e-01 1.406182e+00
<VARIANCE> 25
 4.502785e+01 3.217248e+01 2.234027e+01 8.827679e+01 9.955538e+01 6.462355e+01 6.016226e+01 4.299188e+01 5.208768e+01 1.258117e+02 7.108330e+01 3.271707e+01 6.669760e+00 2.726057e+00 1.406372e+00 7.144525e+00 6.858967e+00 5.099002e+00 2.528521e+00 2.183428e+00 6.546024e+00 4.358655e+00 5.182139e+00 3.466770e+00 2.225717e+00
<GCONST> 1.114895e+02
<STATE> 4
<MEAN> 25
 1.016221e+01 1.367007e+01 -5.692763e+00 -2.732178e+01 -1.608348e+01 6.339212e+00 2.562459e+00 -7.596197e+00 1.722920e+01 -1.750870e+01 2.526929e+00 4.256471e+00 9.518601e-02 -4.894558e-01 3.054000e-02 5.339498e-01 1.180416e-01 -6.982666e-01 1.728195e-01 3.087745e-01 -3.667029e-01 7.062514e-01 1.137261e-01 -1.037921e-01 -4.176192e-01
<VARIANCE> 25
 1.437192e+01 2.683977e+01 1.550873e+01 6.223977e+01 4.073558e+01 9.775327e+01 3.412191e+01 4.530151e+01 5.714430e+01 5.486600e+01 3.164302e+01 3.117788e+01 4.196451e-01 9.936802e-01 1.009802e+00 2.626928e+00 2.091880e+00 1.688948e+00 1.579603e+00 2.186055e+00 2.651889e+00 2.806895e+00 1.536561e+00 1.866691e+00 6.232774e-01
<GCONST> 9.454264e+01
<TRANSP> 5
 0.000000e+00 1.000000e+00 0.000000e+00 0.000000e+00 0.000000e+00
 0.000000e+00 7.396216e-01 2.603784e-01 0.000000e+00 0.000000e+00
 0.000000e+00 0.000000e+00 6.725661e-01 3.274340e-01 0.000000e+00
 0.000000e+00 0.000000e+00 0.000000e+00 9.258893e-01 7.411079e-02
 0.000000e+00 0.000000e+00 0.000000e+00 0.000000e+00 0.000000e+00
<ENDHMM>
~h "aw"
<BEGINHMM>
<NUMSTATES> 5
<STATE> 2
<MEAN> 25
 4.832920e+00 -4.557927e-02 -3.417189e+00 -7.592940e+00 -1.050775e+00 2.318496e+00 -3.304276e+00 -2.571458e+00 9.684844e+00 4.122458e+00 -3.418641e+00 -6.027648e+00 3.758787e-01 -5.017471e-01 -5.690868e-01 -3.441390e-01 4.552337e-01 2.483467e-01 5.754625e-01 -3.462669e-01 -3.523389e-02 3.029431e-03 -2.424002e-01 -4.740277e-01 1.572009e+00
<VARIANCE> 25
 3.989431e+01 4.175150e+01 2.731421e+01 6.129796e+01 3.245797e+01 5.078034e+01 4.078289e+01 4.964901e+01 4.899367e+01 4.997220e+01 4.605343e+01 4.065310e+01 3.827044e+00 2.542482e+00 2.909552e+00 5.622439e+00 3.637387e+00 4.532481e+00 3.395103e+00 6.530478e+00 5.158036e+00 4.463614e+00 4.448906e+00 4.092550e+00 1.381943e+01
<GCONST> 1.107826e+02
<STATE> 3
<MEAN> 25
 5.543344e+00 -4.555069e+00 -1.171347e+01 -1.267005e+01 7.435026e+00 4.634724e+00 8.755883e+00 -5.048257e+00 2.310078e+00 3.242175e+00 -3.264520e+00 -9.928132e+00 2.341675e-01 4.163378e-01 -1.394376e-01 -1.740850e-01 -2.249412e-01 -1.198461e-01 1.018082e-01 9.152822e-02 -3.451487e-01 5.759961e-01 2.318142e-01 2.869808e-01 -1.046562e+00
<VARIANCE> 25
 3.108698e+01 1.729977e+01 2.948297e+01 4.799877e+01 4.282396e+01 2.711178e+01 3.858017e+01 5.596884e+01 3.686961e+01 5.713408e+01 3.803080e+01 1.879904e+01 7.006453e-01 9.859498e-01 1.269331e+00 2.081111e+00 1.744351e+00 1.630823e+00 2.004333e+00 2.524609e+00 1.487575e+00 1.605210e+00 1.947050e+00 1.712396e+00 8.186295e-01
<GCONST> 9.359183e+01
<STATE> 4
<MEAN> 25
 3.750344e+00 2.453205e+00 -6.977777e+00 -6.300595e+00 2.432406e+00 1.014163e+00 4.256523e+00 2.229478e+00 4.948834e-01 5.269921e+00 6.571100e-01 -2.035514e+00 -8.582874e-01 1.036453e-01 8.979537e-01 7.405958e-01 1.274886e-02 -1.416171e-01 -7.934608e-02 6.793272e-01 3.888981e-01 -1.216863e+00 3.945933e-01 5.993145e-01 -9.801242e-01
<VARIANCE> 25
 9.938493e+01 4.470626e+01 4.665835e+01 3.111165e+01 2.709521e+01 2.749729e+01 1.927760e+01 3.316660e+01 3.287923e+01 5.551537e+01 1.436087e+01 1.612051e+01 4.407888e+00 2.971992e+00 2.694848e+00 2.189882e+00 1.717757e+00 3.188604e+00 2.041521e+00 2.357345e+00 1.894198e+00 2.230588e+00 1.934110e+00 2.355143e+00 1.030950e+00
<GCONST> 9.826194e+01
<TRANSP> 5
 0.000000e+00 1.000000e+00 0.000000e+00 0.000000e+00 0.000000e+00
 0.000000e+00 9.060500e-01 9.395009e-02 0.000000e+00 0.000000e+00
 0.000000e+00 0.000000e+00 9.324161e-01 6.758387e-02 0.000000e+00
 0.000000e+00 0.000000e+00 0.000000e+00 8.384858e-01 1.615141e-01
 0.000000e+00 0.000000e+00 0.000000e+00 0.000000e+00 0.000000e+00
<ENDHMM>
~h "ay"
<BEGINHMM>
<NUMSTATES> 5
<STATE> 2
<MEAN> 25
 -3.448125e+00 3.896278e+00 -1.062185e+00 2.558673e+00 7.698303e-02 2.789977e+00 -1.379954e+00 -2.537674e+00 1.310522e+00 -8.131569e-01 -2.099940e+00 4.669153e-01 1.986386e+00 5.327091e-01 -4.636447e-01 -1.207887e+00 -7.506369e-01 -2.655512e-01 2.521680e-01 -1.986032e+00 1.104418e+00 -6.846608e-01 -4.778036e-01 -4.304177e-01 3.118378e+00
<VARIANCE> 25
 1.422858e+02 4.295644e+01 6.029418e+01 6.072972e+01 2.705886e+01 2.729598e+01 3.068087e+01 4.555939e+01 5.878375e+01 2.580622e+01 2.758322e+01 2.307209e+01 1.183307e+01 5.194663e+00 6.711979e+00 7.239154e+00 2.729989e+00 4.794224e+00 4.761075e+00 5.427873e+00 5.689434e+00 3.709762e+00 5.115258e+00 3.894377e+00 8.054711e+00
<GCONST> 1.124516e+02
<STATE> 3
<MEAN> 25
 1.089856e+01 -5.816222e-02 -5.882036e+00 -9.527640e+00 -5.025589e+00 2.778785e+00 1.698742e+00 -1.061713e+01 1.144354e+01 -5.103669e+00 -4.060211e-01 -2.457254e+00 -2.762397e-01 -1.429252e+00 -2.490204e-01 -1.214492e+00 9.395500e-01 1.023890e-01 1.047703e+00 2.752015e-01 9.807319e-02 4.626635e-01 -5.641081e-02 -1.323791e+00 1.615169e+00
<VARIANCE> 25
 2.922397e+01 7.892109e+01 1.176902e+02 2.226448e+02 8.619775e+01 9.991619e+01 8.968691e+01 7.871046e+01 6.283339e+01 7.385017e+01 7.427357e+01 7.926135e+01 4.372367e+00 1.658803e+00 3.510868e+00 4.311015e+00 5.630092e+00 5.698300e+00 7.721727e+00 7.237157e+00 6.364176e+00 3.472924e+00 4.185056e+00 4.164572e+00 4.029463e+00
<GCONST> 1.184475e+02
<STATE> 4
<MEAN> 25
 5.553002e+00 -6.709007e+00 -5.114200e+00 -8.217476e+00 2.317019e+00 -4.474816e+00 6.950888e+00 -3.106025e+00 5.784702e+00 -5.354434e-01 -2.677035e+00 -8.783147e+00 4.886290e-02 2.082540e-01 3.860629e-01 3.961543e-01 -5.171399e-01 -6.101444e-01 -2.067897e-01 5.051041e-01 -2.475211e-01 1.098103e-01 2.873238e-02 3.789908e-01 -7.488312e-01
<VARIANCE> 25
 1.008828e+01 2.479869e+01 4.831987e+01 3.809092e+01 8.764996e+01 1.071820e+02 3.339520e+01 6.535544e+01 3.541406e+01 3.947785e+01 3.593763e+01 3.690818e+01 5.630963e-01 9.028901e-01 1.624700e+00 1.664249e+00 3.264732e+00 3.593755e+00 2.193748e+00 3.497351e+00 1.969031e+00 2.386118e+00 1.850994e+00 2.156828e+00 9.388388e-01
<GCONST> 9.794281e+01
<TRANSP> 5
 0.000000e+00 1.000000e+00 0.000000e+00 0.000000e+00 0.000000e+00
 0.000000e+00 7.685172e-01 2.314828e-01 0.000000e+00 0.000000e+00
 0.000000e+00 0.000000e+00 8.429074e-01 1.570926e-01 0.000000e+00
 0.000000e+00 0.000000e+00 0.000000e+00 9.403039e-01 5.969616e-02
 0.000000e+00 0.000000e+00 0.000000e+00 0.000000e+00 0.000000e+00
<ENDHMM>
~h "ch"
<BEGINHMM>
<NUMSTATES> 5
<STATE> 2
<MEAN> 25
 -7.256738e+00 5.444418e-01 5.432720e-01 9.777341e+00 2.761609e+00 2.666074e+00 -2.870657e+00 3.157284e+00 1.557219e+00 -2.795830e+00 -8.626845e-01 4.821470e+00 1.592759e-01 3.037236e-02 1.369313e-01 -1.889586e-01 -3.575343e-01 -5.648343e-04 -5.949311e-01 -2.912615e-01 8.346804e-02 -1.895356e-01 -1.396344e-01 2.440295e-01 3.718276e-02
<VARIANCE> 25
 4.008698e+01 3.196157e+01 5.867942e+01 3.426901e+01 3.134562e+01 3.651858e+01 3.885643e+01 2.683482e+01 4.628879e+01 2.288204e+01 2.485559e+01 1.895225e+01 3.907773e+00 5.167873e+00 9.921087e+00 5.798753e+00 4.761026e+00 5.618342e+00 3.547120e+00 8.745260e-01 6.359709e+00 3.887604e+00 2.653086e+00 1.588637e+00 1.657958e+00
<GCONST> 1.044498e+02
<STATE> 3
<MEAN> 25
 1.722186e-01 -2.891628e+00 2.446487e+00 4.666399e+00 5.759528e+00 4.557350e+00 7.225101e-01 3.766384e+00 -2.651303e+00 2.317587e+00 -2.329346e-02 3.494289e+00 1.184816e-02 -5.634838e-02 -1.699049e-02 4.358093e-02 -8.439501e-02 1.289672e-01 -1.437475e-01 1.214196e-01 6.702840e-02 8.732340e-02 -3.991564e-02 5.143097e-03 -1.123244e-01
<VARIANCE> 25
 1.279958e+00 1.059841e+01 2.979989e+00 5.396340e+00 5.393187e+00 9.235193e+00 9.403934e+00 1.523078e+01 1.239053e+01 1.252632e+01 1.340309e+01 1.484978e+01 1.592250e-01 1.844227e-01 3.842402e-01 6.116527e-01 6.516768e-01 8.099599e-01 1.014900e+00 1.334857e+00 1.448124e+00 1.342201e+00 1.580674e+00 1.480135e+00 3.856915e-02
<GCONST> 6.349079e+01
<STATE> 4
<MEAN> 25
 -8.616366e+00 2.272812e+00 1.515057e+00 -3.412263e-02 -5.624444e+00 -2.213306e+00 -1.145711e+00 1.316944e+00 4.473466e+00 -3.199737e-01 -5.827580e-01 2.676151e+00 -6.547267e-01 1.005150e-01 1.861675e-01 6.765308e-02 -5.243512e-01 -2.646834e-01 -2.643233e-01 -5.069306e-01 2.725954e-01 -1.010434e-01 -4.854846e-01 -2.837747e-01 9.869566e-01
<VARIANCE> 25
 1.330874e+02 1.989906e+01 1.404885e+01 3.793809e+01 2.615677e+01 7.355267e+01 2.505626e+01 5.149584e+01 1.806828e+01 1.718073e+01 1.755261e+01 2.233434e+01 5.865719e+00 1.760448e+00 1.759459e+00 4.224232e+00 2.919428e+00 5.072295e+00 2.437432e+00 4.128170e+00 2.377563e+00 2.222415e+00 2.908005e+00 2.617644e+00 9.263562e+00
<GCONST> 1.018061e+02
<TRANSP> 5
 0.000000e+00 1.000000e+00 0.000000e+00 0.000000e+00 0.000000e+00
 0.000000e+00 7.727541e-01 2.272459e-01 0.000000e+00 0.000000e+00
 0.000000e+00 0.000000e+00 9.473881e-01 5.261189e-02 0.000000e+00
 0.000000e+00 0.000000e+00 0.000000e+00 8.699716e-01 1.300284e-01
 0.000000e+00 0.000000e+00 0.000000e+00 0.000000e+00 0.000000e+00
<ENDHMM>
~h "dh"
<BEGINHMM>
<NUMSTATES> 5
<STATE> 2
<MEAN> 25
 4.136782e+00 3.454873e+00 5.763450e-01 -2.267318e+00 -5.526866e+00 -9.184164e+00 -2.348944e+00 -4.166413e+00 1.019268e+01 -7.633760e-01 -8.873068e+00 -3.809424e+00 8.698949e-01 -1.166821e+00 -8.290792e-02 -7.835739e-01 -5.250639e-01 5.466275e-02 -1.017971e+00 -4.732752e-01 2.296777e-01 5.274382e-01 -3.625104e-01 -1.002218e+00 6.304239e-01
<VARIANCE> 25
 1.573730e+01 2.817095e+01 1.772999e+01 3.545371e+01 4.260952e+01 2.792476e+01 5.875352e+01 8.987584e+01 2.878344e+01 2.522976e+01 3.691798e+01 2.783970e+01 3.215979e+00 1.843506e+00 2.735725e+00 2.504979e+00 3.855614e+00 2.183434e+00 4.663406e+00 7.797239e+00 2.277683e+00 3.311201e+00 3.213116e+00 3.793662e+00 2.843834e+00
<GCONST> 1.026557e+02
<STATE> 3
<MEAN> 25
 1.080464e+01 -4.079647e+00 -1.658528e+00 -3.761663e-01 -9.729800e+00 -9.412824e+00 -5.969613e+00 8.696651e-01 9.740653e+00 6.910680e+00 -6.186640e+00 -2.969891e+00 -3.889215e-01 3.346112e-02 -1.316516e-01 1.740221e-01 8.261169e-01 2.779703e-01 1.418026e-01 4.896982e-01 -4.160702e-01 1.880340e-02 7.071226e-01 5.650237e-01 -1.298091e+00
<VARIANCE> 25
 1.887011e+01 2.073603e+01 1.105793e+01 5.014950e+01 3.181991e+01 5.417849e+01 3.509790e+01 7.478029e+01 1.994752e+01 2.441525e+01 3.066545e+01 4.385970e+01 1.840842e+00 1.681523e+00 9.410285e-01 1.992098e+00 8.892101e-01 2.741378e+00 2.374565e+00 3.276678e+00 1.788657e+00 2.350235e+00 1.957950e+00 2.001394e+00 2.811718e-01
<GCONST> 9.318598e+01
<STATE> 4
<MEAN> 25
 4.780684e+00 -3.086303e+00 -3.228954e+00 -6.551627e+00 1.281011e+00 -6.539773e+00 -8.580776e-01 -2.610966e+00 4.294149e+00 4.621425e+00 -3.678282e+00 -1.042228e+01 -1.787988e-01 1.665382e-01 2.596458e-01 8.848017e-02 4.115808e-01 2.966482e-01 4.556354e-01 -4.318401e-01 -6.318812e-01 -1.265110e-01 1.774281e-01 3.573580e-01 -8.297373e-01
<VARIANCE> 25
 2.316727e+01 1.945789e+01 3.699687e+01 6.072025e+01 2.113381e+01 3.468675e+01 2.337155e+01 3.752855e+01 4.458117e+01 3.765948e+01 6.713088e+01 8.558944e+01 1.084391e+00 1.502380e+00 1.413832e+00 2.139374e+00 1.968723e+00 4.186151e+00 1.901823e+00 3.448985e+00 2.684461e+00 2.375572e+00 3.287739e+00 4.347692e+00 1.182754e+00
<GCONST> 9.949634e+01
<TRANSP> 5
 0.000000e+00 1.000000e+00 0.000000e+00 0.000000e+00 0.000000e+00
 0.000000e+00 8.021243e-01 1.978757e-01 0.000000e+00 0.000000e+00
 0.000000e+00 0.000000e+00 8.833796e-01 1.166204e-01 0.000000e+00
 0.000000e+00 0.000000e+00 0.000000e+00 8.711599e-01 1.288401e-01
 0.000000e+00 0.000000e+00 0.000000e+00 0.000000e+00 0.000000e+00
<ENDHMM>
~h "eh"
<BEGINHMM>
<NUMSTATES> 5
<STATE> 2
<MEAN> 25
 3.797238e+00 1.123415e+00 1.282180e+00 -1.484327e+00 -4.678495e+00 -8.145714e+00 -1.552352e+00 -2.411680e+00 5.770820e-02 -2.244447e+00 -2.576711e+00 -1.509923e+00 7.066089e-01 -1.083019e+00 2.414220e-01 -1.021010e+00 -8.545237e-01 -1.479481e+00 7.577705e-01 8.718750e-01 3.558407e-01 -3.417875e-02 -3.274688e-01 -1.922181e-01 2.544011e+00
<VARIANCE> 25
 6.898246e+01 5.627143e+01 6.058369e+01 4.583500e+01 7.239580e+01 6.712071e+01 6.568905e+01 7.114314e+01 4.549929e+01 3.673805e+01 8.926310e+01 4.370905e+01 4.841360e+00 4.682591e+00 4.753767e+00 3.002699e+00 4.232173e+00 6.949541e+00 6.021206e+00 5.435079e+00 4.457521e+00 4.059848e+00 6.192840e+00 3.209081e+00 8.410261e+00
<GCONST> 1.154326e+02
<STATE> 3
<MEAN> 25
 4.295967e+00 -4.356597e+00 -3.465587e+00 -4.734607e+00 -4.651192e+00 -1.189310e+01 8.683521e+00 4.278627e+00 7.190371e+00 -7.485416e-01 -5.110425e+00 -5.916615e+00 8.796737e-02 1.471966e-01 -1.181303e-01 1.214649e-01 2.737166e-02 6.916868e-03 1.311635e-02 -2.517700e-03 4.904948e-02 1.761231e-01 -2.028184e-02 2.112478e-02 -5.797313e-01
<VARIANCE> 25
 2.035789e+01 1.411125e+01 3.648495e+01 2.465843e+01 3.020764e+01 5.258952e+01 5.380383e+01 3.381575e+01 2.770729e+01 2.922870e+01 4.242727e+01 3.391960e+01 8.084915e-01 9.430850e-01 1.825810e+00 1.179928e+00 1.754190e+00 2.098237e+00 3.198404e+00 2.515065e+00 1.582474e+00 1.909738e+00 1.564094e+00 1.667791e+00 1.292811e+00
<GCONST> 9.346082e+01
<STATE> 4
<MEAN> 25
 2.423567e+00 3.750297e+00 -1.093771e+00 -9.525248e-01 -6.996897e+00 -9.734996e+00 1.850011e+00 -2.032516e-01 3.852245e+00 -1.164745e-01 -2.956910e+00 -1.593303e+00 -2.023026e-01 3.246755e-01 9.351076e-02 3.669294e-01 3.239641e-01 4.363643e-01 -4.057264e-01 -1.740125e-01 -5.072853e-02 -9.896982e-02 2.599118e-01 2.300372e-01 -1.001644e+00
<VARIANCE> 25
 7.620946e+01 4.217077e+01 5.024835e+01 3.954989e+01 3.694547e+01 4.886620e+01 4.382593e+01 5.305208e+01 5.640176e+01 3.140386e+01 3.346658e+01 2.325166e+01 4.024207e+00 2.363282e+00 2.519423e+00 2.023322e+00 1.704746e+00 3.273720e+00 3.175109e+00 3.706366e+00 2.460375e+00 2.342582e+00 2.402021e+00 1.679397e+00 1.313489e+00
<GCONST> 1.024879e+02
<TRANSP> 5
 0.000000e+00 1.000000e+00 0.000000e+00 0.000000e+00 0.000000e+00
 0.000000e+00 7.639951e-01 2.360048e-01 0.000000e+00 0.000000e+00
 0.000000e+00 0.000000e+00 8.879629e-01 1.120371e-01 0.000000e+00
 0.000000e+00 0.000000e+00 0.000000e+00 8.540121e-01 1.459879e-01
 0.000000e+00 0.000000e+00 0.000000e+00 0.000000e+00 0.000000e+00
<ENDHMM>
~h "er"
<BEGINHMM>
<NUMSTATES> 5
<STATE> 2
<MEAN> 25
 -3.069283e+00 -2.988822e+00 6.881531e-02 2.867889e+00 4.111296e+00 2.875128e+00 2.337835e-01 2.128632e+00 -2.220656e+00 -6.235069e-01 6.379377e-01 2.020775e+00 -3.974387e-02 3.855280e-03 -3.630385e-03 6.559615e-02 2.565348e-02 1.053695e-01 -3.425274e-02 2.248133e-02 -8.937480e-02 -3.783319e-02 -3.295388e-02 -2.481593e-02 -1.248798e-01
<VARIANCE> 25
 4.819192e+00 5.194118e+00 7.730070e+00 9.045465e+00 1.217856e+01 1.346899e+01 1.387966e+01 1.472199e+01 1.923492e+01 1.461597e+01 1.006857e+01 1.398524e+01 1.400651e-01 2.290156e-01 4.206834e-01 5.528414e-01 8.904183e-01 1.106077e+00 1.173402e+00 1.318779e+00 1.455995e+00 1.408240e+00 1.005249e+00 1.117164e+00 4.835501e-02
<GCONST> 6.774860e+01
<STATE> 3
<MEAN> 25
 -2.256624e+00 -1.823797e+00 -1.277618e+00 3.808383e+00 1.495984e+00 2.370068e+00 -7.307090e-01 1.485898e+00 -9.013306e-02 -1.128900e-02 -6.721395e-01 1.354745e+00 3.723699e-01 1.693701e-01 3.686247e-01 6.992044e-02 -1.385941e-01 -1.126456e-01 -1.551258e-01 -1.655474e-01 -3.724810e-01 -5.373593e-01 -4.175139e-01 -4.133106e-01 3.624363e-02
<VARIANCE> 25
 3.549683e+01 1.264360e+01 1.241293e+01 1.851045e+01 4.594835e+01 3.489170e+01 4.658255e+01 1.676139e+01 6.408044e+01 2.086884e+01 1.859075e+01 2.101774e+01 1.177919e+00 8.755105e-01 1.501066e+00 9.634970e-01 1.191993e+00 1.627000e+00 1.796045e+00 1.396267e+00 2.342274e+00 2.045076e+00 1.058924e+00 1.342446e+00 2.469040e-01
<GCONST> 8.719817e+01
<STATE> 4
<MEAN> 25
 -1.606745e+00 -1.951705e+00 -1.794634e+00 6.801099e-01 -7.534477e-01 1.724133e+00 -1.179458e+00 2.592286e+00 -2.317985e+00 -1.133999e+00 -9.712699e-01 9.047967e-02 4.399435e-01 3.140000e-01 1.897223e-01 -4.458319e-01 -2.845436e-01 -2.001258e-01 -6.433158e-02 -8.480541e-02 -8.118530e-02 2.608396e-02 -2.337231e-01 -3.663010e-01 2.684487e-01
<VARIANCE> 25
 1.273959e+01 8.201023e+00 1.329487e+01 2.070867e+01 3.162308e+01 2.553210e+01 1.817089e+01 1.595350e+01 3.602619e+01 1.576870e+01 2.147286e+01 1.645170e+01 1.910724e+00 1.001790e+00 1.913979e+00 2.294991e+00 2.613549e+00 2.746559e+00 1.744134e+00 2.278149e+00 1.663899e+00 2.106028e+00 1.824589e+00 1.644276e+00 5.985891e-01
<GCONST> 8.810594e+01
<TRANSP> 5
 0.000000e+00 1.000000e+00 0.000000e+00 0.000000e+00 0.000000e+00
 0.000000e+00 9.504386e-01 4.956140e-02 0.000000e+00 0.000000e+00
 0.000000e+00 0.000000e+00 1.038735e-01 8.961265e-01 0.000000e+00
 0.000000e+00 0.000000e+00 0.000000e+00 5.371915e-01 4.628084e-01
 0.000000e+00 0.000000e+00 0.000000e+00 0.000000e+00 0.000000e+00
<ENDHMM>
~h "ey"
<BEGINHMM>
<NUMSTATES> 5
<STATE> 2
<MEAN> 25
 1.436402e+00 1.026812e+00 8.897767e+00 -5.782440e+00 -1.379390e+01 -9.808284e+00 3.954827e+00 -5.092009e-01 -1.184867e+00 2.306110e+00 1.175551e+00 -1.312332e+00 -6.476987e-02 6.102464e-01 7.172712e-01 -8.352388e-02 -3.879825e-01 -8.070208e-02 -5.080524e-02 -7.456795e-01 -6.472074e-01 2.299183e-01 1.006839e-01 1.639790e-01 -1.865736e-02
<VARIANCE> 25
 1.488798e+01 1.606117e+01 3.339185e+01 2.339570e+01 3.121263e+01 4.486878e+01 5.170724e+01 2.260737e+01 2.908204e+01 3.378484e+01 2.416889e+01 2.276276e+01 7.261791e-01 8.550929e-01 1.545472e+00 1.308202e+00 1.636288e+00 2.196339e+00 2.666730e+00 1.728976e+00 2.046532e+00 2.195930e+00 2.153449e+00 1.650613e+00 3.531607e+00
<GCONST> 9.266130e+01
<STATE> 3
<MEAN> 25
 -6.422749e-01 5.621318e+00 1.002662e+01 1.948849e+00 -1.141065e+01 -7.261735e+00 5.101141e-01 -2.472020e+00 1.205400e+00 -2.586478e+00 -1.254081e+00 -2.942027e-02 3.341914e-01 3.660233e-02 -2.662593e-01 6.675353e-02 3.045273e-01 -1.256299e-02 3.091335e-02 7.221472e-02 2.353256e-01 -6.285407e-02 -3.221946e-01 3.877311e-02 -4.532916e-01
<VARIANCE> 25
 1.052641e+02 3.966163e+01 5.944234e+01 3.547186e+01 4.628771e+01 6.004808e+01 4.684597e+01 3.695910e+01 4.653361e+01 3.368942e+01 2.635211e+01 2.469656e+01 6.212991e+00 2.751273e+00 3.434052e+00 2.012220e+00 2.280607e+00 3.683927e+00 3.746207e+00 2.494325e+00 3.090867e+00 2.480570e+00 1.768720e+00 2.277328e+00 1.764511e+00
<GCONST> 1.042927e+02
<STATE> 4
<MEAN> 25
 4.177015e+00 8.461705e+00 9.563255e+00 -4.312731e+00 -9.572601e+00 -5.686589e+00 9.702950e-01 -6.899476e+00 -4.476343e+00 3.951506e+00 -2.033813e+00 1.331260e+00 1.267717e-01 -1.236405e-04 -3.377416e-01 6.424553e-01 1.033855e+00 2.280461e-01 -5.828936e-01 1.213872e-01 2.135852e-01 -6.676439e-03 3.945669e-01 1.000196e-01 -1.381391e+00
<VARIANCE> 25
 3.019305e+01 2.275357e+01 5.057167e+01 6.358857e+01 6.406251e+01 6.697369e+01 3.811382e+01 5.237958e+01 4.881976e+01 3.173674e+01 3.172545e+01 2.549694e+01 1.585828e+00 2.022025e+00 2.355166e+00 1.899348e+00 2.325672e+00 2.437461e+00 2.897630e+00 2.927772e+00 2.641346e+00 2.408836e+00 2.468935e+00 1.390270e+00 7.407319e-01
<GCONST> 9.987967e+01
<TRANSP> 5
 0.000000e+00 1.000000e+00 0.000000e+00 0.000000e+00 0.000000e+00
 0.000000e+00 8.764133e-01 1.235867e-01 0.000000e+00 0.000000e+00
 0.000000e+00 0.000000e+00 8.856917e-01 1.143083e-01 0.000000e+00
 0.000000e+00 0.000000e+00 0.000000e+00 8.558685e-01 1.441315e-01
 0.000000e+00 0.000000e+00 0.000000e+00 0.000000e+00 0.000000e+00
<ENDHMM>
~h "hh"
<BEGINHMM>
<NUMSTATES> 5
<STATE> 2
<MEAN> 25
 -6.084602e+00 -5.675858e+00 1.494682e+00 -4.451688e+00 3.789263e-01 3.847872e+00 5.479293e+00 3.314879e+00 2.552467e+00 -3.204109e+00 -2.912375e+00 1.599301e+00 -5.583544e-02 2.305890e-01 -3.984429e-03 -1.522204e+00 4.845912e-01 3.881524e-01 2.060306e+00 -3.241233e-01 8.069580e-01 -9.352890e-01 -1.474247e+00 -5.579106e-01 2.754031e+00
<VARIANCE> 25
 1.221864e+01 2.129146e+01 1.260461e+01 6.184956e+01 8.122855e+01 7.037293e+01 8.470873e+01 9.318095e+01 4.995334e+01 3.063189e+01 5.902599e+01 2.456451e+01 3.769817e+00 3.415045e+00 1.350088e+00 8.402528e+00 6.370427e+00 5.300448e+00 5.641302e+00 6.748084e+00 6.159808e+00 4.024455e+00 3.465932e+00 4.526247e+00 3.222919e+00
<GCONST> 1.096806e+02
<STATE> 3
<MEAN> 25
 -7.138133e-01 1.331879e+00 -2.546148e+00 -9.357052e+00 2.509258e+00 3.245160e+00 8.086983e+00 5.765941e-01 9.608788e+00 -5.201292e+00 -4.567976e+00 -5.402560e+00 1.311209e+00 7.369011e-01 -9.169730e-01 -1.086104e+00 8.098945e-03 -2.156705e-01 -6.449265e-01 -7.358686e-01 9.494922e-01 1.529255e-01 6.446453e-01 -1.557044e+00 2.326723e+00
<VARIANCE> 25
 6.563554e+01 2.173979e+01 2.698348e+01 1.456937e+02 4.823718e+01 1.065042e+02 4.072070e+01 4.815767e+01 3.931989e+01 2.673477e+01 4.044812e+01 5.279954e+01 4.763812e+00 3.045187e+00 2.300827e+00 4.961692e+00 2.176660e+00 4.458325e+00 2.839557e+00 3.665857e+00 4.167593e+00 2.052367e+00 2.340846e+00 2.852123e+00 3.511721e+00
<GCONST> 1.072626e+02
<STATE> 4
<MEAN> 25
 8.456242e+00 3.229402e+00 -6.353877e+00 -1.589903e+01 1.283582e+00 3.993194e+00 1.543370e+00 -1.098808e+01 8.135509e+00 1.847224e+00 -1.147529e+00 -6.380309e+00 4.771823e-01 2.241605e-01 3.004306e-02 5.210778e-02 -3.366637e-01 -3.387756e-01 -3.710653e-01 -2.167287e-01 -5.222456e-01 1.315619e-01 2.494553e-01 5.221672e-01 -7.872366e-01
<VARIANCE> 25
 1.928590e+01 2.321780e+01 3.710638e+01 8.370840e+01 3.025291e+01 5.779849e+01 7.757076e+01 3.517643e+01 3.365230e+01 3.020075e+01 1.965272e+01 1.078030e+02 5.702295e-01 1.065837e+00 1.767175e+00 5.209751e+00 1.286899e+00 3.646987e+00 2.697947e+00 3.610224e+00 2.736173e+00 2.110892e+00 1.977196e+00 2.656529e+00 1.833103e+00
<GCONST> 9.961568e+01
<TRANSP> 5
 0.000000e+00 1.000000e+00 0.000000e+00 0.000000e+00 0.000000e+00
 0.000000e+00 7.582304e-01 2.417696e-01 0.000000e+00 0.000000e+00
 0.000000e+00 0.000000e+00 8.002127e-01 1.997873e-01 0.000000e+00
 0.000000e+00 0.000000e+00 0.000000e+00 8.812009e-01 1.187991e-01
 0.000000e+00 0.000000e+00 0.000000e+00 0.000000e+00 0.000000e+00
<ENDHMM>
~h "ih"
<BEGINHMM>
<NUMSTATES> 5
<STATE> 2
<MEAN> 25
 -2.742474e+00 5.043615e+00 6.771005e+00 2.200853e+00 -5.565998e+00 -2.750874e+00 -1.580842e-03 -2.869807e+00 -3.447968e+00 -1.813606e+00 -1.472186e+00 -2.517990e-01 3.925480e-01 7.479346e-01 2.464191e+00 -8.504598e-01 -2.229513e+00 -1.038953e+00 1.741672e-01 -8.802211e-01 -1.413781e+00 -4.874402e-01 -2.424347e-01 -7.532609e-01 2.860118e+00
<VARIANCE> 25
 6.822758e+01 4.172572e+01 9.513767e+01 6.906831e+01 7.612189e+01 4.267117e+01 4.544239e+01 3.455434e+01 4.623948e+01 5.017944e+01 3.459471e+01 2.599624e+01 8.319283e+00 5.898272e+00 6.503469e+00 6.855338e+00 5.667099e+00 4.489028e+00 4.652117e+00 4.588159e+00 6.139798e+00 6.012312e+00 3.746729e+00 2.195937e+00 7.650929e+00
<GCONST> 1.144259e+02
<STATE> 3
<MEAN> 25
 6.971810e-01 7.346221e+00 1.546961e+01 -4.473289e+00 -1.566644e+01 -6.567725e+00 -1.734166e+00 -6.446150e+00 -1.052040e+01 -2.674931e-02 -1.094378e+00 -4.373852e+00 3.831507e-01 2.468890e-01 -8.015548e-02 -1.496247e-01 2.207001e-01 -9.734741e-03 -1.433009e-01 -2.460452e-01 -1.043716e-02 3.590833e-01 1.185203e-01 2.120027e-01 -9.931501e-01
<VARIANCE> 25
 1.717452e+01 2.971045e+01 4.854159e+01 4.485321e+01 2.900519e+01 4.080526e+01 3.450805e+01 3.596004e+01 3.520128e+01 5.451252e+01 2.019383e+01 2.901753e+01 8.520573e-01 1.529205e+00 1.519480e+00 2.225544e+00 2.488634e+00 2.111693e+00 1.892713e+00 1.837965e+00 2.447071e+00 2.129141e+00 1.825121e+00 1.962898e+00 1.399906e+00
<GCONST> 9.565232e+01
<STATE> 4
<MEAN> 25
 -1.998169e+00 7.861080e+00 8.412640e+00 -1.928980e+00 -9.060896e+00 -3.840950e+00 -3.154846e+00 -6.023401e+00 -1.070425e+00 -5.257092e-01 -3.694790e-01 1.779679e+00 -1.640143e-01 -4.498915e-01 -9.064902e-01 4.707981e-01 8.582276e-01 6.323463e-02 -1.971668e-01 3.742737e-01 8.576801e-01 3.258802e-02 -1.029732e-01 4.763971e-01 -7.918971e-01
<VARIANCE> 25
 1.105956e+02 2.836504e+01 4.468362e+01 4.386222e+01 2.902906e+01 6.937983e+01 6.059254e+01 6.640605e+01 4.635454e+01 4.118817e+01 3.947915e+01 1.793163e+01 3.334798e+00 1.326857e+00 2.761565e+00 2.167597e+00 2.230899e+00 3.520049e+00 1.994886e+00 3.341424e+00 2.735977e+00 2.850823e+00 3.283056e+00 1.888979e+00 1.245170e+00
<GCONST> 1.029360e+02
<TRANSP> 5
 0.000000e+00 1.000000e+00 0.000000e+00 0.000000e+00 0.000000e+00
 0.000000e+00 7.284926e-01 2.715073e-01 0.000000e+00 0.000000e+00
 0.000000e+00 0.000000e+00 8.662166e-01 1.337834e-01 0.000000e+00
 0.000000e+00 0.000000e+00 0.000000e+00 7.771274e-01 2.228726e-01
 0.000000e+00 0.000000e+00 0.000000e+00 0.000000e+00 0.000000e+00
<ENDHMM>
~h "iy"
<BEGINHMM>
<NUMSTATES> 5
<STATE> 2
<MEAN> 25
 2.298207e+00 1.409290e+00 3.762716e+00 8.187200e-01 -3.760252e+00 -5.853097e+00 4.195123e+00 -3.382300e+00 -1.806106e+00 -1.530903e+00 -1.292369e+00 -4.506939e+00 3.331867e-01 3.596895e-01 1.508026e+00 -8.667432e-01 -1.591037e+00 -5.711101e-01 -2.132985e-01 -5.137556e-01 -1.042861e+00 -5.832248e-02 3.218957e-01 -3.912668e-01 2.010890e+00
<VARIANCE> 25
 1.059621e+02 5.117988e+01 1.068289e+02 5.389868e+01 9.974691e+01 6.947774e+01 6.614332e+01 9.579215e+01 7.557053e+01 4.371622e+01 3.931770e+01 6.956855e+01 5.452792e+00 4.066789e+00 4.915342e+00 4.086772e+00 7.479150e+00 5.650124e+00 6.477673e+00 6.374872e+00 5.373833e+00 4.208046e+00 4.605092e+00 4.232450e+00 6.001704e+00
<GCONST> 1.182622e+02
<STATE> 3
<MEAN> 25
 -8.762827e-01 8.899707e+00 1.650617e+01 -4.510225e+00 -1.630687e+01 -6.080507e+00 -2.501178e+00 -8.840173e+00 -1.049273e+01 5.828313e-02 -1.336343e+00 -5.956510e+00 3.826169e-01 6.977662e-02 1.624129e-01 -2.622610e-02 2.694949e-01 1.537073e-03 -9.484352e-02 -1.701191e-01 1.349286e-01 2.925239e-01 6.493250e-02 -7.606114e-02 -7.582121e-01
<VARIANCE> 25
 1.958372e+01 2.250708e+01 2.455815e+01 2.717708e+01 2.887222e+01 4.665896e+01 3.457308e+01 2.754023e+01 2.693594e+01 2.531537e+01 2.739097e+01 3.244789e+01 1.069582e+00 1.592584e+00 1.390209e+00 2.084769e+00 2.594376e+00 2.313031e+00 2.005956e+00 2.251829e+00 2.192183e+00 1.950211e+00 1.912985e+00 1.796770e+00 1.077636e+00
<GCONST> 9.357684e+01
<STATE> 4
<MEAN> 25
 6.381260e+00 1.577141e+00 6.628447e+00 -5.092671e-01 -7.875248e+00 -8.328053e+00 -5.449257e+00 -4.316518e+00 1.318377e+00 1.004279e-01 4.616063e-01 -3.059789e+00 4.394919e-01 -4.477587e-01 -1.275383e+00 1.855021e-01 1.085296e+00 2.652687e-01 -5.042322e-02 3.755786e-01 1.006382e+00 2.853027e-01 -3.061969e-01 4.445406e-02 -7.108434e-01
<VARIANCE> 25
 2.165233e+01 2.535651e+01 7.590120e+01 4.990916e+01 3.357114e+01 6.558450e+01 4.584479e+01 5.520478e+01 6.913132e+01 4.389137e+01 3.135726e+01 3.533497e+01 1.280725e+00 1.117022e+00 3.146407e+00 2.608994e+00 2.189827e+00 3.409983e+00 2.261084e+00 2.973716e+00 4.124717e+00 3.220903e+00 2.978843e+00 2.933592e+00 1.224061e+00
<GCONST> 1.023922e+02
<TRANSP> 5
 0.000000e+00 1.000000e+00 0.000000e+00 0.000000e+00 0.000000e+00
 0.000000e+00 8.281926e-01 1.718074e-01 0.000000e+00 0.000000e+00
 0.000000e+00 0.000000e+00 8.927996e-01 1.072004e-01 0.000000e+00
 0.000000e+00 0.000000e+00 0.000000e+00 7.909960e-01 2.090040e-01
 0.000000e+00 0.000000e+00 0.000000e+00 0.000000e+00 0.000000e+00
<ENDHMM>
~h "jh"
<BEGINHMM>
<NUMSTATES> 5
<STATE> 2
<MEAN> 25
 -1.866156e+00 -4.903171e+00 -8.867841e-01 3.116884e+00 3.808681e-01 7.399207e-01 -5.399778e-02 1.772601e+00 -5.733681e+00 -5.322501e-01 1.064158e+00 -1.393905e-01 3.577903e-02 -2.062591e-02 -3.069880e-02 -2.835522e-02 1.078715e-01 8.572750e-03 -1.297372e-01 1.040964e-01 -9.832717e-02 3.972107e-02 7.936231e-02 -1.365994e-02 -1.995269e-01
<VARIANCE> 25
 5.661072e+00 6.957165e+00 8.738451e+00 7.683791e+00 2.181647e+01 1.927309e+01 1.167149e+01 1.403363e+01 1.975003e+01 1.719819e+01 1.463581e+01 9.886731e+00 4.016699e-01 3.168899e-01 6.196991e-01 1.144736e+00 1.902479e+00 2.727350e+00 1.698358e+00 1.569804e+00 2.220624e+00 2.064728e+00 1.801018e+00 1.215934e+00 1.443676e-01
<GCONST> 7.636345e+01
<STATE> 3
<MEAN> 25
 4.112360e+00 -2.697242e+00 4.835363e+00 -7.664906e-01 -6.848194e+00 -4.877429e+00 -4.344259e+00 3.810419e-01 5.483059e-01 5.396532e-01 1.151101e+00 -3.619210e+00 -9.110672e-01 1.624845e-01 4.342620e-01 -4.939735e-01 5.962663e-01 5.195556e-01 3.594570e-01 -4.282026e-01 -2.296007e-01 -6.177710e-01 -7.415105e-01 2.015997e-01 -2.569409e-01
<VARIANCE> 25
 5.433623e+00 2.057308e+01 2.377990e+01 7.245293e+00 5.326935e+01 1.702609e+01 6.116821e+00 5.086792e+00 1.942952e+01 1.064429e+01 1.494037e+01 9.866001e+00 2.292096e+00 3.259176e+00 2.324779e+00 9.384692e-01 1.659731e+00 2.602752e+00 2.323273e+00 6.130697e-01 1.913004e+00 8.069549e-01 1.296219e+00 1.106645e+00 1.154594e+00
<GCONST> 8.193219e+01
<STATE> 4
<MEAN> 25
 -6.524165e+00 7.243736e+00 3.385383e+00 -4.932293e-01 -2.228020e+00 -3.040260e+00 1.338092e+00 -8.376043e-01 4.944825e-01 9.829193e-01 -6.455035e-01 7.422987e-01 -6.453966e-01 3.233266e-01 -4.028566e-01 5.295786e-02 4.572216e-01 -8.786404e-01 5.536616e-03 1.243936e-01 3.042719e-01 -3.068214e-01 -2.985164e-01 5.065168e-01 1.266336e-01
<VARIANCE> 25
 9.651754e+01 3.642944e+01 5.212160e+01 1.647866e+01 1.085424e+02 4.048914e+01 3.675101e+01 2.150019e+01 2.745158e+01 2.737797e+01 1.115806e+01 5.708473e+00 1.184447e+01 5.751086e+00 1.552721e+00 1.259037e+00 1.133607e+00 9.786163e+00 4.947144e+00 4.020077e+00 3.554362e+00 2.531577e+00 1.095590e+00 7.336904e-01 2.742631e+00
<GCONST> 9.998000e+01
<TRANSP> 5
 0.000000e+00 1.000000e+00 0.000000e+00 0.000000e+00 0.000000e+00
 0.000000e+00 9.346399e-01 6.536002e-02 0.000000e+00 0.000000e+00
 0.000000e+00 0.000000e+00 6.933312e-01 3.066688e-01 0.000000e+00
 0.000000e+00 0.000000e+00 0.000000e+00 8.635850e-01 1.364150e-01
 0.000000e+00 0.000000e+00 0.000000e+00 0.000000e+00 0.000000e+00
<ENDHMM>
~h "ng"
<BEGINHMM>
<NUMSTATES> 5
<STATE> 2
<MEAN> 25
 7.243088e+00 -5.168451e+00 -1.095667e+01 -1.014227e+01 3.212915e+00 5.190879e-01 1.945091e+00 -7.462379e+00 6.073572e+00 1.797058e-01 -1.288758e+00 -8.132757e+00 5.056354e-01 6.049608e-01 -6.135695e-02 -1.707885e-01 2.282930e-01 -1.353436e-01 -2.689427e-01 -4.548034e-01 -4.261892e-01 2.618004e-01 1.147777e-01 4.349986e-01 -1.262743e+00
<VARIANCE> 25
 2.299525e+01 2.175587e+01 1.921205e+01 2.819195e+01 2.274863e+01 3.840506e+01 2.466917e+01 2.875317e+01 3.986502e+01 3.199355e+01 3.574562e+01 3.602784e+01 3.236613e-01 4.472635e-01 1.048305e+00 1.545003e+00 1.851786e+00 2.235747e+00 1.178112e+00 1.896416e+00 2.082565e+00 1.369892e+00 2.307690e+00 1.263090e+00 2.919082e-01
<GCONST> 8.776639e+01
<STATE> 3
<MEAN> 25
 9.036700e+00 2.383214e+00 2.316710e-01 -2.179901e+00 2.016407e+00 -7.777925e-01 2.542461e+00 -3.017161e+00 -7.985305e-01 3.599422e+00 -6.047434e-01 -5.127763e-01 -1.020954e+00 -4.735642e-01 6.214183e-01 1.268100e+00 4.448697e-01 5.407443e-01 -1.624393e-02 1.195811e+00 -1.043036e-01 -9.732255e-03 5.747432e-01 2.453952e-01 -1.160098e+00
<VARIANCE> 25
 2.260626e+01 1.410994e+01 3.678383e+01 2.919362e+01 2.621573e+01 1.612795e+01 1.805063e+01 4.480469e+01 2.624920e+01 1.282755e+01 1.793382e+01 1.305093e+01 8.302470e-01 1.066242e+00 1.426476e+00 1.156353e+00 1.813679e+00 1.756325e+00 2.298749e+00 2.549902e+00 1.872743e+00 1.397069e+00 1.524329e+00 1.038504e+00 1.331116e-01
<GCONST> 8.541838e+01
<STATE> 4
<MEAN> 25
 -1.158597e+00 -3.291643e+00 1.012201e+00 5.455986e+00 4.317736e+00 2.398303e+00 1.250149e+00 3.567312e+00 -1.393027e+00 2.354231e+00 3.774150e-01 1.533003e+00 -6.247232e-02 -3.741646e-03 -4.629498e-02 7.090960e-02 1.119190e-02 8.424415e-02 -2.803177e-02 5.073974e-02 1.291912e-03 1.807772e-03 -1.856539e-02 1.428300e-02 -1.176057e-01
<VARIANCE> 25
 1.489602e+00 3.939225e+00 7.495278e+00 1.264410e+01 9.319320e+00 1.057520e+01 1.090296e+01 1.271488e+01 1.309289e+01 1.434108e+01 1.178841e+01 1.084228e+01 1.232688e-01 2.064920e-01 3.802634e-01 5.315194e-01 8.296469e-01 9.487296e-01 9.784116e-01 1.362243e+00 1.503174e+00 1.359410e+00 1.122354e+00 1.117678e+00 4.199971e-02
<GCONST> 6.442542e+01
<TRANSP> 5
 0.000000e+00 1.000000e+00 0.000000e+00 0.000000e+00 0.000000e+00
 0.000000e+00 9.037701e-01 9.622984e-02 0.000000e+00 0.000000e+00
 0.000000e+00 0.000000e+00 8.908150e-01 1.091850e-01 0.000000e+00
 0.000000e+00 0.000000e+00 0.000000e+00 9.747874e-01 2.521260e-02
 0.000000e+00 0.000000e+00 0.000000e+00 0.000000e+00 0.000000e+00
<ENDHMM>
~h "ow"
<BEGINHMM>
<NUMSTATES> 5
<STATE> 2
<MEAN> 25
 4.771524e+00 7.452389e+00 -8.819933e+00 -1.707132e+01 -7.111362e+00 1.128183e+01 -9.816498e-01 -6.734787e+00 7.432450e+00 -7.900811e+00 1.703912e+00 4.045648e+00 9.834731e-01 1.689524e+00 -3.453031e-01 -3.586909e+00 -8.819436e-01 2.277318e+00 -5.274925e-01 -9.542087e-01 1.637275e+00 -2.002066e+00 5.380810e-01 6.577953e-01 2.290463e+00
<VARIANCE> 25
 4.236330e+01 3.934759e+01 4.451113e+01 1.739654e+02 5.807521e+01 7.789631e+01 4.993884e+01 6.559990e+01 4.879841e+01 9.985146e+01 2.810653e+01 3.176422e+01 4.460491e+00 2.284633e+00 5.974092e+00 1.733453e+01 4.227439e+00 6.299466e+00 4.392684e+00 7.138671e+00 4.486123e+00 5.016449e+00 3.665111e+00 3.253788e+00 8.069511e+00
<GCONST> 1.154871e+02
<STATE> 3
<MEAN> 25
 9.831025e+00 1.127797e+01 -3.017366e+00 -1.941671e+01 -8.979363e+00 2.320468e+00 -3.671493e+00 -3.003306e+00 5.945290e+00 -9.779059e+00 3.899106e+00 4.259869e+00 -8.333799e-02 -3.460414e-01 3.164932e-01 8.286473e-01 3.067936e-01 -6.675697e-01 7.782669e-02 3.795496e-01 -4.627202e-01 4.630843e-01 2.341183e-02 -8.960479e-02 -8.233945e-01
<VARIANCE> 25
 1.839989e+01 5.685813e+01 2.841968e+01 1.355414e+02 5.100141e+01 1.093290e+02 2.810062e+01 4.949893e+01 5.788108e+01 8.779062e+01 2.622289e+01 2.204511e+01 7.761425e-01 1.036405e+00 9.141877e-01 1.868882e+00 2.096230e+00 1.933855e+00 1.947696e+00 2.185946e+00 1.978737e+00 2.649103e+00 1.571489e+00 1.417593e+00 3.352032e-01
<GCONST> 9.644418e+01
<STATE> 4
<MEAN> 25
 -1.456225e+00 -4.276385e+00 1.413614e+00 3.617901e+00 3.796942e+00 2.172227e+00 -1.388730e+00 3.884274e+00 -3.074578e+00 9.425737e-01 6.707056e-01 1.142054e+00 -1.224829e-01 -5.694376e-02 -3.928060e-02 1.122245e-01 1.111521e-01 1.798243e-01 4.221664e-02 9.173009e-02 -1.713791e-02 -2.504116e-02 -6.572808e-02 -6.254592e-02 -1.413933e-01
<VARIANCE> 25
 5.344006e+00 6.857347e+00 5.980398e+00 1.317000e+01 1.143260e+01 1.433206e+01 1.604376e+01 1.634317e+01 1.391577e+01 1.306032e+01 1.425083e+01 1.212158e+01 2.071363e-01 3.531256e-01 4.496988e-01 7.235848e-01 1.066001e+00 1.176126e+00 1.360035e+00 1.512229e+00 1.528907e+00 1.177626e+00 1.153851e+00 1.141097e+00 6.458667e-02
<GCONST> 7.026975e+01
<TRANSP> 5
 0.000000e+00 1.000000e+00 0.000000e+00 0.000000e+00 0.000000e+00
 0.000000e+00 7.498071e-01 2.501929e-01 0.000000e+00 0.000000e+00
 0.000000e+00 0.000000e+00 9.548132e-01 4.518680e-02 0.000000e+00
 0.000000e+00 0.000000e+00 0.000000e+00 9.623757e-01 3.762433e-02
 0.000000e+00 0.000000e+00 0.000000e+00 0.000000e+00 0.000000e+00
<ENDHMM>
~h "oy"
<BEGINHMM>
<NUMSTATES> 5
<STATE> 2
<MEAN> 25
 8.648960e+00 4.229362e+00 -3.338105e+00 -1.778269e+01 -1.044442e+01 6.039275e+00 -4.210291e+00 -7.096231e+00 9.377206e+00 -3.171245e+00 3.754423e+00 -2.433271e+00 3.515080e-01 7.815354e-02 6.590243e-01 9.029917e-02 -2.870396e-01 -4.712719e-01 4.170935e-01 -2.024555e-01 -2.950557e-01 2.386562e-01 -3.484071e-01 2.567495e-01 -1.835483e-02
<VARIANCE> 25
 6.983830e+01 3.184419e+01 4.353076e+01 1.166510e+02 5.817381e+01 1.289768e+02 5.674305e+01 4.396603e+01 8.741105e+01 1.472865e+02 3.951141e+01 3.861887e+01 3.115169e+00 2.449054e+00 3.591240e+00 5.472835e+00 4.000794e+00 6.503327e+00 5.164379e+00 3.940007e+00 6.564054e+00 7.454322e+00 3.230849e+00 5.879638e+00 1.256794e+00
<GCONST> 1.140702e+02
<STATE> 3
<MEAN> 25
 1.723045e+00 9.806379e+00 2.797319e+00 -7.125501e+00 -6.211381e+00 -7.029491e+00 -9.443398e-01 -1.112903e+00 -1.231102e+01 4.492301e+00 -3.046057e-01 1.001723e+00 -2.081007e+00 1.391953e+00 -8.148063e-01 4.830592e-01 8.435425e-01 -6.131332e-01 1.241283e-01 1.464144e+00 1.841484e-01 -6.784415e-01 -7.767676e-02 1.368949e-01 -1.701253e-01
<VARIANCE> 25
 7.079903e+01 5.410595e+01 1.984930e+01 4.819627e+01 8.362173e+01 1.514871e+01 5.576189e+01 1.436612e+01 2.377648e+01 1.927997e+01 3.658202e+01 2.837592e+01 6.610885e+00 3.189958e+00 6.351104e-01 3.028332e+00 3.662385e+00 2.840465e+00 6.564656e+00 3.176675e+00 1.568417e+00 3.481551e+00 2.616092e+00 1.429640e+00 4.384672e-01
<GCONST> 9.923878e+01
<STATE> 4
<MEAN> 25
 -1.389217e+01 1.304206e+01 -3.606237e+00 -1.259953e+00 1.375149e+01 -9.055475e+00 3.347336e+00 5.040424e+00 -4.883792e+00 5.209356e+00 -3.194273e-01 6.201427e-01 3.324238e-01 -7.900719e-01 8.656639e-02 6.546618e-01 5.071714e-01 1.417113e-01 8.572568e-01 1.989945e-01 3.232470e-01 2.369051e-01 -3.632321e-01 1.018462e-02 -5.995057e-01
<VARIANCE> 25
 4.688223e+01 4.970530e+01 9.031487e+00 2.270253e+01 4.223914e+01 7.755787e+00 4.001812e+01 1.227638e+01 6.180673e+00 1.136199e+01 1.894434e+01 1.874052e+00 1.118552e+00 7.846319e-01 4.132864e-01 6.446489e-01 1.110820e+00 4.721372e-01 7.125605e-01 2.069885e+00 1.372733e+00 1.419526e+00 3.705476e-01 4.870632e-01 3.904847e-01
<GCONST> 7.513865e+01
<TRANSP> 5
 0.000000e+00 1.000000e+00 0.000000e+00 0.000000e+00 0.000000e+00
 0.000000e+00 9.457449e-01 5.425506e-02 0.000000e+00 0.000000e+00
 0.000000e+00 0.000000e+00 7.793587e-01 2.206413e-01 0.000000e+00
 0.000000e+00 0.000000e+00 0.000000e+00 8.451498e-01 1.548502e-01
 0.000000e+00 0.000000e+00 0.000000e+00 0.000000e+00 0.000000e+00
<ENDHMM>
~h "sh"
<BEGINHMM>
<NUMSTATES> 5
<STATE> 2
<MEAN> 25
 3.996742e+00 1.592158e+00 5.327647e+00 3.123392e+00 3.236491e+00 -6.230567e-01 -9.733247e-02 2.253499e+00 2.183694e-02 -4.727314e-02 4.357179e-01 3.006225e+00 -1.233424e+00 -1.005875e+00 -8.162661e-01 -1.013624e-01 1.020472e+00 1.049865e+00 6.500318e-02 -2.325602e-01 -1.102744e+00 -5.895855e-03 8.951834e-01 2.845654e-01 -9.713947e-01
<VARIANCE> 25
 1.818302e+01 1.290358e+01 1.131949e+01 1.199125e+01 1.447390e+01 2.171124e+01 1.370902e+01 1.852307e+01 3.132921e+01 1.245980e+01 9.107588e+00 8.235332e+00 8.338141e-01 5.233820e-01 1.042661e+00 1.116601e+00 1.155635e+00 1.288011e+00 1.526910e+00 1.730667e+00 1.304600e+00 1.308048e+00 1.253694e+00 1.267419e+00 1.883199e-01
<GCONST> 7.790776e+01
<STATE> 3
<MEAN> 25
 -1.997637e+00 -2.840254e+00 -2.673490e-01 2.536738e+00 3.394959e+00 2.249163e+00 -1.049884e+00 2.723295e+00 -3.804220e+00 2.097646e-01 4.657005e-01 1.848845e+00 -3.437194e-02 1.104940e-02 -5.563017e-02 3.748604e-02 -2.013059e-02 2.767209e-02 -1.832262e-02 4.378416e-02 -5.989099e-03 1.687015e-02 -4.715611e-02 -2.901874e-02 -1.001100e-01
<VARIANCE> 25
 2.403819e+00 3.196974e+00 6.345217e+00 7.246974e+00 9.950269e+00 1.347827e+01 1.261002e+01 1.448257e+01 1.446141e+01 1.299095e+01 1.024775e+01 1.070873e+01 1.111238e-01 1.966934e-01 3.603669e-01 6.179567e-01 7.433181e-01 1.108407e+00 1.218702e+00 1.371383e+00 1.383511e+00 1.467142e+00 1.001283e+00 1.102722e+00 3.301972e-02
<GCONST> 6.424551e+01
<STATE> 4
<MEAN> 25
 -2.207174e+00 -2.026362e+00 -8.956485e-01 5.190152e+00 3.923154e+00 2.658865e+00 -4.889943e-01 3.268599e+00 -3.879836e+00 2.102166e-02 -1.280019e+00 8.388071e-01 -4.007300e-01 2.519031e-01 -1.377004e-01 -4.271036e-01 7.465404e-02 -1.492102e+00 3.241671e-01 -1.228977e+00 7.177292e-01 -8.445773e-02 -1.939510e-01 -4.453560e-01 4.122721e-01
<VARIANCE> 25
 2.556972e+00 2.731890e+00 3.297212e+00 9.754699e+00 7.358465e+00 1.958211e+01 9.225780e+00 1.499582e+01 1.184104e+01 6.409102e+00 9.795897e+00 5.600303e+00 4.046286e-01 7.735280e-01 1.372888e+00 1.247444e+00 2.043598e+00 1.810945e+00 2.567876e+00 3.788893e+00 2.491316e+00 2.880588e+00 1.768750e+00 1.740593e+00 1.897357e-01
<GCONST> 7.398922e+01
<TRANSP> 5
 0.000000e+00 1.000000e+00 0.000000e+00 0.000000e+00 0.000000e+00
 0.000000e+00 7.670741e-01 2.329259e-01 0.000000e+00 0.000000e+00
 0.000000e+00 0.000000e+00 9.779617e-01 2.203827e-02 0.000000e+00
 0.000000e+00 0.000000e+00 0.000000e+00 1.839477e-01 8.160524e-01
 0.000000e+00 0.000000e+00 0.000000e+00 0.000000e+00 0.000000e+00
<ENDHMM>
~h "sp"
<BEGINHMM>
<NUMSTATES> 3
<STATE> 2
~s "silst"
<TRANSP> 3
 0.000000e+00 9.820160e-02 9.017984e-01
 0.000000e+00 8.933781e-01 1.066219e-01
 0.000000e+00 0.000000e+00 0.000000e+00
<ENDHMM>
~h "th"
<BEGINHMM>
<NUMSTATES> 5
<STATE> 2
<MEAN> 25
 -1.168426e+01 4.250457e+00 -6.365029e-01 3.245584e+00 3.734956e+00 1.561627e+00 -2.313209e-01 2.004052e-01 4.525607e+00 1.559562e-01 -7.519227e-01 1.585426e+00 3.922023e-01 -4.400340e-01 1.965464e-01 4.062568e-01 2.193179e-01 1.354782e-01 -4.558755e-02 2.458865e-01 -1.881343e-01 -2.447338e-01 -7.891458e-02 5.615845e-02 -5.658932e-01
<VARIANCE> 25
 2.610205e+01 8.079796e+00 1.355971e+01 1.452231e+01 1.443242e+01 1.191291e+01 1.818797e+01 2.778400e+01 2.191416e+01 1.722807e+01 1.820386e+01 8.572227e+00 1.547495e+00 7.180291e-01 8.733045e-01 7.588188e-01 1.008328e+00 1.788067e+00 1.280896e+00 1.686493e+00 1.730554e+00 1.183993e+00 1.479993e+00 9.654384e-01 2.637092e-01
<GCONST> 7.973212e+01
<STATE> 3
<MEAN> 25
 -1.793882e+00 -2.753519e+00 1.236885e+00 3.149351e+00 4.374461e+00 1.044333e+00 -3.834562e-01 1.408546e+00 -3.150441e+00 -1.317369e+00 3.108273e-01 2.225410e+00 6.691355e-01 -1.003126e+00 3.690718e-01 -1.363587e-01 1.936968e-01 5.106219e-01 -2.007423e-01 3.933966e-01 -3.321706e-01 9.974561e-01 9.114952e-01 -2.948021e-01 -7.797444e-01
<VARIANCE> 25
 1.429218e+01 8.809585e+00 5.992308e+00 7.097702e+00 1.589195e+01 9.277987e+00 9.165242e+00 1.817065e+01 3.306246e+01 1.386461e+01 1.619794e+01 1.395661e+01 1.490284e+00 5.854979e-01 6.133855e-01 8.813255e-01 2.205972e+00 1.489350e+00 1.622945e+00 2.760449e+00 3.896554e+00 1.632436e+00 1.020603e+00 1.652532e+00 1.825818e-01
<GCONST> 7.880003e+01
<STATE> 4
<MEAN> 25
 -3.657660e-01 -3.672144e+00 1.583771e+00 3.863380e+00 4.625466e+00 3.481465e+00 2.985567e-01 2.739913e+00 -2.272860e+00 1.703644e+00 1.732816e+00 1.442044e+00 -2.050288e-02 9.671442e-03 -2.332846e-02 5.241419e-02 -2.710693e-02 5.692048e-02 -3.288421e-02 5.419952e-02 -2.887794e-02 3.432762e-02 -5.261172e-03 1.012757e-02 -1.084251e-01
<VARIANCE> 25
 3.831666e+00 2.872513e+00 5.459749e+00 6.468175e+00 1.099138e+01 1.236686e+01 1.349411e+01 1.498492e+01 1.612134e+01 1.341069e+01 1.144126e+01 1.052732e+01 1.170146e-01 1.850831e-01 3.934159e-01 5.435823e-01 8.591957e-01 9.665207e-01 1.025100e+00 1.411263e+00 1.191204e+00 1.217712e+00 1.216554e+00 1.026036e+00 3.185860e-02
<GCONST> 6.425435e+01
<TRANSP> 5
 0.000000e+00 1.000000e+00 0.000000e+00 0.000000e+00 0.000000e+00
 0.000000e+00 8.234673e-01 1.765327e-01 0.000000e+00 0.000000e+00
 0.000000e+00 0.000000e+00 5.771218e-01 4.228782e-01 0.000000e+00
 0.000000e+00 0.000000e+00 0.000000e+00 9.671428e-01 3.285718e-02
 0.000000e+00 0.000000e+00 0.000000e+00 0.000000e+00 0.000000e+00
<ENDHMM>
~h "uh"
<BEGINHMM>
<NUMSTATES> 5
<STATE> 2
<MEAN> 25
 3.176136e+00 -8.356407e-01 5.299421e+00 1.021809e+01 1.145769e+01 3.362590e+00 5.193258e-02 7.395768e+00 3.984333e+00 -2.215068e+00 -4.804298e-01 3.953264e+00 6.657425e-02 1.351783e-01 5.578848e-02 6.648962e-02 -2.768754e-01 -1.086597e-01 2.250637e-01 2.151680e-02 -2.111378e-01 -5.682174e-02 2.554888e-01 1.674214e-02 2.379157e-03
<VARIANCE> 25
 1.297379e+01 3.700332e+00 2.417698e+01 2.949630e+01 3.155126e+01 2.362478e+01 3.508876e+01 1.517997e+01 3.255380e+01 1.804802e+01 1.700056e+01 1.503455e+01 2.313285e-01 3.218640e-01 4.263380e-01 4.836804e-01 1.340283e+00 1.986484e+00 2.783769e+00 1.477759e+00 2.073778e+00 1.721068e+00 1.422464e+00 1.885136e+00 1.967285e-01
<GCONST> 8.004919e+01
<STATE> 3
<MEAN> 25
 1.093290e+00 6.338078e+00 -4.043976e+00 -2.062505e+00 -4.496257e+00 2.519408e+00 -2.261062e+00 -6.427943e+00 2.741829e+00 -7.571902e+00 -1.416047e+00 1.517643e+00 2.328247e+00 2.205492e+00 -9.608214e-01 -2.331794e+00 -3.295827e+00 1.536196e+00 -1.422433e+00 -3.817301e+00 6.542933e-01 -3.258819e+00 -1.074283e+00 4.314635e-01 4.194420e+00
<VARIANCE> 25
 5.715491e+01 5.121075e+01 1.062111e+02 1.292465e+02 7.964375e+01 1.492605e+02 1.738680e+01 1.167748e+02 4.188428e+01 7.310902e+01 2.176066e+01 2.698846e+01 3.054687e+00 4.212422e+00 1.251839e+01 1.727774e+01 6.402154e+00 7.716699e+00 2.896846e+00 1.416562e+01 5.823016e+00 4.821069e+00 3.098106e+00 5.127218e+00 8.078172e+00
<GCONST> 1.185925e+02
<STATE> 4
<MEAN> 25
 6.729625e+00 8.236818e+00 -5.600626e+00 -1.177060e+01 -1.409689e+01 6.363715e+00 -1.094583e+01 -1.370726e+01 2.283187e+00 -1.219210e+01 -3.555593e-02 6.186104e+00 2.288340e-02 -4.843896e-01 2.347949e-01 2.584323e-01 5.693947e-01 -3.564299e-01 -2.302960e-01 6.331625e-01 -1.754712e-01 6.702197e-01 1.381105e-01 7.858445e-02 -4.665568e-01
<VARIANCE> 25
 2.238954e+01 4.343798e+01 5.224136e+01 1.632301e+02 5.304604e+01 1.001182e+02 4.981102e+01 6.015987e+01 3.542503e+01 5.970125e+01 2.711283e+01 3.872258e+01 1.365791e+00 1.612831e+00 2.415395e+00 4.250753e+00 4.194568e+00 5.267771e+00 4.532426e+00 3.609492e+00 3.094090e+00 2.803825e+00 1.893342e+00 2.446222e+00 1.899021e+00
<GCONST> 1.064175e+02
<TRANSP> 5
 0.000000e+00 1.000000e+00 0.000000e+00 0.000000e+00 0.000000e+00
 0.000000e+00 8.775569e-01 1.224431e-01 0.000000e+00 0.000000e+00
 0.000000e+00 0.000000e+00 7.566975e-01 2.433025e-01 0.000000e+00
 0.000000e+00 0.000000e+00 0.000000e+00 9.314948e-01 6.850526e-02
 0.000000e+00 0.000000e+00 0.000000e+00 0.000000e+00 0.000000e+00
<ENDHMM>
~h "uw"
<BEGINHMM>
<NUMSTATES> 5
<STATE> 2
<MEAN> 25
 -4.520258e+00 2.468892e+00 3.679000e+00 1.909789e+00 -4.712006e+00 -2.428125e+00 -4.334260e+00 -3.635826e+00 2.794249e+00 -1.952682e+00 7.296478e-01 -1.704574e+00 9.681244e-01 4.455485e-01 1.585010e-01 -8.022340e-02 -5.040109e-01 8.973773e-02 -4.864706e-01 -7.032810e-01 9.252317e-02 -3.923154e-01 7.880282e-02 -3.662181e-01 1.396936e+00
<VARIANCE> 25
 1.267946e+02 4.556376e+01 6.659696e+01 5.678814e+01 9.389428e+01 8.497576e+01 6.891171e+01 4.966392e+01 5.133973e+01 7.976003e+01 3.747964e+01 3.838498e+01 7.929967e+00 4.536610e+00 4.278167e+00 4.255564e+00 5.104697e+00 6.149513e+00 6.526679e+00 4.375884e+00 6.209082e+00 7.330960e+00 3.675339e+00 3.914722e+00 5.671792e+00
<GCONST> 1.170613e+02
<STATE> 3
<MEAN> 25
 9.505491e+00 2.471671e+00 -1.524337e+00 -1.493241e+00 -8.523730e+00 3.155068e-01 -1.007119e+01 -8.506651e+00 4.286689e+00 6.454341e-01 2.750294e+00 -5.223279e+00 2.726404e-01 -6.357957e-02 -1.282331e-01 -5.075753e-01 2.596655e-01 2.972660e-02 5.381626e-02 7.631660e-02 -2.913798e-02 6.048552e-01 5.277844e-02 1.821522e-01 -3.822567e-01
<VARIANCE> 25
 2.533873e+01 5.734515e+01 5.565274e+01 7.144897e+01 6.763193e+01 1.254534e+02 5.541302e+01 7.416468e+01 5.253306e+01 7.274155e+01 4.806942e+01 4.781179e+01 1.261046e+00 2.261171e+00 3.347421e+00 3.561860e+00 3.870873e+00 6.181647e+00 3.849468e+00 3.967276e+00 3.690161e+00 4.216771e+00 3.727502e+00 4.058093e+00 1.836840e+00
<GCONST> 1.103685e+02
<STATE> 4
<MEAN> 25
 1.102144e+01 8.732812e+00 -4.029269e-01 -1.019619e+01 -7.258479e+00 1.403296e-01 -2.512242e+00 -7.361496e+00 -1.468630e+00 -5.007820e+00 2.010820e+00 1.215548e+00 -3.162798e-01 -4.328881e-01 2.156349e-01 3.188711e-01 3.182191e-01 -7.647433e-01 1.605948e-01 5.565875e-01 -1.466096e-01 1.999200e-01 -7.227493e-02 4.403600e-01 -9.620432e-01
<VARIANCE> 25
 2.594831e+01 3.177473e+01 2.709786e+01 6.346004e+01 2.931098e+01 8.296514e+01 4.007690e+01 4.213208e+01 4.705487e+01 1.091159e+02 2.585873e+01 2.934139e+01 1.441416e+00 1.185863e+00 1.400266e+00 2.634533e+00 1.776534e+00 2.584325e+00 1.972502e+00 2.745480e+00 2.062293e+00 3.337989e+00 1.843106e+00 1.655874e+00 6.466143e-01
<GCONST> 9.817873e+01
<TRANSP> 5
 0.000000e+00 1.000000e+00 0.000000e+00 0.000000e+00 0.000000e+00
 0.000000e+00 8.949689e-01 1.050311e-01 0.000000e+00 0.000000e+00
 0.000000e+00 0.000000e+00 9.084426e-01 9.155741e-02 0.000000e+00
 0.000000e+00 0.000000e+00 0.000000e+00 8.477352e-01 1.522648e-01
 0.000000e+00 0.000000e+00 0.000000e+00 0.000000e+00 0.000000e+00
<ENDHMM>
~h "zh"
<BEGINHMM>
<NUMSTATES> 5
<STATE> 2
<MEAN> 25
 -6.729902e+00 5.759474e+00 5.769628e+00 1.337470e+00 -1.246207e+01 -6.326950e+00 -4.101128e+00 -4.759057e+00 4.453790e+00 -5.411008e+00 7.829664e-01 2.659967e+00 -2.719797e-02 -4.031648e-01 -6.165890e-01 8.643711e-03 1.072008e-03 -2.030680e-01 -5.657267e-01 -1.735290e-02 8.792830e-02 -1.131379e-01 -5.009589e-01 -6.461720e-02 -2.660815e-01
<VARIANCE> 25
 9.240456e+01 4.387025e+01 1.938662e+01 1.763083e+01 3.079959e+01 5.937312e+01 3.201038e+01 1.782942e+01 1.049348e+01 2.354296e+01 3.264305e+01 1.143882e+01 7.411811e+00 4.042278e+00 2.021733e+00 1.154633e+00 1.829573e+00 3.537689e+00 2.163256e+00 1.567022e+00 1.163233e+00 2.638805e+00 1.595642e+00 1.271982e+00 8.106787e-01
<GCONST> 9.433452e+01
<STATE> 3
<MEAN> 25
 5.077918e+00 -1.640552e+00 -1.858543e+00 1.249190e-01 -5.682024e+00 -4.553167e+00 -2.966153e+00 1.359878e+00 6.453301e+00 5.807655e-01 -3.464292e+00 -2.247385e+00 1.094270e-02 4.279980e-02 7.518087e-03 -2.136104e-02 8.564915e-01 7.107451e-01 6.356292e-01 2.057780e-01 -2.226224e-01 2.192643e-01 1.822796e-01 -4.118228e-02 -1.258512e+00
<VARIANCE> 25
 9.996107e+01 1.914979e+01 3.496923e+01 1.579740e+01 9.298528e+01 7.377339e+01 6.968159e+01 3.281741e+01 2.958075e+01 2.826457e+01 1.669272e+01 2.463555e+01 1.520325e+00 9.301695e-01 1.226110e+00 1.335611e+00 3.090383e+00 1.969204e+00 2.742271e+00 1.731001e+00 3.122640e+00 1.805573e+00 1.468977e+00 1.929399e+00 1.758987e-01
<GCONST> 9.437122e+01
<STATE> 4
<MEAN> 25
 -1.434775e+00 -1.971796e+00 -1.963173e+00 1.759905e+00 6.904857e+00 4.003218e+00 1.086725e+00 2.208491e+00 -2.369925e+00 9.931601e-01 1.093698e+00 1.440993e+00 -4.599851e-02 -7.817352e-04 -7.299982e-02 4.554563e-02 1.748382e-02 2.478266e-02 -6.282470e-02 2.638112e-02 -8.912888e-02 4.641417e-03 9.750808e-03 4.744213e-02 -1.153381e-01
<VARIANCE> 25
 3.180646e+00 8.239911e+00 1.369321e+01 9.571143e+00 1.073419e+01 1.379182e+01 1.219848e+01 1.469894e+01 1.644527e+01 1.544555e+01 1.245368e+01 9.695349e+00 1.378335e-01 2.806186e-01 4.497350e-01 6.415163e-01 8.960411e-01 1.087527e+00 1.194155e+00 1.418594e+00 1.754283e+00 1.375744e+00 1.296718e+00 1.143638e+00 6.249967e-02
<GCONST> 6.911453e+01
<TRANSP> 5
 0.000000e+00 1.000000e+00 0.000000e+00 0.000000e+00 0.000000e+00
 0.000000e+00 9.257539e-01 7.424611e-02 0.000000e+00 0.000000e+00
