~o
<STREAMINFO> 1 25
<VECSIZE> 25<NULLD><MFCC_D_N_Z_0><DIAGC>
~s "silst"
<MEAN> 25
 -1.655283e+00 -3.554516e+00 2.407851e-01 4.346714e+00 3.370315e+00 2.811455e+00 -4.807884e-01 3.168211e+00 -2.842644e+00 1.066113e+00 6.225246e-01 1.657361e+00 -1.649815e-02 7.564990e-03 -1.454019e-02 5.391894e-02 -1.235583e-02 6.801514e-02 -3.724216e-02 4.039034e-02 -3.173923e-02 1.164286e-02 -1.553044e-02 -1.101832e-03 -8.419647e-02
<VARIANCE> 25
 2.712896e+00 5.410285e+00 7.714827e+00 9.943482e+00 1.080123e+01 1.387196e+01 1.449413e+01 1.564493e+01 1.507414e+01 1.455121e+01 1.228470e+01 1.146462e+01 1.225104e-01 2.485540e-01 4.048343e-01 6.128992e-01 7.912193e-01 1.031445e+00 1.221904e+00 1.360422e+00 1.396450e+00 1.292041e+00 1.232422e+00 1.123899e+00 4.597261e-02
<GCONST> 6.700073e+01
~h "b"
<BEGINHMM>
<NUMSTATES> 5
<STATE> 2
<MEAN> 25
 -1.297041e+00 -2.384212e+00 4.877510e+00 3.414233e-01 2.355424e+00 3.037083e+00 -3.852887e+00 2.850630e+00 -5.660518e-01 -1.108729e+00 2.958728e+00 -6.607389e-01 -6.480063e-02 -7.461902e-03 4.249730e-02 -2.040407e-03 1.674082e-02 1.574953e-01 -1.435151e-01 5.613196e-02 4.599057e-02 4.190599e-02 -1.114326e-01 3.807770e-02 -1.623267e-02
<VARIANCE> 25
 2.636531e+01 2.500835e+01 2.439852e+01 3.244454e+01 3.010000e+01 2.692183e+01 2.363651e+01 3.331340e+01 2.522520e+01 2.986537e+01 2.986273e+01 2.201029e+01 3.272489e-01 7.365787e-01 7.736068e-01 1.149040e+00 1.452770e+00 1.582738e+00 2.331428e+00 1.953140e+00 2.201587e+00 1.939418e+00 1.810805e+00 1.686991e+00 2.157126e-01
<GCONST> 8.743362e+01
<STATE> 3
<MEAN> 25
 1.745375e+00 1.986626e-01 2.392297e+00 4.452974e+00 2.973386e+00 3.459346e+00 -1.214907e+00 1.787292e+00 -6.807997e-01 9.950873e-01 -8.721519e-01 1.844344e-01 -5.605752e-01 8.051347e-01 5.385922e-01 -2.444127e-01 -1.092621e+00 -5.721034e-01 -5.134241e-01 -1.180000e+00 4.354082e-01 -9.237099e-01 -1.167333e+00 -6.780761e-01 3.271842e+00
<VARIANCE> 25
 3.060893e+01 2.335258e+01 2.964855e+01 3.261132e+01 3.020988e+01 3.356020e+01 2.164187e+01 2.887775e+01 2.802883e+01 1.970086e+01 1.623389e+01 1.778753e+01 4.446741e+00 4.382510e+00 7.589179e+00 4.825113e+00 5.699640e+00 6.431015e+00 4.218703e+00 5.510485e+00 4.352500e+00 4.490097e+00 3.767565e+00 3.956542e+00 8.610620e+00
<GCONST> 1.058772e+02
<STATE> 4
<MEAN> 25
 1.993742e+00 3.887730e+00 6.398037e+00 2.767826e+00 -4.795949e+00 -4.800004e+00 -4.119346e+00 -1.161621e+00 -1.406996e+00 -2.753359e+00 -3.081714e+00 -2.821491e+00 1.890573e-01 -1.222424e-01 -4.132381e-01 -9.045357e-01 -7.645339e-01 -3.657467e-01 -6.450863e-02 -2.388094e-01 7.114503e-01 -2.814995e-01 4.465693e-02 -3.311898e-01 1.969836e+00
<VARIANCE> 25
 6.903538e+01 4.655154e+01 7.176183e+01 6.590971e+01 7.377526e+01 7.142489e+01 5.143828e+01 4.836668e+01 8.021050e+01 4.105319e+01 3.153649e+01 3.471811e+01 3.225124e+00 3.983253e+00 5.246454e+00 5.095134e+00 5.940814e+00 8.562952e+00 4.216710e+00 5.410993e+00 7.286517e+00 4.329984e+00 3.715855e+00 4.750350e+00 1.379972e+01
<GCONST> 1.158133e+02
<TRANSP> 5
 0.000000e+00 1.000000e+00 0.000000e+00 0.000000e+00 0.000000e+00
 0.000000e+00 7.322747e-01 2.677253e-01 0.000000e+00 0.000000e+00
 0.000000e+00 0.000000e+00 4.086765e-01 5.913234e-01 0.000000e+00
 0.000000e+00 0.000000e+00 0.000000e+00 7.448043e-01 2.551957e-01
 0.000000e+00 0.000000e+00 0.000000e+00 0.000000e+00 0.000000e+00
<ENDHMM>
~h "d"
<BEGINHMM>
<NUMSTATES> 5
<STATE> 2
<MEAN> 25
 -1.069841e+00 -7.920123e-01 -9.991056e-01 -1.214860e+00 7.982007e-01 -1.782339e+00 1.006853e+00 2.082391e+00 -1.208076e-01 4.037049e-01 6.701164e-01 -6.633852e-01 -1.467186e-01 -3.830354e-01 3.131778e-01 4.224919e-01 8.162317e-01 2.754636e-01 8.576791e-03 -1.725457e-01 1.123717e-01 2.373908e-02 1.646754e-01 3.406553e-02 -7.548321e-01
<VARIANCE> 25
 2.175273e+01 2.176791e+01 2.932205e+01 4.356977e+01 3.363379e+01 6.539537e+01 1.990511e+01 3.116377e+01 2.382447e+01 2.300625e+01 2.556412e+01 2.906156e+01 1.617369e+00 1.532507e+00 1.444932e+00 2.694191e+00 1.717345e+00 4.459140e+00 1.969263e+00 2.812171e+00 2.218804e+00 2.453193e+00 1.493431e+00 2.031199e+00 8.985672e-01
<GCONST> 9.501443e+01
<STATE> 3
<MEAN> 25
 -7.442665e-01 -2.437221e+00 2.789779e-01 3.306357e+00 3.551565e+00 4.576128e-01 -6.809261e-01 1.077405e+00 -1.494069e+00 -1.188262e-01 1.125318e+00 -9.880169e-01 1.026152e-01 -4.298535e-02 1.978827e-01 1.726451e-01 1.190788e-02 2.858162e-01 -2.432632e-01 -3.299369e-02 -4.011984e-01 -2.889249e-02 1.905987e-01 1.189099e-01 -2.755847e-01
<VARIANCE> 25
 1.248267e+01 1.505313e+01 2.105484e+01 1.780333e+01 2.008101e+01 4.909713e+01 3.971980e+01 2.311005e+01 2.099987e+01 2.162333e+01 2.202383e+01 2.029481e+01 4.050303e-01 8.933119e-01 1.055067e+00 1.355380e+00 1.555959e+00 1.811624e+00 1.824530e+00 2.412121e+00 2.177747e+00 2.284214e+00 2.048323e+00 1.482510e+00 2.604172e-01
<GCONST> 8.627467e+01
<STATE> 4
<MEAN> 25
 -1.423203e+00 -3.841002e+00 -3.099937e-01 3.793259e+00 2.713691e+00 2.802459e+00 -1.228711e+00 3.028099e+00 -3.159362e+00 1.370329e+00 9.893230e-01 8.589658e-01 -1.564069e-02 1.642190e-02 -2.024546e-02 3.121612e-02 -1.746840e-02 4.698593e-02 -6.600130e-02 3.558039e-03 -5.774662e-02 -1.762224e-02 -4.137411e-02 3.363299e-03 -7.994512e-02
<VARIANCE> 25
 3.708289e+00 5.608466e+00 6.466334e+00 7.695743e+00 1.031771e+01 1.643479e+01 1.406720e+01 1.339297e+01 1.581197e+01 1.231571e+01 1.061325e+01 1.226833e+01 1.137616e-01 2.338598e-01 3.799631e-01 5.662751e-01 6.904999e-01 9.502642e-01 1.178766e+00 1.127940e+00 1.498443e+00 1.280787e+00 1.156587e+00 1.256609e+00 4.537718e-02
<GCONST> 6.603516e+01
<TRANSP> 5
 0.000000e+00 1.000000e+00 0.000000e+00 0.000000e+00 0.000000e+00
 0.000000e+00 5.474242e-01 4.525758e-01 0.000000e+00 0.000000e+00
 0.000000e+00 0.000000e+00 6.662503e-01 3.337497e-01 0.000000e+00
 0.000000e+00 0.000000e+00 0.000000e+00 9.473247e-01 5.267530e-02
 0.000000e+00 0.000000e+00 0.000000e+00 0.000000e+00 0.000000e+00
<ENDHMM>
~h "f"
<BEGINHMM>
<NUMSTATES> 5
<STATE> 2
<MEAN> 25
 -1.276051e+00 -4.871329e+00 1.026050e+00 4.958320e+00 4.032259e+00 9.557303e-01 -1.033908e-01 4.227582e+00 -2.524736e+00 2.822802e+00 -3.559695e-01 2.896431e-01 -6.058037e-02 -2.911253e-02 -3.926438e-02 6.436174e-02 -9.554788e-04 6.965984e-02 -2.190362e-02 1.040004e-03 -7.900408e-03 -2.415203e-02 -1.667249e-02 -2.354001e-03 -9.994882e-02
<VARIANCE> 25
 2.980727e+00 5.210656e+00 4.531442e+00 9.407390e+00 8.905757e+00 9.732362e+00 1.087803e+01 1.420838e+01 1.513140e+01 1.135250e+01 1.234171e+01 1.156282e+01 1.391234e-01 2.697954e-01 4.014256e-01 6.370993e-01 9.129628e-01 9.746197e-01 1.210163e+00 1.336279e+00 1.491129e+00 1.170960e+00 1.199619e+00 1.226336e+00 5.129355e-02
<GCONST> 6.574309e+01
<STATE> 3
<MEAN> 25
 -1.380288e+01 3.912119e+00 -7.242416e-01 5.845368e+00 1.688824e+00 1.779394e+00 -5.058609e-02 9.207702e-01 3.799584e+00 4.106098e-01 -5.365651e-01 1.249185e+00 -8.563439e-01 4.425650e-01 7.423696e-02 -2.972147e-02 -1.119173e-01 -2.510131e-02 6.647426e-02 -1.661404e-01 2.910446e-01 -1.966883e-01 -2.197016e-01 4.066183e-02 9.627470e-01
<VARIANCE> 25
 5.109568e+01 2.724868e+01 2.209106e+01 2.280290e+01 1.050148e+01 1.613337e+01 1.495440e+01 2.107945e+01 2.489205e+01 1.463758e+01 1.982202e+01 1.476815e+01 1.741045e+00 1.977760e+00 1.530999e+00 1.893633e+00 9.333206e-01 1.466352e+00 1.679923e+00 1.648612e+00 2.269345e+00 1.911643e+00 2.151086e+00 1.312736e+00 1.350967e+00
<GCONST> 8.831048e+01
<STATE> 4
<MEAN> 25
 -3.381123e+00 2.336759e+00 -2.654670e+00 -3.832259e+00 -6.190227e+00 2.622083e+00 5.171019e+00 -3.649840e+00 1.088746e+00 -1.438735e+00 -2.842788e+00 1.754313e+00 3.214286e+00 3.542684e-01 -7.608075e-01 -2.956282e+00 -1.485100e+00 1.306767e+00 -5.507527e-02 -8.259397e-01 -2.487978e-01 -1.831492e+00 -8.792042e-01 3.335949e-01 1.324692e+00
<VARIANCE> 25
 2.264153e+02 3.746997e+01 3.027077e+01 1.129102e+02 1.017141e+02 2.403761e+01 6.894558e+01 6.497348e+01 3.100790e+01 3.549117e+01 2.820382e+01 1.647956e+01 1.664375e+01 2.980717e+00 2.650352e+00 1.224369e+01 5.776692e+00 4.961177e+00 3.823366e+00 5.832658e+00 3.536873e+00 6.277546e+00 4.433940e+00 2.156606e+00 2.380523e+00
<GCONST> 1.125531e+02
<TRANSP> 5
 0.000000e+00 1.000000e+00 0.000000e+00 0.000000e+00 0.000000e+00
 0.000000e+00 9.528735e-01 4.712643e-02 0.000000e+00 0.000000e+00
 0.000000e+00 0.000000e+00 9.185919e-01 8.140812e-02 0.000000e+00
 0.000000e+00 0.000000e+00 0.000000e+00 6.323217e-01 3.676783e-01
 0.000000e+00 0.000000e+00 0.000000e+00 0.000000e+00 0.000000e+00
<ENDHMM>
~h "g"
<BEGINHMM>
<NUMSTATES> 5
<STATE> 2
<MEAN> 25
 -8.119682e-01 -3.872974e+00 -9.119493e-01 2.818778e+00 3.931116e+00 4.767643e+00 -2.081346e+00 1.980204e+00 -2.225465e+00 5.358781e-01 1.844151e+00 7.537552e-01 -5.321156e-03 -2.305218e-04 8.148123e-03 5.375130e-02 -1.905587e-02 5.098715e-02 -1.105857e-02 6.231419e-02 -4.482654e-02 5.212469e-02 -5.470128e-02 5.449112e-03 -9.270055e-02
<VARIANCE> 25
 2.935677e+00 3.640843e+00 4.673224e+00 8.398611e+00 8.126202e+00 1.122281e+01 1.128797e+01 1.343184e+01 1.287285e+01 1.201145e+01 1.156788e+01 1.155702e+01 1.320461e-01 2.491089e-01 3.682977e-01 6.182699e-01 8.480292e-01 1.104771e+00 1.028333e+00 1.209391e+00 1.401634e+00 1.437832e+00 1.167349e+00 1.305339e+00 5.704826e-02
<GCONST> 6.497372e+01
<STATE> 3
<MEAN> 25
 -4.917464e-01 -3.078414e+00 -2.077702e+00 2.958672e+00 2.566771e+00 4.040299e+00 -6.134819e-01 2.813076e+00 -1.329313e+00 1.778800e+00 1.013999e+00 1.232977e+00 -7.325109e-01 -2.360843e-01 4.018641e-01 -1.520185e+00 -1.737063e+00 -2.532152e+00 1.503006e+00 -1.662004e+00 4.489269e-01 -1.518233e+00 -2.058508e+00 -3.705448e-01 4.601357e+00
<VARIANCE> 25
 8.634387e+00 5.171159e+00 5.729089e+00 1.740517e+01 9.585502e+00 3.400344e+01 2.288963e+01 1.940934e+01 8.259758e+00 1.165790e+01 2.153198e+01 1.403355e+01 3.333909e+00 3.992948e+00 3.881711e+00 9.415821e+00 6.990926e+00 1.001498e+01 9.907465e+00 4.768733e+00 2.705374e+00 6.427527e+00 3.597739e+00 3.740788e+00 8.945267e+00
<GCONST> 9.844759e+01
<STATE> 4
<MEAN> 25
 7.268501e-01 -1.302615e+00 2.815354e+00 -7.067219e+00 -5.630384e+00 -8.760446e+00 8.011584e+00 -1.706748e+00 1.281149e+00 -9.802229e-01 -5.725370e+00 -1.262221e+00 2.271215e-01 3.055198e-01 5.108344e-01 -3.632111e-01 -7.016889e-01 -6.271221e-01 8.674130e-02 -2.601288e-02 -6.804308e-02 5.008465e-02 1.830434e-01 -4.088714e-02 1.423907e+00
<VARIANCE> 25
 3.500044e+01 4.250538e+01 7.594364e+01 5.364975e+01 8.131609e+01 6.116943e+01 1.526214e+02 5.299303e+01 4.584497e+01 7.086916e+01 2.872933e+01 2.636926e+01 2.638333e+00 1.764697e+00 4.978223e+00 4.321214e+00 4.669747e+00 4.821218e+00 6.003887e+00 3.776834e+00 3.745267e+00 3.992907e+00 2.566987e+00 2.507743e+00 1.287892e+01
<GCONST> 1.117556e+02
<TRANSP> 5
 0.000000e+00 1.000000e+00 0.000000e+00 0.000000e+00 0.000000e+00
 0.000000e+00 9.778436e-01 2.215635e-02 0.000000e+00 0.000000e+00
 0.000000e+00 0.000000e+00 5.415125e-01 4.584875e-01 0.000000e+00
 0.000000e+00 0.000000e+00 0.000000e+00 9.134388e-01 8.656123e-02
 0.000000e+00 0.000000e+00 0.000000e+00 0.000000e+00 0.000000e+00
<ENDHMM>
~h "k"
<BEGINHMM>
<NUMSTATES> 5
<STATE> 2
<MEAN> 25
 -4.750803e-01 -2.270860e+00 2.117997e-01 2.730664e+00 2.769452e-02 -1.241753e-01 2.142115e-01 2.842613e+00 -2.352482e+00 2.399859e+00 1.067181e-01 5.017271e-01 -1.315135e+00 -9.334005e-01 -1.942500e+00 8.064851e-03 -2.020104e-01 3.635028e-01 -7.609221e-01 5.735030e-01 9.865837e-01 -4.297566e-01 -3.820462e-02 -5.769928e-01 2.592858e+00
<VARIANCE> 25
 2.695820e+01 1.353809e+01 3.000297e+01 3.071219e+01 3.391932e+01 4.848408e+01 5.643093e+01 3.366922e+01 2.149570e+01 1.995185e+01 1.696848e+01 1.700195e+01 5.016811e+00 3.110088e+00 9.699521e+00 5.943551e+00 6.410442e+00 6.742058e+00 7.034940e+00 5.326621e+00 5.295724e+00 4.073079e+00 2.812506e+00 3.744782e+00 6.776659e+00
<GCONST> 1.068843e+02
<STATE> 3
<MEAN> 25
 -4.307115e+00 -5.253766e+00 -9.542831e+00 -4.127236e-01 -8.877679e-01 1.238745e-02 -7.365220e+00 3.663893e+00 4.188261e+00 -4.687005e-01 7.625574e-02 -1.494593e+00 -1.410216e+00 2.428780e-01 -1.665439e+00 -1.349809e+00 -6.937007e-01 -7.440972e-01 -1.126929e+00 -6.891698e-01 1.751916e+00 2.310761e-02 2.956680e-01 4.098751e-01 4.159297e+00
<VARIANCE> 25
 3.830612e+01 3.609235e+01 7.580490e+01 7.129446e+01 1.042635e+02 1.374368e+02 9.350203e+01 7.062127e+01 5.344194e+01 4.683795e+01 3.170887e+01 3.918812e+01 6.036044e+00 4.330882e+00 1.124057e+01 9.055327e+00 8.933331e+00 1.398240e+01 1.056687e+01 8.346505e+00 5.261312e+00 5.618541e+00 3.573070e+00 5.527005e+00 6.997876e+00
<GCONST> 1.205980e+02
<STATE> 4
<MEAN> 25
 -1.867148e+00 8.525030e-01 -2.552154e+00 -4.520748e+00 -4.540109e+00 -4.295682e+00 -1.399873e+00 -2.094679e+00 4.081240e+00 -6.747543e-01 -1.271577e-01 -1.601151e+00 3.085984e-01 5.105761e-01 2.912691e-01 -1.826598e-01 1.074275e-01 2.811137e-01 5.476753e-01 -1.499362e-01 1.097855e-01 -2.569177e-01 -7.398787e-02 -1.708652e-01 1.554675e-01
<VARIANCE> 25
 9.087287e+01 5.257909e+01 6.749103e+01 6.155442e+01 5.574283e+01 9.400345e+01 6.349728e+01 5.761600e+01 6.561905e+01 2.691061e+01 3.474587e+01 2.993837e+01 6.271105e+00 3.108368e+00 4.629375e+00 3.394428e+00 3.322866e+00 4.011647e+00 4.248974e+00 3.960725e+00 4.182662e+00 3.469542e+00 3.907543e+00 2.848626e+00 2.591568e+00
<GCONST> 1.111178e+02
<TRANSP> 5
 0.000000e+00 1.000000e+00 0.000000e+00 0.000000e+00 0.000000e+00
 0.000000e+00 4.109285e-01 5.890716e-01 0.000000e+00 0.000000e+00
 0.000000e+00 0.000000e+00 5.106640e-01 4.893360e-01 0.000000e+00
 0.000000e+00 0.000000e+00 0.000000e+00 8.267195e-01 1.732805e-01
 0.000000e+00 0.000000e+00 0.000000e+00 0.000000e+00 0.000000e+00
<ENDHMM>
~h "l"
<BEGINHMM>
<NUMSTATES> 5
<STATE> 2
<MEAN> 25
 6.411503e+00 1.793340e+00 -2.012776e+00 -5.057332e+00 -5.367730e+00 -9.961322e-01 -4.068101e+00 -6.248929e+00 6.809101e+00 -1.050479e+00 -2.444074e+00 -4.875190e+00 1.591256e-01 7.415789e-02 -2.233533e-01 -9.279668e-01 -3.914912e-01 1.156403e-01 -1.725144e-02 -2.022594e-01 2.201081e-01 -2.401595e-02 3.356864e-01 4.687019e-01 5.618336e-01
<VARIANCE> 25
 2.750478e+01 3.964909e+01 7.054873e+01 9.945435e+01 7.346658e+01 8.351309e+01 1.089197e+02 9.839553e+01 6.515800e+01 5.233392e+01 4.632168e+01 4.836435e+01 2.597809e+00 2.538054e+00 4.052240e+00 5.715471e+00 6.243948e+00 7.470933e+00 6.723403e+00 7.076026e+00 4.513337e+00 4.816130e+00 4.587579e+00 4.740445e+00 2.863048e+00
<GCONST> 1.155914e+02
<STATE> 3
<MEAN> 25
 1.011038e+01 5.529119e+00 -5.172767e+00 -1.779369e+01 -7.020151e+00 3.271473e+00 -2.904593e-01 -6.708378e+00 5.030799e+00 -2.193621e+00 -6.192141e-01 3.636890e+00 2.003506e-01 8.825225e-02 3.493664e-01 4.933113e-01 -6.743824e-02 -4.065580e-01 2.512239e-01 7.898706e-01 -6.487851e-01 2.942468e-02 2.252934e-01 4.066098e-01 -1.284471e+00
<VARIANCE> 25
 2.367883e+01 2.772931e+01 4.575888e+01 8.798925e+01 4.305049e+01 6.602756e+01 4.922195e+01 6.430170e+01 3.215183e+01 4.160632e+01 3.266385e+01 4.629647e+01 7.659397e-01 1.329245e+00 1.195382e+00 3.438695e+00 2.127134e+00 2.478363e+00 3.154415e+00 3.618450e+00 2.315625e+00 2.993837e+00 2.065067e+00 2.789455e+00 5.040346e-01
<GCONST> 9.979791e+01
<STATE> 4
<MEAN> 25
 4.010501e+00 3.618461e-01 -1.338680e+00 -4.064164e+00 -2.172723e+00 -9.263877e-01 2.730392e+00 2.671486e+00 1.810453e+00 9.216604e-01 2.267555e+00 1.314139e+00 -9.439806e-01 -4.862945e-01 3.211587e-01 9.831948e-01 6.674568e-01 1.764207e-01 -5.259671e-02 1.319709e-01 -1.318527e-01 1.784563e-01 -4.283006e-02 -2.067209e-01 -7.155317e-01
<VARIANCE> 25
 3.008146e+01 2.223187e+01 2.081195e+01 5.076524e+01 4.704185e+01 3.472380e+01 3.092741e+01 3.793081e+01 2.839799e+01 2.405325e+01 2.045970e+01 2.095111e+01 6.109354e-01 8.613266e-01 1.011990e+00 1.700929e+00 1.716685e+00 1.747325e+00 1.767149e+00 2.224440e+00 1.721694e+00 1.727268e+00 1.553247e+00 1.513305e+00 2.566588e-01
<GCONST> 8.942108e+01
<TRANSP> 5
 0.000000e+00 1.000000e+00 0.000000e+00 0.000000e+00 0.000000e+00
 0.000000e+00 7.857842e-01 2.142157e-01 0.000000e+00 0.000000e+00
 0.000000e+00 0.000000e+00 8.009420e-01 1.990580e-01 0.000000e+00
 0.000000e+00 0.000000e+00 0.000000e+00 7.949765e-01 2.050234e-01
 0.000000e+00 0.000000e+00 0.000000e+00 0.000000e+00 0.000000e+00
<ENDHMM>
~h "m"
<BEGINHMM>
<NUMSTATES> 5
<STATE> 2
<MEAN> 25
 5.919721e+00 2.232823e+00 1.279082e+00 5.901088e-01 9.105321e-01 -1.912469e+00 -4.169166e-01 -3.543178e+00 1.321362e-01 5.760405e-01 3.127064e+00 -3.660364e+00 1.379458e+00 1.182148e+00 1.292581e+00 6.636822e-01 8.725451e-01 -5.654680e-01 4.662782e-01 -1.713081e+00 -1.331169e+00 -5.830467e-03 3.341454e-01 -1.184169e+00 -1.442434e-01
<VARIANCE> 25
 4.242732e+01 2.639704e+01 4.235866e+01 4.070322e+01 2.242579e+01 5.464247e+01 4.352124e+01 5.658251e+01 4.644951e+01 3.837348e+01 2.476139e+01 5.885399e+01 4.409764e+00 4.844425e+00 5.309100e+00 2.158128e+00 3.907273e+00 3.724540e+00 3.850224e+00 4.021008e+00 2.382514e+00 2.031892e+00 3.026048e+00 2.326921e+00 2.979193e+00
<GCONST> 1.056488e+02
<STATE> 3
<MEAN> 25
 1.127522e+01 5.102702e+00 5.880126e+00 3.795544e+00 3.167864e+00 -5.113582e+00 2.470787e+00 -8.310526e+00 -1.962880e+00 2.656174e-02 3.846734e+00 -8.943097e+00 3.130563e-01 4.581992e-01 4.022672e-01 4.414094e-01 -1.858307e-01 2.364909e-01 1.830729e-01 1.679634e-02 -3.046642e-01 -3.083399e-01 -1.989993e-01 8.414994e-02 -6.583894e-01
<VARIANCE> 25
 2.245791e+01 1.808072e+01 2.183721e+01 2.025543e+01 1.827645e+01 3.220067e+01 4.992973e+01 4.830405e+01 3.027806e+01 4.515891e+01 2.861262e+01 5.476054e+01 2.750037e+00 2.581177e+00 2.553695e+00 1.521895e+00 1.866166e+00 2.286461e+00 4.210175e+00 5.830508e+00 3.258194e+00 2.821261e+00 2.424901e+00 4.930720e+00 2.583465e+00
<GCONST> 1.004062e+02
<STATE> 4
<MEAN> 25
 5.240662e+00 3.369037e+00 5.472600e+00 2.154502e+00 -4.531632e+00 -5.382869e+00 -9.841468e-01 -4.165693e+00 -2.081581e-02 -1.559028e+00 -1.228892e+00 -4.741836e+00 -3.221718e-01 -3.591795e-01 -2.041936e-01 -3.256341e-01 -5.315908e-01 -1.109905e-01 -2.260868e-01 5.296858e-01 4.589798e-01 -1.932622e-01 -1.019943e-01 1.853161e-01 8.845466e-01
<VARIANCE> 25
 7.169282e+01 5.653190e+01 8.073415e+01 3.956390e+01 7.454289e+01 5.471269e+01 8.725298e+01 6.601595e+01 6.245889e+01 6.606813e+01 4.071115e+01 8.475420e+01 5.802709e+00 3.111399e+00 4.534204e+00 2.513954e+00 6.279702e+00 4.835590e+00 5.261478e+00 7.343099e+00 4.071213e+00 4.543940e+00 3.404078e+00 5.945665e+00 4.540002e+00
<GCONST> 1.155995e+02
<TRANSP> 5
 0.000000e+00 1.000000e+00 0.000000e+00 0.000000e+00 0.000000e+00
 0.000000e+00 2.381845e-01 7.618155e-01 0.000000e+00 0.000000e+00
 0.000000e+00 0.000000e+00 6.988528e-01 3.011472e-01 0.000000e+00
 0.000000e+00 0.000000e+00 0.000000e+00 8.839319e-01 1.160680e-01
 0.000000e+00 0.000000e+00 0.000000e+00 0.000000e+00 0.000000e+00
<ENDHMM>
~h "n"
<BEGINHMM>
<NUMSTATES> 5
<STATE> 2
<MEAN> 25
 4.088263e+00 1.134696e+00 3.915761e+00 2.710418e+00 2.200037e+00 -2.042703e+00 2.053742e-01 1.758036e+00 -2.204521e-01 1.409811e+00 1.728991e-01 1.573875e+00 -9.362400e-01 -1.057101e+00 -1.607041e-01 5.171634e-01 9.015514e-01 7.846580e-01 -3.660930e-03 1.997864e-01 -4.463170e-01 -1.599020e-01 3.786535e-01 2.375558e-01 -8.723378e-01
<VARIANCE> 25
 1.818522e+01 2.675631e+01 1.517195e+01 2.276718e+01 2.864555e+01 1.945866e+01 2.028034e+01 2.442519e+01 1.968251e+01 1.909900e+01 1.934389e+01 1.351302e+01 8.674566e-01 9.206719e-01 1.430469e+00 1.554747e+00 2.072016e+00 1.407236e+00 1.946851e+00 2.045828e+00 1.863098e+00 1.539476e+00 1.878138e+00 1.497501e+00 1.634745e-01
<GCONST> 8.530635e+01
<STATE> 3
<MEAN> 25
 -3.970900e-01 -3.679470e+00 1.315128e+00 4.466548e+00 4.900829e+00 2.595318e+00 4.390693e-01 2.848041e+00 -2.098325e+00 1.127055e+00 7.235256e-01 1.439819e+00 -4.760033e-02 -1.795075e-02 -5.683206e-02 3.089605e-02 -3.794865e-02 6.253207e-02 -3.919000e-02 3.800582e-03 -6.324441e-02 5.242072e-03 6.908307e-03 3.910330e-03 -1.240522e-01
<VARIANCE> 25
 2.363167e+00 5.864965e+00 6.372063e+00 1.115295e+01 1.138210e+01 1.276590e+01 1.327773e+01 1.726716e+01 1.691671e+01 1.779074e+01 1.163674e+01 1.117586e+01 1.118964e-01 2.391743e-01 3.710979e-01 5.891464e-01 7.802762e-01 9.217096e-01 1.025094e+00 1.292461e+00 1.284568e+00 1.267603e+00 1.127812e+00 1.121282e+00 3.540386e-02
<GCONST> 6.602013e+01
<STATE> 4
<MEAN> 25
 -2.333357e+00 -4.364967e+00 -9.280869e-01 3.261389e+00 2.425072e+00 1.705811e+00 -1.062525e+00 3.136338e+00 -3.123405e+00 1.292504e+00 2.459411e-01 8.211856e-01 -5.045289e-02 4.691823e-02 -4.035326e-02 1.614059e-02 -3.249196e-02 4.571578e-02 -1.659056e-03 6.170212e-02 2.063248e-02 3.146129e-02 5.481190e-03 -1.914772e-02 -7.683324e-02
<VARIANCE> 25
 4.384643e+00 7.180358e+00 7.137292e+00 1.011862e+01 1.278563e+01 1.613308e+01 1.384679e+01 1.640157e+01 1.440947e+01 1.456689e+01 1.370264e+01 1.307305e+01 2.682792e-01 4.084719e-01 5.801796e-01 8.061870e-01 1.119708e+00 1.268742e+00 1.301068e+00 1.661199e+00 1.257249e+00 1.549880e+00 1.337216e+00 1.210752e+00 8.617600e-02
<GCONST> 7.181396e+01
<TRANSP> 5
 0.000000e+00 1.000000e+00 0.000000e+00 0.000000e+00 0.000000e+00
 0.000000e+00 7.242314e-01 2.757685e-01 0.000000e+00 0.000000e+00
 0.000000e+00 0.000000e+00 9.483245e-01 5.167547e-02 0.000000e+00
 0.000000e+00 0.000000e+00 0.000000e+00 8.976525e-01 1.023475e-01
 0.000000e+00 0.000000e+00 0.000000e+00 0.000000e+00 0.000000e+00
<ENDHMM>
~h "p"
<BEGINHMM>
<NUMSTATES> 5
<STATE> 2
<MEAN> 25
 -3.594957e-01 -2.734002e+00 -3.879704e+00 -3.133640e+00 -4.928043e+00 -3.480988e+00 -2.230296e-01 2.298835e+00 5.321050e+00 -1.804509e+00 -2.409576e-01 -2.356608e+00 -1.156075e+00 -7.731255e-01 7.959664e-01 9.879467e-02 -6.831633e-01 -2.137605e-01 5.086364e-01 1.120483e+00 1.654183e-01 -6.337732e-02 -1.208916e-01 4.617750e-01 9.167073e-01
<VARIANCE> 25
 4.791911e+01 2.069346e+01 3.366307e+01 4.000649e+01 4.705592e+01 3.860221e+01 6.135390e+01 3.854831e+01 3.720351e+01 2.642595e+01 3.035552e+01 3.497961e+01 4.494967e+00 3.029254e+00 3.409290e+00 4.853252e+00 4.653559e+00 3.448564e+00 6.542648e+00 6.001514e+00 3.378140e+00 1.773723e+00 2.428272e+00 2.297719e+00 3.787952e+00
<GCONST> 1.058881e+02
<STATE> 3
<MEAN> 25
 7.615689e-01 -3.145178e+00 -4.914822e-01 -3.022360e+00 -2.901951e+00 -2.205735e+00 1.379686e+00 2.956520e+00 1.326584e+00 7.561445e-01 1.168018e+00 6.693679e-01 -5.765759e-01 1.308521e-01 8.957408e-01 7.737939e-01 6.520106e-01 4.801316e-01 -2.843093e-01 -5.389785e-01 -8.600800e-01 1.532448e-01 2.450369e-01 4.919602e-01 -5.944349e-01
<VARIANCE> 25
 1.488719e+01 1.085452e+01 1.326405e+01 3.006650e+01 4.782300e+01 4.465960e+01 4.533255e+01 2.361389e+01 2.673737e+01 2.757036e+01 1.928109e+01 1.749417e+01 1.041964e+00 7.038477e-01 1.451850e+00 1.786870e+00 1.386553e+00 2.075325e+00 2.710539e+00 2.596030e+00 2.233263e+00 1.618977e+00 1.999349e+00 1.828014e+00 3.675574e-01
<GCONST> 8.931844e+01
<STATE> 4
<MEAN> 25
 -1.711997e+00 -4.221898e+00 -2.995677e-01 2.888795e+00 1.597788e+00 2.716900e+00 -1.911243e+00 1.959171e+00 -3.426845e+00 4.209035e-01 1.196340e+00 1.628859e+00 -3.504823e-02 2.660561e-02 -1.179445e-02 4.862754e-02 -3.747947e-02 8.594247e-02 -6.512064e-02 2.518314e-02 -4.401676e-02 2.867956e-02 -3.445353e-02 1.179749e-02 -1.089548e-01
<VARIANCE> 25
 2.209147e+00 3.983571e+00 5.895875e+00 9.712722e+00 1.041759e+01 1.613282e+01 1.356119e+01 1.383204e+01 1.640479e+01 1.124199e+01 1.027839e+01 1.170619e+01 1.217482e-01 2.405508e-01 4.070734e-01 6.864570e-01 8.769264e-01 9.868811e-01 1.154241e+00 1.558111e+00 1.619229e+00 1.222269e+00 1.101619e+00 1.131296e+00 4.242481e-02
<GCONST> 6.591491e+01
<TRANSP> 5
 0.000000e+00 1.000000e+00 0.000000e+00 0.000000e+00 0.000000e+00
 0.000000e+00 4.975717e-01 5.024283e-01 0.000000e+00 0.000000e+00
 0.000000e+00 0.000000e+00 5.934101e-01 4.065898e-01 0.000000e+00
 0.000000e+00 0.000000e+00 0.000000e+00 9.612774e-01 3.872267e-02
 0.000000e+00 0.000000e+00 0.000000e+00 0.000000e+00 0.000000e+00
<ENDHMM>
~h "r"
<BEGINHMM>
<NUMSTATES> 5
<STATE> 2
<MEAN> 25
 -2.895386e+00 1.306734e-01 -4.701948e+00 -2.592891e+00 -2.500467e+00 -8.667214e-02 1.593863e+00 -4.544550e-01 6.214603e+00 -4.093805e-01 2.098451e-01 -2.297662e+00 -2.028891e-01 -2.147857e-02 -2.752900e-01 5.381806e-01 1.140317e-01 8.821134e-04 -6.162998e-02 -4.755916e-01 2.520437e-01 1.834553e-01 1.853530e-01 -1.713622e-01 3.762647e-01
<VARIANCE> 25
 1.089138e+02 4.296063e+01 4.963511e+01 8.324071e+01 4.634100e+01 5.388269e+01 3.461861e+01 5.187322e+01 5.912901e+01 3.263094e+01 1.965806e+01 5.535682e+01 3.216113e+00 2.693855e+00 3.458524e+00 3.094051e+00 2.007671e+00 3.617033e+00 2.782528e+00 5.256244e+00 2.573547e+00 3.766166e+00 2.712118e+00 2.514655e+00 3.274088e+00
<GCONST> 1.071696e+02
<STATE> 3
<MEAN> 25
 5.902996e+00 2.883588e-01 -2.486124e+00 4.570932e+00 -2.296946e+00 -7.632291e-01 -2.708957e+00 -4.340262e+00 4.788670e+00 -1.117933e+00 4.775462e-01 -1.664495e+00 1.646306e+00 5.029315e-02 -5.110192e-01 1.740469e+00 7.694247e-02 -1.176848e+00 -1.089399e+00 -6.034911e-01 6.671803e-01 -9.067042e-01 3.565319e-01 9.202571e-02 7.799869e-01
<VARIANCE> 25
 1.020333e+02 4.839693e+01 7.416322e+01 7.946674e+01 5.928395e+01 7.317177e+01 9.326474e+01 6.311258e+01 6.205212e+01 5.137167e+01 5.356807e+01 2.778712e+01 8.315803e+00 6.168294e+00 5.772779e+00 4.928379e+00 5.710528e+00 6.991602e+00 6.242214e+00 5.543026e+00 4.901669e+00 4.184612e+00 4.161821e+00 3.733265e+00 4.452835e+00
<GCONST> 1.173357e+02
<STATE> 4
<MEAN> 25
 9.725552e+00 7.702481e-01 -2.114967e+00 6.029596e+00 -7.782855e+00 -7.619503e+00 -4.936511e+00 -8.559586e+00 5.483150e+00 -4.492885e+00 4.562316e+00 -4.265956e-01 -4.176280e-02 -9.321599e-02 5.224931e-01 -3.634885e-01 -3.391613e-01 -1.028903e-01 1.740840e-02 1.051456e-01 -6.394489e-01 1.455200e-01 5.074025e-02 2.491780e-01 -2.139636e-01
<VARIANCE> 25
 6.631990e+01 8.026302e+01 1.275564e+02 6.270197e+01 5.000652e+01 6.826461e+01 5.444677e+01 9.594126e+01 7.130411e+01 4.000834e+01 5.788087e+01 3.261961e+01 1.637521e+00 2.058861e+00 3.687831e+00 3.516077e+00 4.444579e+00 4.428445e+00 3.640785e+00 3.801369e+00 4.145127e+00 4.253391e+00 3.724044e+00 2.937164e+00 1.578121e+00
<GCONST> 1.108127e+02
<TRANSP> 5
 0.000000e+00 1.000000e+00 0.000000e+00 0.000000e+00 0.000000e+00
 0.000000e+00 7.586260e-01 2.413739e-01 0.000000e+00 0.000000e+00
 0.000000e+00 0.000000e+00 6.822960e-01 3.177041e-01 0.000000e+00
 0.000000e+00 0.000000e+00 0.000000e+00 8.450499e-01 1.549502e-01
 0.000000e+00 0.000000e+00 0.000000e+00 0.000000e+00 0.000000e+00
<ENDHMM>
~h "s"
<BEGINHMM>
<NUMSTATES> 5
<STATE> 2
<MEAN> 25
 -7.933400e+00 7.459742e+00 -1.804567e+00 1.837584e+00 4.967581e+00 -4.212248e+00 1.805987e+00 1.269795e+00 6.588444e-01 1.974310e-01 1.361022e+00 1.318514e+00 -2.803066e+00 3.482000e+00 -1.158875e+00 -8.307971e-01 1.560478e+00 -9.788135e-01 6.954240e-01 -3.350421e-01 5.494776e-01 -2.890302e-02 6.390790e-01 -8.954925e-03 2.112219e+00
<VARIANCE> 25
 6.348333e+01 7.547576e+01 3.514101e+01 4.121460e+01 6.076926e+01 4.777510e+01 3.472365e+01 3.688991e+01 3.823393e+01 2.835231e+01 2.228298e+01 1.926407e+01 2.997277e+00 3.565490e+00 2.845181e+00 3.376600e+00 2.963753e+00 4.663987e+00 3.082327e+00 2.722609e+00 2.866654e+00 2.500624e+00 2.273255e+00 1.889805e+00 3.816392e+00
<GCONST> 1.040309e+02
<STATE> 3
<MEAN> 25
 -1.752903e+01 1.834020e+01 -5.947039e+00 -1.274783e+00 1.054926e+01 -5.838800e+00 3.327392e+00 1.587684e+00 5.768418e-01 2.800773e+00 1.530819e+00 1.656004e+00 -1.347307e-01 2.932125e-01 -5.257825e-01 6.317181e-01 -3.507137e-01 3.434617e-01 1.641767e-01 -2.937159e-01 1.574287e-01 1.623324e-02 -7.823306e-02 -8.992871e-02 4.245183e-01
<VARIANCE> 25
 2.150907e+01 2.030915e+01 1.617386e+01 2.635796e+01 2.152769e+01 1.712501e+01 1.770605e+01 2.284834e+01 1.666590e+01 1.214906e+01 9.811069e+00 7.986191e+00 1.248384e+00 1.552835e+00 7.655932e-01 1.049735e+00 1.261923e+00 1.171143e+00 1.124892e+00 1.203262e+00 1.117390e+00 9.413072e-01 7.811490e-01 6.929306e-01 1.680438e+00
<GCONST> 8.075858e+01
<STATE> 4
<MEAN> 25
 -1.411550e+01 1.456981e+01 -9.046743e+00 7.451577e+00 2.911480e+00 -1.083973e+00 3.582795e+00 -1.538396e+00 2.911718e+00 5.538079e-01 1.909543e+00 1.136852e+00 4.312764e-01 -1.000739e+00 3.573751e-01 1.960350e-01 -2.624615e-01 3.926661e-01 -9.339646e-02 1.122631e-02 -1.065473e-01 -1.406247e-01 -2.077368e-01 1.774877e-02 -6.095583e-01
<VARIANCE> 25
 2.331688e+01 4.573704e+01 1.634850e+01 1.794826e+01 1.624750e+01 2.169225e+01 1.285732e+01 1.400563e+01 1.397639e+01 1.196665e+01 1.297020e+01 1.004202e+01 1.212366e+00 1.233605e+00 9.377377e-01 1.182330e+00 1.020252e+00 1.410180e+00 1.119556e+00 1.120267e+00 1.193206e+00 1.331808e+00 1.202580e+00 8.336333e-01 1.069388e+00
<GCONST> 8.127658e+01
<TRANSP> 5
 0.000000e+00 1.000000e+00 0.000000e+00 0.000000e+00 0.000000e+00
 0.000000e+00 7.302466e-01 2.697534e-01 0.000000e+00 0.000000e+00
 0.000000e+00 0.000000e+00 8.041564e-01 1.958437e-01 0.000000e+00
 0.000000e+00 0.000000e+00 0.000000e+00 8.851107e-01 1.148893e-01
 0.000000e+00 0.000000e+00 0.000000e+00 0.000000e+00 0.000000e+00
<ENDHMM>
~h "t"
<BEGINHMM>
<NUMSTATES> 5
<STATE> 2
<MEAN> 25
 -4.203159e+00 6.064003e+00 -2.986192e+00 -5.473174e-01 -2.366434e+00 -5.277693e+00 -7.689030e-01 -1.527684e+00 2.602545e+00 1.499590e+00 -5.868998e-01 1.573543e+00 -2.664247e+00 1.301112e+00 -6.865888e-01 1.125144e-01 8.146179e-01 1.720450e-01 5.244203e-01 4.145538e-01 6.719927e-01 -4.063831e-01 -6.602985e-03 3.932711e-01 1.136657e+00
<VARIANCE> 25
 7.968761e+01 5.727273e+01 5.290342e+01 4.537513e+01 5.755220e+01 5.685112e+01 6.492331e+01 5.576775e+01 3.668775e+01 3.873276e+01 3.637671e+01 2.881465e+01 7.126482e+00 6.935957e+00 4.780674e+00 4.073936e+00 5.009158e+00 6.060620e+00 5.448751e+00 5.858743e+00 4.470158e+00 3.794373e+00 3.476059e+00 2.607218e+00 3.453382e+00
<GCONST> 1.126784e+02
<STATE> 3
<MEAN> 25
 -1.408169e+01 1.064006e+01 -4.132553e+00 -1.866989e+00 6.512827e+00 -4.751508e+00 3.116256e+00 2.716581e+00 2.294714e+00 -3.456206e-01 1.199158e+00 2.362206e+00 5.723346e-01 -1.093252e+00 3.243868e-01 5.159731e-02 3.069695e-01 -1.620753e-01 7.079116e-02 -2.392757e-02 -1.512805e-01 -1.574453e-01 4.640913e-02 -5.814115e-02 -9.735875e-01
<VARIANCE> 25
 2.280565e+01 4.749203e+01 2.544213e+01 3.265714e+01 3.847601e+01 3.299350e+01 2.868284e+01 3.085595e+01 2.424837e+01 2.128581e+01 1.536193e+01 1.617565e+01 1.376432e+00 1.590909e+00 1.421822e+00 1.595853e+00 1.426170e+00 1.670001e+00 1.686923e+00 2.713521e+00 1.742410e+00 1.392357e+00 1.625889e+00 1.475778e+00 9.635745e-01
<GCONST> 9.106725e+01
<STATE> 4
<MEAN> 25
 -5.075975e+00 2.214901e-01 -1.023208e+00 1.899243e+00 4.830777e+00 -1.953078e+00 2.994032e+00 -3.047522e-01 5.209054e-02 -2.037440e-01 1.115949e+00 1.203875e+00 9.500015e-01 -9.259737e-01 5.393201e-01 1.865072e-01 -2.748777e-01 7.469152e-01 -3.006810e-01 1.090568e-01 -3.000037e-01 1.004858e-01 -2.513137e-01 -5.727015e-02 -6.046011e-01
<VARIANCE> 25
 1.569602e+01 1.606335e+01 1.893268e+01 2.233625e+01 2.143134e+01 2.614226e+01 2.381721e+01 2.386066e+01 2.291715e+01 1.900157e+01 1.913892e+01 1.700645e+01 8.527914e-01 1.049437e+00 9.915256e-01 1.318851e+00 1.508703e+00 1.492010e+00 2.243036e+00 2.077579e+00 1.725671e+00 1.590952e+00 1.699585e+00 2.009819e+00 3.791150e-01
<GCONST> 8.583287e+01
<TRANSP> 5
 0.000000e+00 1.000000e+00 0.000000e+00 0.000000e+00 0.000000e+00
 0.000000e+00 7.515649e-01 2.484351e-01 0.000000e+00 0.000000e+00
 0.000000e+00 0.000000e+00 7.926220e-01 2.073780e-01 0.000000e+00
 0.000000e+00 0.000000e+00 0.000000e+00 7.108338e-01 2.891663e-01
 0.000000e+00 0.000000e+00 0.000000e+00 0.000000e+00 0.000000e+00
<ENDHMM>
~h "v"
<BEGINHMM>
<NUMSTATES> 5
<STATE> 2
<MEAN> 25
 8.617342e+00 3.873104e-01 1.931446e+00 9.857453e-01 -3.388165e+00 -7.893955e+00 -4.806578e+00 -7.032502e-01 2.466550e+00 1.453358e+00 -1.252836e+00 -4.286808e+00 -2.436052e-01 2.356488e-01 2.130412e-01 2.535712e-01 1.123008e+00 1.053107e+00 9.765893e-03 2.698323e-01 -1.191646e-01 2.101142e-01 6.274989e-02 5.417771e-02 -1.231257e+00
<VARIANCE> 25
 2.436303e+01 1.828916e+01 3.568025e+01 2.161172e+01 2.709478e+01 3.975837e+01 3.156350e+01 3.084197e+01 3.280540e+01 3.621571e+01 2.030723e+01 2.620462e+01 1.363985e+00 1.327283e+00 1.282788e+00 1.193387e+00 2.514600e+00 1.512934e+00 2.130213e+00 2.931205e+00 2.188563e+00 2.397285e+00 1.038490e+00 1.918007e+00 3.323099e-01
<GCONST> 9.134630e+01
<STATE> 3
<MEAN> 25
 4.274376e+00 7.310379e-01 4.519614e+00 4.298225e+00 2.796132e+00 -2.398325e+00 -2.986730e+00 -1.952721e+00 -6.229734e-01 1.002836e+00 1.423781e+00 3.386851e-01 -1.116100e+00 -1.162733e+00 -5.585138e-01 1.754922e-01 1.128685e+00 1.347712e+00 9.952729e-01 3.308492e-01 -8.543466e-02 1.582788e-01 2.086443e-01 9.130434e-02 -7.894989e-01
<VARIANCE> 25
 2.207757e+01 1.468946e+01 1.765817e+01 2.399580e+01 2.054007e+01 2.925437e+01 3.507325e+01 3.411641e+01 2.635917e+01 2.819825e+01 1.925710e+01 1.611514e+01 6.673558e-01 5.523279e-01 1.026830e+00 1.387556e+00 1.071613e+00 1.792850e+00 2.333772e+00 2.710184e+00 1.692546e+00 1.833652e+00 1.824791e+00 9.968184e-01 1.421462e-01
<GCONST> 8.524541e+01
<STATE> 4
<MEAN> 25
 -2.483177e+00 -2.670604e+00 1.681200e+00 4.226291e+00 5.572889e+00 2.391949e+00 2.592095e+00 1.516813e+00 -4.961427e-01 6.754884e-01 1.241250e+00 1.106169e+00 -6.475758e-02 -3.839472e-02 -2.173681e-02 2.366617e-02 7.570613e-03 1.654852e-02 -4.023343e-02 2.244823e-02 -2.199699e-02 4.301926e-02 -4.733359e-02 1.935887e-04 -1.093348e-01
<VARIANCE> 25
 1.023947e+01 5.538604e+00 7.473128e+00 1.456478e+01 1.174068e+01 1.845925e+01 1.762186e+01 1.795150e+01 1.615812e+01 2.327438e+01 1.345090e+01 1.239196e+01 1.481660e-01 2.492170e-01 4.541743e-01 6.961230e-01 7.884889e-01 1.140540e+00 1.371071e+00 1.561740e+00 1.254460e+00 1.376887e+00 1.386695e+00 1.149405e+00 5.658806e-02
<GCONST> 7.120178e+01
<TRANSP> 5
 0.000000e+00 1.000000e+00 0.000000e+00 0.000000e+00 0.000000e+00
 0.000000e+00 6.820563e-01 3.179438e-01 0.000000e+00 0.000000e+00
 0.000000e+00 0.000000e+00 5.992820e-01 4.007180e-01 0.000000e+00
 0.000000e+00 0.000000e+00 0.000000e+00 9.408168e-01 5.918327e-02
 0.000000e+00 0.000000e+00 0.000000e+00 0.000000e+00 0.000000e+00
<ENDHMM>
~h "w"
<BEGINHMM>
<NUMSTATES> 5
<STATE> 2
<MEAN> 25
 1.082145e+01 8.136001e+00 2.959927e+00 -2.598946e+00 -4.829017e+00 3.932442e-01 -2.180537e+00 -4.967087e-01 -3.504841e+00 -3.929096e+00 -1.036339e+00 1.818252e+00 1.367806e+00 1.099878e+00 2.542464e-02 -1.705166e+00 -1.380038e+00 6.758959e-01 2.993841e-01 -1.074499e+00 1.167114e-01 -1.120445e+00 -2.397756e-01 2.864811e-01 1.050181e+00
<VARIANCE> 25
 8.440010e+01 4.590093e+01 2.838877e+01 7.249256e+01 4.459801e+01 5.550570e+01 3.758753e+01 3.939177e+01 2.687185e+01 4.180189e+01 2.678774e+01 1.548458e+01 5.412217e+00 4.855038e+00 2.829151e+00 4.007941e+00 3.804120e+00 7.258882e+00 3.409567e+00 4.299471e+00 3.733299e+00 3.217140e+00 2.280961e+00 1.826406e+00 2.350660e+00
<GCONST> 1.064724e+02
<STATE> 3
<MEAN> 25
 1.181335e+01 7.202577e+00 -3.035636e+00 -2.068753e+01 -9.139889e+00 1.094658e+01 -3.989273e-01 -1.440118e+01 7.453174e+00 -6.048224e+00 8.547096e-01 1.110841e+00 -1.239574e+00 -1.671294e+00 -1.111812e+00 -6.973431e-01 1.383548e+00 -5.697839e-01 4.279498e-01 -4.994427e-01 2.135513e+00 1.831761e+00 1.048711e-01 -1.632216e+00 2.336898e+00
<VARIANCE> 25
 3.203339e+01 3.288678e+01 2.861956e+01 1.066318e+02 5.636612e+01 6.080262e+01 6.804860e+01 7.479226e+01 9.339863e+01 1.544012e+02 3.519903e+01 6.101423e+01 1.210154e+00 3.023396e+00 2.210743e+00 8.056548e+00 5.182787e+00 1.070150e+01 6.770310e+00 1.265004e+01 6.252523e+00 1.023547e+01 5.199546e+00 5.896255e+00 2.560127e+00
<GCONST> 1.160179e+02
<STATE> 4
<MEAN> 25
 5.792025e+00 -3.025531e+00 -9.923825e+00 -1.634728e+01 5.580450e+00 5.205540e+00 5.575601e+00 -9.015033e+00 6.166750e+00 3.557861e-03 6.816820e-01 -6.345510e+00 -2.336771e-01 -7.220047e-01 -3.122050e-01 1.469167e+00 1.849865e-01 -1.553847e+00 3.940032e-01 1.060441e+00 -9.218003e-01 3.819977e-01 -6.270158e-01 -8.533015e-01 7.014985e-02
<VARIANCE> 25
 2.599891e+01 1.870797e+01 1.641335e+01 6.139640e+01 1.213399e+02 8.631545e+01 6.673113e+01 3.356186e+01 4.404601e+01 3.157836e+01 4.674258e+01 4.493414e+01 6.497712e-01 9.051862e-01 9.135854e-01 3.047312e+00 2.800100e+00 2.912401e+00 2.678376e+00 3.100625e+00 2.142232e+00 3.143080e+00 2.126814e+00 3.062970e+00 7.216992e-01
<GCONST> 9.907109e+01
<TRANSP> 5
 0.000000e+00 1.000000e+00 0.000000e+00 0.000000e+00 0.000000e+00
 0.000000e+00 8.602251e-01 1.397749e-01 0.000000e+00 0.000000e+00
 0.000000e+00 0.000000e+00 7.955375e-01 2.044625e-01 0.000000e+00
 0.000000e+00 0.000000e+00 0.000000e+00 8.007536e-01 1.992464e-01
 0.000000e+00 0.000000e+00 0.000000e+00 0.000000e+00 0.000000e+00
<ENDHMM>
~h "y"
<BEGINHMM>
<NUMSTATES> 5
<STATE> 2
<MEAN> 25
 -2.271557e+00 -2.280001e+00 6.297080e-02 2.634411e+00 4.393867e+00 3.397895e+00 1.165647e+00 3.358894e+00 -2.060421e+00 3.692012e-01 -1.095210e-02 2.041180e+00 -1.803576e-02 2.438491e-02 -8.004318e-03 4.283853e-02 1.262578e-02 7.254300e-02 -3.206398e-04 -2.061036e-03 -1.418494e-02 3.289706e-02 -2.939886e-02 2.579410e-02 -7.759486e-02
<VARIANCE> 25
 3.632592e+00 3.587754e+00 4.352682e+00 8.425784e+00 1.103850e+01 1.743639e+01 1.486492e+01 1.690168e+01 1.260866e+01 1.412863e+01 1.144686e+01 9.617755e+00 9.611194e-02 2.543730e-01 3.715916e-01 5.524722e-01 8.564157e-01 1.091373e+00 1.155488e+00 1.412353e+00 1.360386e+00 1.265907e+00 1.137834e+00 9.854313e-01 4.402949e-02
<GCONST> 6.544959e+01
<STATE> 3
<MEAN> 25
 -2.561764e+00 -1.717731e+00 -4.337739e-01 4.389460e+00 3.044037e+00 3.756083e+00 -8.987457e-01 2.327321e+00 -2.596244e+00 1.097520e+00 -1.479124e+00 1.497789e+00 1.728554e-02 1.848568e+00 9.972998e-01 -3.900222e-01 -7.081597e-01 -1.734130e+00 -1.041473e+00 -1.494197e+00 -5.857852e-01 3.106271e-02 -6.690152e-01 -1.224418e+00 2.384933e+00
<VARIANCE> 25
 5.771668e+00 6.446661e+00 1.002983e+01 2.180102e+01 2.561022e+01 2.390551e+01 2.578134e+01 2.500159e+01 1.870225e+01 2.389322e+01 1.642804e+01 9.935312e+00 4.631496e+00 6.512922e+00 3.832647e+00 1.449676e+00 3.138509e+00 6.463574e+00 5.327236e+00 3.965142e+00 1.192287e+01 3.697765e+00 1.821509e+00 1.971236e+00 5.687925e+00
<GCONST> 9.701870e+01
<STATE> 4
<MEAN> 25
 -2.835572e+00 9.193692e+00 1.050274e+01 -8.085820e-01 -7.813227e+00 -5.973183e+00 -3.756562e+00 -2.642216e+00 -7.985716e+00 -6.504182e-01 -2.166760e+00 -3.669914e+00 -3.647173e-01 -3.341499e-01 9.952300e-02 -7.534286e-01 -1.744966e+00 -1.138780e+00 1.335864e-01 -2.566102e-02 7.409016e-01 2.599275e-01 1.559643e-02 -5.001053e-03 3.092370e+00
<VARIANCE> 25
 2.339235e+01 9.817413e+01 5.531341e+01 3.804166e+01 8.038495e+01 4.350500e+01 5.251518e+01 2.458711e+01 8.302084e+01 3.987999e+01 1.914184e+01 3.864466e+01 3.352605e+00 1.015880e+01 5.855781e+00 4.165299e+00 5.136362e+00 7.708625e+00 7.400363e+00 4.563420e+00 5.170080e+00 4.487439e+00 1.994718e+00 4.194425e+00 6.058066e+00
<GCONST> 1.123625e+02
<TRANSP> 5
 0.000000e+00 1.000000e+00 0.000000e+00 0.000000e+00 0.000000e+00
 0.000000e+00 9.644409e-01 3.555908e-02 0.000000e+00 0.000000e+00
 0.000000e+00 0.000000e+00 4.017171e-01 5.982830e-01 0.000000e+00
 0.000000e+00 0.000000e+00 0.000000e+00 7.648600e-01 2.351399e-01
 0.000000e+00 0.000000e+00 0.000000e+00 0.000000e+00 0.000000e+00
<ENDHMM>
~h "z"
<BEGINHMM>
<NUMSTATES> 5
<STATE> 2
<MEAN> 25
 -4.368472e-01 8.133776e+00 -2.384559e+00 1.353043e+00 1.637686e+00 -5.094056e+00 1.036271e+00 9.008722e-01 7.263114e-01 3.506527e+00 -8.789937e-01 -1.713982e-02 -1.936293e+00 3.252487e+00 -6.937371e-01 1.192168e-01 1.011121e+00 -1.283875e+00 1.218377e-01 -1.653571e-01 1.417086e-01 -2.813560e-01 6.482787e-01 -4.427049e-01 1.334447e+00
<VARIANCE> 25
 9.189403e+01 1.202722e+02 2.271084e+01 6.798955e+01 6.515640e+01 7.255793e+01 4.454885e+01 4.193054e+01 2.908869e+01 3.197590e+01 3.012516e+01 1.750740e+01 7.219220e+00 8.797375e+00 2.618719e+00 4.493188e+00 4.447536e+00 4.815044e+00 3.137029e+00 5.720905e+00 2.802686e+00 3.480765e+00 2.418755e+00 2.439329e+00 3.799431e+00
<GCONST> 1.096522e+02
<STATE> 3
<MEAN> 25
 -1.463528e+01 1.681410e+01 -7.343451e+00 3.894689e-01 9.336334e+00 -7.278970e+00 6.457311e+00 1.194214e-01 2.500113e-01 1.301785e+00 1.507794e+00 1.773830e+00 2.057073e-01 -6.190664e-01 9.045091e-02 3.512124e-01 1.658826e-02 9.022398e-02 2.257844e-01 -4.193919e-01 1.318170e-01 -2.805957e-01 -2.003158e-01 1.673564e-01 -3.714462e-01
<VARIANCE> 25
 3.334862e+01 4.890805e+01 1.659105e+01 3.895259e+01 3.400795e+01 1.821698e+01 3.011927e+01 3.947319e+01 1.672557e+01 9.930352e+00 1.057829e+01 1.054704e+01 1.385446e+00 1.818620e+00 5.161353e-01 8.541712e-01 8.390810e-01 1.248978e+00 1.028486e+00 1.163997e+00 9.503570e-01 1.063494e+00 6.968765e-01 7.042019e-01 1.270628e+00
<GCONST> 8.302225e+01
<STATE> 4
<MEAN> 25
 -5.614181e+00 1.446408e+01 -1.680887e+00 9.574649e+00 1.566414e+00 -9.354177e+00 -1.695096e+00 -1.307074e+00 2.586739e+00 -2.970291e+00 -7.531216e+00 -1.484098e+00 2.071660e-01 -1.697762e+00 7.530677e-01 -1.102075e-01 -1.057945e+00 1.185344e-01 1.235096e-02 5.572882e-01 -4.587617e-01 -6.404856e-01 -1.404460e-01 -7.118227e-02 7.480848e-01
<VARIANCE> 25
 1.359186e+01 1.223895e+02 1.650352e+01 4.817346e+01 4.407552e+01 4.152948e+01 7.086932e+01 2.831939e+01 2.040749e+01 1.631183e+01 4.237491e+01 2.899384e+01 1.246501e+00 2.007963e+00 2.413573e+00 1.550241e+00 2.691900e+00 3.551382e+00 4.061043e+00 2.211199e+00 3.494187e+00 1.905982e+00 3.765108e+00 1.988760e+00 1.684174e+00
<GCONST> 9.920031e+01
<TRANSP> 5
 0.000000e+00 1.000000e+00 0.000000e+00 0.000000e+00 0.000000e+00
 0.000000e+00 7.471421e-01 2.528579e-01 0.000000e+00 0.000000e+00
 0.000000e+00 0.000000e+00 8.765823e-01 1.234177e-01 0.000000e+00
 0.000000e+00 0.000000e+00 0.000000e+00 7.566332e-01 2.433668e-01
 0.000000e+00 0.000000e+00 0.000000e+00 0.000000e+00 0.000000e+00
<ENDHMM>
~h "aa"
<BEGINHMM>
<NUMSTATES> 5
<STATE> 2
<MEAN> 25
 4.045416e+00 6.648764e+00 -2.061191e+00 -7.947440e+00 -2.946559e-01 5.590825e+00 -3.051819e+00 -6.234756e+00 4.976427e+00 -4.282598e+00 -4.414564e-01 -1.459036e+00 1.147743e+00 -6.673089e-01 -3.064394e-01 -2.146501e+00 -3.823461e-01 1.118820e+00 7.634351e-01 -6.630960e-01 1.200344e+00 -6.924824e-01 1.886484e-01 -9.021223e-01 2.578007e+00
<VARIANCE> 25
 6.276404e+01 5.567404e+01 4.248607e+01 1.294570e+02 4.056653e+01 1.188342e+02 7.369836e+01 6.458974e+01 7.266430e+01 4.765991e+01 3.886485e+01 4.732220e+01 8.519007e+00 4.947556e+00 2.970317e+00 7.020842e+00 4.991455e+00 8.132720e+00 7.527559e+00 5.121419e+00 3.956934e+00 3.721214e+00 4.095363e+00 4.089636e+00 4.923213e+00
<GCONST> 1.165702e+02
<STATE> 3
<MEAN> 25
 9.328559e+00 -1.653652e+00 -6.809423e+00 -1.804283e+01 5.665468e-01 8.991416e+00 9.695195e+00 -8.642612e+00 9.308813e+00 -3.556415e+00 -1.792691e-01 -6.638521e+00 1.905348e-01 -1.553104e-01 1.020274e-01 7.924562e-01 -2.306463e-01 -5.362076e-01 1.054720e-01 4.386964e-01 -6.905141e-01 9.113311e-01 -1.857413e-02 1.532880e-02 -7.821966e-01
<VARIANCE> 25
 1.612499e+01 3.170231e+01 3.227083e+01 9.285476e+01 4.869894e+01 6.703391e+01 3.593090e+01 4.664934e+01 4.116680e+01 6.909648e+01 7.004876e+01 1.032947e+02 8.096588e-01 8.972372e-01 1.523872e+00 2.866720e+00 2.221773e+00 2.659177e+00 3.656338e+00 2.354588e+00 2.186725e+00 2.179584e+00 2.823224e+00 2.625095e+00 1.348215e+00
<GCONST> 1.014912e+02
<STATE> 4
<MEAN> 25
 6.282466e+00 -2.039928e-01 -2.394389e+00 -7.330154e+00 -1.124135e+00 2.110507e+00 2.929643e+00 -1.361375e-01 6.337505e+00 3.106953e+00 -2.788839e+00 -3.780363e+00 -5.101668e-01 1.008928e-02 3.836082e-01 6.484399e-01 8.524945e-02 -1.169361e-01 -4.499494e-01 2.049662e-01 -3.330607e-01 -1.531251e-02 2.217146e-01 1.578000e-01 -8.878031e-01
<VARIANCE> 25
 6.557100e+01 3.915960e+01 2.733663e+01 3.292166e+01 3.116045e+01 6.911569e+01 2.802460e+01 4.649301e+01 2.501821e+01 3.204335e+01 5.003787e+01 6.195257e+01 5.680231e+00 3.297459e+00 2.266784e+00 2.616536e+00 1.803394e+00 4.381933e+00 3.018334e+00 3.978866e+00 3.458418e+00 2.562350e+00 3.177594e+00 2.608428e+00 1.662004e+00
<GCONST> 1.042411e+02
<TRANSP> 5
 0.000000e+00 1.000000e+00 0.000000e+00 0.000000e+00 0.000000e+00
 0.000000e+00 8.429365e-01 1.570635e-01 0.000000e+00 0.000000e+00
 0.000000e+00 0.000000e+00 8.857306e-01 1.142694e-01 0.000000e+00
 0.000000e+00 0.000000e+00 0.000000e+00 8.265160e-01 1.734840e-01
 0.000000e+00 0.000000e+00 0.000000e+00 0.000000e+00 0.000000e+00
<ENDHMM>
~h "ae"
<BEGINHMM>
<NUMSTATES> 5
<STATE> 2
<MEAN> 25
 -4.589073e+00 -6.569794e-01 1.239152e+00 2.646494e+00 -8.591478e-01 -7.649121e-02 2.915642e+00 8.096684e-01 2.994386e+00 -2.947367e+00 4.702645e-01 4.780071e-01 1.249418e-01 -9.837391e-01 -5.335553e-01 -1.191569e+00 -6.695263e-01 -1.817176e+00 1.617238e+00 9.543747e-04 4.309776e-01 -6.401258e-01 -1.297720e+00 -4.988594e-01 3.315390e+00
<VARIANCE> 25
 9.205642e+01 1.857979e+01 2.217050e+01 1.878418e+01 5.286689e+01 5.487117e+01 5.384855e+01 5.322781e+01 4.146313e+01 2.202212e+01 2.474810e+01 1.580226e+01 6.675281e+00 4.772952e+00 3.871855e+00 3.185454e+00 3.398155e+00 7.020780e+00 9.757641e+00 4.963511e+00 3.010380e+00 1.697868e+00 5.035779e+00 1.268304e+00 1.450759e+01
<GCONST> 1.073288e+02
<STATE> 3
<MEAN> 25
 3.822903e+00 -6.727657e+00 -6.478775e+00 -2.818607e+00 -6.789924e-01 -8.600124e+00 1.074941e+01 5.716441e+00 4.323816e+00 -4.957104e+00 -7.357948e+00 -3.516572e+00 5.504605e-01 -5.273623e-01 -2.239948e-01 -5.239892e-01 -3.664190e-01 -9.450405e-01 4.328754e-01 3.514566e-01 8.298846e-02 3.227815e-03 1.082442e-01 -5.877045e-01 1.942970e+00
<VARIANCE> 25
 3.469497e+01 3.377295e+01 3.656822e+01 2.312693e+01 4.565222e+01 4.228910e+01 6.857558e+01 4.026081e+01 2.668179e+01 3.191574e+01 3.920541e+01 3.100931e+01 2.537738e+00 2.808826e+00 2.526944e+00 3.470291e+00 2.378846e+00 5.257364e+00 5.425920e+00 1.995767e+00 2.004012e+00 1.948084e+00 5.207172e+00 1.643056e+00 1.586730e+01
<GCONST> 1.044090e+02
<STATE> 4
<MEAN> 25
 3.687532e+00 -4.448990e+00 -2.351781e+00 -4.130599e+00 -4.326505e+00 -1.375258e+01 7.019740e+00 5.584556e+00 3.484102e+00 -7.207177e-01 -4.239044e+00 -5.035319e+00 2.244768e-01 1.878783e-01 5.209570e-02 2.064248e-01 2.671001e-01 2.898783e-01 -1.751830e-01 -2.139233e-01 -1.848357e-01 3.718502e-01 1.111033e-01 -1.254328e-01 -9.766659e-01
<VARIANCE> 25
 1.866232e+01 1.966406e+01 1.258247e+01 1.918638e+01 2.372541e+01 5.216698e+01 5.811541e+01 3.046132e+01 2.139704e+01 3.920126e+01 3.775772e+01 3.554613e+01 8.848763e-01 1.208861e+00 1.104721e+00 9.162588e-01 1.496031e+00 1.708451e+00 3.025091e+00 2.289239e+00 1.129937e+00 1.601673e+00 1.585888e+00 1.489179e+00 2.387306e+00
<GCONST> 9.114841e+01
<TRANSP> 5
 0.000000e+00 1.000000e+00 0.000000e+00 0.000000e+00 0.000000e+00
 0.000000e+00 4.174573e-01 5.825427e-01 0.000000e+00 0.000000e+00
 0.000000e+00 0.000000e+00 7.356557e-01 2.643443e-01 0.000000e+00
 0.000000e+00 0.000000e+00 0.000000e+00 7.474425e-01 2.525575e-01
 0.000000e+00 0.000000e+00 0.000000e+00 0.000000e+00 0.000000e+00
<ENDHMM>
~h "ah"
<BEGINHMM>
<NUMSTATES> 5
<STATE> 2
<MEAN> 25
 1.236791e+00 -6.511531e-01 -1.018853e+00 -2.240834e+00 -2.775442e+00 -4.670498e+00 -1.661041e-02 7.315516e-03 4.238555e+00 1.132652e+00 -4.106835e+00 -3.645866e+00 1.050496e+00 -4.102409e-01 -7.275442e-01 -9.602199e-01 2.886449e-01 -3.420971e-01 -2.099985e-01 -5.902263e-01 1.236034e+00 7.017388e-01 -8.286977e-01 -1.170949e+00 1.801099e+00
<VARIANCE> 25
 5.965152e+01 4.014741e+01 4.070068e+01 5.306435e+01 6.243173e+01 8.152284e+01 6.954556e+01 5.251717e+01 5.551465e+01 3.699293e+01 4.610933e+01 3.925215e+01 6.300262e+00 2.923830e+00 4.054660e+00 5.740835e+00 5.248815e+00 6.482481e+00 5.750381e+00 4.855140e+00 5.673874e+00 4.627845e+00 5.247996e+00 3.552378e+00 7.907457e+00
<GCONST> 1.144508e+02
<STATE> 3
<MEAN> 25
 7.246192e+00 -1.394808e+00 -5.005012e+00 -5.467805e+00 -1.872670e+00 -6.102602e+00 3.202233e-01 -2.914003e+00 7.056242e+00 4.967703e+00 -5.227891e+00 -7.457168e+00 3.921722e-01 5.236894e-01 1.310599e-01 2.161873e-01 1.649602e-03 1.634655e-01 -9.966660e-02 -8.182327e-02 -1.115696e-01 1.216886e-01 1.010129e-01 3.110430e-01 -1.031746e+00
<VARIANCE> 25
 2.837459e+01 2.849886e+01 3.070024e+01 4.356060e+01 5.265254e+01 1.018823e+02 7.883017e+01 6.675309e+01 4.529341e+01 4.648082e+01 5.340861e+01 4.036414e+01 9.924037e-01 1.005418e+00 2.061902e+00 2.501275e+00 2.688318e+00 4.061914e+00 3.109378e+00 3.759079e+00 2.819042e+00 2.484037e+00 3.124587e+00 1.968321e+00 1.352945e+00
<GCONST> 1.028771e+02
<STATE> 4
<MEAN> 25
 6.788312e+00 3.617211e+00 2.487046e+00 -1.557388e+00 -2.654502e+00 -6.372667e+00 3.741332e-01 -2.144439e+00 2.322045e+00 1.984504e+00 -2.935186e+00 -1.477416e+00 -1.033867e-01 1.669933e-01 4.901349e-01 1.296560e-01 3.179604e-01 6.865280e-01 3.530930e-02 2.392085e-01 -3.976941e-01 -4.955802e-01 6.330643e-01 5.711138e-01 -1.169260e+00
<VARIANCE> 25
 4.332239e+01 3.660196e+01 6.214645e+01 5.186757e+01 4.527533e+01 4.879489e+01 4.564609e+01 4.729774e+01 6.030542e+01 3.205322e+01 4.256213e+01 3.392506e+01 1.737655e+00 1.333126e+00 2.578424e+00 2.132390e+00 2.080979e+00 2.423373e+00 2.567536e+00 4.021607e+00 2.654950e+00 2.017051e+00 3.167638e+00 2.047426e+00 7.618410e-01
<GCONST> 1.013863e+02
<TRANSP> 5
 0.000000e+00 1.000000e+00 0.000000e+00 0.000000e+00 0.000000e+00
 0.000000e+00 6.104399e-01 3.895601e-01 0.000000e+00 0.000000e+00
 0.000000e+00 0.000000e+00 7.792935e-01 2.207065e-01 0.000000e+00
 0.000000e+00 0.000000e+00 0.000000e+00 6.435453e-01 3.564547e-01
 0.000000e+00 0.000000e+00 0.000000e+00 0.000000e+00 0.000000e+00
<ENDHMM>
~h "ao"
<BEGINHMM>
<NUMSTATES> 5
<STATE> 2
<MEAN> 25
 -2.455733e+00 7.114031e+00 -1.257966e+01 -1.424965e+01 -3.269995e+00 8.799348e+00 9.104075e-02 -1.510781e-01 2.315523e+00 -8.151489e+00 5.907759e+00 4.249694e-01 1.093765e+00 2.095046e+00 -9.275581e-02 -3.215108e+00 -1.820384e+00 1.094125e+00 7.412397e-01 -1.763886e+00 1.727198e+00 -1.956071e+00 -5.923125e-01 3.580168e-01 2.750116e+00
<VARIANCE> 25
 3.938900e+01 3.796120e+01 1.721739e+02 1.157357e+02 5.352849e+01 5.550718e+01 6.540253e+01 5.373730e+01 7.305972e+01 5.439264e+01 1.198981e+02 5.633088e+01 1.206919e+01 2.068083e+00 1.421361e+01 1.389331e+01 7.477934e+00 7.363542e+00 6.652050e+00 6.390299e+00 6.598705e+00 1.111799e+01 1.218958e+01 6.821035e+00 5.545289e+00
<GCONST> 1.231136e+02
<STATE> 3
<MEAN> 25
 8.605156e+00 1.331964e+01 -3.218572e+00 -2.297452e+01 -1.584350e+01 1.477187e+01 7.151226e+00 -9.730606e+00 1.081795e+01 -1.109933e+01 -6.214471e+00 4.320021e+00 2.281509e+00 4.179538e-01 2.297173e-01 -2.585568e+00 -2.336587e+00 1.169221e+00 -1.107662e-01 -1.339567e+00 1.897171e+00 -9.922176e-01 1.029870e+00 5.351120e-01 1.509912e+00
<VARIANCE> 25
 3.632365e+01 2.904169e+01 2.402398e+01 5.885611e+01 9.221557e+01 5.586314e+01 5.658172e+01 3.923838e+01 4.922084e+01 1.274404e+02 7.017447e+01 3.348364e+01 6.314037e+00 2.516828e+00 1.334612e+00 7.576576e+00 6.791410e+00 5.589714e+00 2.883810e+00 2.147655e+00 6.311118e+00 4.412874e+00 5.163129e+00 3.558522e+00 2.429000e+00
<GCONST> 1.105854e+02
<STATE> 4
<MEAN> 25
 1.023029e+01 1.404855e+01 -5.180905e+00 -2.840555e+01 -1.584820e+01 6.340758e+00 2.401089e+00 -7.817360e+00 1.773819e+01 -1.782343e+01 2.809640e+00 4.528094e+00 9.423946e-02 -4.374086e-01 3.727346e-02 5.142813e-01 1.128238e-01 -7.469085e-01 1.785936e-01 2.893560e-01 -3.142423e-01 5.859063e-01 7.729711e-02 -1.101191e-01 -4.204246e-01
<VARIANCE> 25
 1.239741e+01 2.349697e+01 1.696747e+01 5.465299e+01 3.695001e+01 9.423005e+01 3.164141e+01 4.302553e+01 5.102021e+01 5.029540e+01 3.047909e+01 2.824286e+01 3.951983e-01 8.592988e-01 9.601328e-01 2.578533e+00 1.897226e+00 1.638486e+00 1.411047e+00 1.990322e+00 2.472345e+00 2.613403e+00 1.539492e+00 1.706395e+00 5.983322e-01
<GCONST> 9.274454e+01
<TRANSP> 5
 0.000000e+00 1.000000e+00 0.000000e+00 0.000000e+00 0.000000e+00
 0.000000e+00 7.471569e-01 2.528432e-01 0.000000e+00 0.000000e+00
 0.000000e+00 0.000000e+00 6.794429e-01 3.205571e-01 0.000000e+00
 0.000000e+00 0.000000e+00 0.000000e+00 9.311968e-01 6.880321e-02
 0.000000e+00 0.000000e+00 0.000000e+00 0.000000e+00 0.000000e+00
<ENDHMM>
~h "aw"
<BEGINHMM>
<NUMSTATES> 5
<STATE> 2
<MEAN> 25
 4.957869e+00 1.016097e+00 -4.730433e+00 -8.137960e+00 -1.773530e+00 4.678071e+00 -2.504659e+00 -3.363202e+00 8.362316e+00 3.890041e+00 -2.427036e+00 -7.489756e+00 5.253451e-01 -5.232817e-01 -6.349009e-01 -1.328206e-01 1.698196e-01 1.004426e-01 3.004531e-01 -9.819155e-02 1.911268e-02 4.236673e-01 -5.277557e-01 -5.001626e-01 1.267324e+00
<VARIANCE> 25
 3.894960e+01 5.364901e+01 2.470255e+01 6.592171e+01 2.426904e+01 5.773321e+01 4.772484e+01 4.412278e+01 3.055663e+01 4.782011e+01 5.446841e+01 3.710492e+01 4.049679e+00 3.176709e+00 2.600060e+00 4.642547e+00 2.674936e+00 5.055882e+00 4.125458e+00 4.622959e+00 4.793032e+00 4.135164e+00 4.242635e+00 3.974929e+00 9.222012e+00
<GCONST> 1.094143e+02
<STATE> 3
<MEAN> 25
 5.950944e+00 -4.071093e+00 -1.149301e+01 -1.231825e+01 5.707406e+00 4.648960e+00 7.404754e+00 -3.753395e+00 1.369366e+00 4.874944e+00 -4.351989e+00 -9.740847e+00 2.895542e-01 4.969784e-01 -1.753709e-01 -2.224501e-01 -1.722743e-01 -2.327746e-01 1.112582e-01 5.274731e-02 -3.806587e-01 6.946976e-01 2.776277e-01 3.071953e-01 -1.065309e+00
<VARIANCE> 25
 3.572555e+01 2.057795e+01 3.590922e+01 5.833835e+01 3.853096e+01 2.762551e+01 3.958960e+01 5.030333e+01 3.638454e+01 5.367595e+01 4.258121e+01 2.058010e+01 6.548935e-01 1.047667e+00 1.343756e+00 2.358105e+00 1.910325e+00 1.621881e+00 1.733957e+00 2.593487e+00 1.450541e+00 1.683747e+00 2.226991e+00 1.822677e+00 6.260418e-01
<GCONST> 9.435039e+01
<STATE> 4
<MEAN> 25
 4.589661e+00 2.658606e+00 -6.543219e+00 -6.009415e+00 1.378470e+00 1.916796e-01 3.665825e+00 2.349597e+00 1.407948e+00 5.928556e+00 -2.352049e-02 -1.715478e+00 -9.139807e-01 3.522434e-02 8.333248e-01 5.285907e-01 1.312854e-01 -1.903182e-01 6.684519e-02 6.819718e-01 2.633665e-01 -1.213402e+00 5.051533e-01 5.188160e-01 -1.055477e+00
<VARIANCE> 25
 9.768098e+01 3.885875e+01 4.141525e+01 3.234465e+01 3.329361e+01 2.663405e+01 2.012985e+01 3.350422e+01 3.296227e+01 4.960923e+01 2.031973e+01 1.802428e+01 4.261014e+00 2.899261e+00 2.541442e+00 2.540446e+00 1.874775e+00 3.434798e+00 2.144666e+00 2.182746e+00 1.869601e+00 2.299089e+00 2.101597e+00 2.187584e+00 1.066496e+00
<GCONST> 9.882610e+01
<TRANSP> 5
 0.000000e+00 1.000000e+00 0.000000e+00 0.000000e+00 0.000000e+00
 0.000000e+00 8.846533e-01 1.153467e-01 0.000000e+00 0.000000e+00
 0.000000e+00 0.000000e+00 9.169568e-01 8.304308e-02 0.000000e+00
 0.000000e+00 0.000000e+00 0.000000e+00 8.469704e-01 1.530295e-01
 0.000000e+00 0.000000e+00 0.000000e+00 0.000000e+00 0.000000e+00
<ENDHMM>
~h "ay"
<BEGINHMM>
<NUMSTATES> 5
<STATE> 2
<MEAN> 25
 -4.560536e+00 6.057545e+00 -2.656350e+00 3.739458e+00 8.088706e-01 1.291314e+00 -1.525001e+00 -2.335186e+00 1.912001e+00 -9.638566e-01 -6.042212e-01 1.837672e-01 1.506109e+00 4.743525e-01 -3.703175e-01 -9.537565e-01 -7.206418e-01 -4.127977e-01 1.376650e-01 -1.579926e+00 1.003430e+00 -6.546097e-01 -2.594859e-01 -5.216049e-01 2.913223e+00
<VARIANCE> 25
 1.445084e+02 7.545118e+01 8.210481e+01 5.978860e+01 3.349907e+01 3.586530e+01 4.653230e+01 4.804110e+01 7.369224e+01 3.210821e+01 2.916571e+01 1.990481e+01 1.101320e+01 6.637852e+00 6.604615e+00 5.877498e+00 3.426939e+00 4.569941e+00 5.018386e+00 5.814820e+00 7.565064e+00 4.759656e+00 4.501142e+00 3.656560e+00 8.855301e+00
<GCONST> 1.153201e+02
<STATE> 3
<MEAN> 25
 1.008430e+01 1.573430e+00 -6.330438e+00 -1.170065e+01 -5.396163e+00 4.481057e+00 1.517839e+00 -1.009747e+01 1.014139e+01 -6.020251e+00 -1.152121e+00 -3.516924e+00 -1.367004e-01 -1.400008e+00 -1.825907e-01 -1.175060e+00 9.848238e-01 -1.050275e-01 1.343246e+00 2.969680e-01 8.589129e-02 4.225806e-01 -3.472599e-01 -1.382762e+00 1.499228e+00
<VARIANCE> 25
 2.477887e+01 9.665878e+01 8.857500e+01 1.725514e+02 8.132934e+01 7.827972e+01 9.747040e+01 7.530106e+01 7.823179e+01 8.563087e+01 5.240415e+01 7.963373e+01 3.946817e+00 1.643355e+00 3.096918e+00 4.523832e+00 4.982872e+00 6.076272e+00 7.375923e+00 6.323314e+00 5.719547e+00 3.821553e+00 3.351765e+00 3.852787e+00 3.876357e+00
<GCONST> 1.169286e+02
<STATE> 4
<MEAN> 25
 6.052996e+00 -6.801297e+00 -5.395160e+00 -7.334562e+00 1.281469e+00 -5.787446e+00 7.496528e+00 -3.151600e+00 6.505440e+00 -1.081650e+00 -2.397993e+00 -9.162812e+00 8.117130e-02 2.342324e-01 3.971783e-01 4.543020e-01 -4.830938e-01 -6.556295e-01 -2.469270e-01 5.583225e-01 -2.431968e-01 1.744104e-01 7.969716e-02 4.433486e-01 -7.834293e-01
<VARIANCE> 25
 9.496422e+00 2.607028e+01 5.207219e+01 3.604295e+01 8.529547e+01 1.020669e+02 3.004262e+01 7.104003e+01 3.577439e+01 4.217982e+01 3.017250e+01 3.373757e+01 6.098643e-01 8.931423e-01 1.768026e+00 1.568629e+00 3.221920e+00 3.670953e+00 2.069687e+00 3.291457e+00 2.123203e+00 2.578750e+00 1.884240e+00 1.992617e+00 9.709010e-01
<GCONST> 9.777367e+01
<TRANSP> 5
 0.000000e+00 1.000000e+00 0.000000e+00 0.000000e+00 0.000000e+00
 0.000000e+00 8.104010e-01 1.895990e-01 0.000000e+00 0.000000e+00
 0.000000e+00 0.000000e+00 8.483645e-01 1.516355e-01 0.000000e+00
 0.000000e+00 0.000000e+00 0.000000e+00 9.380054e-01 6.199458e-02
 0.000000e+00 0.000000e+00 0.000000e+00 0.000000e+00 0.000000e+00
<ENDHMM>
~h "ch"
<BEGINHMM>
<NUMSTATES> 5
<STATE> 2
<MEAN> 25
 -5.868831e+00 -1.262151e+00 1.936548e+00 9.052959e+00 2.721638e+00 2.341879e+00 -4.129254e+00 2.460038e+00 2.888084e+00 -3.199452e+00 -1.214257e+00 4.987051e+00 8.632564e-01 -3.265655e-01 -2.450566e-01 -2.528557e-01 -5.070530e-02 6.608601e-01 -5.809816e-01 -3.928670e-01 1.960721e-01 -3.070844e-01 1.970459e-01 2.638373e-01 -4.735430e-01
<VARIANCE> 25
 3.080127e+01 1.798116e+01 5.872305e+01 3.778745e+01 3.652268e+01 3.831523e+01 3.515492e+01 2.527949e+01 4.607627e+01 2.345888e+01 2.449469e+01 2.140351e+01 1.596381e+00 4.054583e+00 8.391575e+00 5.989936e+00 5.177948e+00 5.677151e+00 3.557901e+00 8.571529e-01 7.683473e+00 3.658043e+00 1.566691e+00 2.028763e+00 4.994126e-01
<GCONST> 1.013286e+02
<STATE> 3
<MEAN> 25
 4.027964e-01 -3.151566e+00 2.043485e+00 4.752414e+00 4.889874e+00 4.045900e+00 6.457796e-01 3.006248e+00 -2.876249e+00 2.004045e+00 1.620644e-01 3.065604e+00 -1.257801e-02 -3.139973e-02 -2.392953e-02 2.893601e-02 -5.823479e-02 1.250784e-01 -8.221693e-02 2.080673e-01 2.744187e-02 8.907626e-02 -5.679137e-02 -6.907866e-04 -1.306188e-01
<VARIANCE> 25
 1.264711e+00 1.065914e+01 3.232352e+00 5.694231e+00 6.091647e+00 8.997416e+00 1.003069e+01 1.474965e+01 1.178235e+01 1.332897e+01 1.433192e+01 1.529709e+01 1.981503e-01 2.153704e-01 3.879670e-01 5.863235e-01 7.520309e-01 6.557531e-01 1.084862e+00 1.404992e+00 1.405628e+00 1.213214e+00 1.678168e+00 1.351522e+00 3.452583e-02
<GCONST> 6.397461e+01
<STATE> 4
<MEAN> 25
 -9.423181e+00 8.427361e-01 1.899283e+00 2.012394e-01 -5.445177e+00 3.644452e-01 -8.333662e-01 2.785464e-02 6.096036e+00 -3.847550e-01 -1.422063e+00 1.384042e+00 -2.836179e-01 1.931475e-01 6.243351e-02 -3.696474e-01 -6.625329e-01 1.084279e-01 -1.164740e-01 -5.878979e-01 3.720413e-01 -2.166034e-01 -4.061163e-01 -3.224406e-01 1.344861e+00
<VARIANCE> 25
 1.277314e+02 2.846653e+01 2.737617e+01 3.749951e+01 3.520167e+01 1.014642e+02 2.185334e+01 4.526342e+01 3.901943e+01 1.821336e+01 1.984493e+01 2.396011e+01 8.928470e+00 2.951566e+00 2.975920e+00 5.250048e+00 5.073142e+00 8.880554e+00 2.343624e+00 4.408955e+00 5.302871e+00 2.536934e+00 3.084031e+00 2.146361e+00 8.476475e+00
<GCONST> 1.076778e+02
<TRANSP> 5
 0.000000e+00 1.000000e+00 0.000000e+00 0.000000e+00 0.000000e+00
 0.000000e+00 7.245168e-01 2.754832e-01 0.000000e+00 0.000000e+00
 0.000000e+00 0.000000e+00 9.519019e-01 4.809807e-02 0.000000e+00
 0.000000e+00 0.000000e+00 0.000000e+00 9.064384e-01 9.356163e-02
 0.000000e+00 0.000000e+00 0.000000e+00 0.000000e+00 0.000000e+00
<ENDHMM>
~h "dh"
<BEGINHMM>
<NUMSTATES> 5
<STATE> 2
<MEAN> 25
 5.452868e-01 4.776636e+00 -1.952091e+00 -1.193036e+00 -6.562047e+00 -9.076232e+00 -6.719447e+00 -5.094293e+00 8.045188e+00 -9.530355e-01 -7.320384e+00 -5.247735e+00 9.383835e-01 -1.463792e+00 1.855599e-02 -1.065012e+00 -3.784539e-01 1.049353e-01 -1.025036e+00 2.680309e-01 4.604499e-01 6.618675e-01 -2.431657e-01 -1.316219e+00 1.036987e+00
<VARIANCE> 25
 3.199298e+01 3.742708e+01 2.561357e+01 3.309027e+01 3.073609e+01 3.458282e+01 6.273688e+01 7.548840e+01 3.056859e+01 1.978417e+01 3.356161e+01 4.039714e+01 3.740822e+00 1.813472e+00 2.387953e+00 2.741023e+00 3.394070e+00 1.925772e+00 2.687137e+00 4.963063e+00 2.752360e+00 2.532689e+00 3.443140e+00 2.988388e+00 2.547115e+00
<GCONST> 1.022949e+02
<STATE> 3
<MEAN> 25
 1.060005e+01 -4.049348e+00 -1.744842e+00 -7.265441e-01 -1.025620e+01 -9.996206e+00 -6.052975e+00 6.058759e-01 9.419091e+00 6.966228e+00 -6.461934e+00 -3.793551e+00 -2.344773e-01 -2.119324e-02 -1.516560e-01 2.120482e-01 6.948401e-01 3.566686e-01 1.664193e-01 5.263909e-01 -4.015781e-01 1.533965e-01 6.072691e-01 4.547949e-01 -1.284841e+00
<VARIANCE> 25
 1.855045e+01 1.898344e+01 9.519473e+00 4.568234e+01 2.927904e+01 5.186075e+01 3.674661e+01 6.776409e+01 2.180529e+01 2.319888e+01 3.026810e+01 4.847665e+01 1.856092e+00 1.651993e+00 8.066184e-01 2.062601e+00 9.496074e-01 2.706980e+00 2.184552e+00 3.373420e+00 1.770802e+00 2.434589e+00 2.149757e+00 2.008453e+00 2.984115e-01
<GCONST> 9.283463e+01
<STATE> 4
<MEAN> 25
 4.002088e+00 -3.595043e+00 -5.104933e+00 -8.863910e+00 1.397865e-01 -7.019621e+00 -7.894080e-01 -1.824958e+00 6.449578e+00 4.433114e+00 -4.305987e+00 -1.027092e+01 -1.356236e-01 2.804805e-02 1.341931e-01 -2.631305e-02 3.812676e-01 3.690515e-01 4.531458e-01 -2.503452e-01 -4.553583e-01 2.808129e-02 1.137879e-01 5.208325e-01 -7.384698e-01
<VARIANCE> 25
 1.454365e+01 1.821513e+01 1.442873e+01 4.407570e+01 2.431723e+01 3.602913e+01 2.308660e+01 3.087884e+01 2.046768e+01 3.630952e+01 7.460258e+01 6.995007e+01 1.227916e+00 1.448793e+00 1.372985e+00 2.633953e+00 2.208596e+00 4.605947e+00 2.274721e+00 3.083531e+00 2.639230e+00 2.649305e+00 3.646370e+00 3.608945e+00 1.366797e+00
<GCONST> 9.746072e+01
<TRANSP> 5
 0.000000e+00 1.000000e+00 0.000000e+00 0.000000e+00 0.000000e+00
 0.000000e+00 8.508177e-01 1.491823e-01 0.000000e+00 0.000000e+00
 0.000000e+00 0.000000e+00 8.896941e-01 1.103060e-01 0.000000e+00
 0.000000e+00 0.000000e+00 0.000000e+00 8.485711e-01 1.514289e-01
 0.000000e+00 0.000000e+00 0.000000e+00 0.000000e+00 0.000000e+00
<ENDHMM>
~h "eh"
<BEGINHMM>
<NUMSTATES> 5
<STATE> 2
<MEAN> 25
 2.603985e+00 1.597494e+00 2.331310e+00 -1.090838e+00 -3.052612e+00 -7.473073e+00 -2.038825e-01 -2.709535e-01 5.912421e-01 -1.868242e+00 -5.185460e+00 -2.070600e+00 5.596240e-01 -1.127493e+00 -4.566086e-02 -9.373407e-01 -1.053253e+00 -1.787935e+00 8.796831e-01 1.013001e+00 6.294184e-01 -1.816864e-01 -4.801608e-01 -4.327606e-01 3.081342e+00
<VARIANCE> 25
 5.823222e+01 5.126677e+01 5.182795e+01 5.061861e+01 6.980920e+01 7.140694e+01 6.489160e+01 3.926997e+01 4.391238e+01 3.106668e+01 5.457855e+01 4.079076e+01 5.800739e+00 5.578818e+00 5.308656e+00 2.839368e+00 3.861581e+00 7.148003e+00 6.661201e+00 5.148225e+00 3.999045e+00 3.606159e+00 6.093192e+00 3.171351e+00 7.072974e+00
<GCONST> 1.137335e+02
<STATE> 3
<MEAN> 25
 4.061976e+00 -4.494801e+00 -4.374769e+00 -4.820781e+00 -4.640840e+00 -1.223681e+01 8.980412e+00 4.697567e+00 6.899673e+00 -1.090629e+00 -5.661152e+00 -6.269118e+00 5.685488e-02 7.444140e-02 -1.094635e-01 8.492316e-02 9.104640e-02 -1.551145e-02 1.852775e-01 1.212200e-01 7.233085e-02 2.128194e-01 -6.708087e-02 5.832095e-02 -5.428772e-01
<VARIANCE> 25
 1.990617e+01 1.527273e+01 3.397220e+01 2.321005e+01 2.937934e+01 5.753533e+01 5.390489e+01 3.100487e+01 2.806485e+01 2.673562e+01 3.959880e+01 3.253546e+01 7.182676e-01 9.720627e-01 1.817257e+00 1.232879e+00 1.834509e+00 2.172239e+00 2.969545e+00 2.384015e+00 1.606193e+00 1.880234e+00 1.500454e+00 1.596561e+00 1.309520e+00
<GCONST> 9.300556e+01
<STATE> 4
<MEAN> 25
 3.939782e+00 1.047972e+00 1.018445e+00 -2.395655e+00 -8.368597e+00 -1.112002e+01 3.422155e+00 1.155163e+00 3.251542e+00 6.330269e-01 -3.569886e+00 -1.703371e+00 -1.893348e-01 4.453892e-01 -1.189932e-02 4.361798e-01 1.747093e-01 3.779729e-01 -6.442854e-01 -4.673086e-01 2.993935e-02 -2.423330e-01 4.241230e-01 3.432397e-01 -1.128310e+00
<VARIANCE> 25
 2.971301e+01 2.317996e+01 3.691806e+01 2.911458e+01 3.114808e+01 4.874455e+01 4.718642e+01 4.903647e+01 6.632486e+01 2.939300e+01 3.242169e+01 2.720734e+01 2.862862e+00 2.111144e+00 2.100929e+00 1.837574e+00 1.877164e+00 3.743576e+00 3.930545e+00 3.252451e+00 2.970370e+00 2.528071e+00 2.769671e+00 1.757767e+00 1.374480e+00
<GCONST> 1.004562e+02
<TRANSP> 5
 0.000000e+00 1.000000e+00 0.000000e+00 0.000000e+00 0.000000e+00
 0.000000e+00 7.380644e-01 2.619356e-01 0.000000e+00 0.000000e+00
 0.000000e+00 0.000000e+00 8.765362e-01 1.234638e-01 0.000000e+00
 0.000000e+00 0.000000e+00 0.000000e+00 7.817596e-01 2.182403e-01
 0.000000e+00 0.000000e+00 0.000000e+00 0.000000e+00 0.000000e+00
<ENDHMM>
~h "er"
<BEGINHMM>
<NUMSTATES> 5
<STATE> 2
<MEAN> 25
 -3.349445e+00 -3.446100e+00 -1.167025e+00 1.318938e+00 4.062576e+00 2.241783e+00 -2.810491e-01 1.366120e+00 -1.616008e+00 -7.793615e-01 5.351669e-01 1.145938e+00 -7.442903e-02 -3.299973e-02 1.346246e-02 1.039135e-01 5.588582e-02 1.692623e-01 2.395589e-02 3.375802e-02 -1.160140e-01 -6.275941e-02 -3.824935e-02 -2.514950e-02 -1.562419e-01
<VARIANCE> 25
 6.312504e+00 4.201132e+00 5.387041e+00 8.569811e+00 1.366893e+01 1.445115e+01 1.262373e+01 1.649613e+01 1.972060e+01 1.611395e+01 1.118784e+01 1.408936e+01 2.074010e-01 2.582658e-01 4.833129e-01 5.721539e-01 9.723606e-01 1.191333e+00 1.243879e+00 1.514116e+00 1.762950e+00 1.426188e+00 1.002005e+00 1.360529e+00 8.342849e-02
<GCONST> 6.981915e+01
<STATE> 3
<MEAN> 25
 -1.590901e+00 -1.741178e+00 -1.252522e+00 2.460330e+00 5.122579e-01 8.561980e-01 -5.751240e-01 1.556566e+00 -1.245264e-01 -2.742157e-01 -3.001350e-01 9.891890e-01 2.029952e-02 4.734616e-02 3.236054e-01 2.330032e-01 -8.647146e-02 3.340079e-01 9.560071e-03 -2.581223e-01 -5.807618e-01 -7.446694e-01 -3.779762e-01 -4.069529e-01 -1.626868e-01
<VARIANCE> 25
 3.479111e+01 1.204202e+01 1.138134e+01 2.718981e+01 4.578786e+01 3.872979e+01 4.393520e+01 1.909214e+01 5.242070e+01 1.584427e+01 2.133105e+01 1.928583e+01 1.661745e+00 1.036863e+00 1.830754e+00 1.301186e+00 1.487431e+00 1.996873e+00 2.148045e+00 1.853653e+00 2.439665e+00 2.322664e+00 1.171703e+00 1.345530e+00 3.776031e-01
<GCONST> 8.977211e+01
<STATE> 4
<MEAN> 25
 -1.250192e+00 -2.021626e+00 -1.797283e+00 -2.891759e-01 -1.037010e+00 1.344433e+00 -1.123437e+00 1.981482e+00 -2.641053e+00 -1.364818e+00 -6.059588e-01 5.168263e-02 2.113295e-01 5.678567e-02 7.263365e-02 -2.084473e-01 -1.297265e-01 1.448222e-01 7.586915e-02 -9.021538e-03 -6.584056e-02 4.385792e-02 -8.032443e-02 -2.141417e-01 -1.638143e-03
<VARIANCE> 25
 1.163141e+01 8.083156e+00 1.335040e+01 2.618307e+01 3.004352e+01 2.806730e+01 1.987390e+01 1.790246e+01 3.041887e+01 1.552294e+01 2.297106e+01 1.627137e+01 1.400417e+00 6.309388e-01 1.323573e+00 2.099919e+00 2.573601e+00 3.380670e+00 1.522268e+00 2.308426e+00 1.726804e+00 2.141721e+00 1.749461e+00 1.614925e+00 4.678743e-01
<GCONST> 8.694522e+01
<TRANSP> 5
 0.000000e+00 1.000000e+00 0.000000e+00 0.000000e+00 0.000000e+00
 0.000000e+00 9.177420e-01 8.225799e-02 0.000000e+00 0.000000e+00
 0.000000e+00 0.000000e+00 9.744131e-02 9.025587e-01 0.000000e+00
 0.000000e+00 0.000000e+00 0.000000e+00 5.854589e-01 4.145411e-01
 0.000000e+00 0.000000e+00 0.000000e+00 0.000000e+00 0.000000e+00
<ENDHMM>
~h "ey"
<BEGINHMM>
<NUMSTATES> 5
<STATE> 2
<MEAN> 25
 1.272362e+00 3.207959e-01 7.782135e+00 -5.293970e+00 -1.290165e+01 -9.343029e+00 4.181087e+00 3.305597e-01 -6.577140e-01 2.056332e+00 4.686380e-01 -1.313554e+00 -8.257393e-02 5.677596e-01 7.952926e-01 -2.966246e-01 -5.986001e-01 -3.639093e-01 2.418836e-01 -7.822183e-01 -4.694242e-01 2.092786e-01 7.086363e-02 1.701778e-01 6.730451e-01
<VARIANCE> 25
 1.565463e+01 1.715678e+01 3.637512e+01 2.742870e+01 4.205509e+01 4.869185e+01 5.827566e+01 2.047392e+01 3.189103e+01 3.520574e+01 2.734275e+01 2.085528e+01 8.027764e-01 1.092767e+00 1.892562e+00 1.613334e+00 2.503761e+00 3.279989e+00 4.528558e+00 2.030029e+00 2.925831e+00 2.454845e+00 2.636189e+00 1.716067e+00 7.203836e+00
<GCONST> 9.728896e+01
<STATE> 3
<MEAN> 25
 -1.936534e-01 5.130703e+00 1.044184e+01 2.298957e+00 -1.179196e+01 -7.774090e+00 4.570916e-01 -2.666722e+00 9.782725e-01 -2.717834e+00 -1.309724e+00 -1.656619e-01 3.544529e-01 3.329945e-02 -2.024524e-01 1.082000e-01 2.694072e-01 -3.349207e-02 1.831553e-02 1.764751e-02 2.452095e-01 -4.196170e-02 -2.650205e-01 1.000944e-01 -5.022250e-01
<VARIANCE> 25
 1.058387e+02 3.694620e+01 5.584104e+01 3.613556e+01 4.733159e+01 5.048312e+01 4.927913e+01 3.848901e+01 4.740968e+01 3.309208e+01 2.731952e+01 2.369800e+01 5.587626e+00 2.624957e+00 3.304137e+00 1.929954e+00 2.142562e+00 3.539922e+00 3.581975e+00 2.667862e+00 2.892225e+00 2.381480e+00 1.687520e+00 2.125696e+00 1.554956e+00
<GCONST> 1.034560e+02
<STATE> 4
<MEAN> 25
 3.354296e+00 7.839615e+00 1.089424e+01 -4.542716e+00 -1.107952e+01 -7.306790e+00 1.624545e+00 -7.689152e+00 -5.007663e+00 4.126632e+00 -1.276252e+00 1.651844e+00 1.656947e-01 1.552755e-01 -3.863579e-01 6.636562e-01 9.515432e-01 1.529541e-01 -5.988984e-01 1.183239e-01 1.496975e-01 -8.741289e-02 3.084860e-01 6.518117e-02 -1.415536e+00
<VARIANCE> 25
 2.605096e+01 2.411275e+01 4.488288e+01 5.769234e+01 5.713860e+01 5.172207e+01 4.104632e+01 4.707813e+01 4.225552e+01 2.994374e+01 3.309436e+01 2.752775e+01 1.619123e+00 2.094212e+00 2.272785e+00 1.644212e+00 2.411048e+00 2.046698e+00 3.130119e+00 2.840726e+00 2.452548e+00 2.439821e+00 2.316541e+00 1.464341e+00 7.826586e-01
<GCONST> 9.885059e+01
<TRANSP> 5
 0.000000e+00 1.000000e+00 0.000000e+00 0.000000e+00 0.000000e+00
 0.000000e+00 8.702397e-01 1.297603e-01 0.000000e+00 0.000000e+00
 0.000000e+00 0.000000e+00 8.765438e-01 1.234561e-01 0.000000e+00
 0.000000e+00 0.000000e+00 0.000000e+00 8.437852e-01 1.562148e-01
 0.000000e+00 0.000000e+00 0.000000e+00 0.000000e+00 0.000000e+00
<ENDHMM>
~h "hh"
<BEGINHMM>
<NUMSTATES> 5
<STATE> 2
<MEAN> 25
 -5.650304e+00 -4.231318e+00 1.029808e+00 -1.207955e+00 3.749611e-01 9.893457e-01 3.871927e+00 1.996156e+00 1.017254e+00 -2.134300e+00 -1.465339e+00 2.395891e+00 -4.284503e-02 1.264606e-02 3.274456e-02 -8.832011e-01 1.614685e-01 2.629193e-01 1.483547e+00 -9.566633e-02 6.157471e-01 -4.738940e-01 -7.240912e-01 -4.804299e-01 1.502112e+00
<VARIANCE> 25
 1.094893e+01 2.514865e+01 1.069448e+01 5.631967e+01 6.336773e+01 7.362652e+01 6.763880e+01 6.358342e+01 4.290610e+01 2.614625e+01 4.287691e+01 2.109699e+01 2.804726e+00 2.800561e+00 1.185051e+00 5.958469e+00 4.358414e+00 4.471665e+00 6.236906e+00 5.195136e+00 5.481075e+00 3.570697e+00 3.970564e+00 3.374268e+00 4.135118e+00
<GCONST> 1.060629e+02
<STATE> 3
<MEAN> 25
 -1.631461e+00 1.347288e+00 -3.903372e+00 -7.806109e+00 2.409938e+00 2.937311e+00 8.445784e+00 2.958715e-01 9.598129e+00 -5.524580e+00 -4.257912e+00 -4.327728e+00 9.636037e-01 7.720168e-01 -1.166688e+00 -1.349623e+00 -8.016910e-02 -1.712728e-02 -4.385982e-01 -6.157846e-01 1.127302e+00 5.546995e-02 6.554229e-01 -1.309135e+00 2.421714e+00
<VARIANCE> 25
 6.311969e+01 1.794280e+01 3.325115e+01 1.136506e+02 5.091590e+01 1.066616e+02 3.480824e+01 4.944971e+01 3.677031e+01 2.898936e+01 4.369189e+01 6.038140e+01 3.981400e+00 2.826837e+00 1.533248e+00 5.128579e+00 2.448107e+00 4.342888e+00 3.271306e+00 4.130123e+00 4.226379e+00 2.188816e+00 2.383108e+00 3.834983e+00 3.140334e+00
<GCONST> 1.071484e+02
<STATE> 4
<MEAN> 25
 7.581832e+00 1.217119e+00 -8.600225e+00 -1.618375e+01 4.038124e+00 1.344197e+00 6.228515e+00 -1.092194e+01 8.058410e+00 8.288226e-01 -1.298153e+00 -1.017953e+01 5.226057e-01 1.481779e-01 -2.054426e-03 1.131277e-01 -4.099750e-01 -6.521309e-01 -4.440404e-01 -2.370323e-01 -6.195675e-01 2.903328e-01 1.914006e-01 4.137808e-01 -9.238957e-01
<VARIANCE> 25
 2.346877e+01 1.448301e+01 2.851028e+01 6.585778e+01 3.285907e+01 5.214300e+01 5.614619e+01 3.496884e+01 3.539312e+01 2.641317e+01 1.847000e+01 5.905619e+01 5.843877e-01 1.471898e+00 1.520823e+00 4.551751e+00 1.371060e+00 3.552258e+00 2.861806e+00 3.461598e+00 2.365496e+00 2.078543e+00 1.974898e+00 2.914205e+00 2.030400e+00
<GCONST> 9.788846e+01
<TRANSP> 5
 0.000000e+00 1.000000e+00 0.000000e+00 0.000000e+00 0.000000e+00
 0.000000e+00 8.561320e-01 1.438680e-01 0.000000e+00 0.000000e+00
 0.000000e+00 0.000000e+00 8.095021e-01 1.904979e-01 0.000000e+00
 0.000000e+00 0.000000e+00 0.000000e+00 8.500977e-01 1.499023e-01
 0.000000e+00 0.000000e+00 0.000000e+00 0.000000e+00 0.000000e+00
<ENDHMM>
~h "ih"
<BEGINHMM>
<NUMSTATES> 5
<STATE> 2
<MEAN> 25
 -1.617005e+00 4.912120e+00 7.992901e+00 2.204633e+00 -7.972625e+00 -2.925378e+00 -1.334273e+00 -4.281903e+00 -2.422340e+00 -2.986282e+00 -9.490299e-01 -1.601223e+00 1.603126e-01 6.788088e-01 2.351701e+00 -7.400621e-01 -1.992480e+00 -1.040150e+00 9.060927e-02 -6.303594e-01 -1.584914e+00 -5.753711e-01 -1.422241e-01 -7.791584e-01 2.516962e+00
<VARIANCE> 25
 8.848129e+01 5.804717e+01 9.796824e+01 6.769875e+01 7.868466e+01 5.576254e+01 5.182974e+01 5.003801e+01 5.557352e+01 4.890866e+01 4.852124e+01 3.265044e+01 8.949819e+00 5.755330e+00 6.041599e+00 6.857635e+00 5.402493e+00 4.619884e+00 4.611879e+00 4.881614e+00 6.250108e+00 5.702192e+00 3.827383e+00 2.611803e+00 6.026769e+00
<GCONST> 1.164825e+02
<STATE> 3
<MEAN> 25
 6.517659e-02 8.065003e+00 1.602406e+01 -5.092102e+00 -1.615368e+01 -5.755394e+00 -1.726344e+00 -6.936588e+00 -1.054678e+01 -8.755223e-02 -8.820740e-01 -5.093584e+00 3.789253e-01 2.171112e-01 -1.025412e-01 -2.082637e-01 2.173002e-01 2.711315e-02 -1.792943e-01 -2.822446e-01 -7.048491e-02 4.518956e-01 1.493260e-01 2.041235e-01 -9.607463e-01
<VARIANCE> 25
 1.718241e+01 2.753204e+01 3.597292e+01 4.029916e+01 2.284493e+01 4.659626e+01 3.198482e+01 3.368668e+01 2.620595e+01 5.141657e+01 1.955213e+01 2.958417e+01 9.342137e-01 1.459542e+00 1.419685e+00 2.078787e+00 2.276978e+00 2.074134e+00 1.690006e+00 1.858252e+00 2.265759e+00 2.116776e+00 1.825918e+00 1.988604e+00 1.358416e+00
<GCONST> 9.415683e+01
<STATE> 4
<MEAN> 25
 -1.165112e+00 7.865703e+00 8.884721e+00 -1.719377e+00 -9.289819e+00 -3.519711e+00 -3.856603e+00 -6.050782e+00 -2.336074e+00 2.981279e-01 -6.883239e-01 1.457080e+00 -3.087072e-01 -4.932199e-01 -1.099350e+00 6.238988e-01 9.317697e-01 -3.788987e-02 -1.209681e-01 3.273872e-01 9.755012e-01 -2.297288e-02 -1.644867e-01 4.914775e-01 -7.634757e-01
<VARIANCE> 25
 9.883033e+01 3.102496e+01 4.042876e+01 5.304293e+01 3.241710e+01 7.545564e+01 5.560631e+01 5.967403e+01 4.663560e+01 4.529575e+01 3.954683e+01 1.743366e+01 3.621324e+00 1.662724e+00 2.740377e+00 2.422517e+00 2.106519e+00 3.512287e+00 2.005414e+00 3.168302e+00 3.006485e+00 2.869845e+00 3.330871e+00 1.854917e+00 1.390740e+00
<GCONST> 1.035911e+02
<TRANSP> 5
 0.000000e+00 1.000000e+00 0.000000e+00 0.000000e+00 0.000000e+00
 0.000000e+00 7.890698e-01 2.109302e-01 0.000000e+00 0.000000e+00
 0.000000e+00 0.000000e+00 8.867013e-01 1.132987e-01 0.000000e+00
 0.000000e+00 0.000000e+00 0.000000e+00 8.148919e-01 1.851080e-01
 0.000000e+00 0.000000e+00 0.000000e+00 0.000000e+00 0.000000e+00
<ENDHMM>
~h "iy"
<BEGINHMM>
<NUMSTATES> 5
<STATE> 2
<MEAN> 25
 3.914645e-02 3.756224e+00 7.244730e+00 2.829449e+00 -8.759282e+00 -6.611591e+00 2.997756e+00 -5.753125e+00 -3.037219e+00 -5.576213e+00 -1.501112e+00 -7.388439e-01 3.094414e-01 4.094157e-01 2.043606e+00 -1.411593e+00 -2.061423e+00 -6.499791e-01 -3.560060e-01 -5.799807e-01 -1.769020e+00 -1.504390e-02 1.857376e-01 -5.827190e-01 2.286051e+00
<VARIANCE> 25
 1.027751e+02 4.910157e+01 6.625596e+01 5.916608e+01 7.324646e+01 5.925650e+01 7.114880e+01 9.426562e+01 7.426445e+01 3.705824e+01 2.788331e+01 2.614402e+01 5.213546e+00 4.848302e+00 3.752835e+00 3.590542e+00 5.780942e+00 4.034334e+00 5.566880e+00 6.233432e+00 5.362727e+00 4.826242e+00 4.595394e+00 2.379708e+00 4.532749e+00
<GCONST> 1.141294e+02
<STATE> 3
<MEAN> 25
 -5.815457e-01 9.100641e+00 1.702863e+01 -4.457023e+00 -1.666994e+01 -6.593718e+00 -2.881693e+00 -9.274304e+00 -1.043640e+01 -5.853705e-01 -1.720892e+00 -5.959315e+00 3.782414e-01 1.299412e-01 1.497529e-01 5.752201e-02 3.414510e-01 7.734226e-02 -6.373748e-02 -1.427310e-01 1.775964e-01 3.005879e-01 2.569499e-02 -8.249201e-02 -8.350680e-01
<VARIANCE> 25
 1.908787e+01 2.338931e+01 2.626350e+01 3.412288e+01 2.395685e+01 4.460566e+01 3.951305e+01 2.886862e+01 2.767637e+01 3.142773e+01 2.539374e+01 3.315503e+01 9.069533e-01 1.617342e+00 1.330400e+00 2.142901e+00 2.701805e+00 2.346345e+00 2.125254e+00 1.942086e+00 2.064621e+00 1.842067e+00 2.025960e+00 1.812720e+00 9.236941e-01
<GCONST> 9.361640e+01
<STATE> 4
<MEAN> 25
 5.041597e+00 1.395873e+00 1.001556e+01 2.715976e+00 -5.374749e+00 -8.778487e+00 -4.265252e+00 -3.448817e+00 -3.242444e+00 8.172755e-01 1.154299e+00 5.907884e-01 -8.540116e-02 -5.705076e-01 -1.346341e+00 2.703052e-01 1.211668e+00 3.076809e-01 -4.881916e-02 6.645964e-01 9.684099e-01 5.347007e-02 -6.882513e-03 1.768794e-01 -7.701234e-01
<VARIANCE> 25
 2.585188e+01 2.527335e+01 4.998467e+01 2.578298e+01 5.017390e+01 6.491291e+01 3.506841e+01 6.020999e+01 3.138543e+01 3.035725e+01 2.278448e+01 3.361720e+01 1.540987e+00 1.386095e+00 2.000424e+00 1.912047e+00 1.676861e+00 2.159201e+00 1.311247e+00 2.560693e+00 3.205860e+00 2.209718e+00 2.221421e+00 2.879047e+00 7.374619e-01
<GCONST> 9.694196e+01
<TRANSP> 5
 0.000000e+00 1.000000e+00 0.000000e+00 0.000000e+00 0.000000e+00
 0.000000e+00 7.430124e-01 2.569876e-01 0.000000e+00 0.000000e+00
 0.000000e+00 0.000000e+00 8.899391e-01 1.100609e-01 0.000000e+00
 0.000000e+00 0.000000e+00 0.000000e+00 7.893326e-01 2.106675e-01
 0.000000e+00 0.000000e+00 0.000000e+00 0.000000e+00 0.000000e+00
<ENDHMM>
~h "jh"
<BEGINHMM>
<NUMSTATES> 5
<STATE> 2
<MEAN> 25
 -1.860304e+00 -4.907405e+00 -8.942607e-01 3.116841e+00 3.841115e-01 7.362261e-01 -4.811778e-02 1.781593e+00 -5.738758e+00 -5.372345e-01 1.070770e+00 -1.373194e-01 3.266395e-02 -2.004861e-02 -3.029049e-02 -2.718402e-02 1.046951e-01 1.173066e-02 -1.289771e-01 1.008164e-01 -9.364422e-02 4.239763e-02 8.084340e-02 -1.408234e-02 -1.978241e-01
<VARIANCE> 25
 5.651829e+00 6.958181e+00 8.759940e+00 7.673287e+00 2.191091e+01 1.920264e+01 1.168170e+01 1.398347e+01 1.979092e+01 1.717109e+01 1.466825e+01 9.829296e+00 3.977194e-01 3.181755e-01 6.134954e-01 1.142977e+00 1.904745e+00 2.726545e+00 1.703445e+00 1.578586e+00 2.204863e+00 2.067843e+00 1.803392e+00 1.217845e+00 1.421395e-01
<GCONST> 7.633164e+01
<STATE> 3
<MEAN> 25
 4.017771e+00 -2.762258e+00 4.802947e+00 -8.251763e-01 -6.675296e+00 -4.797620e+00 -4.274363e+00 3.999071e-01 6.071642e-01 5.746367e-01 9.873358e-01 -3.684490e+00 -1.052703e+00 3.412902e-01 3.664853e-01 -5.234897e-01 6.501418e-01 5.130413e-01 4.564220e-01 -4.474734e-01 -2.664630e-01 -5.397309e-01 -7.241299e-01 2.596030e-01 -1.912339e-01
<VARIANCE> 25
 5.516163e+00 1.991400e+01 2.299348e+01 7.087067e+00 5.307990e+01 1.684081e+01 6.047216e+00 4.905367e+00 1.922617e+01 1.039807e+01 1.516030e+01 9.703517e+00 2.887542e+00 4.117949e+00 2.499699e+00 9.279891e-01 1.716972e+00 2.514617e+00 2.763079e+00 6.005744e-01 1.884035e+00 9.516020e-01 1.258648e+00 1.186491e+00 1.251488e+00
<GCONST> 8.270964e+01
<STATE> 4
<MEAN> 25
 -6.906668e+00 7.550808e+00 3.022148e+00 -6.416395e-01 -1.649055e+00 -2.634207e+00 1.964752e+00 -1.017780e+00 5.576600e-01 1.393123e+00 -5.827460e-01 7.571947e-01 -6.417447e-01 2.878736e-01 -2.790910e-01 1.150127e-01 4.528260e-01 -7.330883e-01 1.202220e-01 8.987868e-02 3.293571e-01 -3.466680e-01 -3.198060e-01 5.028488e-01 7.528412e-02
<VARIANCE> 25
 9.622502e+01 3.407241e+01 5.349982e+01 1.605848e+01 1.106072e+02 3.441949e+01 3.643280e+01 2.127490e+01 2.838621e+01 2.622219e+01 1.123696e+01 5.351359e+00 1.136707e+01 5.279806e+00 1.291880e+00 1.208107e+00 1.006617e+00 9.166815e+00 4.358997e+00 4.129347e+00 3.571373e+00 2.525311e+00 1.099617e+00 7.423438e-01 2.792479e+00
<GCONST> 9.908025e+01
<TRANSP> 5
 0.000000e+00 1.000000e+00 0.000000e+00 0.000000e+00 0.000000e+00
 0.000000e+00 9.345400e-01 6.545996e-02 0.000000e+00 0.000000e+00
 0.000000e+00 0.000000e+00 7.042042e-01 2.957958e-01 0.000000e+00
 0.000000e+00 0.000000e+00 0.000000e+00 8.602778e-01 1.397222e-01
 0.000000e+00 0.000000e+00 0.000000e+00 0.000000e+00 0.000000e+00
<ENDHMM>
~h "ng"
<BEGINHMM>
<NUMSTATES> 5
<STATE> 2
<MEAN> 25
 5.631238e+00 -5.575256e+00 -9.650140e+00 -9.504376e+00 3.506445e+00 8.660830e-01 1.543868e+00 -7.094107e+00 6.012391e+00 -1.562743e-01 -1.193026e+00 -7.099955e+00 5.374182e-01 6.245165e-01 -2.302670e-02 -2.394707e-01 1.501301e-01 -1.431054e-01 -2.237782e-01 -3.600097e-01 -3.930515e-01 1.904393e-01 1.034399e-01 4.321483e-01 -1.245163e+00
<VARIANCE> 25
 5.022824e+01 2.229375e+01 3.503606e+01 3.162025e+01 2.110706e+01 3.775470e+01 2.416258e+01 2.891447e+01 3.638458e+01 3.221335e+01 3.298305e+01 4.329036e+01 3.264936e-01 3.908317e-01 1.022587e+00 1.423765e+00 1.760132e+00 2.247386e+00 1.148031e+00 1.861155e+00 1.959269e+00 1.448130e+00 2.214780e+00 1.320095e+00 2.711563e-01
<GCONST> 8.880016e+01
<STATE> 3
<MEAN> 25
 8.965363e+00 2.343999e+00 2.805620e-01 -2.267645e+00 2.023139e+00 -7.136903e-01 2.665831e+00 -2.853035e+00 -6.222474e-01 3.576121e+00 -6.090120e-01 -5.054824e-01 -1.004527e+00 -4.549083e-01 6.196260e-01 1.286367e+00 4.615620e-01 5.198908e-01 2.026941e-02 1.192079e+00 -1.179413e-01 2.995948e-02 5.783133e-01 2.294421e-01 -1.153015e+00
<VARIANCE> 25
 2.361899e+01 1.475224e+01 3.670590e+01 2.972804e+01 2.632907e+01 1.652332e+01 1.685966e+01 4.582319e+01 2.616532e+01 1.233147e+01 1.781581e+01 1.209215e+01 8.643739e-01 1.066322e+00 1.442556e+00 1.148238e+00 1.836466e+00 1.711691e+00 2.447809e+00 2.593740e+00 1.889511e+00 1.439486e+00 1.528528e+00 1.010638e+00 1.374629e-01
<GCONST> 8.553761e+01
<STATE> 4
<MEAN> 25
 -1.003556e+00 -3.348590e+00 2.031859e+00 6.240710e+00 4.991597e+00 2.444924e+00 1.883844e+00 3.735242e+00 -1.117291e+00 2.627331e+00 3.364458e-01 1.645599e+00 -7.681265e-02 -2.362177e-02 -7.608224e-02 7.801169e-02 -5.906697e-03 6.772333e-02 -5.303063e-02 4.810030e-02 -1.835770e-02 7.669449e-03 -4.403141e-02 1.159716e-02 -1.365873e-01
<VARIANCE> 25
 1.385996e+00 2.534932e+00 5.767672e+00 1.331726e+01 7.723029e+00 8.585442e+00 1.100010e+01 1.285578e+01 1.259687e+01 1.598649e+01 1.140526e+01 9.628984e+00 1.314806e-01 2.156000e-01 4.201071e-01 5.171759e-01 7.879833e-01 9.444326e-01 1.050475e+00 1.424544e+00 1.568026e+00 1.439319e+00 1.025393e+00 1.140467e+00 4.323445e-02
<GCONST> 6.354204e+01
<TRANSP> 5
 0.000000e+00 1.000000e+00 0.000000e+00 0.000000e+00 0.000000e+00
 0.000000e+00 9.114001e-01 8.859987e-02 0.000000e+00 0.000000e+00
 0.000000e+00 0.000000e+00 8.905886e-01 1.094114e-01 0.000000e+00
 0.000000e+00 0.000000e+00 0.000000e+00 9.629871e-01 3.701291e-02
 0.000000e+00 0.000000e+00 0.000000e+00 0.000000e+00 0.000000e+00
<ENDHMM>
~h "ow"
<BEGINHMM>
<NUMSTATES> 5
<STATE> 2
<MEAN> 25
 5.719218e+00 5.206789e+00 -7.624187e+00 -1.590990e+01 -5.803626e+00 9.916119e+00 -2.062270e+00 -6.390386e+00 5.278880e+00 -3.936690e+00 1.697342e+00 2.607734e+00 1.381246e+00 1.782139e+00 -4.883438e-01 -4.150129e+00 -8.466929e-01 2.125399e+00 -6.780920e-01 -1.035411e+00 1.685443e+00 -1.890283e+00 6.234938e-01 9.864813e-01 2.307602e+00
<VARIANCE> 25
 4.189752e+01 3.919423e+01 4.912467e+01 1.861519e+02 5.393581e+01 7.983118e+01 4.728568e+01 7.683173e+01 5.446620e+01 1.009051e+02 3.319663e+01 4.357701e+01 5.042874e+00 2.351424e+00 6.764071e+00 1.695283e+01 4.194535e+00 8.898230e+00 4.754540e+00 7.245395e+00 4.773730e+00 6.107451e+00 3.206172e+00 2.534498e+00 1.023798e+01
<GCONST> 1.170938e+02
<STATE> 3
<MEAN> 25
 9.605616e+00 1.331440e+01 -5.074754e+00 -2.514706e+01 -9.215927e+00 6.119901e+00 -3.831543e+00 -4.095686e+00 8.942840e+00 -1.320413e+01 3.926333e+00 4.580068e+00 2.690659e-01 -2.251954e-02 3.076820e-01 6.051817e-01 3.035847e-02 -8.436924e-01 1.723990e-01 3.148977e-01 -4.535754e-01 2.541480e-01 9.191046e-02 -1.064958e-02 -7.429902e-01
<VARIANCE> 25
 1.942584e+01 4.480368e+01 2.220216e+01 6.664168e+01 4.863429e+01 9.427377e+01 2.289935e+01 5.292064e+01 3.611705e+01 6.303193e+01 2.995548e+01 2.277915e+01 4.605877e-01 8.941119e-01 1.014231e+00 1.992156e+00 1.952918e+00 1.649397e+00 1.687544e+00 2.099062e+00 1.782391e+00 2.792769e+00 1.781621e+00 1.370488e+00 5.198424e-01
<GCONST> 9.389587e+01
<STATE> 4
<MEAN> 25
 8.619318e+00 2.743867e+00 1.349745e+00 -5.148242e+00 -5.224832e+00 -5.755406e+00 -2.916102e+00 1.148450e+00 -1.785548e+00 1.709580e+00 4.354047e+00 4.137930e+00 -1.174582e+00 -9.841911e-01 3.391916e-01 1.258687e+00 9.711530e-01 2.008393e-01 1.374737e-01 4.195161e-01 -1.954721e-02 6.018580e-01 -2.054076e-01 -2.651804e-01 -9.050504e-01
<VARIANCE> 25
 2.637284e+01 1.885163e+01 8.536141e+00 2.547128e+01 2.583890e+01 3.780410e+01 3.510000e+01 2.371595e+01 2.137161e+01 2.059428e+01 1.332775e+01 1.684908e+01 3.724591e-01 7.730200e-01 7.384926e-01 1.636944e+00 2.090707e+00 2.296675e+00 2.585433e+00 2.001603e+00 2.511466e+00 2.060556e+00 1.174126e+00 1.554276e+00 1.110335e-01
<GCONST> 8.485246e+01
<TRANSP> 5
 0.000000e+00 1.000000e+00 0.000000e+00 0.000000e+00 0.000000e+00
 0.000000e+00 7.091036e-01 2.908964e-01 0.000000e+00 0.000000e+00
 0.000000e+00 0.000000e+00 9.395773e-01 6.042269e-02 0.000000e+00
 0.000000e+00 0.000000e+00 0.000000e+00 8.776136e-01 1.223864e-01
 0.000000e+00 0.000000e+00 0.000000e+00 0.000000e+00 0.000000e+00
<ENDHMM>
~h "oy"
<BEGINHMM>
<NUMSTATES> 5
<STATE> 2
<MEAN> 25
 1.327158e+01 1.810343e+00 -3.834199e+00 -1.675395e+01 -1.381465e+01 7.320012e+00 -1.589857e+00 -9.021895e+00 1.021707e+01 -4.505207e+00 2.678474e-01 -2.852326e+00 8.823043e-02 -2.619268e-01 2.218271e-01 5.356329e-01 -1.067413e-01 -1.130297e+00 -3.446282e-01 1.391033e-03 -5.926790e-01 7.755053e-01 -1.394465e-01 1.310347e-01 -8.619659e-02
<VARIANCE> 25
 1.236624e+01 4.144773e+01 3.442881e+01 1.315920e+02 3.567448e+01 1.915771e+02 8.420549e+01 3.388913e+01 6.685052e+01 1.527207e+02 3.841668e+01 2.621338e+01 1.436198e+00 1.622506e+00 3.665089e+00 6.945607e+00 4.309251e+00 8.289976e+00 4.808430e+00 4.306332e+00 5.651321e+00 8.437054e+00 1.945505e+00 3.424248e+00 1.030642e+00
<GCONST> 1.100171e+02
<STATE> 3
<MEAN> 25
 -1.844195e+00 1.214345e+01 1.267821e+00 -6.935655e+00 -5.670485e+00 -1.162890e+01 -3.019192e+00 -3.167898e-01 -7.786604e+00 4.980020e+00 -1.413924e+00 6.302249e-01 -2.364076e+00 1.935604e+00 -8.596337e-01 3.272521e-01 1.800848e+00 -2.228427e-01 7.252231e-01 7.317505e-01 4.793608e-01 -1.713127e-01 4.225005e-01 4.349903e-01 -1.194731e-01
<VARIANCE> 25
 9.384671e+01 3.856637e+01 2.290089e+01 4.623494e+01 6.883765e+01 7.559614e+01 6.854548e+01 2.864369e+01 4.253147e+01 2.205574e+01 3.669970e+01 2.450184e+01 6.178927e+00 2.723660e+00 1.199879e+00 5.799079e+00 3.257106e+00 2.837684e+00 6.164143e+00 3.570122e+00 4.487321e+00 2.849984e+00 2.118384e+00 2.186184e+00 3.949175e-01
<GCONST> 1.041213e+02
<STATE> 4
<MEAN> 25
 -1.540078e+01 1.533389e+01 -6.150326e+00 -3.699429e-01 1.231004e+01 -1.029996e+01 6.457851e+00 1.048985e+00 -4.733967e-01 2.838171e+00 1.200825e+00 1.339635e+00 3.024160e-01 -6.840680e-01 6.369467e-02 5.929732e-01 3.942066e-01 2.249577e-01 6.634449e-01 -2.390065e-01 -2.544303e-02 -1.913783e-01 -1.962547e-01 -1.277038e-01 -8.006123e-01
<VARIANCE> 25
 1.453315e+01 1.542863e+01 5.438513e+00 1.823092e+01 2.498863e+01 7.324484e+00 1.628003e+01 2.511103e+01 2.014988e+01 1.312832e+01 9.098768e+00 6.769742e+00 8.065498e-01 8.516945e-01 3.436803e-01 1.158914e+00 8.432641e-01 6.498275e-01 8.761023e-01 2.039106e+00 9.035025e-01 9.935665e-01 7.559034e-01 6.051418e-01 4.726098e-01
<GCONST> 7.392075e+01
<TRANSP> 5
 0.000000e+00 1.000000e+00 0.000000e+00 0.000000e+00 0.000000e+00
 0.000000e+00 9.588682e-01 4.113180e-02 0.000000e+00 0.000000e+00
 0.000000e+00 0.000000e+00 8.889413e-01 1.110586e-01 0.000000e+00
 0.000000e+00 0.000000e+00 0.000000e+00 9.314087e-01 6.859130e-02
 0.000000e+00 0.000000e+00 0.000000e+00 0.000000e+00 0.000000e+00
<ENDHMM>
~h "sh"
<BEGINHMM>
<NUMSTATES> 5
<STATE> 2
<MEAN> 25
 4.824491e+00 2.220682e+00 5.214868e+00 2.981805e+00 3.009922e+00 -1.868483e+00 -3.382663e-01 2.368683e+00 2.376513e-01 1.653901e-01 1.575445e-01 2.919966e+00 -1.281695e+00 -8.861732e-01 -6.770203e-01 -1.091912e-01 1.046188e+00 1.128969e+00 -1.148373e-01 -2.425687e-01 -9.389790e-01 -4.148364e-02 1.121282e+00 2.761605e-01 -1.019197e+00
<VARIANCE> 25
 2.104407e+01 1.262607e+01 1.414510e+01 1.320267e+01 1.473414e+01 2.312930e+01 1.388537e+01 1.814901e+01 3.187532e+01 1.455476e+01 1.330481e+01 8.931407e+00 5.481371e-01 6.998428e-01 1.264531e+00 1.135137e+00 1.196587e+00 1.088281e+00 1.754744e+00 1.713525e+00 1.364778e+00 1.397711e+00 1.394586e+00 1.215658e+00 2.181620e-01
<GCONST> 7.945673e+01
<STATE> 3
<MEAN> 25
 -1.745620e+00 -2.705997e+00 7.780943e-02 2.984603e+00 4.626897e+00 3.317288e+00 -7.769783e-01 3.346827e+00 -3.842140e+00 5.860110e-01 1.767561e-01 1.783536e+00 -3.160821e-02 5.718226e-03 -4.163892e-02 4.964022e-02 -3.029365e-02 5.290217e-02 -3.478735e-02 4.210313e-02 -1.078275e-03 1.128904e-02 -6.562046e-02 -3.746906e-02 -1.007251e-01
<VARIANCE> 25
 1.853407e+00 3.085526e+00 5.698489e+00 9.157207e+00 7.494982e+00 1.225821e+01 1.190584e+01 1.374797e+01 1.427088e+01 1.195859e+01 1.059289e+01 9.947237e+00 1.041241e-01 1.613159e-01 3.477669e-01 5.288188e-01 6.526924e-01 1.065761e+00 1.100979e+00 1.320568e+00 1.409603e+00 1.368033e+00 9.432722e-01 1.062232e+00 2.944717e-02
<GCONST> 6.242582e+01
<STATE> 4
<MEAN> 25
 -2.069279e+00 -2.701981e+00 -9.339685e-01 3.914006e+00 2.995848e+00 2.171967e+00 -8.862835e-01 1.962945e+00 -3.523625e+00 -5.130666e-01 -7.760116e-02 1.250981e+00 -2.213494e-01 2.841937e-02 5.480429e-02 -3.328622e-01 8.993281e-02 -1.480947e+00 -1.074219e-02 -7.016200e-01 -3.995660e-01 2.137798e-02 -9.228453e-01 -3.629068e-01 2.390824e-01
<VARIANCE> 25
 4.274466e+00 2.980894e+00 4.497571e+00 9.796549e+00 1.048537e+01 2.479179e+01 1.181858e+01 2.778307e+01 1.381551e+01 1.947762e+01 1.480740e+01 8.929429e+00 4.453804e-01 7.740371e-01 8.937961e-01 1.989784e+00 2.141892e+00 1.450549e+00 2.240894e+00 3.177365e+00 2.702927e+00 2.539763e+00 6.017951e-01 1.469480e+00 2.714277e-01
<GCONST> 7.721828e+01
<TRANSP> 5
 0.000000e+00 1.000000e+00 0.000000e+00 0.000000e+00 0.000000e+00
 0.000000e+00 7.833006e-01 2.166995e-01 0.000000e+00 0.000000e+00
 0.000000e+00 0.000000e+00 9.742010e-01 2.579899e-02 0.000000e+00
 0.000000e+00 0.000000e+00 0.000000e+00 2.788584e-01 7.211415e-01
 0.000000e+00 0.000000e+00 0.000000e+00 0.000000e+00 0.000000e+00
<ENDHMM>
~h "sp"
<BEGINHMM>
<NUMSTATES> 3
<STATE> 2
~s "silst"
<TRANSP> 3
 0.000000e+00 5.074149e-01 4.925851e-01
 0.000000e+00 9.737936e-01 2.620641e-02
 0.000000e+00 0.000000e+00 0.000000e+00
<ENDHMM>
~h "th"
<BEGINHMM>
<NUMSTATES> 5
<STATE> 2
<MEAN> 25
 -1.140228e+01 4.395174e+00 -8.312637e-01 2.723881e+00 3.064653e+00 1.006393e+00 -2.136355e-02 -5.191687e-02 4.449038e+00 9.805934e-02 -3.742500e-01 1.270634e+00 3.092885e-01 -4.948972e-01 8.840473e-02 3.393766e-01 2.917220e-01 1.977822e-01 -2.366510e-02 2.950243e-01 -2.979282e-01 -1.487250e-01 1.219151e-01 1.133112e-01 -6.365557e-01
<VARIANCE> 25
 2.854996e+01 7.828940e+00 1.351430e+01 1.455176e+01 1.782661e+01 1.295295e+01 1.727911e+01 2.156643e+01 2.362000e+01 1.777465e+01 1.692909e+01 1.062055e+01 1.608935e+00 6.392901e-01 9.092844e-01 8.385866e-01 1.055100e+00 1.807775e+00 1.163831e+00 1.271151e+00 1.563869e+00 1.292917e+00 1.253860e+00 7.400121e-01 2.937961e-01
<GCONST> 7.943095e+01
<STATE> 3
<MEAN> 25
 -1.041228e+00 -2.400897e+00 1.251544e+00 2.076951e+00 2.634528e+00 -8.144878e-01 -9.805452e-01 7.047634e-01 -3.349249e+00 -5.384133e-01 4.736029e-01 1.930833e+00 -5.557892e-02 -1.096460e+00 2.069749e-01 3.448663e-01 8.977830e-01 1.111350e+00 3.501568e-01 1.057138e+00 1.698034e-01 1.037628e+00 4.709237e-01 -2.937109e-01 -6.995243e-01
<VARIANCE> 25
 2.271034e+01 6.094187e+00 6.493670e+00 5.823509e+00 2.598108e+01 8.348670e+00 1.277163e+01 2.057818e+01 3.044089e+01 1.659619e+01 1.296285e+01 1.192351e+01 1.491700e+00 3.803566e-01 6.306868e-01 8.180555e-01 1.906456e+00 8.802848e-01 1.524682e+00 1.624492e+00 2.904148e+00 1.498020e+00 1.045739e+00 1.440288e+00 1.188915e-01
<GCONST> 7.667283e+01
<STATE> 4
<MEAN> 25
 -6.265935e-01 -3.738410e+00 1.592649e+00 4.513016e+00 4.478830e+00 3.237157e+00 6.235202e-01 3.599925e+00 -2.319655e+00 2.400066e+00 1.374126e+00 1.357864e+00 -2.369594e-02 1.962832e-02 -2.720131e-02 5.480198e-02 -2.857219e-02 6.932524e-02 -7.393654e-03 5.916503e-02 -7.070443e-03 2.267403e-02 -2.329509e-02 1.906380e-02 -1.036064e-01
<VARIANCE> 25
 3.466069e+00 2.801584e+00 5.530258e+00 7.203420e+00 1.026243e+01 1.343568e+01 1.173162e+01 1.569613e+01 1.439676e+01 1.392612e+01 1.188567e+01 1.012768e+01 1.095622e-01 1.995205e-01 3.885224e-01 5.406725e-01 8.269486e-01 1.009483e+00 1.033752e+00 1.200949e+00 1.228563e+00 1.118577e+00 1.112052e+00 1.014068e+00 3.480488e-02
<GCONST> 6.387078e+01
<TRANSP> 5
 0.000000e+00 1.000000e+00 0.000000e+00 0.000000e+00 0.000000e+00
 0.000000e+00 8.382918e-01 1.617082e-01 0.000000e+00 0.000000e+00
 0.000000e+00 0.000000e+00 5.791221e-01 4.208779e-01 0.000000e+00
 0.000000e+00 0.000000e+00 0.000000e+00 9.704543e-01 2.954569e-02
 0.000000e+00 0.000000e+00 0.000000e+00 0.000000e+00 0.000000e+00
<ENDHMM>
~h "uh"
<BEGINHMM>
<NUMSTATES> 5
<STATE> 2
<MEAN> 25
 3.160877e+00 -8.369368e-01 5.279505e+00 1.025031e+01 1.150324e+01 3.430343e+00 7.144469e-02 7.442199e+00 3.945081e+00 -2.242638e+00 -4.906071e-01 3.936287e+00 6.769189e-02 1.361941e-01 4.139539e-02 4.752284e-02 -2.773404e-01 -1.134039e-01 2.330707e-01 2.057472e-03 -2.105058e-01 -4.102646e-02 2.646089e-01 2.337590e-02 1.344645e-02
<VARIANCE> 25
 1.324898e+01 3.708820e+00 2.477221e+01 2.839091e+01 3.015711e+01 2.208533e+01 3.515322e+01 1.421631e+01 3.272886e+01 1.778910e+01 1.692336e+01 1.510393e+01 2.314523e-01 3.244533e-01 4.111032e-01 4.895014e-01 1.342071e+00 1.980444e+00 2.746467e+00 1.415614e+00 2.077825e+00 1.708956e+00 1.393046e+00 1.950655e+00 2.102864e-01
<GCONST> 7.987401e+01
<STATE> 3
<MEAN> 25
 1.190485e+00 6.417991e+00 -3.796854e+00 -2.050738e+00 -4.989303e+00 1.990230e+00 -2.157686e+00 -6.349045e+00 2.405987e+00 -7.627621e+00 -1.181543e+00 1.138993e+00 2.310494e+00 2.195937e+00 -9.223118e-01 -2.316972e+00 -3.285017e+00 1.655288e+00 -1.457008e+00 -3.683893e+00 6.479688e-01 -3.281498e+00 -9.382085e-01 4.926014e-01 4.143438e+00
<VARIANCE> 25
 5.625245e+01 5.079971e+01 1.004365e+02 1.237344e+02 8.177863e+01 1.577002e+02 1.739221e+01 1.115186e+02 4.365280e+01 7.300356e+01 2.194542e+01 3.093442e+01 2.929861e+00 4.388332e+00 1.182543e+01 1.629623e+01 6.047030e+00 9.124365e+00 2.977273e+00 1.385482e+01 5.585332e+00 4.611532e+00 3.355276e+00 5.018701e+00 7.611505e+00
<GCONST> 1.186018e+02
<STATE> 4
<MEAN> 25
 6.972156e+00 8.706638e+00 -5.990460e+00 -1.206705e+01 -1.502889e+01 7.939672e+00 -1.157003e+01 -1.464258e+01 2.828507e+00 -1.296732e+01 5.755067e-02 6.209431e+00 9.969647e-02 -4.511155e-01 2.715291e-01 2.888371e-01 6.003407e-01 -2.760409e-01 -2.555642e-01 6.536117e-01 -1.760211e-01 6.693938e-01 1.132277e-01 5.814787e-02 -4.422261e-01
<VARIANCE> 25
 2.156081e+01 4.517949e+01 5.158572e+01 1.683857e+02 3.704350e+01 7.903452e+01 4.802559e+01 5.324311e+01 3.073544e+01 5.141362e+01 2.812269e+01 3.816470e+01 1.151297e+00 1.711527e+00 2.342289e+00 3.787030e+00 4.211543e+00 5.124737e+00 4.726041e+00 3.741578e+00 3.012611e+00 2.730747e+00 1.952444e+00 2.511661e+00 1.993030e+00
<GCONST> 1.052629e+02
<TRANSP> 5
 0.000000e+00 1.000000e+00 0.000000e+00 0.000000e+00 0.000000e+00
 0.000000e+00 8.776028e-01 1.223972e-01 0.000000e+00 0.000000e+00
 0.000000e+00 0.000000e+00 7.726437e-01 2.273563e-01 0.000000e+00
 0.000000e+00 0.000000e+00 0.000000e+00 9.278746e-01 7.212544e-02
 0.000000e+00 0.000000e+00 0.000000e+00 0.000000e+00 0.000000e+00
<ENDHMM>
~h "uw"
<BEGINHMM>
<NUMSTATES> 5
<STATE> 2
<MEAN> 25
 -7.868975e+00 3.165648e+00 3.607337e+00 1.617258e+00 -5.727483e+00 -2.249533e+00 -3.703702e+00 -3.489792e+00 3.704645e+00 -3.259047e+00 -6.672613e-02 -7.839369e-01 1.524248e+00 7.687759e-01 3.943828e-01 5.266186e-02 -6.688017e-01 4.222153e-01 -7.512558e-01 -1.087209e+00 -1.131828e-01 -7.231736e-01 3.652560e-02 -6.030581e-01 1.496364e+00
<VARIANCE> 25
 1.026345e+02 5.731640e+01 6.100118e+01 7.104012e+01 1.174246e+02 9.650323e+01 7.298788e+01 5.799494e+01 5.185406e+01 8.306128e+01 3.445770e+01 3.003742e+01 8.280114e+00 4.808116e+00 4.502762e+00 5.319368e+00 5.760271e+00 8.068550e+00 6.510039e+00 3.795385e+00 6.186758e+00 8.427534e+00 3.449179e+00 3.262962e+00 4.518662e+00
<GCONST> 1.177862e+02
<STATE> 3
<MEAN> 25
 1.027988e+01 1.989765e+00 -1.266325e+00 -4.910907e-01 -8.448194e+00 -1.704152e-01 -9.522441e+00 -7.989970e+00 3.726106e+00 1.408664e+00 2.935981e+00 -5.654820e+00 2.765507e-01 -7.282339e-02 -1.645407e-01 -5.174205e-01 2.484043e-01 -9.377936e-03 8.099873e-02 3.568683e-02 1.053719e-02 4.913329e-01 1.069040e-01 1.979068e-01 -3.460861e-01
<VARIANCE> 25
 2.395363e+01 5.662748e+01 5.669122e+01 6.672382e+01 6.960829e+01 1.275931e+02 5.515639e+01 6.517073e+01 5.431045e+01 7.880761e+01 4.640000e+01 4.572619e+01 1.178598e+00 2.505321e+00 3.431193e+00 3.575746e+00 3.587185e+00 6.073082e+00 3.802565e+00 3.969708e+00 3.952203e+00 4.612038e+00 3.710875e+00 4.101697e+00 1.860386e+00
<GCONST> 1.103302e+02
<STATE> 4
<MEAN> 25
 1.047674e+01 1.110064e+01 6.419266e-01 -8.860780e+00 -9.054852e+00 9.886534e-01 -1.831915e+00 -8.735111e+00 -1.046164e+00 -8.360105e+00 2.140680e+00 -9.007003e-01 -2.986409e-01 -4.879773e-01 1.549429e-01 3.077515e-01 4.423799e-01 -7.484210e-01 2.900027e-02 5.921269e-01 -1.956701e-01 3.197051e-01 -6.958301e-02 3.079550e-01 -8.367190e-01
<VARIANCE> 25
 2.358247e+01 5.236613e+01 2.035943e+01 6.105578e+01 5.115828e+01 1.046506e+02 3.664545e+01 4.632090e+01 4.855168e+01 1.219132e+02 2.877920e+01 3.772365e+01 1.320816e+00 1.077813e+00 1.255771e+00 2.431909e+00 2.104819e+00 2.843150e+00 1.882754e+00 2.558187e+00 2.122310e+00 3.428675e+00 1.890628e+00 1.821011e+00 5.083801e-01
<GCONST> 9.926458e+01
<TRANSP> 5
 0.000000e+00 1.000000e+00 0.000000e+00 0.000000e+00 0.000000e+00
 0.000000e+00 8.529809e-01 1.470191e-01 0.000000e+00 0.000000e+00
 0.000000e+00 0.000000e+00 9.011613e-01 9.883867e-02 0.000000e+00
 0.000000e+00 0.000000e+00 0.000000e+00 8.762099e-01 1.237902e-01
 0.000000e+00 0.000000e+00 0.000000e+00 0.000000e+00 0.000000e+00
<ENDHMM>
~h "zh"
<BEGINHMM>
<NUMSTATES> 5
<STATE> 2
<MEAN> 25
 -8.189673e+00 6.009601e+00 6.329103e+00 1.551835e+00 -1.288839e+01 -4.510762e+00 -2.853882e+00 -5.048609e+00 4.020132e+00 -4.658982e+00 9.819247e-01 2.176434e+00 2.057148e-01 -3.552323e-01 -5.654565e-01 2.456092e-02 5.077184e-02 -1.541326e-01 -4.589198e-01 -5.356954e-02 6.762342e-02 -5.899875e-02 -4.870155e-01 -6.359373e-02 -4.499171e-01
<VARIANCE> 25
 9.988650e+01 3.546294e+01 1.811730e+01 1.648772e+01 1.648997e+01 8.605070e+01 4.187862e+01 1.816990e+01 1.142260e+01 2.982414e+01 3.049558e+01 1.341150e+01 6.430832e+00 3.290730e+00 1.872201e+00 1.102829e+00 1.733715e+00 3.336123e+00 2.090995e+00 1.512905e+00 1.120148e+00 2.382069e+00 1.537859e+00 1.190553e+00 4.476944e-01
<GCONST> 9.302232e+01
<STATE> 3
<MEAN> 25
 8.952497e+00 -1.029429e+00 -3.135799e+00 2.280581e-01 -6.889005e+00 -7.237920e+00 -4.326497e+00 2.407559e+00 7.138442e+00 6.149584e-01 -4.241856e+00 -2.740916e+00 -1.066667e-01 5.613819e-02 2.044280e-02 -1.909725e-02 9.754665e-01 7.759655e-01 6.667587e-01 2.425902e-01 -2.059766e-01 2.939533e-01 2.308073e-01 -2.254804e-02 -1.310294e+00
<VARIANCE> 25
 2.321010e+01 1.404336e+01 3.094526e+01 1.428139e+01 9.151296e+01 4.481936e+01 6.949917e+01 2.805875e+01 2.992359e+01 2.839977e+01 1.537030e+01 2.474371e+01 1.472737e+00 9.886565e-01 1.322714e+00 1.294410e+00 3.327601e+00 1.998301e+00 3.099647e+00 1.874289e+00 3.547741e+00 1.914456e+00 1.479636e+00 2.056459e+00 1.784453e-01
<GCONST> 9.227820e+01
<STATE> 4
<MEAN> 25
 -8.186947e-01 -2.244281e+00 -2.351860e+00 1.496716e+00 7.826354e+00 3.325197e+00 1.828860e+00 1.983500e+00 -2.488078e+00 1.304535e-01 6.804484e-01 1.934474e+00 -8.452630e-02 -2.684469e-02 -1.197681e-01 -2.307399e-02 -1.324394e-02 6.012206e-03 -1.055480e-01 -2.414079e-02 -1.277076e-01 -3.574026e-02 3.882121e-02 3.249395e-02 -1.439597e-01
<VARIANCE> 25
 4.504878e+00 1.073859e+01 1.944517e+01 9.071291e+00 1.085043e+01 9.895274e+00 1.266271e+01 1.529689e+01 1.989548e+01 1.476272e+01 1.124482e+01 9.513285e+00 1.928011e-01 3.190698e-01 6.036170e-01 7.468806e-01 1.007742e+00 1.162428e+00 1.308152e+00 1.470547e+00 2.194431e+00 1.322475e+00 1.220993e+00 1.241899e+00 7.914506e-02
<GCONST> 7.146903e+01
<TRANSP> 5
 0.000000e+00 1.000000e+00 0.000000e+00 0.000000e+00 0.000000e+00
 0.000000e+00 9.295574e-01 7.044262e-02 0.000000e+00 0.000000e+00
