~o
<STREAMINFO> 1 25
<VECSIZE> 25<NULLD><MFCC_D_N_Z_0><DIAGC>
~s "silst"
<MEAN> 25
 -1.191030e+00 6.409047e-01 1.703464e+00 -9.162191e-01 -5.275047e-01 -3.726004e-01 -7.738868e-01 -2.913438e+00 -1.514363e-02 3.734823e-01 -6.324669e-02 -9.145188e-02 8.331891e-04 7.008461e-02 6.745739e-02 -9.913736e-02 -2.931286e-02 -1.023443e-01 2.875954e-02 -1.287694e-01 3.566094e-02 3.481658e-02 -3.284175e-02 -2.802274e-03 1.407946e-01
<VARIANCE> 25
 5.781226e+01 4.925267e+01 4.845610e+01 9.778035e+01 6.613258e+01 5.932396e+01 3.331149e+01 9.160081e+01 4.738541e+01 5.202048e+01 2.527408e+01 3.953659e+01 2.394455e+00 1.878724e+00 2.284155e+00 3.631431e+00 3.272505e+00 3.695135e+00 2.587090e+00 8.075213e+00 2.829053e+00 2.759166e+00 1.991096e+00 2.379313e+00 3.464500e+00
<GCONST> 1.073837e+02
~h "b"
<BEGINHMM>
<NUMSTATES> 5
<STATE> 2
<MEAN> 25
 -1.241480e+00 -3.680515e+00 3.836015e+00 2.857402e+00 3.398070e+00 2.784581e+00 -1.494735e+00 3.550582e+00 -1.278630e+00 1.096633e+00 1.757113e+00 8.996961e-01 -8.385492e-02 1.856731e-02 6.427514e-02 1.812501e-02 -1.198469e-01 -6.169362e-02 -2.065906e-01 -4.988413e-02 3.210758e-02 -3.261556e-02 -6.834571e-02 -2.259574e-02 -2.406612e-02
<VARIANCE> 25
 1.367069e+01 1.268455e+01 1.775621e+01 2.765707e+01 2.383043e+01 2.033666e+01 2.584298e+01 2.703616e+01 2.661978e+01 2.403367e+01 2.293395e+01 1.675488e+01 3.182389e-01 4.050350e-01 6.667125e-01 8.165088e-01 1.201876e+00 1.641150e+00 1.915388e+00 1.750059e+00 1.988490e+00 1.737794e+00 1.766688e+00 1.422337e+00 5.685291e-01
<GCONST> 8.327291e+01
<STATE> 3
<MEAN> 25
 2.241070e+00 1.692168e-01 2.836103e+00 3.828348e+00 2.519541e+00 1.868122e+00 -1.366156e+00 9.551839e-01 -1.512846e+00 1.301163e-01 -9.103491e-01 2.984353e-01 -2.070482e-01 3.045982e-01 1.900731e-01 -4.413277e-01 -7.748106e-01 -6.789188e-01 -3.124025e-01 -5.264847e-01 3.372903e-01 -2.577601e-01 -8.348800e-01 -6.364842e-01 1.558999e+00
<VARIANCE> 25
 3.008593e+01 2.426654e+01 3.989291e+01 3.675370e+01 4.327538e+01 5.160798e+01 2.749972e+01 4.032158e+01 3.135314e+01 2.397589e+01 2.284462e+01 1.962859e+01 2.791794e+00 2.664302e+00 4.717309e+00 3.516088e+00 4.204480e+00 4.471338e+00 2.923650e+00 4.077196e+00 4.657419e+00 2.250787e+00 3.241598e+00 2.273112e+00 9.401718e+00
<GCONST> 1.040961e+02
<STATE> 4
<MEAN> 25
 2.745749e+00 4.198994e+00 4.346779e+00 -2.854623e+00 -7.629830e+00 -2.549059e+00 -1.151516e+00 -2.453726e+00 5.021290e-02 -2.764696e+00 -2.653038e+00 -1.334430e+00 2.464296e-01 3.201566e-02 -1.995331e-01 -5.982074e-01 -5.345123e-01 -2.916796e-01 -9.221151e-03 -4.522994e-03 5.434615e-01 -1.041378e-01 -5.544425e-02 -1.691403e-01 1.245027e+00
<VARIANCE> 25
 6.503297e+01 5.379430e+01 8.995141e+01 1.337822e+02 7.697562e+01 1.433116e+02 4.331129e+01 5.246658e+01 7.224814e+01 6.290275e+01 2.887996e+01 2.927381e+01 2.863174e+00 3.910716e+00 5.126998e+00 7.888588e+00 5.863048e+00 9.017428e+00 4.182286e+00 4.002352e+00 5.047708e+00 4.729451e+00 3.065254e+00 3.344905e+00 1.123742e+01
<GCONST> 1.165218e+02
<TRANSP> 5
 0.000000e+00 1.000000e+00 0.000000e+00 0.000000e+00 0.000000e+00
 0.000000e+00 8.586867e-01 1.413133e-01 0.000000e+00 0.000000e+00
 0.000000e+00 0.000000e+00 2.180224e-01 7.819776e-01 0.000000e+00
 0.000000e+00 0.000000e+00 0.000000e+00 8.004997e-01 1.995003e-01
 0.000000e+00 0.000000e+00 0.000000e+00 0.000000e+00 0.000000e+00
<ENDHMM>
~h "d"
<BEGINHMM>
<NUMSTATES> 5
<STATE> 2
<MEAN> 25
 8.385181e-01 -2.716491e+00 -1.296218e-01 6.173580e-01 2.380263e+00 9.286261e-01 1.060924e+00 3.021045e+00 6.357777e-02 1.620010e+00 1.832643e+00 1.375542e+00 -3.295839e-01 -2.448684e-01 2.123489e-01 5.105574e-01 4.596326e-01 2.622795e-01 -3.796997e-02 1.897130e-02 -1.723154e-01 -5.183242e-02 5.335380e-02 3.015372e-02 -3.809769e-01
<VARIANCE> 25
 1.525901e+01 6.948721e+00 1.264629e+01 2.765869e+01 2.351329e+01 3.328607e+01 1.960116e+01 1.531434e+01 1.586373e+01 1.569795e+01 1.683031e+01 1.728647e+01 7.573541e-01 6.710004e-01 8.103215e-01 1.461963e+00 1.635035e+00 1.647170e+00 1.737701e+00 1.786513e+00 1.835903e+00 1.568552e+00 1.621542e+00 1.403750e+00 2.635274e-01
<GCONST> 8.218843e+01
<STATE> 3
<MEAN> 25
 -4.505634e-01 -2.861272e+00 5.994021e-01 2.725626e+00 3.681569e+00 9.910294e-01 5.164767e-01 2.284806e+00 -1.074279e+00 9.062304e-01 1.215586e+00 8.897494e-01 -3.780693e-02 -4.675812e-02 1.615193e-02 1.634237e-01 1.493481e-01 1.453868e-01 -3.651046e-02 -7.311475e-02 -2.247743e-01 -2.179787e-01 -7.036105e-03 -2.906574e-02 -2.518397e-01
<VARIANCE> 25
 1.338560e+01 1.032347e+01 1.223294e+01 1.839876e+01 1.392985e+01 3.460826e+01 1.945555e+01 1.317483e+01 1.682826e+01 1.800040e+01 1.728482e+01 1.642728e+01 3.476848e-01 6.705128e-01 8.785357e-01 1.062667e+00 1.106913e+00 1.355422e+00 1.420930e+00 1.809276e+00 1.516035e+00 1.917215e+00 1.491412e+00 1.352302e+00 2.415703e-01
<GCONST> 7.955170e+01
<STATE> 4
<MEAN> 25
 -1.714804e+00 -3.615346e+00 2.524843e-01 4.224333e+00 3.378797e+00 2.511423e+00 -5.870602e-01 2.970570e+00 -2.975887e+00 1.479475e+00 7.679172e-01 1.148498e+00 -2.524003e-02 3.290991e-02 -2.076235e-02 3.807948e-02 -4.145595e-02 5.335099e-02 -4.624800e-02 7.379588e-03 -4.624994e-02 5.639860e-03 -1.529071e-02 -5.547416e-03 -9.135499e-02
<VARIANCE> 25
 4.676692e+00 5.505581e+00 5.933952e+00 8.997644e+00 9.490093e+00 1.603432e+01 1.351898e+01 1.434898e+01 1.519850e+01 1.230762e+01 1.149307e+01 1.247733e+01 1.559453e-01 3.341879e-01 4.417135e-01 5.969498e-01 6.935134e-01 9.941365e-01 1.233467e+00 1.283495e+00 1.453309e+00 1.169398e+00 1.212792e+00 1.260044e+00 7.220758e-02
<GCONST> 6.778917e+01
<TRANSP> 5
 0.000000e+00 1.000000e+00 0.000000e+00 0.000000e+00 0.000000e+00
 0.000000e+00 7.798504e-01 2.201496e-01 0.000000e+00 0.000000e+00
 0.000000e+00 0.000000e+00 5.436760e-01 4.563240e-01 0.000000e+00
 0.000000e+00 0.000000e+00 0.000000e+00 9.582332e-01 4.176677e-02
 0.000000e+00 0.000000e+00 0.000000e+00 0.000000e+00 0.000000e+00
<ENDHMM>
~h "f"
<BEGINHMM>
<NUMSTATES> 5
<STATE> 2
<MEAN> 25
 -1.321243e+00 -4.185214e+00 1.576218e+00 4.775917e+00 4.517185e+00 1.501118e+00 5.111046e-01 3.522455e+00 -1.784903e+00 2.938304e+00 7.360116e-01 3.752525e-01 -9.088995e-02 -2.941490e-02 -6.084026e-02 7.695096e-02 3.491117e-02 1.080615e-01 -1.641027e-03 -8.880796e-03 -2.380768e-02 1.108077e-02 -4.149242e-02 -3.217990e-02 -1.161806e-01
<VARIANCE> 25
 6.031578e+00 7.571487e+00 5.310313e+00 1.071744e+01 1.148938e+01 1.008817e+01 1.212856e+01 1.349169e+01 1.794449e+01 1.551278e+01 1.053861e+01 1.180690e+01 2.029512e-01 3.360246e-01 4.474831e-01 6.256377e-01 8.028010e-01 8.502531e-01 1.302606e+00 1.355681e+00 1.635699e+00 1.312257e+00 1.335202e+00 1.203818e+00 9.572208e-02
<GCONST> 6.923339e+01
<STATE> 3
<MEAN> 25
 -1.352834e+01 4.087118e+00 -9.644026e-01 5.843544e+00 2.171216e+00 1.651939e+00 5.495308e-02 8.591750e-01 3.567146e+00 2.970806e-01 -5.320604e-01 1.435271e+00 -7.342597e-01 5.149557e-01 1.543005e-02 4.684623e-02 -1.316190e-01 -9.469796e-02 2.396144e-02 -1.233852e-01 3.041882e-01 -1.201786e-01 -9.123997e-02 8.429335e-03 7.779872e-01
<VARIANCE> 25
 4.868557e+01 2.891519e+01 2.125260e+01 1.527447e+01 1.173975e+01 1.627681e+01 1.633503e+01 2.582664e+01 2.342359e+01 1.512578e+01 2.072176e+01 1.560101e+01 1.563753e+00 1.457421e+00 1.284220e+00 1.427329e+00 9.534703e-01 1.287544e+00 1.723538e+00 1.601716e+00 2.566838e+00 1.626107e+00 1.808279e+00 1.207693e+00 1.423672e+00
<GCONST> 8.713890e+01
<STATE> 4
<MEAN> 25
 -7.458451e+00 5.435397e+00 -1.664585e+00 1.746939e+00 -3.335266e+00 2.546484e-01 3.163077e+00 -1.076818e+00 2.034933e+00 8.118439e-01 -1.420006e+00 6.973155e-01 5.883627e-01 2.589057e-01 -6.134003e-03 -1.083439e+00 -6.668959e-01 3.617378e-01 -7.571768e-03 -3.296436e-01 -8.157310e-02 -6.582474e-01 -4.590863e-01 5.480509e-02 7.878070e-01
<VARIANCE> 25
 1.567773e+02 4.524692e+01 4.824664e+01 1.058433e+02 9.132005e+01 3.174455e+01 4.703490e+01 4.898622e+01 4.584255e+01 2.506023e+01 1.975860e+01 1.472193e+01 9.696475e+00 3.700526e+00 2.847855e+00 7.612475e+00 4.821998e+00 3.642534e+00 2.663588e+00 3.528346e+00 2.462500e+00 4.174849e+00 2.620123e+00 1.756364e+00 2.591688e+00
<GCONST> 1.083581e+02
<TRANSP> 5
 0.000000e+00 1.000000e+00 0.000000e+00 0.000000e+00 0.000000e+00
 0.000000e+00 9.402480e-01 5.975200e-02 0.000000e+00 0.000000e+00
 0.000000e+00 0.000000e+00 8.645221e-01 1.354779e-01 0.000000e+00
 0.000000e+00 0.000000e+00 0.000000e+00 8.293553e-01 1.706447e-01
 0.000000e+00 0.000000e+00 0.000000e+00 0.000000e+00 0.000000e+00
<ENDHMM>
~h "g"
<BEGINHMM>
<NUMSTATES> 5
<STATE> 2
<MEAN> 25
 -9.919387e-01 -3.630708e+00 -3.883772e-01 3.011929e+00 4.141785e+00 4.790017e+00 -1.425941e+00 2.055604e+00 -2.111116e+00 3.605090e-01 1.838418e+00 1.102514e+00 -1.037519e-02 -1.713152e-02 -5.406074e-03 4.961320e-02 -8.640602e-03 5.344495e-02 -1.811324e-02 4.731237e-02 -4.130254e-02 3.984610e-02 -4.934783e-02 1.968787e-02 -9.342099e-02
<VARIANCE> 25
 2.961624e+00 3.968391e+00 6.246675e+00 9.010693e+00 8.068427e+00 1.135356e+01 1.396714e+01 1.378206e+01 1.287436e+01 1.182361e+01 1.106650e+01 1.172624e+01 1.378927e-01 2.519839e-01 3.879611e-01 6.118426e-01 8.467220e-01 1.091033e+00 1.007216e+00 1.231783e+00 1.391991e+00 1.400484e+00 1.140827e+00 1.210748e+00 5.101748e-02
<GCONST> 6.546370e+01
<STATE> 3
<MEAN> 25
 -5.214365e-01 -3.168789e+00 -1.621346e+00 3.481416e+00 3.814381e+00 4.485058e+00 -7.040542e-01 4.151479e+00 -1.971448e+00 2.393611e+00 1.600824e-01 2.260328e+00 -6.689585e-01 -7.079495e-01 -1.697336e-01 -9.421980e-01 -1.557746e+00 -2.169790e+00 1.968596e+00 -1.022921e+00 2.375018e-01 -1.548861e+00 -1.820744e+00 -4.774572e-01 4.077806e+00
<VARIANCE> 25
 5.009480e+00 3.173217e+00 5.842039e+00 1.353652e+01 6.262190e+00 2.571658e+01 1.347219e+01 1.442360e+01 6.057049e+00 1.041531e+01 9.647827e+00 1.155441e+01 2.624044e+00 2.979946e+00 2.365767e+00 6.050182e+00 4.957571e+00 1.053383e+01 1.078349e+01 4.032825e+00 1.775133e+00 5.715737e+00 2.384856e+00 4.421371e+00 6.167424e+00
<GCONST> 9.123070e+01
<STATE> 4
<MEAN> 25
 7.740099e-01 -1.671233e+00 2.073233e+00 -6.153475e+00 -5.359874e+00 -9.057526e+00 8.260975e+00 -8.083323e-01 1.341141e+00 -5.241276e-01 -4.589460e+00 -2.098360e+00 2.572424e-01 3.604387e-01 5.551713e-01 -5.284882e-01 -6.674687e-01 -7.863696e-01 1.377646e-01 -2.730268e-01 7.751034e-02 2.007699e-02 1.516446e-01 -2.370825e-01 1.482474e+00
<VARIANCE> 25
 3.131858e+01 3.741740e+01 6.467413e+01 5.467295e+01 7.209308e+01 7.066969e+01 1.382487e+02 5.244662e+01 4.350832e+01 6.502818e+01 3.561715e+01 2.996343e+01 2.622199e+00 1.785360e+00 4.722309e+00 4.641508e+00 4.945880e+00 5.595148e+00 5.428741e+00 4.414314e+00 3.964049e+00 4.483817e+00 3.302573e+00 2.588047e+00 1.381471e+01
<GCONST> 1.123065e+02
<TRANSP> 5
 0.000000e+00 1.000000e+00 0.000000e+00 0.000000e+00 0.000000e+00
 0.000000e+00 9.806957e-01 1.930430e-02 0.000000e+00 0.000000e+00
 0.000000e+00 0.000000e+00 3.578317e-01 6.421683e-01 0.000000e+00
 0.000000e+00 0.000000e+00 0.000000e+00 9.231079e-01 7.689208e-02
 0.000000e+00 0.000000e+00 0.000000e+00 0.000000e+00 0.000000e+00
<ENDHMM>
~h "k"
<BEGINHMM>
<NUMSTATES> 5
<STATE> 2
<MEAN> 25
 -2.932189e-01 -1.173546e-01 1.532503e+00 1.191658e+00 -1.815967e+00 -3.739994e+00 -4.877574e-01 1.916352e+00 -1.000531e+00 2.142712e-01 9.568712e-01 1.726574e-01 -7.099214e-01 -4.327162e-01 -8.429274e-01 5.186990e-02 -2.082435e-01 -8.123511e-02 -2.765329e-01 2.876483e-01 7.992122e-01 -3.652916e-01 1.766795e-01 -2.902786e-01 1.626154e+00
<VARIANCE> 25
 5.574656e+01 3.753415e+01 5.800270e+01 5.141018e+01 6.856013e+01 7.607334e+01 5.261403e+01 4.428247e+01 3.593179e+01 2.476502e+01 1.599482e+01 2.082883e+01 4.552519e+00 3.719315e+00 6.893490e+00 2.933844e+00 4.531401e+00 5.684951e+00 6.634620e+00 4.377682e+00 4.610875e+00 2.968041e+00 2.910837e+00 3.236567e+00 7.543162e+00
<GCONST> 1.098397e+02
<STATE> 3
<MEAN> 25
 -2.954556e+00 -2.215101e+00 -2.079820e+00 -7.280845e-01 -1.630573e+00 -4.520343e+00 -2.374656e+00 1.622387e+00 3.089907e+00 -3.027998e-01 -4.646105e-02 -8.607043e-01 -4.124352e-01 -2.426409e-01 -8.076366e-01 -5.230026e-01 -5.411034e-01 1.889325e-02 -1.155061e-01 -2.234593e-01 1.091710e+00 -2.385759e-01 -1.326366e-01 -2.487587e-01 2.056583e+00
<VARIANCE> 25
 7.205457e+01 4.222861e+01 5.410412e+01 3.293826e+01 8.016077e+01 7.015282e+01 8.448326e+01 6.641685e+01 5.333759e+01 3.726648e+01 2.182934e+01 2.477684e+01 6.986319e+00 4.082330e+00 9.904859e+00 5.540474e+00 7.200328e+00 8.133224e+00 7.822102e+00 6.437618e+00 5.798281e+00 4.195692e+00 3.651600e+00 3.230460e+00 9.234367e+00
<GCONST> 1.158354e+02
<STATE> 4
<MEAN> 25
 2.072856e+00 1.149708e+00 -4.788066e+00 -6.264694e+00 -3.625843e+00 -1.054855e+00 -2.405251e-01 -1.821079e+00 5.218529e+00 -1.356315e+00 4.767728e-02 -2.575603e+00 1.433187e-01 3.193830e-01 -2.187785e-01 -2.951035e-01 -8.595437e-02 7.598333e-02 2.213120e-01 -1.402417e-01 6.639165e-02 -1.123109e-01 1.140452e-01 2.064965e-02 3.800951e-01
<VARIANCE> 25
 8.042453e+01 6.410526e+01 8.014093e+01 9.281177e+01 6.234288e+01 9.442745e+01 7.906558e+01 7.151871e+01 7.277417e+01 3.545451e+01 4.114345e+01 3.923930e+01 5.301196e+00 3.063010e+00 5.971008e+00 5.411973e+00 4.094082e+00 5.425510e+00 5.043175e+00 4.525538e+00 4.829397e+00 3.461154e+00 3.908358e+00 3.719521e+00 4.722984e+00
<GCONST> 1.155090e+02
<TRANSP> 5
 0.000000e+00 1.000000e+00 0.000000e+00 0.000000e+00 0.000000e+00
 0.000000e+00 5.108069e-01 4.891931e-01 0.000000e+00 0.000000e+00
 0.000000e+00 0.000000e+00 5.792369e-01 4.207631e-01 0.000000e+00
 0.000000e+00 0.000000e+00 0.000000e+00 8.289961e-01 1.710039e-01
 0.000000e+00 0.000000e+00 0.000000e+00 0.000000e+00 0.000000e+00
<ENDHMM>
~h "l"
<BEGINHMM>
<NUMSTATES> 5
<STATE> 2
<MEAN> 25
 5.844857e+00 -5.984820e-01 -4.115596e+00 -5.831596e+00 -4.741938e+00 -1.186117e+00 -1.284199e+00 -5.837742e+00 6.505407e+00 -6.456047e-02 -1.833339e+00 -5.300499e+00 2.620256e-01 8.634156e-02 8.427884e-02 -1.518261e-01 -3.144574e-01 3.034122e-02 -2.795295e-01 -1.452600e-01 3.062029e-02 -6.078984e-02 1.275468e-01 1.685427e-01 -2.659343e-03
<VARIANCE> 25
 3.716009e+01 3.125261e+01 4.999942e+01 1.255969e+02 6.418643e+01 6.597816e+01 8.748554e+01 7.834584e+01 6.649052e+01 5.382006e+01 5.693628e+01 7.367086e+01 2.325927e+00 2.212239e+00 3.003586e+00 5.178240e+00 4.006670e+00 5.365614e+00 4.201678e+00 5.667601e+00 3.842065e+00 3.668829e+00 3.775123e+00 3.942228e+00 3.058643e+00
<GCONST> 1.125420e+02
<STATE> 3
<MEAN> 25
 6.570560e+00 1.104213e+00 -1.679389e+00 -7.192889e+00 -5.165092e+00 -2.534788e+00 -1.264543e+00 -1.454286e+00 3.621648e+00 6.006888e-01 -2.087583e+00 -1.246581e+00 -1.703179e-01 1.432604e-01 2.176907e-01 4.763402e-01 -3.828096e-02 -3.573755e-01 4.620357e-01 6.942860e-01 -4.153305e-01 -1.241277e-01 9.217842e-02 2.804719e-01 -7.188203e-01
<VARIANCE> 25
 3.708378e+01 3.030378e+01 3.738955e+01 9.570369e+01 5.338012e+01 5.871431e+01 7.522531e+01 6.886777e+01 4.514061e+01 4.957967e+01 4.548837e+01 7.179546e+01 9.861121e-01 1.157309e+00 1.627923e+00 2.352155e+00 2.204958e+00 3.711660e+00 3.867198e+00 4.407961e+00 2.652286e+00 3.273672e+00 2.661408e+00 2.968955e+00 1.206430e+00
<GCONST> 1.043904e+02
<STATE> 4
<MEAN> 25
 2.660730e+00 -2.104082e-01 -6.366907e-01 -5.917910e-01 -1.118970e+00 -1.659482e+00 6.601317e-01 -5.658034e-01 1.051805e+00 4.906630e-01 8.653171e-01 -4.655727e-01 -3.271677e-01 2.846744e-02 2.331917e-01 4.700909e-01 2.734798e-01 1.648898e-02 1.213986e-01 1.667520e-01 -1.228672e-01 -6.473653e-02 8.444375e-02 1.504578e-01 -4.406779e-01
<VARIANCE> 25
 3.524087e+01 2.994655e+01 2.741256e+01 6.759740e+01 5.381754e+01 3.193131e+01 3.963821e+01 4.590656e+01 4.083912e+01 3.712474e+01 3.024890e+01 2.872106e+01 7.043579e-01 1.060835e+00 1.206213e+00 1.584915e+00 1.653082e+00 1.992864e+00 2.074742e+00 2.477215e+00 1.875493e+00 2.178561e+00 1.716295e+00 1.652273e+00 6.870605e-01
<GCONST> 9.474002e+01
<TRANSP> 5
 0.000000e+00 1.000000e+00 0.000000e+00 0.000000e+00 0.000000e+00
 0.000000e+00 7.795421e-01 2.204579e-01 0.000000e+00 0.000000e+00
 0.000000e+00 0.000000e+00 5.022483e-01 4.977517e-01 0.000000e+00
 0.000000e+00 0.000000e+00 0.000000e+00 7.006218e-01 2.993781e-01
 0.000000e+00 0.000000e+00 0.000000e+00 0.000000e+00 0.000000e+00
<ENDHMM>
~h "m"
<BEGINHMM>
<NUMSTATES> 5
<STATE> 2
<MEAN> 25
 3.710473e+00 2.070293e+00 7.727666e-01 2.076161e+00 2.046627e+00 -5.601090e-02 1.850003e+00 -2.338363e+00 4.095843e-01 1.667297e+00 1.794054e+00 -1.878239e+00 5.919402e-01 3.175728e-01 6.087888e-01 2.569266e-01 4.071895e-01 1.721262e-01 6.454593e-01 -8.577188e-01 -6.589355e-01 -2.028766e-01 3.431264e-01 -5.388488e-01 -3.046581e-01
<VARIANCE> 25
 5.323534e+01 2.139532e+01 4.860273e+01 3.992700e+01 3.305344e+01 4.872556e+01 3.405124e+01 7.098778e+01 3.707958e+01 2.881136e+01 1.945823e+01 5.464627e+01 2.563869e+00 2.304675e+00 2.384251e+00 1.134990e+00 2.698786e+00 3.216945e+00 3.570493e+00 4.002001e+00 2.059661e+00 1.854851e+00 3.338667e+00 1.483121e+00 1.072593e+00
<GCONST> 1.002761e+02
<STATE> 3
<MEAN> 25
 7.893018e+00 3.713701e+00 3.122425e+00 2.810808e+00 2.630095e+00 -2.723703e+00 3.094534e+00 -6.728709e+00 -8.560054e-01 4.205759e-01 2.758821e+00 -6.345912e+00 9.967101e-01 9.487594e-01 1.079145e+00 3.339522e-01 4.691489e-02 -3.452089e-01 5.261871e-01 -1.208996e+00 -8.179044e-01 -4.762523e-01 2.623602e-01 -8.115066e-01 -5.833119e-03
<VARIANCE> 25
 4.989041e+01 2.806294e+01 4.303953e+01 3.089733e+01 2.661922e+01 4.448930e+01 3.939976e+01 9.015791e+01 3.429719e+01 3.836082e+01 2.564157e+01 5.169825e+01 4.132927e+00 3.189675e+00 3.489400e+00 1.649339e+00 2.790490e+00 3.295392e+00 6.353125e+00 4.416164e+00 2.810457e+00 2.906710e+00 3.098117e+00 3.480759e+00 2.995617e+00
<GCONST> 1.054655e+02
<STATE> 4
<MEAN> 25
 6.193362e+00 2.343032e+00 3.737236e+00 1.417183e+00 -3.013596e+00 -5.415968e+00 -4.975986e-02 -3.800138e+00 8.521974e-01 -2.118139e+00 -2.824556e-01 -5.979079e+00 -2.550870e-01 -2.842809e-01 4.824955e-03 -2.863721e-01 -5.452626e-01 -1.790789e-01 -1.550181e-01 4.544702e-01 3.167061e-01 -1.025479e-01 -1.638519e-01 1.999558e-01 8.477049e-01
<VARIANCE> 25
 7.610223e+01 4.890165e+01 6.380513e+01 4.311085e+01 7.768101e+01 6.213153e+01 1.021948e+02 9.458115e+01 5.216125e+01 5.228870e+01 4.649432e+01 7.601688e+01 5.100080e+00 3.364409e+00 4.150465e+00 3.129246e+00 6.394921e+00 4.507010e+00 6.376612e+00 7.759947e+00 4.125524e+00 3.596421e+00 3.943980e+00 5.307952e+00 5.077262e+00
<GCONST> 1.158606e+02
<TRANSP> 5
 0.000000e+00 1.000000e+00 0.000000e+00 0.000000e+00 0.000000e+00
 0.000000e+00 2.075980e-01 7.924020e-01 0.000000e+00 0.000000e+00
 0.000000e+00 0.000000e+00 4.852958e-01 5.147042e-01 0.000000e+00
 0.000000e+00 0.000000e+00 0.000000e+00 9.055337e-01 9.446627e-02
 0.000000e+00 0.000000e+00 0.000000e+00 0.000000e+00 0.000000e+00
<ENDHMM>
~h "n"
<BEGINHMM>
<NUMSTATES> 5
<STATE> 2
<MEAN> 25
 1.102876e+00 -1.718531e+00 2.290356e+00 2.690655e+00 3.690091e+00 -1.767785e-01 6.960232e-01 2.103287e+00 -3.157505e-01 1.168573e+00 4.357603e-01 1.482941e+00 -5.832174e-01 -8.216383e-01 -1.388700e-01 4.663137e-01 4.440724e-01 6.853748e-01 2.185499e-02 1.387277e-01 -2.019115e-01 -4.937648e-02 1.864546e-01 1.864760e-01 -6.673722e-01
<VARIANCE> 25
 1.131827e+01 1.462655e+01 9.198185e+00 1.453896e+01 2.014283e+01 2.001471e+01 1.838727e+01 2.149148e+01 1.895198e+01 2.133943e+01 1.695478e+01 1.097449e+01 9.299423e-01 8.151149e-01 1.201993e+00 1.213941e+00 1.732424e+00 1.365089e+00 1.733876e+00 1.890524e+00 1.872109e+00 1.618888e+00 1.580628e+00 1.524659e+00 1.705040e-01
<GCONST> 8.152740e+01
<STATE> 3
<MEAN> 25
 -7.689911e-01 -4.054832e+00 8.277411e-01 3.447484e+00 4.240986e+00 1.992088e+00 1.466829e-01 2.556330e+00 -1.862424e+00 9.737630e-01 6.584198e-01 1.203993e+00 -4.274901e-02 -2.893718e-02 -5.436264e-02 3.665183e-02 -2.735903e-02 7.427173e-02 -6.115599e-02 1.266266e-02 -6.861645e-02 3.512155e-03 -1.234925e-02 -2.232493e-03 -1.245411e-01
<VARIANCE> 25
 2.543829e+00 5.840233e+00 7.281337e+00 1.037286e+01 1.269857e+01 1.421309e+01 1.317006e+01 1.468720e+01 1.561314e+01 1.544430e+01 1.175664e+01 1.115643e+01 1.184577e-01 2.735763e-01 4.479431e-01 6.384847e-01 7.964309e-01 1.011330e+00 1.113039e+00 1.201895e+00 1.318988e+00 1.212570e+00 1.162795e+00 1.046866e+00 3.929021e-02
<GCONST> 6.661522e+01
<STATE> 4
<MEAN> 25
 -1.761743e+00 -3.811634e+00 -3.258940e-01 5.014088e+00 3.409852e+00 3.051547e+00 -8.405955e-01 3.710939e+00 -3.183775e+00 1.968118e+00 1.867442e-01 1.429912e+00 -2.577493e-02 5.629611e-02 -2.782419e-02 3.005104e-02 -1.783522e-02 4.692669e-02 -1.284633e-02 2.487322e-02 -1.663645e-02 1.065640e-03 7.198569e-03 -2.248103e-03 -7.294691e-02
<VARIANCE> 25
 3.390911e+00 5.692538e+00 6.605944e+00 9.478110e+00 1.124645e+01 1.446903e+01 1.469004e+01 1.758641e+01 1.679654e+01 1.526431e+01 1.357806e+01 1.191397e+01 2.144103e-01 3.181261e-01 4.753272e-01 6.945926e-01 8.232976e-01 1.021208e+00 1.261797e+00 1.644072e+00 1.502367e+00 1.492364e+00 1.350036e+00 1.209020e+00 7.365231e-02
<GCONST> 6.977521e+01
<TRANSP> 5
 0.000000e+00 1.000000e+00 0.000000e+00 0.000000e+00 0.000000e+00
 0.000000e+00 5.867944e-01 4.132056e-01 0.000000e+00 0.000000e+00
 0.000000e+00 0.000000e+00 9.501781e-01 4.982191e-02 0.000000e+00
 0.000000e+00 0.000000e+00 0.000000e+00 9.395204e-01 6.047958e-02
 0.000000e+00 0.000000e+00 0.000000e+00 0.000000e+00 0.000000e+00
<ENDHMM>
~h "p"
<BEGINHMM>
<NUMSTATES> 5
<STATE> 2
<MEAN> 25
 -1.611705e+00 -2.536486e+00 -2.155796e-01 2.192675e-01 -2.503733e+00 -2.387123e+00 1.183697e+00 1.309991e+00 2.035858e+00 -1.333345e+00 7.903926e-01 1.404796e+00 -7.422373e-02 -4.675236e-01 8.991123e-01 9.726899e-01 5.022584e-01 4.903643e-01 -6.756594e-01 -2.407219e-01 -6.194547e-01 -1.167182e-01 1.201293e-01 9.492263e-03 -3.266215e-01
<VARIANCE> 25
 2.409491e+01 1.450483e+01 3.102601e+01 3.768346e+01 5.363637e+01 2.406026e+01 4.239441e+01 3.240981e+01 2.805903e+01 2.194453e+01 3.584252e+01 2.765581e+01 2.988544e+00 1.818869e+00 3.143580e+00 2.363005e+00 2.891417e+00 2.145656e+00 4.061867e+00 3.878197e+00 2.952366e+00 1.342879e+00 2.077146e+00 1.972333e+00 1.256986e+00
<GCONST> 9.787436e+01
<STATE> 3
<MEAN> 25
 -1.523262e+00 -2.877886e+00 1.695258e+00 9.319463e-01 -1.220402e+00 -1.719340e+00 6.151867e-02 3.582763e-01 4.230858e-01 -1.392235e+00 9.451270e-01 8.879422e-01 -1.224853e-01 -2.586447e-01 5.419105e-01 4.341701e-01 4.562599e-01 4.319524e-01 -6.029336e-01 -3.543815e-01 -9.359004e-01 1.291283e-01 9.382632e-02 -1.388164e-02 -3.864666e-01
<VARIANCE> 25
 2.058223e+01 1.289881e+01 2.609491e+01 3.199930e+01 4.719996e+01 1.983644e+01 3.730267e+01 2.439450e+01 3.364453e+01 1.515686e+01 2.068045e+01 1.826897e+01 1.152206e+00 6.743912e-01 1.829236e+00 1.661332e+00 1.599820e+00 1.425287e+00 3.228742e+00 3.789353e+00 2.321193e+00 1.071880e+00 1.875954e+00 2.168773e+00 4.654014e-01
<GCONST> 8.981771e+01
<STATE> 4
<MEAN> 25
 -1.906390e+00 -4.217629e+00 3.177271e-01 3.212082e+00 1.844647e+00 2.165267e+00 -2.147603e+00 2.046717e+00 -3.856166e+00 4.365811e-01 8.447108e-01 1.250788e+00 -2.083981e-02 2.463265e-02 -1.111013e-02 4.598697e-02 -1.438367e-02 1.065308e-01 -3.776509e-02 5.506868e-02 -2.434499e-02 2.598076e-02 -4.865164e-02 -1.056608e-02 -9.783650e-02
<VARIANCE> 25
 3.052572e+00 3.622388e+00 8.001081e+00 9.642741e+00 1.077979e+01 1.427978e+01 1.263640e+01 1.473193e+01 1.641327e+01 1.219457e+01 1.119351e+01 1.132997e+01 1.368563e-01 2.554016e-01 4.234089e-01 6.184356e-01 9.213614e-01 1.014103e+00 1.244759e+00 1.636346e+00 1.580741e+00 1.294160e+00 1.194476e+00 1.122748e+00 6.043299e-02
<GCONST> 6.725362e+01
<TRANSP> 5
 0.000000e+00 1.000000e+00 0.000000e+00 0.000000e+00 0.000000e+00
 0.000000e+00 2.906011e-01 7.093989e-01 0.000000e+00 0.000000e+00
 0.000000e+00 0.000000e+00 1.917201e-01 8.082799e-01 0.000000e+00
 0.000000e+00 0.000000e+00 0.000000e+00 9.614797e-01 3.852025e-02
 0.000000e+00 0.000000e+00 0.000000e+00 0.000000e+00 0.000000e+00
<ENDHMM>
~h "r"
<BEGINHMM>
<NUMSTATES> 5
<STATE> 2
<MEAN> 25
 -1.114199e+00 7.669096e-01 -5.593982e+00 -7.983174e-01 -1.951694e+00 -1.119322e-01 1.115622e+00 -1.827222e+00 7.175430e+00 5.532965e-01 4.415743e-01 -3.330707e+00 9.294519e-02 2.632761e-01 -3.275728e-01 6.383567e-01 6.884829e-02 -4.254669e-01 -3.504496e-01 -5.576863e-01 5.187596e-01 -1.804613e-01 2.598085e-01 8.787995e-02 3.171017e-01
<VARIANCE> 25
 1.100592e+02 4.728301e+01 5.211645e+01 7.430379e+01 3.734460e+01 5.363086e+01 5.013605e+01 5.229422e+01 6.817287e+01 3.319826e+01 2.103103e+01 4.418719e+01 3.135911e+00 3.015585e+00 3.958727e+00 3.482571e+00 2.430168e+00 3.939539e+00 3.455795e+00 5.401131e+00 2.875807e+00 3.258735e+00 2.924357e+00 2.858559e+00 3.947601e+00
<GCONST> 1.085889e+02
<STATE> 3
<MEAN> 25
 4.509682e+00 1.184584e-02 -5.323930e+00 2.743329e+00 -2.162993e+00 -6.022049e-01 -2.837166e+00 -4.409908e+00 6.487307e+00 -1.144685e+00 1.684491e+00 -1.352699e+00 9.719785e-01 4.432643e-01 -7.287327e-02 9.587787e-01 8.400249e-02 -5.477272e-01 -7.511950e-01 -7.149037e-01 2.609672e-01 -8.484457e-01 1.115133e-01 -7.020902e-02 7.713919e-01
<VARIANCE> 25
 1.214029e+02 4.698029e+01 7.179388e+01 6.236227e+01 5.109852e+01 7.714558e+01 8.724467e+01 5.689895e+01 6.712466e+01 5.176487e+01 3.901899e+01 3.457325e+01 8.086783e+00 5.222303e+00 5.053787e+00 4.923775e+00 4.940836e+00 6.892691e+00 7.033905e+00 5.711452e+00 4.152998e+00 4.792762e+00 4.117887e+00 3.706039e+00 5.615364e+00
<GCONST> 1.167727e+02
<STATE> 4
<MEAN> 25
 7.588169e+00 2.772609e+00 -1.478391e+00 3.701838e+00 -7.236504e+00 -5.515649e+00 -3.859097e+00 -7.026461e+00 5.043333e+00 -3.119658e+00 2.680844e+00 -9.747360e-01 -1.025790e-01 -1.494501e-01 3.499900e-01 -2.479226e-01 -3.750924e-01 -1.057762e-01 1.298960e-01 1.446384e-01 -2.032907e-01 2.139716e-01 -7.123518e-02 1.210125e-01 4.730755e-02
<VARIANCE> 25
 8.007936e+01 7.179417e+01 1.175770e+02 1.082193e+02 5.211754e+01 1.001008e+02 6.140166e+01 8.342675e+01 6.317575e+01 5.010271e+01 5.526730e+01 3.399360e+01 3.626830e+00 2.644683e+00 4.917596e+00 5.360638e+00 4.739585e+00 6.237630e+00 4.219548e+00 4.291521e+00 4.607096e+00 4.544285e+00 3.447369e+00 3.045492e+00 2.475089e+00
<GCONST> 1.148692e+02
<TRANSP> 5
 0.000000e+00 1.000000e+00 0.000000e+00 0.000000e+00 0.000000e+00
 0.000000e+00 6.668357e-01 3.331643e-01 0.000000e+00 0.000000e+00
 0.000000e+00 0.000000e+00 6.356230e-01 3.643770e-01 0.000000e+00
 0.000000e+00 0.000000e+00 0.000000e+00 8.743229e-01 1.256771e-01
 0.000000e+00 0.000000e+00 0.000000e+00 0.000000e+00 0.000000e+00
<ENDHMM>
~h "s"
<BEGINHMM>
<NUMSTATES> 5
<STATE> 2
<MEAN> 25
 -7.390431e+00 8.079265e+00 2.877674e-01 6.088039e-01 2.905787e+00 -6.174225e+00 1.168641e+00 1.502264e-01 3.464512e-01 9.474851e-01 1.125791e+00 1.494568e+00 -2.598684e+00 2.987034e+00 -9.216067e-01 -6.732957e-01 1.420734e+00 -5.696746e-01 5.706183e-01 -2.229638e-01 3.216428e-01 -7.601732e-02 5.752214e-01 4.904907e-02 1.711719e+00
<VARIANCE> 25
 6.272762e+01 7.615809e+01 6.962815e+01 5.115470e+01 8.103227e+01 6.844730e+01 3.844944e+01 4.711819e+01 4.347358e+01 3.017821e+01 2.471043e+01 1.830837e+01 3.636964e+00 4.391202e+00 3.413630e+00 3.675331e+00 3.503618e+00 4.399637e+00 3.422402e+00 2.920241e+00 2.980834e+00 2.675296e+00 2.632373e+00 1.943825e+00 3.597562e+00
<GCONST> 1.073399e+02
<STATE> 3
<MEAN> 25
 -1.631999e+01 1.634670e+01 -6.339104e+00 -3.651791e-01 8.397923e+00 -6.103883e+00 3.037887e+00 9.619509e-01 1.305423e+00 1.418622e+00 1.793699e+00 1.798445e+00 -3.075987e-01 3.292195e-01 -4.823096e-01 3.947657e-01 -9.287776e-02 5.693857e-01 1.884452e-01 -1.006558e-01 8.109731e-02 -4.153476e-03 -3.603782e-02 -2.179567e-01 3.538905e-01
<VARIANCE> 25
 3.321774e+01 4.567467e+01 2.319157e+01 3.995815e+01 4.036969e+01 2.462736e+01 1.852925e+01 2.639068e+01 2.023089e+01 1.730060e+01 1.406494e+01 9.130468e+00 1.345506e+00 2.137385e+00 1.210429e+00 1.987957e+00 1.589373e+00 1.722540e+00 1.473417e+00 1.663092e+00 1.419825e+00 1.124166e+00 1.013931e+00 8.177253e-01 2.367086e+00
<GCONST> 8.889040e+01
<STATE> 4
<MEAN> 25
 -1.177606e+01 1.085000e+01 -6.435091e+00 5.606773e+00 4.557609e+00 -1.136273e+00 2.811721e+00 -5.387343e-01 1.322961e+00 9.964533e-01 1.587703e+00 1.133925e+00 4.129530e-01 -7.889441e-01 2.698167e-01 1.991211e-01 -3.084982e-01 1.692446e-01 -9.430897e-02 -7.926099e-02 -4.725150e-02 -9.321626e-02 -2.190025e-01 3.550059e-02 -4.034053e-01
<VARIANCE> 25
 4.970036e+01 1.065268e+02 2.965055e+01 2.462039e+01 2.433954e+01 2.554013e+01 1.984782e+01 1.703536e+01 1.924869e+01 1.305140e+01 1.324093e+01 9.886928e+00 1.179060e+00 1.206679e+00 8.197579e-01 9.856970e-01 9.892278e-01 1.397122e+00 1.112494e+00 1.048423e+00 1.144474e+00 1.320578e+00 1.302099e+00 7.907284e-01 1.016644e+00
<GCONST> 8.484660e+01
<TRANSP> 5
 0.000000e+00 1.000000e+00 0.000000e+00 0.000000e+00 0.000000e+00
 0.000000e+00 7.270637e-01 2.729363e-01 0.000000e+00 0.000000e+00
 0.000000e+00 0.000000e+00 7.451529e-01 2.548471e-01 0.000000e+00
 0.000000e+00 0.000000e+00 0.000000e+00 9.094896e-01 9.051036e-02
 0.000000e+00 0.000000e+00 0.000000e+00 0.000000e+00 0.000000e+00
<ENDHMM>
~h "t"
<BEGINHMM>
<NUMSTATES> 5
<STATE> 2
<MEAN> 25
 -4.630222e+00 7.184507e+00 -3.972135e+00 3.161033e-01 -1.595555e+00 -4.543283e+00 4.947478e-01 -1.489109e+00 3.352026e+00 9.968972e-01 -3.801875e-01 1.398347e+00 -2.122676e+00 1.083984e+00 -3.548060e-01 6.087227e-03 7.248819e-01 1.665446e-01 4.516726e-01 5.966973e-01 4.161412e-01 -4.269624e-01 -1.951439e-01 1.978771e-01 1.113208e+00
<VARIANCE> 25
 1.019017e+02 6.696805e+01 4.563972e+01 4.359112e+01 5.254257e+01 5.311046e+01 6.325647e+01 5.502531e+01 3.782496e+01 3.506906e+01 3.297891e+01 2.471603e+01 8.091504e+00 7.420955e+00 4.215285e+00 4.102640e+00 5.015912e+00 4.983832e+00 5.146028e+00 5.919139e+00 4.096334e+00 3.771136e+00 3.294787e+00 2.487616e+00 3.530375e+00
<GCONST> 1.120366e+02
<STATE> 3
<MEAN> 25
 -1.093891e+01 9.114953e+00 -2.522959e+00 -1.525935e+00 3.685055e+00 -4.858789e+00 1.954383e+00 2.652437e+00 2.968570e+00 -5.350154e-01 -1.040083e-02 1.521724e+00 2.808161e-01 -9.744008e-01 4.742081e-01 -1.458152e-02 1.160916e-01 -2.381452e-01 -1.248607e-01 1.506477e-01 -3.300849e-01 -1.060907e-01 -9.823273e-02 -4.102954e-02 -4.018881e-01
<VARIANCE> 25
 9.497797e+01 6.538358e+01 4.118285e+01 3.304007e+01 4.877987e+01 4.097675e+01 3.432692e+01 3.169289e+01 3.825169e+01 2.591443e+01 2.592158e+01 2.268087e+01 2.892059e+00 2.126170e+00 2.524584e+00 2.210264e+00 2.747096e+00 2.784044e+00 2.625760e+00 2.830123e+00 2.515468e+00 2.065356e+00 1.961672e+00 2.023527e+00 2.709797e+00
<GCONST> 1.013634e+02
<STATE> 4
<MEAN> 25
 -3.056949e+00 -2.042930e+00 3.711676e-01 2.643052e+00 4.078255e+00 5.968941e-01 6.708679e-01 2.083944e+00 -1.697031e+00 8.231197e-02 8.808635e-01 1.005270e+00 2.537299e-01 -2.325091e-01 6.820219e-02 1.307048e-01 -5.339949e-02 1.953922e-01 -2.299114e-02 -5.395027e-02 -8.655609e-02 1.428565e-02 -2.677869e-02 -3.298916e-02 -2.871419e-01
<VARIANCE> 25
 2.467608e+01 2.589302e+01 1.462926e+01 1.781818e+01 1.862667e+01 2.530066e+01 2.005223e+01 2.116813e+01 1.872827e+01 1.731935e+01 1.508769e+01 1.179854e+01 8.464373e-01 8.609830e-01 7.806457e-01 9.094433e-01 1.179538e+00 1.396717e+00 1.377321e+00 1.666190e+00 1.515445e+00 1.397346e+00 1.342993e+00 1.345505e+00 6.607977e-01
<GCONST> 8.273856e+01
<TRANSP> 5
 0.000000e+00 1.000000e+00 0.000000e+00 0.000000e+00 0.000000e+00
 0.000000e+00 7.592257e-01 2.407743e-01 0.000000e+00 0.000000e+00
 0.000000e+00 0.000000e+00 7.200519e-01 2.799481e-01 0.000000e+00
 0.000000e+00 0.000000e+00 0.000000e+00 9.223636e-01 7.763637e-02
 0.000000e+00 0.000000e+00 0.000000e+00 0.000000e+00 0.000000e+00
<ENDHMM>
~h "v"
<BEGINHMM>
<NUMSTATES> 5
<STATE> 2
<MEAN> 25
 6.990695e+00 1.431596e+00 4.256114e+00 3.092667e+00 -6.187404e-01 -4.706058e+00 -4.482500e+00 -1.017016e+00 -1.438818e+00 5.962151e-01 -1.651213e-01 3.775379e-02 -7.061559e-01 -4.087084e-01 -2.047305e-01 1.575829e-01 9.724852e-01 9.056288e-01 5.305910e-01 4.223807e-01 -4.588440e-04 1.060693e-01 2.493117e-01 -1.557828e-01 -8.692744e-01
<VARIANCE> 25
 3.421918e+01 2.648131e+01 3.160312e+01 2.139977e+01 2.817032e+01 4.426426e+01 2.417064e+01 2.333583e+01 3.312961e+01 3.344884e+01 1.664629e+01 2.533987e+01 1.076533e+00 1.779387e+00 2.018726e+00 1.491015e+00 1.700294e+00 2.057240e+00 2.102172e+00 3.044246e+00 2.103941e+00 1.927451e+00 1.634399e+00 1.775514e+00 3.081046e-01
<GCONST> 9.193977e+01
<STATE> 3
<MEAN> 25
 3.732621e+00 2.338040e-02 3.604116e+00 3.516690e+00 2.306186e+00 -6.915493e-01 -1.434844e+00 -1.783013e-02 -1.092021e+00 9.572828e-02 8.157271e-01 -2.237215e-01 -8.085151e-01 -7.749537e-01 -2.187005e-01 2.714645e-01 8.896962e-01 7.725970e-01 6.221601e-01 -1.467488e-01 -1.189476e-01 1.145749e-01 1.985606e-01 9.398337e-02 -5.907731e-01
<VARIANCE> 25
 3.314624e+01 2.228973e+01 2.921816e+01 2.279725e+01 2.934544e+01 2.249765e+01 3.634990e+01 2.294455e+01 3.474950e+01 2.276801e+01 1.880599e+01 1.799242e+01 6.605628e-01 4.734359e-01 9.651119e-01 1.201737e+00 1.273714e+00 1.665593e+00 1.343675e+00 2.100421e+00 1.345515e+00 1.814088e+00 1.408628e+00 1.176999e+00 1.535416e-01
<GCONST> 8.506954e+01
<STATE> 4
<MEAN> 25
 -2.180485e+00 -2.740693e+00 1.439136e+00 4.674007e+00 5.025599e+00 2.155358e+00 1.923914e+00 1.779306e+00 -1.252637e+00 5.111688e-01 8.468826e-01 1.363739e+00 -8.173856e-02 -3.511055e-02 -4.045520e-02 4.984437e-02 3.486016e-02 5.002137e-02 -1.698840e-02 3.574533e-02 2.694329e-02 8.206074e-02 -9.096079e-03 1.527150e-02 -9.633473e-02
<VARIANCE> 25
 1.030215e+01 5.721609e+00 8.243977e+00 1.555067e+01 1.390823e+01 1.925437e+01 1.849876e+01 2.057654e+01 1.665890e+01 2.365912e+01 1.476582e+01 1.164018e+01 2.925886e-01 2.774087e-01 5.203429e-01 8.906148e-01 1.109419e+00 1.205101e+00 1.441310e+00 1.800488e+00 1.324863e+00 1.444154e+00 1.322337e+00 1.068938e+00 8.768707e-02
<GCONST> 7.405722e+01
<TRANSP> 5
 0.000000e+00 1.000000e+00 0.000000e+00 0.000000e+00 0.000000e+00
 0.000000e+00 6.042281e-01 3.957719e-01 0.000000e+00 0.000000e+00
 0.000000e+00 0.000000e+00 3.034860e-01 6.965140e-01 0.000000e+00
 0.000000e+00 0.000000e+00 0.000000e+00 9.341145e-01 6.588553e-02
 0.000000e+00 0.000000e+00 0.000000e+00 0.000000e+00 0.000000e+00
<ENDHMM>
~h "w"
<BEGINHMM>
<NUMSTATES> 5
<STATE> 2
<MEAN> 25
 1.288844e+01 8.540711e+00 7.607872e-01 -7.071150e+00 -6.616720e+00 2.960503e+00 -3.464699e+00 -2.421516e+00 -2.149927e+00 -5.121218e+00 -4.555940e-01 2.589273e+00 1.154584e+00 8.440874e-01 -5.409131e-01 -2.331537e+00 -1.339243e+00 1.665818e+00 2.559814e-02 -1.537621e+00 2.911387e-01 -5.294812e-01 5.261835e-02 2.264562e-01 1.316761e+00
<VARIANCE> 25
 5.664209e+01 3.640186e+01 4.131063e+01 9.280840e+01 5.239245e+01 8.000580e+01 4.505012e+01 5.603218e+01 2.385086e+01 5.098829e+01 3.043721e+01 2.445926e+01 4.045150e+00 4.354080e+00 3.192974e+00 6.428340e+00 3.702796e+00 8.215916e+00 3.739904e+00 5.530638e+00 3.636237e+00 7.885520e+00 3.181400e+00 3.270010e+00 5.496787e+00
<GCONST> 1.114577e+02
<STATE> 3
<MEAN> 25
 8.760798e+00 4.732006e+00 -5.096270e+00 -1.643637e+01 -9.091982e+00 9.533314e+00 -1.634869e+00 -1.168003e+01 6.069649e+00 1.695497e+00 1.051971e+00 -3.596663e+00 -9.180340e-01 -1.869953e+00 -2.383917e-01 3.607939e-01 1.195899e+00 -1.865379e+00 5.778063e-01 2.132291e-01 1.990086e+00 1.413754e+00 -7.038226e-01 -1.834945e+00 2.078760e+00
<VARIANCE> 25
 6.340241e+01 3.775103e+01 2.248226e+01 7.433812e+01 5.372507e+01 1.179050e+02 7.430836e+01 7.552663e+01 6.431010e+01 8.628070e+01 3.555950e+01 5.868337e+01 3.218247e+00 3.515885e+00 2.422036e+00 7.503952e+00 5.142412e+00 1.217667e+01 8.075587e+00 1.244238e+01 8.417658e+00 9.193034e+00 4.840450e+00 7.420518e+00 4.131571e+00
<GCONST> 1.182218e+02
<STATE> 4
<MEAN> 25
 1.023267e+01 5.144682e+00 -5.706286e+00 -1.856247e+01 -7.395868e+00 5.550591e+00 1.702945e-01 -6.580063e+00 9.002901e+00 -3.736013e+00 1.061354e+00 -2.376832e+00 -9.464003e-02 -4.205419e-01 -5.944994e-02 1.137560e+00 2.690805e-01 -1.074726e+00 5.572586e-01 9.130659e-01 -4.175226e-01 1.927193e-01 -3.833462e-01 -2.063794e-01 -2.460632e-01
<VARIANCE> 25
 2.296005e+01 1.028277e+02 3.754577e+01 1.091435e+02 5.585419e+01 1.341124e+02 4.880579e+01 3.458323e+01 5.095835e+01 1.179061e+02 4.604891e+01 6.447120e+01 8.721780e-01 1.658810e+00 1.485719e+00 3.518702e+00 3.019198e+00 3.669992e+00 3.793743e+00 3.648326e+00 2.662205e+00 4.293222e+00 1.920075e+00 2.515612e+00 1.380696e+00
<GCONST> 1.064712e+02
<TRANSP> 5
 0.000000e+00 1.000000e+00 0.000000e+00 0.000000e+00 0.000000e+00
 0.000000e+00 8.111954e-01 1.888046e-01 0.000000e+00 0.000000e+00
 0.000000e+00 0.000000e+00 6.807444e-01 3.192556e-01 0.000000e+00
 0.000000e+00 0.000000e+00 0.000000e+00 8.257834e-01 1.742166e-01
 0.000000e+00 0.000000e+00 0.000000e+00 0.000000e+00 0.000000e+00
<ENDHMM>
~h "y"
<BEGINHMM>
<NUMSTATES> 5
<STATE> 2
<MEAN> 25
 -2.041654e+00 -2.813440e+00 1.160147e-01 3.184505e+00 3.879037e+00 2.940048e+00 6.878817e-01 2.751683e+00 -2.118567e+00 6.785220e-01 3.759094e-02 1.725362e+00 -3.596496e-02 -1.000937e-03 -1.895195e-02 4.755130e-02 -6.211382e-03 7.404517e-02 -1.044433e-02 2.301528e-02 -2.993409e-02 2.445635e-02 -2.326269e-02 1.027850e-02 -9.154906e-02
<VARIANCE> 25
 3.621633e+00 4.739012e+00 5.555746e+00 1.000255e+01 1.239069e+01 1.758898e+01 1.411843e+01 1.620442e+01 1.346570e+01 1.437411e+01 1.123616e+01 1.057124e+01 1.311565e-01 2.369212e-01 4.172931e-01 5.920497e-01 8.695034e-01 9.681818e-01 1.100527e+00 1.367677e+00 1.279276e+00 1.274529e+00 1.133965e+00 1.088038e+00 4.885457e-02
<GCONST> 6.671445e+01
<STATE> 3
<MEAN> 25
 -2.499649e+00 -1.454270e+00 7.191979e-01 4.624055e+00 3.366025e-01 2.704354e+00 1.841263e-01 1.699474e+00 -1.674809e+00 1.087591e+00 -4.768374e-01 9.511418e-01 -1.275018e-03 6.449783e-01 4.299116e-01 -7.579362e-02 -1.590708e-01 -1.119580e+00 -4.657237e-01 -5.325364e-01 -4.560498e-01 -6.090117e-01 -8.468980e-01 -6.877004e-01 1.422055e+00
<VARIANCE> 25
 1.201759e+01 1.604295e+01 3.254072e+01 1.722263e+01 5.386471e+01 3.310641e+01 2.790368e+01 3.916434e+01 1.712654e+01 2.985734e+01 1.873659e+01 1.232474e+01 2.967988e+00 2.817040e+00 2.545006e+00 1.479346e+00 2.020862e+00 4.020011e+00 3.778927e+00 2.551359e+00 6.351942e+00 3.609251e+00 2.007813e+00 1.774523e+00 2.495669e+00
<GCONST> 9.682673e+01
<STATE> 4
<MEAN> 25
 -2.476408e+00 5.723200e+00 8.896204e+00 7.608660e-01 -8.264580e+00 -5.952028e+00 -3.005003e+00 -9.898168e-01 -6.326689e+00 -9.369814e-01 -2.326890e+00 -2.940063e+00 -4.175461e-02 -1.507479e-01 -1.734631e-01 -6.247956e-01 -8.922874e-01 -1.020540e+00 -1.117415e-01 -4.266696e-02 6.127912e-01 -1.402021e-01 -3.364008e-01 -5.838678e-01 2.735975e+00
<VARIANCE> 25
 2.465518e+01 1.032215e+02 5.848941e+01 5.036476e+01 8.074117e+01 4.890450e+01 4.690476e+01 3.630434e+01 8.052520e+01 4.218844e+01 1.847083e+01 3.853364e+01 3.549766e+00 1.057722e+01 6.440158e+00 3.382647e+00 6.646547e+00 8.175925e+00 7.646245e+00 4.544675e+00 9.116771e+00 4.858281e+00 2.826150e+00 4.717078e+00 5.392066e+00
<GCONST> 1.145126e+02
<TRANSP> 5
 0.000000e+00 1.000000e+00 0.000000e+00 0.000000e+00 0.000000e+00
 0.000000e+00 9.750032e-01 2.499686e-02 0.000000e+00 0.000000e+00
 0.000000e+00 0.000000e+00 6.964119e-02 9.303588e-01 0.000000e+00
 0.000000e+00 0.000000e+00 0.000000e+00 8.364861e-01 1.635139e-01
 0.000000e+00 0.000000e+00 0.000000e+00 0.000000e+00 0.000000e+00
<ENDHMM>
~h "z"
<BEGINHMM>
<NUMSTATES> 5
<STATE> 2
<MEAN> 25
 6.236382e-01 5.875389e+00 -4.243722e+00 -4.962519e-01 2.545155e+00 -6.197464e+00 -9.025179e-01 2.114201e+00 1.948777e+00 5.503081e+00 -3.134680e+00 -2.558872e+00 -1.896823e+00 2.749812e+00 -1.016536e+00 4.128545e-01 5.518984e-01 -1.092081e+00 2.703643e-01 -3.791372e-01 4.106196e-01 -2.934952e-01 4.437199e-01 1.351311e-01 9.265547e-01
<VARIANCE> 25
 1.070045e+02 9.149925e+01 4.587372e+01 7.732139e+01 6.627431e+01 6.862937e+01 7.343933e+01 4.167125e+01 3.533977e+01 7.211385e+01 6.198068e+01 2.345601e+01 5.607104e+00 8.858790e+00 3.438058e+00 3.725911e+00 3.513797e+00 4.657062e+00 3.950640e+00 4.805232e+00 3.713536e+00 4.085176e+00 3.283026e+00 2.303324e+00 3.774086e+00
<GCONST> 1.131489e+02
<STATE> 3
<MEAN> 25
 -1.311204e+01 1.903870e+01 -7.534438e+00 3.135099e+00 6.461884e+00 -6.364347e+00 4.329842e+00 -4.818110e-01 2.144409e+00 1.151754e+00 2.216277e-01 8.668483e-01 -4.732907e-04 -1.438659e-01 1.289677e-01 2.673154e-01 -8.733641e-02 5.648614e-02 4.283372e-02 -3.549519e-01 1.615180e-02 -1.772512e-01 -1.059216e-01 1.283162e-01 -2.602279e-03
<VARIANCE> 25
 4.058221e+01 3.580791e+01 2.159256e+01 5.254016e+01 5.894655e+01 2.360982e+01 5.431519e+01 2.951242e+01 1.766004e+01 1.161601e+01 2.403900e+01 1.106131e+01 1.907333e+00 3.475505e+00 1.100083e+00 1.170688e+00 1.761309e+00 2.251284e+00 1.424395e+00 1.546376e+00 1.198940e+00 1.191191e+00 1.344151e+00 8.736553e-01 2.242604e+00
<GCONST> 9.142344e+01
<STATE> 4
<MEAN> 25
 -5.654786e+00 1.085716e+01 -5.479523e-01 6.268922e+00 -3.411752e+00 -9.089163e+00 -8.695701e-01 -8.052757e-01 1.383840e+00 -2.089595e+00 -4.803652e+00 -2.729256e-01 6.129631e-01 -1.744978e+00 9.187324e-01 -5.761155e-01 -6.989472e-01 -8.867320e-02 1.692887e-01 2.310833e-01 -3.896069e-01 -2.542993e-01 -1.448855e-01 1.269354e-02 5.770935e-01
<VARIANCE> 25
 3.972868e+01 9.043068e+01 3.273183e+01 8.521732e+01 8.073376e+01 5.774000e+01 5.497427e+01 3.494494e+01 3.178315e+01 3.151612e+01 6.508691e+01 2.248119e+01 1.553790e+00 2.135332e+00 2.753206e+00 1.813413e+00 3.595323e+00 5.721642e+00 3.505881e+00 2.110965e+00 4.679976e+00 3.516923e+00 3.410967e+00 1.854720e+00 2.799108e+00
<GCONST> 1.057804e+02
<TRANSP> 5
 0.000000e+00 1.000000e+00 0.000000e+00 0.000000e+00 0.000000e+00
 0.000000e+00 7.466175e-01 2.533825e-01 0.000000e+00 0.000000e+00
 0.000000e+00 0.000000e+00 8.790150e-01 1.209850e-01 0.000000e+00
 0.000000e+00 0.000000e+00 0.000000e+00 7.778597e-01 2.221403e-01
 0.000000e+00 0.000000e+00 0.000000e+00 0.000000e+00 0.000000e+00
<ENDHMM>
~h "aa"
<BEGINHMM>
<NUMSTATES> 5
<STATE> 2
<MEAN> 25
 6.454870e+00 4.041701e+00 -3.221852e+00 -1.212005e+01 -1.255443e+00 7.933216e+00 4.914658e-01 -7.811382e+00 8.161985e+00 -4.245403e+00 1.781008e+00 -4.207232e+00 6.156622e-01 -4.253659e-01 -3.120903e-01 -1.086888e+00 -3.335200e-02 5.082273e-01 4.759431e-01 -3.827597e-01 4.519521e-01 -1.523861e-01 -7.429828e-02 -3.261176e-01 1.254737e+00
<VARIANCE> 25
 5.205425e+01 5.328452e+01 3.300816e+01 1.568773e+02 3.976259e+01 8.692545e+01 6.964780e+01 5.139845e+01 6.946480e+01 8.433813e+01 4.296331e+01 6.805196e+01 6.210465e+00 3.239645e+00 2.423421e+00 8.176574e+00 3.959337e+00 6.138217e+00 5.461301e+00 3.806202e+00 4.747412e+00 3.717447e+00 3.954847e+00 4.722418e+00 5.780800e+00
<GCONST> 1.151799e+02
<STATE> 3
<MEAN> 25
 9.152684e+00 -9.193740e-01 -6.377595e+00 -1.367591e+01 -1.099746e+00 2.675581e+00 8.922886e+00 -6.073703e+00 5.814639e+00 1.253403e-01 -3.733537e+00 -3.284733e+00 5.023257e-02 6.364007e-02 2.214343e-01 5.679910e-01 -3.381459e-01 -2.470511e-01 -1.324796e-01 4.335797e-01 -5.877455e-01 4.354070e-01 6.987919e-02 3.093659e-01 -8.788211e-01
<VARIANCE> 25
 3.252534e+01 3.868134e+01 4.335036e+01 1.050468e+02 3.680542e+01 1.284904e+02 4.607214e+01 5.665956e+01 3.218542e+01 4.099162e+01 6.092435e+01 9.080088e+01 1.839260e+00 1.637909e+00 1.861376e+00 3.226671e+00 1.933809e+00 3.943481e+00 3.939219e+00 3.065578e+00 2.871562e+00 3.070661e+00 3.570398e+00 2.675819e+00 1.534339e+00
<GCONST> 1.059201e+02
<STATE> 4
<MEAN> 25
 6.239429e-01 4.811499e+00 -3.633703e+00 -7.102020e+00 1.414697e+00 -2.690889e-01 4.792310e+00 1.217138e+00 4.158986e+00 1.839193e+00 -2.181955e+00 1.079150e-01 -4.189944e-01 -2.655728e-01 1.628959e-01 7.366184e-01 2.987499e-01 -2.096574e-01 -1.824556e-01 4.898416e-01 -2.044961e-01 -2.826462e-02 2.317901e-01 -3.141651e-01 -7.176608e-01
<VARIANCE> 25
 1.344654e+02 8.890600e+01 2.536337e+01 4.776637e+01 5.064884e+01 7.850844e+01 2.247559e+01 3.430278e+01 3.516696e+01 2.752568e+01 4.969377e+01 4.160996e+01 5.640952e+00 2.656619e+00 1.546946e+00 2.456145e+00 1.788119e+00 3.574008e+00 2.485424e+00 3.678365e+00 3.146281e+00 2.473228e+00 3.447910e+00 2.607256e+00 1.452748e+00
<GCONST> 1.046117e+02
<TRANSP> 5
 0.000000e+00 1.000000e+00 0.000000e+00 0.000000e+00 0.000000e+00
 0.000000e+00 8.929884e-01 1.070116e-01 0.000000e+00 0.000000e+00
 0.000000e+00 0.000000e+00 8.666049e-01 1.333951e-01 0.000000e+00
 0.000000e+00 0.000000e+00 0.000000e+00 8.229519e-01 1.770481e-01
 0.000000e+00 0.000000e+00 0.000000e+00 0.000000e+00 0.000000e+00
<ENDHMM>
~h "ae"
<BEGINHMM>
<NUMSTATES> 5
<STATE> 2
<MEAN> 25
 -7.388961e-01 3.960849e-01 5.906118e-01 2.495626e+00 4.163662e+00 -1.708401e+00 3.074961e+00 3.354765e+00 1.238631e-01 -5.886959e-01 1.065102e+00 1.918163e+00 1.441431e-01 -1.101660e+00 -4.223274e-01 -2.413543e-01 3.079858e-01 -3.526508e-01 5.790839e-01 7.632792e-02 1.076514e-01 -2.347563e-01 -6.454090e-01 -1.720324e-01 3.662817e-01
<VARIANCE> 25
 3.501678e+01 1.696494e+01 1.697514e+01 1.756271e+01 3.057665e+01 6.038503e+01 3.905001e+01 3.460617e+01 2.709437e+01 1.720024e+01 2.720421e+01 1.593502e+01 2.622803e+00 1.633192e+00 2.089936e+00 2.259991e+00 2.215961e+00 8.023494e+00 5.270562e+00 2.239019e+00 1.953899e+00 1.386837e+00 2.897147e+00 8.894393e-01 6.792797e+00
<GCONST> 9.719022e+01
<STATE> 3
<MEAN> 25
 5.835813e-01 -5.168365e+00 -4.303825e+00 -2.533784e+00 1.039133e+00 -8.400326e+00 1.033138e+01 2.652243e+00 2.366587e+00 -3.155166e+00 -5.259926e+00 -2.730164e-01 4.392680e-01 -8.461367e-01 -3.427400e-01 -8.307577e-01 -3.340256e-01 -1.041664e+00 8.586420e-01 2.790959e-01 2.630058e-01 -9.443435e-02 -5.249178e-01 -5.288604e-01 3.317532e+00
<VARIANCE> 25
 2.419206e+01 4.256063e+01 3.277274e+01 2.664730e+01 4.299848e+01 7.548777e+01 9.712975e+01 3.817317e+01 2.479625e+01 3.383121e+01 5.823459e+01 1.823708e+01 2.785430e+00 4.575955e+00 2.284782e+00 3.915211e+00 2.986193e+00 6.985899e+00 7.405096e+00 2.663352e+00 2.232361e+00 1.819256e+00 5.594233e+00 1.463811e+00 1.949176e+01
<GCONST> 1.068898e+02
<STATE> 4
<MEAN> 25
 1.958632e-01 -4.110772e+00 -6.695085e-01 2.271467e+00 2.950192e+00 -5.761896e-01 2.960757e+00 2.434559e+00 -1.814950e+00 -1.011874e-01 2.619174e-02 5.980759e-01 5.348002e-02 -1.170938e-02 -1.972970e-04 1.423390e-01 -5.010268e-02 1.759819e-01 -1.953259e-01 1.522003e-02 -4.034343e-02 6.691196e-02 5.361397e-02 -3.931031e-02 -3.317637e-01
<VARIANCE> 25
 1.152055e+01 9.020145e+00 7.425897e+00 2.411287e+01 2.192708e+01 7.142499e+01 4.528176e+01 2.040326e+01 1.989500e+01 1.842357e+01 2.396321e+01 1.599020e+01 4.216487e-01 5.209662e-01 5.498218e-01 6.472027e-01 8.961735e-01 1.358227e+00 1.130797e+00 1.372858e+00 1.311218e+00 1.464586e+00 1.370263e+00 1.246685e+00 9.777660e-01
<GCONST> 8.106880e+01
<TRANSP> 5
 0.000000e+00 1.000000e+00 0.000000e+00 0.000000e+00 0.000000e+00
 0.000000e+00 1.451765e-01 8.548235e-01 0.000000e+00 0.000000e+00
 0.000000e+00 0.000000e+00 6.727073e-01 3.272928e-01 0.000000e+00
 0.000000e+00 0.000000e+00 0.000000e+00 8.065742e-01 1.934258e-01
 0.000000e+00 0.000000e+00 0.000000e+00 0.000000e+00 0.000000e+00
<ENDHMM>
~h "ah"
<BEGINHMM>
<NUMSTATES> 5
<STATE> 2
<MEAN> 25
 3.102056e+00 -1.360628e+00 -2.177795e+00 -2.030180e+00 -1.231328e+00 -3.816842e+00 2.870440e-02 1.477788e+00 2.575178e+00 2.117018e+00 -3.311517e+00 -3.201945e+00 6.061590e-01 -2.694303e-01 -3.347253e-01 -7.310706e-01 8.436089e-02 -3.760659e-01 -2.635533e-01 -2.144171e-01 7.604092e-01 6.230135e-01 -5.791307e-01 -8.088676e-01 1.309909e+00
<VARIANCE> 25
 5.292356e+01 3.444193e+01 3.526550e+01 4.842042e+01 4.126118e+01 8.583652e+01 5.684806e+01 4.045864e+01 4.806554e+01 3.327724e+01 4.532877e+01 4.649044e+01 5.011143e+00 2.082450e+00 3.141862e+00 5.079264e+00 5.044580e+00 6.286250e+00 5.037014e+00 3.582201e+00 4.943260e+00 3.837632e+00 4.111413e+00 3.428308e+00 9.651640e+00
<GCONST> 1.111620e+02
<STATE> 3
<MEAN> 25
 5.938534e+00 -4.363722e-01 -3.177785e+00 -3.758488e+00 -1.624569e+00 -6.564879e+00 -8.245113e-01 3.609112e-01 4.702393e+00 3.884109e+00 -5.066847e+00 -4.996575e+00 2.516889e-01 2.939817e-01 1.959184e-01 1.426437e-01 2.225334e-01 1.910948e-01 -1.015924e-01 -3.714052e-01 4.007705e-02 7.816066e-02 2.504105e-01 8.130378e-02 -4.685046e-01
<VARIANCE> 25
 4.187379e+01 3.740462e+01 3.924125e+01 4.676041e+01 5.039160e+01 1.170882e+02 8.050460e+01 4.819015e+01 4.916532e+01 3.735343e+01 5.289043e+01 5.062955e+01 1.543578e+00 1.604480e+00 2.534731e+00 2.771646e+00 2.947450e+00 4.355827e+00 3.809867e+00 3.718794e+00 2.821724e+00 2.659844e+00 3.417939e+00 2.418222e+00 5.475257e+00
<GCONST> 1.070605e+02
<STATE> 4
<MEAN> 25
 3.058742e+00 -9.383720e-01 1.097290e+00 -7.470039e-01 1.077810e+00 -1.753178e+00 7.221715e-01 1.502606e-01 1.384377e-01 1.576305e+00 -1.130593e+00 -2.960131e-01 -2.238308e-01 -9.878384e-02 1.727014e-01 1.914696e-01 2.584683e-01 3.463677e-01 -5.641527e-02 7.581024e-02 -8.709460e-02 -8.591162e-02 3.093038e-01 2.445255e-01 -7.168669e-01
<VARIANCE> 25
 4.365306e+01 2.870314e+01 3.504090e+01 4.130100e+01 4.602453e+01 4.972250e+01 4.850673e+01 4.363428e+01 4.406702e+01 2.529558e+01 2.876355e+01 3.274735e+01 1.326718e+00 1.050389e+00 1.348526e+00 1.434483e+00 1.585696e+00 2.038710e+00 2.195429e+00 2.532824e+00 2.211210e+00 1.884923e+00 2.416821e+00 1.411084e+00 8.170538e-01
<GCONST> 9.594799e+01
<TRANSP> 5
 0.000000e+00 1.000000e+00 0.000000e+00 0.000000e+00 0.000000e+00
 0.000000e+00 4.369367e-01 5.630633e-01 0.000000e+00 0.000000e+00
 0.000000e+00 0.000000e+00 5.975499e-01 4.024502e-01 0.000000e+00
 0.000000e+00 0.000000e+00 0.000000e+00 7.474228e-01 2.525772e-01
 0.000000e+00 0.000000e+00 0.000000e+00 0.000000e+00 0.000000e+00
<ENDHMM>
~h "ao"
<BEGINHMM>
<NUMSTATES> 5
<STATE> 2
<MEAN> 25
 -2.581067e+00 7.727852e+00 -9.582193e+00 -1.210103e+01 -4.157666e+00 7.856256e+00 -8.935052e-01 -3.740093e-01 1.479354e+00 -7.024154e+00 3.336543e+00 -5.330992e-02 1.711582e+00 1.959724e+00 -3.326523e-01 -3.346361e+00 -2.087658e+00 1.425367e+00 8.045282e-01 -1.489350e+00 1.249075e+00 -1.688465e+00 -3.814166e-01 5.268691e-01 2.225486e+00
<VARIANCE> 25
 4.625960e+01 4.238821e+01 1.757893e+02 1.134941e+02 5.728955e+01 6.638083e+01 6.627471e+01 4.928479e+01 6.335090e+01 5.880032e+01 1.283378e+02 5.441064e+01 1.376099e+01 2.286420e+00 1.264122e+01 1.237683e+01 7.118694e+00 7.691526e+00 7.155430e+00 4.733181e+00 5.377927e+00 9.140938e+00 1.043179e+01 6.388871e+00 4.574480e+00
<GCONST> 1.224800e+02
<STATE> 3
<MEAN> 25
 6.728500e+00 1.151167e+01 -5.037180e+00 -2.117390e+01 -1.430080e+01 1.200865e+01 7.733005e+00 -9.300361e+00 1.042891e+01 -8.391898e+00 -4.657568e+00 3.829037e+00 1.750490e+00 5.723178e-01 3.155414e-01 -2.429931e+00 -1.958586e+00 1.280854e+00 5.839238e-01 -1.525028e+00 1.661111e+00 -1.537856e+00 4.235426e-01 1.477209e-01 1.583452e+00
<VARIANCE> 25
 7.497191e+01 3.711771e+01 3.792557e+01 8.344791e+01 1.243537e+02 8.125089e+01 6.749741e+01 5.562427e+01 4.834040e+01 1.328621e+02 9.375594e+01 3.170229e+01 5.323422e+00 2.729250e+00 2.468287e+00 9.296058e+00 7.909984e+00 6.382336e+00 2.761183e+00 4.170727e+00 8.656578e+00 8.248962e+00 6.470553e+00 3.506526e+00 4.291687e+00
<GCONST> 1.171757e+02
<STATE> 4
<MEAN> 25
 1.003789e+01 1.267838e+01 -5.551075e+00 -2.579269e+01 -1.598027e+01 6.973843e+00 2.698556e+00 -7.599359e+00 1.575530e+01 -1.518802e+01 1.717818e+00 4.353151e+00 2.682190e-02 -5.825796e-01 -1.901803e-02 6.348966e-01 2.255934e-01 -7.311559e-01 1.368527e-01 2.611532e-01 -4.328197e-01 8.350516e-01 1.976481e-01 -1.408506e-01 -4.255734e-01
<VARIANCE> 25
 1.699915e+01 3.479964e+01 1.738670e+01 6.935160e+01 4.280101e+01 1.003464e+02 3.803579e+01 5.786678e+01 7.009799e+01 7.347983e+01 2.408656e+01 3.203690e+01 5.254466e-01 1.260604e+00 1.100808e+00 3.160442e+00 2.326763e+00 1.975662e+00 1.793274e+00 2.552059e+00 2.894399e+00 3.212509e+00 1.671995e+00 1.986400e+00 6.980760e-01
<GCONST> 9.763380e+01
<TRANSP> 5
 0.000000e+00 1.000000e+00 0.000000e+00 0.000000e+00 0.000000e+00
 0.000000e+00 7.165810e-01 2.834190e-01 0.000000e+00 0.000000e+00
 0.000000e+00 0.000000e+00 6.553069e-01 3.446931e-01 0.000000e+00
 0.000000e+00 0.000000e+00 0.000000e+00 9.275624e-01 7.243756e-02
 0.000000e+00 0.000000e+00 0.000000e+00 0.000000e+00 0.000000e+00
<ENDHMM>
~h "aw"
<BEGINHMM>
<NUMSTATES> 5
<STATE> 2
<MEAN> 25
 5.872797e+00 1.591851e+00 -5.154288e+00 -1.186710e+01 1.877899e+00 5.662128e+00 6.086707e-01 -4.635013e+00 8.273948e+00 1.555537e+00 -1.452466e+00 -7.796388e+00 2.040151e-01 -1.491545e-01 -4.721947e-01 -4.683363e-01 2.733155e-01 1.445176e-01 4.186896e-01 -3.238134e-01 2.188902e-01 2.357082e-02 -1.766233e-01 -2.970239e-01 1.148233e+00
<VARIANCE> 25
 3.516774e+01 5.402756e+01 2.737259e+01 7.428765e+01 5.276550e+01 5.698780e+01 7.415362e+01 5.860069e+01 3.634946e+01 5.479783e+01 4.743976e+01 3.762625e+01 3.648303e+00 2.972684e+00 2.584319e+00 4.624879e+00 3.955569e+00 4.231161e+00 4.609388e+00 5.894851e+00 5.408017e+00 4.162580e+00 4.196032e+00 4.095819e+00 8.528667e+00
<GCONST> 1.116696e+02
<STATE> 3
<MEAN> 25
 8.386431e+00 -2.592040e+00 -1.080217e+01 -1.056031e+01 3.209808e+00 2.578162e+00 5.804079e+00 -3.225030e+00 1.995478e+00 7.423257e+00 -5.036386e+00 -8.446856e+00 2.700353e-01 3.304300e-01 -1.015893e-01 2.105465e-01 -2.886719e-01 -1.547927e-01 -4.636694e-03 3.668129e-01 -4.548594e-01 6.423479e-01 2.585501e-01 4.448909e-01 -1.214618e+00
<VARIANCE> 25
 3.021327e+01 2.844278e+01 3.590368e+01 6.877957e+01 4.237187e+01 2.932933e+01 5.546625e+01 6.097712e+01 3.832805e+01 4.651230e+01 4.387676e+01 3.026871e+01 7.493368e-01 1.538367e+00 1.373450e+00 2.971191e+00 1.912582e+00 1.875366e+00 2.134732e+00 2.867460e+00 2.242007e+00 2.255469e+00 2.237676e+00 2.257924e+00 6.634892e-01
<GCONST> 9.791145e+01
<STATE> 4
<MEAN> 25
 2.704087e+00 9.645924e-01 -7.547312e+00 -7.673742e+00 2.820704e+00 1.348702e+00 3.742069e+00 1.873667e+00 1.628640e-01 5.131659e+00 1.414667e-01 -2.839728e+00 -8.112401e-01 1.125365e-01 6.633152e-01 2.698813e-01 2.966788e-02 -2.030386e-01 4.035093e-02 3.934507e-01 4.305078e-02 -7.628815e-01 3.234627e-01 3.875162e-01 -9.402980e-01
<VARIANCE> 25
 7.221004e+01 3.724107e+01 5.326787e+01 2.949131e+01 3.685532e+01 2.669699e+01 1.475068e+01 2.887452e+01 2.689065e+01 3.758407e+01 1.682784e+01 1.956700e+01 4.320429e+00 2.737955e+00 2.385294e+00 2.329035e+00 1.963039e+00 2.730239e+00 1.674863e+00 1.949443e+00 1.371432e+00 2.085760e+00 1.926913e+00 1.702524e+00 1.049182e+00
<GCONST> 9.619892e+01
<TRANSP> 5
 0.000000e+00 1.000000e+00 0.000000e+00 0.000000e+00 0.000000e+00
 0.000000e+00 9.335513e-01 6.644866e-02 0.000000e+00 0.000000e+00
 0.000000e+00 0.000000e+00 9.052452e-01 9.475475e-02 0.000000e+00
 0.000000e+00 0.000000e+00 0.000000e+00 8.820206e-01 1.179794e-01
 0.000000e+00 0.000000e+00 0.000000e+00 0.000000e+00 0.000000e+00
<ENDHMM>
~h "ay"
<BEGINHMM>
<NUMSTATES> 5
<STATE> 2
<MEAN> 25
 -4.352024e+00 3.556100e+00 -5.818486e-02 2.078248e+00 1.647393e-01 2.829022e+00 -1.738078e+00 -2.139008e+00 1.867966e+00 -9.852270e-01 -1.176875e+00 7.467375e-01 2.061062e+00 8.001755e-01 -2.687578e-01 -1.434035e+00 -7.882655e-01 -9.163654e-02 3.510879e-01 -1.942955e+00 6.645893e-01 -9.307815e-01 -4.601133e-01 -3.225252e-01 2.694166e+00
<VARIANCE> 25
 1.720074e+02 4.771013e+01 5.938080e+01 6.221259e+01 3.563339e+01 2.892633e+01 3.350467e+01 5.541737e+01 6.795625e+01 3.370670e+01 3.358142e+01 2.314964e+01 1.204259e+01 6.027038e+00 7.076540e+00 8.323468e+00 4.229926e+00 5.881979e+00 3.821835e+00 5.660575e+00 7.542357e+00 4.728647e+00 5.146070e+00 3.600483e+00 6.062398e+00
<GCONST> 1.149758e+02
<STATE> 3
<MEAN> 25
 1.064976e+01 3.294569e+00 -6.099900e+00 -1.128964e+01 -4.299069e+00 4.637069e+00 1.585936e+00 -1.231377e+01 9.164917e+00 -6.780125e+00 -1.878551e+00 -1.784447e+00 -2.995359e-01 -1.195215e+00 -4.275188e-01 -1.501400e+00 9.442044e-01 -2.172911e-02 1.021650e+00 2.754896e-01 6.224359e-01 2.307450e-01 -1.684823e-01 -1.141315e+00 1.778991e+00
<VARIANCE> 25
 3.147716e+01 9.420495e+01 1.044845e+02 1.765525e+02 6.914368e+01 7.259521e+01 9.944872e+01 7.516983e+01 1.023124e+02 8.973904e+01 5.579226e+01 8.273981e+01 4.163003e+00 2.434909e+00 3.338723e+00 3.581672e+00 5.518049e+00 5.745844e+00 8.162589e+00 8.110794e+00 6.168688e+00 4.118458e+00 3.631894e+00 4.379341e+00 4.032588e+00
<GCONST> 1.186099e+02
<STATE> 4
<MEAN> 25
 6.336497e+00 -5.378152e+00 -5.996438e+00 -8.769535e+00 1.193563e+00 -4.426104e+00 6.932475e+00 -3.786837e+00 6.056473e+00 -7.060497e-01 -2.675837e+00 -7.789454e+00 4.700427e-02 1.175171e-01 3.531194e-01 5.072225e-01 -3.590799e-01 -5.860202e-01 -2.515875e-01 5.023576e-01 -3.662119e-01 2.126836e-01 1.029423e-01 2.957481e-01 -8.213676e-01
<VARIANCE> 25
 1.339867e+01 3.368089e+01 4.932123e+01 5.075525e+01 9.999448e+01 1.183075e+02 3.658020e+01 7.526862e+01 3.432394e+01 4.538631e+01 3.386291e+01 3.990342e+01 7.463307e-01 1.022229e+00 1.739492e+00 1.827791e+00 3.592999e+00 3.747050e+00 2.326626e+00 3.346018e+00 2.192181e+00 2.752678e+00 2.037610e+00 2.204190e+00 9.279105e-01
<GCONST> 1.005062e+02
<TRANSP> 5
 0.000000e+00 1.000000e+00 0.000000e+00 0.000000e+00 0.000000e+00
 0.000000e+00 7.805596e-01 2.194404e-01 0.000000e+00 0.000000e+00
 0.000000e+00 0.000000e+00 8.321106e-01 1.678894e-01 0.000000e+00
 0.000000e+00 0.000000e+00 0.000000e+00 9.467589e-01 5.324112e-02
 0.000000e+00 0.000000e+00 0.000000e+00 0.000000e+00 0.000000e+00
<ENDHMM>
~h "ch"
<BEGINHMM>
<NUMSTATES> 5
<STATE> 2
<MEAN> 25
 -9.161242e+00 -4.866110e-01 1.644159e+00 9.232559e+00 1.682218e+00 2.206368e+00 -2.684514e+00 2.446119e+00 3.987412e+00 -2.216488e+00 -2.475367e+00 4.499228e+00 9.274413e-01 -5.465530e-01 1.878954e-01 1.590460e-01 -1.102782e-01 9.507056e-02 -5.287290e-01 6.129367e-02 1.232358e-01 -2.305532e-01 -3.814591e-02 -1.949471e-01 -2.460156e-01
<VARIANCE> 25
 6.504042e+01 2.473701e+01 5.216249e+01 3.383703e+01 5.025213e+01 4.174678e+01 4.596227e+01 9.045001e+00 4.302580e+01 2.953698e+01 1.922143e+01 2.081719e+01 1.838332e+00 3.930362e+00 9.631530e+00 6.517466e+00 5.001201e+00 5.633986e+00 2.671966e+00 9.978735e-01 6.481839e+00 3.518474e+00 1.866746e+00 1.445385e+00 7.830165e-01
<GCONST> 1.019354e+02
<STATE> 3
<MEAN> 25
 6.716865e-02 -4.029874e+00 2.059056e+00 5.922092e+00 5.385689e+00 4.160655e+00 1.412321e+00 3.004000e+00 -2.169964e+00 1.531747e+00 1.052648e+00 2.110057e+00 1.602149e-01 -5.449302e-02 8.689822e-02 3.503998e-02 6.961147e-02 1.311431e-01 -1.125585e-01 1.579957e-01 -1.606042e-01 3.176868e-02 -6.236831e-02 -7.885938e-02 -1.183955e-01
<VARIANCE> 25
 4.673676e+00 9.159683e+00 3.637650e+00 4.972050e+00 7.584517e+00 7.642186e+00 1.061254e+01 1.038422e+01 1.161138e+01 1.071454e+01 7.916924e+00 1.303055e+01 7.932442e-01 3.256050e-01 5.855411e-01 4.980075e-01 9.234988e-01 8.638033e-01 1.430883e+00 9.999328e-01 1.542735e+00 1.045050e+00 9.217395e-01 7.446731e-01 6.294798e-02
<GCONST> 6.570291e+01
<STATE> 4
<MEAN> 25
 -5.658788e+00 1.987686e+00 1.363830e+00 3.241736e-02 -3.789513e+00 -3.204389e+00 -2.498360e+00 1.223311e+00 4.088140e+00 2.496083e-01 -8.215875e-01 7.444787e-01 -1.260051e-01 -5.160400e-02 -4.796801e-01 -6.088277e-01 -5.213158e-01 -2.149865e-01 -5.691212e-01 -3.333794e-01 3.055624e-01 5.411480e-02 1.192721e-01 -3.821617e-01 1.389570e+00
<VARIANCE> 25
 1.213434e+02 2.631336e+01 2.076198e+01 4.261796e+01 3.085030e+01 6.427568e+01 3.941946e+01 5.374987e+01 2.273170e+01 1.952655e+01 2.266387e+01 2.633347e+01 6.317904e+00 1.945286e+00 4.443803e+00 5.518549e+00 2.658100e+00 4.704563e+00 4.173296e+00 3.803129e+00 2.461642e+00 2.076555e+00 3.681072e+00 2.973671e+00 1.134835e+01
<GCONST> 1.059918e+02
<TRANSP> 5
 0.000000e+00 1.000000e+00 0.000000e+00 0.000000e+00 0.000000e+00
 0.000000e+00 7.553586e-01 2.446414e-01 0.000000e+00 0.000000e+00
 0.000000e+00 0.000000e+00 9.234772e-01 7.652278e-02 0.000000e+00
 0.000000e+00 0.000000e+00 0.000000e+00 8.616288e-01 1.383712e-01
 0.000000e+00 0.000000e+00 0.000000e+00 0.000000e+00 0.000000e+00
<ENDHMM>
~h "dh"
<BEGINHMM>
<NUMSTATES> 5
<STATE> 2
<MEAN> 25
 5.459291e+00 1.306005e+00 -6.422949e-01 -2.114221e+00 -7.155113e+00 -1.028855e+01 -4.088013e+00 -3.398962e+00 1.003269e+01 4.715328e-01 -8.284510e+00 -6.137027e+00 1.122010e+00 -1.012824e+00 9.392865e-02 -1.850612e-01 -2.932746e-01 -1.942664e-01 -4.005314e-01 -4.640376e-01 3.949028e-01 4.698290e-01 1.076594e-01 -5.599744e-01 1.018017e-01
<VARIANCE> 25
 2.462111e+01 3.393279e+01 2.241055e+01 2.753900e+01 4.323671e+01 3.671308e+01 5.682104e+01 7.112457e+01 2.569740e+01 3.086772e+01 3.448225e+01 3.198858e+01 2.555568e+00 2.246814e+00 2.208747e+00 3.262511e+00 3.283250e+00 2.699597e+00 4.085983e+00 6.466187e+00 2.521865e+00 3.449320e+00 3.308932e+00 3.555418e+00 3.629536e+00
<GCONST> 1.035523e+02
<STATE> 3
<MEAN> 25
 1.122368e+01 -4.189801e+00 -1.559398e+00 1.523244e-01 -9.231922e+00 -8.538858e+00 -6.671566e+00 7.850816e-01 9.583584e+00 7.386389e+00 -6.409847e+00 -3.196398e+00 -4.493684e-01 2.530856e-01 5.962737e-02 -2.429514e-01 7.164189e-01 4.486279e-01 -1.479347e-02 2.445823e-01 -5.227665e-01 1.505854e-01 6.796710e-01 4.116458e-01 -1.203828e+00
<VARIANCE> 25
 1.781651e+01 1.946312e+01 1.603943e+01 5.382411e+01 3.465402e+01 5.906998e+01 4.168467e+01 8.400716e+01 2.842606e+01 2.516854e+01 3.309403e+01 4.964126e+01 1.272884e+00 1.426756e+00 9.336132e-01 2.306331e+00 7.116453e-01 2.442805e+00 2.309198e+00 4.031703e+00 1.695788e+00 2.384963e+00 2.008714e+00 2.490307e+00 5.523656e-01
<GCONST> 9.487998e+01
<STATE> 4
<MEAN> 25
 5.516723e+00 -2.527650e+00 -3.123195e+00 -7.323883e+00 3.280059e-01 -7.057476e+00 -9.783702e-01 -2.844625e+00 4.954816e+00 5.046539e+00 -3.649758e+00 -1.130732e+01 -2.421032e-01 1.771083e-01 2.268282e-02 3.319900e-02 2.879014e-01 1.619277e-01 2.051340e-01 -8.005510e-02 -4.095736e-01 -1.322421e-01 2.824733e-01 6.003889e-01 -8.546531e-01
<VARIANCE> 25
 2.201351e+01 2.226758e+01 3.766780e+01 5.898855e+01 2.920299e+01 3.207715e+01 2.042199e+01 4.340707e+01 5.253183e+01 3.434827e+01 6.935170e+01 7.141774e+01 1.299764e+00 1.428903e+00 1.530669e+00 2.389339e+00 1.594370e+00 3.864804e+00 2.244986e+00 3.540087e+00 2.276600e+00 2.164835e+00 3.667279e+00 4.591201e+00 1.245205e+00
<GCONST> 9.992819e+01
<TRANSP> 5
 0.000000e+00 1.000000e+00 0.000000e+00 0.000000e+00 0.000000e+00
 0.000000e+00 8.705677e-01 1.294324e-01 0.000000e+00 0.000000e+00
 0.000000e+00 0.000000e+00 8.524622e-01 1.475378e-01 0.000000e+00
 0.000000e+00 0.000000e+00 0.000000e+00 8.671374e-01 1.328626e-01
 0.000000e+00 0.000000e+00 0.000000e+00 0.000000e+00 0.000000e+00
<ENDHMM>
~h "eh"
<BEGINHMM>
<NUMSTATES> 5
<STATE> 2
<MEAN> 25
 4.422550e+00 -1.449291e+00 1.716370e+00 -1.727001e+00 -4.592122e+00 -9.670749e+00 2.457120e+00 9.693036e-01 2.646326e+00 -2.997369e+00 -4.683587e+00 -2.943856e+00 2.221285e-01 -5.927528e-01 -2.163551e-01 -4.782667e-01 -2.807607e-01 -8.869643e-01 8.630524e-01 5.666188e-01 3.569012e-01 -1.003819e-01 -5.090945e-01 -4.009209e-01 1.447232e+00
<VARIANCE> 25
 3.536034e+01 5.729106e+01 7.304807e+01 5.730466e+01 6.797952e+01 5.580598e+01 9.435448e+01 5.749426e+01 4.646062e+01 3.358293e+01 6.824706e+01 5.046609e+01 3.599681e+00 3.510294e+00 3.728705e+00 2.464228e+00 4.059712e+00 5.472999e+00 5.009645e+00 4.278723e+00 2.712465e+00 3.025897e+00 4.402921e+00 3.132031e+00 7.001388e+00
<GCONST> 1.118326e+02
<STATE> 3
<MEAN> 25
 3.704615e+00 -2.506020e+00 -4.090257e+00 -4.189450e+00 -5.222497e+00 -1.152436e+01 6.870868e+00 3.253259e+00 7.409656e+00 -5.409434e-01 -5.704228e+00 -5.358808e+00 4.637924e-02 2.806264e-01 1.427970e-01 1.793400e-01 -2.991817e-02 1.138637e-01 -2.330543e-01 -1.235667e-01 -6.013322e-02 2.357368e-01 5.842277e-02 3.041787e-01 -8.633702e-01
<VARIANCE> 25
 4.502874e+01 2.265462e+01 4.161805e+01 2.698982e+01 2.616263e+01 5.574123e+01 6.166269e+01 4.059887e+01 3.044649e+01 3.222986e+01 3.637773e+01 3.395677e+01 2.178252e+00 1.274359e+00 2.119476e+00 1.627693e+00 1.686356e+00 2.529098e+00 3.297903e+00 3.180889e+00 1.858920e+00 2.196539e+00 1.864545e+00 1.547808e+00 1.239474e+00
<GCONST> 9.775856e+01
<STATE> 4
<MEAN> 25
 4.335408e+00 4.567262e-01 1.414369e+00 -1.724839e+00 -5.511835e+00 -9.533904e+00 2.330834e+00 2.023851e+00 3.735142e+00 1.788771e+00 -3.195121e+00 -1.410725e+00 -1.094684e-01 1.559519e-01 2.174601e-01 3.750604e-01 3.419203e-01 5.586669e-01 -5.614509e-01 -1.701990e-01 -1.346792e-01 7.988276e-02 3.512716e-01 1.955764e-01 -1.022711e+00
<VARIANCE> 25
 2.774468e+01 2.330383e+01 3.393922e+01 2.896374e+01 3.298989e+01 6.444188e+01 3.272986e+01 4.696435e+01 4.800087e+01 2.671531e+01 2.920491e+01 2.672059e+01 1.939541e+00 1.746686e+00 1.834653e+00 1.449603e+00 1.780299e+00 3.043264e+00 2.379451e+00 2.887638e+00 2.505511e+00 2.110521e+00 1.999460e+00 1.623738e+00 1.320969e+00
<GCONST> 9.706181e+01
<TRANSP> 5
 0.000000e+00 1.000000e+00 0.000000e+00 0.000000e+00 0.000000e+00
 0.000000e+00 8.218477e-01 1.781523e-01 0.000000e+00 0.000000e+00
 0.000000e+00 0.000000e+00 8.809095e-01 1.190905e-01 0.000000e+00
 0.000000e+00 0.000000e+00 0.000000e+00 6.974972e-01 3.025028e-01
 0.000000e+00 0.000000e+00 0.000000e+00 0.000000e+00 0.000000e+00
<ENDHMM>
~h "er"
<BEGINHMM>
<NUMSTATES> 5
<STATE> 2
<MEAN> 25
 -2.255961e+00 -3.792374e+00 -7.086067e-01 2.101787e+00 3.752792e+00 1.947017e+00 -1.045041e+00 2.288363e+00 -1.822991e+00 -1.249203e-01 5.029554e-01 1.431073e+00 -1.461579e-01 -4.829119e-02 2.573118e-03 5.950458e-02 7.619081e-02 2.016512e-01 8.298057e-02 3.879799e-03 -1.720341e-01 -1.419173e-01 -8.226639e-03 -2.832650e-02 -2.142825e-01
<VARIANCE> 25
 9.802773e+00 5.291189e+00 6.637260e+00 7.697572e+00 1.556419e+01 1.576327e+01 1.404005e+01 1.518345e+01 2.331731e+01 1.633177e+01 1.164859e+01 1.201723e+01 3.203345e-01 2.941287e-01 5.326056e-01 6.459987e-01 1.122671e+00 1.274323e+00 1.243898e+00 1.531974e+00 1.732445e+00 1.339867e+00 9.971282e-01 1.184211e+00 1.264211e-01
<GCONST> 7.209188e+01
<STATE> 3
<MEAN> 25
 -1.863081e+00 -1.450072e+00 -1.246698e+00 2.160518e+00 2.028715e+00 2.041101e+00 -1.238842e+00 2.163514e+00 -6.939707e-01 3.275931e-02 5.328184e-02 1.593139e+00 -4.540218e-02 -3.138212e-02 1.952218e-01 1.243438e-01 8.771822e-03 2.501629e-01 -2.716866e-02 -9.830388e-02 -2.165016e-01 -2.569527e-01 -1.321945e-01 -1.720584e-01 -2.701388e-01
<VARIANCE> 25
 2.950957e+01 1.148422e+01 9.318098e+00 1.814343e+01 3.356886e+01 2.995856e+01 2.598569e+01 2.373716e+01 3.558940e+01 1.754136e+01 1.948891e+01 1.593024e+01 7.151906e-01 4.461301e-01 8.329458e-01 1.003775e+00 1.095064e+00 1.364811e+00 1.516125e+00 1.349150e+00 2.550742e+00 1.991387e+00 1.262257e+00 1.158249e+00 2.588927e-01
<GCONST> 8.286536e+01
<STATE> 4
<MEAN> 25
 -1.666880e+00 -2.102466e+00 -2.009863e+00 5.990835e-01 -4.229243e-01 1.730786e+00 -1.323506e+00 2.230711e+00 -2.044428e+00 -5.497831e-01 -4.236298e-01 7.489700e-01 1.241634e-01 1.064589e-01 1.252778e-01 -7.768558e-02 -2.264757e-01 9.816943e-02 5.861333e-02 3.959026e-02 -2.623058e-02 -2.930535e-02 -1.242685e-01 -1.560926e-01 9.775154e-03
<VARIANCE> 25
 1.449726e+01 6.492823e+00 1.131581e+01 2.052110e+01 3.067042e+01 2.472499e+01 1.789358e+01 1.900658e+01 3.136339e+01 1.485070e+01 1.880272e+01 1.656730e+01 1.110824e+00 6.744625e-01 1.138000e+00 1.886811e+00 2.233608e+00 2.361748e+00 1.564232e+00 1.649994e+00 1.913174e+00 2.162979e+00 1.576702e+00 1.345976e+00 4.149733e-01
<GCONST> 8.466448e+01
<TRANSP> 5
 0.000000e+00 1.000000e+00 0.000000e+00 0.000000e+00 0.000000e+00
 0.000000e+00 9.179767e-01 8.202326e-02 0.000000e+00 0.000000e+00
 0.000000e+00 0.000000e+00 3.671632e-01 6.328368e-01 0.000000e+00
 0.000000e+00 0.000000e+00 0.000000e+00 6.332320e-01 3.667680e-01
 0.000000e+00 0.000000e+00 0.000000e+00 0.000000e+00 0.000000e+00
<ENDHMM>
~h "ey"
<BEGINHMM>
<NUMSTATES> 5
<STATE> 2
<MEAN> 25
 1.834082e+00 9.795918e-01 8.351794e+00 -4.025057e+00 -1.289203e+01 -9.641518e+00 3.384405e+00 -2.262195e-01 -5.621281e-01 6.592348e-01 4.288327e-01 -1.524949e+00 -5.357297e-02 6.326569e-01 8.506190e-01 -2.246343e-01 -6.564900e-01 -4.664620e-01 1.592075e-01 -6.486403e-01 -5.071215e-01 1.344741e-01 1.065620e-01 1.414768e-01 5.191963e-01
<VARIANCE> 25
 1.721755e+01 2.215717e+01 3.688261e+01 3.273284e+01 4.462050e+01 4.857907e+01 6.353099e+01 2.825167e+01 3.547899e+01 2.835723e+01 2.685567e+01 2.118096e+01 1.335137e+00 1.354978e+00 1.844623e+00 1.857955e+00 2.737787e+00 3.599947e+00 4.754868e+00 2.589531e+00 3.165139e+00 2.582998e+00 2.676449e+00 2.052549e+00 6.938650e+00
<GCONST> 9.978371e+01
<STATE> 3
<MEAN> 25
 4.561617e-01 5.077183e+00 9.622541e+00 6.226507e-01 -1.183688e+01 -9.101208e+00 1.260467e+00 -2.370420e+00 9.829021e-01 -1.903720e+00 -1.532558e+00 6.014694e-02 3.482649e-01 -5.934366e-02 -3.189204e-01 9.406063e-02 3.047065e-01 -6.482719e-02 -3.774260e-02 1.486036e-01 2.913148e-01 1.167160e-01 -2.682258e-01 1.549230e-01 -5.182247e-01
<VARIANCE> 25
 9.025873e+01 3.451326e+01 5.836498e+01 3.545957e+01 4.382066e+01 4.657237e+01 5.818274e+01 3.382524e+01 4.626030e+01 3.712046e+01 3.135434e+01 2.686378e+01 5.062760e+00 2.118579e+00 3.233829e+00 1.824422e+00 2.226023e+00 3.477599e+00 3.919623e+00 2.598519e+00 2.768142e+00 2.565690e+00 1.893028e+00 2.166834e+00 1.850905e+00
<GCONST> 1.035192e+02
<STATE> 4
<MEAN> 25
 3.613426e+00 6.884180e+00 9.462686e+00 -3.713032e+00 -9.121536e+00 -6.289371e+00 9.483322e-01 -5.362974e+00 -3.679097e+00 4.096419e+00 -9.897778e-01 1.729720e+00 -6.241506e-02 2.623910e-02 -3.664762e-01 4.692061e-01 9.142268e-01 4.117002e-01 -4.603572e-01 5.669434e-02 9.561872e-02 -8.543792e-02 3.600078e-01 1.171034e-01 -1.207593e+00
<VARIANCE> 25
 3.432801e+01 2.749926e+01 5.181794e+01 5.951315e+01 7.033085e+01 4.835202e+01 3.970307e+01 5.866603e+01 4.658789e+01 3.510883e+01 2.671866e+01 2.375033e+01 1.587393e+00 1.941275e+00 2.233058e+00 1.675525e+00 2.441706e+00 2.267561e+00 2.608280e+00 2.764937e+00 2.598372e+00 2.173795e+00 2.124726e+00 1.365038e+00 8.287734e-01
<GCONST> 9.930917e+01
<TRANSP> 5
 0.000000e+00 1.000000e+00 0.000000e+00 0.000000e+00 0.000000e+00
 0.000000e+00 8.664290e-01 1.335710e-01 0.000000e+00 0.000000e+00
 0.000000e+00 0.000000e+00 8.758574e-01 1.241426e-01 0.000000e+00
 0.000000e+00 0.000000e+00 0.000000e+00 8.824306e-01 1.175694e-01
 0.000000e+00 0.000000e+00 0.000000e+00 0.000000e+00 0.000000e+00
<ENDHMM>
~h "hh"
<BEGINHMM>
<NUMSTATES> 5
<STATE> 2
<MEAN> 25
 -6.433369e+00 -3.781064e+00 -9.691432e-01 -6.101263e+00 2.130674e+00 4.453939e+00 6.382190e+00 -6.803250e-02 4.933073e+00 -3.349541e+00 -1.539758e+00 1.871429e+00 -2.003021e-01 3.961329e-01 -3.712170e-01 -2.003489e+00 3.878071e-01 6.692639e-01 1.860014e+00 -1.466602e-01 9.632503e-01 -9.928902e-01 -1.051817e+00 -6.301482e-01 2.351692e+00
<VARIANCE> 25
 2.038691e+01 3.897299e+01 1.978686e+01 5.278161e+01 9.360786e+01 9.008804e+01 7.034996e+01 9.644258e+01 5.460588e+01 3.613091e+01 5.346890e+01 3.447297e+01 2.953330e+00 2.850898e+00 1.777616e+00 5.334706e+00 5.576446e+00 5.906530e+00 6.820530e+00 7.799119e+00 6.637060e+00 4.188542e+00 4.493401e+00 4.111702e+00 2.992809e+00
<GCONST> 1.117311e+02
<STATE> 3
<MEAN> 25
 -2.420892e+00 2.119801e+00 -3.718380e+00 -1.155375e+01 2.613845e+00 4.779390e+00 8.165536e+00 -2.825301e-01 9.423139e+00 -5.161010e+00 -3.611616e+00 -3.850323e+00 1.470453e+00 9.507439e-01 -6.767849e-01 -1.030130e+00 -8.308487e-02 -6.581543e-01 -5.211353e-01 -5.538816e-01 9.105195e-01 -1.771958e-01 5.853392e-01 -1.369623e+00 2.397179e+00
<VARIANCE> 25
 7.697804e+01 2.929705e+01 3.386204e+01 1.382933e+02 5.608241e+01 1.144384e+02 5.114622e+01 5.796061e+01 4.125443e+01 3.137236e+01 4.937210e+01 6.176788e+01 4.459159e+00 3.354885e+00 1.885449e+00 6.554791e+00 2.769924e+00 3.951392e+00 3.327746e+00 4.313159e+00 4.354060e+00 2.295937e+00 3.088827e+00 4.719063e+00 4.324897e+00
<GCONST> 1.107920e+02
<STATE> 4
<MEAN> 25
 7.160191e+00 3.140437e+00 -6.702784e+00 -1.638550e+01 2.522889e+00 3.107898e+00 1.982858e+00 -1.041683e+01 7.760715e+00 9.185411e-01 -1.206996e+00 -5.492113e+00 3.294101e-01 1.720915e-01 3.853541e-03 2.667640e-01 -2.741443e-01 -3.461949e-01 -2.221610e-01 3.080440e-02 -3.904833e-01 1.664419e-01 8.128542e-02 3.794950e-01 -4.476989e-01
<VARIANCE> 25
 2.875546e+01 2.764949e+01 4.603428e+01 9.079485e+01 4.608966e+01 7.239961e+01 7.875085e+01 4.780819e+01 3.659912e+01 3.612681e+01 2.249412e+01 1.157536e+02 8.876696e-01 1.369026e+00 2.132038e+00 5.219619e+00 1.423157e+00 3.334686e+00 2.573577e+00 3.639099e+00 2.747931e+00 2.219357e+00 2.131151e+00 3.010807e+00 1.784596e+00
<GCONST> 1.030063e+02
<TRANSP> 5
 0.000000e+00 1.000000e+00 0.000000e+00 0.000000e+00 0.000000e+00
 0.000000e+00 7.083295e-01 2.916705e-01 0.000000e+00 0.000000e+00
 0.000000e+00 0.000000e+00 7.170704e-01 2.829296e-01 0.000000e+00
 0.000000e+00 0.000000e+00 0.000000e+00 8.744686e-01 1.255314e-01
 0.000000e+00 0.000000e+00 0.000000e+00 0.000000e+00 0.000000e+00
<ENDHMM>
~h "ih"
<BEGINHMM>
<NUMSTATES> 5
<STATE> 2
<MEAN> 25
 -2.136161e+00 5.866418e+00 8.968308e+00 1.315170e+00 -7.183330e+00 -2.967083e+00 -1.098906e+00 -3.849052e+00 -4.412252e+00 -2.717809e+00 -2.057818e+00 -1.141936e+00 4.769769e-01 8.431170e-01 2.260576e+00 -9.117867e-01 -2.151145e+00 -8.216162e-01 2.745308e-02 -6.563356e-01 -1.671502e+00 -4.240884e-01 -1.621739e-01 -7.877517e-01 2.638004e+00
<VARIANCE> 25
 6.974142e+01 4.005736e+01 8.724915e+01 5.649575e+01 7.982232e+01 5.428486e+01 5.086808e+01 3.264163e+01 5.057095e+01 4.420704e+01 3.257998e+01 2.959742e+01 7.919973e+00 5.253902e+00 7.279171e+00 5.453997e+00 6.265668e+00 4.799637e+00 5.090656e+00 4.325739e+00 5.680855e+00 5.344488e+00 3.733897e+00 2.585065e+00 7.626618e+00
<GCONST> 1.143748e+02
<STATE> 3
<MEAN> 25
 3.937600e-01 7.295068e+00 1.549429e+01 -3.131302e+00 -1.544406e+01 -6.408723e+00 -2.211344e+00 -5.232800e+00 -9.352145e+00 -2.085454e+00 -1.292911e+00 -4.943299e+00 2.979939e-01 2.505102e-01 -1.594237e-01 -1.963421e-01 2.129096e-01 3.087160e-02 -2.499953e-01 -1.537943e-01 1.797231e-01 4.636670e-01 2.543439e-01 1.818039e-01 -7.251925e-01
<VARIANCE> 25
 1.823734e+01 2.653214e+01 4.542362e+01 3.510733e+01 2.971194e+01 4.223556e+01 3.288847e+01 2.979800e+01 4.380851e+01 4.840519e+01 2.179688e+01 3.022766e+01 1.580936e+00 1.623605e+00 1.929572e+00 2.192396e+00 2.516153e+00 2.531402e+00 2.287764e+00 2.085359e+00 3.127941e+00 2.490098e+00 2.275920e+00 2.213803e+00 2.119637e+00
<GCONST> 9.789555e+01
<STATE> 4
<MEAN> 25
 -5.637918e-01 8.104225e+00 6.460321e+00 -4.670386e+00 -7.998866e+00 -2.940104e+00 -7.882254e-01 -6.534098e+00 -1.982748e+00 1.766591e+00 -6.598109e-01 1.123172e+00 -1.082256e-01 -3.600301e-01 -6.213855e-01 3.946329e-01 7.361784e-01 7.941775e-02 -1.178762e-01 1.774915e-01 6.051800e-01 7.017601e-02 -3.053738e-02 3.894747e-01 -8.001574e-01
<VARIANCE> 25
 1.241099e+02 4.249665e+01 7.890317e+01 7.807428e+01 7.530788e+01 6.670802e+01 5.399146e+01 4.668749e+01 5.333347e+01 3.915734e+01 3.268433e+01 2.535341e+01 3.337522e+00 1.972931e+00 2.034013e+00 2.537990e+00 2.352414e+00 3.277115e+00 2.076945e+00 3.314033e+00 2.642575e+00 2.191694e+00 2.648846e+00 1.757446e+00 1.468964e+00
<GCONST> 1.051381e+02
<TRANSP> 5
 0.000000e+00 1.000000e+00 0.000000e+00 0.000000e+00 0.000000e+00
 0.000000e+00 7.573733e-01 2.426267e-01 0.000000e+00 0.000000e+00
 0.000000e+00 0.000000e+00 8.616744e-01 1.383256e-01 0.000000e+00
 0.000000e+00 0.000000e+00 0.000000e+00 8.863718e-01 1.136282e-01
 0.000000e+00 0.000000e+00 0.000000e+00 0.000000e+00 0.000000e+00
<ENDHMM>
~h "iy"
<BEGINHMM>
<NUMSTATES> 5
<STATE> 2
<MEAN> 25
 2.480942e+00 5.565886e+00 1.042474e+01 6.910117e-01 -1.194775e+01 -6.817181e+00 -5.188348e-01 -7.509655e+00 -4.977114e+00 -4.384542e+00 -1.995579e+00 -2.235465e+00 1.334812e-01 9.577568e-01 1.551492e+00 -1.398268e+00 -1.218054e+00 -2.101818e-01 1.043507e-01 -7.214513e-01 -1.049593e+00 4.507412e-01 4.041215e-01 -6.685118e-01 1.247026e+00
<VARIANCE> 25
 8.102768e+01 6.770942e+01 4.408291e+01 5.195899e+01 6.868401e+01 5.778256e+01 6.997455e+01 8.802409e+01 7.266016e+01 4.024559e+01 2.982428e+01 2.913052e+01 4.469845e+00 4.082756e+00 3.799268e+00 3.026818e+00 4.138744e+00 3.064291e+00 4.579881e+00 4.970793e+00 4.941089e+00 3.025835e+00 3.356872e+00 2.031554e+00 3.378883e+00
<GCONST> 1.109073e+02
<STATE> 3
<MEAN> 25
 2.920218e-01 7.622130e+00 1.523330e+01 -4.740713e+00 -1.430341e+01 -6.376777e+00 -1.481930e+00 -7.959072e+00 -8.964753e+00 5.241632e-04 -1.219219e+00 -5.549001e+00 3.567030e-01 -2.364573e-01 -2.939573e-01 1.684500e-01 4.272289e-01 -1.358397e-01 -1.656929e-01 1.871177e-01 4.196262e-01 2.133883e-01 4.159771e-02 8.437311e-02 -6.163442e-01
<VARIANCE> 25
 3.101878e+01 2.920794e+01 4.633249e+01 4.017567e+01 4.452980e+01 5.930967e+01 5.813803e+01 4.207513e+01 3.889184e+01 3.420249e+01 2.321835e+01 3.765262e+01 1.693812e+00 1.416150e+00 2.330898e+00 2.142503e+00 3.016949e+00 2.792576e+00 2.984272e+00 2.921719e+00 3.057605e+00 2.034413e+00 2.159055e+00 2.547661e+00 1.992196e+00
<GCONST> 1.009345e+02
<STATE> 4
<MEAN> 25
 6.076922e+00 2.703901e+00 5.465645e+00 -1.663366e+00 -6.294071e+00 -6.914289e+00 -4.684504e+00 -4.076272e+00 -4.582233e-01 -5.065436e-01 1.655380e+00 -1.997367e-01 -2.553138e-01 -2.817905e-01 -1.058126e+00 8.890744e-02 1.096494e+00 4.874728e-01 3.281025e-01 5.764339e-01 7.274563e-01 -1.626797e-01 6.526342e-02 1.415710e-01 -7.277986e-01
<VARIANCE> 25
 4.043562e+01 2.896667e+01 8.296515e+01 8.234827e+01 3.101182e+01 6.640937e+01 3.618324e+01 6.046080e+01 5.660970e+01 3.026869e+01 1.870337e+01 5.076148e+01 1.584512e+00 1.310339e+00 2.567207e+00 2.191817e+00 1.914032e+00 2.355576e+00 1.517967e+00 2.459764e+00 2.573477e+00 2.197718e+00 2.361114e+00 2.977390e+00 1.028025e+00
<GCONST> 1.004571e+02
<TRANSP> 5
 0.000000e+00 1.000000e+00 0.000000e+00 0.000000e+00 0.000000e+00
 0.000000e+00 7.682381e-01 2.317619e-01 0.000000e+00 0.000000e+00
 0.000000e+00 0.000000e+00 8.834612e-01 1.165388e-01 0.000000e+00
 0.000000e+00 0.000000e+00 0.000000e+00 7.429839e-01 2.570161e-01
 0.000000e+00 0.000000e+00 0.000000e+00 0.000000e+00 0.000000e+00
<ENDHMM>
~h "jh"
<BEGINHMM>
<NUMSTATES> 5
<STATE> 2
<MEAN> 25
 -2.125039e+00 -4.779189e+00 -6.676953e-01 3.111055e+00 1.309100e-01 1.107964e+00 -9.450546e-02 1.465041e+00 -5.162171e+00 -3.374571e-01 9.260595e-01 -1.243752e-01 7.787405e-02 -4.722736e-02 -7.137900e-02 -2.479455e-02 1.881866e-01 -4.681834e-02 -1.052299e-01 1.227315e-01 -2.478906e-01 -6.932301e-02 8.159685e-02 1.173410e-02 -2.297745e-01
<VARIANCE> 25
 7.741031e+00 6.946169e+00 7.321291e+00 8.334578e+00 2.199737e+01 2.287230e+01 1.249584e+01 1.503880e+01 2.395165e+01 1.738803e+01 1.395360e+01 9.911090e+00 9.524469e-01 3.890839e-01 7.495551e-01 1.127441e+00 1.888534e+00 2.667064e+00 1.571296e+00 1.546362e+00 2.400874e+00 2.024742e+00 1.759893e+00 1.177228e+00 2.735037e-01
<GCONST> 7.881778e+01
<STATE> 3
<MEAN> 25
 2.570396e+00 -2.297908e+00 4.555788e+00 -5.770831e-01 -6.326465e+00 -3.677290e+00 -3.715254e+00 1.430355e-01 -2.956095e-01 2.106183e-01 1.077619e+00 -2.722154e+00 -1.054626e+00 1.553729e-01 2.587577e-01 -2.563288e-01 6.689950e-01 2.627389e-01 5.161954e-01 -5.554374e-01 -1.323085e-01 -6.458018e-01 -8.062699e-01 1.371522e-01 -7.752801e-02
<VARIANCE> 25
 2.244985e+01 2.833486e+01 2.242482e+01 8.773663e+00 6.268472e+01 2.709329e+01 1.138376e+01 7.846890e+00 1.298533e+01 7.992764e+00 1.483492e+01 9.021544e+00 2.671405e+00 3.205698e+00 1.309347e+00 9.030434e-01 1.376683e+00 2.086319e+00 1.133867e+00 9.389929e-01 1.369727e+00 7.127994e-01 1.360649e+00 1.090596e+00 1.438704e+00
<GCONST> 8.332023e+01
<STATE> 4
<MEAN> 25
 -3.699588e+00 5.467934e+00 5.387123e+00 3.204361e-01 -5.856814e+00 -4.976472e+00 -1.462852e+00 -7.604935e-01 3.456972e-01 -8.022246e-01 -9.298007e-01 1.500198e-01 -6.820872e-01 5.884421e-01 -7.195259e-01 -1.713542e-01 5.703029e-01 -1.341346e+00 -4.035391e-01 2.047305e-01 1.660680e-01 -1.859961e-01 -3.617265e-01 5.672822e-01 3.071914e-01
<VARIANCE> 25
 9.792101e+01 4.406734e+01 3.821366e+01 1.607156e+01 6.822392e+01 5.937099e+01 4.153593e+01 2.363738e+01 3.094089e+01 2.671248e+01 1.352048e+01 6.042764e+00 1.233807e+01 6.410209e+00 2.153254e+00 1.375619e+00 1.625491e+00 1.100953e+01 6.123122e+00 4.039827e+00 3.734230e+00 2.836703e+00 1.162601e+00 6.422851e-01 2.612821e+00
<GCONST> 1.016312e+02
<TRANSP> 5
 0.000000e+00 1.000000e+00 0.000000e+00 0.000000e+00 0.000000e+00
 0.000000e+00 9.375959e-01 6.240413e-02 0.000000e+00 0.000000e+00
 0.000000e+00 0.000000e+00 5.850246e-01 4.149754e-01 0.000000e+00
 0.000000e+00 0.000000e+00 0.000000e+00 8.398591e-01 1.601409e-01
 0.000000e+00 0.000000e+00 0.000000e+00 0.000000e+00 0.000000e+00
<ENDHMM>
~h "ng"
<BEGINHMM>
<NUMSTATES> 5
<STATE> 2
<MEAN> 25
 5.813042e+00 -5.775405e+00 -9.967800e+00 -8.911976e+00 3.331457e+00 1.446797e+00 1.713671e+00 -6.473402e+00 6.637534e+00 3.247844e-01 -6.977978e-01 -7.098384e+00 4.197827e-01 6.069905e-01 3.692229e-02 -3.432449e-01 1.920871e-01 -1.830863e-01 -2.604428e-01 -4.106952e-01 -4.236347e-01 3.687406e-02 1.841939e-01 4.142147e-01 -1.194760e+00
<VARIANCE> 25
 4.893345e+01 1.985038e+01 3.553964e+01 3.264375e+01 2.144270e+01 3.208105e+01 2.107607e+01 2.420152e+01 3.505806e+01 3.394585e+01 3.235442e+01 3.996247e+01 5.240022e-01 5.372794e-01 1.053989e+00 1.139414e+00 1.545905e+00 2.140257e+00 1.164440e+00 1.639139e+00 1.972286e+00 1.436782e+00 2.188680e+00 1.310064e+00 2.385833e-01
<GCONST> 8.831705e+01
<STATE> 3
<MEAN> 25
 9.133630e+00 1.622894e+00 -2.420048e+00 -4.228884e+00 3.458789e+00 -8.997172e-01 1.424429e+00 -4.187323e+00 -5.703748e-01 2.624525e+00 -7.640560e-01 -1.888195e+00 -7.011066e-01 -2.307879e-01 7.999926e-01 1.214845e+00 6.071638e-02 3.768581e-01 3.510225e-01 1.014464e+00 -3.158530e-01 1.049369e-01 2.086381e-01 2.844755e-01 -1.241810e+00
<VARIANCE> 25
 2.710288e+01 1.259020e+01 3.441378e+01 4.392289e+01 2.009363e+01 2.308981e+01 1.575769e+01 5.382772e+01 2.631577e+01 1.727813e+01 1.649038e+01 1.901011e+01 1.209503e+00 1.079923e+00 1.202155e+00 1.286231e+00 2.196226e+00 2.015822e+00 1.753461e+00 2.475863e+00 1.666261e+00 1.506979e+00 1.357279e+00 1.156189e+00 1.725520e-01
<GCONST> 8.712377e+01
<STATE> 4
<MEAN> 25
 -7.854528e-01 -2.491582e+00 1.805810e+00 5.484663e+00 4.515471e+00 2.638141e+00 1.332433e+00 3.628508e+00 -1.358196e+00 1.917509e+00 4.487625e-01 1.821859e+00 -7.884133e-02 -2.397059e-02 -3.838535e-02 8.404468e-02 2.234650e-02 7.008243e-02 -2.178776e-02 8.147314e-02 4.213061e-03 -2.511623e-02 -4.865525e-02 1.255800e-02 -1.221735e-01
<VARIANCE> 25
 2.488415e+00 4.992967e+00 6.666971e+00 1.363531e+01 9.407026e+00 1.026288e+01 1.154196e+01 1.283374e+01 1.580063e+01 1.746232e+01 1.332724e+01 1.053050e+01 1.774345e-01 3.384150e-01 4.099574e-01 6.189638e-01 8.471256e-01 9.011059e-01 1.048520e+00 1.400411e+00 1.782372e+00 1.475470e+00 1.121809e+00 1.116596e+00 5.793912e-02
<GCONST> 6.738252e+01
<TRANSP> 5
 0.000000e+00 1.000000e+00 0.000000e+00 0.000000e+00 0.000000e+00
 0.000000e+00 8.987661e-01 1.012339e-01 0.000000e+00 0.000000e+00
 0.000000e+00 0.000000e+00 8.665996e-01 1.334004e-01 0.000000e+00
 0.000000e+00 0.000000e+00 0.000000e+00 9.710425e-01 2.895746e-02
 0.000000e+00 0.000000e+00 0.000000e+00 0.000000e+00 0.000000e+00
<ENDHMM>
~h "ow"
<BEGINHMM>
<NUMSTATES> 5
<STATE> 2
<MEAN> 25
 5.027204e+00 8.248510e+00 -8.093997e+00 -1.992572e+01 -6.229160e+00 1.066132e+01 -1.614470e+00 -7.365365e+00 8.048860e+00 -6.342533e+00 1.828414e+00 2.831613e+00 5.453259e-01 1.251260e+00 -2.948139e-01 -2.592153e+00 -3.807356e-01 9.049734e-01 -1.475722e-01 -2.514338e-01 5.990188e-01 -9.712101e-01 4.759856e-01 7.824074e-01 1.169698e+00
<VARIANCE> 25
 3.919295e+01 4.524316e+01 6.840349e+01 1.754751e+02 3.656301e+01 6.613449e+01 4.197065e+01 8.067864e+01 5.761525e+01 8.273874e+01 5.534184e+01 3.665287e+01 2.683712e+00 1.868180e+00 5.992308e+00 1.135090e+01 2.858740e+00 5.289130e+00 3.175820e+00 5.891586e+00 3.976940e+00 5.361821e+00 4.802753e+00 2.817453e+00 6.734883e+00
<GCONST> 1.138723e+02
<STATE> 3
<MEAN> 25
 9.981774e+00 1.351573e+01 -3.792529e+00 -2.309193e+01 -1.001027e+01 3.965767e+00 -2.458637e+00 -3.812122e+00 7.318942e+00 -1.169694e+01 3.405059e+00 4.418144e+00 2.244688e-01 -3.110083e-01 2.796728e-01 9.135109e-01 1.655412e-01 -8.698297e-01 1.106454e-01 3.822183e-01 -5.004119e-01 4.271339e-01 7.360798e-02 -7.926212e-02 -8.773736e-01
<VARIANCE> 25
 2.294485e+01 4.570778e+01 3.629921e+01 1.008078e+02 5.016703e+01 9.700782e+01 3.032886e+01 5.525900e+01 6.221004e+01 9.712176e+01 4.597873e+01 3.521279e+01 5.186086e-01 1.076383e+00 8.448801e-01 1.616336e+00 2.194727e+00 1.617806e+00 1.913682e+00 2.167832e+00 1.768168e+00 3.025840e+00 1.997256e+00 1.727952e+00 3.916630e-01
<GCONST> 9.751463e+01
<STATE> 4
<MEAN> 25
 8.784292e-01 -2.492447e+00 1.492072e+00 2.458184e+00 2.299895e+00 1.079778e+00 -1.013046e+00 3.453606e+00 -2.438599e+00 1.426375e+00 1.250352e+00 1.936300e+00 -3.160771e-01 -2.506839e-01 8.155361e-03 3.508888e-01 2.575150e-01 2.170082e-01 3.216697e-02 1.436896e-01 -1.195270e-02 1.162594e-01 -3.319521e-02 -5.738794e-02 -3.083797e-01
<VARIANCE> 25
 2.402216e+01 1.748218e+01 7.464291e+00 2.844538e+01 3.082458e+01 3.428938e+01 2.397930e+01 2.071328e+01 1.650589e+01 1.533675e+01 1.426278e+01 1.285223e+01 4.412114e-01 5.769608e-01 5.044482e-01 1.036750e+00 1.286007e+00 1.300277e+00 1.558544e+00 1.644125e+00 1.632323e+00 1.343719e+00 1.086665e+00 1.116411e+00 1.815305e-01
<GCONST> 7.997249e+01
<TRANSP> 5
 0.000000e+00 1.000000e+00 0.000000e+00 0.000000e+00 0.000000e+00
 0.000000e+00 8.215500e-01 1.784500e-01 0.000000e+00 0.000000e+00
 0.000000e+00 0.000000e+00 9.325601e-01 6.743994e-02 0.000000e+00
 0.000000e+00 0.000000e+00 0.000000e+00 9.542232e-01 4.577675e-02
 0.000000e+00 0.000000e+00 0.000000e+00 0.000000e+00 0.000000e+00
<ENDHMM>
~h "oy"
<BEGINHMM>
<NUMSTATES> 5
<STATE> 2
<MEAN> 25
 7.558063e+00 1.385922e+00 -3.087780e+00 -1.474508e+01 -9.722023e+00 5.941588e+00 -1.190122e+00 -7.357670e+00 1.004631e+01 -2.690994e+00 9.304231e-01 -2.613866e+00 3.354712e-01 1.600281e-01 2.535733e-01 -5.335808e-02 -2.078258e-01 -5.141906e-01 5.096828e-02 -1.952542e-01 -3.940738e-01 1.242694e-01 -3.349984e-02 2.072122e-02 2.685042e-01
<VARIANCE> 25
 1.182515e+02 4.429353e+01 5.137177e+01 1.353111e+02 5.495947e+01 1.392615e+02 7.949919e+01 3.814239e+01 7.454074e+01 1.139393e+02 3.612512e+01 3.031922e+01 4.536357e+00 2.907280e+00 4.087243e+00 6.509665e+00 4.643044e+00 7.842325e+00 4.946869e+00 4.265377e+00 6.177084e+00 6.578348e+00 2.368911e+00 3.864451e+00 2.797866e+00
<GCONST> 1.158155e+02
<STATE> 3
<MEAN> 25
 -2.489053e+00 1.108046e+01 2.210641e+00 -8.445224e+00 -4.974632e+00 -7.848846e+00 -2.974667e+00 -1.272304e+00 -9.906399e+00 3.832463e+00 2.756149e-02 -5.061918e-01 -2.296159e+00 1.551876e+00 -8.504953e-01 2.485751e-01 1.471093e+00 -3.630014e-01 7.167591e-01 1.272383e+00 2.176702e-01 -3.896000e-02 -1.922964e-01 2.458858e-01 -1.256623e-01
<VARIANCE> 25
 8.769350e+01 4.501088e+01 2.278939e+01 3.667531e+01 8.650679e+01 1.185604e+01 5.415225e+01 1.531752e+01 3.998898e+01 1.951147e+01 3.158762e+01 2.506634e+01 5.985830e+00 2.891959e+00 1.086836e+00 4.294789e+00 4.148986e+00 1.975930e+00 6.439247e+00 2.330695e+00 2.516919e+00 3.228453e+00 2.089607e+00 2.697157e+00 4.171533e-01
<GCONST> 1.000982e+02
<STATE> 4
<MEAN> 25
 -1.443431e+01 1.357699e+01 -4.961035e+00 -2.059793e-01 1.287308e+01 -9.354630e+00 6.556571e+00 1.877534e+00 -1.145027e+00 2.940983e+00 2.828432e-01 8.862804e-01 4.160342e-01 -7.176720e-01 2.489091e-02 6.145858e-01 3.136792e-01 1.628868e-01 5.773959e-01 -3.650288e-02 1.959758e-01 -1.579701e-01 -1.396712e-01 -2.740389e-03 -7.122563e-01
<VARIANCE> 25
 3.349515e+01 3.805595e+01 1.164697e+01 1.701378e+01 2.990901e+01 3.937248e+00 2.409487e+01 2.308204e+01 2.195076e+01 1.693887e+01 1.283137e+01 5.036774e+00 8.722404e-01 9.153975e-01 4.413859e-01 9.506454e-01 1.005249e+00 5.296683e-01 9.023657e-01 1.631082e+00 1.008527e+00 1.268787e+00 4.335555e-01 6.440665e-01 3.895068e-01
<GCONST> 7.625391e+01
<TRANSP> 5
 0.000000e+00 1.000000e+00 0.000000e+00 0.000000e+00 0.000000e+00
 0.000000e+00 9.634859e-01 3.651413e-02 0.000000e+00 0.000000e+00
 0.000000e+00 0.000000e+00 8.282276e-01 1.717724e-01 0.000000e+00
 0.000000e+00 0.000000e+00 0.000000e+00 9.166850e-01 8.331499e-02
 0.000000e+00 0.000000e+00 0.000000e+00 0.000000e+00 0.000000e+00
<ENDHMM>
~h "sh"
<BEGINHMM>
<NUMSTATES> 5
<STATE> 2
<MEAN> 25
 1.883879e+00 1.376095e-01 4.187264e+00 2.834593e+00 4.698526e+00 2.244303e-01 3.590489e-01 1.772784e+00 -8.167535e-01 5.351667e-02 9.717733e-01 3.406043e+00 -9.141546e-01 -1.002272e+00 -6.547743e-01 1.000881e-01 6.249962e-01 8.430290e-01 -1.459018e-02 -1.139732e-01 -9.155265e-01 -2.229578e-02 5.174021e-01 -1.142636e-01 -8.014280e-01
<VARIANCE> 25
 1.451282e+01 1.101257e+01 1.114828e+01 1.064226e+01 1.629430e+01 1.781708e+01 1.321812e+01 2.157120e+01 2.241085e+01 1.151472e+01 1.041885e+01 1.052165e+01 1.120164e+00 5.022457e-01 1.243511e+00 1.293382e+00 1.399586e+00 1.509864e+00 1.578999e+00 2.130677e+00 1.435539e+00 1.229941e+00 1.019999e+00 1.012157e+00 1.815884e-01
<GCONST> 7.812706e+01
<STATE> 3
<MEAN> 25
 -2.052676e+00 -2.813858e+00 -8.353597e-02 3.169653e+00 4.218667e+00 2.850079e+00 -4.715575e-01 3.124467e+00 -3.279408e+00 4.649218e-01 5.713895e-01 1.918190e+00 -2.239084e-02 1.578964e-02 -3.897126e-02 3.774395e-02 -4.912961e-02 4.201093e-02 -2.554020e-02 5.955849e-02 -1.990588e-03 1.267480e-02 -3.163508e-02 -1.684557e-02 -9.403365e-02
<VARIANCE> 25
 2.230379e+00 3.473199e+00 5.600076e+00 8.801701e+00 9.623604e+00 1.421154e+01 1.268764e+01 1.413081e+01 1.439160e+01 1.232959e+01 1.082049e+01 1.075716e+01 1.221561e-01 2.223930e-01 3.762498e-01 6.010199e-01 7.408325e-01 1.137658e+00 1.116917e+00 1.322636e+00 1.353474e+00 1.308716e+00 9.825183e-01 1.100513e+00 3.599210e-02
<GCONST> 6.438701e+01
<STATE> 4
<MEAN> 25
 -1.977971e+00 -1.455135e+00 -2.528661e-01 4.344676e+00 2.898180e+00 3.833126e+00 -6.906005e-01 4.230349e+00 -2.814398e+00 8.171366e-01 1.613516e-01 1.385301e+00 -2.881797e-01 9.292924e-02 -4.929643e-02 -4.536040e-01 7.962535e-01 -1.039222e+00 3.112684e-01 -8.220672e-01 4.092398e-01 1.545695e-01 -5.500470e-01 -4.250898e-01 2.587611e-01
<VARIANCE> 25
 1.480742e+00 2.362543e+00 4.734459e+00 1.079275e+01 1.391425e+01 2.027452e+01 1.800480e+01 1.761482e+01 1.114490e+01 7.657546e+00 8.153870e+00 7.206373e+00 3.408094e-01 7.210019e-01 8.848239e-01 1.519446e+00 1.440564e+00 2.726236e+00 1.764185e+00 3.325075e+00 2.623200e+00 3.158399e+00 8.901662e-01 1.656602e+00 2.185843e-01
<GCONST> 7.406660e+01
<TRANSP> 5
 0.000000e+00 1.000000e+00 0.000000e+00 0.000000e+00 0.000000e+00
 0.000000e+00 7.668899e-01 2.331101e-01 0.000000e+00 0.000000e+00
 0.000000e+00 0.000000e+00 9.825382e-01 1.746176e-02 0.000000e+00
 0.000000e+00 0.000000e+00 0.000000e+00 5.661493e-02 9.433850e-01
 0.000000e+00 0.000000e+00 0.000000e+00 0.000000e+00 0.000000e+00
<ENDHMM>
~h "sp"
<BEGINHMM>
<NUMSTATES> 3
<STATE> 2
~s "silst"
<TRANSP> 3
 0.000000e+00 7.000000e-01 3.000000e-01
 0.000000e+00 9.000000e-01 9.999999e-02
 0.000000e+00 0.000000e+00 0.000000e+00
<ENDHMM>
~h "th"
<BEGINHMM>
<NUMSTATES> 5
<STATE> 2
<MEAN> 25
 -9.906001e+00 3.710704e+00 -2.732005e-01 2.635731e+00 2.624316e+00 5.910811e-01 4.466693e-01 -2.623217e-01 3.160925e+00 -4.612166e-01 -5.876539e-01 1.640370e+00 2.331088e-01 -6.821193e-01 1.164250e-01 3.448434e-01 2.857464e-01 1.766964e-01 -3.299942e-02 3.204388e-01 -2.071229e-01 -8.555587e-02 1.024781e-01 1.364160e-01 -6.878675e-01
<VARIANCE> 25
 4.742513e+01 1.250798e+01 1.546321e+01 1.532281e+01 2.259219e+01 1.528859e+01 1.708694e+01 2.132130e+01 3.208141e+01 1.932457e+01 1.715541e+01 1.061104e+01 1.854477e+00 7.112744e-01 9.363772e-01 9.061809e-01 1.255595e+00 2.176521e+00 1.422982e+00 1.566603e+00 1.778067e+00 1.276402e+00 1.177496e+00 9.394839e-01 2.753886e-01
<GCONST> 8.272746e+01
<STATE> 3
<MEAN> 25
 -3.565599e+00 -2.527578e+00 6.570966e-01 3.263944e+00 3.659415e+00 1.099258e+00 1.241709e+00 2.824326e+00 -1.265895e+00 -1.024953e+00 1.496788e-01 1.430579e+00 1.607662e-01 -6.737343e-01 2.589616e-01 2.133610e-01 4.713329e-01 7.342054e-01 4.423891e-01 6.176789e-01 -1.188218e-01 6.864288e-01 4.189052e-01 -2.464019e-01 -4.337649e-01
<VARIANCE> 25
 3.691401e+01 1.480179e+01 1.646897e+01 1.115148e+01 2.196764e+01 1.006662e+01 1.427004e+01 1.508038e+01 2.924773e+01 1.574841e+01 1.491041e+01 1.002993e+01 8.089058e-01 4.516197e-01 7.263194e-01 7.021078e-01 1.712560e+00 1.680806e+00 1.800676e+00 1.866948e+00 2.712813e+00 1.954252e+00 1.011652e+00 1.380187e+00 1.704954e-01
<GCONST> 8.019589e+01
<STATE> 4
<MEAN> 25
 -1.097290e+00 -3.740741e+00 1.696661e+00 4.287126e+00 4.500520e+00 3.239138e+00 6.989305e-01 3.146193e+00 -2.473035e+00 2.093111e+00 1.509569e+00 1.733601e+00 -2.657593e-02 2.021407e-02 -2.732279e-02 5.901949e-02 -6.224985e-02 2.043516e-02 -1.746760e-02 4.286451e-02 1.818940e-02 3.164949e-02 -3.188134e-03 -2.903544e-02 -8.734701e-02
<VARIANCE> 25
 6.845553e+00 4.168863e+00 5.706940e+00 6.405875e+00 1.223852e+01 1.310415e+01 1.223322e+01 1.250080e+01 1.484217e+01 1.348694e+01 1.179585e+01 1.144392e+01 1.418706e-01 2.188362e-01 4.068183e-01 4.950524e-01 8.936866e-01 9.739767e-01 1.098241e+00 1.361559e+00 1.207276e+00 1.285116e+00 1.280662e+00 1.185121e+00 4.699217e-02
<GCONST> 6.619641e+01
<TRANSP> 5
 0.000000e+00 1.000000e+00 0.000000e+00 0.000000e+00 0.000000e+00
 0.000000e+00 8.508088e-01 1.491912e-01 0.000000e+00 0.000000e+00
 0.000000e+00 0.000000e+00 4.408973e-01 5.591028e-01 0.000000e+00
 0.000000e+00 0.000000e+00 0.000000e+00 9.591920e-01 4.080804e-02
 0.000000e+00 0.000000e+00 0.000000e+00 0.000000e+00 0.000000e+00
<ENDHMM>
~h "uh"
<BEGINHMM>
<NUMSTATES> 5
<STATE> 2
<MEAN> 25
 3.301121e+00 -2.220075e-01 5.388392e+00 9.669748e+00 1.062831e+01 3.941857e+00 2.196223e+00 7.404651e+00 1.825466e+00 -1.885312e+00 2.857430e-01 4.044545e+00 1.521733e-01 2.890927e-01 7.636878e-02 -1.344220e-02 -4.181193e-01 1.128355e-01 2.761237e-01 -8.224317e-02 -6.894039e-02 -1.762025e-01 -8.132449e-02 -3.886446e-04 1.554617e-01
<VARIANCE> 25
 1.552230e+01 3.440772e+00 2.572403e+01 3.335603e+01 3.141404e+01 2.273506e+01 1.796349e+01 1.507983e+01 1.597561e+01 1.545023e+01 1.054449e+01 1.383037e+01 4.184613e-01 1.448653e+00 1.103234e+00 4.483205e-01 9.256868e-01 2.233211e+00 2.264753e+00 2.626053e+00 2.377410e+00 2.897004e+00 1.252883e+00 1.859596e+00 1.104705e+00
<GCONST> 8.352331e+01
<STATE> 3
<MEAN> 25
 2.391176e+00 8.341042e+00 -5.529200e+00 -4.197260e+00 -4.310946e+00 4.803340e+00 -2.318065e+00 -7.505138e+00 4.824532e+00 -8.889576e+00 -1.250554e+00 2.468341e+00 2.392149e+00 2.348911e+00 -1.734088e+00 -3.577803e+00 -3.968520e+00 1.827669e+00 -1.467584e+00 -5.276768e+00 9.112022e-01 -3.229924e+00 -1.212684e+00 1.044646e+00 5.038596e+00
<VARIANCE> 25
 4.852916e+01 4.612167e+01 1.081821e+02 1.360681e+02 7.859410e+01 1.318070e+02 2.331102e+01 1.209109e+02 2.800409e+01 6.455138e+01 2.111358e+01 2.100000e+01 4.109573e+00 4.082386e+00 1.304467e+01 1.719897e+01 7.071392e+00 8.897818e+00 2.984255e+00 9.705757e+00 6.250150e+00 5.525158e+00 2.278454e+00 3.758870e+00 8.063990e+00
<GCONST> 1.175593e+02
<STATE> 4
<MEAN> 25
 6.139132e+00 7.523326e+00 -4.928411e+00 -1.085776e+01 -1.302108e+01 4.961258e+00 -1.051478e+01 -1.292852e+01 2.054421e+00 -1.127754e+01 -4.080433e-01 5.677966e+00 -8.240508e-02 -6.056222e-01 2.750708e-01 4.543056e-01 4.544705e-01 -4.725132e-01 -2.819735e-01 7.378643e-01 -2.024940e-01 5.899111e-01 1.056550e-01 -3.495750e-02 -2.761786e-01
<VARIANCE> 25
 2.731266e+01 4.602683e+01 5.396761e+01 1.609137e+02 6.439706e+01 1.191359e+02 5.207970e+01 6.511652e+01 3.943876e+01 6.719878e+01 2.739426e+01 4.011479e+01 2.313130e+00 1.814351e+00 2.375263e+00 4.867511e+00 4.313530e+00 5.977804e+00 4.590359e+00 3.876517e+00 2.968743e+00 3.690656e+00 2.215384e+00 2.764813e+00 2.422009e+00
<GCONST> 1.092132e+02
<TRANSP> 5
 0.000000e+00 1.000000e+00 0.000000e+00 0.000000e+00 0.000000e+00
 0.000000e+00 8.465184e-01 1.534816e-01 0.000000e+00 0.000000e+00
 0.000000e+00 0.000000e+00 6.502939e-01 3.497061e-01 0.000000e+00
 0.000000e+00 0.000000e+00 0.000000e+00 9.391738e-01 6.082622e-02
 0.000000e+00 0.000000e+00 0.000000e+00 0.000000e+00 0.000000e+00
<ENDHMM>
~h "uw"
<BEGINHMM>
<NUMSTATES> 5
<STATE> 2
<MEAN> 25
 -5.541460e+00 3.739776e+00 2.779141e+00 2.546093e+00 -5.942117e+00 -2.687355e+00 -6.247726e+00 -4.455210e+00 3.569689e+00 -3.954479e+00 -2.992233e-01 -1.886561e+00 1.103959e+00 4.975178e-01 -1.194100e-01 -2.444852e-01 -3.913826e-01 3.716793e-01 -7.048236e-01 -1.001577e+00 3.749812e-01 -2.893868e-01 1.218315e-01 -4.539839e-01 1.511447e+00
<VARIANCE> 25
 1.117060e+02 5.663150e+01 6.233743e+01 6.380811e+01 9.230637e+01 8.986471e+01 8.236053e+01 6.377745e+01 4.837741e+01 8.349976e+01 4.010302e+01 4.130908e+01 8.019216e+00 4.620712e+00 3.934785e+00 4.719630e+00 5.338952e+00 7.621355e+00 6.600043e+00 5.562335e+00 5.756876e+00 8.301101e+00 3.520556e+00 4.232491e+00 5.603173e+00
<GCONST> 1.184287e+02
<STATE> 3
<MEAN> 25
 8.859037e+00 2.709500e+00 -1.742388e+00 -9.447448e-01 -7.806908e+00 -8.838935e-01 -9.598640e+00 -7.671515e+00 4.837742e+00 2.928624e-01 1.874010e+00 -4.716486e+00 4.171641e-01 -7.852672e-02 -8.825733e-02 -4.695862e-01 5.195823e-02 -6.603105e-02 2.916570e-01 1.234803e-01 -9.713576e-02 4.298078e-01 1.470737e-01 2.047172e-01 -3.162390e-01
<VARIANCE> 25
 3.904499e+01 6.559857e+01 5.570680e+01 6.141775e+01 7.557634e+01 1.254705e+02 5.764571e+01 7.458234e+01 4.783668e+01 6.587975e+01 4.548088e+01 5.521386e+01 2.868962e+00 3.273257e+00 3.407984e+00 3.438208e+00 4.318399e+00 6.399986e+00 3.436667e+00 4.309104e+00 3.797447e+00 5.079149e+00 3.426802e+00 4.580878e+00 2.291608e+00
<GCONST> 1.125980e+02
<STATE> 4
<MEAN> 25
 1.030295e+01 8.780034e+00 1.242626e-01 -8.284292e+00 -8.500503e+00 -1.011972e+00 -2.399327e+00 -7.038283e+00 -1.862707e-01 -3.919021e+00 1.742965e+00 1.912684e-01 -2.813989e-01 -3.198615e-01 2.142463e-01 3.160027e-01 4.604110e-01 -5.565160e-01 1.292873e-01 4.096312e-01 -1.412693e-01 2.352606e-01 -4.938515e-02 3.427957e-01 -9.319046e-01
<VARIANCE> 25
 4.174033e+01 4.637629e+01 2.702350e+01 7.015061e+01 4.719367e+01 9.067355e+01 4.314670e+01 4.908218e+01 5.797543e+01 1.167551e+02 2.671521e+01 2.994606e+01 1.960325e+00 1.222610e+00 1.414877e+00 2.649756e+00 2.081402e+00 2.780540e+00 2.220418e+00 3.116057e+00 2.566900e+00 3.497385e+00 1.992379e+00 1.825389e+00 7.445652e-01
<GCONST> 1.016633e+02
<TRANSP> 5
 0.000000e+00 1.000000e+00 0.000000e+00 0.000000e+00 0.000000e+00
 0.000000e+00 8.750635e-01 1.249365e-01 0.000000e+00 0.000000e+00
 0.000000e+00 0.000000e+00 9.044700e-01 9.552995e-02 0.000000e+00
 0.000000e+00 0.000000e+00 0.000000e+00 8.863144e-01 1.136856e-01
 0.000000e+00 0.000000e+00 0.000000e+00 0.000000e+00 0.000000e+00
<ENDHMM>
~h "zh"
<BEGINHMM>
<NUMSTATES> 5
<STATE> 2
<MEAN> 25
 -3.291832e+00 4.663202e+00 3.870142e+00 8.901744e-01 -1.369771e+01 -8.420195e+00 -5.723080e+00 -4.074331e+00 5.559006e+00 -5.558910e+00 8.935243e-02 1.937449e+00 2.957057e-01 -2.169440e-01 -6.308348e-01 6.827750e-02 -1.646847e-01 -1.126836e-01 -5.671305e-01 7.555117e-02 2.413644e-01 -1.154497e-02 -3.579777e-01 -2.671969e-01 -5.253897e-01
<VARIANCE> 25
 9.820600e+01 4.541301e+01 3.906592e+01 1.885987e+01 2.078250e+01 4.788419e+01 4.399456e+01 2.159713e+01 1.777076e+01 1.941711e+01 3.246557e+01 1.646968e+01 5.874851e+00 3.567744e+00 2.042512e+00 1.268059e+00 1.837837e+00 3.400314e+00 2.050027e+00 1.707783e+00 1.479370e+00 2.784327e+00 1.685167e+00 1.679963e+00 4.754629e-01
<GCONST> 9.562959e+01
<STATE> 3
<MEAN> 25
 5.383716e+00 -3.285064e-01 -1.157005e+00 9.156784e-01 -6.565979e+00 -4.002137e+00 -1.700633e+00 1.867264e+00 6.261161e+00 1.911862e+00 -3.830169e+00 -3.058098e+00 -1.435463e-01 6.252550e-02 1.760811e-01 -7.816358e-02 1.168406e+00 7.287400e-01 7.981579e-01 2.026567e-01 -3.979486e-01 2.698581e-01 8.697673e-02 2.343943e-01 -1.312293e+00
<VARIANCE> 25
 1.383781e+02 1.543654e+01 4.363234e+01 1.405467e+01 7.351270e+01 7.449872e+01 6.377948e+01 3.656690e+01 2.887558e+01 2.542959e+01 1.891455e+01 2.259484e+01 1.512039e+00 9.827309e-01 1.035286e+00 1.192427e+00 2.875802e+00 1.971615e+00 3.111619e+00 1.705224e+00 3.029531e+00 1.508821e+00 1.434598e+00 1.504124e+00 2.058430e-01
<GCONST> 9.377071e+01
<STATE> 4
<MEAN> 25
 -1.311131e+00 -2.125217e+00 -1.800470e+00 1.222508e+00 6.795971e+00 3.631955e+00 1.547081e+00 1.942534e+00 -2.426045e+00 6.301531e-01 1.040031e+00 1.201033e+00 -1.046576e-01 -1.785292e-02 -6.608540e-02 3.714812e-02 5.914095e-02 8.805335e-02 -5.243378e-02 -3.627604e-04 -1.129078e-01 -2.120566e-04 5.777264e-02 4.454007e-02 -1.518169e-01
<VARIANCE> 25
 4.528676e+00 8.063588e+00 1.493880e+01 9.660467e+00 1.255263e+01 1.214447e+01 1.188900e+01 1.550420e+01 1.809385e+01 1.586691e+01 1.172170e+01 1.086469e+01 2.032492e-01 2.800083e-01 5.122060e-01 6.816269e-01 9.780338e-01 1.138222e+00 1.231701e+00 1.362794e+00 1.924532e+00 1.434677e+00 1.308693e+00 1.242352e+00 7.986481e-02
<GCONST> 7.094789e+01
<TRANSP> 5
 0.000000e+00 1.000000e+00 0.000000e+00 0.000000e+00 0.000000e+00
 0.000000e+00 9.346812e-01 6.531888e-02 0.000000e+00 0.000000e+00
