~o
<STREAMINFO> 1 25
<VECSIZE> 25<NULLD><MFCC_D_N_Z_0><DIAGC>
~s "silst"
<MEAN> 25
 -1.682276e+00 -3.580217e+00 3.080251e-01 4.359747e+00 3.348075e+00 2.720428e+00 -5.232111e-01 3.124770e+00 -2.893516e+00 1.005612e+00 5.973120e-01 1.640864e+00 -1.673161e-02 5.243993e-03 -1.524676e-02 5.025433e-02 -1.533204e-02 6.863873e-02 -4.169847e-02 4.347113e-02 -2.953195e-02 8.548863e-03 -1.564562e-02 -1.982867e-03 -8.317745e-02
<VARIANCE> 25
 2.796778e+00 5.562046e+00 7.913933e+00 1.005289e+01 1.081087e+01 1.398495e+01 1.470867e+01 1.589495e+01 1.509205e+01 1.464018e+01 1.236526e+01 1.153258e+01 1.239243e-01 2.497331e-01 4.086202e-01 6.163383e-01 7.980331e-01 1.044702e+00 1.234751e+00 1.382535e+00 1.377486e+00 1.297783e+00 1.236971e+00 1.127255e+00 4.695211e-02
<GCONST> 6.725212e+01
~h "b"
<BEGINHMM>
<NUMSTATES> 5
<STATE> 2
<MEAN> 25
 -1.476222e+00 -2.511868e+00 4.886943e+00 5.355440e-01 2.366580e+00 3.094730e+00 -3.913941e+00 2.984972e+00 -7.335486e-01 -1.243979e+00 2.907398e+00 -4.831703e-01 -3.849849e-02 -2.522477e-02 4.927529e-02 -1.813063e-02 1.678109e-02 1.353177e-01 -1.088083e-01 3.612603e-02 9.427707e-02 3.147979e-02 -9.553156e-02 6.452017e-03 -2.799468e-02
<VARIANCE> 25
 2.523508e+01 2.472120e+01 2.454020e+01 3.265959e+01 2.976612e+01 2.595154e+01 2.358349e+01 3.203218e+01 2.520691e+01 2.887972e+01 3.059907e+01 2.000559e+01 2.461430e-01 5.954899e-01 7.211620e-01 1.037105e+00 1.358508e+00 1.355937e+00 2.187629e+00 2.012544e+00 2.092996e+00 1.766234e+00 1.827044e+00 1.597966e+00 2.098758e-01
<GCONST> 8.605347e+01
<STATE> 3
<MEAN> 25
 1.613755e+00 -4.756805e-02 2.243721e+00 4.892610e+00 3.150018e+00 3.660252e+00 -1.308707e+00 2.111434e+00 -1.238659e+00 6.309383e-01 -1.006548e+00 4.772316e-01 -3.737897e-01 7.609885e-01 3.201963e-01 -5.638847e-01 -1.268126e+00 -6.409554e-01 -5.172857e-01 -1.117206e+00 6.826994e-01 -7.233465e-01 -9.921631e-01 -7.484510e-01 2.980114e+00
<VARIANCE> 25
 2.514521e+01 2.375876e+01 3.196426e+01 3.068283e+01 2.678562e+01 2.871970e+01 2.044386e+01 2.800867e+01 2.748616e+01 1.526501e+01 1.500247e+01 1.499200e+01 4.547960e+00 4.249445e+00 7.106356e+00 5.447158e+00 4.793791e+00 5.898260e+00 3.678755e+00 5.281610e+00 4.517219e+00 3.399633e+00 3.653403e+00 3.371329e+00 8.104568e+00
<GCONST> 1.039398e+02
<STATE> 4
<MEAN> 25
 2.328731e+00 3.562196e+00 5.675781e+00 2.497516e+00 -5.227812e+00 -4.396593e+00 -3.806856e+00 -1.340706e+00 -9.374982e-01 -2.373272e+00 -2.774003e+00 -2.810840e+00 2.213180e-01 -1.466538e-01 -4.666626e-01 -9.437112e-01 -7.167177e-01 -4.230981e-01 -8.837218e-03 -2.025904e-01 7.658277e-01 -2.131596e-01 1.171070e-01 -3.889109e-01 2.010651e+00
<VARIANCE> 25
 6.886567e+01 4.624899e+01 7.880895e+01 6.526921e+01 7.134126e+01 7.541260e+01 4.870541e+01 5.190007e+01 8.054928e+01 4.195988e+01 3.110073e+01 3.543287e+01 3.235252e+00 3.976302e+00 5.373801e+00 6.042974e+00 6.455419e+00 8.829669e+00 4.201871e+00 5.593029e+00 7.707007e+00 4.332987e+00 3.714511e+00 4.891453e+00 1.322414e+01
<GCONST> 1.163398e+02
<TRANSP> 5
 0.000000e+00 1.000000e+00 0.000000e+00 0.000000e+00 0.000000e+00
 0.000000e+00 7.315590e-01 2.684410e-01 0.000000e+00 0.000000e+00
 0.000000e+00 0.000000e+00 4.119526e-01 5.880474e-01 0.000000e+00
 0.000000e+00 0.000000e+00 0.000000e+00 7.582394e-01 2.417607e-01
 0.000000e+00 0.000000e+00 0.000000e+00 0.000000e+00 0.000000e+00
<ENDHMM>
~h "d"
<BEGINHMM>
<NUMSTATES> 5
<STATE> 2
<MEAN> 25
 -7.693708e-02 -1.915545e+00 -1.257476e+00 -1.016611e+00 6.275331e-01 -3.473460e-01 1.254010e+00 2.528832e+00 9.048267e-01 1.137125e+00 1.007236e+00 -5.636041e-01 -3.588082e-01 -2.967293e-01 3.522952e-01 5.790107e-01 9.925752e-01 3.865117e-01 -6.661654e-02 -7.073276e-02 6.213707e-02 -1.920686e-02 1.339001e-01 2.051902e-01 -5.502521e-01
<VARIANCE> 25
 1.746891e+01 1.313458e+01 2.413216e+01 3.396544e+01 3.231725e+01 4.579108e+01 1.826753e+01 2.478163e+01 1.990162e+01 1.988190e+01 2.255306e+01 2.618536e+01 1.068188e+00 1.127206e+00 1.246218e+00 2.124824e+00 1.844529e+00 3.162969e+00 1.885332e+00 3.002705e+00 2.253649e+00 2.063479e+00 1.577693e+00 2.074768e+00 5.194045e-01
<GCONST> 9.059264e+01
<STATE> 3
<MEAN> 25
 -5.589387e-01 -2.464613e+00 2.535233e-01 3.154283e+00 3.664297e+00 6.503564e-01 -6.595940e-01 1.244454e+00 -1.583514e+00 6.809515e-02 1.245888e+00 -8.730799e-01 5.876461e-02 -2.143523e-02 1.739881e-01 1.252245e-01 -2.231016e-02 2.411483e-01 -2.624705e-01 -2.296171e-02 -4.060262e-01 -1.414966e-01 1.376875e-01 1.144297e-01 -2.406267e-01
<VARIANCE> 25
 1.220070e+01 1.441761e+01 2.102287e+01 1.834853e+01 1.927592e+01 5.131200e+01 3.904973e+01 2.229737e+01 2.068545e+01 2.210278e+01 2.227455e+01 1.924588e+01 3.986856e-01 8.549032e-01 1.114777e+00 1.310651e+00 1.417886e+00 1.719098e+00 1.794428e+00 2.295746e+00 2.155854e+00 2.120249e+00 2.056757e+00 1.726863e+00 1.909856e-01
<GCONST> 8.566514e+01
<STATE> 4
<MEAN> 25
 -1.524982e+00 -3.765280e+00 -2.547007e-01 3.748811e+00 2.842475e+00 2.695090e+00 -1.123176e+00 2.912385e+00 -3.233053e+00 1.282723e+00 9.866979e-01 1.020834e+00 -1.758005e-02 2.073982e-02 -1.586422e-02 3.924274e-02 -2.403217e-02 5.008681e-02 -4.957680e-02 1.208624e-02 -6.072838e-02 -6.264762e-03 -3.650955e-02 1.372603e-02 -8.011258e-02
<VARIANCE> 25
 3.552650e+00 5.444107e+00 6.607905e+00 7.433648e+00 1.024104e+01 1.678562e+01 1.403383e+01 1.347911e+01 1.559700e+01 1.236956e+01 1.054222e+01 1.199115e+01 1.080489e-01 2.388416e-01 3.899305e-01 5.703405e-01 6.910840e-01 9.722751e-01 1.170293e+00 1.150490e+00 1.478854e+00 1.240324e+00 1.164984e+00 1.241636e+00 4.328362e-02
<GCONST> 6.587004e+01
<TRANSP> 5
 0.000000e+00 1.000000e+00 0.000000e+00 0.000000e+00 0.000000e+00
 0.000000e+00 5.747264e-01 4.252736e-01 0.000000e+00 0.000000e+00
 0.000000e+00 0.000000e+00 6.564568e-01 3.435432e-01 0.000000e+00
 0.000000e+00 0.000000e+00 0.000000e+00 9.521613e-01 4.783868e-02
 0.000000e+00 0.000000e+00 0.000000e+00 0.000000e+00 0.000000e+00
<ENDHMM>
~h "f"
<BEGINHMM>
<NUMSTATES> 5
<STATE> 2
<MEAN> 25
 -1.349825e+00 -4.783217e+00 1.055745e+00 4.905256e+00 4.062809e+00 9.986801e-01 -4.353285e-03 4.199851e+00 -2.533648e+00 2.814354e+00 -2.566959e-01 3.258513e-01 -6.012107e-02 -3.438478e-02 -3.494256e-02 6.724378e-02 4.953933e-03 7.597208e-02 -1.754850e-02 -3.054314e-03 -5.959169e-03 -1.820659e-02 -3.306536e-02 -1.482871e-02 -1.022433e-01
<VARIANCE> 25
 3.151000e+00 5.302204e+00 4.625544e+00 9.491359e+00 8.856820e+00 9.750010e+00 1.110388e+01 1.433996e+01 1.515322e+01 1.145849e+01 1.242044e+01 1.159934e+01 1.455493e-01 2.811058e-01 4.115338e-01 6.415859e-01 9.227759e-01 9.766625e-01 1.206956e+00 1.340402e+00 1.524165e+00 1.185756e+00 1.210864e+00 1.226961e+00 5.572270e-02
<GCONST> 6.615027e+01
<STATE> 3
<MEAN> 25
 -1.384947e+01 3.970877e+00 -7.492080e-01 5.837291e+00 1.665090e+00 1.780640e+00 -5.986973e-02 9.146311e-01 3.802276e+00 3.914637e-01 -5.539879e-01 1.251016e+00 -8.800282e-01 4.472616e-01 8.597808e-02 -2.268570e-02 -1.094843e-01 -3.269380e-02 6.699958e-02 -1.578671e-01 3.044957e-01 -1.743074e-01 -2.103317e-01 4.555823e-02 9.661477e-01
<VARIANCE> 25
 5.034629e+01 2.697005e+01 2.218643e+01 2.283753e+01 1.048087e+01 1.624296e+01 1.507348e+01 2.114974e+01 2.483533e+01 1.454916e+01 1.982786e+01 1.480508e+01 1.673003e+00 1.983296e+00 1.530691e+00 1.894332e+00 9.332676e-01 1.467271e+00 1.688617e+00 1.630679e+00 2.257387e+00 1.885730e+00 2.109499e+00 1.301771e+00 1.355781e+00
<GCONST> 8.821640e+01
<STATE> 4
<MEAN> 25
 -3.515396e+00 2.190311e+00 -2.776250e+00 -3.767416e+00 -6.464087e+00 2.207575e+00 5.268941e+00 -3.376112e+00 1.517729e+00 -8.619266e-01 -2.787876e+00 1.543411e+00 2.623765e+00 3.337008e-01 -5.934832e-01 -2.407536e+00 -1.246620e+00 9.744969e-01 -2.654807e-02 -5.480797e-01 -2.891350e-01 -1.703621e+00 -8.864112e-01 1.768402e-01 1.087682e+00
<VARIANCE> 25
 2.350116e+02 3.788309e+01 2.914862e+01 1.151625e+02 1.029137e+02 2.404151e+01 7.093916e+01 6.819157e+01 3.222164e+01 3.439994e+01 2.810576e+01 1.559461e+01 1.572263e+01 2.905814e+00 2.330342e+00 1.166457e+01 5.904590e+00 4.325396e+00 3.926826e+00 5.458300e+00 3.401454e+00 6.489203e+00 4.477707e+00 2.000626e+00 2.161478e+00
<GCONST> 1.120385e+02
<TRANSP> 5
 0.000000e+00 1.000000e+00 0.000000e+00 0.000000e+00 0.000000e+00
 0.000000e+00 9.537857e-01 4.621435e-02 0.000000e+00 0.000000e+00
 0.000000e+00 0.000000e+00 9.175754e-01 8.242469e-02 0.000000e+00
 0.000000e+00 0.000000e+00 0.000000e+00 6.153579e-01 3.846421e-01
 0.000000e+00 0.000000e+00 0.000000e+00 0.000000e+00 0.000000e+00
<ENDHMM>
~h "g"
<BEGINHMM>
<NUMSTATES> 5
<STATE> 2
<MEAN> 25
 -8.205086e-01 -3.884463e+00 -8.910393e-01 2.790244e+00 3.961216e+00 4.757675e+00 -2.023931e+00 1.944731e+00 -2.194088e+00 4.978821e-01 1.844304e+00 7.583585e-01 -4.959584e-03 -3.901075e-03 -3.014610e-03 4.878033e-02 -2.221363e-02 4.011419e-02 -1.539730e-02 5.481351e-02 -5.055876e-02 4.520017e-02 -4.341070e-02 1.337685e-02 -9.184515e-02
<VARIANCE> 25
 2.942032e+00 3.605106e+00 4.719532e+00 8.340757e+00 8.185166e+00 1.119923e+01 1.162559e+01 1.353089e+01 1.282743e+01 1.200935e+01 1.151916e+01 1.153021e+01 1.313726e-01 2.483130e-01 3.768065e-01 6.279352e-01 8.514981e-01 1.105620e+00 1.026869e+00 1.207999e+00 1.392442e+00 1.427510e+00 1.155941e+00 1.294254e+00 5.578082e-02
<GCONST> 6.497837e+01
<STATE> 3
<MEAN> 25
 -3.744810e-01 -2.947711e+00 -2.019285e+00 3.008702e+00 2.612258e+00 4.081389e+00 -7.961171e-01 2.756311e+00 -1.360986e+00 1.910639e+00 1.005373e+00 1.193986e+00 -6.619132e-01 -2.872173e-01 3.071238e-01 -1.566773e+00 -1.693330e+00 -2.578047e+00 1.636017e+00 -1.574411e+00 4.172296e-01 -1.587563e+00 -2.050449e+00 -3.534036e-01 4.506224e+00
<VARIANCE> 25
 8.494706e+00 4.812333e+00 5.763402e+00 1.729076e+01 9.840319e+00 3.359988e+01 2.258960e+01 1.978970e+01 8.424785e+00 1.148465e+01 2.202461e+01 1.445545e+01 3.221009e+00 4.034995e+00 3.724310e+00 9.633831e+00 7.134919e+00 9.960425e+00 9.606926e+00 4.686733e+00 2.728329e+00 6.258943e+00 3.691919e+00 3.861178e+00 8.948753e+00
<GCONST> 9.840039e+01
<STATE> 4
<MEAN> 25
 8.013204e-01 -1.311227e+00 2.856027e+00 -7.050982e+00 -5.710863e+00 -8.815718e+00 7.979969e+00 -1.602768e+00 1.198125e+00 -9.130449e-01 -5.465052e+00 -1.346454e+00 2.588138e-01 2.745039e-01 4.742479e-01 -3.606385e-01 -6.647567e-01 -6.324831e-01 6.399923e-02 -5.935676e-02 -3.051426e-03 8.747374e-02 2.046313e-01 -9.671401e-02 1.421731e+00
<VARIANCE> 25
 3.348092e+01 4.199878e+01 7.445097e+01 5.229726e+01 7.972178e+01 5.979166e+01 1.484900e+02 5.268538e+01 4.594587e+01 6.953848e+01 2.940878e+01 2.607918e+01 2.596978e+00 1.664471e+00 4.988485e+00 4.267481e+00 4.592460e+00 4.886753e+00 6.065117e+00 4.007198e+00 3.896110e+00 4.242210e+00 2.574241e+00 2.578406e+00 1.281231e+01
<GCONST> 1.116805e+02
<TRANSP> 5
 0.000000e+00 1.000000e+00 0.000000e+00 0.000000e+00 0.000000e+00
 0.000000e+00 9.781858e-01 2.181428e-02 0.000000e+00 0.000000e+00
 0.000000e+00 0.000000e+00 5.260065e-01 4.739935e-01 0.000000e+00
 0.000000e+00 0.000000e+00 0.000000e+00 9.159850e-01 8.401501e-02
 0.000000e+00 0.000000e+00 0.000000e+00 0.000000e+00 0.000000e+00
<ENDHMM>
~h "k"
<BEGINHMM>
<NUMSTATES> 5
<STATE> 2
<MEAN> 25
 -1.623363e+00 -2.373043e+00 1.000933e+00 1.512799e+00 -1.631559e+00 -2.230803e+00 3.437876e-01 2.998917e+00 -2.010649e+00 1.838183e+00 4.106801e-01 5.010448e-01 -1.018378e+00 -7.051771e-01 -1.346086e+00 3.927003e-02 -1.405849e-01 2.326845e-01 -2.480614e-01 6.555950e-01 8.222817e-01 -3.827032e-01 5.305371e-02 -5.408831e-01 1.788949e+00
<VARIANCE> 25
 3.463672e+01 1.422134e+01 3.214827e+01 3.594861e+01 4.426010e+01 5.831054e+01 5.508554e+01 3.426808e+01 2.273892e+01 2.324504e+01 1.743847e+01 1.808580e+01 5.005212e+00 3.009353e+00 8.524129e+00 4.753179e+00 5.245882e+00 5.843028e+00 6.789158e+00 4.498841e+00 4.501999e+00 3.640461e+00 3.000237e+00 3.316832e+00 5.814710e+00
<GCONST> 1.067325e+02
<STATE> 3
<MEAN> 25
 -4.105386e+00 -4.938158e+00 -7.272419e+00 5.670626e-02 -1.095426e+00 -9.474087e-01 -6.055630e+00 4.195795e+00 4.023863e+00 -7.418427e-01 -1.239171e-01 -1.629843e+00 -9.383488e-01 -3.634027e-02 -1.616322e+00 -1.079709e+00 -6.349276e-01 -2.284631e-01 -1.118921e+00 -7.228968e-01 1.650549e+00 4.883295e-02 -1.816922e-02 7.778063e-02 3.832463e+00
<VARIANCE> 25
 3.896104e+01 3.771399e+01 7.937144e+01 4.972787e+01 9.435838e+01 1.125253e+02 9.667503e+01 6.833559e+01 5.894967e+01 4.713950e+01 2.388321e+01 3.189988e+01 6.586306e+00 4.347450e+00 1.321143e+01 8.904374e+00 8.897828e+00 1.279411e+01 1.160524e+01 7.973787e+00 5.678627e+00 6.136570e+00 3.678303e+00 5.489909e+00 8.087922e+00
<GCONST> 1.201832e+02
<STATE> 4
<MEAN> 25
 3.796160e-02 1.124088e+00 -4.031309e+00 -5.619583e+00 -3.723179e+00 -2.965321e+00 -1.219045e+00 -3.538132e+00 4.624207e+00 -1.842275e-01 -2.154191e-01 -2.472904e+00 2.623161e-01 4.913566e-01 1.017348e-02 -3.240643e-01 1.213987e-01 1.978185e-01 4.807337e-01 -1.722618e-01 5.608132e-02 -2.376416e-01 4.204518e-02 -1.505808e-02 1.081702e-01
<VARIANCE> 25
 9.275230e+01 4.978215e+01 7.867020e+01 6.814320e+01 5.988257e+01 9.131693e+01 7.253509e+01 5.965967e+01 6.433275e+01 2.347658e+01 3.740636e+01 3.408466e+01 5.883348e+00 2.878016e+00 4.815334e+00 4.220860e+00 3.215885e+00 4.114989e+00 4.096480e+00 4.098261e+00 4.351889e+00 3.095279e+00 3.668072e+00 3.185951e+00 3.036270e+00
<GCONST> 1.118356e+02
<TRANSP> 5
 0.000000e+00 1.000000e+00 0.000000e+00 0.000000e+00 0.000000e+00
 0.000000e+00 4.982499e-01 5.017501e-01 0.000000e+00 0.000000e+00
 0.000000e+00 0.000000e+00 5.380393e-01 4.619607e-01 0.000000e+00
 0.000000e+00 0.000000e+00 0.000000e+00 8.334742e-01 1.665258e-01
 0.000000e+00 0.000000e+00 0.000000e+00 0.000000e+00 0.000000e+00
<ENDHMM>
~h "l"
<BEGINHMM>
<NUMSTATES> 5
<STATE> 2
<MEAN> 25
 6.439952e+00 1.030280e+00 -2.122308e+00 -4.770635e+00 -5.591547e+00 -1.560822e+00 -3.301378e+00 -6.249970e+00 7.230044e+00 -4.647223e-01 -2.222885e+00 -5.629430e+00 1.643375e-01 6.629594e-02 -1.817039e-01 -7.425692e-01 -4.137916e-01 2.873798e-02 -1.777940e-01 -1.256531e-01 1.792800e-01 -1.610173e-01 2.501430e-01 5.364100e-01 3.520921e-01
<VARIANCE> 25
 2.804714e+01 3.336235e+01 6.793674e+01 1.066423e+02 6.014674e+01 7.995991e+01 1.026963e+02 8.760519e+01 6.628003e+01 5.285240e+01 5.491656e+01 4.548733e+01 2.233553e+00 2.040348e+00 3.824527e+00 5.710142e+00 5.418227e+00 7.203788e+00 6.420141e+00 6.512843e+00 4.482358e+00 4.621930e+00 4.636922e+00 4.117391e+00 2.686962e+00
<GCONST> 1.142105e+02
<STATE> 3
<MEAN> 25
 9.652331e+00 4.315435e+00 -3.902660e+00 -1.596252e+01 -7.998055e+00 6.652751e-01 -1.647170e-01 -4.874853e+00 4.562874e+00 -2.640966e+00 -4.430655e-01 3.278818e+00 3.664796e-02 7.993159e-02 3.231725e-01 6.182314e-01 3.557266e-02 -4.135309e-01 3.228511e-01 8.653981e-01 -7.039060e-01 1.162445e-01 2.909468e-01 4.007156e-01 -1.268697e+00
<VARIANCE> 25
 2.848409e+01 2.481212e+01 5.121412e+01 1.049769e+02 4.058807e+01 6.145461e+01 4.744109e+01 6.576797e+01 3.399766e+01 4.449341e+01 2.717319e+01 3.947745e+01 9.032003e-01 1.393820e+00 1.205582e+00 2.959104e+00 2.244004e+00 2.515220e+00 3.256499e+00 3.359309e+00 2.203231e+00 3.013413e+00 2.194347e+00 2.364405e+00 5.332618e-01
<GCONST> 9.980010e+01
<STATE> 4
<MEAN> 25
 3.318720e+00 3.144128e-01 -1.307361e+00 -3.631019e+00 -2.058421e+00 -9.308858e-01 2.563044e+00 2.550290e+00 1.695106e+00 7.716730e-01 2.189692e+00 1.123633e+00 -8.520702e-01 -4.067430e-01 3.330819e-01 9.346691e-01 6.679739e-01 2.600535e-01 -2.960883e-02 8.718714e-02 -1.214064e-01 1.678498e-01 -1.034424e-02 -1.834367e-01 -6.728240e-01
<VARIANCE> 25
 2.988016e+01 2.499934e+01 2.229966e+01 5.223663e+01 4.923959e+01 3.670729e+01 3.271675e+01 3.877306e+01 3.068425e+01 2.493375e+01 2.099726e+01 2.081206e+01 7.484148e-01 1.023411e+00 1.077943e+00 1.709408e+00 1.757430e+00 1.846967e+00 1.820702e+00 2.021007e+00 1.680504e+00 1.736625e+00 1.627370e+00 1.433094e+00 3.131223e-01
<GCONST> 9.056995e+01
<TRANSP> 5
 0.000000e+00 1.000000e+00 0.000000e+00 0.000000e+00 0.000000e+00
 0.000000e+00 7.905604e-01 2.094396e-01 0.000000e+00 0.000000e+00
 0.000000e+00 0.000000e+00 7.512068e-01 2.487932e-01 0.000000e+00
 0.000000e+00 0.000000e+00 0.000000e+00 7.795829e-01 2.204171e-01
 0.000000e+00 0.000000e+00 0.000000e+00 0.000000e+00 0.000000e+00
<ENDHMM>
~h "m"
<BEGINHMM>
<NUMSTATES> 5
<STATE> 2
<MEAN> 25
 5.502848e+00 1.950275e+00 3.751566e-01 4.598634e-01 9.831119e-01 -2.199984e+00 4.831944e-01 -2.633656e+00 2.005658e+00 1.618641e+00 2.297702e+00 -3.645024e+00 9.202826e-01 6.571207e-01 9.440709e-01 6.344606e-01 4.542492e-01 -2.613881e-01 3.206924e-01 -1.423133e+00 -9.677051e-01 4.400416e-02 5.651083e-01 -1.060736e+00 -4.993728e-01
<VARIANCE> 25
 4.261136e+01 2.838401e+01 5.133219e+01 4.529360e+01 2.647927e+01 5.634612e+01 4.614065e+01 6.546203e+01 4.573974e+01 4.065413e+01 2.421061e+01 5.654751e+01 2.854636e+00 3.409978e+00 3.270895e+00 1.636699e+00 3.394897e+00 2.688873e+00 3.883164e+00 5.439260e+00 2.032341e+00 1.910755e+00 3.447126e+00 2.199064e+00 2.249807e+00
<GCONST> 1.042755e+02
<STATE> 3
<MEAN> 25
 1.103737e+01 4.723812e+00 5.177628e+00 3.556655e+00 3.274092e+00 -4.803290e+00 2.582591e+00 -8.168430e+00 -2.078080e+00 8.131654e-01 3.646208e+00 -9.030214e+00 6.117549e-01 7.395380e-01 5.596983e-01 4.831685e-01 -1.377745e-01 8.001839e-02 4.228693e-01 -5.993753e-01 -5.957345e-01 -3.713389e-01 -1.236590e-01 -9.759101e-02 -6.178594e-01
<VARIANCE> 25
 2.766658e+01 1.909118e+01 2.722845e+01 2.233654e+01 1.836975e+01 3.364832e+01 4.462526e+01 4.885233e+01 3.009393e+01 4.615022e+01 2.922745e+01 5.959534e+01 2.954335e+00 2.487174e+00 2.921616e+00 1.351442e+00 2.097880e+00 2.681724e+00 4.534440e+00 5.617732e+00 3.152555e+00 2.481397e+00 2.744362e+00 5.182849e+00 2.918180e+00
<GCONST> 1.015552e+02
<STATE> 4
<MEAN> 25
 5.287783e+00 2.676954e+00 4.563409e+00 2.173381e+00 -4.628144e+00 -5.205623e+00 -1.551976e+00 -3.686659e+00 6.763341e-01 -1.875303e+00 -1.149911e+00 -4.335599e+00 -3.491223e-01 -3.571024e-01 -1.470798e-01 -3.219789e-01 -5.122532e-01 -1.691446e-01 -2.378285e-01 6.004478e-01 4.615936e-01 -1.909503e-01 -1.506304e-01 2.734414e-01 7.432250e-01
<VARIANCE> 25
 7.329066e+01 5.353212e+01 8.076791e+01 4.156947e+01 7.365958e+01 5.261014e+01 8.710539e+01 6.728586e+01 5.858597e+01 6.172757e+01 4.016172e+01 8.034792e+01 5.694481e+00 3.115270e+00 4.516973e+00 2.687217e+00 5.901318e+00 4.503955e+00 4.840450e+00 7.151805e+00 4.194849e+00 4.431758e+00 3.510431e+00 5.555799e+00 4.695717e+00
<GCONST> 1.151881e+02
<TRANSP> 5
 0.000000e+00 1.000000e+00 0.000000e+00 0.000000e+00 0.000000e+00
 0.000000e+00 1.758073e-01 8.241926e-01 0.000000e+00 0.000000e+00
 0.000000e+00 0.000000e+00 6.808598e-01 3.191402e-01 0.000000e+00
 0.000000e+00 0.000000e+00 0.000000e+00 8.923185e-01 1.076815e-01
 0.000000e+00 0.000000e+00 0.000000e+00 0.000000e+00 0.000000e+00
<ENDHMM>
~h "n"
<BEGINHMM>
<NUMSTATES> 5
<STATE> 2
<MEAN> 25
 3.328012e+00 2.993173e-01 3.609126e+00 3.010440e+00 2.694877e+00 -1.579200e+00 2.699557e-01 2.063907e+00 -1.628113e-01 1.423856e+00 4.456417e-01 1.654873e+00 -9.545332e-01 -1.071832e+00 -2.042508e-01 5.012523e-01 8.833882e-01 7.649536e-01 3.288954e-03 1.942974e-01 -3.653741e-01 -1.202921e-01 2.693047e-01 1.682987e-01 -8.207996e-01
<VARIANCE> 25
 1.534224e+01 2.312646e+01 1.253675e+01 2.008512e+01 2.580415e+01 1.845754e+01 1.735457e+01 2.174696e+01 1.901278e+01 1.947017e+01 1.752301e+01 1.226400e+01 8.903087e-01 9.319370e-01 1.373129e+00 1.497190e+00 1.939000e+00 1.423690e+00 1.786569e+00 1.959012e+00 1.845811e+00 1.550641e+00 1.661002e+00 1.539324e+00 1.618646e-01
<GCONST> 8.370220e+01
<STATE> 3
<MEAN> 25
 -4.938348e-01 -3.914163e+00 9.667284e-01 3.776186e+00 4.605344e+00 2.322354e+00 1.962326e-01 2.533977e+00 -1.964627e+00 8.054153e-01 6.535486e-01 1.329394e+00 -4.391788e-02 -2.044692e-02 -5.748069e-02 2.720417e-02 -4.851374e-02 5.828545e-02 -5.419655e-02 9.430833e-03 -6.659587e-02 1.466461e-02 3.920618e-03 1.711466e-03 -1.239308e-01
<VARIANCE> 25
 2.292177e+00 5.920674e+00 7.041610e+00 1.065809e+01 1.202479e+01 1.291062e+01 1.293729e+01 1.582845e+01 1.612232e+01 1.677069e+01 1.166152e+01 1.124075e+01 1.087927e-01 2.449687e-01 4.074327e-01 6.109436e-01 7.997810e-01 9.441462e-01 1.056812e+00 1.187028e+00 1.322731e+00 1.235755e+00 1.143665e+00 1.077838e+00 3.263005e-02
<GCONST> 6.592398e+01
<STATE> 4
<MEAN> 25
 -1.997745e+00 -3.994025e+00 -6.718031e-01 4.769047e+00 3.000900e+00 2.933104e+00 -8.256214e-01 3.978185e+00 -3.194345e+00 1.935149e+00 3.111351e-01 1.292846e+00 -2.949673e-02 6.201026e-02 -2.405547e-02 4.051936e-02 -2.378231e-02 6.700876e-02 8.014548e-03 5.631211e-02 9.203516e-03 2.852754e-02 1.814551e-02 -9.190343e-03 -7.473711e-02
<VARIANCE> 25
 3.565515e+00 5.641999e+00 6.191448e+00 1.027355e+01 1.237438e+01 1.532072e+01 1.411593e+01 1.647309e+01 1.507992e+01 1.519759e+01 1.327489e+01 1.235156e+01 2.258248e-01 3.296867e-01 4.744891e-01 7.074080e-01 9.453347e-01 1.097230e+00 1.283378e+00 1.699865e+00 1.356102e+00 1.539043e+00 1.321586e+00 1.206897e+00 7.043705e-02
<GCONST> 7.000620e+01
<TRANSP> 5
 0.000000e+00 1.000000e+00 0.000000e+00 0.000000e+00 0.000000e+00
 0.000000e+00 7.136518e-01 2.863482e-01 0.000000e+00 0.000000e+00
 0.000000e+00 0.000000e+00 9.514502e-01 4.854972e-02 0.000000e+00
 0.000000e+00 0.000000e+00 0.000000e+00 9.192206e-01 8.077947e-02
 0.000000e+00 0.000000e+00 0.000000e+00 0.000000e+00 0.000000e+00
<ENDHMM>
~h "p"
<BEGINHMM>
<NUMSTATES> 5
<STATE> 2
<MEAN> 25
 -1.475057e+00 -2.759178e+00 -2.297534e+00 -3.113625e+00 -4.485187e+00 -3.222127e+00 4.306705e-01 2.565675e+00 3.957051e+00 -5.378087e-01 -7.553512e-01 -1.229425e+00 -7.703564e-01 -4.112211e-01 7.665007e-01 5.010283e-01 -1.950411e-01 1.179281e-01 2.489566e-01 5.208527e-01 -9.265982e-02 1.254778e-02 -1.363520e-01 3.997909e-01 6.151164e-01
<VARIANCE> 25
 3.814424e+01 2.010339e+01 2.844763e+01 3.776572e+01 5.143477e+01 3.264332e+01 5.522928e+01 3.318779e+01 3.457358e+01 2.697181e+01 3.053188e+01 2.542157e+01 4.071586e+00 2.905637e+00 3.181725e+00 3.828725e+00 3.331382e+00 3.141758e+00 5.533152e+00 5.835212e+00 3.702763e+00 1.352732e+00 2.675903e+00 2.101107e+00 4.130579e+00
<GCONST> 1.035504e+02
<STATE> 3
<MEAN> 25
 -1.520219e-01 -2.882703e+00 1.657536e-01 -1.686632e+00 -2.510407e+00 -2.109066e+00 7.373195e-01 1.787069e+00 1.271068e+00 -9.542674e-02 1.495753e+00 7.075519e-01 -5.446261e-01 8.017723e-02 8.144513e-01 6.751297e-01 6.402867e-01 5.391285e-01 -4.363931e-01 -5.429672e-01 -9.677670e-01 2.198382e-01 3.612582e-01 6.046635e-01 -4.695792e-01
<VARIANCE> 25
 1.288885e+01 1.233047e+01 1.139566e+01 3.084195e+01 4.924934e+01 3.584438e+01 3.919386e+01 2.509574e+01 2.909009e+01 2.405487e+01 1.875106e+01 1.927643e+01 1.115733e+00 7.027004e-01 1.671105e+00 1.732198e+00 1.451254e+00 2.023385e+00 3.306026e+00 3.435037e+00 2.299595e+00 1.397445e+00 1.990721e+00 1.963304e+00 3.400259e-01
<GCONST> 8.946397e+01
<STATE> 4
<MEAN> 25
 -1.762707e+00 -4.182001e+00 -2.768865e-01 3.022440e+00 1.599679e+00 2.583355e+00 -1.992435e+00 2.049529e+00 -3.484929e+00 5.275096e-01 1.202577e+00 1.617771e+00 -2.994397e-02 3.241093e-02 -1.097102e-03 4.918548e-02 -3.502185e-02 9.328864e-02 -5.434576e-02 2.230503e-02 -4.228318e-02 2.487764e-02 -3.474189e-02 6.577304e-03 -1.049316e-01
<VARIANCE> 25
 2.216131e+00 4.067863e+00 5.798536e+00 9.951733e+00 1.050771e+01 1.577139e+01 1.305086e+01 1.373805e+01 1.649942e+01 1.130199e+01 1.034585e+01 1.164076e+01 1.201194e-01 2.407826e-01 3.941527e-01 6.888089e-01 8.638836e-01 1.019295e+00 1.168407e+00 1.566940e+00 1.635200e+00 1.267933e+00 1.084988e+00 1.110962e+00 4.359801e-02
<GCONST> 6.593372e+01
<TRANSP> 5
 0.000000e+00 1.000000e+00 0.000000e+00 0.000000e+00 0.000000e+00
 0.000000e+00 4.778901e-01 5.221100e-01 0.000000e+00 0.000000e+00
 0.000000e+00 0.000000e+00 3.759598e-01 6.240402e-01 0.000000e+00
 0.000000e+00 0.000000e+00 0.000000e+00 9.614834e-01 3.851661e-02
 0.000000e+00 0.000000e+00 0.000000e+00 0.000000e+00 0.000000e+00
<ENDHMM>
~h "r"
<BEGINHMM>
<NUMSTATES> 5
<STATE> 2
<MEAN> 25
 -3.062269e+00 -1.676239e-03 -4.841301e+00 -1.933686e+00 -2.180538e+00 9.848025e-02 1.635199e+00 -7.237136e-01 6.351469e+00 -2.136639e-01 2.401079e-01 -2.576097e+00 -1.872542e-01 7.916567e-02 -2.824644e-01 5.597064e-01 3.736064e-02 -1.069699e-01 -7.978728e-02 -6.202102e-01 3.481209e-01 5.760005e-02 2.592026e-01 -4.591837e-02 4.075787e-01
<VARIANCE> 25
 1.086694e+02 4.149863e+01 5.024358e+01 8.084778e+01 4.305632e+01 5.052425e+01 3.629518e+01 5.273695e+01 6.280646e+01 3.373511e+01 1.953205e+01 5.727654e+01 3.176992e+00 2.597229e+00 3.522760e+00 3.119263e+00 2.040329e+00 3.579374e+00 2.607461e+00 5.336570e+00 2.442149e+00 3.348019e+00 2.808807e+00 2.493300e+00 3.242819e+00
<GCONST> 1.069434e+02
<STATE> 3
<MEAN> 25
 5.950730e+00 3.205593e-01 -2.925295e+00 4.701309e+00 -2.128715e+00 -9.568728e-01 -2.999640e+00 -4.909248e+00 4.891524e+00 -1.187852e+00 9.936216e-01 -1.531628e+00 1.607504e+00 1.027885e-01 -4.792272e-01 1.675575e+00 1.664907e-01 -1.089915e+00 -1.097098e+00 -5.492010e-01 5.815365e-01 -9.370325e-01 2.401301e-01 -1.118094e-02 7.918199e-01
<VARIANCE> 25
 1.054137e+02 4.613059e+01 7.488163e+01 6.944604e+01 5.261187e+01 6.831769e+01 9.079708e+01 5.556197e+01 5.904277e+01 5.212971e+01 5.411476e+01 2.830791e+01 8.269549e+00 6.157537e+00 5.948606e+00 4.982987e+00 5.129857e+00 6.940776e+00 6.707562e+00 5.410392e+00 4.584205e+00 4.333635e+00 4.200809e+00 4.013978e+00 4.802222e+00
<GCONST> 1.169389e+02
<STATE> 4
<MEAN> 25
 9.245646e+00 8.946962e-01 -1.958547e+00 6.076465e+00 -7.575728e+00 -7.420942e+00 -5.002095e+00 -8.222304e+00 5.449957e+00 -4.465317e+00 4.458453e+00 -7.997742e-01 -9.552951e-02 -1.770620e-01 5.490377e-01 -4.860854e-01 -4.268561e-01 -6.501331e-02 8.044143e-02 7.745699e-02 -5.470089e-01 1.859031e-01 5.258978e-02 2.203176e-01 -8.634692e-02
<VARIANCE> 25
 6.660105e+01 8.161383e+01 1.234906e+02 6.750232e+01 5.033685e+01 7.255180e+01 5.719174e+01 9.345637e+01 6.688702e+01 3.938554e+01 5.858237e+01 3.254098e+01 2.109717e+00 2.139163e+00 4.116261e+00 3.972992e+00 4.788697e+00 4.797179e+00 3.742818e+00 3.686103e+00 4.316791e+00 4.494412e+00 3.725602e+00 2.985282e+00 1.885999e+00
<GCONST> 1.118611e+02
<TRANSP> 5
 0.000000e+00 1.000000e+00 0.000000e+00 0.000000e+00 0.000000e+00
 0.000000e+00 7.511832e-01 2.488169e-01 0.000000e+00 0.000000e+00
 0.000000e+00 0.000000e+00 6.739679e-01 3.260321e-01 0.000000e+00
 0.000000e+00 0.000000e+00 0.000000e+00 8.461819e-01 1.538180e-01
 0.000000e+00 0.000000e+00 0.000000e+00 0.000000e+00 0.000000e+00
<ENDHMM>
~h "s"
<BEGINHMM>
<NUMSTATES> 5
<STATE> 2
<MEAN> 25
 -7.382492e+00 6.925556e+00 -1.421099e+00 1.860772e+00 4.725033e+00 -4.262352e+00 1.606074e+00 1.195270e+00 5.710356e-01 4.239014e-01 1.130352e+00 1.354136e+00 -2.895567e+00 3.501528e+00 -1.126594e+00 -8.377429e-01 1.586391e+00 -1.036859e+00 6.979896e-01 -2.974479e-01 5.882569e-01 -7.773052e-02 6.956086e-01 3.052254e-02 2.119571e+00
<VARIANCE> 25
 6.335166e+01 7.502308e+01 4.099788e+01 4.140181e+01 6.456843e+01 5.257691e+01 3.577334e+01 3.891023e+01 3.952977e+01 2.783149e+01 2.278479e+01 2.059747e+01 2.958666e+00 3.625257e+00 3.061284e+00 3.484981e+00 3.079740e+00 4.546646e+00 3.204139e+00 2.810136e+00 2.872276e+00 2.559625e+00 2.407399e+00 1.850825e+00 3.730844e+00
<GCONST> 1.047559e+02
<STATE> 3
<MEAN> 25
 -1.750468e+01 1.807982e+01 -6.020720e+00 -6.296302e-01 9.870102e+00 -5.845353e+00 3.171824e+00 1.619854e+00 8.637182e-01 2.286695e+00 1.606312e+00 1.784738e+00 -1.796611e-01 3.915453e-01 -5.580361e-01 5.830065e-01 -2.561422e-01 4.136412e-01 1.500237e-01 -2.447279e-01 1.209926e-01 6.237024e-02 -7.577322e-02 -1.452983e-01 3.943230e-01
<VARIANCE> 25
 2.075947e+01 2.070685e+01 1.664134e+01 3.271547e+01 2.630636e+01 1.703271e+01 1.712934e+01 2.243421e+01 1.746650e+01 1.538050e+01 1.019680e+01 8.734418e+00 1.291868e+00 1.648941e+00 8.153371e-01 1.131503e+00 1.291747e+00 1.295203e+00 1.180223e+00 1.235631e+00 1.148853e+00 9.893050e-01 7.849137e-01 7.316182e-01 1.792874e+00
<GCONST> 8.217389e+01
<STATE> 4
<MEAN> 25
 -1.395431e+01 1.439081e+01 -9.043066e+00 7.403577e+00 3.025950e+00 -1.058008e+00 3.778811e+00 -1.638527e+00 2.824835e+00 6.881289e-01 1.878503e+00 1.107587e+00 4.730066e-01 -1.062422e+00 4.005969e-01 1.934234e-01 -2.991221e-01 3.602556e-01 -1.035916e-01 -2.124440e-05 -9.808787e-02 -1.748490e-01 -2.160512e-01 3.470886e-02 -6.137051e-01
<VARIANCE> 25
 2.331775e+01 4.747064e+01 1.624295e+01 1.754527e+01 1.663207e+01 2.186636e+01 1.356555e+01 1.374730e+01 1.430192e+01 1.211905e+01 1.306395e+01 1.007288e+01 1.203763e+00 1.201447e+00 8.770200e-01 1.161080e+00 1.048680e+00 1.404627e+00 1.125251e+00 1.130089e+00 1.216336e+00 1.361330e+00 1.209874e+00 8.285283e-01 1.070885e+00
<GCONST> 8.135815e+01
<TRANSP> 5
 0.000000e+00 1.000000e+00 0.000000e+00 0.000000e+00 0.000000e+00
 0.000000e+00 7.246658e-01 2.753341e-01 0.000000e+00 0.000000e+00
 0.000000e+00 0.000000e+00 8.199665e-01 1.800335e-01 0.000000e+00
 0.000000e+00 0.000000e+00 0.000000e+00 8.841100e-01 1.158900e-01
 0.000000e+00 0.000000e+00 0.000000e+00 0.000000e+00 0.000000e+00
<ENDHMM>
~h "t"
<BEGINHMM>
<NUMSTATES> 5
<STATE> 2
<MEAN> 25
 -4.027661e+00 5.775844e+00 -3.014430e+00 -4.112784e-01 -2.542940e+00 -5.375968e+00 -8.355424e-01 -1.500725e+00 2.748188e+00 1.456658e+00 -7.472489e-01 1.526135e+00 -2.610546e+00 1.313728e+00 -6.666337e-01 1.346715e-01 8.326472e-01 2.129593e-01 5.539396e-01 4.258234e-01 6.587924e-01 -3.854767e-01 -1.178311e-02 3.599458e-01 1.160223e+00
<VARIANCE> 25
 7.842351e+01 5.872755e+01 5.163878e+01 4.576309e+01 5.632212e+01 5.567795e+01 6.536928e+01 5.809628e+01 3.776103e+01 3.809980e+01 3.691514e+01 2.862109e+01 7.452543e+00 6.963912e+00 4.823185e+00 4.124127e+00 5.033438e+00 6.077558e+00 5.621893e+00 5.851988e+00 4.509021e+00 3.833801e+00 3.542061e+00 2.658445e+00 3.354554e+00
<GCONST> 1.128333e+02
<STATE> 3
<MEAN> 25
 -1.366499e+01 1.026499e+01 -4.003543e+00 -1.778531e+00 6.577549e+00 -4.710802e+00 3.390439e+00 2.580144e+00 2.221038e+00 -4.025205e-01 1.096508e+00 2.315019e+00 5.969574e-01 -1.105404e+00 3.925610e-01 6.194072e-02 2.696433e-01 -7.376149e-02 6.042373e-02 -5.921131e-02 -1.760145e-01 -1.743986e-01 9.034306e-03 -6.848859e-02 -9.502932e-01
<VARIANCE> 25
 2.576334e+01 4.910302e+01 2.500653e+01 3.247687e+01 3.809546e+01 3.310413e+01 2.822600e+01 3.063698e+01 2.385332e+01 2.141533e+01 1.659150e+01 1.664780e+01 1.484764e+00 1.606154e+00 1.492730e+00 1.645909e+00 1.478381e+00 1.875606e+00 1.723861e+00 2.862924e+00 1.725303e+00 1.432565e+00 1.758964e+00 1.556676e+00 9.755137e-01
<GCONST> 9.182050e+01
<STATE> 4
<MEAN> 25
 -4.775727e+00 -1.161340e-01 -6.539556e-01 2.087379e+00 4.477036e+00 -1.581074e+00 2.405034e+00 -3.080077e-01 -5.936503e-02 -1.070997e-01 1.230386e+00 9.803665e-01 8.632600e-01 -8.110266e-01 4.587571e-01 1.458187e-01 -2.400406e-01 6.570463e-01 -3.469251e-01 2.256682e-01 -2.680441e-01 1.387175e-01 -1.684849e-01 -3.734936e-02 -5.442874e-01
<VARIANCE> 25
 1.809967e+01 1.552969e+01 1.845046e+01 2.181392e+01 2.034093e+01 2.491494e+01 2.165273e+01 2.528074e+01 2.388772e+01 1.871326e+01 1.877661e+01 1.604147e+01 9.818525e-01 1.039471e+00 9.151636e-01 1.400043e+00 1.593730e+00 1.518706e+00 1.954121e+00 2.000716e+00 1.865828e+00 1.494041e+00 1.592587e+00 2.000585e+00 4.589692e-01
<GCONST> 8.584772e+01
<TRANSP> 5
 0.000000e+00 1.000000e+00 0.000000e+00 0.000000e+00 0.000000e+00
 0.000000e+00 7.492667e-01 2.507333e-01 0.000000e+00 0.000000e+00
 0.000000e+00 0.000000e+00 8.052238e-01 1.947762e-01 0.000000e+00
 0.000000e+00 0.000000e+00 0.000000e+00 6.764171e-01 3.235829e-01
 0.000000e+00 0.000000e+00 0.000000e+00 0.000000e+00 0.000000e+00
<ENDHMM>
~h "v"
<BEGINHMM>
<NUMSTATES> 5
<STATE> 2
<MEAN> 25
 7.542817e+00 1.808323e+00 2.287661e+00 2.209929e+00 -2.675786e+00 -6.310195e+00 -5.095274e+00 -6.586848e-01 2.535236e-02 1.470323e+00 -1.386550e+00 -2.430637e+00 -7.594242e-01 -2.092168e-01 -1.664421e-01 1.822150e-01 1.152732e+00 1.178825e+00 5.009587e-01 4.714462e-01 6.364182e-02 1.602737e-01 2.269770e-01 1.406659e-01 -1.033226e+00
<VARIANCE> 25
 2.797950e+01 2.180531e+01 3.215256e+01 2.642111e+01 2.741874e+01 4.499511e+01 3.196697e+01 3.611342e+01 2.997737e+01 2.769554e+01 1.964735e+01 2.861554e+01 1.165067e+00 1.945258e+00 1.621439e+00 1.345230e+00 2.351616e+00 1.616536e+00 2.295816e+00 2.659944e+00 2.214322e+00 2.129490e+00 1.115238e+00 1.647033e+00 2.544425e-01
<GCONST> 9.186098e+01
<STATE> 3
<MEAN> 25
 3.649985e+00 1.712848e-01 3.561943e+00 3.320240e+00 2.586351e+00 -1.329797e+00 -1.752190e+00 -7.773043e-01 -7.144347e-02 1.151184e+00 1.339638e+00 3.413528e-01 -1.082389e+00 -1.026457e+00 -3.955125e-01 2.655608e-01 1.129479e+00 1.207147e+00 9.028622e-01 1.428733e-01 -7.298559e-02 2.436319e-01 1.423644e-01 2.049540e-02 -7.553349e-01
<VARIANCE> 25
 2.370103e+01 1.493770e+01 2.023450e+01 2.871594e+01 2.405730e+01 2.609763e+01 3.742422e+01 3.082734e+01 2.494911e+01 3.051889e+01 1.934906e+01 1.620831e+01 6.694084e-01 4.718331e-01 9.454743e-01 1.496441e+00 1.059310e+00 1.627120e+00 2.118748e+00 2.685918e+00 1.622651e+00 1.412775e+00 1.625891e+00 1.028649e+00 1.281359e-01
<GCONST> 8.482458e+01
<STATE> 4
<MEAN> 25
 -2.460058e+00 -2.713161e+00 1.691313e+00 4.305168e+00 5.595806e+00 2.401796e+00 2.595032e+00 1.555626e+00 -5.423208e-01 8.264815e-01 1.217283e+00 1.125417e+00 -6.016811e-02 -3.716231e-02 -2.019088e-02 3.077216e-02 1.358674e-02 2.744088e-02 -2.551112e-02 3.972226e-02 -1.830389e-02 4.590369e-02 -5.032141e-02 9.488283e-03 -1.111331e-01
<VARIANCE> 25
 1.012815e+01 5.623418e+00 7.412495e+00 1.464803e+01 1.180652e+01 1.839567e+01 1.750871e+01 1.794606e+01 1.596316e+01 2.375448e+01 1.357371e+01 1.205836e+01 1.544556e-01 2.545944e-01 4.563532e-01 7.010301e-01 8.017774e-01 1.149940e+00 1.399738e+00 1.544577e+00 1.269899e+00 1.374578e+00 1.395371e+00 1.129095e+00 5.696912e-02
<GCONST> 7.130406e+01
<TRANSP> 5
 0.000000e+00 1.000000e+00 0.000000e+00 0.000000e+00 0.000000e+00
 0.000000e+00 6.855335e-01 3.144664e-01 0.000000e+00 0.000000e+00
 0.000000e+00 0.000000e+00 5.184605e-01 4.815396e-01 0.000000e+00
 0.000000e+00 0.000000e+00 0.000000e+00 9.407912e-01 5.920882e-02
 0.000000e+00 0.000000e+00 0.000000e+00 0.000000e+00 0.000000e+00
<ENDHMM>
~h "w"
<BEGINHMM>
<NUMSTATES> 5
<STATE> 2
<MEAN> 25
 1.125914e+01 8.247854e+00 2.914654e+00 -3.336310e+00 -5.343640e+00 1.088448e+00 -2.350958e+00 -1.046655e+00 -3.241404e+00 -4.525992e+00 -1.222060e+00 1.978143e+00 1.258795e+00 1.061339e+00 -5.142480e-03 -1.834575e+00 -1.388317e+00 7.594270e-01 2.915825e-01 -1.248467e+00 3.253690e-01 -1.127686e+00 -1.907024e-01 3.181257e-01 1.140763e+00
<VARIANCE> 25
 8.173119e+01 4.336914e+01 2.804732e+01 8.027519e+01 4.666317e+01 6.514222e+01 3.842479e+01 4.820433e+01 2.838647e+01 4.587958e+01 2.861987e+01 1.685166e+01 5.439631e+00 4.801584e+00 2.904465e+00 4.059880e+00 3.769996e+00 7.112928e+00 3.352420e+00 4.596178e+00 4.716109e+00 3.946956e+00 2.396380e+00 1.808451e+00 2.339181e+00
<GCONST> 1.077277e+02
<STATE> 3
<MEAN> 25
 1.169263e+01 7.071033e+00 -3.372534e+00 -1.993813e+01 -9.438176e+00 1.045393e+01 -8.831012e-01 -1.501150e+01 7.087420e+00 -4.682017e+00 1.343429e+00 3.236164e-01 -1.312612e+00 -1.775778e+00 -1.143123e+00 -6.678725e-01 1.512043e+00 -8.578114e-01 3.571800e-01 -1.744358e-01 2.190603e+00 2.231804e+00 5.198687e-02 -1.921867e+00 2.440057e+00
<VARIANCE> 25
 2.995305e+01 3.614412e+01 2.828957e+01 9.403632e+01 5.377821e+01 6.547115e+01 6.420645e+01 6.935577e+01 9.416630e+01 1.686190e+02 3.418368e+01 6.581721e+01 1.307187e+00 3.078669e+00 2.221121e+00 7.887927e+00 4.691284e+00 1.178504e+01 7.677607e+00 1.363053e+01 5.514725e+00 9.419066e+00 5.708560e+00 6.276361e+00 2.788546e+00
<GCONST> 1.162527e+02
<STATE> 4
<MEAN> 25
 5.898219e+00 -1.864879e+00 -9.307081e+00 -1.849883e+01 4.052780e+00 6.924799e+00 5.532857e+00 -9.214949e+00 7.350990e+00 -9.750978e-01 9.794776e-01 -5.119597e+00 -2.712033e-01 -8.409606e-01 -3.478536e-01 1.451148e+00 5.110625e-01 -1.447211e+00 4.461879e-01 8.850138e-01 -9.195055e-01 4.855130e-01 -5.387669e-01 -7.598656e-01 1.739806e-01
<VARIANCE> 25
 2.845233e+01 2.676950e+01 1.700185e+01 7.627505e+01 1.355560e+02 8.207716e+01 6.568774e+01 3.692582e+01 5.223613e+01 4.291319e+01 4.338725e+01 4.854200e+01 6.788814e-01 9.848639e-01 1.028757e+00 2.993220e+00 2.897588e+00 2.885175e+00 2.652106e+00 3.282804e+00 2.261078e+00 3.124239e+00 2.010280e+00 3.003490e+00 8.254083e-01
<GCONST> 1.007994e+02
<TRANSP> 5
 0.000000e+00 1.000000e+00 0.000000e+00 0.000000e+00 0.000000e+00
 0.000000e+00 8.662583e-01 1.337418e-01 0.000000e+00 0.000000e+00
 0.000000e+00 0.000000e+00 7.575179e-01 2.424821e-01 0.000000e+00
 0.000000e+00 0.000000e+00 0.000000e+00 8.111712e-01 1.888288e-01
 0.000000e+00 0.000000e+00 0.000000e+00 0.000000e+00 0.000000e+00
<ENDHMM>
~h "y"
<BEGINHMM>
<NUMSTATES> 5
<STATE> 2
<MEAN> 25
 -2.169137e+00 -2.387155e+00 -3.784081e-03 2.760424e+00 4.280037e+00 3.435885e+00 1.244007e+00 3.349386e+00 -1.917808e+00 4.167842e-01 5.014569e-02 1.972450e+00 -2.191391e-02 1.839332e-02 -1.881016e-02 3.768652e-02 5.873471e-03 6.720558e-02 -9.731445e-03 1.677823e-03 -1.189389e-02 3.372962e-02 -2.723726e-02 2.177585e-02 -8.042296e-02
<VARIANCE> 25
 3.635236e+00 3.600022e+00 4.521289e+00 8.544771e+00 1.097999e+01 1.677982e+01 1.451340e+01 1.684245e+01 1.261160e+01 1.401791e+01 1.121251e+01 9.752721e+00 9.737571e-02 2.470767e-01 3.808478e-01 5.571343e-01 8.696358e-01 1.050236e+00 1.124735e+00 1.383537e+00 1.327400e+00 1.226956e+00 1.121275e+00 1.023231e+00 4.345238e-02
<GCONST> 6.532050e+01
<STATE> 3
<MEAN> 25
 -2.487458e+00 -1.887091e+00 -5.256907e-01 4.506616e+00 2.935258e+00 3.602841e+00 -9.202389e-01 2.541749e+00 -2.588556e+00 9.926999e-01 -1.483215e+00 1.409047e+00 2.576780e-01 1.982378e+00 1.079159e+00 -3.753054e-01 -4.853218e-01 -1.612827e+00 -1.065433e+00 -1.533255e+00 -8.133665e-01 2.795050e-02 -6.692554e-01 -1.086877e+00 2.015635e+00
<VARIANCE> 25
 5.391846e+00 6.176524e+00 8.982422e+00 2.280189e+01 2.732038e+01 2.430264e+01 2.675571e+01 2.621925e+01 1.885099e+01 2.480093e+01 1.680664e+01 9.931184e+00 3.859487e+00 5.929132e+00 3.784819e+00 1.511757e+00 2.295403e+00 5.661120e+00 5.301271e+00 3.942134e+00 1.196575e+01 3.771273e+00 1.719365e+00 1.610023e+00 4.110399e+00
<GCONST> 9.581111e+01
<STATE> 4
<MEAN> 25
 -2.858444e+00 8.524919e+00 1.012640e+01 -6.517881e-01 -7.800163e+00 -5.880431e+00 -3.632128e+00 -2.368443e+00 -7.710642e+00 -4.754861e-01 -2.133943e+00 -3.312898e+00 -3.899204e-01 -4.048193e-01 1.034655e-02 -7.098907e-01 -1.677245e+00 -1.208328e+00 1.751814e-01 2.828266e-02 8.429244e-01 2.354210e-01 -5.027613e-02 -1.300737e-01 3.123940e+00
<VARIANCE> 25
 2.289284e+01 9.997341e+01 5.487872e+01 3.744769e+01 8.332851e+01 4.658648e+01 5.056232e+01 2.560651e+01 8.053899e+01 3.884986e+01 1.829525e+01 3.899569e+01 3.395116e+00 1.007475e+01 6.082006e+00 4.070407e+00 5.451518e+00 7.719326e+00 7.339134e+00 4.526754e+00 5.457652e+00 4.361876e+00 2.100346e+00 4.295705e+00 6.243936e+00
<GCONST> 1.125450e+02
<TRANSP> 5
 0.000000e+00 1.000000e+00 0.000000e+00 0.000000e+00 0.000000e+00
 0.000000e+00 9.676915e-01 3.230852e-02 0.000000e+00 0.000000e+00
 0.000000e+00 0.000000e+00 3.385180e-01 6.614820e-01 0.000000e+00
 0.000000e+00 0.000000e+00 0.000000e+00 7.780100e-01 2.219900e-01
 0.000000e+00 0.000000e+00 0.000000e+00 0.000000e+00 0.000000e+00
<ENDHMM>
~h "z"
<BEGINHMM>
<NUMSTATES> 5
<STATE> 2
<MEAN> 25
 -2.718043e-01 8.027791e+00 -2.277197e+00 1.512966e+00 1.638336e+00 -5.221276e+00 9.829402e-01 7.941629e-01 7.567986e-01 3.672890e+00 -9.344351e-01 -3.870499e-02 -1.870624e+00 3.328804e+00 -7.274590e-01 1.527041e-01 1.031319e+00 -1.351099e+00 1.257886e-01 -1.223136e-01 2.283924e-01 -2.795276e-01 6.511339e-01 -4.930373e-01 1.388189e+00
<VARIANCE> 25
 8.995911e+01 1.221089e+02 2.164574e+01 6.736951e+01 6.360942e+01 7.265556e+01 4.503505e+01 4.200367e+01 2.931422e+01 3.132822e+01 3.009742e+01 1.768114e+01 7.458521e+00 8.962987e+00 2.614395e+00 4.338331e+00 4.485255e+00 4.721455e+00 3.083044e+00 5.794086e+00 2.840923e+00 3.434196e+00 2.484282e+00 2.403741e+00 3.843502e+00
<GCONST> 1.095974e+02
<STATE> 3
<MEAN> 25
 -1.483087e+01 1.727066e+01 -7.513353e+00 3.957374e-01 9.159387e+00 -7.285017e+00 6.383289e+00 2.146037e-01 3.716681e-01 1.334202e+00 1.567636e+00 1.748366e+00 1.311183e-01 -5.700054e-01 8.155072e-02 3.613364e-01 5.496302e-02 9.160735e-02 2.507506e-01 -4.365464e-01 8.999977e-02 -2.757731e-01 -1.862492e-01 1.720739e-01 -3.578381e-01
<VARIANCE> 25
 3.202152e+01 4.281716e+01 1.568525e+01 3.928284e+01 3.546708e+01 1.878155e+01 3.053106e+01 3.934749e+01 1.737037e+01 9.821505e+00 1.061491e+01 1.049407e+01 1.468042e+00 1.820549e+00 5.068801e-01 8.953542e-01 8.499086e-01 1.295566e+00 1.009023e+00 1.171598e+00 9.504840e-01 1.058084e+00 6.686141e-01 7.261704e-01 1.272654e+00
<GCONST> 8.301983e+01
<STATE> 4
<MEAN> 25
 -5.799422e+00 1.410810e+01 -1.472682e+00 9.579010e+00 1.459478e+00 -9.521101e+00 -1.276570e+00 -1.467925e+00 2.209684e+00 -3.109829e+00 -7.339720e+00 -1.305745e+00 3.100794e-01 -1.797507e+00 8.990939e-01 -1.827121e-01 -1.075068e+00 1.384327e-01 -2.381881e-02 4.601859e-01 -6.105490e-01 -6.365166e-01 -6.156887e-02 -5.746523e-02 7.659804e-01
<VARIANCE> 25
 1.418245e+01 1.180812e+02 1.891991e+01 4.530869e+01 4.690636e+01 4.076686e+01 7.119408e+01 2.800081e+01 2.109981e+01 1.765705e+01 4.138518e+01 2.885423e+01 1.337796e+00 2.168912e+00 2.726740e+00 1.546516e+00 2.660211e+00 3.910179e+00 4.078330e+00 2.331704e+00 3.836576e+00 1.937967e+00 3.898398e+00 2.043463e+00 1.776636e+00
<GCONST> 1.000380e+02
<TRANSP> 5
 0.000000e+00 1.000000e+00 0.000000e+00 0.000000e+00 0.000000e+00
 0.000000e+00 7.373151e-01 2.626849e-01 0.000000e+00 0.000000e+00
 0.000000e+00 0.000000e+00 8.744816e-01 1.255184e-01 0.000000e+00
 0.000000e+00 0.000000e+00 0.000000e+00 7.697318e-01 2.302682e-01
 0.000000e+00 0.000000e+00 0.000000e+00 0.000000e+00 0.000000e+00
<ENDHMM>
~h "aa"
<BEGINHMM>
<NUMSTATES> 5
<STATE> 2
<MEAN> 25
 5.358461e+00 6.289993e+00 -2.621291e+00 -1.047800e+01 -1.136212e+00 6.725090e+00 -2.472980e+00 -6.995300e+00 6.561573e+00 -4.828768e+00 1.276074e-01 -2.206866e+00 9.720185e-01 -5.383556e-01 -1.610165e-01 -1.820247e+00 -1.205642e-01 8.910183e-01 6.693369e-01 -5.506656e-01 8.477935e-01 -5.688751e-01 -5.187735e-02 -6.489789e-01 2.065756e+00
<VARIANCE> 25
 5.900198e+01 5.212194e+01 3.844828e+01 1.544477e+02 3.996728e+01 1.187803e+02 7.556259e+01 6.217653e+01 8.338574e+01 7.513275e+01 4.087044e+01 6.152192e+01 7.447474e+00 4.442931e+00 2.663983e+00 6.917238e+00 4.764531e+00 7.353009e+00 6.672062e+00 4.703281e+00 4.003635e+00 4.129332e+00 3.979363e+00 4.775157e+00 5.705063e+00
<GCONST> 1.170668e+02
<STATE> 3
<MEAN> 25
 9.401218e+00 -1.710846e+00 -6.924820e+00 -1.713648e+01 9.015520e-01 7.907371e+00 9.339915e+00 -7.830221e+00 7.889603e+00 -2.169746e+00 -1.389049e+00 -6.063653e+00 1.322380e-01 -7.048220e-02 1.801946e-01 9.265788e-01 -3.218697e-01 -5.127691e-01 -6.361203e-02 5.164081e-01 -6.199623e-01 9.318488e-01 -5.964504e-02 1.315279e-02 -9.131437e-01
<VARIANCE> 25
 1.591169e+01 3.264250e+01 3.491878e+01 8.149431e+01 4.499820e+01 6.230552e+01 4.131031e+01 5.146687e+01 3.693699e+01 4.736835e+01 6.874867e+01 1.119018e+02 8.043934e-01 9.047457e-01 1.584397e+00 2.611959e+00 2.003114e+00 2.639268e+00 3.486758e+00 2.684006e+00 2.188533e+00 2.109282e+00 2.620260e+00 2.500152e+00 1.244260e+00
<GCONST> 1.008009e+02
<STATE> 4
<MEAN> 25
 5.582565e+00 4.579490e-01 -2.614065e+00 -7.727114e+00 -8.126945e-01 2.494820e+00 3.269401e+00 4.506661e-01 5.886855e+00 2.725938e+00 -3.398592e+00 -2.496793e+00 -5.791965e-01 -1.712356e-01 3.148949e-01 7.631746e-01 2.462495e-01 -1.767969e-01 -2.988529e-01 1.843053e-01 -3.407006e-01 -2.765716e-02 2.428416e-01 -1.296136e-02 -8.170027e-01
<VARIANCE> 25
 6.566086e+01 4.234061e+01 2.527801e+01 3.477791e+01 3.101840e+01 6.769444e+01 2.444518e+01 4.321166e+01 2.796569e+01 3.347234e+01 5.560468e+01 5.859393e+01 6.071309e+00 3.297996e+00 1.899625e+00 2.879103e+00 1.695939e+00 4.238041e+00 2.621201e+00 4.099373e+00 3.482965e+00 2.547372e+00 3.292598e+00 2.648726e+00 1.673519e+00
<GCONST> 1.041053e+02
<TRANSP> 5
 0.000000e+00 1.000000e+00 0.000000e+00 0.000000e+00 0.000000e+00
 0.000000e+00 8.675824e-01 1.324176e-01 0.000000e+00 0.000000e+00
 0.000000e+00 0.000000e+00 8.833678e-01 1.166322e-01 0.000000e+00
 0.000000e+00 0.000000e+00 0.000000e+00 8.140405e-01 1.859594e-01
 0.000000e+00 0.000000e+00 0.000000e+00 0.000000e+00 0.000000e+00
<ENDHMM>
~h "ae"
<BEGINHMM>
<NUMSTATES> 5
<STATE> 2
<MEAN> 25
 -4.430463e+00 -6.598494e-01 1.292009e+00 2.525036e+00 -1.457355e-01 3.044422e-01 2.429646e+00 1.448907e+00 2.485310e+00 -2.494085e+00 1.390972e+00 7.142549e-01 -2.239821e-01 -6.613846e-01 -2.030497e-01 -4.464835e-01 -4.801306e-01 -8.532400e-01 1.315101e+00 -6.428109e-02 -4.462788e-02 -5.904500e-01 -8.294946e-01 -4.067630e-01 1.930356e+00
<VARIANCE> 25
 9.736174e+01 2.247749e+01 2.008126e+01 1.938766e+01 6.015274e+01 5.997191e+01 5.414317e+01 5.230158e+01 4.740264e+01 1.440897e+01 1.755195e+01 1.845796e+01 5.701821e+00 3.574458e+00 3.128424e+00 2.451830e+00 3.352391e+00 6.733969e+00 7.325518e+00 5.057841e+00 1.971365e+00 1.553557e+00 3.026855e+00 8.598844e-01 1.089418e+01
<GCONST> 1.042941e+02
<STATE> 3
<MEAN> 25
 3.199865e+00 -5.970042e+00 -5.306469e+00 -2.694743e+00 -2.028533e+00 -8.968079e+00 1.024255e+01 5.090528e+00 4.215155e+00 -4.529572e+00 -6.063141e+00 -3.826218e+00 5.719729e-01 -4.810658e-01 -1.867855e-01 -5.737850e-01 -2.918282e-01 -1.039440e+00 4.803172e-01 2.732432e-01 9.479931e-02 -2.604688e-02 -6.869888e-02 -4.500579e-01 1.665604e+00
<VARIANCE> 25
 3.522419e+01 3.477289e+01 3.843085e+01 2.333775e+01 4.056520e+01 5.335795e+01 7.112886e+01 3.915132e+01 2.453205e+01 3.855350e+01 3.915805e+01 3.429359e+01 2.792369e+00 3.304407e+00 2.797850e+00 3.440391e+00 2.326706e+00 4.889033e+00 6.752942e+00 1.989018e+00 2.030039e+00 1.989958e+00 4.692572e+00 1.676560e+00 1.581444e+01
<GCONST> 1.052584e+02
<STATE> 4
<MEAN> 25
 3.350220e+00 -4.310507e+00 -2.502401e+00 -3.654384e+00 -3.824095e+00 -1.276309e+01 6.490256e+00 5.614957e+00 2.625552e+00 -5.660606e-01 -4.420959e+00 -3.536470e+00 1.305034e-01 1.045240e-01 -7.605397e-02 2.131973e-01 1.497864e-01 4.124226e-01 -1.652658e-01 -2.448482e-01 -2.465609e-01 3.776242e-01 1.496592e-02 -7.808834e-03 -9.892884e-01
<VARIANCE> 25
 1.775957e+01 1.892264e+01 1.155919e+01 2.428955e+01 2.772795e+01 6.221284e+01 5.792994e+01 3.386426e+01 2.278614e+01 3.842319e+01 4.114777e+01 3.376340e+01 6.275808e-01 1.069638e+00 8.804428e-01 8.412583e-01 1.489209e+00 1.207203e+00 1.959648e+00 1.825441e+00 1.212571e+00 1.586877e+00 1.516816e+00 1.277668e+00 1.763042e+00
<GCONST> 8.949329e+01
<TRANSP> 5
 0.000000e+00 1.000000e+00 0.000000e+00 0.000000e+00 0.000000e+00
 0.000000e+00 3.299745e-01 6.700255e-01 0.000000e+00 0.000000e+00
 0.000000e+00 0.000000e+00 7.767578e-01 2.232422e-01 0.000000e+00
 0.000000e+00 0.000000e+00 0.000000e+00 6.479892e-01 3.520108e-01
 0.000000e+00 0.000000e+00 0.000000e+00 0.000000e+00 0.000000e+00
<ENDHMM>
~h "ah"
<BEGINHMM>
<NUMSTATES> 5
<STATE> 2
<MEAN> 25
 8.895345e-01 -7.090382e-01 -7.835193e-01 -2.147730e+00 -2.555840e+00 -5.090332e+00 5.095497e-01 7.429653e-01 3.456103e+00 1.307492e+00 -4.247118e+00 -2.827580e+00 1.022372e+00 -4.424604e-01 -5.708901e-01 -8.390743e-01 2.535398e-01 -5.117622e-01 -8.092163e-02 -4.404228e-01 1.076731e+00 6.862003e-01 -9.345273e-01 -1.152601e+00 1.887814e+00
<VARIANCE> 25
 5.576349e+01 3.977644e+01 3.779210e+01 5.215562e+01 5.936401e+01 8.270504e+01 6.617740e+01 4.652343e+01 5.226204e+01 3.669125e+01 4.874729e+01 3.794909e+01 6.547927e+00 2.825361e+00 3.925452e+00 5.648147e+00 5.214346e+00 7.093873e+00 5.841751e+00 4.213261e+00 5.543069e+00 4.730402e+00 5.245461e+00 3.265851e+00 9.779276e+00
<GCONST> 1.140688e+02
<STATE> 3
<MEAN> 25
 7.360461e+00 -1.315570e+00 -4.398508e+00 -4.815279e+00 -1.730329e+00 -7.089227e+00 2.631599e-01 -1.901675e+00 6.025792e+00 5.006017e+00 -5.826155e+00 -6.915706e+00 3.694783e-01 5.143629e-01 2.265538e-01 2.194386e-01 4.731578e-02 2.189958e-01 -1.784246e-01 -1.323981e-01 -8.119909e-02 9.863891e-02 1.302369e-01 2.405500e-01 -1.036629e+00
<VARIANCE> 25
 3.114523e+01 3.207169e+01 3.616066e+01 4.006778e+01 5.199445e+01 1.019705e+02 7.393077e+01 6.036263e+01 4.285552e+01 4.272733e+01 5.006194e+01 4.123816e+01 1.068094e+00 1.033105e+00 2.166321e+00 2.280598e+00 2.730144e+00 4.282464e+00 3.037583e+00 3.629970e+00 2.686291e+00 2.498904e+00 3.315591e+00 2.112668e+00 1.479830e+00
<GCONST> 1.030543e+02
<STATE> 4
<MEAN> 25
 5.688786e+00 2.862552e+00 2.842207e+00 -1.113987e+00 -1.639914e+00 -5.325348e+00 5.498696e-01 -1.329921e+00 1.851581e+00 1.743052e+00 -2.605621e+00 -8.686184e-01 -2.008505e-01 2.568302e-02 3.692067e-01 1.342944e-01 2.452979e-01 6.468872e-01 -2.189384e-02 2.509582e-01 -3.266286e-01 -4.627690e-01 6.390429e-01 4.858988e-01 -1.054695e+00
<VARIANCE> 25
 5.237716e+01 3.971866e+01 5.138594e+01 5.124179e+01 4.940018e+01 4.830697e+01 4.632666e+01 4.531154e+01 5.347516e+01 2.983996e+01 3.692075e+01 3.346870e+01 1.825821e+00 1.377610e+00 2.197077e+00 2.111282e+00 1.915587e+00 2.349869e+00 2.535730e+00 3.787913e+00 2.697878e+00 1.992808e+00 3.121965e+00 1.915380e+00 7.300219e-01
<GCONST> 1.007636e+02
<TRANSP> 5
 0.000000e+00 1.000000e+00 0.000000e+00 0.000000e+00 0.000000e+00
 0.000000e+00 5.565618e-01 4.434382e-01 0.000000e+00 0.000000e+00
 0.000000e+00 0.000000e+00 7.715359e-01 2.284642e-01 0.000000e+00
 0.000000e+00 0.000000e+00 0.000000e+00 6.333972e-01 3.666028e-01
 0.000000e+00 0.000000e+00 0.000000e+00 0.000000e+00 0.000000e+00
<ENDHMM>
~h "ao"
<BEGINHMM>
<NUMSTATES> 5
<STATE> 2
<MEAN> 25
 -2.974412e+00 7.146670e+00 -1.235389e+01 -1.380514e+01 -3.249154e+00 8.643132e+00 -9.643464e-02 -5.279348e-02 2.091045e+00 -8.187253e+00 5.686247e+00 3.426443e-01 1.174019e+00 2.098663e+00 1.223858e-02 -3.160053e+00 -1.814109e+00 1.080736e+00 7.259242e-01 -1.722314e+00 1.575813e+00 -1.938244e+00 -7.108136e-01 4.114090e-01 2.611599e+00
<VARIANCE> 25
 4.053321e+01 3.563371e+01 1.757387e+02 1.122141e+02 5.299971e+01 5.406913e+01 6.235246e+01 5.128845e+01 6.956274e+01 5.241138e+01 1.238897e+02 5.690053e+01 1.268530e+01 2.068091e+00 1.375147e+01 1.364302e+01 7.599981e+00 7.280716e+00 6.699801e+00 6.033875e+00 5.710990e+00 1.092723e+01 1.211400e+01 6.782572e+00 4.983925e+00
<GCONST> 1.225675e+02
<STATE> 3
<MEAN> 25
 8.644667e+00 1.313926e+01 -3.402519e+00 -2.303122e+01 -1.556289e+01 1.455862e+01 7.610159e+00 -9.844368e+00 1.077391e+01 -1.055902e+01 -6.126410e+00 4.238867e+00 2.297178e+00 4.692465e-01 1.714650e-01 -2.611813e+00 -2.309102e+00 1.251544e+00 -4.703969e-02 -1.439556e+00 1.949597e+00 -1.106627e+00 9.926592e-01 4.584876e-01 1.694432e+00
<VARIANCE> 25
 3.739063e+01 2.952195e+01 2.593223e+01 5.875436e+01 9.502096e+01 5.472678e+01 5.841055e+01 3.859589e+01 5.117618e+01 1.317074e+02 7.214402e+01 3.242981e+01 6.284186e+00 2.559653e+00 1.509694e+00 8.260963e+00 6.934042e+00 5.761624e+00 2.922292e+00 2.417046e+00 8.037694e+00 4.845861e+00 5.203648e+00 3.620559e+00 3.521462e+00
<GCONST> 1.119341e+02
<STATE> 4
<MEAN> 25
 1.024161e+01 1.372320e+01 -5.150740e+00 -2.792200e+01 -1.580260e+01 6.167963e+00 2.453314e+00 -7.590386e+00 1.727320e+01 -1.735152e+01 2.740789e+00 4.398619e+00 8.703057e-02 -5.001045e-01 1.516240e-02 5.250590e-01 1.351798e-01 -7.365307e-01 1.708583e-01 3.216682e-01 -3.709170e-01 6.935871e-01 1.181265e-01 -1.487413e-01 -4.404161e-01
<VARIANCE> 25
 1.235429e+01 2.608949e+01 1.712882e+01 5.868076e+01 3.672858e+01 9.887132e+01 3.175373e+01 4.634285e+01 5.515932e+01 5.404910e+01 2.989431e+01 2.869381e+01 4.189401e-01 9.995018e-01 9.673170e-01 2.671495e+00 1.909830e+00 1.645113e+00 1.520232e+00 2.143737e+00 2.615416e+00 2.897058e+00 1.597427e+00 1.752765e+00 6.251669e-01
<GCONST> 9.387135e+01
<TRANSP> 5
 0.000000e+00 1.000000e+00 0.000000e+00 0.000000e+00 0.000000e+00
 0.000000e+00 7.458169e-01 2.541831e-01 0.000000e+00 0.000000e+00
 0.000000e+00 0.000000e+00 6.819121e-01 3.180879e-01 0.000000e+00
 0.000000e+00 0.000000e+00 0.000000e+00 9.343252e-01 6.567477e-02
 0.000000e+00 0.000000e+00 0.000000e+00 0.000000e+00 0.000000e+00
<ENDHMM>
~h "aw"
<BEGINHMM>
<NUMSTATES> 5
<STATE> 2
<MEAN> 25
 5.641632e+00 2.428610e+00 -4.644991e+00 -1.069604e+01 5.041238e-01 5.354545e+00 -6.266676e-01 -4.314145e+00 8.258931e+00 2.168710e+00 -1.286844e+00 -7.174063e+00 3.065670e-01 -2.040480e-01 -4.458290e-01 -3.465560e-01 1.408816e-01 1.885308e-01 2.851809e-01 -2.354066e-01 1.780684e-01 1.419438e-01 -2.966933e-01 -3.884751e-01 1.226159e+00
<VARIANCE> 25
 3.625897e+01 5.525135e+01 2.642871e+01 8.119588e+01 3.930730e+01 5.663609e+01 6.459115e+01 5.812214e+01 3.815998e+01 5.337030e+01 5.024756e+01 3.690623e+01 4.040282e+00 3.468998e+00 2.708127e+00 4.860508e+00 3.547278e+00 4.348227e+00 5.018886e+00 5.784436e+00 5.027197e+00 3.840839e+00 4.215255e+00 4.300681e+00 8.821854e+00
<GCONST> 1.116611e+02
<STATE> 3
<MEAN> 25
 6.343214e+00 -3.742822e+00 -1.134817e+01 -1.195740e+01 5.083265e+00 4.141074e+00 6.756050e+00 -3.627085e+00 1.498007e+00 5.430397e+00 -4.467720e+00 -9.527743e+00 3.342642e-01 4.286727e-01 -1.595194e-01 -1.115705e-01 -2.425170e-01 -2.353341e-01 1.055446e-01 1.427806e-01 -4.016201e-01 6.942961e-01 2.828249e-01 3.679670e-01 -1.128661e+00
<VARIANCE> 25
 3.560321e+01 2.147268e+01 3.502953e+01 6.013432e+01 4.502106e+01 2.856031e+01 4.705079e+01 4.986357e+01 3.601406e+01 5.485571e+01 4.312580e+01 2.345152e+01 6.210438e-01 1.180918e+00 1.362380e+00 2.515411e+00 1.887826e+00 1.747638e+00 1.732707e+00 2.632619e+00 1.516364e+00 1.650669e+00 2.299710e+00 1.968929e+00 5.702401e-01
<GCONST> 9.516530e+01
<STATE> 4
<MEAN> 25
 4.270424e+00 2.790201e+00 -6.555970e+00 -6.102289e+00 1.646080e+00 2.379603e-01 3.839913e+00 2.402455e+00 1.261530e+00 5.544337e+00 2.790566e-01 -1.666895e+00 -9.782590e-01 4.118090e-02 8.453649e-01 4.879121e-01 1.000394e-01 -1.491588e-01 2.064661e-02 6.494094e-01 2.884294e-01 -1.219491e+00 4.771758e-01 4.322328e-01 -1.004053e+00
<VARIANCE> 25
 9.887453e+01 3.937821e+01 4.573181e+01 3.079383e+01 3.084510e+01 2.613146e+01 1.907069e+01 3.207039e+01 3.304508e+01 4.770519e+01 1.713445e+01 1.552503e+01 4.470638e+00 3.077268e+00 2.573382e+00 2.459157e+00 1.854518e+00 3.285818e+00 2.078539e+00 2.166312e+00 1.880739e+00 2.326614e+00 1.971934e+00 2.000585e+00 1.095547e+00
<GCONST> 9.823709e+01
<TRANSP> 5
 0.000000e+00 1.000000e+00 0.000000e+00 0.000000e+00 0.000000e+00
 0.000000e+00 9.209571e-01 7.904294e-02 0.000000e+00 0.000000e+00
 0.000000e+00 0.000000e+00 9.198861e-01 8.011390e-02 0.000000e+00
 0.000000e+00 0.000000e+00 0.000000e+00 8.411784e-01 1.588216e-01
 0.000000e+00 0.000000e+00 0.000000e+00 0.000000e+00 0.000000e+00
<ENDHMM>
~h "ay"
<BEGINHMM>
<NUMSTATES> 5
<STATE> 2
<MEAN> 25
 -4.814949e+00 6.026731e+00 -2.532258e+00 3.646334e+00 9.216735e-01 1.315002e+00 -1.397499e+00 -2.184449e+00 1.681538e+00 -9.706354e-01 -6.569365e-01 1.434244e-01 1.745394e+00 4.868562e-01 -4.327576e-01 -1.087560e+00 -7.485721e-01 -2.997240e-01 1.216359e-01 -1.665175e+00 9.456958e-01 -7.499384e-01 -2.494667e-01 -4.636473e-01 2.933347e+00
<VARIANCE> 25
 1.398622e+02 7.439586e+01 8.093311e+01 5.931499e+01 3.216823e+01 3.313972e+01 4.532940e+01 4.625098e+01 6.946547e+01 3.286096e+01 2.933058e+01 1.998378e+01 1.203867e+01 6.505348e+00 6.757430e+00 6.994441e+00 3.474986e+00 5.114940e+00 4.794029e+00 5.742845e+00 7.777494e+00 4.671059e+00 4.496678e+00 3.759440e+00 8.636935e+00
<GCONST> 1.153858e+02
<STATE> 3
<MEAN> 25
 1.033182e+01 1.730868e+00 -6.453844e+00 -1.147176e+01 -5.452456e+00 4.444531e+00 1.457438e+00 -1.036082e+01 1.031507e+01 -6.270109e+00 -1.163679e+00 -3.258136e+00 -1.048022e-01 -1.415755e+00 -2.199787e-01 -1.216852e+00 9.007123e-01 -9.470826e-02 1.335216e+00 2.714721e-01 2.214619e-01 4.022440e-01 -3.158833e-01 -1.346699e+00 1.543460e+00
<VARIANCE> 25
 2.365851e+01 9.611423e+01 9.297298e+01 1.754936e+02 7.818632e+01 7.910311e+01 9.689269e+01 7.383437e+01 8.163493e+01 8.603505e+01 5.220934e+01 8.084023e+01 4.169921e+00 1.675059e+00 3.046872e+00 4.610265e+00 5.077352e+00 6.143894e+00 7.507498e+00 6.532660e+00 5.753215e+00 3.633791e+00 3.404444e+00 3.927564e+00 3.956932e+00
<GCONST> 1.171138e+02
<STATE> 4
<MEAN> 25
 6.103334e+00 -6.589145e+00 -5.413745e+00 -7.354013e+00 1.036093e+00 -5.518056e+00 7.413454e+00 -3.172297e+00 6.317482e+00 -9.930049e-01 -2.437957e+00 -9.077271e+00 8.379792e-02 2.235995e-01 3.645642e-01 4.201945e-01 -4.464653e-01 -5.910382e-01 -2.346451e-01 5.231957e-01 -2.659737e-01 1.648368e-01 5.173092e-02 4.296319e-01 -7.880927e-01
<VARIANCE> 25
 9.810715e+00 2.643892e+01 5.112718e+01 3.676868e+01 8.430746e+01 1.022822e+02 3.084378e+01 7.045953e+01 3.534938e+01 4.068990e+01 3.264529e+01 3.447261e+01 6.033557e-01 8.833857e-01 1.722857e+00 1.623240e+00 3.215091e+00 3.677377e+00 2.119765e+00 3.259049e+00 2.143490e+00 2.541254e+00 1.879622e+00 2.045012e+00 9.648470e-01
<GCONST> 9.789523e+01
<TRANSP> 5
 0.000000e+00 1.000000e+00 0.000000e+00 0.000000e+00 0.000000e+00
 0.000000e+00 8.132678e-01 1.867321e-01 0.000000e+00 0.000000e+00
 0.000000e+00 0.000000e+00 8.456340e-01 1.543659e-01 0.000000e+00
 0.000000e+00 0.000000e+00 0.000000e+00 9.415317e-01 5.846839e-02
 0.000000e+00 0.000000e+00 0.000000e+00 0.000000e+00 0.000000e+00
<ENDHMM>
~h "ch"
<BEGINHMM>
<NUMSTATES> 5
<STATE> 2
<MEAN> 25
 -5.835748e+00 -1.473396e+00 2.006258e+00 9.210539e+00 2.448101e+00 2.508273e+00 -4.006841e+00 3.234833e+00 2.712245e+00 -3.316904e+00 -1.869877e+00 4.912547e+00 8.445143e-01 -3.378261e-01 -3.275991e-01 -1.367398e-01 -1.498422e-01 7.189647e-01 -5.634246e-01 -4.791756e-01 2.926241e-01 -3.484201e-01 3.516086e-01 4.306851e-01 -4.792023e-01
<VARIANCE> 25
 3.405125e+01 1.804759e+01 5.991883e+01 3.795192e+01 3.417539e+01 3.949965e+01 3.618620e+01 1.515737e+01 4.855303e+01 2.388213e+01 2.639906e+01 2.225575e+01 1.681180e+00 4.166677e+00 8.599127e+00 6.161961e+00 5.307291e+00 5.843223e+00 3.430718e+00 8.470913e-01 7.777182e+00 3.717599e+00 1.307150e+00 2.862531e+00 5.225776e-01
<GCONST> 1.014965e+02
<STATE> 3
<MEAN> 25
 3.626134e-01 -3.541029e+00 1.938058e+00 5.068575e+00 4.620051e+00 3.932264e+00 4.209402e-01 3.147068e+00 -2.928764e+00 2.105302e+00 2.932733e-01 2.868799e+00 -2.486337e-02 -3.709384e-02 -2.822962e-02 6.543539e-03 -4.513127e-02 1.215312e-01 -7.236800e-02 1.893794e-01 5.825825e-02 1.090782e-01 -2.885349e-03 -2.758363e-02 -1.276914e-01
<VARIANCE> 25
 1.449692e+00 1.142133e+01 3.301904e+00 5.369779e+00 6.441547e+00 9.833843e+00 1.052210e+01 1.486319e+01 1.106683e+01 1.263548e+01 1.373437e+01 1.500929e+01 2.396213e-01 2.378549e-01 3.942381e-01 5.752113e-01 7.783056e-01 7.227104e-01 1.169470e+00 1.451936e+00 1.314720e+00 1.025338e+00 1.488387e+00 9.900077e-01 3.289751e-02
<GCONST> 6.397643e+01
<STATE> 4
<MEAN> 25
 -9.692016e+00 8.804388e-01 2.016634e+00 4.676071e-01 -5.294168e+00 3.347850e-02 -9.250200e-01 1.805179e-01 6.178050e+00 -4.055585e-01 -1.492482e+00 1.426585e+00 -2.968790e-01 1.966114e-01 1.297943e-02 -2.973287e-01 -5.674416e-01 2.936289e-02 -1.899242e-01 -5.445297e-01 3.876899e-01 -1.727193e-01 -4.170346e-01 -3.315584e-01 1.312301e+00
<VARIANCE> 25
 1.239049e+02 2.884938e+01 2.705653e+01 3.587526e+01 3.382705e+01 9.481683e+01 2.234370e+01 4.486561e+01 3.944726e+01 1.885932e+01 2.019187e+01 2.307232e+01 9.200467e+00 2.959344e+00 3.035279e+00 4.961730e+00 4.956620e+00 8.845928e+00 2.458552e+00 4.370474e+00 5.169616e+00 2.512124e+00 2.937279e+00 2.134417e+00 8.509830e+00
<GCONST> 1.074580e+02
<TRANSP> 5
 0.000000e+00 1.000000e+00 0.000000e+00 0.000000e+00 0.000000e+00
 0.000000e+00 7.146165e-01 2.853835e-01 0.000000e+00 0.000000e+00
 0.000000e+00 0.000000e+00 9.431406e-01 5.685940e-02 0.000000e+00
 0.000000e+00 0.000000e+00 0.000000e+00 9.047865e-01 9.521350e-02
 0.000000e+00 0.000000e+00 0.000000e+00 0.000000e+00 0.000000e+00
<ENDHMM>
~h "dh"
<BEGINHMM>
<NUMSTATES> 5
<STATE> 2
<MEAN> 25
 1.704825e+00 4.250098e+00 -1.537211e+00 -1.468842e+00 -6.608659e+00 -9.298756e+00 -5.599533e+00 -5.432427e+00 8.970112e+00 -1.117990e+00 -7.977249e+00 -5.427025e+00 1.006409e+00 -1.377703e+00 1.343966e-02 -9.129097e-01 -4.637266e-01 1.043405e-01 -7.099648e-01 -6.489789e-02 5.216297e-01 5.895983e-01 -1.178559e-01 -1.101977e+00 8.250568e-01
<VARIANCE> 25
 3.490139e+01 3.587246e+01 2.405349e+01 2.854175e+01 3.630030e+01 3.188627e+01 6.929850e+01 7.154218e+01 3.002065e+01 2.396735e+01 3.316425e+01 3.783660e+01 3.371392e+00 2.000463e+00 2.229457e+00 2.808222e+00 3.080953e+00 1.946186e+00 3.508262e+00 5.796506e+00 2.730210e+00 2.884959e+00 3.296872e+00 3.430745e+00 2.783248e+00
<GCONST> 1.029469e+02
<STATE> 3
<MEAN> 25
 1.062831e+01 -4.172966e+00 -1.716129e+00 -5.950147e-01 -9.989393e+00 -9.941150e+00 -6.091298e+00 9.374167e-01 9.331735e+00 7.141589e+00 -6.092742e+00 -3.573239e+00 -3.466085e-01 5.615699e-02 -1.300682e-01 1.338018e-01 7.908852e-01 3.979314e-01 8.781920e-02 5.780500e-01 -4.891647e-01 9.331173e-02 6.349506e-01 5.557277e-01 -1.266851e+00
<VARIANCE> 25
 1.957811e+01 1.926555e+01 9.677804e+00 4.755741e+01 2.919550e+01 5.442517e+01 3.810994e+01 6.950160e+01 2.072641e+01 2.280467e+01 2.944477e+01 4.930965e+01 1.776646e+00 1.548203e+00 8.287396e-01 2.121401e+00 8.640764e-01 2.740498e+00 2.113868e+00 3.363925e+00 1.610752e+00 2.312335e+00 2.149444e+00 1.873129e+00 3.240390e-01
<GCONST> 9.268371e+01
<STATE> 4
<MEAN> 25
 4.143516e+00 -3.492804e+00 -5.096235e+00 -8.646465e+00 -5.612403e-02 -7.298949e+00 -8.725434e-01 -1.776675e+00 6.072235e+00 4.422148e+00 -4.530917e+00 -1.062658e+01 -7.196105e-02 2.353076e-02 1.538548e-01 7.753041e-03 3.377296e-01 3.310802e-01 4.713998e-01 -2.515861e-01 -4.409232e-01 7.475124e-02 1.092664e-01 4.753881e-01 -7.602277e-01
<VARIANCE> 25
 1.473559e+01 1.837859e+01 1.441649e+01 4.454576e+01 2.514067e+01 3.560147e+01 2.331742e+01 2.995656e+01 2.427924e+01 3.585474e+01 7.256644e+01 6.729097e+01 1.241706e+00 1.431089e+00 1.336259e+00 2.587312e+00 2.074224e+00 4.488142e+00 2.269899e+00 3.073721e+00 2.582635e+00 2.624055e+00 3.641011e+00 3.552938e+00 1.361816e+00
<GCONST> 9.739316e+01
<TRANSP> 5
 0.000000e+00 1.000000e+00 0.000000e+00 0.000000e+00 0.000000e+00
 0.000000e+00 8.615881e-01 1.384119e-01 0.000000e+00 0.000000e+00
 0.000000e+00 0.000000e+00 8.841103e-01 1.158897e-01 0.000000e+00
 0.000000e+00 0.000000e+00 0.000000e+00 8.505056e-01 1.494945e-01
 0.000000e+00 0.000000e+00 0.000000e+00 0.000000e+00 0.000000e+00
<ENDHMM>
~h "eh"
<BEGINHMM>
<NUMSTATES> 5
<STATE> 2
<MEAN> 25
 2.720250e+00 1.398061e+00 2.309524e+00 -1.476192e+00 -3.312876e+00 -7.932526e+00 2.432436e-01 9.635782e-02 7.331850e-01 -1.676544e+00 -5.262081e+00 -2.065788e+00 5.539960e-01 -1.146467e+00 -1.222470e-02 -9.620203e-01 -9.566442e-01 -1.785838e+00 1.069122e+00 1.092549e+00 6.341642e-01 -1.831724e-01 -4.767838e-01 -4.105022e-01 2.996050e+00
<VARIANCE> 25
 5.688861e+01 5.049472e+01 5.124533e+01 5.011252e+01 7.116019e+01 6.997203e+01 6.727557e+01 3.950291e+01 4.253519e+01 3.067631e+01 5.515904e+01 4.188261e+01 5.524953e+00 5.124650e+00 5.064411e+00 2.711174e+00 3.952904e+00 6.559416e+00 6.286180e+00 5.016894e+00 3.781751e+00 3.615050e+00 6.069014e+00 3.003083e+00 7.164372e+00
<GCONST> 1.132346e+02
<STATE> 3
<MEAN> 25
 4.322688e+00 -4.134391e+00 -4.525689e+00 -4.847153e+00 -4.667500e+00 -1.218697e+01 8.824549e+00 4.056000e+00 7.391664e+00 -1.303978e+00 -5.622324e+00 -6.250452e+00 3.940792e-02 1.403392e-01 -4.643056e-02 1.037243e-01 6.363721e-03 -4.071962e-03 8.361956e-02 9.019474e-02 3.081419e-02 1.643730e-01 -7.477771e-02 1.507406e-01 -6.579957e-01
<VARIANCE> 25
 2.054453e+01 1.685624e+01 3.231763e+01 2.297761e+01 2.777288e+01 5.431073e+01 5.780921e+01 3.603107e+01 2.867686e+01 2.554513e+01 4.263580e+01 3.231717e+01 8.736540e-01 9.996495e-01 1.885206e+00 1.324143e+00 1.860386e+00 2.297263e+00 3.194982e+00 2.631666e+00 1.610758e+00 2.029415e+00 1.719029e+00 1.692656e+00 1.309836e+00
<GCONST> 9.407304e+01
<STATE> 4
<MEAN> 25
 4.207962e+00 9.917557e-01 1.187525e+00 -2.140335e+00 -7.845182e+00 -1.119688e+01 2.597833e+00 1.743661e+00 3.530468e+00 1.331829e+00 -3.175140e+00 -1.785581e+00 -1.301355e-01 3.085429e-01 2.294801e-02 4.074177e-01 3.301849e-01 3.946877e-01 -5.501240e-01 -3.704012e-01 -5.166687e-03 -9.309850e-02 4.240696e-01 1.894827e-01 -1.043492e+00
<VARIANCE> 25
 2.935577e+01 2.330009e+01 3.457441e+01 2.726941e+01 3.208176e+01 4.486689e+01 3.790808e+01 4.795260e+01 6.349895e+01 3.230160e+01 2.534611e+01 2.514677e+01 2.657336e+00 1.995416e+00 1.934950e+00 1.690933e+00 1.696017e+00 3.233468e+00 3.328602e+00 3.094878e+00 2.881397e+00 2.467357e+00 2.230128e+00 1.563675e+00 1.424601e+00
<GCONST> 9.863670e+01
<TRANSP> 5
 0.000000e+00 1.000000e+00 0.000000e+00 0.000000e+00 0.000000e+00
 0.000000e+00 7.369841e-01 2.630159e-01 0.000000e+00 0.000000e+00
 0.000000e+00 0.000000e+00 8.821604e-01 1.178396e-01 0.000000e+00
 0.000000e+00 0.000000e+00 0.000000e+00 7.966006e-01 2.033994e-01
 0.000000e+00 0.000000e+00 0.000000e+00 0.000000e+00 0.000000e+00
<ENDHMM>
~h "er"
<BEGINHMM>
<NUMSTATES> 5
<STATE> 2
<MEAN> 25
 -3.408232e+00 -3.429187e+00 -1.195673e+00 1.512480e+00 4.149379e+00 2.303246e+00 -4.298730e-01 1.486503e+00 -1.728141e+00 -7.735988e-01 4.507958e-01 1.193065e+00 -7.068516e-02 -3.585151e-02 7.487368e-04 8.268508e-02 3.049540e-02 1.594373e-01 2.847204e-02 2.454000e-02 -1.292952e-01 -7.866450e-02 -3.854198e-02 -3.019733e-02 -1.555244e-01
<VARIANCE> 25
 6.225451e+00 4.356400e+00 5.524164e+00 7.781735e+00 1.386650e+01 1.437378e+01 1.263942e+01 1.690213e+01 2.014051e+01 1.633505e+01 1.093338e+01 1.426332e+01 2.055492e-01 2.544772e-01 4.976685e-01 5.902439e-01 9.904524e-01 1.178486e+00 1.228232e+00 1.562558e+00 1.746777e+00 1.440392e+00 9.733365e-01 1.368631e+00 8.754440e-02
<GCONST> 6.991758e+01
<STATE> 3
<MEAN> 25
 -2.074489e+00 -1.496794e+00 -1.427935e+00 2.540993e+00 7.250223e-01 1.014071e+00 -2.552149e-01 1.673243e+00 -2.155985e-01 -1.663746e-01 -1.488924e-01 1.230845e+00 8.837895e-02 3.218938e-02 2.824255e-01 2.149806e-01 -1.212924e-01 5.390458e-01 1.206560e-01 -2.043859e-01 -6.048344e-01 -8.114334e-01 -3.835041e-01 -4.307265e-01 -1.720845e-01
<VARIANCE> 25
 2.975406e+01 1.209662e+01 9.919053e+00 2.682327e+01 4.231581e+01 3.940774e+01 4.112281e+01 2.305685e+01 4.750678e+01 1.768378e+01 2.177866e+01 1.827904e+01 1.494886e+00 8.853148e-01 1.697739e+00 1.246974e+00 1.532843e+00 1.926308e+00 1.953029e+00 1.691106e+00 2.639600e+00 2.325966e+00 1.140235e+00 1.360236e+00 3.435855e-01
<GCONST> 8.890347e+01
<STATE> 4
<MEAN> 25
 -1.428507e+00 -1.908907e+00 -1.825489e+00 2.837335e-01 -1.120038e+00 1.795766e+00 -1.059927e+00 2.324401e+00 -2.601538e+00 -1.495135e+00 -5.948501e-01 1.538239e-03 2.589877e-01 3.360936e-02 9.042907e-02 -2.588521e-01 -1.469016e-01 1.764543e-01 8.166721e-02 1.218142e-02 -8.222599e-02 4.377873e-02 -7.746542e-02 -2.393668e-01 3.485202e-02
<VARIANCE> 25
 1.135355e+01 8.342597e+00 1.351847e+01 2.341722e+01 2.990068e+01 2.725945e+01 1.911910e+01 1.660440e+01 3.024642e+01 1.542529e+01 2.284289e+01 1.703668e+01 1.477518e+00 6.422454e-01 1.402673e+00 2.274963e+00 2.625438e+00 3.312769e+00 1.503322e+00 2.316543e+00 1.790869e+00 2.221736e+00 1.730790e+00 1.551228e+00 4.576380e-01
<GCONST> 8.693403e+01
<TRANSP> 5
 0.000000e+00 1.000000e+00 0.000000e+00 0.000000e+00 0.000000e+00
 0.000000e+00 9.162866e-01 8.371335e-02 0.000000e+00 0.000000e+00
 0.000000e+00 0.000000e+00 8.875604e-02 9.112439e-01 0.000000e+00
 0.000000e+00 0.000000e+00 0.000000e+00 5.478765e-01 4.521236e-01
 0.000000e+00 0.000000e+00 0.000000e+00 0.000000e+00 0.000000e+00
<ENDHMM>
~h "ey"
<BEGINHMM>
<NUMSTATES> 5
<STATE> 2
<MEAN> 25
 1.381621e+00 4.019990e-01 7.923707e+00 -5.220173e+00 -1.305039e+01 -9.576536e+00 4.131748e+00 6.209539e-02 -7.416415e-01 1.817496e+00 5.434732e-01 -1.301559e+00 -8.562044e-02 5.706630e-01 7.941663e-01 -2.658364e-01 -5.976791e-01 -3.607298e-01 2.347094e-01 -7.929169e-01 -4.928906e-01 1.732352e-01 4.337629e-02 1.712793e-01 6.148063e-01
<VARIANCE> 25
 1.536189e+01 1.708252e+01 3.620686e+01 2.668487e+01 4.174236e+01 4.977966e+01 5.877480e+01 2.233322e+01 3.339700e+01 3.197057e+01 2.703565e+01 2.176200e+01 7.877789e-01 1.084641e+00 1.865758e+00 1.618386e+00 2.471136e+00 3.271971e+00 4.427289e+00 2.030410e+00 2.844925e+00 2.446754e+00 2.620963e+00 1.738743e+00 7.088164e+00
<GCONST> 9.720906e+01
<STATE> 3
<MEAN> 25
 -4.042972e-01 5.066778e+00 1.046322e+01 2.290245e+00 -1.194784e+01 -7.873527e+00 5.769690e-01 -2.687582e+00 9.861436e-01 -2.747406e+00 -1.342609e+00 -1.752734e-01 3.766719e-01 1.427824e-02 -2.219784e-01 1.124918e-01 3.029034e-01 -8.244361e-02 3.748843e-03 6.147690e-02 2.884591e-01 -1.144749e-02 -2.535683e-01 1.019298e-01 -5.150518e-01
<VARIANCE> 25
 1.048069e+02 3.693360e+01 5.658099e+01 3.500101e+01 4.492237e+01 5.101098e+01 4.941312e+01 3.821090e+01 4.729202e+01 3.303366e+01 2.824324e+01 2.413014e+01 5.666881e+00 2.634881e+00 3.304747e+00 1.891245e+00 2.163784e+00 3.502243e+00 3.677772e+00 2.675999e+00 2.941272e+00 2.446563e+00 1.680726e+00 2.152855e+00 1.602507e+00
<GCONST> 1.035368e+02
<STATE> 4
<MEAN> 25
 3.537547e+00 7.885827e+00 1.034312e+01 -4.035419e+00 -1.002706e+01 -6.776120e+00 1.236590e+00 -7.102017e+00 -4.595684e+00 4.020723e+00 -1.174169e+00 1.643427e+00 1.236970e-01 1.149964e-01 -3.481349e-01 6.150337e-01 9.965571e-01 2.243694e-01 -5.987448e-01 7.545105e-02 1.152987e-01 -9.167486e-02 3.408454e-01 8.017404e-02 -1.349673e+00
<VARIANCE> 25
 3.226639e+01 2.342276e+01 4.824827e+01 6.090652e+01 6.419306e+01 4.698711e+01 3.996446e+01 4.875478e+01 4.276731e+01 3.200567e+01 3.132187e+01 2.565808e+01 1.581266e+00 2.110518e+00 2.208457e+00 1.681304e+00 2.404622e+00 2.060384e+00 2.982514e+00 2.699516e+00 2.358371e+00 2.266440e+00 2.292288e+00 1.426432e+00 7.869191e-01
<GCONST> 9.888221e+01
<TRANSP> 5
 0.000000e+00 1.000000e+00 0.000000e+00 0.000000e+00 0.000000e+00
 0.000000e+00 8.713302e-01 1.286698e-01 0.000000e+00 0.000000e+00
 0.000000e+00 0.000000e+00 8.753646e-01 1.246354e-01 0.000000e+00
 0.000000e+00 0.000000e+00 0.000000e+00 8.539727e-01 1.460273e-01
 0.000000e+00 0.000000e+00 0.000000e+00 0.000000e+00 0.000000e+00
<ENDHMM>
~h "hh"
<BEGINHMM>
<NUMSTATES> 5
<STATE> 2
<MEAN> 25
 -5.906401e+00 -3.967301e+00 5.091112e-01 -1.387395e+00 1.217994e+00 2.358970e+00 4.300284e+00 1.678048e+00 1.396927e+00 -2.193330e+00 -1.582386e+00 2.344579e+00 -1.021722e-01 8.635611e-02 -7.309108e-02 -1.070688e+00 2.058901e-01 2.923897e-01 1.537797e+00 -4.058820e-02 6.450998e-01 -4.826303e-01 -8.776343e-01 -4.885593e-01 1.726312e+00
<VARIANCE> 25
 1.298499e+01 2.632904e+01 1.046874e+01 6.273265e+01 6.361544e+01 6.504470e+01 6.450105e+01 7.002180e+01 4.518103e+01 2.789507e+01 4.369379e+01 2.087747e+01 2.829027e+00 2.903658e+00 1.273344e+00 5.911985e+00 4.450576e+00 4.863748e+00 5.740342e+00 5.581719e+00 5.747018e+00 3.647089e+00 3.778307e+00 3.463526e+00 3.935916e+00
<GCONST> 1.066178e+02
<STATE> 3
<MEAN> 25
 -1.432203e+00 1.764247e+00 -3.664948e+00 -8.796969e+00 1.674122e+00 2.845575e+00 8.802955e+00 9.547524e-01 9.759218e+00 -5.567310e+00 -4.453687e+00 -4.502581e+00 1.262061e+00 8.464869e-01 -9.521507e-01 -1.159499e+00 -6.181329e-02 -2.251447e-01 -5.901672e-01 -6.282635e-01 1.059334e+00 8.339947e-02 6.052859e-01 -1.246374e+00 2.374403e+00
<VARIANCE> 25
 6.198378e+01 2.289280e+01 3.490010e+01 1.395169e+02 4.761160e+01 1.000445e+02 3.527074e+01 4.504990e+01 4.166467e+01 2.776877e+01 4.197536e+01 5.557982e+01 4.690166e+00 2.958359e+00 2.076339e+00 5.681888e+00 2.483662e+00 4.101213e+00 3.164072e+00 3.887347e+00 4.119832e+00 2.007798e+00 2.490543e+00 3.880533e+00 3.289569e+00
<GCONST> 1.078440e+02
<STATE> 4
<MEAN> 25
 7.839761e+00 1.436380e+00 -8.388650e+00 -1.615656e+01 3.912694e+00 1.248875e+00 6.032602e+00 -1.087822e+01 8.009086e+00 8.288040e-01 -1.368595e+00 -1.006929e+01 5.566411e-01 1.728905e-01 3.926400e-04 9.213745e-02 -4.201445e-01 -6.147724e-01 -4.919438e-01 -2.434290e-01 -6.474055e-01 2.959739e-01 1.941816e-01 4.536617e-01 -9.053760e-01
<VARIANCE> 25
 1.932701e+01 1.660966e+01 3.126023e+01 6.728852e+01 3.317224e+01 5.090869e+01 5.623178e+01 3.632148e+01 3.536278e+01 2.762524e+01 1.797007e+01 6.039483e+01 6.601643e-01 1.432888e+00 1.598278e+00 4.641256e+00 1.419095e+00 3.627287e+00 2.921435e+00 3.467038e+00 2.390221e+00 2.100572e+00 1.968051e+00 2.843713e+00 2.084744e+00
<GCONST> 9.827001e+01
<TRANSP> 5
 0.000000e+00 1.000000e+00 0.000000e+00 0.000000e+00 0.000000e+00
 0.000000e+00 8.426566e-01 1.573435e-01 0.000000e+00 0.000000e+00
 0.000000e+00 0.000000e+00 8.132032e-01 1.867968e-01 0.000000e+00
 0.000000e+00 0.000000e+00 0.000000e+00 8.485862e-01 1.514138e-01
 0.000000e+00 0.000000e+00 0.000000e+00 0.000000e+00 0.000000e+00
<ENDHMM>
~h "ih"
<BEGINHMM>
<NUMSTATES> 5
<STATE> 2
<MEAN> 25
 -2.140309e+00 5.201798e+00 7.771850e+00 2.131907e+00 -7.655581e+00 -3.010863e+00 -1.070158e+00 -4.368704e+00 -2.448849e+00 -2.928154e+00 -1.000154e+00 -1.512137e+00 2.783449e-01 6.846617e-01 2.366474e+00 -6.523004e-01 -2.015279e+00 -1.067291e+00 4.577539e-02 -6.861749e-01 -1.578152e+00 -6.273552e-01 -2.108380e-01 -7.729884e-01 2.562613e+00
<VARIANCE> 25
 8.669617e+01 5.638023e+01 9.753753e+01 6.527490e+01 7.908654e+01 5.501120e+01 5.052982e+01 5.044633e+01 5.403630e+01 4.932441e+01 4.969175e+01 3.335342e+01 8.895275e+00 5.946499e+00 6.130040e+00 6.691055e+00 5.387661e+00 4.572542e+00 4.647822e+00 4.925498e+00 6.272220e+00 5.649396e+00 3.836282e+00 2.586816e+00 6.292517e+00
<GCONST> 1.164422e+02
<STATE> 3
<MEAN> 25
 1.662879e-01 8.020253e+00 1.598264e+01 -4.599863e+00 -1.618462e+01 -6.220572e+00 -1.978116e+00 -6.799731e+00 -1.052917e+01 -6.378390e-01 -1.070037e+00 -4.905772e+00 3.875042e-01 2.259237e-01 -1.120456e-01 -1.728122e-01 2.199639e-01 5.238600e-02 -2.155873e-01 -2.458097e-01 -3.757839e-02 4.469345e-01 1.764507e-01 1.831940e-01 -9.681150e-01
<VARIANCE> 25
 1.725444e+01 2.792367e+01 3.757959e+01 3.803425e+01 2.361487e+01 4.314238e+01 3.162532e+01 3.315509e+01 2.689882e+01 5.148397e+01 1.943349e+01 3.012398e+01 9.032010e-01 1.497421e+00 1.479521e+00 2.138802e+00 2.392295e+00 2.175282e+00 1.719507e+00 1.892977e+00 2.421983e+00 2.222913e+00 1.885311e+00 2.003954e+00 1.372804e+00
<GCONST> 9.448962e+01
<STATE> 4
<MEAN> 25
 -1.077240e+00 8.018997e+00 8.934337e+00 -2.172816e+00 -9.178722e+00 -3.441238e+00 -3.396473e+00 -6.589001e+00 -1.896847e+00 6.018435e-01 -6.329951e-01 1.387826e+00 -2.785113e-01 -4.662065e-01 -9.701359e-01 5.786887e-01 8.815565e-01 -3.426809e-03 -1.599736e-01 2.876778e-01 9.612671e-01 6.043335e-02 -1.724656e-01 4.549291e-01 -7.696741e-01
<VARIANCE> 25
 1.041529e+02 3.022098e+01 3.923521e+01 5.440689e+01 3.448034e+01 7.599642e+01 5.876262e+01 6.186537e+01 4.520850e+01 4.599623e+01 4.139089e+01 1.771977e+01 3.583904e+00 1.621198e+00 2.370368e+00 2.361867e+00 2.053270e+00 3.351074e+00 1.982880e+00 3.242203e+00 2.839262e+00 2.618617e+00 3.352576e+00 1.938425e+00 1.376441e+00
<GCONST> 1.034434e+02
<TRANSP> 5
 0.000000e+00 1.000000e+00 0.000000e+00 0.000000e+00 0.000000e+00
 0.000000e+00 7.819839e-01 2.180162e-01 0.000000e+00 0.000000e+00
 0.000000e+00 0.000000e+00 8.864861e-01 1.135139e-01 0.000000e+00
 0.000000e+00 0.000000e+00 0.000000e+00 8.081373e-01 1.918627e-01
 0.000000e+00 0.000000e+00 0.000000e+00 0.000000e+00 0.000000e+00
<ENDHMM>
~h "iy"
<BEGINHMM>
<NUMSTATES> 5
<STATE> 2
<MEAN> 25
 1.998753e+00 4.057067e+00 8.187236e+00 2.342149e+00 -8.326421e+00 -6.719273e+00 2.726307e+00 -5.827146e+00 -4.097982e+00 -4.240241e+00 -1.040560e+00 -1.751274e+00 2.573920e-01 5.931131e-01 1.941280e+00 -1.338856e+00 -1.936765e+00 -5.783715e-01 -2.594975e-01 -6.507799e-01 -1.681332e+00 5.393598e-02 2.016304e-01 -6.013203e-01 2.309662e+00
<VARIANCE> 25
 1.045004e+02 5.755801e+01 6.041757e+01 4.538886e+01 8.926886e+01 6.371980e+01 7.773660e+01 9.753086e+01 7.196105e+01 4.869571e+01 2.854819e+01 3.788494e+01 5.234941e+00 4.932596e+00 3.923446e+00 3.224983e+00 6.875817e+00 4.461687e+00 6.238610e+00 6.395181e+00 5.241768e+00 4.710114e+00 4.100408e+00 2.627013e+00 4.438458e+00
<GCONST> 1.152655e+02
<STATE> 3
<MEAN> 25
 -4.047945e-01 8.814175e+00 1.687432e+01 -4.711706e+00 -1.612197e+01 -6.396365e+00 -2.639364e+00 -9.105582e+00 -1.041764e+01 -4.080629e-01 -1.497003e+00 -5.893193e+00 3.744379e-01 8.649116e-02 8.889575e-02 5.430806e-02 3.985855e-01 2.851518e-02 -6.523869e-02 -7.390075e-02 2.099151e-01 3.075925e-01 -1.571450e-02 -2.050545e-02 -8.107675e-01
<VARIANCE> 25
 2.001947e+01 2.360636e+01 2.606154e+01 3.683830e+01 2.818572e+01 4.727484e+01 4.140906e+01 3.044691e+01 2.661444e+01 3.198529e+01 2.575184e+01 3.295934e+01 9.697333e-01 1.586596e+00 1.378532e+00 2.218282e+00 2.748677e+00 2.372895e+00 2.094532e+00 2.119044e+00 2.252821e+00 1.911909e+00 2.024991e+00 2.000908e+00 9.686250e-01
<GCONST> 9.453865e+01
<STATE> 4
<MEAN> 25
 5.221719e+00 1.003223e+00 8.973110e+00 2.257035e+00 -5.027890e+00 -8.055986e+00 -4.367832e+00 -3.465797e+00 -2.678663e+00 6.243260e-01 1.556579e+00 6.414101e-01 -1.193102e-01 -5.118594e-01 -1.324003e+00 2.068473e-01 1.191983e+00 3.517255e-01 2.471876e-02 6.819483e-01 8.920630e-01 2.176758e-02 -4.101020e-02 6.533910e-02 -7.544136e-01
<VARIANCE> 25
 2.999376e+01 2.465275e+01 5.890586e+01 3.798854e+01 4.615207e+01 6.565038e+01 3.437688e+01 5.749038e+01 3.279865e+01 3.116145e+01 2.084433e+01 3.693783e+01 1.581999e+00 1.377787e+00 2.266821e+00 1.800841e+00 1.728064e+00 2.018117e+00 1.228017e+00 2.583244e+00 2.996524e+00 2.270327e+00 2.160707e+00 2.847205e+00 7.694894e-01
<GCONST> 9.750873e+01
<TRANSP> 5
 0.000000e+00 1.000000e+00 0.000000e+00 0.000000e+00 0.000000e+00
 0.000000e+00 7.618191e-01 2.381809e-01 0.000000e+00 0.000000e+00
 0.000000e+00 0.000000e+00 8.973936e-01 1.026064e-01 0.000000e+00
 0.000000e+00 0.000000e+00 0.000000e+00 7.828401e-01 2.171600e-01
 0.000000e+00 0.000000e+00 0.000000e+00 0.000000e+00 0.000000e+00
<ENDHMM>
~h "jh"
<BEGINHMM>
<NUMSTATES> 5
<STATE> 2
<MEAN> 25
 -1.900906e+00 -4.879180e+00 -8.253583e-01 3.109442e+00 3.689910e-01 7.529688e-01 -1.057817e-01 1.718938e+00 -5.705275e+00 -4.889019e-01 1.011782e+00 -1.591045e-01 5.645176e-02 -2.501632e-02 -3.057574e-02 -3.698907e-02 1.286505e-01 -9.437008e-03 -1.337302e-01 1.289520e-01 -1.293022e-01 1.956014e-02 6.401549e-02 -9.986193e-03 -2.099618e-01
<VARIANCE> 25
 5.708570e+00 6.959364e+00 8.596272e+00 7.791874e+00 2.108864e+01 1.983427e+01 1.161255e+01 1.432225e+01 1.940969e+01 1.747719e+01 1.442757e+01 1.036620e+01 4.238159e-01 3.077933e-01 6.684542e-01 1.162722e+00 1.887093e+00 2.733372e+00 1.659237e+00 1.505136e+00 2.316941e+00 2.045043e+00 1.783004e+00 1.204401e+00 1.576905e-01
<GCONST> 7.655762e+01
<STATE> 3
<MEAN> 25
 4.137047e+00 -2.546581e+00 5.020769e+00 -7.440792e-01 -6.556977e+00 -4.698678e+00 -4.396609e+00 3.872980e-01 9.243068e-02 2.798926e-01 1.253398e+00 -3.323444e+00 -9.212310e-01 8.257702e-02 3.220285e-01 -4.241151e-01 6.261996e-01 5.581045e-01 5.125880e-01 -4.446639e-01 -1.233888e-01 -6.639970e-01 -7.377899e-01 2.104582e-01 -2.568736e-01
<VARIANCE> 25
 5.665013e+00 2.140142e+01 2.443165e+01 7.620065e+00 5.341791e+01 1.695427e+01 6.400621e+00 5.374324e+00 1.608810e+01 9.883640e+00 1.545735e+01 8.702559e+00 2.210083e+00 3.162720e+00 2.039222e+00 9.015964e-01 1.684111e+00 2.717089e+00 1.662670e+00 6.399388e-01 1.803872e+00 7.894368e-01 1.368582e+00 1.128421e+00 1.182296e+00
<GCONST> 8.138055e+01
<STATE> 4
<MEAN> 25
 -6.092889e+00 7.092104e+00 3.884463e+00 -2.751052e-01 -3.139531e+00 -3.462201e+00 4.753759e-01 -7.798427e-01 3.086120e-01 4.964978e-01 -7.061582e-01 7.218879e-01 -6.966918e-01 3.625751e-01 -5.066857e-01 -1.288977e-02 4.975582e-01 -9.554743e-01 -2.233136e-01 1.835266e-01 3.260893e-01 -2.765953e-01 -2.789268e-01 4.880273e-01 1.963409e-01
<VARIANCE> 25
 9.870119e+01 3.850565e+01 5.033464e+01 1.744259e+01 1.034031e+02 4.917276e+01 3.949426e+01 2.210055e+01 2.752151e+01 2.803627e+01 1.159577e+01 5.945137e+00 1.207795e+01 5.930315e+00 1.740866e+00 1.325353e+00 1.258612e+00 1.023732e+01 5.168872e+00 3.964875e+00 3.571525e+00 2.577018e+00 1.120116e+00 6.875880e-01 2.692664e+00
<GCONST> 1.007876e+02
<TRANSP> 5
 0.000000e+00 1.000000e+00 0.000000e+00 0.000000e+00 0.000000e+00
 0.000000e+00 9.351003e-01 6.489976e-02 0.000000e+00 0.000000e+00
 0.000000e+00 0.000000e+00 6.762790e-01 3.237210e-01 0.000000e+00
 0.000000e+00 0.000000e+00 0.000000e+00 8.615769e-01 1.384231e-01
 0.000000e+00 0.000000e+00 0.000000e+00 0.000000e+00 0.000000e+00
<ENDHMM>
~h "ng"
<BEGINHMM>
<NUMSTATES> 5
<STATE> 2
<MEAN> 25
 5.508836e+00 -5.869325e+00 -9.705047e+00 -9.394663e+00 3.430760e+00 1.091429e+00 1.626661e+00 -6.854584e+00 6.244649e+00 -2.313916e-01 -1.183784e+00 -7.111103e+00 5.334420e-01 6.265604e-01 -5.839557e-02 -3.205720e-01 1.882773e-01 -1.516536e-01 -2.691888e-01 -4.119955e-01 -4.014047e-01 1.727058e-01 1.192750e-01 3.876822e-01 -1.230208e+00
<VARIANCE> 25
 5.063705e+01 2.117807e+01 3.545288e+01 3.128914e+01 2.221078e+01 3.651488e+01 2.399418e+01 2.659791e+01 3.616301e+01 3.261405e+01 3.369128e+01 4.430415e+01 3.303795e-01 3.861522e-01 1.063146e+00 1.255928e+00 1.670531e+00 2.293015e+00 1.129095e+00 1.841214e+00 2.043440e+00 1.430887e+00 2.293049e+00 1.271259e+00 2.631095e-01
<GCONST> 8.858663e+01
<STATE> 3
<MEAN> 25
 9.052874e+00 2.322782e+00 -1.266201e-01 -2.677029e+00 2.103651e+00 -8.707667e-01 2.448645e+00 -3.198095e+00 -5.463622e-01 3.498874e+00 -6.700363e-01 -8.468914e-01 -9.507282e-01 -4.224138e-01 6.246407e-01 1.316931e+00 4.051640e-01 5.271312e-01 7.583164e-02 1.169831e+00 -1.600049e-01 4.331758e-02 5.376597e-01 2.775513e-01 -1.179132e+00
<VARIANCE> 25
 2.284711e+01 1.395180e+01 3.825204e+01 3.274417e+01 2.601313e+01 1.727513e+01 1.644681e+01 4.941284e+01 2.600129e+01 1.225300e+01 1.736167e+01 1.447138e+01 9.480382e-01 1.086707e+00 1.417798e+00 1.116753e+00 2.018778e+00 1.706156e+00 2.405200e+00 2.508713e+00 1.759449e+00 1.456580e+00 1.442991e+00 1.088771e+00 1.497748e-01
<GCONST> 8.596054e+01
<STATE> 4
<MEAN> 25
 -9.690078e-01 -3.097461e+00 1.905909e+00 5.948953e+00 4.947341e+00 2.691854e+00 1.847443e+00 3.565645e+00 -1.228811e+00 2.502806e+00 3.528780e-01 1.837010e+00 -7.837517e-02 -1.623119e-02 -7.765300e-02 6.283084e-02 -4.050788e-03 7.306562e-02 -3.874723e-02 5.687246e-02 -1.174658e-02 1.526428e-02 -3.551827e-02 2.133482e-02 -1.354972e-01
<VARIANCE> 25
 1.450957e+00 2.905945e+00 5.819519e+00 1.296697e+01 7.752994e+00 8.811085e+00 1.071094e+01 1.327918e+01 1.308771e+01 1.557920e+01 1.133004e+01 1.011147e+01 1.308945e-01 2.172763e-01 3.954774e-01 5.119518e-01 7.890517e-01 8.919467e-01 1.030150e+00 1.399813e+00 1.634053e+00 1.431028e+00 1.051582e+00 1.132698e+00 4.174076e-02
<GCONST> 6.365553e+01
<TRANSP> 5
 0.000000e+00 1.000000e+00 0.000000e+00 0.000000e+00 0.000000e+00
 0.000000e+00 9.094112e-01 9.058882e-02 0.000000e+00 0.000000e+00
 0.000000e+00 0.000000e+00 8.925536e-01 1.074464e-01 0.000000e+00
 0.000000e+00 0.000000e+00 0.000000e+00 9.673089e-01 3.269102e-02
 0.000000e+00 0.000000e+00 0.000000e+00 0.000000e+00 0.000000e+00
<ENDHMM>
~h "ow"
<BEGINHMM>
<NUMSTATES> 5
<STATE> 2
<MEAN> 25
 5.765998e+00 6.201704e+00 -8.166026e+00 -1.788214e+01 -5.995809e+00 1.204694e+01 -2.716156e+00 -6.860276e+00 6.226295e+00 -5.754097e+00 2.004750e+00 3.531295e+00 1.048334e+00 1.701905e+00 -6.562451e-01 -3.900332e+00 -8.383704e-01 2.053751e+00 -4.465179e-01 -8.650534e-01 1.564772e+00 -1.827337e+00 6.998957e-01 9.056172e-01 2.173910e+00
<VARIANCE> 25
 3.167027e+01 4.289692e+01 4.132177e+01 1.781684e+02 4.977631e+01 7.240697e+01 3.775899e+01 7.208158e+01 5.201914e+01 1.012537e+02 2.605006e+01 3.144531e+01 4.026245e+00 2.109380e+00 5.506723e+00 1.542548e+01 3.591176e+00 7.384035e+00 4.318741e+00 6.168775e+00 4.371478e+00 5.478122e+00 2.994453e+00 2.691196e+00 9.063793e+00
<GCONST> 1.140500e+02
<STATE> 3
<MEAN> 25
 1.038137e+01 1.247287e+01 -4.476860e+00 -2.301471e+01 -8.878545e+00 5.110279e+00 -3.591614e+00 -4.406794e+00 7.325712e+00 -1.073506e+01 3.739611e+00 4.940642e+00 1.826203e-01 -1.871181e-01 3.273417e-01 7.369151e-01 7.515794e-02 -8.469356e-01 1.423613e-01 3.550593e-01 -5.277846e-01 3.718665e-01 5.262114e-02 -3.210817e-02 -8.434359e-01
<VARIANCE> 25
 2.043241e+01 4.464864e+01 2.404757e+01 8.601127e+01 4.599310e+01 9.781154e+01 2.508853e+01 5.503422e+01 4.541059e+01 8.290804e+01 2.932954e+01 2.896781e+01 5.377068e-01 1.001810e+00 9.984142e-01 2.118423e+00 1.982565e+00 1.690697e+00 1.885008e+00 2.392277e+00 1.795528e+00 2.822943e+00 1.687254e+00 1.728552e+00 3.958797e-01
<GCONST> 9.563054e+01
<STATE> 4
<MEAN> 25
 6.232398e+00 7.643846e-01 1.718753e+00 -3.076812e+00 -3.671221e+00 -5.285254e+00 -3.409529e+00 1.545250e+00 -1.875339e+00 2.487436e+00 3.906655e+00 4.033410e+00 -1.200057e+00 -8.913190e-01 2.500278e-01 1.165305e+00 1.043348e+00 4.854842e-01 2.481460e-01 3.433765e-01 1.618646e-01 3.463677e-01 -2.503206e-01 -2.901686e-01 -7.972740e-01
<VARIANCE> 25
 2.513249e+01 1.366617e+01 7.057017e+00 2.479173e+01 2.624569e+01 3.513109e+01 3.679818e+01 2.522930e+01 1.948454e+01 1.599543e+01 1.297005e+01 1.543516e+01 3.762302e-01 6.123827e-01 6.008074e-01 1.444297e+00 2.090823e+00 2.222816e+00 2.399220e+00 1.830152e+00 2.283737e+00 1.711409e+00 1.256137e+00 1.515100e+00 1.221115e-01
<GCONST> 8.296169e+01
<TRANSP> 5
 0.000000e+00 1.000000e+00 0.000000e+00 0.000000e+00 0.000000e+00
 0.000000e+00 7.408015e-01 2.591985e-01 0.000000e+00 0.000000e+00
 0.000000e+00 0.000000e+00 9.489739e-01 5.102613e-02 0.000000e+00
 0.000000e+00 0.000000e+00 0.000000e+00 8.502676e-01 1.497324e-01
 0.000000e+00 0.000000e+00 0.000000e+00 0.000000e+00 0.000000e+00
<ENDHMM>
~h "oy"
<BEGINHMM>
<NUMSTATES> 5
<STATE> 2
<MEAN> 25
 1.237901e+01 2.107213e+00 -3.855834e+00 -1.673041e+01 -1.332330e+01 7.303440e+00 -1.463348e+00 -8.332989e+00 1.015114e+01 -4.572396e+00 9.708905e-02 -2.654402e+00 2.491640e-01 -9.318757e-02 3.600976e-01 3.774998e-01 -1.652751e-01 -9.046816e-01 -2.395654e-01 -4.387166e-02 -6.603161e-01 5.959871e-01 -1.299769e-01 9.249616e-03 4.584161e-02
<VARIANCE> 25
 2.559179e+01 4.114880e+01 3.341282e+01 1.289086e+02 3.747915e+01 1.979665e+02 8.199336e+01 3.979942e+01 6.695197e+01 1.475455e+02 3.790674e+01 2.619746e+01 2.621931e+00 2.036144e+00 3.729922e+00 7.115337e+00 4.564667e+00 8.771830e+00 4.857489e+00 4.179388e+00 5.590977e+00 8.557860e+00 2.009123e+00 3.579803e+00 1.338895e+00
<GCONST> 1.121628e+02
<STATE> 3
<MEAN> 25
 -2.454506e+00 1.266147e+01 1.107369e+00 -7.239018e+00 -5.252849e+00 -1.109603e+01 -2.551490e+00 -4.517388e-01 -7.800663e+00 4.756986e+00 -1.051435e+00 8.435066e-01 -2.241307e+00 1.815974e+00 -9.565007e-01 5.048525e-01 1.723232e+00 -1.041641e-01 7.234167e-01 7.717671e-01 6.378953e-01 -2.587444e-01 3.875724e-01 4.403474e-01 -1.423619e-01
<VARIANCE> 25
 9.337214e+01 3.523306e+01 2.407450e+01 4.461157e+01 7.071098e+01 6.699097e+01 6.619608e+01 2.828667e+01 4.404974e+01 2.017850e+01 3.528804e+01 2.530194e+01 6.164145e+00 2.622512e+00 9.648165e-01 5.290563e+00 3.240433e+00 2.672359e+00 6.342174e+00 3.603641e+00 3.954384e+00 2.714119e+00 2.137298e+00 2.211118e+00 3.931472e-01
<GCONST> 1.033008e+02
<STATE> 4
<MEAN> 25
 -1.539291e+01 1.526160e+01 -6.126287e+00 -3.308278e-01 1.239351e+01 -1.024704e+01 6.506588e+00 1.057279e+00 -5.227042e-01 2.808048e+00 1.171574e+00 1.274984e+00 3.111918e-01 -6.935456e-01 7.199043e-02 5.852571e-01 3.817572e-01 2.090566e-01 6.532950e-01 -2.640487e-01 -3.819051e-02 -1.838251e-01 -2.046368e-01 -1.171896e-01 -8.067984e-01
<VARIANCE> 25
 1.461566e+01 1.587152e+01 5.481676e+00 1.793158e+01 2.481440e+01 6.992120e+00 1.616935e+01 2.511148e+01 2.009130e+01 1.315930e+01 9.034104e+00 6.462067e+00 8.143501e-01 8.559249e-01 3.387037e-01 1.156715e+00 8.491685e-01 6.112301e-01 8.669324e-01 2.086225e+00 8.877036e-01 1.001976e+00 7.479069e-01 6.107392e-01 4.734316e-01
<GCONST> 7.377890e+01
<TRANSP> 5
 0.000000e+00 1.000000e+00 0.000000e+00 0.000000e+00 0.000000e+00
 0.000000e+00 9.619623e-01 3.803767e-02 0.000000e+00 0.000000e+00
 0.000000e+00 0.000000e+00 8.859300e-01 1.140700e-01 0.000000e+00
 0.000000e+00 0.000000e+00 0.000000e+00 9.311253e-01 6.887469e-02
 0.000000e+00 0.000000e+00 0.000000e+00 0.000000e+00 0.000000e+00
<ENDHMM>
~h "sh"
<BEGINHMM>
<NUMSTATES> 5
<STATE> 2
<MEAN> 25
 4.279747e+00 1.865535e+00 5.084603e+00 2.931462e+00 3.385542e+00 -1.234463e+00 -2.993469e-01 2.185286e+00 -4.176685e-02 4.136125e-02 4.314742e-01 3.060648e+00 -1.279250e+00 -9.928464e-01 -7.529063e-01 -8.873834e-02 9.912725e-01 1.126662e+00 1.836925e-02 -2.762832e-01 -1.017872e+00 -3.043655e-03 1.000966e+00 2.683436e-01 -9.718222e-01
<VARIANCE> 25
 1.959791e+01 1.277515e+01 1.372128e+01 1.306442e+01 1.349815e+01 2.086607e+01 1.336807e+01 1.795020e+01 2.868631e+01 1.457337e+01 1.158081e+01 8.224957e+00 6.437638e-01 5.513686e-01 1.168268e+00 1.144298e+00 1.154289e+00 1.087493e+00 1.536085e+00 1.740203e+00 1.307798e+00 1.403684e+00 1.240833e+00 1.187582e+00 2.017112e-01
<GCONST> 7.823135e+01
<STATE> 3
<MEAN> 25
 -1.691193e+00 -2.762598e+00 1.038486e-01 2.944047e+00 4.344193e+00 3.191473e+00 -6.879598e-01 3.219067e+00 -3.690953e+00 4.998619e-01 3.623798e-01 1.888864e+00 -3.474546e-02 8.175811e-03 -4.259311e-02 4.508515e-02 -3.904047e-02 3.591039e-02 -3.353842e-02 3.157465e-02 -9.434427e-03 3.123835e-03 -6.443786e-02 -3.355898e-02 -1.003504e-01
<VARIANCE> 25
 1.886224e+00 3.159399e+00 5.599550e+00 9.012002e+00 8.495317e+00 1.217527e+01 1.173609e+01 1.390540e+01 1.437762e+01 1.204753e+01 1.114757e+01 1.028941e+01 1.111842e-01 1.810764e-01 3.484356e-01 5.729798e-01 6.816404e-01 1.054989e+00 1.076589e+00 1.308255e+00 1.426642e+00 1.380275e+00 9.631086e-01 1.095422e+00 3.009242e-02
<GCONST> 6.300770e+01
<STATE> 4
<MEAN> 25
 -2.207206e+00 -2.144576e+00 -6.964598e-01 4.066215e+00 2.979047e+00 2.622705e+00 -9.316323e-01 2.453115e+00 -3.366960e+00 -7.986715e-01 -6.211132e-01 1.076356e+00 -2.495538e-01 1.523009e-01 1.797207e-02 -5.085871e-01 7.859921e-02 -1.634744e+00 -5.011682e-02 -9.845164e-01 -3.438003e-01 -6.503747e-02 -6.272249e-01 -2.863110e-01 3.059885e-01
<VARIANCE> 25
 4.144871e+00 2.547584e+00 4.324428e+00 1.067117e+01 1.308508e+01 2.249357e+01 1.165104e+01 2.829038e+01 1.194892e+01 1.648954e+01 1.036279e+01 6.762323e+00 5.247669e-01 8.838322e-01 1.007464e+00 1.898581e+00 2.335468e+00 1.496786e+00 2.371660e+00 3.208035e+00 2.799936e+00 3.006449e+00 7.419899e-01 1.488510e+00 2.593915e-01
<GCONST> 7.719268e+01
<TRANSP> 5
 0.000000e+00 1.000000e+00 0.000000e+00 0.000000e+00 0.000000e+00
 0.000000e+00 7.686118e-01 2.313882e-01 0.000000e+00 0.000000e+00
 0.000000e+00 0.000000e+00 9.762607e-01 2.373929e-02 0.000000e+00
 0.000000e+00 0.000000e+00 0.000000e+00 1.191937e-01 8.808063e-01
 0.000000e+00 0.000000e+00 0.000000e+00 0.000000e+00 0.000000e+00
<ENDHMM>
~h "sp"
<BEGINHMM>
<NUMSTATES> 3
<STATE> 2
~s "silst"
<TRANSP> 3
 0.000000e+00 4.763087e-01 5.236913e-01
 0.000000e+00 9.708115e-01 2.918850e-02
 0.000000e+00 0.000000e+00 0.000000e+00
<ENDHMM>
~h "th"
<BEGINHMM>
<NUMSTATES> 5
<STATE> 2
<MEAN> 25
 -1.135747e+01 4.249448e+00 -6.182412e-01 2.796913e+00 3.034463e+00 1.022499e+00 4.316661e-02 -9.309043e-02 4.342393e+00 -7.863410e-03 -3.293090e-01 1.447482e+00 3.289590e-01 -5.464276e-01 1.252161e-01 3.514208e-01 2.468168e-01 1.498943e-01 -1.832204e-02 2.663352e-01 -2.452645e-01 -9.535293e-02 1.053542e-01 1.150051e-01 -6.433831e-01
<VARIANCE> 25
 2.922852e+01 8.076591e+00 1.506870e+01 1.427446e+01 1.903700e+01 1.267333e+01 1.767631e+01 2.141352e+01 2.321461e+01 1.772046e+01 1.703665e+01 1.128363e+01 1.667587e+00 6.337968e-01 9.304044e-01 8.500202e-01 1.065953e+00 1.772913e+00 1.180840e+00 1.341504e+00 1.573609e+00 1.282621e+00 1.210374e+00 7.559965e-01 2.799119e-01
<GCONST> 7.973993e+01
<STATE> 3
<MEAN> 25
 -9.795848e-01 -2.621534e+00 1.355114e+00 2.320848e+00 2.856455e+00 -7.488141e-01 -1.105861e+00 8.407043e-01 -3.454759e+00 -4.945405e-01 3.238343e-01 1.525678e+00 -2.359290e-02 -1.065427e+00 1.588574e-01 3.491005e-01 8.890782e-01 1.140920e+00 4.753356e-01 1.139736e+00 7.663894e-02 1.015726e+00 4.626277e-01 -3.369150e-01 -6.544808e-01
<VARIANCE> 25
 2.273968e+01 5.030134e+00 7.372266e+00 6.991768e+00 2.420466e+01 7.652450e+00 1.141242e+01 2.000469e+01 2.896780e+01 1.754376e+01 1.340260e+01 9.291545e+00 1.275367e+00 4.147823e-01 5.492350e-01 7.611841e-01 1.912781e+00 7.675035e-01 1.655876e+00 1.289472e+00 3.008967e+00 1.535628e+00 1.022578e+00 1.457078e+00 1.110132e-01
<GCONST> 7.570146e+01
<STATE> 4
<MEAN> 25
 -6.341164e-01 -3.741148e+00 1.580905e+00 4.505273e+00 4.454515e+00 3.251072e+00 6.374370e-01 3.583695e+00 -2.344040e+00 2.410203e+00 1.379168e+00 1.378333e+00 -1.844258e-02 2.388910e-02 -3.072928e-02 5.108261e-02 -3.141441e-02 6.313607e-02 -1.191058e-02 5.694836e-02 -7.415731e-03 2.055844e-02 -2.518053e-02 1.685289e-02 -1.001220e-01
<VARIANCE> 25
 3.526647e+00 2.773069e+00 5.351166e+00 7.165781e+00 1.065425e+01 1.340839e+01 1.177710e+01 1.578613e+01 1.430371e+01 1.379372e+01 1.186968e+01 1.022808e+01 1.152088e-01 1.903646e-01 3.923139e-01 5.378384e-01 8.332360e-01 1.021506e+00 1.025370e+00 1.205047e+00 1.234100e+00 1.124232e+00 1.120744e+00 1.014159e+00 3.592101e-02
<GCONST> 6.394861e+01
<TRANSP> 5
 0.000000e+00 1.000000e+00 0.000000e+00 0.000000e+00 0.000000e+00
 0.000000e+00 8.381292e-01 1.618708e-01 0.000000e+00 0.000000e+00
 0.000000e+00 0.000000e+00 5.629092e-01 4.370908e-01 0.000000e+00
 0.000000e+00 0.000000e+00 0.000000e+00 9.703691e-01 2.963090e-02
 0.000000e+00 0.000000e+00 0.000000e+00 0.000000e+00 0.000000e+00
<ENDHMM>
~h "uh"
<BEGINHMM>
<NUMSTATES> 5
<STATE> 2
<MEAN> 25
 3.168836e+00 -8.518971e-01 5.196051e+00 1.022716e+01 1.154231e+01 3.394798e+00 1.050940e-01 7.436677e+00 3.864365e+00 -2.234223e+00 -4.705799e-01 3.887300e+00 6.941043e-02 1.459518e-01 4.965688e-02 5.437457e-02 -2.912741e-01 -7.780516e-02 2.088558e-01 2.253727e-02 -2.068731e-01 -7.517493e-02 2.890674e-01 7.028277e-02 3.352495e-02
<VARIANCE> 25
 1.348915e+01 3.619134e+00 2.665555e+01 2.956518e+01 2.870828e+01 2.247534e+01 3.522211e+01 1.332697e+01 3.445488e+01 1.779562e+01 1.675325e+01 1.544183e+01 2.433499e-01 4.244356e-01 4.905609e-01 5.250353e-01 1.335016e+00 2.081997e+00 2.764323e+00 1.499027e+00 2.102530e+00 1.793435e+00 1.340920e+00 2.083156e+00 2.825720e-01
<GCONST> 8.100782e+01
<STATE> 3
<MEAN> 25
 9.204252e-01 6.521718e+00 -4.346239e+00 -2.492908e+00 -4.379344e+00 2.755809e+00 -2.057467e+00 -6.753452e+00 3.318000e+00 -7.462512e+00 -1.035895e+00 1.979021e+00 2.298043e+00 2.201817e+00 -9.696424e-01 -2.391931e+00 -3.355560e+00 1.472031e+00 -1.402327e+00 -4.044645e+00 6.298354e-01 -3.230029e+00 -1.227225e+00 5.117275e-01 4.236240e+00
<VARIANCE> 25
 6.140576e+01 5.049932e+01 1.061905e+02 1.291465e+02 7.728049e+01 1.484715e+02 1.813556e+01 1.175671e+02 3.603188e+01 7.280396e+01 2.270020e+01 2.312222e+01 3.173044e+00 4.207157e+00 1.261860e+01 1.739599e+01 6.235389e+00 7.859293e+00 2.600840e+00 1.300455e+01 6.001654e+00 4.944004e+00 2.811892e+00 5.122639e+00 8.196735e+00
<GCONST> 1.182181e+02
<STATE> 4
<MEAN> 25
 6.616261e+00 8.128890e+00 -5.478324e+00 -1.160560e+01 -1.399445e+01 5.954386e+00 -1.086317e+01 -1.352994e+01 2.123311e+00 -1.213645e+01 -9.601705e-02 6.045444e+00 2.441110e-02 -4.979325e-01 2.259466e-01 2.714441e-01 5.369576e-01 -3.679055e-01 -2.672176e-01 6.583370e-01 -1.855233e-01 6.477979e-01 1.577246e-01 6.738410e-02 -4.506767e-01
<VARIANCE> 25
 2.287192e+01 4.339513e+01 5.247727e+01 1.634936e+02 5.415821e+01 1.074204e+02 5.010585e+01 6.114653e+01 3.626307e+01 5.916546e+01 2.740775e+01 4.038223e+01 1.457089e+00 1.617399e+00 2.388123e+00 4.273443e+00 4.202438e+00 5.305784e+00 4.603917e+00 3.640709e+00 3.042711e+00 2.892388e+00 1.910470e+00 2.444358e+00 1.940722e+00
<GCONST> 1.067635e+02
<TRANSP> 5
 0.000000e+00 1.000000e+00 0.000000e+00 0.000000e+00 0.000000e+00
 0.000000e+00 8.775588e-01 1.224412e-01 0.000000e+00 0.000000e+00
 0.000000e+00 0.000000e+00 7.514086e-01 2.485914e-01 0.000000e+00
 0.000000e+00 0.000000e+00 0.000000e+00 9.326040e-01 6.739603e-02
 0.000000e+00 0.000000e+00 0.000000e+00 0.000000e+00 0.000000e+00
<ENDHMM>
~h "uw"
<BEGINHMM>
<NUMSTATES> 5
<STATE> 2
<MEAN> 25
 -7.357812e+00 3.095708e+00 2.896416e+00 1.721645e+00 -5.388945e+00 -2.141976e+00 -4.171740e+00 -3.847211e+00 3.887757e+00 -3.530177e+00 -8.306256e-02 -8.551448e-01 1.463766e+00 8.462404e-01 2.452461e-01 -6.352102e-02 -6.215732e-01 4.504299e-01 -7.822104e-01 -1.211884e+00 1.586425e-02 -7.137028e-01 4.844290e-02 -5.966970e-01 1.583675e+00
<VARIANCE> 25
 1.014770e+02 5.730854e+01 6.976269e+01 6.993988e+01 1.168324e+02 9.313111e+01 7.505584e+01 6.009258e+01 5.314751e+01 8.842301e+01 3.359007e+01 3.125617e+01 8.063557e+00 5.052730e+00 4.622414e+00 5.251478e+00 6.079528e+00 8.131021e+00 6.573358e+00 4.418114e+00 6.376661e+00 8.867687e+00 3.404381e+00 3.517638e+00 4.810549e+00
<GCONST> 1.184832e+02
<STATE> 3
<MEAN> 25
 1.008145e+01 2.581611e+00 -1.599007e+00 -1.418896e+00 -8.310922e+00 4.505268e-01 -9.916605e+00 -8.847076e+00 4.313878e+00 1.122812e+00 2.713718e+00 -5.214499e+00 2.647696e-01 -1.119461e-01 -1.227215e-01 -4.912738e-01 2.073950e-01 -3.652652e-02 9.423140e-02 1.088450e-01 2.110064e-03 5.115855e-01 1.349643e-01 2.103013e-01 -3.183545e-01
<VARIANCE> 25
 2.303963e+01 6.012285e+01 5.510963e+01 7.186085e+01 7.106274e+01 1.276237e+02 5.365263e+01 7.458255e+01 5.385854e+01 7.535401e+01 4.577315e+01 4.969110e+01 1.283900e+00 2.443278e+00 3.359139e+00 3.673653e+00 3.988198e+00 6.342882e+00 3.742975e+00 3.977515e+00 3.960056e+00 4.456439e+00 3.786426e+00 4.187349e+00 2.066187e+00
<GCONST> 1.108569e+02
<STATE> 4
<MEAN> 25
 1.059290e+01 1.098705e+01 1.359672e-01 -9.439615e+00 -9.117805e+00 1.370001e+00 -1.968311e+00 -8.625588e+00 -4.577570e-01 -7.694288e+00 2.347753e+00 -6.352766e-01 -2.680796e-01 -4.661683e-01 2.002543e-01 3.255748e-01 4.154754e-01 -7.664312e-01 8.615129e-02 6.235343e-01 -2.292670e-01 3.137312e-01 -7.063075e-02 3.036560e-01 -8.909432e-01
<VARIANCE> 25
 2.211107e+01 4.968205e+01 2.360074e+01 6.178558e+01 4.855364e+01 1.030656e+02 3.755256e+01 4.904885e+01 5.159490e+01 1.220619e+02 2.773090e+01 3.696665e+01 1.301334e+00 1.153660e+00 1.254478e+00 2.455208e+00 2.086326e+00 2.777905e+00 1.919264e+00 2.755458e+00 2.120297e+00 3.355119e+00 1.829629e+00 1.836529e+00 5.251197e-01
<GCONST> 9.943449e+01
<TRANSP> 5
 0.000000e+00 1.000000e+00 0.000000e+00 0.000000e+00 0.000000e+00
 0.000000e+00 8.633586e-01 1.366414e-01 0.000000e+00 0.000000e+00
 0.000000e+00 0.000000e+00 9.054787e-01 9.452128e-02 0.000000e+00
 0.000000e+00 0.000000e+00 0.000000e+00 8.847429e-01 1.152572e-01
 0.000000e+00 0.000000e+00 0.000000e+00 0.000000e+00 0.000000e+00
<ENDHMM>
~h "zh"
<BEGINHMM>
<NUMSTATES> 5
<STATE> 2
<MEAN> 25
 -5.949984e+00 5.855491e+00 5.659291e+00 1.246658e+00 -1.322770e+01 -6.943209e+00 -4.554301e+00 -4.651348e+00 4.548917e+00 -5.670720e+00 6.029967e-01 2.631023e+00 1.740334e-01 -2.714918e-01 -6.241775e-01 -4.389150e-03 -4.505106e-02 -1.986738e-01 -5.693812e-01 3.291543e-02 1.028763e-01 -2.601495e-02 -4.651524e-01 -8.378574e-02 -4.139162e-01
<VARIANCE> 25
 9.591685e+01 4.081609e+01 2.244289e+01 1.821300e+01 1.732689e+01 5.670440e+01 3.508011e+01 1.906192e+01 1.120740e+01 2.044869e+01 3.381926e+01 1.132685e+01 6.517519e+00 3.608097e+00 2.089503e+00 1.198900e+00 1.867562e+00 3.570879e+00 2.188913e+00 1.688575e+00 1.171139e+00 2.665020e+00 1.606622e+00 1.338520e+00 4.358956e-01
<GCONST> 9.336501e+01
<STATE> 3
<MEAN> 25
 6.421137e+00 -7.017225e-01 -2.135139e+00 5.458797e-01 -6.733639e+00 -5.099625e+00 -2.770054e+00 1.756768e+00 6.542615e+00 1.176668e+00 -3.628481e+00 -2.872398e+00 -8.319603e-02 3.968021e-03 6.113678e-02 1.856397e-02 9.994385e-01 7.831371e-01 6.867931e-01 1.405549e-01 -2.396661e-01 2.240463e-01 1.985484e-01 -4.686043e-03 -1.296975e+00
<VARIANCE> 25
 9.156909e+01 1.384723e+01 3.926181e+01 1.402215e+01 8.697198e+01 7.219110e+01 7.373421e+01 3.314340e+01 3.210273e+01 2.716619e+01 1.737668e+01 2.308540e+01 1.581582e+00 9.809266e-01 1.154546e+00 1.253579e+00 3.039256e+00 1.859767e+00 2.860167e+00 1.743694e+00 3.374209e+00 1.749012e+00 1.493862e+00 1.897470e+00 1.772943e-01
<GCONST> 9.394945e+01
<STATE> 4
<MEAN> 25
 -1.280650e+00 -2.112252e+00 -1.852658e+00 1.418547e+00 7.197518e+00 3.738812e+00 1.736114e+00 2.206628e+00 -2.340250e+00 7.097088e-01 1.099698e+00 1.498505e+00 -7.207217e-02 -1.153924e-02 -8.271933e-02 2.099171e-02 8.862130e-03 2.810076e-02 -7.937665e-02 1.174388e-02 -9.958494e-02 -4.661965e-03 2.757733e-02 4.794462e-02 -1.341184e-01
<VARIANCE> 25
 4.274196e+00 8.747829e+00 1.622158e+01 9.207636e+00 1.147533e+01 1.205755e+01 1.161380e+01 1.464284e+01 1.776515e+01 1.520811e+01 1.198561e+01 9.868237e+00 1.615105e-01 2.826274e-01 5.063086e-01 6.511528e-01 8.751469e-01 1.110324e+00 1.270844e+00 1.341013e+00 1.946776e+00 1.352650e+00 1.273756e+00 1.202818e+00 6.842388e-02
<GCONST> 7.003363e+01
<TRANSP> 5
 0.000000e+00 1.000000e+00 0.000000e+00 0.000000e+00 0.000000e+00
 0.000000e+00 9.264058e-01 7.359414e-02 0.000000e+00 0.000000e+00
