~o
<STREAMINFO> 1 25
<VECSIZE> 25<NULLD><MFCC_D_N_Z_0><DIAGC>
~s "silst"
<MEAN> 25
 4.083219e-01 4.024490e+00 2.184968e+00 -4.978312e+00 -4.470887e+00 -1.301218e+00 -9.084143e-01 -6.286330e+00 2.299359e+00 -3.296790e+00 -3.139282e-01 -8.099356e-01 7.036236e-02 2.281251e-01 -9.433471e-03 -3.343140e-01 -1.697569e-01 -3.418399e-01 5.058547e-02 -2.270747e-01 1.357099e-01 -1.067883e-01 -1.778997e-02 6.329378e-02 3.778931e-01
<VARIANCE> 25
 9.247961e+01 7.619328e+01 8.282814e+01 1.493746e+02 9.096935e+01 1.030214e+02 5.575652e+01 9.275430e+01 8.317618e+01 8.206487e+01 3.285941e+01 5.494645e+01 3.734926e+00 3.115916e+00 3.356091e+00 5.253479e+00 4.595161e+00 5.393152e+00 3.505944e+00 8.783628e+00 4.563886e+00 3.941747e+00 2.526658e+00 3.115816e+00 5.134992e+00
<GCONST> 1.168046e+02
~h "b"
<BEGINHMM>
<NUMSTATES> 5
<STATE> 2
<MEAN> 25
 -1.213681e+00 -3.132483e+00 1.527706e+00 4.999919e+00 3.560816e+00 3.327493e+00 -3.274402e-01 3.507151e+00 -2.310705e+00 1.124544e+00 1.591758e+00 1.689843e+00 -1.016328e-03 -3.953688e-04 -8.128185e-03 3.212524e-02 -2.666152e-02 9.095931e-02 -5.583991e-02 4.412115e-02 -1.935659e-02 6.062955e-03 -1.743816e-02 -1.524750e-03 -6.649705e-02
<VARIANCE> 25
 4.946957e+00 7.317464e+00 1.017992e+01 1.425543e+01 1.351373e+01 1.583046e+01 1.689291e+01 1.657290e+01 1.494707e+01 1.612843e+01 1.503247e+01 1.296516e+01 1.254864e-01 2.570074e-01 4.343340e-01 6.155595e-01 8.083885e-01 1.157018e+00 1.319861e+00 1.286955e+00 1.466195e+00 1.264896e+00 1.318988e+00 1.234769e+00 6.063496e-02
<GCONST> 7.028349e+01
<STATE> 3
<MEAN> 25
 9.579416e-01 -6.580977e-01 1.845751e+00 4.882895e+00 3.809642e+00 3.930692e+00 -1.555170e+00 2.673395e+00 -2.097960e+00 5.486999e-01 -5.328772e-01 6.492402e-01 -2.322223e-01 6.687363e-01 5.447507e-02 -1.185535e+00 -1.216843e+00 -6.176687e-01 -5.846899e-01 -1.179561e+00 1.211759e+00 -3.291849e-01 -1.013026e+00 -9.453466e-01 3.083052e+00
<VARIANCE> 25
 1.703276e+01 1.865395e+01 2.965298e+01 2.466265e+01 2.448021e+01 2.122160e+01 2.230813e+01 2.473413e+01 2.314757e+01 1.572246e+01 1.569304e+01 1.476702e+01 4.135727e+00 4.562822e+00 6.719798e+00 6.351628e+00 4.416070e+00 6.033699e+00 4.120878e+00 6.218785e+00 4.766951e+00 3.273854e+00 4.478704e+00 3.838190e+00 8.222114e+00
<GCONST> 1.031281e+02
<STATE> 4
<MEAN> 25
 2.160776e+00 3.005137e+00 2.736529e+00 -1.284562e+00 -4.125167e+00 -9.741619e-01 -2.905648e+00 -1.955160e+00 3.385264e+00 -1.286265e+00 -2.501016e+00 -3.262380e+00 3.497105e-01 -3.420249e-02 -3.493868e-01 -9.349306e-01 -7.039311e-01 -6.564217e-01 2.316187e-02 -3.355144e-01 8.888623e-01 -1.221770e-01 -5.669145e-03 -4.112202e-01 2.162491e+00
<VARIANCE> 25
 9.771805e+01 5.896519e+01 6.641758e+01 1.111079e+02 5.957887e+01 1.098241e+02 7.023991e+01 6.389297e+01 8.302334e+01 3.671500e+01 3.750519e+01 3.495950e+01 4.459694e+00 4.155942e+00 4.571753e+00 6.590724e+00 6.273612e+00 8.036000e+00 4.280465e+00 6.636946e+00 7.813710e+00 4.048378e+00 3.863177e+00 4.415315e+00 1.280644e+01
<GCONST> 1.183416e+02
<TRANSP> 5
 0.000000e+00 1.000000e+00 0.000000e+00 0.000000e+00 0.000000e+00
 0.000000e+00 9.618893e-01 3.811074e-02 0.000000e+00 0.000000e+00
 0.000000e+00 0.000000e+00 4.726167e-01 5.273833e-01 0.000000e+00
 0.000000e+00 0.000000e+00 0.000000e+00 7.652978e-01 2.347023e-01
 0.000000e+00 0.000000e+00 0.000000e+00 0.000000e+00 0.000000e+00
<ENDHMM>
~h "d"
<BEGINHMM>
<NUMSTATES> 5
<STATE> 2
<MEAN> 25
 9.601026e-01 -2.347913e+00 -1.925526e+00 -2.993665e+00 -5.254011e-01 -6.312643e-01 1.028606e+00 3.115040e+00 9.399128e-01 1.384578e+00 1.968638e+00 7.880557e-01 -5.438362e-01 -5.996714e-01 4.651399e-01 8.377286e-01 8.973590e-01 4.281152e-01 -9.167138e-02 3.647161e-01 4.308397e-02 3.070407e-01 1.409390e-01 8.913068e-02 -6.584576e-01
<VARIANCE> 25
 1.956053e+01 5.797718e+00 1.344153e+01 4.097815e+01 3.065279e+01 3.086696e+01 1.387631e+01 2.451548e+01 1.830061e+01 1.996616e+01 1.621364e+01 2.288595e+01 9.916914e-01 6.857367e-01 1.209568e+00 2.249056e+00 1.906434e+00 2.415510e+00 1.474291e+00 2.970809e+00 1.904379e+00 1.890451e+00 1.469440e+00 2.077842e+00 2.409654e-01
<GCONST> 8.608195e+01
<STATE> 3
<MEAN> 25
 -4.526050e-01 -3.017325e+00 1.581129e-01 3.565144e+00 3.970231e+00 2.660606e+00 1.292856e+00 3.038790e+00 -1.454494e+00 1.828885e+00 2.035682e+00 5.474449e-01 2.617458e-03 -7.503513e-02 1.118904e-01 1.598947e-01 2.235714e-02 8.386791e-02 -1.164503e-01 -3.065381e-02 -2.938609e-01 -4.934420e-02 4.396775e-02 1.225577e-01 -1.508732e-01
<VARIANCE> 25
 8.136713e+00 6.112251e+00 8.863503e+00 1.483421e+01 1.206188e+01 2.412446e+01 2.042881e+01 2.211024e+01 1.839357e+01 1.727736e+01 1.467677e+01 1.785526e+01 3.739428e-01 6.620941e-01 9.364402e-01 1.257754e+00 1.237241e+00 1.434365e+00 1.531320e+00 2.103627e+00 1.756086e+00 1.728184e+00 1.673733e+00 1.603439e+00 8.690754e-02
<GCONST> 7.801424e+01
<STATE> 4
<MEAN> 25
 -1.759037e+00 -3.728541e+00 5.931329e-03 4.319230e+00 3.253428e+00 2.813816e+00 -4.779599e-01 3.414274e+00 -2.810788e+00 1.438041e+00 7.045065e-01 1.284966e+00 -1.928307e-02 2.577780e-02 -1.633479e-02 3.733743e-02 -2.486606e-02 4.247515e-02 -4.052769e-02 6.301108e-03 -3.403942e-02 2.315882e-03 -2.158518e-02 -2.716619e-03 -6.782826e-02
<VARIANCE> 25
 2.682024e+00 3.852319e+00 5.233706e+00 7.481548e+00 8.993574e+00 1.364671e+01 1.303676e+01 1.354834e+01 1.422236e+01 1.235378e+01 1.103592e+01 1.117551e+01 9.643389e-02 2.264429e-01 3.750030e-01 6.019639e-01 7.263818e-01 9.024554e-01 1.175721e+00 1.298363e+00 1.335536e+00 1.177053e+00 1.169261e+00 1.227902e+00 4.665637e-02
<GCONST> 6.435464e+01
<TRANSP> 5
 0.000000e+00 1.000000e+00 0.000000e+00 0.000000e+00 0.000000e+00
 0.000000e+00 6.615543e-01 3.384456e-01 0.000000e+00 0.000000e+00
 0.000000e+00 0.000000e+00 7.824982e-01 2.175017e-01 0.000000e+00
 0.000000e+00 0.000000e+00 0.000000e+00 9.744043e-01 2.559563e-02
 0.000000e+00 0.000000e+00 0.000000e+00 0.000000e+00 0.000000e+00
<ENDHMM>
~h "f"
<BEGINHMM>
<NUMSTATES> 5
<STATE> 2
<MEAN> 25
 -1.465935e+00 -4.202005e+00 1.506884e+00 5.524230e+00 4.374571e+00 1.804010e+00 3.066124e-01 3.907932e+00 -2.067469e+00 2.443161e+00 2.270705e-01 1.231608e+00 -5.503416e-02 -1.733687e-02 -1.573107e-02 6.277949e-02 1.763692e-02 9.226504e-02 -2.559855e-02 7.181498e-03 -5.877970e-03 2.734713e-02 -6.961458e-03 -2.465030e-03 -1.084554e-01
<VARIANCE> 25
 3.951722e+00 5.618390e+00 4.391479e+00 1.348908e+01 1.001662e+01 1.091134e+01 1.230672e+01 1.517778e+01 1.528737e+01 1.349938e+01 1.185027e+01 1.190911e+01 1.462831e-01 2.658369e-01 3.926975e-01 6.715419e-01 8.567338e-01 9.268511e-01 1.291927e+00 1.306820e+00 1.527624e+00 1.444724e+00 1.296247e+00 1.145635e+00 4.531205e-02
<GCONST> 6.713806e+01
<STATE> 3
<MEAN> 25
 -1.336539e+01 5.199165e+00 -1.629103e+00 5.531997e+00 2.171304e+00 1.280081e+00 1.520956e-01 6.203387e-01 3.307438e+00 7.178011e-01 -4.210662e-01 1.109740e+00 -7.435677e-01 4.782594e-01 1.091941e-02 1.382234e-02 -1.245578e-01 2.034424e-02 1.387569e-01 -1.875975e-01 2.925874e-01 -1.860327e-01 -1.537992e-01 1.790409e-03 8.392661e-01
<VARIANCE> 25
 4.952682e+01 4.405053e+01 2.501038e+01 1.654455e+01 1.181647e+01 1.940104e+01 1.688152e+01 2.440421e+01 2.647348e+01 1.504427e+01 1.981698e+01 1.499115e+01 1.920860e+00 1.997021e+00 1.372475e+00 1.511292e+00 9.663218e-01 1.535723e+00 1.858300e+00 1.896232e+00 2.431530e+00 1.887669e+00 2.026166e+00 1.212086e+00 1.559101e+00
<GCONST> 8.939181e+01
<STATE> 4
<MEAN> 25
 -5.129884e+00 2.109894e+00 -2.882075e+00 1.704721e+00 -3.053414e+00 2.005420e+00 5.234721e+00 -1.326973e+00 2.599509e+00 -6.116357e-01 -8.241760e-01 1.874174e+00 1.484072e+00 3.334543e-02 -3.306054e-01 -1.328264e+00 -7.158815e-01 5.212910e-01 -9.841600e-02 -4.096415e-01 -1.398931e-01 -8.907112e-01 -6.050226e-01 -1.171575e-01 8.540454e-01
<VARIANCE> 25
 1.779338e+02 3.165059e+01 2.587493e+01 1.442245e+02 1.003896e+02 2.284102e+01 5.843793e+01 6.623737e+01 3.437096e+01 3.124094e+01 3.547565e+01 1.458299e+01 1.338042e+01 4.137406e+00 2.736366e+00 9.223077e+00 4.594967e+00 3.317298e+00 4.010494e+00 5.787678e+00 3.152283e+00 5.717914e+00 4.142355e+00 2.065148e+00 2.024807e+00
<GCONST> 1.108888e+02
<TRANSP> 5
 0.000000e+00 1.000000e+00 0.000000e+00 0.000000e+00 0.000000e+00
 0.000000e+00 9.543465e-01 4.565356e-02 0.000000e+00 0.000000e+00
 0.000000e+00 0.000000e+00 9.181550e-01 8.184505e-02 0.000000e+00
 0.000000e+00 0.000000e+00 0.000000e+00 7.419382e-01 2.580618e-01
 0.000000e+00 0.000000e+00 0.000000e+00 0.000000e+00 0.000000e+00
<ENDHMM>
~h "g"
<BEGINHMM>
<NUMSTATES> 5
<STATE> 2
<MEAN> 25
 -8.799478e-01 -3.781951e+00 -6.018919e-01 2.908244e+00 4.064144e+00 4.799103e+00 -1.679115e+00 2.000967e+00 -2.246767e+00 4.288445e-01 1.810163e+00 9.121898e-01 -1.210096e-02 -4.163582e-03 -7.388495e-03 5.223904e-02 -1.875461e-02 5.455127e-02 -8.650236e-04 5.000472e-02 -3.606806e-02 4.728649e-02 -3.910996e-02 2.172435e-02 -8.662856e-02
<VARIANCE> 25
 2.830256e+00 3.743097e+00 5.604039e+00 8.569392e+00 8.058049e+00 1.092765e+01 1.331547e+01 1.340013e+01 1.253308e+01 1.215009e+01 1.126733e+01 1.147269e+01 1.282266e-01 2.410661e-01 3.764931e-01 6.155405e-01 8.483962e-01 1.075882e+00 1.024526e+00 1.205405e+00 1.371019e+00 1.401598e+00 1.149076e+00 1.248727e+00 4.331194e-02
<GCONST> 6.478459e+01
<STATE> 3
<MEAN> 25
 -7.483642e-01 -2.990738e+00 -1.548452e+00 3.624182e+00 2.961344e+00 4.370527e+00 -3.237944e-01 3.054168e+00 -1.539075e+00 1.827125e+00 3.865691e-01 2.036488e+00 -6.512493e-01 -2.539786e-01 2.451463e-01 -1.422429e+00 -1.653849e+00 -2.446500e+00 1.608925e+00 -1.506468e+00 5.324206e-01 -1.620323e+00 -2.238948e+00 -3.775408e-01 4.606918e+00
<VARIANCE> 25
 7.196815e+00 4.494686e+00 7.115071e+00 1.350227e+01 8.371216e+00 3.318471e+01 1.812227e+01 1.605229e+01 8.205808e+00 1.169484e+01 1.100080e+01 1.057222e+01 3.208136e+00 3.974315e+00 3.638609e+00 9.809486e+00 7.248909e+00 1.020594e+01 9.660767e+00 4.913649e+00 2.507655e+00 6.274292e+00 2.980611e+00 3.801806e+00 7.546654e+00
<GCONST> 9.609752e+01
<STATE> 4
<MEAN> 25
 1.848471e+00 -1.519356e+00 2.380210e+00 -6.059131e+00 -5.346746e+00 -9.223353e+00 7.702011e+00 2.183413e-01 1.170287e+00 3.108518e-01 -5.630930e+00 -1.783693e+00 1.922632e-01 3.205988e-01 2.930680e-01 -2.147047e-01 -4.780070e-01 -4.953063e-01 6.246409e-02 -2.552161e-02 6.673187e-02 6.166809e-02 1.556284e-01 -7.567188e-02 1.098009e+00
<VARIANCE> 25
 3.802476e+01 3.804315e+01 6.727388e+01 5.025150e+01 6.917588e+01 5.543633e+01 1.313385e+02 6.692097e+01 4.086151e+01 6.886105e+01 2.690352e+01 2.437926e+01 2.512837e+00 1.656834e+00 4.693767e+00 3.770273e+00 4.117585e+00 4.447659e+00 6.027379e+00 4.488664e+00 3.686442e+00 4.120662e+00 2.557271e+00 2.330100e+00 1.134090e+01
<GCONST> 1.105503e+02
<TRANSP> 5
 0.000000e+00 1.000000e+00 0.000000e+00 0.000000e+00 0.000000e+00
 0.000000e+00 9.790306e-01 2.096939e-02 0.000000e+00 0.000000e+00
 0.000000e+00 0.000000e+00 5.263014e-01 4.736986e-01 0.000000e+00
 0.000000e+00 0.000000e+00 0.000000e+00 9.305089e-01 6.949115e-02
 0.000000e+00 0.000000e+00 0.000000e+00 0.000000e+00 0.000000e+00
<ENDHMM>
~h "k"
<BEGINHMM>
<NUMSTATES> 5
<STATE> 2
<MEAN> 25
 -1.474178e+00 -2.202161e+00 7.162616e-01 1.369409e+00 -1.543603e+00 -2.390773e+00 -2.950751e-01 2.621548e+00 -2.234317e+00 1.820582e+00 5.128230e-01 9.558237e-01 -1.144615e+00 -7.140045e-01 -1.230693e+00 2.251784e-01 3.279569e-01 2.405509e-01 -9.323958e-02 5.454029e-01 7.891241e-01 -4.844219e-01 1.227025e-01 -3.399582e-01 1.266027e+00
<VARIANCE> 25
 3.939526e+01 2.033070e+01 3.162198e+01 3.896686e+01 4.488341e+01 6.070928e+01 5.717447e+01 3.357079e+01 2.296582e+01 2.273586e+01 1.781322e+01 2.023184e+01 3.982330e+00 2.676173e+00 8.728930e+00 4.977783e+00 4.580090e+00 5.273473e+00 6.694473e+00 5.048987e+00 4.405585e+00 4.088241e+00 2.580633e+00 3.092783e+00 4.679142e+00
<GCONST> 1.067183e+02
<STATE> 3
<MEAN> 25
 -3.525117e+00 -4.037527e+00 -6.711336e+00 -6.757379e-04 -2.731665e-01 -5.500753e-01 -5.601419e+00 3.221903e+00 3.767331e+00 -4.136162e-01 -3.431607e-01 -7.934012e-01 -6.587391e-01 -5.681714e-02 -1.270077e+00 -8.463292e-01 -2.582212e-01 -6.976568e-02 -8.310792e-01 -8.793719e-01 1.626723e+00 -2.046074e-02 -1.591857e-01 -1.497929e-01 3.071592e+00
<VARIANCE> 25
 4.258047e+01 3.936336e+01 7.964078e+01 5.129871e+01 9.496873e+01 1.094595e+02 1.022097e+02 8.189846e+01 6.878233e+01 4.228733e+01 2.366213e+01 2.787211e+01 5.930542e+00 4.566055e+00 1.273746e+01 8.644194e+00 7.976768e+00 1.165019e+01 1.230220e+01 1.010774e+01 6.597462e+00 6.437590e+00 3.594589e+00 5.296714e+00 8.402248e+00
<GCONST> 1.206139e+02
<STATE> 4
<MEAN> 25
 2.702054e+00 1.859336e-01 -4.224703e+00 -6.651990e+00 -2.090183e+00 -1.185130e+00 -1.342790e+00 -3.013804e+00 5.929372e+00 -6.529605e-01 3.724443e-01 -3.020977e+00 1.666890e-01 3.809907e-01 2.805844e-02 -3.961017e-01 -1.422121e-02 1.009650e-01 4.446544e-01 -9.214681e-03 -4.496159e-02 -2.281873e-01 8.878823e-02 -2.200674e-02 1.015622e-01
<VARIANCE> 25
 7.930124e+01 4.075591e+01 5.929043e+01 8.612054e+01 5.151999e+01 1.000525e+02 7.610598e+01 7.825522e+01 5.666714e+01 2.884627e+01 3.658461e+01 4.079265e+01 5.845513e+00 2.997877e+00 4.679572e+00 4.716174e+00 3.444273e+00 4.519191e+00 4.048784e+00 4.430095e+00 4.703274e+00 2.991901e+00 3.474120e+00 3.228401e+00 3.420330e+00
<GCONST> 1.123939e+02
<TRANSP> 5
 0.000000e+00 1.000000e+00 0.000000e+00 0.000000e+00 0.000000e+00
 0.000000e+00 4.378458e-01 5.621542e-01 0.000000e+00 0.000000e+00
 0.000000e+00 0.000000e+00 5.220603e-01 4.779397e-01 0.000000e+00
 0.000000e+00 0.000000e+00 0.000000e+00 8.081986e-01 1.918014e-01
 0.000000e+00 0.000000e+00 0.000000e+00 0.000000e+00 0.000000e+00
<ENDHMM>
~h "l"
<BEGINHMM>
<NUMSTATES> 5
<STATE> 2
<MEAN> 25
 5.557526e+00 1.577480e+00 -6.965051e-01 -3.808485e+00 -6.149168e+00 -2.581262e+00 -2.692242e+00 -6.667884e+00 4.982750e+00 -1.852763e+00 -1.490750e+00 -6.044791e+00 9.587427e-02 -1.072467e-01 -2.421992e-01 -5.252810e-01 -2.983022e-01 -8.469827e-02 -1.204901e-01 -6.121725e-03 2.550358e-01 -5.353866e-02 5.929890e-02 1.159808e-01 4.903210e-01
<VARIANCE> 25
 4.527731e+01 4.342762e+01 7.828046e+01 8.923898e+01 6.542177e+01 7.470478e+01 1.001380e+02 9.247707e+01 6.912057e+01 5.650021e+01 5.596647e+01 4.958542e+01 2.679065e+00 2.618997e+00 3.713857e+00 5.367265e+00 4.896889e+00 6.746631e+00 6.258002e+00 6.187395e+00 4.318914e+00 4.681696e+00 4.361571e+00 3.980369e+00 3.834513e+00
<GCONST> 1.155085e+02
<STATE> 3
<MEAN> 25
 8.661178e+00 2.965207e+00 -2.814180e+00 -1.260636e+01 -7.176386e+00 -9.119371e-01 6.277826e-01 -2.619915e+00 3.428612e+00 -6.397496e-01 -4.471239e-01 1.140955e+00 -1.447392e-01 -5.205050e-02 3.039701e-01 5.111915e-01 1.805281e-01 -2.214580e-01 2.776186e-01 5.976925e-01 -6.154031e-01 1.356518e-01 2.465563e-01 4.342650e-01 -1.182444e+00
<VARIANCE> 25
 2.917119e+01 2.532030e+01 5.236764e+01 1.128453e+02 4.889453e+01 6.867271e+01 5.408551e+01 6.301521e+01 3.742994e+01 4.413823e+01 2.735438e+01 5.532562e+01 1.081761e+00 1.532209e+00 1.180765e+00 2.681688e+00 2.166469e+00 2.703785e+00 3.325768e+00 2.938914e+00 2.094639e+00 2.844186e+00 2.057276e+00 2.625212e+00 6.084683e-01
<GCONST> 1.009007e+02
<STATE> 4
<MEAN> 25
 4.315249e-01 -3.022043e+00 -4.002374e-01 1.539150e+00 1.591195e+00 2.592649e-01 4.118184e-01 1.569149e+00 -9.015266e-01 1.513746e+00 9.544988e-01 4.670262e-01 -3.460951e-01 -1.262070e-01 7.612631e-02 4.145208e-01 2.544825e-01 1.703787e-01 -2.068102e-02 -1.245566e-02 -1.166548e-01 -7.840700e-03 3.461147e-03 -1.475158e-02 -3.053020e-01
<VARIANCE> 25
 1.369904e+01 1.793645e+01 1.585266e+01 3.862019e+01 3.199415e+01 2.030223e+01 2.733105e+01 2.843076e+01 3.220542e+01 2.291103e+01 1.990487e+01 1.556985e+01 4.767694e-01 6.014317e-01 7.191070e-01 1.252752e+00 1.291016e+00 1.294479e+00 1.525007e+00 1.886557e+00 1.611450e+00 1.457127e+00 1.296759e+00 1.160171e+00 1.879469e-01
<GCONST> 8.314719e+01
<TRANSP> 5
 0.000000e+00 1.000000e+00 0.000000e+00 0.000000e+00 0.000000e+00
 0.000000e+00 8.435062e-01 1.564938e-01 0.000000e+00 0.000000e+00
 0.000000e+00 0.000000e+00 7.528852e-01 2.471148e-01 0.000000e+00
 0.000000e+00 0.000000e+00 0.000000e+00 8.424788e-01 1.575213e-01
 0.000000e+00 0.000000e+00 0.000000e+00 0.000000e+00 0.000000e+00
<ENDHMM>
~h "m"
<BEGINHMM>
<NUMSTATES> 5
<STATE> 2
<MEAN> 25
 1.789988e+00 1.624135e+00 -6.918505e-01 5.081710e-01 7.957193e-01 -7.603040e-01 -5.328282e-01 -2.962473e+00 -7.409540e-01 5.437425e-01 1.765954e+00 -4.490689e-01 3.311065e-01 2.339060e-01 5.067779e-01 5.184020e-01 2.437796e-01 8.490228e-02 1.324517e-01 -4.037519e-01 -5.635965e-01 -3.340181e-01 3.628695e-01 -5.866981e-01 -3.068340e-01
<VARIANCE> 25
 5.865611e+01 2.281412e+01 2.879246e+01 3.852081e+01 2.383600e+01 3.113651e+01 3.845750e+01 6.359800e+01 1.843785e+01 3.738659e+01 1.826480e+01 2.764565e+01 2.512281e+00 1.644696e+00 2.118440e+00 1.922334e+00 2.381031e+00 2.025987e+00 2.209383e+00 2.338602e+00 1.545351e+00 1.804583e+00 2.629524e+00 1.628881e+00 1.315002e+00
<GCONST> 9.612212e+01
<STATE> 3
<MEAN> 25
 6.937881e+00 5.473915e+00 3.905838e+00 3.253959e+00 1.366896e+00 -2.524339e+00 1.555503e+00 -6.144932e+00 -3.071392e+00 -3.075267e-01 2.186502e+00 -5.021241e+00 9.850236e-01 9.689813e-01 7.595059e-01 7.642375e-01 -2.126562e-01 -2.171587e-01 6.134722e-01 -9.914258e-01 -1.477903e-01 -6.961915e-01 -7.726691e-02 -9.820633e-01 5.841424e-01
<VARIANCE> 25
 5.306150e+01 3.655431e+01 3.860624e+01 3.514391e+01 2.818693e+01 3.312144e+01 5.652282e+01 6.632259e+01 2.447543e+01 2.917231e+01 3.247696e+01 5.683119e+01 5.379812e+00 4.702224e+00 4.168523e+00 1.870419e+00 3.565722e+00 3.124818e+00 4.593193e+00 5.227870e+00 2.468210e+00 2.587535e+00 2.440397e+00 4.530433e+00 4.540360e+00
<GCONST> 1.065337e+02
<STATE> 4
<MEAN> 25
 3.319109e+00 5.013268e+00 5.777697e+00 4.036081e+00 -5.827607e+00 -6.545865e+00 -1.765441e+00 -2.238302e+00 1.062415e+00 -4.963898e+00 -1.096349e+00 -2.398005e+00 -2.758002e-01 -3.188463e-01 -1.015572e-01 -3.579217e-01 -2.733753e-01 -1.734388e-01 -1.218422e-01 7.105626e-01 2.947457e-01 -1.345960e-01 -2.085261e-01 3.449809e-01 3.961574e-01
<VARIANCE> 25
 7.975653e+01 6.349050e+01 7.842171e+01 4.104773e+01 7.158157e+01 5.840679e+01 6.081915e+01 6.283411e+01 5.150102e+01 5.248925e+01 3.651729e+01 4.913575e+01 4.965133e+00 3.535142e+00 3.748473e+00 2.686718e+00 5.660521e+00 5.052962e+00 3.909411e+00 7.002761e+00 4.236091e+00 3.727463e+00 3.210597e+00 4.552923e+00 4.576119e+00
<GCONST> 1.133354e+02
<TRANSP> 5
 0.000000e+00 1.000000e+00 0.000000e+00 0.000000e+00 0.000000e+00
 0.000000e+00 1.712457e-01 8.287543e-01 0.000000e+00 0.000000e+00
 0.000000e+00 0.000000e+00 4.426401e-01 5.573599e-01 0.000000e+00
 0.000000e+00 0.000000e+00 0.000000e+00 8.671791e-01 1.328209e-01
 0.000000e+00 0.000000e+00 0.000000e+00 0.000000e+00 0.000000e+00
<ENDHMM>
~h "n"
<BEGINHMM>
<NUMSTATES> 5
<STATE> 2
<MEAN> 25
 3.365092e+00 -2.149543e-01 3.293063e+00 2.535853e+00 2.401078e+00 -1.710012e+00 5.709648e-02 1.919178e+00 -6.608117e-01 1.333377e+00 6.710721e-01 1.649900e+00 -1.017705e+00 -1.078019e+00 -2.241488e-01 5.938594e-01 8.608628e-01 7.850352e-01 5.959313e-02 3.086502e-01 -2.490906e-01 4.997417e-02 2.592348e-01 1.897673e-01 -8.234446e-01
<VARIANCE> 25
 1.563273e+01 1.696963e+01 1.088538e+01 1.866597e+01 2.410732e+01 2.056149e+01 1.769571e+01 2.185076e+01 1.901884e+01 1.996850e+01 1.636233e+01 1.205496e+01 8.042032e-01 6.951445e-01 1.104535e+00 1.347487e+00 1.661379e+00 1.486286e+00 1.706764e+00 1.999247e+00 1.852599e+00 1.599545e+00 1.575848e+00 1.427564e+00 1.335392e-01
<GCONST> 8.206052e+01
<STATE> 3
<MEAN> 25
 -5.308802e-01 -3.752707e+00 8.029401e-01 3.585997e+00 4.406001e+00 2.434515e+00 -2.508974e-02 2.738752e+00 -1.787139e+00 8.998563e-01 6.486781e-01 1.371842e+00 -3.564721e-02 -1.299333e-02 -4.908615e-02 2.590182e-02 -4.610952e-02 4.330965e-02 -5.830078e-02 1.586378e-02 -4.713181e-02 1.579064e-02 1.840831e-03 5.327106e-03 -1.130564e-01
<VARIANCE> 25
 1.948238e+00 6.109785e+00 7.401125e+00 1.087334e+01 1.144838e+01 1.238856e+01 1.287953e+01 1.598481e+01 1.601332e+01 1.631880e+01 1.152876e+01 1.102565e+01 1.100350e-01 2.546477e-01 4.060708e-01 5.983707e-01 7.952040e-01 9.333129e-01 1.035766e+00 1.165352e+00 1.326746e+00 1.240077e+00 1.167783e+00 1.119291e+00 3.351798e-02
<GCONST> 6.577482e+01
<STATE> 4
<MEAN> 25
 -2.217080e+00 -3.983915e+00 -1.331198e+00 4.271697e+00 2.965157e+00 2.433485e+00 -1.221530e+00 3.656055e+00 -3.715178e+00 1.493364e+00 -1.403983e-01 1.109707e+00 -2.436548e-02 4.614301e-02 -3.377042e-02 3.077118e-02 -7.105288e-04 7.389373e-02 1.592831e-03 7.248718e-02 -1.413543e-02 1.045891e-02 -7.884140e-03 -2.489476e-02 -7.270605e-02
<VARIANCE> 25
 2.742225e+00 6.069904e+00 8.351724e+00 1.073827e+01 1.155185e+01 1.496773e+01 1.418202e+01 1.544785e+01 1.407193e+01 1.497047e+01 1.343370e+01 1.268491e+01 1.896157e-01 2.844397e-01 4.625060e-01 6.865047e-01 8.885399e-01 1.120674e+00 1.340007e+00 1.575574e+00 1.357790e+00 1.496561e+00 1.348698e+00 1.164334e+00 6.383330e-02
<GCONST> 6.937060e+01
<TRANSP> 5
 0.000000e+00 1.000000e+00 0.000000e+00 0.000000e+00 0.000000e+00
 0.000000e+00 7.133000e-01 2.867000e-01 0.000000e+00 0.000000e+00
 0.000000e+00 0.000000e+00 9.593263e-01 4.067373e-02 0.000000e+00
 0.000000e+00 0.000000e+00 0.000000e+00 9.288757e-01 7.112432e-02
 0.000000e+00 0.000000e+00 0.000000e+00 0.000000e+00 0.000000e+00
<ENDHMM>
~h "p"
<BEGINHMM>
<NUMSTATES> 5
<STATE> 2
<MEAN> 25
 -7.240183e-01 -3.288273e+00 -2.297013e+00 -2.601322e+00 -3.550721e+00 -3.302099e+00 9.426640e-01 3.094494e+00 2.748187e+00 4.984101e-01 -1.252129e+00 1.736253e-01 -2.721990e-01 -2.437426e-01 9.780446e-01 7.195697e-01 1.962783e-01 4.521306e-01 -3.331536e-01 4.877412e-03 -4.087556e-01 6.654742e-02 -6.720643e-03 1.753523e-01 -1.666969e-01
<VARIANCE> 25
 3.792553e+01 1.611089e+01 1.645469e+01 3.770952e+01 4.735188e+01 3.981911e+01 4.655908e+01 2.579123e+01 3.317184e+01 3.349606e+01 2.349061e+01 2.256656e+01 3.423075e+00 2.283736e+00 1.837946e+00 3.264208e+00 2.569502e+00 2.025291e+00 3.090195e+00 3.846505e+00 2.580955e+00 1.661725e+00 2.271028e+00 1.424365e+00 2.571392e+00
<GCONST> 9.825875e+01
<STATE> 3
<MEAN> 25
 -2.384081e-01 -3.091867e+00 4.086327e-01 -1.111851e+00 -1.107744e+00 -1.502580e+00 -4.044544e-01 1.939674e+00 8.160976e-01 1.500680e-01 1.467083e+00 1.357543e+00 -5.346189e-01 8.536133e-02 8.642093e-01 9.383035e-01 8.821438e-01 7.476460e-01 -4.684856e-01 -7.360863e-01 -6.409370e-01 1.532905e-01 5.522838e-01 5.109977e-01 -4.527672e-01
<VARIANCE> 25
 1.059286e+01 1.198776e+01 8.650222e+00 2.579842e+01 3.471191e+01 3.412786e+01 2.204884e+01 2.260599e+01 3.311236e+01 2.540677e+01 1.753611e+01 1.285573e+01 7.874247e-01 4.030157e-01 1.112800e+00 1.371642e+00 1.041634e+00 1.664847e+00 2.531320e+00 2.722217e+00 2.142613e+00 1.264932e+00 1.692168e+00 1.946526e+00 2.462343e-01
<GCONST> 8.418399e+01
<STATE> 4
<MEAN> 25
 -2.076819e+00 -3.963471e+00 -6.079908e-01 3.222278e+00 1.465113e+00 2.819129e+00 -1.996462e+00 2.366410e+00 -3.584119e+00 2.285417e-01 7.854589e-01 1.674182e+00 -1.744789e-02 1.793697e-02 -1.349836e-02 4.187822e-02 -2.006090e-02 7.689175e-02 -3.229430e-02 3.270462e-02 -3.341999e-02 2.692778e-02 -1.638526e-02 1.611550e-02 -7.889500e-02
<VARIANCE> 25
 2.414511e+00 3.819697e+00 6.887469e+00 1.011869e+01 1.047086e+01 1.578081e+01 1.273216e+01 1.551507e+01 1.692603e+01 1.296223e+01 1.108605e+01 1.197737e+01 1.246788e-01 2.541208e-01 4.093738e-01 6.939828e-01 8.682472e-01 1.065222e+00 1.292244e+00 1.727448e+00 1.728401e+00 1.297857e+00 1.099543e+00 1.192841e+00 4.731974e-02
<GCONST> 6.712845e+01
<TRANSP> 5
 0.000000e+00 1.000000e+00 0.000000e+00 0.000000e+00 0.000000e+00
 0.000000e+00 4.152208e-01 5.847791e-01 0.000000e+00 0.000000e+00
 0.000000e+00 0.000000e+00 4.328263e-01 5.671738e-01 0.000000e+00
 0.000000e+00 0.000000e+00 0.000000e+00 9.722700e-01 2.773000e-02
 0.000000e+00 0.000000e+00 0.000000e+00 0.000000e+00 0.000000e+00
<ENDHMM>
~h "r"
<BEGINHMM>
<NUMSTATES> 5
<STATE> 2
<MEAN> 25
 -4.658167e+00 2.815890e+00 -6.100970e+00 -6.648173e-01 -1.390093e+00 -2.741725e-01 2.476291e+00 -1.420606e+00 6.233804e+00 7.228202e-02 2.653919e-01 -2.910860e+00 -1.821334e-01 1.197809e-01 -3.709284e-01 4.486027e-01 -1.099696e-01 -1.405133e-01 -7.611519e-02 -4.500175e-01 3.647177e-01 7.168957e-02 1.998087e-01 -5.738617e-02 3.973255e-01
<VARIANCE> 25
 1.082377e+02 8.161805e+01 5.689986e+01 8.191136e+01 3.997706e+01 4.690398e+01 3.805997e+01 4.580391e+01 6.408829e+01 2.989682e+01 2.064915e+01 5.232216e+01 3.223721e+00 3.042440e+00 3.744965e+00 2.637664e+00 1.936648e+00 3.369149e+00 2.767945e+00 5.092967e+00 2.368852e+00 2.681073e+00 2.645534e+00 2.279034e+00 3.322246e+00
<GCONST> 1.069643e+02
<STATE> 3
<MEAN> 25
 4.173664e+00 -8.980513e-01 -3.709276e+00 3.589267e+00 -3.310971e+00 -1.159453e+00 -2.174770e+00 -3.346840e+00 5.661535e+00 -9.697974e-02 2.961844e-01 -1.391456e+00 1.491357e+00 -1.079672e-01 -1.849820e-01 1.384061e+00 -9.137115e-02 -8.512427e-01 -1.052701e+00 -2.595830e-01 3.056855e-01 -8.637362e-01 1.290359e-01 -5.039832e-02 7.694495e-01
<VARIANCE> 25
 1.250187e+02 3.465342e+01 7.344683e+01 7.102380e+01 5.011146e+01 6.490510e+01 8.439359e+01 6.962534e+01 5.798240e+01 4.321252e+01 4.675837e+01 3.013861e+01 9.110396e+00 4.173188e+00 5.807863e+00 5.508374e+00 5.962886e+00 6.639102e+00 7.059125e+00 5.296618e+00 5.397364e+00 4.391422e+00 3.574641e+00 4.014317e+00 5.082368e+00
<GCONST> 1.165818e+02
<STATE> 4
<MEAN> 25
 9.692682e+00 5.776669e-01 -1.587066e+00 4.085987e+00 -7.691181e+00 -6.967860e+00 -3.969207e+00 -6.440886e+00 5.002024e+00 -2.627451e+00 3.608244e+00 -3.316018e-01 -4.401460e-02 6.400506e-02 3.903425e-01 -4.809571e-01 -2.493811e-01 -1.848030e-01 6.415252e-02 3.324565e-02 -4.570390e-01 2.622620e-01 -8.338622e-02 2.801612e-01 -1.296197e-01
<VARIANCE> 25
 6.355017e+01 4.015584e+01 1.150128e+02 9.582830e+01 4.655312e+01 7.924530e+01 6.050901e+01 1.048888e+02 6.353697e+01 3.775887e+01 4.834950e+01 3.518115e+01 3.147020e+00 2.078436e+00 4.376909e+00 4.572471e+00 4.382068e+00 4.906160e+00 3.928342e+00 4.071649e+00 4.421618e+00 5.055950e+00 3.736370e+00 2.984582e+00 2.396798e+00
<GCONST> 1.123973e+02
<TRANSP> 5
 0.000000e+00 1.000000e+00 0.000000e+00 0.000000e+00 0.000000e+00
 0.000000e+00 7.317111e-01 2.682889e-01 0.000000e+00 0.000000e+00
 0.000000e+00 0.000000e+00 6.455986e-01 3.544014e-01 0.000000e+00
 0.000000e+00 0.000000e+00 0.000000e+00 8.282585e-01 1.717415e-01
 0.000000e+00 0.000000e+00 0.000000e+00 0.000000e+00 0.000000e+00
<ENDHMM>
~h "s"
<BEGINHMM>
<NUMSTATES> 5
<STATE> 2
<MEAN> 25
 -7.444813e+00 8.626871e+00 1.021105e-01 6.649375e-01 3.323257e+00 -5.601597e+00 1.652774e+00 -1.832617e-01 -4.969431e-02 9.801560e-01 9.205106e-01 6.578705e-01 -2.733462e+00 3.365867e+00 -1.085865e+00 -8.553740e-01 1.440593e+00 -9.619930e-01 5.165979e-01 -2.353956e-01 3.303607e-01 6.716017e-03 5.239409e-01 2.001002e-04 2.031318e+00
<VARIANCE> 25
 5.053302e+01 9.025005e+01 7.075050e+01 5.137644e+01 7.674072e+01 5.304486e+01 4.046557e+01 5.287589e+01 4.212421e+01 2.743472e+01 2.504872e+01 2.010039e+01 3.452299e+00 4.808479e+00 3.314972e+00 3.623375e+00 3.592908e+00 4.764502e+00 3.893925e+00 3.022117e+00 3.026210e+00 2.468267e+00 2.734945e+00 2.064829e+00 3.624169e+00
<GCONST> 1.074549e+02
<STATE> 3
<MEAN> 25
 -1.732343e+01 1.768921e+01 -6.248966e+00 -4.398501e-01 9.502868e+00 -6.065028e+00 3.356692e+00 1.238559e+00 1.062683e+00 1.979192e+00 1.695200e+00 1.627693e+00 -1.251944e-01 2.360102e-01 -4.543988e-01 5.615604e-01 -1.996662e-01 4.339500e-01 1.188712e-01 -2.522578e-01 1.314312e-01 -6.731862e-03 -5.910413e-02 -1.331142e-01 2.490639e-01
<VARIANCE> 25
 2.108964e+01 2.429309e+01 1.683917e+01 3.377199e+01 3.031104e+01 1.883340e+01 1.802747e+01 2.114873e+01 1.693103e+01 1.653139e+01 9.829890e+00 8.614612e+00 1.240824e+00 1.573036e+00 8.849580e-01 1.383913e+00 1.301541e+00 1.282328e+00 1.298499e+00 1.198600e+00 1.031309e+00 9.572917e-01 7.771382e-01 7.538999e-01 1.731398e+00
<GCONST> 8.272071e+01
<STATE> 4
<MEAN> 25
 -1.130804e+01 1.078711e+01 -7.247512e+00 6.880871e+00 3.395915e+00 -3.738868e-01 2.524743e+00 -1.147453e+00 1.666456e+00 5.422060e-01 1.989535e+00 8.153503e-01 3.635080e-01 -8.610634e-01 3.174951e-01 1.315116e-01 -2.519910e-01 2.981427e-01 -8.117234e-02 3.499861e-02 -9.831508e-02 -9.711888e-02 -1.640235e-01 6.355020e-02 -5.437428e-01
<VARIANCE> 25
 4.448282e+01 1.017633e+02 3.012549e+01 1.751716e+01 1.636995e+01 2.108504e+01 1.957978e+01 1.359151e+01 2.093340e+01 1.098408e+01 1.239947e+01 8.960411e+00 1.003080e+00 1.162167e+00 7.628036e-01 9.330344e-01 1.018697e+00 1.276577e+00 1.184673e+00 1.009445e+00 1.150526e+00 1.315898e+00 1.196841e+00 7.600245e-01 8.741948e-01
<GCONST> 8.264987e+01
<TRANSP> 5
 0.000000e+00 1.000000e+00 0.000000e+00 0.000000e+00 0.000000e+00
 0.000000e+00 7.241200e-01 2.758800e-01 0.000000e+00 0.000000e+00
 0.000000e+00 0.000000e+00 8.291494e-01 1.708506e-01 0.000000e+00
 0.000000e+00 0.000000e+00 0.000000e+00 8.893755e-01 1.106245e-01
 0.000000e+00 0.000000e+00 0.000000e+00 0.000000e+00 0.000000e+00
<ENDHMM>
~h "t"
<BEGINHMM>
<NUMSTATES> 5
<STATE> 2
<MEAN> 25
 -3.409962e+00 6.316358e+00 -3.269005e+00 -7.109272e-01 -1.790826e+00 -5.082776e+00 -3.674542e-01 -1.704009e+00 2.733072e+00 1.414818e+00 -6.044382e-01 1.621965e+00 -2.503610e+00 1.370559e+00 -6.192889e-01 1.803250e-01 9.288704e-01 2.333504e-01 6.428226e-01 4.352674e-01 4.274976e-01 -4.116993e-01 -5.347151e-02 2.270715e-01 9.396183e-01
<VARIANCE> 25
 8.835000e+01 5.241456e+01 5.213799e+01 4.577892e+01 6.086164e+01 5.882326e+01 6.316382e+01 5.410239e+01 3.606358e+01 3.862353e+01 3.769880e+01 2.674314e+01 7.470118e+00 6.992426e+00 4.494406e+00 4.154586e+00 5.219041e+00 5.709142e+00 5.019660e+00 5.690175e+00 3.779691e+00 3.724074e+00 3.519058e+00 2.476017e+00 3.177072e+00
<GCONST> 1.122345e+02
<STATE> 3
<MEAN> 25
 -1.246286e+01 9.321375e+00 -3.928980e+00 -1.281268e+00 6.816209e+00 -4.159795e+00 3.601239e+00 1.809132e+00 1.737121e+00 -4.507009e-01 1.248296e+00 1.935570e+00 6.678674e-01 -1.157348e+00 4.337695e-01 2.229273e-01 1.705696e-01 9.211506e-02 8.666959e-03 -1.019960e-01 -2.443480e-01 -1.027686e-01 3.246814e-04 -6.508629e-03 -9.466949e-01
<VARIANCE> 25
 3.421656e+01 5.465849e+01 2.365910e+01 2.956973e+01 3.077706e+01 2.533992e+01 2.383311e+01 3.079279e+01 2.267094e+01 2.125505e+01 1.599434e+01 1.622790e+01 1.432110e+00 1.424213e+00 1.426192e+00 1.546361e+00 1.480238e+00 1.866423e+00 1.631667e+00 2.627246e+00 1.703998e+00 1.325174e+00 1.541374e+00 1.424179e+00 9.226863e-01
<GCONST> 9.052116e+01
<STATE> 4
<MEAN> 25
 -1.847083e+00 -3.512267e+00 1.007060e+00 3.621093e+00 3.604800e+00 2.193957e+00 -1.472362e-01 2.000583e+00 -2.603141e+00 2.592979e-01 7.467896e-01 1.518267e+00 4.338272e-02 -6.862041e-02 3.388610e-02 5.041037e-02 -5.212028e-02 1.278238e-01 -8.697212e-02 5.838877e-02 -6.128456e-02 2.580115e-02 -4.247504e-02 -1.805186e-02 -1.427901e-01
<VARIANCE> 25
 6.280056e+00 7.777016e+00 9.669171e+00 1.093839e+01 1.117673e+01 1.505188e+01 1.711812e+01 1.724166e+01 1.748573e+01 1.440144e+01 1.308817e+01 1.059607e+01 3.016263e-01 3.804449e-01 4.585944e-01 6.462508e-01 9.207601e-01 1.165965e+00 1.193276e+00 1.401422e+00 1.441359e+00 1.335367e+00 1.205153e+00 1.123605e+00 1.070541e-01
<GCONST> 7.169797e+01
<TRANSP> 5
 0.000000e+00 1.000000e+00 0.000000e+00 0.000000e+00 0.000000e+00
 0.000000e+00 7.400711e-01 2.599290e-01 0.000000e+00 0.000000e+00
 0.000000e+00 0.000000e+00 8.334532e-01 1.665468e-01 0.000000e+00
 0.000000e+00 0.000000e+00 0.000000e+00 9.367753e-01 6.322471e-02
 0.000000e+00 0.000000e+00 0.000000e+00 0.000000e+00 0.000000e+00
<ENDHMM>
~h "v"
<BEGINHMM>
<NUMSTATES> 5
<STATE> 2
<MEAN> 25
 6.923028e+00 3.137125e+00 7.388903e+00 3.497567e+00 -4.495510e+00 -7.614843e+00 -7.445198e+00 -4.059216e+00 -3.053072e+00 1.594825e+00 7.603704e-01 8.015874e-01 -7.235954e-01 -2.204610e-01 -5.801217e-01 2.739033e-01 1.172142e+00 9.499986e-01 3.992605e-01 3.839306e-01 2.253986e-01 -7.626645e-03 3.036278e-01 4.047374e-01 -9.690823e-01
<VARIANCE> 25
 1.860140e+01 2.180587e+01 5.279285e+01 2.625496e+01 4.381448e+01 4.240384e+01 2.412235e+01 3.782783e+01 2.757442e+01 2.922892e+01 2.005038e+01 3.083592e+01 8.176190e-01 1.895634e+00 1.614262e+00 1.473927e+00 1.787110e+00 1.846702e+00 2.011674e+00 2.438552e+00 2.174827e+00 2.216726e+00 1.564651e+00 2.443039e+00 2.231006e-01
<GCONST> 9.215205e+01
<STATE> 3
<MEAN> 25
 2.587897e+00 -7.590798e-01 2.543424e+00 2.537502e+00 1.808268e+00 -1.462375e+00 -1.279824e+00 9.866148e-02 2.904122e-01 1.319358e+00 1.594712e+00 8.885098e-01 -1.160533e+00 -9.652601e-01 -3.958536e-01 2.823736e-01 9.612342e-01 1.124527e+00 9.248322e-01 2.675257e-01 5.227169e-02 4.751364e-02 1.075528e-01 -1.539927e-01 -7.230686e-01
<VARIANCE> 25
 1.704802e+01 1.200789e+01 1.698083e+01 2.365144e+01 2.441084e+01 2.835977e+01 3.892781e+01 3.384330e+01 2.697090e+01 2.532271e+01 1.644972e+01 1.508638e+01 6.339713e-01 4.901189e-01 8.362038e-01 1.608741e+00 1.218445e+00 1.415776e+00 1.820783e+00 2.282159e+00 1.571289e+00 1.413423e+00 1.757430e+00 9.654993e-01 1.456276e-01
<GCONST> 8.352535e+01
<STATE> 4
<MEAN> 25
 -2.112356e+00 -3.390764e+00 1.245388e+00 4.491810e+00 4.934045e+00 2.315051e+00 2.051082e+00 2.527587e+00 -9.866785e-01 1.433712e+00 8.238569e-01 1.340833e+00 -4.966238e-02 -2.162348e-02 -2.302604e-02 2.867225e-02 -5.452952e-03 5.430130e-02 -2.847306e-02 6.589538e-02 -2.031573e-02 3.718909e-02 -1.942797e-02 1.437429e-02 -1.120588e-01
<VARIANCE> 25
 6.940821e+00 5.217239e+00 6.869012e+00 1.218906e+01 1.217215e+01 1.587890e+01 1.734272e+01 1.695901e+01 1.541352e+01 2.028164e+01 1.352478e+01 1.127197e+01 1.322270e-01 2.577409e-01 4.437843e-01 6.437112e-01 8.121313e-01 1.069594e+00 1.336662e+00 1.381667e+00 1.315840e+00 1.294200e+00 1.235925e+00 1.062683e+00 5.109732e-02
<GCONST> 6.935545e+01
<TRANSP> 5
 0.000000e+00 1.000000e+00 0.000000e+00 0.000000e+00 0.000000e+00
 0.000000e+00 7.590887e-01 2.409113e-01 0.000000e+00 0.000000e+00
 0.000000e+00 0.000000e+00 6.178130e-01 3.821870e-01 0.000000e+00
 0.000000e+00 0.000000e+00 0.000000e+00 9.579956e-01 4.200439e-02
 0.000000e+00 0.000000e+00 0.000000e+00 0.000000e+00 0.000000e+00
<ENDHMM>
~h "w"
<BEGINHMM>
<NUMSTATES> 5
<STATE> 2
<MEAN> 25
 1.376378e+01 9.605583e+00 2.759054e+00 -6.899009e+00 -7.411657e+00 1.921542e+00 -4.438957e+00 -1.990984e+00 -3.175408e+00 -5.650357e+00 -1.280512e+00 2.151167e+00 1.070520e+00 7.295805e-01 -2.442507e-01 -1.813951e+00 -1.281556e+00 1.047281e+00 2.069116e-01 -1.006052e+00 4.698173e-01 -8.733849e-01 -3.098936e-02 3.897274e-01 8.986264e-01
<VARIANCE> 25
 4.212313e+01 3.122664e+01 2.729887e+01 7.201149e+01 3.908224e+01 9.185664e+01 3.709218e+01 4.633800e+01 2.320553e+01 3.353977e+01 2.644048e+01 1.819588e+01 3.912054e+00 3.988619e+00 2.751461e+00 4.010958e+00 4.196800e+00 7.680209e+00 3.389323e+00 4.996407e+00 3.698480e+00 3.771288e+00 2.481710e+00 1.898285e+00 2.669528e+00
<GCONST> 1.057991e+02
<STATE> 3
<MEAN> 25
 1.093956e+01 5.762297e+00 -4.441659e+00 -1.935324e+01 -9.242502e+00 1.054200e+01 -1.122844e+00 -1.262432e+01 7.115221e+00 -2.767231e+00 1.799982e+00 -2.681074e-01 -1.234789e+00 -1.976262e+00 -9.778603e-01 -9.418544e-02 1.472101e+00 -1.216820e+00 6.424384e-01 9.109676e-02 2.238409e+00 1.689092e+00 -7.283895e-02 -1.976426e+00 2.080179e+00
<VARIANCE> 25
 3.532711e+01 3.627692e+01 2.185170e+01 1.030412e+02 4.944015e+01 8.405488e+01 6.922742e+01 8.416744e+01 8.435598e+01 1.266657e+02 2.563731e+01 6.512386e+01 1.431181e+00 3.115788e+00 2.131688e+00 7.939841e+00 4.653825e+00 1.313202e+01 7.615682e+00 1.096078e+01 6.248935e+00 6.852017e+00 4.426019e+00 6.113253e+00 3.711042e+00
<GCONST> 1.157488e+02
<STATE> 4
<MEAN> 25
 7.123204e+00 -1.576546e+00 -9.826660e+00 -1.588292e+01 -1.952126e+00 7.278731e+00 3.785939e+00 -6.881272e+00 7.501298e+00 2.804923e-01 4.768483e-01 -6.319235e+00 -2.420661e-01 -7.415667e-01 -2.443338e-01 1.679697e+00 4.330577e-01 -1.415864e+00 2.077172e-01 1.183667e+00 -1.120000e+00 7.657034e-01 -8.446184e-01 -8.995613e-01 7.599898e-03
<VARIANCE> 25
 4.050179e+01 2.443155e+01 2.484330e+01 8.282714e+01 9.449256e+01 9.211187e+01 6.594965e+01 3.679394e+01 6.628813e+01 3.639311e+01 4.992731e+01 4.550711e+01 7.415929e-01 1.407679e+00 1.424246e+00 3.797195e+00 3.026059e+00 3.924996e+00 3.362900e+00 4.400809e+00 3.175416e+00 3.650753e+00 1.495938e+00 3.145703e+00 9.719601e-01
<GCONST> 1.037269e+02
<TRANSP> 5
 0.000000e+00 1.000000e+00 0.000000e+00 0.000000e+00 0.000000e+00
 0.000000e+00 8.147977e-01 1.852023e-01 0.000000e+00 0.000000e+00
 0.000000e+00 0.000000e+00 6.901187e-01 3.098813e-01 0.000000e+00
 0.000000e+00 0.000000e+00 0.000000e+00 6.936563e-01 3.063437e-01
 0.000000e+00 0.000000e+00 0.000000e+00 0.000000e+00 0.000000e+00
<ENDHMM>
~h "y"
<BEGINHMM>
<NUMSTATES> 5
<STATE> 2
<MEAN> 25
 -2.180328e+00 -2.875947e+00 -1.439045e-01 3.140903e+00 3.861594e+00 2.871133e+00 7.244547e-01 2.837209e+00 -2.101120e+00 5.025599e-01 1.619599e-01 1.750555e+00 -2.651925e-02 9.020139e-03 -1.684320e-02 4.222105e-02 -3.185118e-03 6.291807e-02 -1.128844e-02 1.641165e-02 -2.301783e-02 3.325741e-02 -2.111557e-02 2.440617e-02 -8.178905e-02
<VARIANCE> 25
 3.071928e+00 4.356476e+00 5.225829e+00 9.189810e+00 1.090002e+01 1.729602e+01 1.407433e+01 1.676460e+01 1.280884e+01 1.420876e+01 1.162455e+01 1.037253e+01 1.039134e-01 2.308066e-01 4.088608e-01 5.873333e-01 8.485055e-01 1.017186e+00 1.115561e+00 1.410954e+00 1.264326e+00 1.202541e+00 1.156254e+00 1.073090e+00 4.153290e-02
<GCONST> 6.571467e+01
<STATE> 3
<MEAN> 25
 -2.316884e+00 -2.489053e+00 -1.232521e+00 4.589427e+00 3.626547e+00 4.566179e+00 -3.002092e-01 3.451909e+00 -2.277558e+00 1.231073e+00 -1.295761e+00 1.739906e+00 -9.608497e-02 1.500096e+00 7.130232e-01 -3.098020e-01 -4.697715e-01 -1.668773e+00 -7.610033e-01 -1.619259e+00 -2.530905e-01 1.716626e-01 -5.363865e-01 -1.168042e+00 2.186620e+00
<VARIANCE> 25
 2.282493e+00 5.678127e+00 6.257437e+00 1.458649e+01 9.804557e+00 1.626803e+01 1.333105e+01 2.219255e+01 1.534710e+01 1.911141e+01 1.709723e+01 7.602417e+00 3.828367e+00 4.836600e+00 3.628500e+00 1.581267e+00 2.938430e+00 5.678995e+00 4.503749e+00 4.231778e+00 1.185846e+01 3.587360e+00 1.782705e+00 1.340005e+00 3.650408e+00
<GCONST> 9.067715e+01
<STATE> 4
<MEAN> 25
 -3.276629e+00 8.690224e+00 9.202415e+00 -7.833387e-01 -7.304349e+00 -4.927562e+00 -2.834975e+00 -2.153862e+00 -7.606670e+00 2.214491e-01 -2.177202e+00 -2.830875e+00 -4.113804e-01 -3.765317e-01 2.361781e-02 -7.922068e-01 -1.921787e+00 -1.479989e+00 7.227544e-02 -2.855832e-02 8.823353e-01 2.560517e-01 4.770969e-02 -2.077855e-01 3.755411e+00
<VARIANCE> 25
 2.431059e+01 1.132406e+02 6.985313e+01 3.992133e+01 9.305869e+01 4.676458e+01 4.735501e+01 2.826889e+01 9.053438e+01 3.233302e+01 1.968947e+01 3.696286e+01 3.614273e+00 1.181104e+01 6.476850e+00 4.432959e+00 5.171915e+00 8.768749e+00 7.722938e+00 4.924873e+00 6.020416e+00 4.046968e+00 2.359084e+00 4.190530e+00 4.960436e+00
<GCONST> 1.136002e+02
<TRANSP> 5
 0.000000e+00 1.000000e+00 0.000000e+00 0.000000e+00 0.000000e+00
 0.000000e+00 9.748587e-01 2.514122e-02 0.000000e+00 0.000000e+00
 0.000000e+00 0.000000e+00 3.514294e-01 6.485707e-01 0.000000e+00
 0.000000e+00 0.000000e+00 0.000000e+00 7.567064e-01 2.432936e-01
 0.000000e+00 0.000000e+00 0.000000e+00 0.000000e+00 0.000000e+00
<ENDHMM>
~h "z"
<BEGINHMM>
<NUMSTATES> 5
<STATE> 2
<MEAN> 25
 9.428041e-02 7.378054e+00 -1.673244e+00 1.308830e+00 2.096790e+00 -4.521191e+00 5.646151e-01 3.196819e-01 4.993537e-01 3.943158e+00 -5.653232e-01 1.203332e-02 -1.821477e+00 3.440819e+00 -5.836002e-01 2.242097e-01 1.075586e+00 -1.560923e+00 8.771320e-02 -2.483183e-01 1.499052e-01 -2.494049e-01 6.219094e-01 -4.048384e-01 1.472078e+00
<VARIANCE> 25
 9.392876e+01 1.179376e+02 1.555001e+01 7.474352e+01 5.688992e+01 6.843177e+01 4.323838e+01 3.873791e+01 3.129879e+01 3.273313e+01 2.923062e+01 1.768983e+01 7.681233e+00 8.901395e+00 2.615866e+00 4.701480e+00 4.451074e+00 4.109007e+00 3.145029e+00 5.733425e+00 2.855466e+00 3.687552e+00 2.465122e+00 2.439504e+00 3.870183e+00
<GCONST> 1.092229e+02
<STATE> 3
<MEAN> 25
 -1.470638e+01 1.717430e+01 -7.157572e+00 1.220789e-01 9.712193e+00 -7.462024e+00 6.408741e+00 3.018004e-01 2.507153e-01 1.293353e+00 1.662942e+00 1.970225e+00 1.577796e-01 -5.405886e-01 6.959416e-02 3.188913e-01 2.555523e-03 7.188243e-02 2.530966e-01 -3.634263e-01 1.617900e-01 -2.322831e-01 -2.003010e-01 1.485966e-01 -3.172088e-01
<VARIANCE> 25
 3.644486e+01 4.434036e+01 1.556746e+01 3.872157e+01 3.255792e+01 1.885580e+01 3.364853e+01 4.024685e+01 1.807454e+01 1.056323e+01 1.073507e+01 9.463571e+00 1.419615e+00 1.944316e+00 5.531909e-01 9.025151e-01 7.538641e-01 1.180054e+00 9.886051e-01 1.118799e+00 1.003387e+00 9.915606e-01 6.791657e-01 6.739815e-01 1.296230e+00
<GCONST> 8.301730e+01
<STATE> 4
<MEAN> 25
 -5.606353e+00 1.581258e+01 -1.277089e+00 1.009488e+01 5.621269e-01 -1.024045e+01 -2.214626e+00 -6.616620e-01 2.452439e+00 -2.976253e+00 -8.029414e+00 -1.774221e+00 1.766287e-01 -1.787977e+00 9.758453e-01 -2.739583e-01 -1.174773e+00 -1.011475e-01 2.323667e-01 1.678255e-01 -7.130495e-01 -6.639884e-01 -1.315677e-01 3.736825e-02 1.024752e+00
<VARIANCE> 25
 1.667541e+01 1.038682e+02 1.887223e+01 4.559283e+01 4.550853e+01 3.658039e+01 6.934800e+01 2.570674e+01 2.347698e+01 2.208522e+01 3.988466e+01 2.692801e+01 1.485134e+00 2.363956e+00 3.111689e+00 1.737137e+00 2.952773e+00 3.798683e+00 3.737368e+00 2.748059e+00 4.123868e+00 2.080958e+00 4.244874e+00 1.995044e+00 1.593107e+00
<GCONST> 1.007364e+02
<TRANSP> 5
 0.000000e+00 1.000000e+00 0.000000e+00 0.000000e+00 0.000000e+00
 0.000000e+00 7.243761e-01 2.756238e-01 0.000000e+00 0.000000e+00
 0.000000e+00 0.000000e+00 8.693445e-01 1.306555e-01 0.000000e+00
 0.000000e+00 0.000000e+00 0.000000e+00 7.454528e-01 2.545472e-01
 0.000000e+00 0.000000e+00 0.000000e+00 0.000000e+00 0.000000e+00
<ENDHMM>
~h "aa"
<BEGINHMM>
<NUMSTATES> 5
<STATE> 2
<MEAN> 25
 5.598507e+00 6.486528e+00 -1.860098e+00 -8.990641e+00 -8.039043e-01 6.505960e+00 -2.344089e+00 -6.565676e+00 5.599487e+00 -4.729811e+00 5.870217e-02 -1.985638e+00 9.796121e-01 -4.116955e-01 -8.460785e-02 -1.674930e+00 -1.116078e-01 7.544518e-01 5.680896e-01 -5.545004e-01 7.554135e-01 -5.540168e-01 -5.980944e-02 -6.133903e-01 1.960746e+00
<VARIANCE> 25
 6.077825e+01 5.136491e+01 4.713714e+01 1.762338e+02 3.876684e+01 1.125754e+02 7.276618e+01 6.098631e+01 9.320343e+01 7.092833e+01 3.856568e+01 5.949505e+01 7.205884e+00 4.650016e+00 2.769425e+00 6.856670e+00 4.639121e+00 7.170091e+00 6.399741e+00 4.347429e+00 3.861349e+00 3.980331e+00 3.812205e+00 4.554355e+00 5.319928e+00
<GCONST> 1.168758e+02
<STATE> 3
<MEAN> 25
 9.328651e+00 -1.643380e+00 -6.885912e+00 -1.699365e+01 1.247074e+00 7.132580e+00 9.288945e+00 -7.762514e+00 7.785678e+00 -2.006202e+00 -1.447839e+00 -6.490227e+00 1.418120e-01 -6.649508e-02 2.117402e-01 9.617575e-01 -3.138264e-01 -4.772907e-01 -9.391903e-02 4.585804e-01 -6.420828e-01 9.337456e-01 -9.483498e-02 6.702508e-02 -9.498616e-01
<VARIANCE> 25
 1.552225e+01 3.224682e+01 3.419484e+01 8.104266e+01 4.731220e+01 7.229802e+01 4.216999e+01 5.435300e+01 3.622071e+01 4.731876e+01 6.860638e+01 1.124079e+02 7.894540e-01 9.277226e-01 1.561739e+00 2.503173e+00 2.003906e+00 2.721600e+00 3.489965e+00 2.782204e+00 2.193308e+00 2.103295e+00 2.581321e+00 2.608675e+00 1.279551e+00
<GCONST> 1.010655e+02
<STATE> 4
<MEAN> 25
 5.672198e+00 5.258729e-01 -2.863515e+00 -7.727579e+00 -1.112028e+00 2.761450e+00 3.247024e+00 1.386385e-02 5.727710e+00 2.828742e+00 -3.449631e+00 -2.130203e+00 -6.000251e-01 -1.914857e-01 3.085600e-01 7.194173e-01 2.471027e-01 -1.933551e-01 -2.987892e-01 2.946615e-01 -3.306847e-01 -4.989297e-02 2.784458e-01 -3.874990e-02 -7.953368e-01
<VARIANCE> 25
 6.735945e+01 4.303373e+01 2.907068e+01 3.560538e+01 3.145268e+01 6.705144e+01 2.327534e+01 4.468909e+01 2.900160e+01 3.401266e+01 5.472628e+01 5.213732e+01 6.232502e+00 3.404583e+00 1.967221e+00 2.982814e+00 1.753567e+00 4.232562e+00 2.625177e+00 4.066717e+00 3.543701e+00 2.447527e+00 3.326061e+00 2.698048e+00 1.649707e+00
<GCONST> 1.043646e+02
<TRANSP> 5
 0.000000e+00 1.000000e+00 0.000000e+00 0.000000e+00 0.000000e+00
 0.000000e+00 8.769633e-01 1.230367e-01 0.000000e+00 0.000000e+00
 0.000000e+00 0.000000e+00 8.876262e-01 1.123738e-01 0.000000e+00
 0.000000e+00 0.000000e+00 0.000000e+00 8.114151e-01 1.885850e-01
 0.000000e+00 0.000000e+00 0.000000e+00 0.000000e+00 0.000000e+00
<ENDHMM>
~h "ae"
<BEGINHMM>
<NUMSTATES> 5
<STATE> 2
<MEAN> 25
 -1.078014e+00 -7.180535e-01 1.418761e-01 1.267061e+00 3.119433e+00 -1.627581e+00 5.609775e-01 8.526790e-01 1.306868e-02 -1.938248e+00 9.885097e-01 1.177502e+00 8.321966e-02 -8.707476e-01 -9.083383e-02 -2.338696e-01 1.216867e-01 -1.457008e-01 7.730477e-01 -2.663966e-02 -1.700944e-01 -4.300122e-01 -8.050010e-01 -1.415567e-01 7.987729e-01
<VARIANCE> 25
 2.402106e+01 1.679102e+01 1.655363e+01 2.022489e+01 4.014233e+01 4.534853e+01 3.658782e+01 3.395359e+01 4.762004e+01 1.396393e+01 1.615688e+01 2.545376e+01 2.160765e+00 2.508131e+00 2.430573e+00 2.265218e+00 2.471885e+00 4.140311e+00 4.959107e+00 2.166374e+00 1.414896e+00 1.213786e+00 2.484190e+00 9.892452e-01 7.225166e+00
<GCONST> 9.642403e+01
<STATE> 3
<MEAN> 25
 3.456604e+00 -2.891592e+00 -4.570531e+00 -6.087020e+00 -3.334671e+00 -9.178713e+00 5.967624e+00 1.331209e+00 4.639575e+00 -3.478086e+00 -4.436278e+00 -1.963416e+00 2.622510e-01 -1.243107e-01 -1.842150e-02 -2.252009e-01 -1.046155e-01 -2.656722e-01 2.401192e-01 4.339352e-03 -1.134812e-01 -2.426148e-02 5.278412e-02 9.067322e-02 1.304129e-01
<VARIANCE> 25
 3.044237e+01 4.367453e+01 2.316538e+01 7.347158e+01 2.463766e+01 6.988737e+01 8.410898e+01 6.162486e+01 2.405221e+01 2.951659e+01 3.631536e+01 4.190632e+01 1.668882e+00 2.304321e+00 1.896384e+00 3.095461e+00 1.505403e+00 3.874254e+00 4.933960e+00 2.852894e+00 1.776813e+00 1.776414e+00 3.239682e+00 2.047200e+00 1.061407e+01
<GCONST> 1.034045e+02
<STATE> 4
<MEAN> 25
 -1.602325e+00 -2.203415e+00 1.387047e+00 4.238312e+00 2.855282e+00 3.558150e+00 5.261068e-01 2.909321e+00 -2.919567e+00 -4.534597e-01 1.515271e+00 3.026667e+00 -1.183951e-02 1.470704e-02 -9.988246e-03 8.922303e-02 -4.764308e-02 1.999758e-01 -8.090623e-02 5.217580e-02 -9.068225e-02 1.180955e-01 -6.376465e-02 -2.630873e-02 -1.814826e-01
<VARIANCE> 25
 6.244649e+00 1.022003e+01 8.521996e+00 2.650396e+01 1.622998e+01 3.472636e+01 2.653385e+01 2.277487e+01 1.770725e+01 1.811548e+01 1.371197e+01 1.823800e+01 2.051565e-01 3.212500e-01 3.838104e-01 7.459503e-01 9.229303e-01 1.435037e+00 1.982601e+00 1.333356e+00 1.595340e+00 1.829205e+00 1.298972e+00 1.481717e+00 1.871843e-01
<GCONST> 7.688687e+01
<TRANSP> 5
 0.000000e+00 1.000000e+00 0.000000e+00 0.000000e+00 0.000000e+00
 0.000000e+00 1.965405e-01 8.034596e-01 0.000000e+00 0.000000e+00
 0.000000e+00 0.000000e+00 8.663551e-01 1.336450e-01 0.000000e+00
 0.000000e+00 0.000000e+00 0.000000e+00 8.628656e-01 1.371344e-01
 0.000000e+00 0.000000e+00 0.000000e+00 0.000000e+00 0.000000e+00
<ENDHMM>
~h "ah"
<BEGINHMM>
<NUMSTATES> 5
<STATE> 2
<MEAN> 25
 -5.652740e-01 -3.502533e-01 -1.065675e+00 -8.989136e-01 -2.375134e+00 -3.163110e+00 7.246325e-01 2.331668e-01 2.272748e+00 1.098689e+00 -2.972714e+00 -1.608226e+00 7.282676e-01 -2.283705e-01 -1.533288e-01 -7.627468e-01 -1.408407e-01 -7.765235e-01 1.267427e-01 -6.932664e-01 6.051365e-01 4.637421e-01 -5.474804e-01 -8.729900e-01 1.738067e+00
<VARIANCE> 25
 7.652100e+01 3.709598e+01 5.021560e+01 5.003320e+01 5.464632e+01 7.797462e+01 5.510411e+01 5.394469e+01 5.242263e+01 3.881620e+01 4.497710e+01 3.607251e+01 6.821950e+00 3.150995e+00 4.520064e+00 5.259249e+00 5.458530e+00 6.831647e+00 4.764186e+00 5.033562e+00 5.567137e+00 5.161008e+00 4.776905e+00 3.560010e+00 8.083729e+00
<GCONST> 1.144051e+02
<STATE> 3
<MEAN> 25
 7.322283e+00 -1.124695e+00 -4.075368e+00 -4.413208e+00 -2.757435e+00 -7.597197e+00 1.008562e+00 -1.861966e+00 4.587592e+00 5.080408e+00 -5.270988e+00 -6.420103e+00 1.790593e-01 3.806477e-01 2.118548e-01 2.840845e-01 1.492244e-01 1.836960e-01 -1.715856e-01 4.554060e-02 -6.050474e-02 -1.015583e-01 1.763863e-01 3.264084e-01 -8.404608e-01
<VARIANCE> 25
 3.779585e+01 3.191475e+01 4.161162e+01 4.418296e+01 4.923965e+01 9.557867e+01 6.440973e+01 6.922740e+01 4.312751e+01 4.566663e+01 5.337910e+01 5.223669e+01 1.157950e+00 1.247157e+00 2.438051e+00 2.132491e+00 3.276818e+00 4.446090e+00 3.145331e+00 3.955406e+00 3.153117e+00 2.937626e+00 3.237370e+00 2.631680e+00 1.682910e+00
<GCONST> 1.050418e+02
<STATE> 4
<MEAN> 25
 3.993545e+00 1.445106e+00 1.757178e+00 -1.025018e+00 -5.375232e-01 -3.710701e+00 3.720033e-01 -1.260292e+00 7.902395e-01 7.545531e-01 -1.298552e+00 1.529749e-01 -1.783192e-01 -1.357182e-01 2.359728e-01 3.032944e-01 2.770820e-01 4.866444e-01 -9.685541e-02 3.918954e-01 -1.801017e-01 -3.946593e-01 3.599373e-01 2.237192e-01 -9.203309e-01
<VARIANCE> 25
 5.896342e+01 3.785896e+01 3.847217e+01 4.335659e+01 5.861462e+01 4.770258e+01 4.801101e+01 4.387894e+01 4.305560e+01 2.886856e+01 3.286048e+01 3.085242e+01 1.479732e+00 1.316895e+00 1.848239e+00 1.900516e+00 2.031778e+00 2.353936e+00 2.433390e+00 3.284187e+00 2.718301e+00 2.206279e+00 3.099791e+00 1.741463e+00 7.674320e-01
<GCONST> 9.949223e+01
<TRANSP> 5
 0.000000e+00 1.000000e+00 0.000000e+00 0.000000e+00 0.000000e+00
 0.000000e+00 6.136330e-01 3.863670e-01 0.000000e+00 0.000000e+00
 0.000000e+00 0.000000e+00 7.727677e-01 2.272323e-01 0.000000e+00
 0.000000e+00 0.000000e+00 0.000000e+00 5.667142e-01 4.332858e-01
 0.000000e+00 0.000000e+00 0.000000e+00 0.000000e+00 0.000000e+00
<ENDHMM>
~h "ao"
<BEGINHMM>
<NUMSTATES> 5
<STATE> 2
<MEAN> 25
 -3.512556e+00 7.345664e+00 -1.275585e+01 -1.388535e+01 -3.283125e+00 8.415873e+00 -4.868150e-01 -5.582191e-02 2.430243e+00 -8.132356e+00 5.883574e+00 5.619559e-02 1.067108e+00 2.048576e+00 2.026329e-01 -2.866321e+00 -1.661569e+00 1.018978e+00 8.051696e-01 -1.569323e+00 1.422043e+00 -2.078436e+00 -6.935906e-01 4.112328e-01 2.390986e+00
<VARIANCE> 25
 4.395512e+01 3.516765e+01 1.735554e+02 1.107381e+02 5.193105e+01 5.721942e+01 6.563493e+01 5.120423e+01 7.146971e+01 5.218435e+01 1.249411e+02 5.833392e+01 1.284037e+01 2.408176e+00 1.356159e+01 1.346903e+01 7.543644e+00 6.942986e+00 6.753197e+00 5.751224e+00 5.705342e+00 1.066100e+01 1.269161e+01 6.731215e+00 4.678601e+00
<GCONST> 1.227444e+02
<STATE> 3
<MEAN> 25
 8.179718e+00 1.305154e+01 -3.321298e+00 -2.202183e+01 -1.538727e+01 1.382236e+01 8.021420e+00 -9.488500e+00 1.045232e+01 -1.033157e+01 -6.323285e+00 3.941524e+00 2.302875e+00 4.249993e-01 1.999810e-01 -2.644613e+00 -2.304092e+00 1.233138e+00 1.543057e-01 -1.356406e+00 1.618006e+00 -1.223930e+00 9.343514e-01 4.418318e-01 1.474519e+00
<VARIANCE> 25
 4.792229e+01 3.074902e+01 2.314202e+01 8.853161e+01 1.013044e+02 6.473412e+01 5.841984e+01 4.325431e+01 5.129472e+01 1.265422e+02 7.374171e+01 3.071989e+01 6.639390e+00 2.755728e+00 1.478021e+00 7.601248e+00 6.928768e+00 5.289885e+00 2.549770e+00 2.377792e+00 7.445054e+00 4.666891e+00 5.132229e+00 3.391646e+00 2.849437e+00
<GCONST> 1.121756e+02
<STATE> 4
<MEAN> 25
 1.013151e+01 1.360467e+01 -5.684934e+00 -2.713270e+01 -1.607708e+01 6.242838e+00 2.612658e+00 -7.491833e+00 1.701923e+01 -1.732665e+01 2.493367e+00 4.263634e+00 9.131585e-02 -5.157623e-01 2.416315e-02 5.456687e-01 1.333849e-01 -6.975210e-01 1.827343e-01 3.174245e-01 -3.960847e-01 7.308598e-01 1.283455e-01 -1.204041e-01 -4.259112e-01
<VARIANCE> 25
 1.504660e+01 2.697792e+01 1.550854e+01 6.400931e+01 4.057601e+01 1.001122e+02 3.406260e+01 4.589521e+01 5.887490e+01 5.652660e+01 3.158428e+01 3.006060e+01 4.195213e-01 1.059377e+00 1.010692e+00 2.671372e+00 2.081805e+00 1.672544e+00 1.628714e+00 2.267217e+00 2.723847e+00 2.909860e+00 1.570036e+00 1.878776e+00 6.269874e-01
<GCONST> 9.490477e+01
<TRANSP> 5
 0.000000e+00 1.000000e+00 0.000000e+00 0.000000e+00 0.000000e+00
 0.000000e+00 7.385507e-01 2.614493e-01 0.000000e+00 0.000000e+00
 0.000000e+00 0.000000e+00 6.692414e-01 3.307586e-01 0.000000e+00
 0.000000e+00 0.000000e+00 0.000000e+00 9.272665e-01 7.273350e-02
 0.000000e+00 0.000000e+00 0.000000e+00 0.000000e+00 0.000000e+00
<ENDHMM>
~h "aw"
<BEGINHMM>
<NUMSTATES> 5
<STATE> 2
<MEAN> 25
 4.937420e+00 1.271957e-01 -3.872153e+00 -8.810102e+00 -4.394384e-01 3.651288e+00 -2.274672e+00 -2.669059e+00 9.515824e+00 3.127380e+00 -2.605520e+00 -6.257453e+00 2.563418e-01 -3.099960e-01 -4.959484e-01 -3.342111e-01 3.642958e-01 2.572534e-01 4.432572e-01 -3.460643e-01 4.215623e-02 1.492091e-02 -1.677010e-01 -4.576475e-01 1.486574e+00
<VARIANCE> 25
 3.670831e+01 4.113479e+01 2.637161e+01 7.008988e+01 3.697917e+01 5.928814e+01 4.656784e+01 4.934460e+01 4.591122e+01 5.011239e+01 5.069290e+01 3.800830e+01 3.618006e+00 2.529436e+00 2.748788e+00 5.455797e+00 3.856788e+00 4.381576e+00 3.820647e+00 6.516590e+00 4.789868e+00 4.333491e+00 4.218651e+00 3.900069e+00 1.263522e+01
<GCONST> 1.108596e+02
<STATE> 3
<MEAN> 25
 5.778404e+00 -4.331308e+00 -1.168388e+01 -1.252762e+01 7.019317e+00 4.299864e+00 8.292911e+00 -4.822341e+00 2.179404e+00 3.844328e+00 -3.283367e+00 -9.845837e+00 2.838929e-01 3.733801e-01 -1.315697e-01 -9.997636e-02 -2.907230e-01 -1.295587e-01 9.408452e-02 1.377929e-01 -3.898051e-01 6.255925e-01 2.370164e-01 3.299858e-01 -1.099124e+00
<VARIANCE> 25
 3.129096e+01 1.876391e+01 3.009372e+01 4.793217e+01 4.516872e+01 2.770251e+01 4.418652e+01 5.612094e+01 3.601223e+01 5.954293e+01 3.793280e+01 2.027847e+01 6.745731e-01 1.113487e+00 1.276344e+00 2.143549e+00 1.681334e+00 1.641610e+00 1.961759e+00 2.525002e+00 1.603487e+00 1.599812e+00 1.976038e+00 1.862369e+00 7.198144e-01
<GCONST> 9.411197e+01
<STATE> 4
<MEAN> 25
 3.733028e+00 2.541320e+00 -6.827961e+00 -6.209277e+00 2.395683e+00 9.484005e-01 4.211744e+00 2.212409e+00 5.516784e-01 4.980519e+00 6.896284e-01 -1.867589e+00 -9.276425e-01 7.575424e-02 9.081645e-01 6.685354e-01 -2.516903e-03 -1.503944e-01 -8.951180e-02 6.618310e-01 3.940853e-01 -1.227015e+00 4.151888e-01 5.204093e-01 -9.510661e-01
<VARIANCE> 25
 9.949075e+01 4.401706e+01 4.731220e+01 3.057854e+01 2.707243e+01 2.621472e+01 1.913040e+01 3.234228e+01 3.299207e+01 5.224316e+01 1.462576e+01 1.418015e+01 4.526231e+00 3.081972e+00 2.681248e+00 2.162836e+00 1.757376e+00 3.148852e+00 1.992776e+00 2.256415e+00 1.874964e+00 2.221893e+00 1.856234e+00 2.191201e+00 1.053503e+00
<GCONST> 9.787733e+01
<TRANSP> 5
 0.000000e+00 1.000000e+00 0.000000e+00 0.000000e+00 0.000000e+00
 0.000000e+00 9.145847e-01 8.541535e-02 0.000000e+00 0.000000e+00
 0.000000e+00 0.000000e+00 9.328443e-01 6.715571e-02 0.000000e+00
 0.000000e+00 0.000000e+00 0.000000e+00 8.364307e-01 1.635693e-01
 0.000000e+00 0.000000e+00 0.000000e+00 0.000000e+00 0.000000e+00
<ENDHMM>
~h "ay"
<BEGINHMM>
<NUMSTATES> 5
<STATE> 2
<MEAN> 25
 -3.570401e+00 3.885402e+00 -1.111138e+00 2.641573e+00 1.040160e-01 2.664914e+00 -1.365061e+00 -2.454696e+00 1.375577e+00 -7.984707e-01 -2.067894e+00 4.633912e-01 2.028754e+00 5.200788e-01 -4.753098e-01 -1.169520e+00 -7.556745e-01 -2.877938e-01 2.222824e-01 -1.964096e+00 1.105744e+00 -6.949062e-01 -4.733053e-01 -4.276052e-01 3.099235e+00
<VARIANCE> 25
 1.429508e+02 4.300176e+01 6.011255e+01 6.098628e+01 2.716186e+01 2.805857e+01 3.079909e+01 4.457346e+01 5.766593e+01 2.570067e+01 2.743955e+01 2.319325e+01 1.183780e+01 5.168837e+00 6.793859e+00 7.305744e+00 2.747087e+00 4.776629e+00 4.680883e+00 5.476412e+00 5.744668e+00 3.727558e+00 5.122667e+00 3.902219e+00 8.062918e+00
<GCONST> 1.124787e+02
<STATE> 3
<MEAN> 25
 1.093629e+01 2.984673e-03 -5.853005e+00 -9.491697e+00 -5.040656e+00 2.811788e+00 1.760147e+00 -1.065745e+01 1.140146e+01 -5.158558e+00 -4.851217e-01 -2.450362e+00 -2.641054e-01 -1.431691e+00 -2.598183e-01 -1.248879e+00 9.266266e-01 1.224585e-01 1.050467e+00 2.435195e-01 1.327792e-01 4.453817e-01 -6.462039e-02 -1.329849e+00 1.635904e+00
<VARIANCE> 25
 2.910792e+01 7.933554e+01 1.184359e+02 2.219967e+02 8.530897e+01 9.975684e+01 8.903924e+01 7.911656e+01 6.441798e+01 7.346706e+01 7.468462e+01 7.958036e+01 4.454147e+00 1.672334e+00 3.539912e+00 4.309169e+00 5.658731e+00 5.746637e+00 7.773582e+00 7.340746e+00 6.337370e+00 3.450274e+00 4.214584e+00 4.173950e+00 4.069471e+00
<GCONST> 1.185447e+02
<STATE> 4
<MEAN> 25
 5.623728e+00 -6.558331e+00 -5.171970e+00 -8.267244e+00 2.023870e+00 -4.256207e+00 6.870173e+00 -3.125045e+00 5.726892e+00 -4.545348e-01 -2.642703e+00 -8.619870e+00 5.129888e-02 2.101406e-01 3.673690e-01 3.875961e-01 -5.062118e-01 -5.768115e-01 -2.264085e-01 4.834557e-01 -2.482310e-01 1.083101e-01 4.155024e-02 3.813743e-01 -7.599044e-01
<VARIANCE> 25
 1.018808e+01 2.559085e+01 4.868932e+01 3.837998e+01 8.888634e+01 1.088306e+02 3.355207e+01 6.560514e+01 3.503133e+01 4.004745e+01 3.637077e+01 3.739087e+01 5.704005e-01 9.023895e-01 1.625442e+00 1.678319e+00 3.219091e+00 3.577244e+00 2.222899e+00 3.509484e+00 1.983570e+00 2.437403e+00 1.881452e+00 2.146707e+00 9.284208e-01
<GCONST> 9.811372e+01
<TRANSP> 5
 0.000000e+00 1.000000e+00 0.000000e+00 0.000000e+00 0.000000e+00
 0.000000e+00 7.656367e-01 2.343633e-01 0.000000e+00 0.000000e+00
 0.000000e+00 0.000000e+00 8.427318e-01 1.572682e-01 0.000000e+00
 0.000000e+00 0.000000e+00 0.000000e+00 9.420550e-01 5.794502e-02
 0.000000e+00 0.000000e+00 0.000000e+00 0.000000e+00 0.000000e+00
<ENDHMM>
~h "ch"
<BEGINHMM>
<NUMSTATES> 5
<STATE> 2
<MEAN> 25
 -7.119945e+00 4.356698e-01 5.247445e-01 9.635287e+00 2.666756e+00 2.636197e+00 -2.424027e+00 3.390834e+00 9.878008e-01 -2.903171e+00 -1.032692e+00 4.850537e+00 1.348374e-01 1.523189e-03 8.018288e-02 -1.393496e-01 -5.048844e-01 2.913520e-03 -5.273060e-01 -2.813930e-01 2.069197e-01 -2.005796e-01 -1.026900e-01 2.969841e-01 3.922541e-02
<VARIANCE> 25
 4.240018e+01 3.209776e+01 5.842482e+01 3.557981e+01 3.098329e+01 3.859192e+01 4.266115e+01 1.916471e+01 5.115786e+01 2.353587e+01 2.537352e+01 1.881585e+01 3.979012e+00 5.208148e+00 9.959695e+00 5.756348e+00 4.854750e+00 5.717108e+00 3.329410e+00 9.324960e-01 6.381055e+00 4.011971e+00 2.330455e+00 1.931787e+00 1.671648e+00
<GCONST> 1.046544e+02
<STATE> 3
<MEAN> 25
 1.033714e-01 -3.059666e+00 2.409238e+00 4.816658e+00 5.698357e+00 4.518854e+00 6.143560e-01 3.968925e+00 -2.528129e+00 2.452520e+00 7.321477e-03 3.472056e+00 -1.058457e-03 -5.603379e-02 -1.881070e-02 5.171623e-02 -8.144185e-02 1.477432e-01 -1.834519e-01 7.068101e-02 9.754685e-02 8.570854e-02 -1.045146e-02 -2.335957e-02 -1.071931e-01
<VARIANCE> 25
 1.364401e+00 1.091433e+01 3.005963e+00 5.181463e+00 5.656651e+00 9.822076e+00 9.280356e+00 1.493093e+01 1.177104e+01 1.185533e+01 1.343142e+01 1.500897e+01 2.078664e-01 1.895342e-01 3.906792e-01 6.043472e-01 6.631134e-01 9.058548e-01 1.110066e+00 1.345830e+00 1.369717e+00 1.320362e+00 1.560780e+00 1.338008e+00 3.224157e-02
<GCONST> 6.369548e+01
<STATE> 4
<MEAN> 25
 -8.593474e+00 2.358871e+00 1.515511e+00 3.142970e-02 -5.582973e+00 -2.115209e+00 -1.407534e+00 1.197562e+00 4.655960e+00 -3.999206e-01 -9.094853e-01 2.467277e+00 -4.489107e-01 1.152764e-01 1.191731e-01 5.668268e-03 -4.518036e-01 -3.320985e-01 -3.383194e-01 -4.972182e-01 2.306880e-01 -5.600965e-02 -4.055136e-01 -3.284547e-01 1.002274e+00
<VARIANCE> 25
 1.317920e+02 1.994301e+01 1.427474e+01 3.813968e+01 2.580607e+01 7.291113e+01 2.686182e+01 4.864938e+01 1.832594e+01 1.752387e+01 1.840691e+01 2.268329e+01 7.028159e+00 1.750559e+00 1.939082e+00 4.328832e+00 2.917369e+00 4.893384e+00 2.744740e+00 4.004477e+00 2.249336e+00 2.227864e+00 2.910029e+00 2.602196e+00 9.120342e+00
<GCONST> 1.021820e+02
<TRANSP> 5
 0.000000e+00 1.000000e+00 0.000000e+00 0.000000e+00 0.000000e+00
 0.000000e+00 7.716618e-01 2.283383e-01 0.000000e+00 0.000000e+00
 0.000000e+00 0.000000e+00 9.438933e-01 5.610675e-02 0.000000e+00
 0.000000e+00 0.000000e+00 0.000000e+00 8.718517e-01 1.281483e-01
 0.000000e+00 0.000000e+00 0.000000e+00 0.000000e+00 0.000000e+00
<ENDHMM>
~h "dh"
<BEGINHMM>
<NUMSTATES> 5
<STATE> 2
<MEAN> 25
 4.364481e+00 3.191710e+00 4.609863e-01 -2.155651e+00 -5.964211e+00 -9.202015e+00 -2.629952e+00 -4.111350e+00 1.028156e+01 -4.640331e-01 -9.102059e+00 -3.809083e+00 9.425620e-01 -1.200948e+00 -8.425259e-02 -6.638510e-01 -5.206260e-01 1.849398e-02 -8.932427e-01 -4.875683e-01 2.953064e-01 4.497333e-01 -3.130893e-01 -9.897675e-01 5.301294e-01
<VARIANCE> 25
 1.762347e+01 2.805997e+01 1.828107e+01 3.085824e+01 4.580361e+01 2.754753e+01 6.125209e+01 8.470451e+01 2.901164e+01 2.737915e+01 3.427871e+01 2.818023e+01 3.064336e+00 1.733389e+00 2.604106e+00 2.722725e+00 3.643224e+00 2.276374e+00 4.596642e+00 7.561619e+00 2.390326e+00 3.481390e+00 3.231639e+00 3.682711e+00 2.885162e+00
<GCONST> 1.026784e+02
<STATE> 3
<MEAN> 25
 1.092338e+01 -4.218307e+00 -1.571609e+00 -2.585593e-01 -9.683927e+00 -9.442562e+00 -6.008349e+00 9.969171e-01 9.716692e+00 7.027934e+00 -6.154339e+00 -2.976091e+00 -4.198444e-01 5.797149e-02 -9.543873e-02 1.273360e-01 8.749260e-01 2.814909e-01 8.816471e-02 4.899404e-01 -4.594962e-01 4.841433e-02 7.313473e-01 5.700468e-01 -1.293556e+00
<VARIANCE> 25
 1.868185e+01 2.036522e+01 1.097235e+01 5.035169e+01 3.139874e+01 5.582599e+01 3.623001e+01 7.574728e+01 2.039623e+01 2.429693e+01 3.002902e+01 4.495042e+01 1.768486e+00 1.597221e+00 9.338129e-01 2.094786e+00 8.676547e-01 2.714659e+00 2.353040e+00 3.402754e+00 1.604395e+00 2.381241e+00 1.973807e+00 2.006144e+00 3.021920e-01
<GCONST> 9.316863e+01
<STATE> 4
<MEAN> 25
 5.020339e+00 -3.085745e+00 -3.194096e+00 -6.700541e+00 1.263388e+00 -6.730166e+00 -9.639084e-01 -2.819573e+00 4.409692e+00 4.677021e+00 -3.709144e+00 -1.092046e+01 -1.565748e-01 1.811103e-01 2.168448e-01 4.908430e-02 4.115757e-01 2.873674e-01 4.441906e-01 -4.128481e-01 -5.996135e-01 -1.272941e-01 1.885983e-01 3.866090e-01 -8.290916e-01
<VARIANCE> 25
 2.292387e+01 1.929838e+01 3.823249e+01 6.094875e+01 2.152446e+01 3.292213e+01 2.237724e+01 3.728336e+01 4.626928e+01 3.768251e+01 6.765689e+01 8.007663e+01 1.075277e+00 1.502017e+00 1.462143e+00 2.257194e+00 1.952868e+00 4.160838e+00 2.168956e+00 3.427626e+00 2.627999e+00 2.367085e+00 3.332473e+00 4.512227e+00 1.212789e+00
<GCONST> 9.964974e+01
<TRANSP> 5
 0.000000e+00 1.000000e+00 0.000000e+00 0.000000e+00 0.000000e+00
 0.000000e+00 8.124763e-01 1.875238e-01 0.000000e+00 0.000000e+00
 0.000000e+00 0.000000e+00 8.792092e-01 1.207909e-01 0.000000e+00
 0.000000e+00 0.000000e+00 0.000000e+00 8.694930e-01 1.305070e-01
 0.000000e+00 0.000000e+00 0.000000e+00 0.000000e+00 0.000000e+00
<ENDHMM>
~h "eh"
<BEGINHMM>
<NUMSTATES> 5
<STATE> 2
<MEAN> 25
 4.108461e+00 1.075343e+00 1.185619e+00 -1.778715e+00 -4.594076e+00 -8.192420e+00 -1.429964e+00 -2.240432e+00 2.529790e-01 -2.132443e+00 -2.540213e+00 -1.671514e+00 6.375813e-01 -1.047173e+00 1.635052e-01 -9.868707e-01 -7.708714e-01 -1.359972e+00 8.220859e-01 8.803672e-01 3.958717e-01 -9.911969e-03 -3.790314e-01 -2.151722e-01 2.429078e+00
<VARIANCE> 25
 6.442252e+01 5.596377e+01 6.031087e+01 4.703607e+01 7.216788e+01 6.672521e+01 6.895145e+01 7.316660e+01 4.608002e+01 3.688581e+01 9.009126e+01 4.394455e+01 4.478965e+00 4.701791e+00 4.740298e+00 3.037052e+00 4.118985e+00 6.846616e+00 6.012538e+00 5.402724e+00 4.333803e+00 3.943372e+00 5.948758e+00 3.149423e+00 8.413542e+00
<GCONST> 1.152484e+02
<STATE> 3
<MEAN> 25
 4.488106e+00 -4.250415e+00 -4.217549e+00 -4.811307e+00 -4.523816e+00 -1.174797e+01 9.057034e+00 4.121581e+00 7.406648e+00 -1.157835e+00 -5.554921e+00 -6.117223e+00 1.330826e-02 1.732293e-01 -5.977514e-02 1.312995e-01 -4.904053e-02 -1.245152e-03 2.302648e-02 5.200413e-02 4.354800e-02 1.403327e-01 -5.115176e-02 1.124970e-01 -6.321073e-01
<VARIANCE> 25
 2.199216e+01 1.612152e+01 3.483136e+01 2.457029e+01 2.990334e+01 5.341729e+01 5.436994e+01 3.547184e+01 2.752430e+01 2.736602e+01 4.170945e+01 3.409014e+01 1.006055e+00 1.006609e+00 1.883988e+00 1.272323e+00 1.834307e+00 2.244666e+00 3.162820e+00 2.689576e+00 1.594527e+00 2.033105e+00 1.751824e+00 1.762729e+00 1.327670e+00
<GCONST> 9.442461e+01
<STATE> 4
<MEAN> 25
 2.603908e+00 3.279181e+00 -7.108366e-01 -1.014618e+00 -6.895497e+00 -9.971213e+00 1.803626e+00 2.413558e-01 3.823193e+00 3.943441e-01 -2.769106e+00 -1.628843e+00 -1.467903e-01 2.756321e-01 9.128205e-02 4.004838e-01 3.734247e-01 4.207079e-01 -3.938308e-01 -1.942690e-01 -6.149840e-02 -7.554933e-02 3.130891e-01 1.562046e-01 -9.547620e-01
<VARIANCE> 25
 7.074017e+01 4.491764e+01 4.716172e+01 4.047760e+01 3.541594e+01 5.036502e+01 3.999758e+01 5.300419e+01 5.395342e+01 3.229014e+01 3.024423e+01 2.252835e+01 3.529438e+00 2.250576e+00 2.360216e+00 1.874125e+00 1.571702e+00 2.987684e+00 2.959134e+00 3.430593e+00 2.387577e+00 2.276073e+00 2.093794e+00 1.602607e+00 1.292938e+00
<GCONST> 1.012815e+02
<TRANSP> 5
 0.000000e+00 1.000000e+00 0.000000e+00 0.000000e+00 0.000000e+00
 0.000000e+00 7.661287e-01 2.338713e-01 0.000000e+00 0.000000e+00
 0.000000e+00 0.000000e+00 8.799669e-01 1.200331e-01 0.000000e+00
 0.000000e+00 0.000000e+00 0.000000e+00 8.579404e-01 1.420595e-01
 0.000000e+00 0.000000e+00 0.000000e+00 0.000000e+00 0.000000e+00
<ENDHMM>
~h "er"
<BEGINHMM>
<NUMSTATES> 5
<STATE> 2
<MEAN> 25
 -3.025175e+00 -3.062232e+00 -5.365815e-02 2.780514e+00 3.960941e+00 2.736423e+00 4.591188e-02 2.037853e+00 -2.324323e+00 -5.876417e-01 6.009288e-01 2.039493e+00 -4.347492e-02 -8.733990e-04 4.437288e-03 7.594118e-02 3.327598e-02 1.221463e-01 -2.966475e-02 2.176155e-02 -8.995715e-02 -3.748304e-02 -2.213356e-02 -2.124630e-02 -1.325940e-01
<VARIANCE> 25
 5.078064e+00 5.364353e+00 7.323065e+00 9.064791e+00 1.235536e+01 1.390236e+01 1.377212e+01 1.501386e+01 1.984868e+01 1.506931e+01 1.019179e+01 1.390924e+01 1.524693e-01 2.351962e-01 4.287663e-01 5.669084e-01 9.003427e-01 1.118188e+00 1.215623e+00 1.372414e+00 1.516592e+00 1.444769e+00 9.913291e-01 1.115259e+00 5.348757e-02
<GCONST> 6.831229e+01
<STATE> 3
<MEAN> 25
 -2.254954e+00 -1.555588e+00 -1.244879e+00 3.533558e+00 1.665842e+00 2.345698e+00 -5.270936e-01 1.660309e+00 3.464609e-02 1.287019e-02 -7.321646e-01 1.589872e+00 2.772557e-01 1.076288e-01 2.372237e-01 7.351471e-02 -1.629627e-01 6.912144e-02 6.893941e-02 -1.048805e-01 -3.454748e-01 -5.128796e-01 -3.402069e-01 -4.174353e-01 -3.920566e-02
<VARIANCE> 25
 3.228883e+01 1.239215e+01 1.178761e+01 2.056045e+01 4.192965e+01 3.581682e+01 4.562074e+01 1.667905e+01 5.747930e+01 1.821778e+01 1.715889e+01 1.957447e+01 1.203329e+00 8.829551e-01 1.355915e+00 9.541602e-01 1.145060e+00 1.727331e+00 1.730663e+00 1.617444e+00 2.467382e+00 2.293932e+00 1.037745e+00 1.343552e+00 2.450699e-01
<GCONST> 8.683776e+01
<STATE> 4
<MEAN> 25
 -1.521434e+00 -1.931904e+00 -1.789391e+00 7.649333e-01 -8.841475e-01 1.642179e+00 -1.269957e+00 2.443164e+00 -2.526470e+00 -1.056128e+00 -9.857430e-01 5.347931e-02 3.496413e-01 2.718538e-01 2.132974e-01 -4.336918e-01 -3.153464e-01 -2.737563e-01 -9.203218e-03 -1.181235e-01 -8.367742e-02 6.502746e-02 -2.034823e-01 -3.284455e-01 2.401923e-01
<VARIANCE> 25
 1.253813e+01 8.270347e+00 1.316650e+01 2.174504e+01 3.116365e+01 2.869628e+01 1.838402e+01 1.589193e+01 3.602794e+01 1.463684e+01 2.207948e+01 1.619344e+01 1.818902e+00 8.660349e-01 1.661748e+00 2.198591e+00 2.635780e+00 2.814008e+00 1.822643e+00 2.271319e+00 1.708885e+00 2.173223e+00 1.658639e+00 1.675883e+00 5.305489e-01
<GCONST> 8.774092e+01
<TRANSP> 5
 0.000000e+00 1.000000e+00 0.000000e+00 0.000000e+00 0.000000e+00
 0.000000e+00 9.481131e-01 5.188689e-02 0.000000e+00 0.000000e+00
 0.000000e+00 0.000000e+00 8.722805e-02 9.127719e-01 0.000000e+00
 0.000000e+00 0.000000e+00 0.000000e+00 5.397515e-01 4.602484e-01
 0.000000e+00 0.000000e+00 0.000000e+00 0.000000e+00 0.000000e+00
<ENDHMM>
~h "ey"
<BEGINHMM>
<NUMSTATES> 5
<STATE> 2
<MEAN> 25
 1.539847e+00 7.904943e-01 8.501216e+00 -5.607567e+00 -1.367675e+01 -1.006280e+01 4.201466e+00 -3.344470e-01 -8.572016e-01 1.872814e+00 1.082858e+00 -1.432461e+00 -7.143150e-02 5.972262e-01 7.493198e-01 -1.386493e-01 -4.344309e-01 -1.734440e-01 3.652998e-02 -7.032111e-01 -6.140727e-01 2.277417e-01 1.091698e-01 1.556842e-01 1.754195e-01
<VARIANCE> 25
 1.530166e+01 1.703041e+01 3.365376e+01 2.291990e+01 3.225690e+01 4.473454e+01 5.526175e+01 2.227376e+01 3.123812e+01 3.084448e+01 2.548526e+01 2.260746e+01 7.625966e-01 9.329734e-01 1.626274e+00 1.412588e+00 1.855032e+00 2.480103e+00 3.262086e+00 1.789557e+00 2.192544e+00 2.208279e+00 2.285040e+00 1.718547e+00 5.024875e+00
<GCONST> 9.411636e+01
<STATE> 3
<MEAN> 25
 -6.061194e-01 5.584402e+00 1.011755e+01 1.900149e+00 -1.155108e+01 -7.327548e+00 5.073441e-01 -2.457928e+00 1.145599e+00 -2.561716e+00 -1.273953e+00 -1.023483e-01 3.309067e-01 3.183426e-02 -2.578561e-01 8.072035e-02 3.277423e-01 -1.295677e-02 2.378333e-02 8.093430e-02 2.545351e-01 -3.802975e-02 -3.000502e-01 3.666785e-02 -4.584603e-01
<VARIANCE> 25
 1.042393e+02 3.911900e+01 5.947686e+01 3.504039e+01 4.534420e+01 5.962158e+01 4.708128e+01 3.642311e+01 4.596836e+01 3.385497e+01 2.725806e+01 2.487523e+01 6.141529e+00 2.704182e+00 3.404911e+00 1.987433e+00 2.274400e+00 3.648904e+00 3.741470e+00 2.500560e+00 3.060445e+00 2.498771e+00 1.759199e+00 2.275179e+00 1.768606e+00
<GCONST> 1.041865e+02
<STATE> 4
<MEAN> 25
 4.099344e+00 8.244225e+00 9.639480e+00 -4.303165e+00 -9.320062e+00 -5.544371e+00 9.509930e-01 -6.674759e+00 -4.370642e+00 4.136200e+00 -1.782016e+00 1.498061e+00 7.556074e-02 7.987691e-03 -3.159648e-01 6.180615e-01 1.006197e+00 2.628346e-01 -5.461467e-01 5.424998e-02 1.425521e-01 -4.289545e-02 3.802314e-01 1.094481e-01 -1.318609e+00
<VARIANCE> 25
 3.096484e+01 2.276137e+01 4.981705e+01 6.318439e+01 6.522460e+01 6.411839e+01 3.725758e+01 5.099900e+01 4.807418e+01 3.361157e+01 2.990615e+01 2.474516e+01 1.584795e+00 2.015579e+00 2.282520e+00 1.848717e+00 2.278707e+00 2.357821e+00 2.826895e+00 2.822907e+00 2.634474e+00 2.349438e+00 2.410494e+00 1.377054e+00 7.624825e-01
<GCONST> 9.955267e+01
<TRANSP> 5
 0.000000e+00 1.000000e+00 0.000000e+00 0.000000e+00 0.000000e+00
 0.000000e+00 8.730488e-01 1.269512e-01 0.000000e+00 0.000000e+00
 0.000000e+00 0.000000e+00 8.871860e-01 1.128140e-01 0.000000e+00
 0.000000e+00 0.000000e+00 0.000000e+00 8.657048e-01 1.342951e-01
 0.000000e+00 0.000000e+00 0.000000e+00 0.000000e+00 0.000000e+00
<ENDHMM>
~h "hh"
<BEGINHMM>
<NUMSTATES> 5
<STATE> 2
<MEAN> 25
 -6.300608e+00 -5.649777e+00 8.238041e-01 -5.023121e+00 6.209509e-01 3.936191e+00 6.246070e+00 2.418882e+00 3.068699e+00 -3.418546e+00 -3.234666e+00 1.887008e+00 -1.499178e-01 2.838467e-01 -1.176703e-01 -1.780203e+00 5.059375e-01 4.096177e-01 2.293725e+00 -3.112008e-01 9.188851e-01 -9.711523e-01 -1.483640e+00 -6.934315e-01 2.926818e+00
<VARIANCE> 25
 1.350139e+01 2.359891e+01 1.254811e+01 6.170158e+01 8.667831e+01 7.523756e+01 7.574709e+01 9.789705e+01 5.266450e+01 3.165137e+01 5.360656e+01 2.459037e+01 3.751663e+00 3.422645e+00 1.578958e+00 8.076650e+00 6.666825e+00 5.757929e+00 5.239736e+00 7.254027e+00 6.542789e+00 4.107128e+00 3.810809e+00 4.788765e+00 2.789422e+00
<GCONST> 1.102647e+02
<STATE> 3
<MEAN> 25
 -1.186957e+00 1.860611e+00 -3.418771e+00 -9.114557e+00 1.758369e+00 2.894858e+00 8.643386e+00 9.351089e-01 9.779047e+00 -5.549121e+00 -4.421178e+00 -4.628168e+00 1.298077e+00 8.207203e-01 -9.069277e-01 -1.167866e+00 -1.037093e-01 -2.446595e-01 -6.187116e-01 -6.204782e-01 1.037518e+00 8.831123e-02 6.354285e-01 -1.280359e+00 2.350428e+00
<VARIANCE> 25
 6.313385e+01 2.374588e+01 3.421239e+01 1.472418e+02 4.792300e+01 1.002065e+02 3.627647e+01 4.473420e+01 4.021495e+01 2.731521e+01 4.080923e+01 5.367929e+01 4.751754e+00 2.980484e+00 2.191030e+00 5.438481e+00 2.305017e+00 4.053248e+00 3.123667e+00 3.767964e+00 4.176023e+00 1.998484e+00 2.428657e+00 3.795777e+00 3.299059e+00
<GCONST> 1.077118e+02
<STATE> 4
<MEAN> 25
 8.334045e+00 3.111425e+00 -6.739594e+00 -1.596344e+01 1.523524e+00 3.769168e+00 1.974750e+00 -1.099996e+01 8.113671e+00 1.639285e+00 -1.170238e+00 -6.557147e+00 4.693491e-01 1.952647e-01 -1.115825e-03 3.897226e-02 -3.129575e-01 -3.314896e-01 -3.762226e-01 -2.295068e-01 -5.227241e-01 1.229067e-01 2.472198e-01 4.799304e-01 -7.580357e-01
<VARIANCE> 25
 1.851046e+01 2.334899e+01 3.624674e+01 8.130584e+01 3.406190e+01 5.779675e+01 7.633700e+01 3.435215e+01 3.358214e+01 3.070478e+01 1.935571e+01 1.064806e+02 5.778362e-01 1.147920e+00 1.818423e+00 5.055790e+00 1.316749e+00 3.560611e+00 2.670558e+00 3.524010e+00 2.652821e+00 2.065778e+00 1.935694e+00 2.709576e+00 1.840279e+00
<GCONST> 9.959398e+01
<TRANSP> 5
 0.000000e+00 1.000000e+00 0.000000e+00 0.000000e+00 0.000000e+00
 0.000000e+00 7.411860e-01 2.588140e-01 0.000000e+00 0.000000e+00
 0.000000e+00 0.000000e+00 8.089961e-01 1.910039e-01 0.000000e+00
 0.000000e+00 0.000000e+00 0.000000e+00 8.874339e-01 1.125661e-01
 0.000000e+00 0.000000e+00 0.000000e+00 0.000000e+00 0.000000e+00
<ENDHMM>
~h "ih"
<BEGINHMM>
<NUMSTATES> 5
<STATE> 2
<MEAN> 25
 -2.930296e+00 4.974641e+00 6.911154e+00 2.225467e+00 -5.504356e+00 -2.870627e+00 6.403774e-02 -2.871048e+00 -3.640751e+00 -1.970815e+00 -1.581908e+00 -1.640107e-01 4.952893e-01 7.425261e-01 2.472647e+00 -8.924440e-01 -2.284105e+00 -1.097414e+00 1.868407e-01 -8.875202e-01 -1.389181e+00 -5.119532e-01 -2.552015e-01 -7.800469e-01 2.932211e+00
<VARIANCE> 25
 6.816959e+01 4.146876e+01 9.174747e+01 6.722911e+01 7.460575e+01 4.257293e+01 4.520200e+01 3.373259e+01 4.370380e+01 4.938881e+01 3.449215e+01 2.582030e+01 8.546113e+00 5.880691e+00 6.501660e+00 6.660916e+00 5.636796e+00 4.690595e+00 4.645627e+00 4.546929e+00 6.254727e+00 6.042165e+00 3.841654e+00 2.120499e+00 7.629551e+00
<GCONST> 1.142555e+02
<STATE> 3
<MEAN> 25
 6.958023e-01 7.314724e+00 1.552676e+01 -4.320049e+00 -1.569339e+01 -6.629897e+00 -1.852833e+00 -6.241901e+00 -1.054561e+01 -2.076395e-01 -1.164853e+00 -4.380646e+00 3.735725e-01 2.520739e-01 -9.553702e-02 -1.625272e-01 2.400109e-01 -2.977484e-03 -1.681205e-01 -2.397872e-01 2.577920e-02 3.746506e-01 1.368630e-01 2.038623e-01 -9.720051e-01
<VARIANCE> 25
 1.643323e+01 2.990522e+01 4.721247e+01 4.308467e+01 2.848502e+01 4.128233e+01 3.429964e+01 3.463488e+01 3.430131e+01 5.507414e+01 2.047157e+01 2.898625e+01 8.709591e-01 1.541999e+00 1.577435e+00 2.226853e+00 2.530015e+00 2.197430e+00 1.929558e+00 1.840780e+00 2.574562e+00 2.162461e+00 1.861831e+00 2.033879e+00 1.483643e+00
<GCONST> 9.581886e+01
<STATE> 4
<MEAN> 25
 -1.766584e+00 7.836258e+00 8.466145e+00 -2.366559e+00 -9.156252e+00 -3.863992e+00 -2.988709e+00 -6.341316e+00 -9.443059e-01 -3.367069e-01 -4.343479e-01 1.597490e+00 -1.651083e-01 -4.184068e-01 -8.753410e-01 5.343374e-01 8.461556e-01 8.636466e-02 -1.955982e-01 3.606326e-01 8.708159e-01 6.300803e-02 -1.088620e-01 4.792323e-01 -7.875783e-01
<VARIANCE> 25
 1.093955e+02 2.801940e+01 4.366859e+01 4.689660e+01 2.809785e+01 6.931898e+01 6.334184e+01 6.897778e+01 4.582080e+01 4.080748e+01 3.916451e+01 1.854526e+01 3.279692e+00 1.346568e+00 2.618274e+00 2.374482e+00 2.165404e+00 3.499156e+00 2.072060e+00 3.437516e+00 2.719565e+00 2.745955e+00 3.284500e+00 1.903828e+00 1.269244e+00
<GCONST> 1.030608e+02
<TRANSP> 5
 0.000000e+00 1.000000e+00 0.000000e+00 0.000000e+00 0.000000e+00
 0.000000e+00 7.285134e-01 2.714866e-01 0.000000e+00 0.000000e+00
 0.000000e+00 0.000000e+00 8.666609e-01 1.333391e-01 0.000000e+00
 0.000000e+00 0.000000e+00 0.000000e+00 7.796026e-01 2.203974e-01
 0.000000e+00 0.000000e+00 0.000000e+00 0.000000e+00 0.000000e+00
<ENDHMM>
~h "iy"
<BEGINHMM>
<NUMSTATES> 5
<STATE> 2
<MEAN> 25
 2.497914e+00 1.224001e+00 3.959542e+00 1.142964e+00 -4.364029e+00 -5.942515e+00 3.841937e+00 -3.301672e+00 -1.973759e+00 -1.586972e+00 -1.221527e+00 -4.415087e+00 3.200879e-01 3.656030e-01 1.523454e+00 -9.332792e-01 -1.578251e+00 -4.478998e-01 -2.103321e-01 -5.217135e-01 -1.078612e+00 -3.009131e-02 3.603482e-01 -4.270971e-01 1.992619e+00
<VARIANCE> 25
 1.054818e+02 5.206019e+01 1.068594e+02 5.268219e+01 1.086132e+02 6.756190e+01 6.793784e+01 9.427985e+01 7.651270e+01 4.267073e+01 3.865139e+01 6.774269e+01 5.345481e+00 3.985455e+00 4.889709e+00 4.098356e+00 7.390512e+00 5.227534e+00 6.218345e+00 6.330611e+00 5.374734e+00 4.159047e+00 4.625012e+00 3.946164e+00 5.860434e+00
<GCONST> 1.179837e+02
<STATE> 3
<MEAN> 25
 -7.046757e-01 8.693265e+00 1.638599e+01 -4.416660e+00 -1.615888e+01 -6.241461e+00 -2.499676e+00 -8.784726e+00 -1.038057e+01 7.039885e-02 -1.352874e+00 -5.893490e+00 4.097144e-01 2.752755e-02 1.019456e-01 2.906758e-02 3.382957e-01 -4.461355e-02 -1.057793e-01 -1.184200e-01 2.139281e-01 2.897292e-01 2.534870e-02 -3.236263e-02 -7.732267e-01
<VARIANCE> 25
 2.093920e+01 2.395711e+01 2.583353e+01 2.759072e+01 2.908761e+01 4.693606e+01 3.574799e+01 2.868478e+01 2.703516e+01 2.601328e+01 2.755646e+01 3.307008e+01 1.098302e+00 1.605338e+00 1.430731e+00 2.069669e+00 2.637371e+00 2.390199e+00 2.084198e+00 2.287154e+00 2.342671e+00 1.940650e+00 1.955480e+00 1.895500e+00 1.087140e+00
<GCONST> 9.422003e+01
<STATE> 4
<MEAN> 25
 6.615096e+00 1.720582e+00 6.288185e+00 -1.872725e-01 -7.471178e+00 -8.365871e+00 -5.671830e+00 -4.631841e+00 1.470758e+00 1.614947e-01 4.415753e-01 -2.783666e+00 3.494357e-01 -3.681926e-01 -1.228496e+00 2.156260e-01 1.052094e+00 3.361887e-01 7.180333e-03 3.800253e-01 8.836300e-01 2.377144e-01 -1.771739e-01 7.446048e-02 -7.317119e-01
<VARIANCE> 25
 2.203659e+01 2.427008e+01 7.340287e+01 5.263666e+01 3.079212e+01 6.656412e+01 4.693941e+01 5.448946e+01 6.394089e+01 4.242677e+01 3.041982e+01 3.349274e+01 1.273836e+00 1.110864e+00 3.136050e+00 2.518242e+00 2.131073e+00 3.066899e+00 2.137593e+00 2.840933e+00 3.933375e+00 3.176421e+00 2.955500e+00 2.905378e+00 1.190811e+00
<GCONST> 1.017376e+02
<TRANSP> 5
 0.000000e+00 1.000000e+00 0.000000e+00 0.000000e+00 0.000000e+00
 0.000000e+00 8.327864e-01 1.672136e-01 0.000000e+00 0.000000e+00
 0.000000e+00 0.000000e+00 8.960690e-01 1.039310e-01 0.000000e+00
 0.000000e+00 0.000000e+00 0.000000e+00 7.893242e-01 2.106757e-01
 0.000000e+00 0.000000e+00 0.000000e+00 0.000000e+00 0.000000e+00
<ENDHMM>
~h "jh"
<BEGINHMM>
<NUMSTATES> 5
<STATE> 2
<MEAN> 25
 -1.902675e+00 -4.877846e+00 -8.225369e-01 3.109057e+00 3.684668e-01 7.535646e-01 -1.085804e-01 1.716556e+00 -5.704099e+00 -4.866515e-01 1.009307e+00 -1.603044e-01 5.739329e-02 -2.520485e-02 -3.062613e-02 -3.754218e-02 1.297722e-01 -1.050855e-02 -1.337464e-01 1.302309e-01 -1.305872e-01 1.864474e-02 6.314971e-02 -9.733690e-03 -2.104415e-01
<VARIANCE> 25
 5.709648e+00 6.958139e+00 8.588433e+00 7.797085e+00 2.104785e+01 1.986014e+01 1.160855e+01 1.433478e+01 1.938559e+01 1.748833e+01 1.441559e+01 1.038870e+01 4.249126e-01 3.073034e-01 6.708931e-01 1.163544e+00 1.886009e+00 2.733388e+00 1.656924e+00 1.501611e+00 2.321771e+00 2.043811e+00 1.781897e+00 1.203650e+00 1.583349e-01
<GCONST> 7.656339e+01
<STATE> 3
<MEAN> 25
 4.136860e+00 -2.540109e+00 5.030014e+00 -7.424161e-01 -6.538235e+00 -4.684489e+00 -4.400126e+00 3.887151e-01 6.734420e-02 2.676498e-01 1.258489e+00 -3.306410e+00 -9.243141e-01 8.067653e-02 3.152104e-01 -4.213530e-01 6.287923e-01 5.609313e-01 5.225248e-01 -4.471733e-01 -1.174199e-01 -6.672756e-01 -7.380030e-01 2.114845e-01 -2.553739e-01
<VARIANCE> 25
 5.682993e+00 2.144230e+01 2.447046e+01 7.644365e+00 5.341076e+01 1.698009e+01 6.403717e+00 5.392296e+00 1.588887e+01 9.840741e+00 1.549948e+01 8.636233e+00 2.213231e+00 3.169473e+00 2.023651e+00 9.012257e-01 1.686293e+00 2.720753e+00 1.629130e+00 6.419370e-01 1.797947e+00 7.896193e-01 1.372732e+00 1.130876e+00 1.185590e+00
<GCONST> 8.135966e+01
<STATE> 4
<MEAN> 25
 -5.978151e+00 7.071455e+00 4.046264e+00 -1.767433e-01 -3.381930e+00 -3.623168e+00 2.162107e-01 -7.609951e-01 3.112169e-01 3.552442e-01 -7.608310e-01 6.883005e-01 -7.118341e-01 3.776008e-01 -5.235319e-01 -3.108653e-02 5.256791e-01 -9.714573e-01 -2.804973e-01 1.778149e-01 3.270983e-01 -2.690537e-01 -2.853452e-01 4.934105e-01 2.097691e-01
<VARIANCE> 25
 9.867384e+01 3.857049e+01 4.963665e+01 1.778491e+01 1.012486e+02 5.206202e+01 4.143979e+01 2.231041e+01 2.761827e+01 2.817953e+01 1.192656e+01 5.930226e+00 1.210347e+01 5.927647e+00 1.747572e+00 1.332835e+00 1.281875e+00 1.031510e+01 5.252518e+00 3.981568e+00 3.584564e+00 2.591095e+00 1.119461e+00 6.790918e-01 2.679234e+00
<GCONST> 1.009706e+02
<TRANSP> 5
 0.000000e+00 1.000000e+00 0.000000e+00 0.000000e+00 0.000000e+00
 0.000000e+00 9.351367e-01 6.486327e-02 0.000000e+00 0.000000e+00
 0.000000e+00 0.000000e+00 6.754128e-01 3.245872e-01 0.000000e+00
 0.000000e+00 0.000000e+00 0.000000e+00 8.608755e-01 1.391245e-01
 0.000000e+00 0.000000e+00 0.000000e+00 0.000000e+00 0.000000e+00
<ENDHMM>
~h "ng"
<BEGINHMM>
<NUMSTATES> 5
<STATE> 2
<MEAN> 25
 7.189571e+00 -5.311594e+00 -1.106685e+01 -1.010087e+01 3.167150e+00 6.727423e-01 2.001732e+00 -7.335442e+00 6.199966e+00 1.366447e-01 -1.207653e+00 -8.085445e+00 5.007256e-01 6.105205e-01 -6.994884e-02 -2.262041e-01 2.373722e-01 -1.729936e-01 -3.037804e-01 -4.901157e-01 -4.284733e-01 2.555215e-01 1.172509e-01 4.038049e-01 -1.254956e+00
<VARIANCE> 25
 2.317080e+01 2.076828e+01 1.912991e+01 2.833771e+01 2.338454e+01 3.786061e+01 2.474814e+01 2.740046e+01 3.980252e+01 3.233723e+01 3.619044e+01 3.660008e+01 3.292118e-01 4.416792e-01 1.052468e+00 1.436135e+00 1.752953e+00 2.217402e+00 1.147571e+00 1.870964e+00 2.141258e+00 1.361735e+00 2.369878e+00 1.226543e+00 2.854225e-01
<GCONST> 8.756301e+01
<STATE> 3
<MEAN> 25
 9.135192e+00 2.384657e+00 -5.142319e-02 -2.485191e+00 2.066598e+00 -9.048017e-01 2.398909e+00 -3.274694e+00 -7.337233e-01 3.561193e+00 -6.750466e-01 -7.734148e-01 -9.786077e-01 -4.435902e-01 6.279508e-01 1.296803e+00 4.099011e-01 5.526816e-01 2.376877e-02 1.181034e+00 -1.287635e-01 -6.686706e-03 5.473261e-01 2.791949e-01 -1.179419e+00
<VARIANCE> 25
 2.191882e+01 1.353205e+01 3.768475e+01 3.106875e+01 2.610317e+01 1.668115e+01 1.766666e+01 4.726329e+01 2.622356e+01 1.269804e+01 1.771779e+01 1.479324e+01 8.957546e-01 1.088916e+00 1.405799e+00 1.136615e+00 1.939067e+00 1.749286e+00 2.300565e+00 2.509094e+00 1.789947e+00 1.416463e+00 1.464128e+00 1.095448e+00 1.410523e-01
<GCONST> 8.574776e+01
<STATE> 4
<MEAN> 25
 -1.144584e+00 -3.264650e+00 1.011781e+00 5.429039e+00 4.352532e+00 2.409600e+00 1.241411e+00 3.481325e+00 -1.426114e+00 2.308952e+00 4.127346e-01 1.556151e+00 -6.572792e-02 -3.510674e-03 -4.626373e-02 6.842712e-02 1.839925e-02 8.450260e-02 -3.677199e-02 4.047140e-02 -2.840791e-03 4.657371e-03 -5.831372e-03 1.859289e-02 -1.173666e-01
<VARIANCE> 25
 1.547273e+00 3.991759e+00 7.621649e+00 1.257884e+01 9.251500e+00 1.051639e+01 1.105936e+01 1.297691e+01 1.307872e+01 1.456272e+01 1.195202e+01 1.123983e+01 1.265281e-01 2.073793e-01 3.791013e-01 5.340955e-01 8.329635e-01 9.426942e-01 9.978932e-01 1.377479e+00 1.505286e+00 1.363217e+00 1.134501e+00 1.117782e+00 4.231025e-02
<GCONST> 6.465703e+01
<TRANSP> 5
 0.000000e+00 1.000000e+00 0.000000e+00 0.000000e+00 0.000000e+00
 0.000000e+00 9.009698e-01 9.903023e-02 0.000000e+00 0.000000e+00
 0.000000e+00 0.000000e+00 8.922099e-01 1.077900e-01 0.000000e+00
 0.000000e+00 0.000000e+00 0.000000e+00 9.755360e-01 2.446394e-02
 0.000000e+00 0.000000e+00 0.000000e+00 0.000000e+00 0.000000e+00
<ENDHMM>
~h "ow"
<BEGINHMM>
<NUMSTATES> 5
<STATE> 2
<MEAN> 25
 5.918262e+00 7.373051e+00 -8.623606e+00 -1.901927e+01 -6.554996e+00 1.271363e+01 -2.384670e+00 -7.857313e+00 7.206403e+00 -7.050675e+00 2.019499e+00 4.379396e+00 9.561062e-01 1.680063e+00 -4.635523e-01 -3.894351e+00 -7.244548e-01 2.347683e+00 -5.481236e-01 -8.257020e-01 1.600802e+00 -2.008406e+00 6.583174e-01 9.228967e-01 2.251965e+00
<VARIANCE> 25
 3.245396e+01 3.594022e+01 4.123163e+01 1.649836e+02 4.804799e+01 6.788359e+01 4.078250e+01 5.798095e+01 5.024276e+01 1.015005e+02 2.682482e+01 2.845939e+01 4.449237e+00 2.229621e+00 5.660289e+00 1.650736e+01 3.498600e+00 6.421546e+00 4.306301e+00 6.616115e+00 4.461103e+00 5.297687e+00 3.280968e+00 2.946891e+00 9.068132e+00
<GCONST> 1.137965e+02
<STATE> 3
<MEAN> 25
 1.017793e+01 1.138215e+01 -3.663270e+00 -2.053085e+01 -8.844142e+00 3.027112e+00 -3.218228e+00 -3.275892e+00 6.215551e+00 -9.573727e+00 3.758224e+00 4.717048e+00 -2.780668e-02 -3.156643e-01 3.216979e-01 8.207921e-01 1.890319e-01 -7.542834e-01 7.136159e-02 3.893925e-01 -4.623303e-01 4.308082e-01 3.328886e-02 -8.203419e-02 -8.375918e-01
<VARIANCE> 25
 1.929757e+01 5.258191e+01 2.569725e+01 1.169648e+02 4.612247e+01 1.083873e+02 2.823476e+01 5.348196e+01 5.228521e+01 9.135536e+01 2.792580e+01 2.509276e+01 7.704080e-01 1.040920e+00 8.838207e-01 1.876345e+00 2.064544e+00 1.749427e+00 1.944523e+00 2.340717e+00 1.933543e+00 2.761554e+00 1.620457e+00 1.597118e+00 3.447956e-01
<GCONST> 9.638406e+01
<STATE> 4
<MEAN> 25
 -1.138574e+00 -4.152336e+00 1.304301e+00 3.870879e+00 3.390372e+00 1.860772e+00 -1.293011e+00 3.668614e+00 -3.124688e+00 1.192855e+00 4.584014e-01 1.388439e+00 -1.533503e-01 -8.025938e-02 -3.373965e-02 1.810041e-01 1.666249e-01 2.212617e-01 7.356153e-02 6.572185e-02 -1.248816e-02 -1.066220e-02 -9.099142e-02 -7.579321e-02 -1.658885e-01
<VARIANCE> 25
 6.175181e+00 7.334058e+00 5.590653e+00 1.117700e+01 1.277155e+01 1.766701e+01 1.712228e+01 1.571851e+01 1.396707e+01 1.273380e+01 1.296105e+01 1.162420e+01 2.485150e-01 3.809214e-01 4.462026e-01 8.057020e-01 1.158815e+00 1.294654e+00 1.402943e+00 1.506210e+00 1.496169e+00 1.233400e+00 1.129035e+00 1.180866e+00 8.181351e-02
<GCONST> 7.127544e+01
<TRANSP> 5
 0.000000e+00 1.000000e+00 0.000000e+00 0.000000e+00 0.000000e+00
 0.000000e+00 7.230488e-01 2.769513e-01 0.000000e+00 0.000000e+00
 0.000000e+00 0.000000e+00 9.537455e-01 4.625450e-02 0.000000e+00
 0.000000e+00 0.000000e+00 0.000000e+00 9.622661e-01 3.773393e-02
 0.000000e+00 0.000000e+00 0.000000e+00 0.000000e+00 0.000000e+00
<ENDHMM>
~h "oy"
<BEGINHMM>
<NUMSTATES> 5
<STATE> 2
<MEAN> 25
 8.852764e+00 4.251934e+00 -3.234539e+00 -1.785016e+01 -1.046002e+01 5.996307e+00 -4.124198e+00 -7.192917e+00 9.486101e+00 -3.261777e+00 3.584127e+00 -2.390450e+00 3.933779e-01 5.403344e-02 6.233797e-01 1.102576e-01 -2.765368e-01 -4.786982e-01 3.885128e-01 -2.064707e-01 -3.553040e-01 2.669721e-01 -2.803739e-01 2.073197e-01 -2.742913e-02
<VARIANCE> 25
 6.855989e+01 3.246321e+01 4.216676e+01 1.182279e+02 5.916785e+01 1.294230e+02 5.720141e+01 4.397565e+01 8.633006e+01 1.493215e+02 3.751808e+01 3.834117e+01 3.048101e+00 2.469212e+00 3.573892e+00 5.539086e+00 3.996023e+00 6.578781e+00 5.223148e+00 3.987498e+00 6.203290e+00 7.537112e+00 3.007242e+00 5.727006e+00 1.272926e+00
<GCONST> 1.139201e+02
<STATE> 3
<MEAN> 25
 9.838064e-01 1.014418e+01 2.630732e+00 -7.244034e+00 -5.669342e+00 -7.391167e+00 -1.431516e+00 -1.100908e+00 -1.203168e+01 4.658265e+00 7.832375e-02 9.053367e-01 -2.017055e+00 1.327770e+00 -7.432353e-01 5.316717e-01 9.276013e-01 -5.382857e-01 2.203626e-01 1.428811e+00 1.580408e-01 -4.980725e-01 -1.222710e-01 3.174241e-02 -1.574955e-01
<VARIANCE> 25
 8.094722e+01 5.519710e+01 2.099476e+01 4.573632e+01 8.974657e+01 1.615488e+01 5.585604e+01 1.519706e+01 2.370518e+01 1.889606e+01 3.648598e+01 2.800545e+01 6.257128e+00 3.110354e+00 6.893728e-01 2.982675e+00 3.544503e+00 2.802111e+00 6.291121e+00 3.012435e+00 1.841656e+00 3.795914e+00 2.487433e+00 1.506874e+00 4.164226e-01
<GCONST> 9.959264e+01
<STATE> 4
<MEAN> 25
 -1.402788e+01 1.305037e+01 -3.732994e+00 -1.084922e+00 1.387810e+01 -8.879967e+00 3.653226e+00 5.208413e+00 -4.805509e+00 5.094549e+00 -4.652849e-01 5.795885e-01 3.504436e-01 -7.967666e-01 5.350833e-02 6.246657e-01 4.531156e-01 1.575511e-01 8.266049e-01 1.162809e-01 2.752528e-01 1.110859e-01 -3.488362e-01 5.517360e-02 -6.159729e-01
<VARIANCE> 25
 4.787978e+01 4.912769e+01 9.114236e+00 1.958803e+01 4.302357e+01 7.615760e+00 3.480422e+01 1.241686e+01 6.264907e+00 1.159348e+01 1.809253e+01 1.921893e+00 1.058646e+00 8.025208e-01 3.832377e-01 5.964158e-01 1.087989e+00 4.892451e-01 7.326778e-01 2.000959e+00 1.403202e+00 1.205546e+00 3.764765e-01 4.282594e-01 3.854719e-01
<GCONST> 7.445036e+01
<TRANSP> 5
 0.000000e+00 1.000000e+00 0.000000e+00 0.000000e+00 0.000000e+00
 0.000000e+00 9.445956e-01 5.540444e-02 0.000000e+00 0.000000e+00
 0.000000e+00 0.000000e+00 7.932074e-01 2.067926e-01 0.000000e+00
 0.000000e+00 0.000000e+00 0.000000e+00 8.356699e-01 1.643302e-01
 0.000000e+00 0.000000e+00 0.000000e+00 0.000000e+00 0.000000e+00
<ENDHMM>
~h "sh"
<BEGINHMM>
<NUMSTATES> 5
<STATE> 2
<MEAN> 25
 3.452622e+00 1.251722e+00 5.034271e+00 2.962345e+00 3.426939e+00 -4.510647e-01 -7.785699e-02 1.785954e+00 -3.042793e-01 -1.607611e-01 5.067400e-01 2.930521e+00 -1.164163e+00 -9.867893e-01 -7.857243e-01 -1.068878e-01 9.744839e-01 9.413224e-01 6.568334e-02 -2.277050e-01 -1.143809e+00 -3.237941e-02 8.419307e-01 2.916294e-01 -9.291312e-01
<VARIANCE> 25
 2.082356e+01 1.405591e+01 1.147617e+01 1.177176e+01 1.336157e+01 2.059846e+01 1.518068e+01 2.091227e+01 2.784091e+01 1.290032e+01 9.178919e+00 8.928141e+00 9.312546e-01 5.410217e-01 1.059693e+00 1.193746e+00 1.137454e+00 1.452263e+00 1.442112e+00 1.828783e+00 1.328338e+00 1.219659e+00 1.177536e+00 1.230219e+00 2.132534e-01
<GCONST> 7.852894e+01
<STATE> 3
<MEAN> 25
 -1.935738e+00 -2.933115e+00 -2.471631e-01 2.642273e+00 3.569067e+00 2.408871e+00 -9.596441e-01 2.813164e+00 -3.762245e+00 2.546916e-01 4.971740e-01 1.887985e+00 -3.294946e-02 1.447119e-02 -5.216328e-02 3.898515e-02 -2.605081e-02 3.635957e-02 -2.049174e-02 5.070710e-02 3.787205e-03 1.804624e-02 -4.190993e-02 -2.408827e-02 -1.007870e-01
<VARIANCE> 25
 2.529176e+00 3.237372e+00 6.120103e+00 7.436639e+00 1.000832e+01 1.358147e+01 1.270255e+01 1.470784e+01 1.428674e+01 1.308191e+01 1.062067e+01 1.065042e+01 1.089916e-01 1.936697e-01 3.596880e-01 6.019607e-01 7.187617e-01 1.078932e+00 1.196375e+00 1.345547e+00 1.394496e+00 1.462847e+00 1.003435e+00 1.094985e+00 3.260329e-02
<GCONST> 6.418628e+01
<STATE> 4
<MEAN> 25
 -2.204533e+00 -1.790829e+00 -7.736884e-01 5.161500e+00 4.188948e+00 3.423686e+00 -7.525026e-01 3.558756e+00 -3.177416e+00 4.021264e-01 -1.166557e+00 5.901445e-01 -3.714768e-01 2.067992e-01 -4.401869e-02 -5.225285e-01 1.753392e-01 -1.626884e+00 -6.436548e-02 -1.094495e+00 3.494695e-01 1.412800e-02 -5.137200e-01 -4.079325e-01 3.367653e-01
<VARIANCE> 25
 1.815387e+00 2.228757e+00 2.930372e+00 1.174249e+01 8.940368e+00 1.915704e+01 1.181156e+01 1.527087e+01 1.185603e+01 8.581815e+00 7.550133e+00 5.586143e+00 4.206051e-01 8.239030e-01 1.046180e+00 1.386021e+00 2.006959e+00 1.765082e+00 2.259974e+00 4.237276e+00 2.440719e+00 2.702352e+00 9.517046e-01 1.590344e+00 1.929450e-01
<GCONST> 7.307707e+01
<TRANSP> 5
 0.000000e+00 1.000000e+00 0.000000e+00 0.000000e+00 0.000000e+00
 0.000000e+00 7.745820e-01 2.254180e-01 0.000000e+00 0.000000e+00
 0.000000e+00 0.000000e+00 9.791325e-01 2.086754e-02 0.000000e+00
 0.000000e+00 0.000000e+00 0.000000e+00 1.211078e-01 8.788922e-01
 0.000000e+00 0.000000e+00 0.000000e+00 0.000000e+00 0.000000e+00
<ENDHMM>
~h "sp"
<BEGINHMM>
<NUMSTATES> 3
<STATE> 2
~s "silst"
<TRANSP> 3
 0.000000e+00 1.715093e-01 8.284907e-01
 0.000000e+00 8.746940e-01 1.253059e-01
 0.000000e+00 0.000000e+00 0.000000e+00
<ENDHMM>
~h "th"
<BEGINHMM>
<NUMSTATES> 5
<STATE> 2
<MEAN> 25
 -1.166387e+01 4.348138e+00 -5.876018e-01 3.141649e+00 3.635470e+00 1.416980e+00 -6.334434e-02 1.920308e-01 4.555737e+00 1.552185e-01 -5.317900e-01 1.664305e+00 4.606436e-01 -5.635809e-01 2.143612e-01 3.757492e-01 2.141506e-01 8.328360e-02 -6.777121e-02 2.118397e-01 -2.219381e-01 -2.028819e-01 1.091278e-02 6.222691e-02 -6.088602e-01
<VARIANCE> 25
 2.588830e+01 9.248565e+00 1.420503e+01 1.419111e+01 1.477083e+01 1.106389e+01 1.695404e+01 2.545393e+01 2.050861e+01 1.662095e+01 1.732768e+01 9.433825e+00 1.663205e+00 7.221106e-01 8.473866e-01 7.946464e-01 1.014237e+00 1.821960e+00 1.256338e+00 1.672530e+00 1.797995e+00 1.303483e+00 1.412620e+00 8.850558e-01 2.686251e-01
<GCONST> 7.972813e+01
<STATE> 3
<MEAN> 25
 -2.329946e+00 -2.609669e+00 1.088027e+00 3.317053e+00 4.268063e+00 6.754351e-01 -2.471738e-01 1.125991e+00 -3.036351e+00 -1.318319e+00 1.977557e-02 1.888358e+00 4.677083e-01 -9.978114e-01 3.793647e-01 -4.661523e-02 2.144713e-01 5.876324e-01 -1.062646e-01 5.655331e-01 -2.727630e-01 8.548430e-01 8.504694e-01 -4.215118e-01 -7.079110e-01
<VARIANCE> 25
 2.383578e+01 1.595817e+01 8.499104e+00 8.599781e+00 1.852928e+01 1.006058e+01 7.963216e+00 1.505775e+01 3.246862e+01 1.429430e+01 1.656310e+01 1.456195e+01 1.159046e+00 4.750853e-01 5.946144e-01 9.195397e-01 2.244043e+00 1.482290e+00 1.739254e+00 2.599952e+00 3.953819e+00 1.897703e+00 9.029841e-01 1.586709e+00 1.351004e-01
<GCONST> 7.970383e+01
<STATE> 4
<MEAN> 25
 -4.131752e-01 -3.671991e+00 1.583523e+00 3.905510e+00 4.630375e+00 3.439606e+00 3.717671e-01 2.753556e+00 -2.228142e+00 1.666348e+00 1.665910e+00 1.451520e+00 -1.408099e-02 1.365490e-02 -1.724724e-02 5.388767e-02 -3.443580e-02 5.272960e-02 -4.181319e-02 5.301440e-02 -3.155262e-02 2.312939e-02 -1.371546e-02 1.552233e-02 -1.071248e-01
<VARIANCE> 25
 4.806131e+00 3.127372e+00 5.242072e+00 6.523715e+00 1.090036e+01 1.229514e+01 1.343578e+01 1.475614e+01 1.606695e+01 1.361417e+01 1.169329e+01 1.056026e+01 1.208091e-01 1.783553e-01 3.837787e-01 5.465909e-01 8.389120e-01 9.639038e-01 1.006737e+00 1.387471e+00 1.221789e+00 1.264604e+00 1.262754e+00 1.019898e+00 3.199118e-02
<GCONST> 6.454904e+01
<TRANSP> 5
 0.000000e+00 1.000000e+00 0.000000e+00 0.000000e+00 0.000000e+00
 0.000000e+00 8.314024e-01 1.685977e-01 0.000000e+00 0.000000e+00
 0.000000e+00 0.000000e+00 5.199497e-01 4.800502e-01 0.000000e+00
 0.000000e+00 0.000000e+00 0.000000e+00 9.686105e-01 3.138947e-02
 0.000000e+00 0.000000e+00 0.000000e+00 0.000000e+00 0.000000e+00
<ENDHMM>
~h "uh"
<BEGINHMM>
<NUMSTATES> 5
<STATE> 2
<MEAN> 25
 3.178742e+00 -8.445590e-01 5.206982e+00 1.022460e+01 1.151392e+01 3.397666e+00 5.595611e-02 7.435466e+00 3.818202e+00 -2.246834e+00 -4.539565e-01 3.909150e+00 7.584438e-02 1.570867e-01 7.242717e-02 6.373147e-02 -2.987682e-01 -4.260534e-02 2.122389e-01 1.585276e-02 -2.219774e-01 -9.608096e-02 2.757828e-01 7.003157e-02 3.790458e-02
<VARIANCE> 25
 1.333088e+01 3.557523e+00 2.651385e+01 3.006429e+01 2.989310e+01 2.216568e+01 3.529009e+01 1.321375e+01 3.547700e+01 1.760959e+01 1.674029e+01 1.525230e+01 2.519330e-01 4.604793e-01 5.596059e-01 5.639982e-01 1.332496e+00 2.214250e+00 2.700713e+00 1.441793e+00 2.111342e+00 1.863207e+00 1.331688e+00 2.064360e+00 2.874370e-01
<GCONST> 8.137621e+01
<STATE> 3
<MEAN> 25
 9.970346e-01 6.665774e+00 -4.374633e+00 -2.549057e+00 -4.417833e+00 2.868247e+00 -2.005348e+00 -6.898585e+00 3.355829e+00 -7.742103e+00 -1.163731e+00 1.945490e+00 2.318994e+00 2.204680e+00 -1.042789e+00 -2.468153e+00 -3.385291e+00 1.465597e+00 -1.409033e+00 -4.122822e+00 6.251459e-01 -3.240091e+00 -1.263690e+00 5.333195e-01 4.281091e+00
<VARIANCE> 25
 6.190883e+01 4.955635e+01 1.075428e+02 1.299585e+02 7.815978e+01 1.489160e+02 1.817339e+01 1.176007e+02 3.504753e+01 6.985873e+01 2.330002e+01 2.376895e+01 3.183064e+00 4.224380e+00 1.251933e+01 1.725357e+01 6.203397e+00 7.993518e+00 2.611006e+00 1.267572e+01 6.122157e+00 4.974513e+00 2.788694e+00 5.192742e+00 8.126945e+00
<GCONST> 1.182316e+02
<STATE> 4
<MEAN> 25
 6.587712e+00 8.081239e+00 -5.440031e+00 -1.163301e+01 -1.383766e+01 5.863782e+00 -1.078994e+01 -1.344207e+01 2.091417e+00 -1.198644e+01 -8.780301e-02 6.045527e+00 1.402797e-02 -5.087122e-01 2.343037e-01 3.026828e-01 5.562174e-01 -3.674695e-01 -2.644830e-01 6.470497e-01 -1.700125e-01 6.531600e-01 1.616719e-01 6.236427e-02 -4.583699e-01
<VARIANCE> 25
 2.288837e+01 4.347382e+01 5.221442e+01 1.626629e+02 5.653187e+01 1.093546e+02 5.045556e+01 6.159792e+01 3.695931e+01 6.101635e+01 2.712734e+01 3.991344e+01 1.467174e+00 1.620977e+00 2.394991e+00 4.337463e+00 4.195952e+00 5.354626e+00 4.571952e+00 3.653780e+00 3.049027e+00 2.872369e+00 1.899193e+00 2.430822e+00 1.942313e+00
<GCONST> 1.068744e+02
<TRANSP> 5
 0.000000e+00 1.000000e+00 0.000000e+00 0.000000e+00 0.000000e+00
 0.000000e+00 8.775576e-01 1.224425e-01 0.000000e+00 0.000000e+00
 0.000000e+00 0.000000e+00 7.482023e-01 2.517978e-01 0.000000e+00
 0.000000e+00 0.000000e+00 0.000000e+00 9.332203e-01 6.677976e-02
 0.000000e+00 0.000000e+00 0.000000e+00 0.000000e+00 0.000000e+00
<ENDHMM>
~h "uw"
<BEGINHMM>
<NUMSTATES> 5
<STATE> 2
<MEAN> 25
 -3.696299e+00 2.613976e+00 3.843914e+00 2.272356e+00 -4.676090e+00 -2.672335e+00 -3.557297e+00 -3.429318e+00 2.716151e+00 -2.542523e+00 5.781808e-01 -1.754384e+00 9.336663e-01 5.015043e-01 2.380045e-01 -6.161008e-02 -5.062084e-01 1.685952e-01 -4.877067e-01 -7.226309e-01 2.436393e-02 -4.291351e-01 2.593349e-02 -4.074022e-01 1.345447e+00
<VARIANCE> 25
 1.310909e+02 4.681017e+01 6.542982e+01 5.696083e+01 9.163577e+01 8.112235e+01 7.109972e+01 5.059555e+01 5.115631e+01 7.951240e+01 3.664143e+01 3.721159e+01 7.995033e+00 4.431973e+00 4.253476e+00 4.345460e+00 5.278980e+00 6.307829e+00 6.351044e+00 4.633510e+00 5.932450e+00 6.962311e+00 3.944374e+00 3.845932e+00 5.499255e+00
<GCONST> 1.170395e+02
<STATE> 3
<MEAN> 25
 9.498018e+00 2.582376e+00 -1.507441e+00 -1.576772e+00 -8.522545e+00 3.102586e-01 -1.003939e+01 -8.543107e+00 4.316926e+00 7.298554e-01 2.560110e+00 -5.229681e+00 2.553806e-01 -9.601896e-02 -1.174039e-01 -5.136502e-01 2.187717e-01 -2.747998e-03 1.075436e-01 1.383374e-01 -2.597666e-02 5.653253e-01 6.623816e-02 2.168306e-01 -3.170471e-01
<VARIANCE> 25
 2.717145e+01 5.852317e+01 5.458956e+01 7.088083e+01 6.871631e+01 1.255470e+02 5.541996e+01 7.376648e+01 5.209886e+01 7.243882e+01 4.719765e+01 4.824494e+01 1.295576e+00 2.342926e+00 3.312104e+00 3.548608e+00 3.942082e+00 6.218716e+00 3.967842e+00 4.014660e+00 3.701505e+00 4.175730e+00 3.760421e+00 4.064444e+00 2.150354e+00
<GCONST> 1.106968e+02
<STATE> 4
<MEAN> 25
 1.114441e+01 9.763227e+00 -1.657465e-01 -9.617764e+00 -8.295486e+00 3.064420e-01 -2.600603e+00 -7.558538e+00 -5.889807e-01 -5.559958e+00 1.775541e+00 8.015133e-01 -2.949133e-01 -4.361180e-01 2.198118e-01 3.121451e-01 4.116002e-01 -8.518463e-01 1.004917e-01 5.596739e-01 -2.097871e-01 2.746907e-01 -1.059326e-02 4.201881e-01 -9.478923e-01
<VARIANCE> 25
 2.640700e+01 3.912159e+01 2.688106e+01 6.544707e+01 4.607231e+01 8.761411e+01 3.837913e+01 4.149230e+01 5.765178e+01 1.110986e+02 2.631069e+01 2.932889e+01 1.389192e+00 1.184796e+00 1.380319e+00 2.592912e+00 1.925277e+00 2.544198e+00 1.920828e+00 2.735874e+00 2.156415e+00 3.304942e+00 1.759425e+00 1.603663e+00 6.270863e-01
<GCONST> 9.900540e+01
<TRANSP> 5
 0.000000e+00 1.000000e+00 0.000000e+00 0.000000e+00 0.000000e+00
 0.000000e+00 9.062590e-01 9.374100e-02 0.000000e+00 0.000000e+00
 0.000000e+00 0.000000e+00 9.083395e-01 9.166051e-02 0.000000e+00
 0.000000e+00 0.000000e+00 0.000000e+00 8.591750e-01 1.408251e-01
 0.000000e+00 0.000000e+00 0.000000e+00 0.000000e+00 0.000000e+00
<ENDHMM>
~h "zh"
<BEGINHMM>
<NUMSTATES> 5
<STATE> 2
<MEAN> 25
 -5.897005e+00 5.494527e+00 5.470990e+00 1.243341e+00 -1.265125e+01 -7.018339e+00 -4.649495e+00 -4.717423e+00 4.622500e+00 -5.647829e+00 5.692953e-01 2.684223e+00 2.362089e-02 -3.874094e-01 -6.320416e-01 -1.844007e-03 -4.890452e-02 -2.309767e-01 -5.959157e-01 2.231238e-02 1.176229e-01 -7.508558e-02 -4.786468e-01 -1.042199e-01 -2.885838e-01
<VARIANCE> 25
 9.118281e+01 4.680453e+01 2.124215e+01 1.824925e+01 2.956087e+01 5.280921e+01 3.297626e+01 1.856712e+01 1.082796e+01 2.081891e+01 3.392916e+01 1.133122e+01 7.287555e+00 3.982799e+00 2.099094e+00 1.182993e+00 1.871137e+00 3.529160e+00 2.135690e+00 1.680780e+00 1.185258e+00 2.702164e+00 1.624975e+00 1.355884e+00 7.969162e-01
<GCONST> 9.457635e+01
<STATE> 3
<MEAN> 25
 4.588146e+00 -1.506518e+00 -1.683763e+00 2.222519e-01 -5.612936e+00 -4.097806e+00 -2.622516e+00 1.380378e+00 6.399308e+00 7.542713e-01 -3.335492e+00 -2.322443e+00 -1.108805e-02 5.178186e-02 3.634447e-02 -1.608268e-02 8.875761e-01 7.321855e-01 6.608507e-01 1.735497e-01 -2.490037e-01 1.906010e-01 1.764582e-01 -7.568561e-03 -1.255715e+00
<VARIANCE> 25
 1.138510e+02 1.946321e+01 3.669894e+01 1.583845e+01 9.180178e+01 7.608104e+01 6.819617e+01 3.237445e+01 2.990275e+01 2.789606e+01 1.696309e+01 2.442717e+01 1.512442e+00 9.275882e-01 1.165232e+00 1.309792e+00 2.988217e+00 1.951842e+00 2.713090e+00 1.671928e+00 3.116095e+00 1.755836e+00 1.459373e+00 1.865308e+00 1.798327e-01
<GCONST> 9.434198e+01
<STATE> 4
<MEAN> 25
 -1.435101e+00 -1.973673e+00 -1.965719e+00 1.769575e+00 6.907143e+00 4.003876e+00 1.087541e+00 2.206841e+00 -2.353648e+00 1.008456e+00 1.089328e+00 1.439933e+00 -4.619371e-02 -3.861545e-03 -7.467462e-02 4.425397e-02 2.051016e-02 2.643395e-02 -6.523350e-02 2.532543e-02 -8.889190e-02 8.266339e-03 9.839481e-03 4.898926e-02 -1.159303e-01
<VARIANCE> 25
 3.171571e+00 8.226646e+00 1.365561e+01 9.623434e+00 1.075489e+01 1.374707e+01 1.222074e+01 1.474956e+01 1.656877e+01 1.566808e+01 1.241862e+01 9.678742e+00 1.389351e-01 2.812358e-01 4.516914e-01 6.480628e-01 9.103910e-01 1.086595e+00 1.199608e+00 1.420140e+00 1.747634e+00 1.370018e+00 1.296143e+00 1.146534e+00 6.284088e-02
<GCONST> 6.917886e+01
<TRANSP> 5
 0.000000e+00 1.000000e+00 0.000000e+00 0.000000e+00 0.000000e+00
 0.000000e+00 9.262102e-01 7.378987e-02 0.000000e+00 0.000000e+00
