~o
<STREAMINFO> 1 25
<VECSIZE> 25<NULLD><MFCC_D_N_Z_0><DIAGC>
~h "b"
<BEGINHMM>
<NUMSTATES> 5
<STATE> 2
<MEAN> 25
 3.465909e-01 2.422554e-01 3.378743e-01 2.680347e-01 1.270614e-01 4.555529e-01 -2.189151e-01 2.889589e-01 1.716649e-01 -4.204065e-01 2.652065e-01 -4.179646e-02 -2.622556e-03 1.586347e-02 -4.601341e-03 -3.355505e-02 -4.123740e-03 1.275600e-02 1.023468e-02 -1.203098e-03 3.343069e-03 7.230329e-03 -3.128319e-03 7.049521e-04 4.419036e-02
<VARIANCE> 25
 4.975196e+01 4.721827e+01 4.758855e+01 7.769457e+01 7.066344e+01 6.792357e+01 3.902878e+01 4.842532e+01 4.698932e+01 3.793632e+01 2.889333e+01 3.250039e+01 1.632162e+00 1.397783e+00 1.722383e+00 2.412494e+00 2.155956e+00 3.017968e+00 2.406519e+00 2.339126e+00 2.686179e+00 2.437710e+00 2.154854e+00 2.057959e+00 2.997784e+00
<GCONST> 1.025919e+02
<STATE> 3
<MEAN> 25
 3.316418e-01 3.129162e-01 3.123364e-01 8.420812e-02 9.496173e-02 5.178311e-01 -1.851488e-01 2.879679e-01 1.886756e-01 -3.676809e-01 2.322359e-01 -3.578010e-02 -6.063395e-03 1.375348e-02 -6.503072e-03 -3.662457e-02 -4.419985e-03 1.265792e-02 5.962344e-03 -8.464460e-04 2.753443e-03 1.121229e-02 -8.334955e-03 1.098695e-03 4.215105e-02
<VARIANCE> 25
 5.087291e+01 4.816638e+01 4.738217e+01 7.795026e+01 7.001597e+01 6.791193e+01 3.861291e+01 4.829514e+01 4.620604e+01 3.784383e+01 2.891187e+01 3.232672e+01 1.644477e+00 1.392192e+00 1.718736e+00 2.449603e+00 2.156265e+00 3.001369e+00 2.359861e+00 2.368616e+00 2.643235e+00 2.454285e+00 2.126972e+00 2.040275e+00 3.028160e+00
<GCONST> 1.025695e+02
<STATE> 4
<MEAN> 25
 2.286264e-01 3.879448e-01 3.330580e-01 -3.301407e-01 -1.792654e-01 4.796638e-01 -2.497625e-01 1.883058e-01 1.455102e-01 -3.631305e-01 9.980392e-02 -2.590276e-02 -1.070842e-02 1.478819e-02 -9.755464e-03 -4.223294e-02 -1.623810e-02 2.773694e-03 -1.582653e-03 -1.280197e-02 2.450414e-03 6.324440e-03 -9.768914e-03 9.646819e-04 4.948164e-02
<VARIANCE> 25
 5.232347e+01 5.062762e+01 4.937918e+01 7.890724e+01 7.180690e+01 7.003757e+01 3.862038e+01 4.865075e+01 4.500310e+01 3.853123e+01 2.879214e+01 3.199722e+01 1.677948e+00 1.436146e+00 1.813245e+00 2.539790e+00 2.246258e+00 3.031365e+00 2.340496e+00 2.510226e+00 2.609405e+00 2.509405e+00 2.042498e+00 2.001197e+00 3.084260e+00
<GCONST> 1.029512e+02
<TRANSP> 5
 0.000000e+00 1.000000e+00 0.000000e+00 0.000000e+00 0.000000e+00
 0.000000e+00 7.940017e-01 2.059983e-01 0.000000e+00 0.000000e+00
 0.000000e+00 0.000000e+00 7.940012e-01 2.059988e-01 0.000000e+00
 0.000000e+00 0.000000e+00 0.000000e+00 9.268520e-01 7.314798e-02
 0.000000e+00 0.000000e+00 0.000000e+00 0.000000e+00 0.000000e+00
<ENDHMM>
~h "d"
<BEGINHMM>
<NUMSTATES> 5
<STATE> 2
<MEAN> 25
 1.030661e-01 -4.757403e-01 -5.346850e-01 5.165756e-01 -4.276231e-02 1.847142e-01 -1.355015e-02 7.713415e-01 -1.817056e-01 3.380249e-01 5.381389e-02 5.777414e-02 4.534763e-04 7.004226e-04 1.010830e-02 5.920227e-03 5.212417e-04 1.173070e-02 -4.233955e-03 1.324364e-02 2.714827e-03 -2.914376e-03 -1.243289e-03 -1.029714e-03 5.832375e-03
<VARIANCE> 25
 4.384332e+01 3.901048e+01 3.615011e+01 6.834856e+01 5.016560e+01 5.293889e+01 3.916453e+01 5.097669e+01 4.485470e+01 3.352491e+01 2.453756e+01 2.812122e+01 1.642716e+00 1.355835e+00 1.389416e+00 2.265702e+00 2.167960e+00 2.519703e+00 2.422424e+00 2.728965e+00 2.362106e+00 2.342941e+00 1.958665e+00 1.864710e+00 2.245149e+00
<GCONST> 9.988899e+01
<STATE> 3
<MEAN> 25
 1.196043e-01 -4.661104e-01 -4.893558e-01 5.397232e-01 -3.685191e-02 2.400896e-01 -4.071272e-02 8.229161e-01 -1.496803e-01 3.183584e-01 3.460329e-02 5.095860e-02 2.644307e-03 3.490919e-03 1.078102e-02 4.157816e-03 1.451486e-03 9.266364e-03 -7.044570e-03 7.584967e-03 5.637744e-03 -4.789229e-03 -2.990695e-03 -1.288559e-03 1.553608e-02
<VARIANCE> 25
 4.470651e+01 3.930167e+01 3.699073e+01 6.852343e+01 5.021899e+01 5.214874e+01 3.908575e+01 5.012952e+01 4.524081e+01 3.298387e+01 2.445556e+01 2.802367e+01 1.683944e+00 1.373947e+00 1.416896e+00 2.294701e+00 2.165747e+00 2.508453e+00 2.409235e+00 2.748941e+00 2.381819e+00 2.324815e+00 1.956141e+00 1.856590e+00 2.272260e+00
<GCONST> 9.996780e+01
<STATE> 4
<MEAN> 25
 3.697090e-01 -6.697326e-01 -6.563050e-01 3.793983e-01 5.514945e-03 4.080597e-01 -5.640346e-02 8.572303e-01 1.268123e-01 2.396856e-01 -1.491756e-01 -1.170670e-01 6.976190e-03 4.480563e-03 5.025677e-03 -1.356395e-02 -1.346492e-03 4.589701e-04 -2.961096e-03 -9.859577e-03 1.175027e-02 -8.260579e-03 -7.981674e-03 -5.134750e-03 4.714938e-02
<VARIANCE> 25
 4.537458e+01 3.955885e+01 3.760494e+01 7.029692e+01 4.907508e+01 4.946695e+01 3.911835e+01 4.927557e+01 4.611112e+01 3.181193e+01 2.497553e+01 3.055928e+01 1.695726e+00 1.394579e+00 1.428021e+00 2.247009e+00 2.084943e+00 2.409189e+00 2.370461e+00 2.773433e+00 2.416862e+00 2.231525e+00 1.925250e+00 1.866480e+00 2.420385e+00
<GCONST> 9.997868e+01
<TRANSP> 5
 0.000000e+00 1.000000e+00 0.000000e+00 0.000000e+00 0.000000e+00
 0.000000e+00 7.990156e-01 2.009844e-01 0.000000e+00 0.000000e+00
 0.000000e+00 0.000000e+00 7.990155e-01 2.009845e-01 0.000000e+00
 0.000000e+00 0.000000e+00 0.000000e+00 9.346051e-01 6.539487e-02
 0.000000e+00 0.000000e+00 0.000000e+00 0.000000e+00 0.000000e+00
<ENDHMM>
~h "f"
<BEGINHMM>
<NUMSTATES> 5
<STATE> 2
<MEAN> 25
 -1.282119e+00 5.915669e-01 1.078171e-01 -2.688079e-02 -2.842554e-01 6.819231e-01 3.739299e-01 4.927087e-01 7.685481e-01 -4.612119e-01 -5.285807e-02 4.666673e-01 2.696794e-03 8.692637e-03 -1.043228e-02 -2.227055e-02 -7.174161e-03 -5.190734e-03 2.114776e-02 -2.244983e-03 1.965544e-02 -1.230745e-02 6.283598e-03 3.312902e-03 2.391187e-02
<VARIANCE> 25
 7.542410e+01 6.096554e+01 4.084937e+01 1.150827e+02 6.978519e+01 5.019114e+01 3.461696e+01 4.668858e+01 5.128986e+01 4.229623e+01 2.444995e+01 2.665208e+01 2.466100e+00 1.481099e+00 1.396708e+00 2.469765e+00 2.175709e+00 2.608259e+00 2.142080e+00 2.501223e+00 2.466077e+00 2.195173e+00 2.045471e+00 1.817984e+00 1.416623e+00
<GCONST> 1.018455e+02
<STATE> 3
<MEAN> 25
 -1.259958e+00 6.517174e-01 3.795618e-02 -1.857997e-01 -3.501192e-01 6.708581e-01 4.676753e-01 4.578443e-01 8.645806e-01 -5.421508e-01 -1.530434e-02 4.637452e-01 4.530450e-03 9.224085e-03 -1.373692e-02 -2.935367e-02 -1.089567e-02 -1.969067e-03 1.769912e-02 -6.993191e-03 1.667937e-02 -1.464782e-02 7.197464e-03 -1.572822e-04 2.588307e-02
<VARIANCE> 25
 7.686645e+01 6.085431e+01 4.051582e+01 1.167166e+02 6.947202e+01 5.086544e+01 3.502398e+01 4.708194e+01 5.162941e+01 4.269854e+01 2.455928e+01 2.674631e+01 2.498218e+00 1.490841e+00 1.409161e+00 2.514401e+00 2.175985e+00 2.608884e+00 2.150711e+00 2.518925e+00 2.499048e+00 2.216460e+00 2.027580e+00 1.812005e+00 1.436137e+00
<GCONST> 1.020037e+02
<STATE> 4
<MEAN> 25
 -1.060743e+00 8.099363e-01 -2.163922e-01 -8.828699e-01 -5.461531e-01 6.069199e-01 4.570285e-01 3.685016e-01 1.114815e+00 -8.690733e-01 1.197876e-01 4.035906e-01 1.925333e-02 3.825897e-03 -1.305075e-02 -3.731195e-02 -1.213534e-02 -1.460837e-03 5.801861e-03 -1.046958e-02 1.053289e-02 -1.447819e-02 2.671144e-03 -5.398384e-03 2.663722e-02
<VARIANCE> 25
 7.987943e+01 6.208451e+01 3.992484e+01 1.276879e+02 6.776659e+01 5.305408e+01 3.405877e+01 4.708698e+01 5.221394e+01 4.722730e+01 2.386566e+01 2.607764e+01 2.562164e+00 1.478308e+00 1.385576e+00 2.670320e+00 2.123360e+00 2.532961e+00 2.074306e+00 2.447879e+00 2.463168e+00 2.282349e+00 1.949849e+00 1.748131e+00 1.439350e+00
<GCONST> 1.020683e+02
<TRANSP> 5
 0.000000e+00 1.000000e+00 0.000000e+00 0.000000e+00 0.000000e+00
 0.000000e+00 8.125325e-01 1.874675e-01 0.000000e+00 0.000000e+00
 0.000000e+00 0.000000e+00 8.125332e-01 1.874668e-01 0.000000e+00
 0.000000e+00 0.000000e+00 0.000000e+00 9.500051e-01 4.999493e-02
 0.000000e+00 0.000000e+00 0.000000e+00 0.000000e+00 0.000000e+00
<ENDHMM>
~h "g"
<BEGINHMM>
<NUMSTATES> 5
<STATE> 2
<MEAN> 25
 -1.387007e-01 -1.007710e+00 -4.364080e-01 7.812063e-01 2.852938e-01 3.693107e-02 8.112805e-01 4.824407e-01 -3.241627e-01 3.586875e-02 3.596889e-02 -2.754579e-01 8.151662e-03 1.967888e-02 -1.646167e-02 -1.509834e-02 -3.791098e-02 -4.640037e-02 1.541166e-03 -2.482264e-02 -7.967044e-03 -5.783747e-03 -2.297173e-02 -3.088243e-02 1.025671e-01
<VARIANCE> 25
 3.114722e+01 3.397829e+01 3.001005e+01 5.298715e+01 5.871605e+01 7.859002e+01 5.523215e+01 4.244624e+01 3.280764e+01 3.124743e+01 3.153225e+01 3.436905e+01 1.587494e+00 1.526199e+00 1.768548e+00 2.063682e+00 2.169938e+00 3.021943e+00 3.025229e+00 2.721047e+00 2.468761e+00 2.686639e+00 2.105036e+00 2.215269e+00 3.449225e+00
<GCONST> 1.012385e+02
<STATE> 3
<MEAN> 25
 -4.857296e-02 -9.312230e-01 -4.913242e-01 6.622581e-01 7.291678e-02 -1.900568e-01 7.852405e-01 4.145167e-01 -3.823898e-01 8.959954e-04 -8.770131e-02 -4.510038e-01 2.223143e-02 1.852251e-02 -1.179464e-02 -2.969862e-02 -4.435556e-02 -4.634205e-02 -5.510794e-03 -1.523767e-02 -8.787910e-03 -6.432293e-03 -2.486383e-02 -3.776937e-02 1.139389e-01
<VARIANCE> 25
 3.289444e+01 3.536420e+01 3.167049e+01 5.369335e+01 5.967119e+01 7.952850e+01 5.623786e+01 4.329966e+01 3.334232e+01 3.216331e+01 3.221048e+01 3.606897e+01 1.638051e+00 1.587127e+00 1.838960e+00 2.140357e+00 2.223841e+00 3.135929e+00 3.034622e+00 2.772354e+00 2.487995e+00 2.736795e+00 2.128520e+00 2.280737e+00 3.618565e+00
<GCONST> 1.019245e+02
<STATE> 4
<MEAN> 25
 2.609369e-01 -8.125333e-01 -4.010596e-01 1.979930e-01 -5.842196e-01 -6.982099e-01 4.937796e-01 2.605684e-01 -5.270375e-01 -6.562377e-02 -2.144853e-01 -8.740027e-01 3.568389e-02 2.269861e-02 3.210749e-03 -5.459041e-02 -5.806766e-02 -5.113994e-02 -9.165395e-03 -2.164428e-02 -1.697032e-03 -1.418654e-03 -1.962207e-02 -3.915045e-02 1.412395e-01
<VARIANCE> 25
 3.324852e+01 3.776427e+01 3.625314e+01 5.544948e+01 6.487321e+01 8.308684e+01 5.914856e+01 4.520343e+01 3.384257e+01 3.354504e+01 3.404063e+01 3.885359e+01 1.644728e+00 1.627818e+00 2.007118e+00 2.421398e+00 2.395583e+00 3.361093e+00 3.004533e+00 2.936721e+00 2.470531e+00 2.822868e+00 2.200389e+00 2.290805e+00 3.962812e+00
<GCONST> 1.031597e+02
<TRANSP> 5
 0.000000e+00 1.000000e+00 0.000000e+00 0.000000e+00 0.000000e+00
 0.000000e+00 7.948475e-01 2.051524e-01 0.000000e+00 0.000000e+00
 0.000000e+00 0.000000e+00 7.948475e-01 2.051525e-01 0.000000e+00
 0.000000e+00 0.000000e+00 0.000000e+00 9.267082e-01 7.329178e-02
 0.000000e+00 0.000000e+00 0.000000e+00 0.000000e+00 0.000000e+00
<ENDHMM>
~h "k"
<BEGINHMM>
<NUMSTATES> 5
<STATE> 2
<MEAN> 25
 -6.595924e-01 3.916384e-01 -4.800189e-01 -3.093226e-01 -4.922605e-01 1.988608e-02 -2.256123e-02 -1.464176e-01 -9.675963e-02 -5.037684e-01 5.025647e-01 1.881587e-01 2.838578e-03 3.600983e-03 5.167426e-03 -7.229757e-03 -1.347945e-02 6.038635e-03 1.779604e-03 6.946772e-03 4.904937e-03 9.256769e-03 9.539977e-04 -2.628154e-03 -2.606732e-03
<VARIANCE> 25
 5.384018e+01 4.998716e+01 5.183524e+01 8.389399e+01 6.574657e+01 5.809716e+01 3.993613e+01 4.921228e+01 5.593104e+01 4.214415e+01 2.474916e+01 2.904145e+01 1.974300e+00 1.534130e+00 2.094657e+00 2.374092e+00 2.186288e+00 2.658925e+00 2.564505e+00 2.680194e+00 2.501509e+00 2.305018e+00 2.059590e+00 1.938666e+00 2.127832e+00
<GCONST> 1.026880e+02
<STATE> 3
<MEAN> 25
 -6.494135e-01 4.034521e-01 -4.572829e-01 -3.314171e-01 -5.421488e-01 3.926478e-02 -3.603465e-03 -1.118669e-01 -6.530582e-02 -4.674163e-01 4.985856e-01 1.666849e-01 1.634786e-03 1.480327e-03 6.020750e-03 -1.150781e-03 -8.263647e-03 2.769571e-03 4.152175e-03 5.895926e-03 6.359593e-03 8.328587e-03 -2.082236e-03 -4.842595e-03 1.863170e-03
<VARIANCE> 25
 5.373831e+01 4.993360e+01 5.178377e+01 8.419532e+01 6.571992e+01 5.826738e+01 3.978233e+01 4.863111e+01 5.656493e+01 4.221388e+01 2.464080e+01 2.925155e+01 1.977178e+00 1.534018e+00 2.101247e+00 2.359350e+00 2.195065e+00 2.673284e+00 2.580598e+00 2.657145e+00 2.495331e+00 2.292523e+00 2.052418e+00 1.953100e+00 2.142890e+00
<GCONST> 1.026985e+02
<STATE> 4
<MEAN> 25
 -6.705745e-01 6.257411e-01 -5.098805e-01 -4.183129e-01 -7.402304e-01 -1.210610e-02 4.884573e-02 -1.222459e-01 1.594003e-01 -4.040763e-01 4.923015e-01 1.344122e-01 6.566359e-03 -3.276654e-04 4.764624e-03 2.097693e-03 -4.835625e-03 -3.180574e-03 1.353462e-03 -3.372659e-03 1.255964e-02 5.683659e-03 -4.749233e-03 -8.472901e-03 1.525557e-02
<VARIANCE> 25
 5.656836e+01 5.399577e+01 5.299124e+01 9.327470e+01 6.873841e+01 5.969512e+01 3.853030e+01 4.780077e+01 6.095396e+01 4.648177e+01 2.541336e+01 2.878335e+01 1.985476e+00 1.595971e+00 2.201962e+00 2.375108e+00 2.225748e+00 2.702755e+00 2.553812e+00 2.606101e+00 2.546402e+00 2.339209e+00 2.101227e+00 1.962128e+00 2.208779e+00
<GCONST> 1.033503e+02
<TRANSP> 5
 0.000000e+00 1.000000e+00 0.000000e+00 0.000000e+00 0.000000e+00
 0.000000e+00 7.961619e-01 2.038381e-01 0.000000e+00 0.000000e+00
 0.000000e+00 0.000000e+00 7.961617e-01 2.038384e-01 0.000000e+00
 0.000000e+00 0.000000e+00 0.000000e+00 9.318188e-01 6.818124e-02
 0.000000e+00 0.000000e+00 0.000000e+00 0.000000e+00 0.000000e+00
<ENDHMM>
~h "l"
<BEGINHMM>
<NUMSTATES> 5
<STATE> 2
<MEAN> 25
 6.043083e-01 9.316357e-02 -3.259825e-01 -7.949581e-01 -2.842407e-01 3.012976e-01 1.618022e-02 3.181763e-02 5.119869e-01 -5.252891e-02 -1.876621e-01 -1.567782e-01 -5.222515e-03 9.310398e-03 4.412011e-03 2.348903e-03 -1.069786e-02 -1.214400e-02 -6.111826e-03 -6.840509e-03 -3.785811e-03 6.383957e-03 -1.856443e-03 2.217301e-03 -5.485414e-03
<VARIANCE> 25
 5.056116e+01 4.424875e+01 4.025687e+01 8.784140e+01 6.353094e+01 5.842141e+01 4.432755e+01 5.041547e+01 4.915347e+01 3.810066e+01 2.930255e+01 3.818117e+01 1.575878e+00 1.540198e+00 1.660429e+00 2.324798e+00 2.258348e+00 2.654589e+00 2.677508e+00 2.752062e+00 2.430852e+00 2.345107e+00 2.089999e+00 2.063905e+00 2.081526e+00
<GCONST> 1.022781e+02
<STATE> 3
<MEAN> 25
 5.690522e-01 1.384580e-01 -2.968028e-01 -7.677960e-01 -3.272296e-01 2.400114e-01 -1.472460e-02 -1.473357e-03 4.777001e-01 -2.082842e-02 -1.946670e-01 -1.453442e-01 -8.245710e-03 9.821500e-03 6.604136e-03 1.975813e-03 -9.573885e-03 -1.513099e-02 -5.926372e-03 -9.328090e-03 -6.142166e-03 7.786959e-03 -4.736084e-04 2.522144e-03 -1.136728e-02
<VARIANCE> 25
 5.065326e+01 4.451628e+01 4.033940e+01 8.722454e+01 6.364984e+01 5.908850e+01 4.422699e+01 5.059826e+01 4.896360e+01 3.803016e+01 2.928649e+01 3.818350e+01 1.577199e+00 1.548541e+00 1.655502e+00 2.334520e+00 2.250861e+00 2.663752e+00 2.651916e+00 2.779477e+00 2.431432e+00 2.355000e+00 2.082541e+00 2.072955e+00 2.055196e+00
<GCONST> 1.022897e+02
<STATE> 4
<MEAN> 25
 5.415101e-01 2.191178e-01 -3.093942e-01 -7.939598e-01 -3.583255e-01 1.698156e-01 -5.872236e-02 -9.146379e-02 3.677419e-01 -4.410296e-02 -1.567361e-01 -1.542399e-01 -1.023050e-02 8.690138e-03 9.555842e-03 1.648470e-03 -7.479203e-03 -1.718982e-02 -6.846226e-03 -1.334850e-02 -8.856351e-03 7.942586e-03 2.101567e-03 -1.585048e-03 -9.495214e-03
<VARIANCE> 25
 4.982481e+01 4.615006e+01 4.083995e+01 8.945052e+01 6.468745e+01 5.939743e+01 4.304728e+01 5.136644e+01 5.000193e+01 3.976302e+01 2.899736e+01 3.754161e+01 1.540088e+00 1.570779e+00 1.661281e+00 2.352136e+00 2.244987e+00 2.659359e+00 2.563035e+00 2.786576e+00 2.434329e+00 2.361373e+00 2.068125e+00 2.070427e+00 2.016694e+00
<GCONST> 1.023373e+02
<TRANSP> 5
 0.000000e+00 1.000000e+00 0.000000e+00 0.000000e+00 0.000000e+00
 0.000000e+00 7.975259e-01 2.024741e-01 0.000000e+00 0.000000e+00
 0.000000e+00 0.000000e+00 7.975248e-01 2.024752e-01 0.000000e+00
 0.000000e+00 0.000000e+00 0.000000e+00 9.325432e-01 6.745687e-02
 0.000000e+00 0.000000e+00 0.000000e+00 0.000000e+00 0.000000e+00
<ENDHMM>
~h "m"
<BEGINHMM>
<NUMSTATES> 5
<STATE> 2
<MEAN> 25
 -6.361525e-02 7.514731e-01 -1.316557e-01 6.384135e-02 4.592089e-01 -6.142896e-02 9.554458e-01 -1.710764e-01 -2.199255e-01 -2.869063e-01 3.064802e-01 -1.832798e-01 2.848420e-03 2.663679e-03 2.079867e-04 -1.065264e-02 -5.173869e-05 -6.171118e-03 -1.039625e-03 4.214653e-03 2.549163e-03 1.226592e-02 -7.351242e-03 -1.136308e-02 2.484181e-02
<VARIANCE> 25
 5.608773e+01 4.241223e+01 4.709771e+01 6.359478e+01 5.739646e+01 5.643032e+01 4.095668e+01 5.034300e+01 4.535634e+01 3.316995e+01 2.474560e+01 3.905032e+01 2.100988e+00 1.543282e+00 1.897279e+00 2.009829e+00 2.259721e+00 2.566703e+00 2.556171e+00 3.021736e+00 2.598697e+00 2.163327e+00 2.176001e+00 2.308525e+00 2.062030e+00
<GCONST> 1.020115e+02
<STATE> 3
<MEAN> 25
 -3.001066e-02 7.715735e-01 -1.196475e-01 -5.003444e-03 4.206034e-01 -1.211176e-01 9.597108e-01 -1.840449e-01 -1.900501e-01 -2.348843e-01 2.633564e-01 -2.502216e-01 4.672945e-03 1.281394e-03 3.935589e-03 -1.175023e-02 -8.562868e-03 -9.415476e-03 -2.085372e-03 -7.950934e-04 2.961649e-03 9.569757e-03 -8.856194e-03 -1.077399e-02 3.349652e-02
<VARIANCE> 25
 5.698531e+01 4.291578e+01 4.709517e+01 6.343591e+01 5.814915e+01 5.658473e+01 4.135558e+01 5.089087e+01 4.488536e+01 3.320660e+01 2.464074e+01 3.988881e+01 2.126426e+00 1.576069e+00 1.899963e+00 2.015522e+00 2.290769e+00 2.550849e+00 2.562511e+00 3.057528e+00 2.595057e+00 2.179047e+00 2.154165e+00 2.335308e+00 2.095235e+00
<GCONST> 1.021628e+02
<STATE> 4
<MEAN> 25
 2.765678e-01 7.938112e-01 3.157328e-02 -1.226845e-01 -1.342527e-02 -4.983929e-01 9.323284e-01 -3.290016e-01 2.766318e-02 -2.093583e-01 1.106426e-01 -5.032288e-01 1.148536e-02 -9.452859e-04 8.533275e-03 -1.412974e-02 -2.256218e-02 -1.384116e-02 -6.396944e-03 -7.922575e-03 8.446109e-03 4.176185e-03 -7.772475e-03 -3.539576e-03 5.641484e-02
<VARIANCE> 25
 5.807106e+01 4.322300e+01 4.756663e+01 6.176984e+01 6.272853e+01 5.763176e+01 4.346345e+01 5.293604e+01 4.451205e+01 3.287184e+01 2.488975e+01 4.202719e+01 2.185102e+00 1.671124e+00 1.917092e+00 2.023293e+00 2.443950e+00 2.569364e+00 2.634482e+00 3.154706e+00 2.616270e+00 2.209196e+00 2.108484e+00 2.387491e+00 2.235313e+00
<GCONST> 1.027161e+02
<TRANSP> 5
 0.000000e+00 1.000000e+00 0.000000e+00 0.000000e+00 0.000000e+00
 0.000000e+00 7.924688e-01 2.075312e-01 0.000000e+00 0.000000e+00
 0.000000e+00 0.000000e+00 7.924683e-01 2.075317e-01 0.000000e+00
 0.000000e+00 0.000000e+00 0.000000e+00 9.265527e-01 7.344739e-02
 0.000000e+00 0.000000e+00 0.000000e+00 0.000000e+00 0.000000e+00
<ENDHMM>
~h "n"
<BEGINHMM>
<NUMSTATES> 5
<STATE> 2
<MEAN> 25
 2.964312e-01 -9.170286e-02 -1.266542e-01 -3.274459e-01 6.373324e-01 3.464195e-01 3.351969e-01 1.696249e-01 -1.881080e-01 1.466052e-02 -1.234484e-01 7.107227e-02 -3.450723e-03 3.564903e-03 9.859089e-03 8.555882e-03 -3.502397e-03 5.246729e-03 -5.341390e-03 -4.833749e-03 -7.144653e-03 -3.190352e-03 7.098724e-03 8.075961e-04 -2.232964e-02
<VARIANCE> 25
 4.646741e+01 5.134350e+01 4.275658e+01 7.567150e+01 5.763602e+01 5.242216e+01 3.536792e+01 4.895679e+01 4.296097e+01 3.775293e+01 2.695132e+01 2.935217e+01 1.647199e+00 1.452069e+00 1.676936e+00 2.003834e+00 2.024716e+00 2.277059e+00 2.320735e+00 2.623905e+00 2.301046e+00 2.094347e+00 1.872761e+00 1.687752e+00 2.085975e+00
<GCONST> 1.002187e+02
<STATE> 3
<MEAN> 25
 2.785932e-01 -7.341357e-02 -7.131320e-02 -2.795907e-01 6.195791e-01 3.632834e-01 3.065681e-01 1.405374e-01 -2.171682e-01 1.050113e-03 -9.041832e-02 7.636300e-02 -3.085921e-03 4.845785e-03 1.289374e-02 8.065522e-03 -4.589589e-03 1.293642e-03 -4.825245e-03 -9.676350e-03 -4.809734e-03 -2.085023e-03 6.857452e-03 9.169315e-04 -1.838399e-02
<VARIANCE> 25
 4.604577e+01 5.134849e+01 4.299342e+01 7.536460e+01 5.742931e+01 5.241451e+01 3.517810e+01 4.962427e+01 4.287424e+01 3.777861e+01 2.683433e+01 2.935736e+01 1.637061e+00 1.443036e+00 1.680869e+00 2.002458e+00 2.026400e+00 2.282905e+00 2.331404e+00 2.668919e+00 2.296498e+00 2.091439e+00 1.863261e+00 1.690050e+00 2.094659e+00
<GCONST> 1.002214e+02
<STATE> 4
<MEAN> 25
 3.801787e-01 -9.061109e-02 7.681478e-02 -2.814148e-01 5.523956e-01 2.926121e-01 2.246346e-01 -3.022211e-02 -1.870369e-01 -4.270427e-02 -4.961627e-02 8.021770e-04 -5.548877e-03 7.302578e-03 1.408448e-02 6.756919e-03 -6.198240e-03 -4.436822e-03 -5.621192e-03 -1.400730e-02 -1.534060e-03 -4.099851e-04 5.953559e-03 2.104936e-03 -1.108105e-02
<VARIANCE> 25
 4.639960e+01 5.445656e+01 4.282817e+01 7.984231e+01 5.881686e+01 5.343677e+01 3.529204e+01 5.278000e+01 4.305285e+01 4.002090e+01 2.721708e+01 2.920704e+01 1.583619e+00 1.481691e+00 1.668719e+00 2.038821e+00 2.044502e+00 2.322743e+00 2.341248e+00 2.797785e+00 2.296620e+00 2.117027e+00 1.848561e+00 1.678305e+00 2.103531e+00
<GCONST> 1.006037e+02
<TRANSP> 5
 0.000000e+00 1.000000e+00 0.000000e+00 0.000000e+00 0.000000e+00
 0.000000e+00 8.038683e-01 1.961317e-01 0.000000e+00 0.000000e+00
 0.000000e+00 0.000000e+00 8.038677e-01 1.961323e-01 0.000000e+00
 0.000000e+00 0.000000e+00 0.000000e+00 9.410189e-01 5.898108e-02
 0.000000e+00 0.000000e+00 0.000000e+00 0.000000e+00 0.000000e+00
<ENDHMM>
~h "p"
<BEGINHMM>
<NUMSTATES> 5
<STATE> 2
<MEAN> 25
 6.915024e-02 -8.470972e-01 -9.175249e-04 4.442123e-01 -7.695591e-02 3.425067e-02 -6.499165e-01 -2.845902e-01 -1.687991e-01 -1.628208e-01 2.529414e-01 -1.436962e-01 9.093765e-03 -5.552547e-03 2.113950e-03 -1.536127e-03 1.428030e-03 2.429246e-02 -1.960142e-02 1.565192e-02 6.533014e-03 1.636936e-02 -1.342903e-03 2.705138e-03 -6.105645e-03
<VARIANCE> 25
 4.782054e+01 3.917248e+01 3.992605e+01 5.045237e+01 5.496454e+01 5.063509e+01 4.620391e+01 4.230952e+01 4.707078e+01 3.019614e+01 2.481397e+01 3.001071e+01 1.973804e+00 1.526223e+00 1.723691e+00 1.897203e+00 2.266105e+00 2.575507e+00 2.603124e+00 2.836981e+00 2.524281e+00 2.305863e+00 2.115802e+00 2.004698e+00 2.218639e+00
<GCONST> 1.005266e+02
<STATE> 3
<MEAN> 25
 1.169203e-01 -8.616514e-01 -7.278629e-03 4.229434e-01 -7.500722e-02 1.515504e-01 -7.316797e-01 -2.189772e-01 -1.215516e-01 -9.393302e-02 2.630847e-01 -1.298397e-01 9.942738e-03 3.627171e-04 -2.012781e-03 -9.896571e-03 -5.143695e-04 2.098604e-02 -1.654021e-02 1.142568e-02 1.326271e-02 1.475898e-02 -2.315280e-04 1.095557e-04 1.926287e-03
<VARIANCE> 25
 4.705994e+01 3.869765e+01 3.931996e+01 5.106432e+01 5.519874e+01 5.057747e+01 4.658662e+01 4.243196e+01 4.719838e+01 3.022756e+01 2.492339e+01 3.015767e+01 1.968714e+00 1.515743e+00 1.708476e+00 1.911438e+00 2.276619e+00 2.588598e+00 2.618832e+00 2.851855e+00 2.561103e+00 2.304026e+00 2.122174e+00 2.002887e+00 2.216531e+00
<GCONST> 1.005473e+02
<STATE> 4
<MEAN> 25
 2.855554e-01 -8.158321e-01 -1.138395e-01 2.220358e-01 -5.387022e-02 4.698725e-01 -8.030027e-01 -1.868324e-01 1.404489e-02 1.727576e-02 3.105888e-01 -8.693135e-02 1.135029e-02 1.065569e-02 -2.515366e-03 -1.822357e-02 -2.208971e-03 1.747927e-02 -1.213710e-02 4.332806e-03 1.443631e-02 9.215772e-03 -1.121789e-03 -1.726435e-03 6.200961e-03
<VARIANCE> 25
 4.553892e+01 3.828406e+01 3.803116e+01 5.501138e+01 5.616448e+01 4.942112e+01 4.614985e+01 4.419258e+01 4.775395e+01 2.963607e+01 2.478956e+01 2.984161e+01 1.881077e+00 1.471994e+00 1.642646e+00 1.962646e+00 2.281108e+00 2.567897e+00 2.589600e+00 2.894187e+00 2.596195e+00 2.254040e+00 2.118084e+00 1.980946e+00 2.190685e+00
<GCONST> 1.004231e+02
<TRANSP> 5
 0.000000e+00 1.000000e+00 0.000000e+00 0.000000e+00 0.000000e+00
 0.000000e+00 7.919370e-01 2.080630e-01 0.000000e+00 0.000000e+00
 0.000000e+00 0.000000e+00 7.919376e-01 2.080625e-01 0.000000e+00
 0.000000e+00 0.000000e+00 0.000000e+00 9.247978e-01 7.520228e-02
 0.000000e+00 0.000000e+00 0.000000e+00 0.000000e+00 0.000000e+00
<ENDHMM>
~h "r"
<BEGINHMM>
<NUMSTATES> 5
<STATE> 2
<MEAN> 25
 1.914235e-01 1.678271e-01 2.232595e-01 4.088778e-01 -7.180046e-01 1.908401e-01 -1.346712e-01 8.624598e-02 1.822075e-01 -4.617006e-01 2.386537e-01 2.611468e-01 7.186204e-03 -3.305887e-03 -9.162504e-03 1.538534e-03 -1.259787e-03 -1.112331e-02 2.919702e-03 -1.082606e-02 5.395367e-03 4.671915e-04 -2.867337e-03 -4.712583e-03 2.949106e-02
<VARIANCE> 25
 6.188428e+01 5.630604e+01 5.016015e+01 8.111118e+01 6.790454e+01 6.038583e+01 4.019940e+01 5.263636e+01 5.329358e+01 3.963023e+01 2.629309e+01 2.890739e+01 2.159230e+00 1.787001e+00 1.985938e+00 2.413876e+00 2.427700e+00 2.909261e+00 2.481985e+00 2.725321e+00 2.683904e+00 2.540320e+00 2.112243e+00 1.954449e+00 2.076816e+00
<GCONST> 1.035313e+02
<STATE> 3
<MEAN> 25
 2.353131e-01 1.553151e-01 1.748472e-01 4.063445e-01 -7.285299e-01 1.371201e-01 -1.168702e-01 2.948709e-02 2.195698e-01 -4.609744e-01 2.290019e-01 2.356489e-01 8.462645e-03 -1.605454e-03 -9.607825e-03 -3.569853e-04 -6.346488e-04 -1.079856e-02 3.155550e-03 -1.121292e-02 6.741208e-03 1.396963e-04 -1.830586e-03 -4.790768e-03 3.266470e-02
<VARIANCE> 25
 6.267399e+01 5.581443e+01 5.110401e+01 8.087405e+01 6.844842e+01 6.070803e+01 4.086271e+01 5.322490e+01 5.343034e+01 4.007336e+01 2.618356e+01 2.910248e+01 2.197678e+00 1.795891e+00 2.025047e+00 2.429427e+00 2.454093e+00 2.939941e+00 2.514782e+00 2.760913e+00 2.712425e+00 2.574786e+00 2.110074e+00 1.975905e+00 2.118693e+00
<GCONST> 1.037578e+02
<STATE> 4
<MEAN> 25
 2.831275e-01 3.038646e-01 2.145840e-01 3.343440e-01 -8.463489e-01 -6.640349e-02 -1.373125e-01 -1.317545e-01 3.105406e-01 -5.116705e-01 2.407429e-01 2.112790e-01 9.720087e-03 2.870485e-04 -6.073874e-03 -6.310178e-03 1.596147e-04 -1.043070e-02 4.566139e-03 -1.028830e-02 6.330857e-03 1.545656e-04 -1.630694e-03 -5.746074e-03 3.431700e-02
<VARIANCE> 25
 6.483463e+01 5.843119e+01 5.225667e+01 8.613043e+01 7.143248e+01 6.053577e+01 4.058522e+01 5.543533e+01 5.389671e+01 4.245910e+01 2.584174e+01 2.923117e+01 2.218453e+00 1.825280e+00 1.989393e+00 2.462932e+00 2.441436e+00 2.927768e+00 2.465470e+00 2.781910e+00 2.714480e+00 2.573848e+00 2.071699e+00 1.988580e+00 2.079785e+00
<GCONST> 1.040242e+02
<TRANSP> 5
 0.000000e+00 1.000000e+00 0.000000e+00 0.000000e+00 0.000000e+00
 0.000000e+00 8.026299e-01 1.973700e-01 0.000000e+00 0.000000e+00
 0.000000e+00 0.000000e+00 8.026294e-01 1.973706e-01 0.000000e+00
 0.000000e+00 0.000000e+00 0.000000e+00 9.397796e-01 6.022036e-02
 0.000000e+00 0.000000e+00 0.000000e+00 0.000000e+00 0.000000e+00
<ENDHMM>
~h "s"
<BEGINHMM>
<NUMSTATES> 5
<STATE> 2
<MEAN> 25
 -1.592976e+00 1.895017e+00 -7.794850e-02 8.076069e-01 -4.380322e-02 -1.232421e+00 7.401233e-01 -1.132782e-01 5.279693e-02 4.909045e-01 -1.560493e-01 -6.197662e-02 5.382719e-05 -5.763831e-03 6.136027e-03 4.903503e-03 -2.954630e-04 -4.848651e-03 -6.077324e-04 -2.633915e-04 -6.059168e-03 -7.510922e-04 -2.224014e-03 3.478456e-03 -1.978148e-02
<VARIANCE> 25
 7.561467e+01 7.668444e+01 6.107806e+01 7.002225e+01 6.827721e+01 6.007449e+01 3.660338e+01 4.190554e+01 4.860543e+01 3.335838e+01 2.684235e+01 2.531385e+01 2.170215e+00 2.089264e+00 2.037337e+00 2.144646e+00 2.127281e+00 2.674456e+00 2.231581e+00 2.297161e+00 2.407116e+00 2.092714e+00 1.948316e+00 1.640825e+00 2.331366e+00
<GCONST> 1.025251e+02
<STATE> 3
<MEAN> 25
 -1.601158e+00 1.870266e+00 -5.179753e-02 8.345890e-01 -4.017854e-02 -1.250567e+00 7.386445e-01 -1.177194e-01 1.777752e-02 4.925930e-01 -1.666188e-01 -4.032430e-02 -1.681353e-03 -6.280212e-03 5.356352e-03 4.079381e-03 -7.527694e-05 -2.508513e-03 -1.429614e-03 -1.202961e-03 -7.007920e-03 8.055713e-04 -2.977098e-03 4.923383e-03 -2.303867e-02
<VARIANCE> 25
 7.522099e+01 7.636853e+01 6.092931e+01 6.916174e+01 6.852757e+01 6.009198e+01 3.656934e+01 4.202415e+01 4.841700e+01 3.332901e+01 2.672580e+01 2.505915e+01 2.166355e+00 2.100319e+00 2.022609e+00 2.143753e+00 2.134531e+00 2.681987e+00 2.235443e+00 2.296890e+00 2.402537e+00 2.102261e+00 1.951634e+00 1.634518e+00 2.317355e+00
<GCONST> 1.024857e+02
<STATE> 4
<MEAN> 25
 -1.836944e+00 1.876574e+00 7.112500e-02 1.102376e+00 -9.600621e-02 -1.392428e+00 6.804482e-01 -1.500354e-01 -1.730788e-01 6.511484e-01 -2.201932e-01 2.548631e-02 4.190458e-04 -8.300480e-03 5.059083e-03 1.272663e-03 -5.849516e-04 3.424135e-03 -2.676412e-03 -1.751916e-03 -6.560259e-03 2.167373e-03 -3.156277e-03 6.049044e-03 -2.302736e-02
<VARIANCE> 25
 7.385372e+01 7.632662e+01 6.194492e+01 6.832011e+01 6.997343e+01 6.040158e+01 3.542587e+01 4.279439e+01 4.871256e+01 3.386021e+01 2.593320e+01 2.435382e+01 2.105601e+00 2.096168e+00 2.017045e+00 2.111645e+00 2.144409e+00 2.674131e+00 2.194712e+00 2.292260e+00 2.374745e+00 2.133790e+00 1.929283e+00 1.603904e+00 2.312755e+00
<GCONST> 1.023506e+02
<TRANSP> 5
 0.000000e+00 1.000000e+00 0.000000e+00 0.000000e+00 0.000000e+00
 0.000000e+00 8.078759e-01 1.921240e-01 0.000000e+00 0.000000e+00
 0.000000e+00 0.000000e+00 8.078754e-01 1.921246e-01 0.000000e+00
 0.000000e+00 0.000000e+00 0.000000e+00 9.443511e-01 5.564889e-02
 0.000000e+00 0.000000e+00 0.000000e+00 0.000000e+00 0.000000e+00
<ENDHMM>
~h "t"
<BEGINHMM>
<NUMSTATES> 5
<STATE> 2
<MEAN> 25
 -1.791660e-01 3.810616e-01 1.567410e-01 -7.608989e-01 6.763177e-02 -3.708901e-01 5.948604e-02 -4.226281e-01 -1.060926e-01 -8.667774e-02 -7.512395e-02 -1.274255e-01 6.724816e-03 -4.976878e-03 1.879369e-02 1.837156e-02 2.982008e-03 -1.839299e-03 1.145675e-04 4.117694e-04 -1.493459e-02 1.088053e-03 4.657476e-03 1.113721e-02 -2.181972e-02
<VARIANCE> 25
 5.505312e+01 5.291972e+01 5.152720e+01 7.159235e+01 6.292680e+01 6.045367e+01 4.161026e+01 4.686711e+01 4.606550e+01 3.827829e+01 2.544289e+01 3.023755e+01 2.353151e+00 1.861127e+00 1.861627e+00 2.280884e+00 2.449010e+00 2.834670e+00 2.518787e+00 2.865026e+00 2.653915e+00 2.410439e+00 2.082923e+00 1.955750e+00 2.606478e+00
<GCONST> 1.031324e+02
<STATE> 3
<MEAN> 25
 -1.458260e-01 3.468295e-01 2.483930e-01 -6.596766e-01 9.175342e-02 -3.728373e-01 6.192451e-02 -4.148104e-01 -1.781450e-01 -7.825097e-02 -5.155966e-02 -7.386790e-02 6.550888e-03 -7.743721e-03 1.871280e-02 2.106015e-02 3.492057e-03 -2.675577e-04 1.862268e-04 1.718313e-03 -1.353491e-02 1.693138e-03 4.451699e-03 1.153317e-02 -2.524602e-02
<VARIANCE> 25
 5.451180e+01 5.272391e+01 5.129530e+01 7.049970e+01 6.275632e+01 6.015720e+01 4.149472e+01 4.671629e+01 4.547083e+01 3.795499e+01 2.533256e+01 2.991193e+01 2.328259e+00 1.841493e+00 1.852605e+00 2.256798e+00 2.440627e+00 2.810137e+00 2.501911e+00 2.854417e+00 2.639410e+00 2.390627e+00 2.083444e+00 1.951738e+00 2.554656e+00
<GCONST> 1.029537e+02
<STATE> 4
<MEAN> 25
 -1.350941e-01 2.989518e-01 4.751780e-01 -4.550954e-01 1.639059e-01 -3.248655e-01 8.692124e-02 -4.433333e-01 -3.337008e-01 -5.596725e-02 -2.399026e-02 -1.752703e-03 5.023715e-03 -1.266043e-02 1.547214e-02 2.315292e-02 5.943139e-03 3.299181e-03 -3.123637e-04 4.809024e-03 -1.058898e-02 3.745821e-03 3.513529e-03 1.017127e-02 -3.145115e-02
<VARIANCE> 25
 5.310851e+01 5.484695e+01 5.013350e+01 7.341957e+01 6.423078e+01 5.835049e+01 4.044661e+01 4.819448e+01 4.489003e+01 4.051537e+01 2.504436e+01 2.903341e+01 2.187773e+00 1.809661e+00 1.813813e+00 2.210877e+00 2.411750e+00 2.707123e+00 2.433218e+00 2.819653e+00 2.574800e+00 2.361273e+00 2.047894e+00 1.903854e+00 2.395088e+00
<GCONST> 1.026399e+02
<TRANSP> 5
 0.000000e+00 1.000000e+00 0.000000e+00 0.000000e+00 0.000000e+00
 0.000000e+00 7.983117e-01 2.016884e-01 0.000000e+00 0.000000e+00
 0.000000e+00 0.000000e+00 7.983121e-01 2.016879e-01 0.000000e+00
 0.000000e+00 0.000000e+00 0.000000e+00 9.340816e-01 6.591843e-02
 0.000000e+00 0.000000e+00 0.000000e+00 0.000000e+00 0.000000e+00
<ENDHMM>
~h "v"
<BEGINHMM>
<NUMSTATES> 5
<STATE> 2
<MEAN> 25
 -3.445567e-01 -1.378694e-01 6.026350e-01 8.434399e-01 4.665711e-01 -9.051116e-01 3.638319e-02 -2.661056e-02 5.071827e-02 6.821148e-01 -2.664547e-01 -9.995756e-02 3.515897e-03 -6.502015e-03 -2.639021e-03 -1.121406e-02 7.296745e-03 2.081416e-02 -3.074279e-03 -8.384426e-03 2.063823e-03 -2.669313e-03 4.584183e-03 2.820648e-03 -1.610392e-02
<VARIANCE> 25
 6.207013e+01 5.022133e+01 4.850917e+01 6.798496e+01 6.397366e+01 5.914153e+01 3.918033e+01 4.778522e+01 4.683780e+01 3.540170e+01 2.536518e+01 2.947286e+01 1.902428e+00 1.575397e+00 1.607053e+00 2.019918e+00 2.096954e+00 2.438954e+00 2.196310e+00 2.466260e+00 2.341454e+00 2.164981e+00 1.964909e+00 1.733370e+00 1.969896e+00
<GCONST> 1.010196e+02
<STATE> 3
<MEAN> 25
 -3.293012e-01 -1.730478e-01 5.831596e-01 7.831829e-01 5.045246e-01 -7.810017e-01 3.189260e-02 -5.271418e-02 7.625014e-02 6.770796e-01 -2.407039e-01 -8.767004e-02 2.408173e-03 -5.258924e-03 -8.110944e-04 -1.342089e-02 4.194731e-03 2.356699e-02 -2.328505e-03 -9.258538e-03 5.046083e-03 -1.942513e-03 6.032195e-03 3.996901e-04 -1.175544e-02
<VARIANCE> 25
 6.190072e+01 5.015743e+01 4.816502e+01 6.941774e+01 6.347794e+01 5.831893e+01 3.875389e+01 4.819652e+01 4.653831e+01 3.590969e+01 2.555460e+01 2.957628e+01 1.890075e+00 1.582792e+00 1.617749e+00 2.031689e+00 2.100501e+00 2.416141e+00 2.201439e+00 2.522510e+00 2.332069e+00 2.174582e+00 1.967994e+00 1.741579e+00 1.975530e+00
<GCONST> 1.010613e+02
<STATE> 4
<MEAN> 25
 -3.368746e-01 -2.545511e-01 4.986567e-01 6.786620e-01 5.756366e-01 -6.134536e-01 1.913501e-01 -7.856768e-02 1.718109e-01 7.097994e-01 -2.551022e-01 -1.450390e-01 5.708459e-03 -1.184121e-03 -7.174695e-04 -1.663771e-02 -9.023165e-04 1.955122e-02 -3.552640e-03 -9.602940e-03 3.412384e-03 -3.442781e-03 2.040351e-03 -9.920220e-04 -4.155273e-03
<VARIANCE> 25
 6.035256e+01 5.197522e+01 4.907627e+01 7.676978e+01 6.326910e+01 5.719961e+01 3.693681e+01 4.969975e+01 4.657466e+01 3.856760e+01 2.598590e+01 2.899244e+01 1.857419e+00 1.605126e+00 1.671556e+00 2.064123e+00 2.126745e+00 2.374561e+00 2.206886e+00 2.579982e+00 2.301354e+00 2.205686e+00 1.969103e+00 1.735073e+00 1.945813e+00
<GCONST> 1.012678e+02
<TRANSP> 5
 0.000000e+00 1.000000e+00 0.000000e+00 0.000000e+00 0.000000e+00
 0.000000e+00 8.077117e-01 1.922884e-01 0.000000e+00 0.000000e+00
 0.000000e+00 0.000000e+00 8.077112e-01 1.922888e-01 0.000000e+00
 0.000000e+00 0.000000e+00 0.000000e+00 9.456050e-01 5.439496e-02
 0.000000e+00 0.000000e+00 0.000000e+00 0.000000e+00 0.000000e+00
<ENDHMM>
~h "w"
<BEGINHMM>
<NUMSTATES> 5
<STATE> 2
<MEAN> 25
 2.372886e+00 -4.490901e-01 -5.081906e-01 -1.747202e+00 -1.260237e+00 8.915042e-01 3.597203e-01 -1.736757e-01 3.590268e-01 1.088179e-01 -2.725484e-01 -4.992449e-01 -1.288317e-02 -1.079225e-02 8.410565e-04 2.623957e-03 1.517721e-03 -9.673396e-03 4.950213e-03 9.264764e-03 4.880038e-03 -7.600356e-03 4.375841e-03 1.138032e-03 1.081262e-02
<VARIANCE> 25
 5.155161e+01 4.286267e+01 3.291071e+01 8.384239e+01 6.228093e+01 6.605779e+01 4.233994e+01 5.391531e+01 5.137772e+01 3.793856e+01 2.795316e+01 3.558973e+01 1.867374e+00 1.827487e+00 1.538206e+00 2.770989e+00 2.584577e+00 3.401186e+00 2.847995e+00 3.498193e+00 2.679357e+00 2.732147e+00 2.071932e+00 2.360895e+00 2.382827e+00
<GCONST> 1.036997e+02
<STATE> 3
<MEAN> 25
 2.302392e+00 -5.028579e-01 -5.119066e-01 -1.726031e+00 -1.241309e+00 8.379910e-01 3.812598e-01 -1.273811e-01 3.856094e-01 6.783288e-02 -2.523391e-01 -4.982935e-01 -1.438275e-02 -1.266675e-02 -1.566609e-03 5.546451e-03 5.244881e-03 -1.081695e-02 4.396718e-03 1.266728e-02 5.233008e-03 -6.513561e-03 3.117208e-03 1.493216e-03 1.980069e-03
<VARIANCE> 25
 5.136094e+01 4.287373e+01 3.211000e+01 8.319799e+01 6.212860e+01 6.753041e+01 4.254182e+01 5.340984e+01 5.135318e+01 3.811222e+01 2.785717e+01 3.501464e+01 1.853289e+00 1.818964e+00 1.532792e+00 2.771500e+00 2.575111e+00 3.437994e+00 2.851922e+00 3.442994e+00 2.668049e+00 2.725514e+00 2.068875e+00 2.285267e+00 2.357860e+00
<GCONST> 1.035889e+02
<STATE> 4
<MEAN> 25
 2.323193e+00 -5.201217e-01 -5.843678e-01 -1.618520e+00 -8.799775e-01 9.839016e-01 3.062334e-01 -1.102070e-01 3.191859e-01 -7.312326e-02 -2.383347e-01 -6.120358e-01 -1.826872e-02 -8.831534e-03 2.114227e-03 1.429934e-02 7.262766e-03 -1.193424e-02 1.324029e-04 1.172837e-02 8.619092e-04 -4.388778e-03 3.452603e-03 2.054870e-03 -1.613097e-02
<VARIANCE> 25
 5.156332e+01 4.512043e+01 3.150470e+01 9.001279e+01 6.183516e+01 6.855722e+01 4.037382e+01 5.393489e+01 5.125814e+01 4.182973e+01 2.754940e+01 3.539954e+01 1.745397e+00 1.757691e+00 1.498249e+00 2.787880e+00 2.494118e+00 3.377798e+00 2.692349e+00 3.190571e+00 2.654042e+00 2.658582e+00 1.986051e+00 2.074953e+00 2.153394e+00
<GCONST> 1.032098e+02
<TRANSP> 5
 0.000000e+00 1.000000e+00 0.000000e+00 0.000000e+00 0.000000e+00
 0.000000e+00 8.001251e-01 1.998749e-01 0.000000e+00 0.000000e+00
 0.000000e+00 0.000000e+00 8.001252e-01 1.998748e-01 0.000000e+00
 0.000000e+00 0.000000e+00 0.000000e+00 9.381177e-01 6.188219e-02
 0.000000e+00 0.000000e+00 0.000000e+00 0.000000e+00 0.000000e+00
<ENDHMM>
~h "y"
<BEGINHMM>
<NUMSTATES> 5
<STATE> 2
<MEAN> 25
 2.574545e-01 -6.051908e-01 2.685544e-01 1.163786e+00 2.221888e-01 1.501564e-01 -3.936891e-01 4.079315e-01 -4.056598e-01 1.781786e-01 1.781059e-01 -4.428207e-01 1.239308e-02 1.380163e-02 -1.133961e-03 -3.104309e-03 -1.744670e-02 -1.549884e-02 -5.438964e-03 -1.960307e-02 1.385645e-02 9.674444e-03 -7.661221e-03 -1.381647e-02 6.967966e-02
<VARIANCE> 25
 4.513250e+01 4.199887e+01 4.034454e+01 5.160811e+01 6.050220e+01 5.242944e+01 4.202505e+01 4.578260e+01 4.193471e+01 3.904649e+01 2.441786e+01 3.300801e+01 1.708171e+00 1.783356e+00 1.716964e+00 1.753380e+00 2.302140e+00 2.717488e+00 2.525974e+00 2.541661e+00 2.681378e+00 2.479700e+00 1.924885e+00 2.062050e+00 2.177092e+00
<GCONST> 1.008126e+02
<STATE> 3
<MEAN> 25
 3.349212e-01 -5.343261e-01 2.632002e-01 1.137681e+00 1.359666e-01 6.912304e-02 -4.247428e-01 2.904866e-01 -3.371797e-01 2.146924e-01 1.435807e-01 -5.188677e-01 1.543732e-02 1.558654e-02 -2.737565e-03 -8.868515e-03 -1.751598e-02 -1.800177e-02 -4.128793e-03 -2.306960e-02 1.520881e-02 7.117592e-03 -6.653432e-03 -1.338518e-02 7.336450e-02
<VARIANCE> 25
 4.657886e+01 4.262696e+01 4.134021e+01 5.100266e+01 6.276365e+01 5.357636e+01 4.310453e+01 4.711255e+01 4.216439e+01 3.935032e+01 2.488842e+01 3.345478e+01 1.758297e+00 1.820203e+00 1.748859e+00 1.783860e+00 2.365659e+00 2.791613e+00 2.594813e+00 2.572833e+00 2.713944e+00 2.517176e+00 1.955539e+00 2.080560e+00 2.259929e+00
<GCONST> 1.012970e+02
<STATE> 4
<MEAN> 25
 6.366050e-01 -4.223915e-01 3.420958e-01 9.831948e-01 3.425467e-02 -1.270340e-01 -3.732247e-01 7.389152e-02 -3.218627e-01 3.082414e-01 7.490765e-03 -7.466546e-01 1.826275e-02 1.292733e-02 -2.028619e-03 -1.386612e-02 -1.156484e-02 -1.856118e-02 -1.167657e-03 -2.049174e-02 1.414136e-02 6.268464e-03 -5.208774e-03 -1.217794e-02 6.788564e-02
<VARIANCE> 25
 4.661398e+01 4.576091e+01 4.669083e+01 5.542530e+01 6.668955e+01 5.383997e+01 4.151190e+01 4.878991e+01 4.506561e+01 3.974601e+01 2.536081e+01 3.417207e+01 1.710208e+00 1.980250e+00 1.847667e+00 1.834106e+00 2.533094e+00 2.899254e+00 2.634459e+00 2.610195e+00 2.782380e+00 2.507474e+00 1.962023e+00 2.073125e+00 2.281914e+00
<GCONST> 1.020586e+02
<TRANSP> 5
 0.000000e+00 1.000000e+00 0.000000e+00 0.000000e+00 0.000000e+00
 0.000000e+00 7.942374e-01 2.057626e-01 0.000000e+00 0.000000e+00
 0.000000e+00 0.000000e+00 7.942377e-01 2.057624e-01 0.000000e+00
 0.000000e+00 0.000000e+00 0.000000e+00 9.296070e-01 7.039299e-02
 0.000000e+00 0.000000e+00 0.000000e+00 0.000000e+00 0.000000e+00
<ENDHMM>
~h "z"
<BEGINHMM>
<NUMSTATES> 5
<STATE> 2
<MEAN> 25
 2.134436e-01 1.063080e+00 -6.413804e-01 -7.157267e-01 1.196625e-01 -4.517924e-01 -8.138431e-01 -1.940052e-01 4.279360e-01 -5.662071e-01 4.339549e-01 -1.586040e-01 3.783064e-03 -1.111735e-02 -1.627255e-03 7.298061e-03 -2.680046e-03 -2.249184e-03 -3.587889e-03 -5.005161e-03 -1.886887e-03 3.211980e-03 -8.035385e-04 6.423466e-03 -8.269529e-03
<VARIANCE> 25
 6.748837e+01 8.213447e+01 4.463037e+01 9.144177e+01 7.003967e+01 7.348608e+01 4.294738e+01 5.026715e+01 4.400283e+01 4.388517e+01 3.329018e+01 3.318734e+01 2.027348e+00 2.061965e+00 1.918777e+00 2.453295e+00 2.523428e+00 3.328914e+00 2.582972e+00 2.646946e+00 2.471792e+00 2.526487e+00 2.049568e+00 2.054430e+00 1.886184e+00
<GCONST> 1.046122e+02
<STATE> 3
<MEAN> 25
 2.230003e-01 1.011718e+00 -6.496573e-01 -6.646315e-01 1.063516e-01 -4.605946e-01 -8.302646e-01 -2.253426e-01 4.158228e-01 -5.452643e-01 4.379535e-01 -1.278741e-01 1.438453e-03 -7.825038e-03 -1.249368e-03 8.908981e-03 -4.373078e-03 -7.332014e-03 -3.400928e-03 -1.045706e-02 -4.048395e-03 4.789749e-03 7.883516e-04 6.070678e-03 -6.849550e-03
<VARIANCE> 25
 6.735052e+01 8.172076e+01 4.457131e+01 9.045773e+01 6.911918e+01 7.337011e+01 4.318232e+01 5.072604e+01 4.476833e+01 4.343803e+01 3.329465e+01 3.336385e+01 1.999062e+00 2.070594e+00 1.932553e+00 2.455315e+00 2.507368e+00 3.334414e+00 2.579131e+00 2.668093e+00 2.485572e+00 2.539647e+00 2.063025e+00 2.072199e+00 1.881699e+00
<GCONST> 1.046285e+02
<STATE> 4
<MEAN> 25
 4.430449e-01 9.992210e-01 -5.943730e-01 -6.478171e-01 -1.415614e-02 -3.657055e-01 -9.247837e-01 -3.023973e-01 4.408130e-01 -5.945117e-01 6.662748e-01 1.012036e-01 -8.919346e-04 -3.689693e-03 2.300225e-03 1.511881e-02 -5.740875e-03 -1.025805e-02 -1.156655e-03 -1.703558e-02 -5.306890e-03 9.871216e-03 8.359611e-04 2.667026e-03 -3.120799e-03
<VARIANCE> 25
 6.602194e+01 8.344325e+01 4.151669e+01 9.754860e+01 6.727108e+01 7.326006e+01 4.138613e+01 5.353370e+01 4.810520e+01 4.661950e+01 3.413567e+01 3.097069e+01 1.821392e+00 2.131212e+00 1.925153e+00 2.494946e+00 2.386766e+00 3.320626e+00 2.510158e+00 2.730500e+00 2.574426e+00 2.619124e+00 2.081309e+00 2.001821e+00 1.824959e+00
<GCONST> 1.046099e+02
<TRANSP> 5
 0.000000e+00 1.000000e+00 0.000000e+00 0.000000e+00 0.000000e+00
 0.000000e+00 8.017946e-01 1.982054e-01 0.000000e+00 0.000000e+00
 0.000000e+00 0.000000e+00 8.017945e-01 1.982055e-01 0.000000e+00
 0.000000e+00 0.000000e+00 0.000000e+00 9.391699e-01 6.083005e-02
 0.000000e+00 0.000000e+00 0.000000e+00 0.000000e+00 0.000000e+00
<ENDHMM>
~h "aa"
<BEGINHMM>
<NUMSTATES> 5
<STATE> 2
<MEAN> 25
 4.111663e-01 4.693132e-01 -1.121893e+00 -1.932868e+00 1.089121e+00 1.057323e+00 1.406415e+00 -6.361954e-01 1.083376e+00 -4.382253e-02 3.840632e-02 -6.604854e-01 -1.313197e-02 -8.905865e-04 2.722857e-02 2.151516e-02 -9.260952e-03 5.246353e-03 2.485236e-03 1.664510e-02 -5.585160e-03 7.130774e-03 -1.131772e-02 2.136842e-02 -3.022535e-02
<VARIANCE> 25
 7.586482e+01 5.341192e+01 4.784056e+01 8.549364e+01 5.655725e+01 6.350166e+01 4.712013e+01 4.986035e+01 5.080164e+01 3.190221e+01 3.073368e+01 4.140950e+01 2.270178e+00 1.800378e+00 1.863516e+00 2.694311e+00 2.169388e+00 2.903973e+00 2.823455e+00 2.458719e+00 2.584434e+00 2.307760e+00 2.208139e+00 2.246054e+00 2.343873e+00
<GCONST> 1.040965e+02
<STATE> 3
<MEAN> 25
 3.496219e-01 4.692177e-01 -9.807444e-01 -1.831242e+00 1.041484e+00 1.083552e+00 1.405172e+00 -5.560707e-01 1.044447e+00 -1.765697e-02 -2.404276e-02 -5.552199e-01 -1.319856e-02 -8.076690e-04 2.943387e-02 2.338772e-02 -9.623409e-03 4.251106e-03 -2.034760e-03 1.721627e-02 -9.106523e-03 3.687946e-03 -1.318714e-02 2.262766e-02 -3.599928e-02
<VARIANCE> 25
 7.652969e+01 5.360642e+01 4.763542e+01 8.409772e+01 5.606584e+01 6.232740e+01 4.673509e+01 4.925697e+01 4.975439e+01 3.135126e+01 3.050789e+01 4.064704e+01 2.301205e+00 1.801335e+00 1.862997e+00 2.648978e+00 2.151981e+00 2.862065e+00 2.787405e+00 2.460351e+00 2.549823e+00 2.280447e+00 2.187221e+00 2.224221e+00 2.290831e+00
<GCONST> 1.038706e+02
<STATE> 4
<MEAN> 25
 2.424947e-01 4.922787e-01 -7.296772e-01 -1.735261e+00 1.016816e+00 1.160507e+00 1.401782e+00 -3.764654e-01 9.492111e-01 4.337991e-02 -2.090978e-01 -3.175204e-01 -1.271551e-02 -2.800840e-03 2.934405e-02 1.954350e-02 -1.258808e-02 3.544053e-03 -8.232740e-03 1.617625e-02 -1.095796e-02 -1.486990e-04 -1.536197e-02 2.252275e-02 -3.733956e-02
<VARIANCE> 25
 7.725198e+01 5.444907e+01 4.586447e+01 8.314388e+01 5.511575e+01 6.009216e+01 4.627262e+01 4.790094e+01 4.831819e+01 3.020654e+01 3.027440e+01 3.886104e+01 2.393488e+00 1.818285e+00 1.850017e+00 2.597240e+00 2.136824e+00 2.796730e+00 2.708641e+00 2.484434e+00 2.483908e+00 2.211564e+00 2.165125e+00 2.157844e+00 2.219510e+00
<GCONST> 1.034796e+02
<TRANSP> 5
 0.000000e+00 1.000000e+00 0.000000e+00 0.000000e+00 0.000000e+00
 0.000000e+00 7.892240e-01 2.107760e-01 0.000000e+00 0.000000e+00
 0.000000e+00 0.000000e+00 7.892244e-01 2.107757e-01 0.000000e+00
 0.000000e+00 0.000000e+00 0.000000e+00 9.203767e-01 7.962327e-02
 0.000000e+00 0.000000e+00 0.000000e+00 0.000000e+00 0.000000e+00
<ENDHMM>
~h "ae"
<BEGINHMM>
<NUMSTATES> 5
<STATE> 2
<MEAN> 25
 -3.018935e-02 -7.843958e-01 -7.801793e-01 4.966566e-01 4.133614e-02 -2.159769e-01 1.571045e-01 6.353392e-01 -5.489953e-02 -4.373803e-01 2.193008e-01 2.090137e-01 4.780065e-03 -8.718240e-03 3.881544e-03 -3.563941e-03 -9.833033e-03 -8.694048e-04 2.508406e-02 5.518844e-03 8.662596e-03 3.586771e-03 -1.018037e-02 -1.995324e-02 3.213923e-02
<VARIANCE> 25
 5.273233e+01 3.634933e+01 3.413935e+01 5.092682e+01 5.652695e+01 6.098277e+01 5.239274e+01 4.586646e+01 3.827217e+01 2.937067e+01 2.796920e+01 3.278663e+01 1.924523e+00 1.401605e+00 1.392816e+00 1.929655e+00 1.912464e+00 2.595691e+00 2.726845e+00 2.646050e+00 2.267831e+00 2.380453e+00 2.211744e+00 2.018536e+00 3.043631e+00
<GCONST> 1.005966e+02
<STATE> 3
<MEAN> 25
 1.376601e-02 -8.258933e-01 -7.717507e-01 4.589047e-01 9.676634e-03 -2.276639e-01 2.814793e-01 6.230356e-01 1.188183e-02 -4.185300e-01 1.502071e-01 1.189932e-01 9.544389e-03 -7.661085e-03 1.729534e-03 -7.376629e-03 -6.501797e-03 -5.309463e-03 2.804736e-02 -6.157829e-03 1.460850e-02 2.013406e-03 -1.571807e-02 -1.907114e-02 4.090577e-02
<VARIANCE> 25
 5.174639e+01 3.602760e+01 3.412354e+01 5.135702e+01 5.665459e+01 6.211457e+01 5.332696e+01 4.606844e+01 3.826812e+01 2.934481e+01 2.867482e+01 3.286742e+01 1.907140e+00 1.409138e+00 1.407986e+00 1.931017e+00 1.930782e+00 2.603465e+00 2.768933e+00 2.627808e+00 2.221001e+00 2.387189e+00 2.205401e+00 2.017828e+00 3.107769e+00
<GCONST> 1.006742e+02
<STATE> 4
<MEAN> 25
 2.030113e-01 -9.439574e-01 -8.597983e-01 3.517197e-01 1.423158e-01 -2.235818e-01 5.587494e-01 7.355577e-01 1.893686e-01 -4.012020e-01 -3.375015e-02 3.071775e-02 1.629268e-02 -5.105635e-03 3.299854e-03 -6.466122e-03 -1.558725e-03 -6.716895e-03 2.329099e-02 -9.043778e-03 1.534597e-02 6.564232e-04 -1.418536e-02 -1.031038e-02 3.427660e-02
<VARIANCE> 25
 4.829188e+01 3.413369e+01 3.296025e+01 5.363223e+01 5.582451e+01 6.381224e+01 5.300962e+01 4.723943e+01 3.719955e+01 2.860192e+01 2.967771e+01 3.261961e+01 1.801132e+00 1.365187e+00 1.406671e+00 1.977252e+00 1.973098e+00 2.598791e+00 2.795112e+00 2.659991e+00 2.169026e+00 2.332411e+00 2.168201e+00 1.968034e+00 3.056436e+00
<GCONST> 1.004337e+02
<TRANSP> 5
 0.000000e+00 1.000000e+00 0.000000e+00 0.000000e+00 0.000000e+00
 0.000000e+00 7.908096e-01 2.091904e-01 0.000000e+00 0.000000e+00
 0.000000e+00 0.000000e+00 7.908099e-01 2.091901e-01 0.000000e+00
 0.000000e+00 0.000000e+00 0.000000e+00 9.233498e-01 7.665017e-02
 0.000000e+00 0.000000e+00 0.000000e+00 0.000000e+00 0.000000e+00
<ENDHMM>
~h "ah"
<BEGINHMM>
<NUMSTATES> 5
<STATE> 2
<MEAN> 25
 5.886064e-01 -4.410856e-01 -2.795126e-01 -6.090251e-02 3.326176e-01 -2.582339e-01 3.859404e-01 2.399512e-01 2.947137e-01 1.648053e-01 -3.082093e-01 -4.163940e-01 1.991247e-04 -5.223742e-04 8.234382e-05 -8.430409e-03 -3.231286e-03 1.123504e-02 -6.868359e-04 -3.685506e-03 6.905870e-03 5.682054e-03 1.306179e-04 -9.538140e-04 1.258859e-02
<VARIANCE> 25
 4.729534e+01 4.274121e+01 4.319846e+01 6.774218e+01 5.543279e+01 6.040770e+01 4.233438e+01 4.691630e+01 4.700047e+01 3.297306e+01 2.819872e+01 3.765463e+01 1.788075e+00 1.514731e+00 1.761375e+00 2.247176e+00 2.240154e+00 2.791904e+00 2.706406e+00 2.631500e+00 2.581439e+00 2.229886e+00 2.060546e+00 2.035907e+00 2.495056e+00
<GCONST> 1.018310e+02
<STATE> 3
<MEAN> 25
 5.839140e-01 -4.355330e-01 -2.737642e-01 -9.833074e-02 3.189321e-01 -2.026533e-01 3.814943e-01 2.136799e-01 3.220345e-01 1.908723e-01 -3.054965e-01 -4.221581e-01 -1.998905e-03 2.164512e-03 1.364071e-03 -8.275523e-03 -4.453526e-03 1.155541e-02 -1.385279e-03 -6.662800e-03 6.354628e-03 4.780042e-03 6.287999e-04 -1.492943e-03 1.257064e-02
<VARIANCE> 25
 4.759356e+01 4.275243e+01 4.340342e+01 6.809692e+01 5.550037e+01 6.055821e+01 4.228949e+01 4.704231e+01 4.714282e+01 3.316964e+01 2.823448e+01 3.764854e+01 1.805683e+00 1.515194e+00 1.777999e+00 2.265578e+00 2.249274e+00 2.790117e+00 2.716886e+00 2.645809e+00 2.593124e+00 2.233616e+00 2.075533e+00 2.033431e+00 2.508578e+00
<GCONST> 1.019209e+02
<STATE> 4
<MEAN> 25
 6.828284e-01 -4.283693e-01 -2.316329e-01 -1.943907e-01 2.830363e-01 -6.805871e-02 3.914294e-01 1.058422e-01 3.300935e-01 2.501161e-01 -3.168895e-01 -4.759830e-01 -5.896328e-03 6.527212e-03 5.059023e-03 -3.937554e-03 -4.881231e-03 9.189975e-03 -3.800648e-03 -9.237315e-03 1.206406e-03 2.221076e-03 3.428561e-03 1.015795e-03 2.253654e-03
<VARIANCE> 25
 4.832515e+01 4.444414e+01 4.389436e+01 7.069709e+01 5.749094e+01 6.067200e+01 4.107127e+01 4.857388e+01 4.699298e+01 3.495674e+01 2.810238e+01 3.693286e+01 1.769537e+00 1.538604e+00 1.755326e+00 2.262269e+00 2.229789e+00 2.754380e+00 2.621343e+00 2.651006e+00 2.590542e+00 2.248644e+00 2.050141e+00 1.993018e+00 2.446926e+00
<GCONST> 1.019628e+02
<TRANSP> 5
 0.000000e+00 1.000000e+00 0.000000e+00 0.000000e+00 0.000000e+00
 0.000000e+00 7.973723e-01 2.026277e-01 0.000000e+00 0.000000e+00
 0.000000e+00 0.000000e+00 7.973723e-01 2.026277e-01 0.000000e+00
 0.000000e+00 0.000000e+00 0.000000e+00 9.334621e-01 6.653790e-02
 0.000000e+00 0.000000e+00 0.000000e+00 0.000000e+00 0.000000e+00
<ENDHMM>
~h "ao"
<BEGINHMM>
<NUMSTATES> 5
<STATE> 2
<MEAN> 25
 -1.691799e-01 1.285687e+00 -6.120028e-01 -1.988836e+00 -1.965859e+00 1.153575e+00 3.915473e-02 1.277540e-01 1.287324e+00 -1.464010e+00 3.563153e-01 1.059268e+00 7.746909e-03 -5.219279e-03 -8.377114e-03 -1.824532e-02 -2.121888e-02 -5.400485e-03 4.786205e-03 2.110595e-03 1.488998e-02 -1.448138e-03 -1.965871e-03 -2.982209e-03 1.486034e-02
<VARIANCE> 25
 6.204142e+01 6.927151e+01 4.582045e+01 1.640992e+02 8.335282e+01 5.585017e+01 3.541321e+01 4.997646e+01 7.841579e+01 6.821636e+01 2.796715e+01 2.487049e+01 2.033036e+00 1.479505e+00 1.827825e+00 3.181334e+00 2.372507e+00 2.633803e+00 2.117498e+00 2.347729e+00 2.541538e+00 2.572450e+00 2.294261e+00 1.787324e+00 1.746154e+00
<GCONST> 1.044357e+02
<STATE> 3
<MEAN> 25
 -1.300042e-01 1.261566e+00 -6.536487e-01 -2.087243e+00 -2.062536e+00 1.126062e+00 6.134955e-02 1.120329e-01 1.347807e+00 -1.484610e+00 3.532655e-01 1.035209e+00 8.256208e-03 -5.864150e-03 -7.458352e-03 -1.798876e-02 -1.693460e-02 -5.280831e-03 3.750714e-03 -4.599002e-03 1.067061e-02 -2.519375e-03 2.779649e-05 -5.834342e-03 1.599266e-02
<VARIANCE> 25
 6.213616e+01 6.918624e+01 4.547375e+01 1.646428e+02 8.292815e+01 5.688143e+01 3.579647e+01 5.045798e+01 7.851096e+01 6.847865e+01 2.782117e+01 2.513659e+01 2.040065e+00 1.495733e+00 1.813110e+00 3.227167e+00 2.398118e+00 2.677012e+00 2.133430e+00 2.373430e+00 2.563075e+00 2.609914e+00 2.305797e+00 1.804955e+00 1.772439e+00
<GCONST> 1.045944e+02
<STATE> 4
<MEAN> 25
 -1.538969e-01 1.407338e+00 -7.812737e-01 -2.463457e+00 -2.174254e+00 8.787063e-01 2.273421e-01 2.228112e-02 1.486282e+00 -1.628958e+00 4.531538e-01 9.690562e-01 3.067342e-03 -8.509825e-03 -3.440036e-03 -6.009589e-03 -4.136742e-03 -1.248840e-02 4.486975e-03 -6.780623e-03 -3.387409e-03 2.685949e-03 -1.341741e-03 -1.054074e-02 1.233985e-02
<VARIANCE> 25
 6.229190e+01 7.163541e+01 4.579103e+01 1.688650e+02 8.250163e+01 5.628994e+01 3.358234e+01 4.977652e+01 8.049577e+01 7.213789e+01 2.652082e+01 2.547451e+01 2.001964e+00 1.529419e+00 1.780795e+00 3.181224e+00 2.346713e+00 2.597803e+00 2.061397e+00 2.357661e+00 2.572656e+00 2.623456e+00 2.235147e+00 1.798899e+00 1.724778e+00
<GCONST> 1.044389e+02
<TRANSP> 5
 0.000000e+00 1.000000e+00 0.000000e+00 0.000000e+00 0.000000e+00
 0.000000e+00 8.105853e-01 1.894148e-01 0.000000e+00 0.000000e+00
 0.000000e+00 0.000000e+00 8.105856e-01 1.894144e-01 0.000000e+00
 0.000000e+00 0.000000e+00 0.000000e+00 9.475208e-01 5.247919e-02
 0.000000e+00 0.000000e+00 0.000000e+00 0.000000e+00 0.000000e+00
<ENDHMM>
~h "aw"
<BEGINHMM>
<NUMSTATES> 5
<STATE> 2
<MEAN> 25
 7.581379e-01 -4.709684e-01 -1.753715e+00 -2.621853e+00 2.054491e+00 1.380892e+00 1.647194e-01 1.669474e-02 7.997665e-01 1.143940e+00 1.269193e-01 -1.537013e+00 -2.041526e-02 1.804133e-02 3.581532e-02 1.196841e-02 1.607958e-02 -9.776738e-03 -1.888422e-03 -2.725174e-03 -4.305141e-02 -6.870349e-03 1.145879e-02 2.610352e-02 -1.984041e-02
<VARIANCE> 25
 5.079272e+01 3.973442e+01 4.097942e+01 7.858922e+01 4.285440e+01 3.797342e+01 4.032364e+01 4.298698e+01 4.936961e+01 4.817935e+01 2.905311e+01 3.811735e+01 2.024298e+00 1.688150e+00 1.332347e+00 2.450099e+00 2.147416e+00 2.202607e+00 2.258590e+00 2.733829e+00 2.700956e+00 2.481473e+00 2.365011e+00 2.240690e+00 3.082704e+00
<GCONST> 1.017529e+02
<STATE> 3
<MEAN> 25
 6.443955e-01 -3.712180e-01 -1.568919e+00 -2.531340e+00 2.119591e+00 1.326881e+00 1.585007e-01 4.363903e-03 5.701493e-01 1.101155e+00 1.937351e-01 -1.389265e+00 -2.579733e-02 2.409918e-02 3.897104e-02 2.124488e-02 9.763773e-03 -1.446916e-02 -9.136647e-04 -1.419964e-03 -4.986412e-02 -9.642901e-03 1.323380e-02 3.331058e-02 -4.168438e-02
<VARIANCE> 25
 5.127973e+01 4.015166e+01 4.025142e+01 7.794166e+01 4.297860e+01 3.792707e+01 3.951468e+01 4.302132e+01 4.753942e+01 4.792136e+01 2.818288e+01 3.759623e+01 2.054571e+00 1.672607e+00 1.293876e+00 2.367215e+00 2.149784e+00 2.201735e+00 2.241635e+00 2.710638e+00 2.631215e+00 2.440731e+00 2.296465e+00 2.219355e+00 2.869751e+00
<GCONST> 1.014148e+02
<STATE> 4
<MEAN> 25
 4.836583e-01 -2.359671e-01 -1.273845e+00 -2.318201e+00 2.196651e+00 1.211329e+00 1.477446e-01 1.241107e-01 2.436703e-01 1.046546e+00 2.320871e-01 -1.134178e+00 -2.870112e-02 2.463778e-02 3.704078e-02 2.865473e-02 1.518020e-03 -1.732226e-02 -2.708188e-03 -2.588984e-03 -3.857903e-02 -1.448524e-02 7.474265e-03 3.717832e-02 -6.014971e-02
<VARIANCE> 25
 5.221685e+01 4.063002e+01 3.962058e+01 7.733697e+01 4.367006e+01 3.814061e+01 3.893236e+01 4.402629e+01 4.312292e+01 4.468417e+01 2.870556e+01 3.695442e+01 2.048450e+00 1.634208e+00 1.243607e+00 2.236054e+00 2.130552e+00 2.186966e+00 2.261159e+00 2.713483e+00 2.504690e+00 2.357774e+00 2.250538e+00 2.185855e+00 2.518332e+00
<GCONST> 1.009060e+02
<TRANSP> 5
 0.000000e+00 1.000000e+00 0.000000e+00 0.000000e+00 0.000000e+00
 0.000000e+00 7.940078e-01 2.059921e-01 0.000000e+00 0.000000e+00
 0.000000e+00 0.000000e+00 7.940079e-01 2.059921e-01 0.000000e+00
 0.000000e+00 0.000000e+00 0.000000e+00 9.285238e-01 7.147619e-02
 0.000000e+00 0.000000e+00 0.000000e+00 0.000000e+00 0.000000e+00
<ENDHMM>
~h "ay"
<BEGINHMM>
<NUMSTATES> 5
<STATE> 2
<MEAN> 25
 7.229655e-01 -1.174464e+00 -1.168037e+00 -6.903168e-01 3.702808e-01 4.929652e-01 5.705749e-01 1.758620e-01 1.077375e+00 -1.357959e-01 -9.219958e-02 -1.039787e+00 1.773866e-02 1.593506e-02 -2.179560e-02 -2.983730e-02 -6.703265e-03 -1.947910e-02 1.177198e-02 -1.335638e-02 3.376888e-02 -1.158482e-02 -6.046874e-03 -8.419937e-03 9.060940e-02
<VARIANCE> 25
 5.519092e+01 5.649221e+01 4.733202e+01 7.986765e+01 4.777502e+01 6.067286e+01 4.123853e+01 5.080013e+01 5.483489e+01 3.401391e+01 2.505804e+01 3.702846e+01 2.251854e+00 1.771205e+00 1.882152e+00 2.320786e+00 2.262384e+00 2.707310e+00 2.522370e+00 2.813125e+00 2.768265e+00 2.270905e+00 1.923187e+00 2.044687e+00 2.498582e+00
<GCONST> 1.029656e+02
<STATE> 3
<MEAN> 25
 8.122274e-01 -1.095512e+00 -1.287537e+00 -8.666954e-01 3.320181e-01 3.875823e-01 6.438811e-01 1.011135e-01 1.255832e+00 -1.966836e-01 -1.246401e-01 -1.082189e+00 1.736792e-02 1.439852e-02 -2.085276e-02 -3.108568e-02 -6.325577e-03 -2.008036e-02 1.244903e-02 -1.506267e-02 3.102647e-02 -1.082049e-02 -6.245335e-03 -7.094454e-03 8.451366e-02
<VARIANCE> 25
 5.656492e+01 5.781985e+01 4.825525e+01 8.099384e+01 4.850015e+01 6.179533e+01 4.162481e+01 5.126387e+01 5.523750e+01 3.463536e+01 2.546937e+01 3.795628e+01 2.273094e+00 1.783754e+00 1.882381e+00 2.331342e+00 2.270660e+00 2.717360e+00 2.532579e+00 2.827482e+00 2.792794e+00 2.281425e+00 1.922258e+00 2.075052e+00 2.558095e+00
<GCONST> 1.032538e+02
<STATE> 4
<MEAN> 25
 1.047966e+00 -1.089469e+00 -1.553731e+00 -1.440809e+00 2.558133e-01 3.125909e-01 8.451339e-01 -3.163131e-02 1.546225e+00 -2.385024e-01 -2.922052e-01 -1.093527e+00 7.929409e-03 1.465769e-02 -1.096835e-02 -2.160304e-02 -2.990812e-03 -1.638493e-02 9.141436e-03 -6.003746e-03 1.434725e-02 -3.505183e-03 -3.958103e-03 1.880872e-03 3.650919e-02
<VARIANCE> 25
 5.720438e+01 6.034747e+01 4.577677e+01 8.955252e+01 4.979111e+01 6.193609e+01 4.002394e+01 5.513505e+01 5.396308e+01 3.734206e+01 2.738501e+01 3.820591e+01 2.103062e+00 1.693681e+00 1.720828e+00 2.336470e+00 2.178679e+00 2.646715e+00 2.386436e+00 2.830116e+00 2.696649e+00 2.289036e+00 1.865896e+00 2.022423e+00 2.441922e+00
<GCONST> 1.030718e+02
<TRANSP> 5
 0.000000e+00 1.000000e+00 0.000000e+00 0.000000e+00 0.000000e+00
 0.000000e+00 8.098119e-01 1.901882e-01 0.000000e+00 0.000000e+00
 0.000000e+00 0.000000e+00 8.098118e-01 1.901881e-01 0.000000e+00
 0.000000e+00 0.000000e+00 0.000000e+00 9.478264e-01 5.217353e-02
 0.000000e+00 0.000000e+00 0.000000e+00 0.000000e+00 0.000000e+00
<ENDHMM>
~h "ch"
<BEGINHMM>
<NUMSTATES> 5
<STATE> 2
<MEAN> 25
 -1.224737e+00 -1.091881e-01 7.595646e-01 1.416643e+00 1.422568e+00 1.835566e+00 -2.205244e-01 1.282459e-01 -5.333329e-01 2.027080e-01 -4.109519e-01 9.579447e-01 -5.713495e-03 -1.163768e-02 -4.203945e-02 2.566235e-02 4.176664e-02 2.955431e-02 -1.054275e-02 1.621667e-02 1.780229e-02 4.942613e-05 -4.910151e-03 1.440635e-02 -5.855704e-02
<VARIANCE> 25
 5.577218e+01 3.652796e+01 4.645590e+01 5.578914e+01 5.347102e+01 5.342549e+01 4.374709e+01 3.735068e+01 4.783998e+01 2.550005e+01 2.160459e+01 3.378853e+01 2.099663e+00 1.660039e+00 2.476386e+00 2.263073e+00 2.246946e+00 2.850712e+00 2.428277e+00 2.016295e+00 2.921840e+00 2.225605e+00 1.936712e+00 1.691422e+00 1.705148e+00
<GCONST> 1.004923e+02
<STATE> 3
<MEAN> 25
 -1.198540e+00 -1.569071e-01 5.671918e-01 1.452215e+00 1.586866e+00 1.930121e+00 -2.573410e-01 1.873733e-01 -4.657415e-01 2.403998e-01 -4.254453e-01 1.014641e+00 9.013927e-03 -1.217117e-02 -4.507767e-02 1.241710e-03 3.149016e-02 1.329920e-02 -1.035014e-02 9.783654e-03 1.615412e-02 1.035580e-02 -5.125405e-03 8.107189e-03 -2.678266e-02
<VARIANCE> 25
 5.358583e+01 3.635603e+01 4.285498e+01 5.545458e+01 5.096623e+01 5.290536e+01 4.487207e+01 3.625586e+01 4.708561e+01 2.575379e+01 2.157653e+01 3.238103e+01 2.002214e+00 1.651728e+00 2.407393e+00 2.285944e+00 2.238188e+00 2.789808e+00 2.440506e+00 1.953458e+00 2.897682e+00 2.208262e+00 1.895239e+00 1.712553e+00 1.897543e+00
<GCONST> 1.002076e+02
<STATE> 4
<MEAN> 25
 -1.109006e+00 -8.867822e-02 -6.240287e-02 8.067724e-01 1.708867e+00 1.622176e+00 3.191777e-01 -9.641407e-02 2.767707e-01 3.490146e-01 -3.558839e-01 7.942408e-01 1.390818e-02 4.118228e-03 -2.970528e-02 -3.090690e-02 1.181171e-02 -1.574278e-02 -6.806153e-03 4.707470e-03 7.155179e-04 1.870965e-02 -2.610820e-03 -5.780648e-03 3.267421e-02
<VARIANCE> 25
 6.160456e+01 4.363497e+01 3.718573e+01 6.312841e+01 5.424703e+01 5.983393e+01 4.955647e+01 3.600347e+01 4.939254e+01 2.590973e+01 2.054199e+01 2.776906e+01 2.051376e+00 1.613186e+00 2.077543e+00 2.476969e+00 2.284794e+00 2.808129e+00 2.514786e+00 1.998002e+00 2.843724e+00 2.159151e+00 1.797965e+00 1.753383e+00 2.362563e+00
<GCONST> 1.008081e+02
<TRANSP> 5
 0.000000e+00 1.000000e+00 0.000000e+00 0.000000e+00 0.000000e+00
 0.000000e+00 7.819626e-01 2.180374e-01 0.000000e+00 0.000000e+00
 0.000000e+00 0.000000e+00 7.819628e-01 2.180371e-01 0.000000e+00
 0.000000e+00 0.000000e+00 0.000000e+00 9.170741e-01 8.292600e-02
 0.000000e+00 0.000000e+00 0.000000e+00 0.000000e+00 0.000000e+00
<ENDHMM>
~h "dh"
<BEGINHMM>
<NUMSTATES> 5
<STATE> 2
<MEAN> 25
 1.938257e+00 -2.424667e-01 3.620786e-01 4.195669e-01 -1.338518e+00 -1.173748e+00 -7.204044e-01 4.102954e-01 7.712097e-01 2.151354e-02 -7.358889e-01 -1.947811e-01 -2.583525e-02 2.004754e-02 1.961930e-02 -1.364059e-02 3.431104e-02 2.491727e-02 2.255812e-02 -6.483179e-03 -1.980042e-02 -2.260637e-03 -7.904561e-03 1.614731e-02 -6.773846e-02
<VARIANCE> 25
 4.659534e+01 2.888062e+01 3.324971e+01 7.681412e+01 6.342245e+01 7.024670e+01 4.043092e+01 5.382089e+01 5.903933e+01 3.380133e+01 3.365007e+01 5.072124e+01 1.750228e+00 1.534226e+00 1.756655e+00 2.943499e+00 2.237905e+00 2.780192e+00 2.144493e+00 3.146847e+00 2.596558e+00 2.449576e+00 2.023538e+00 2.348745e+00 2.546493e+00
<GCONST> 1.028369e+02
<STATE> 3
<MEAN> 25
 1.792865e+00 -1.422310e-01 4.410731e-01 3.184078e-01 -1.129439e+00 -9.954400e-01 -5.756947e-01 3.772156e-01 6.624070e-01 1.318988e-02 -7.591586e-01 -1.170030e-01 -2.977932e-02 2.014823e-02 1.483993e-02 -2.598096e-02 4.252594e-02 3.588468e-02 3.071212e-02 -8.236233e-03 -2.053107e-02 -3.085345e-04 -5.539078e-03 1.261215e-02 -7.750554e-02
<VARIANCE> 25
 4.622396e+01 2.883718e+01 3.391149e+01 7.911168e+01 6.209868e+01 6.953003e+01 3.931762e+01 5.356699e+01 6.055812e+01 3.471379e+01 3.344506e+01 5.076421e+01 1.650154e+00 1.485214e+00 1.739787e+00 2.933974e+00 2.166348e+00 2.703587e+00 2.101291e+00 3.151319e+00 2.611413e+00 2.437954e+00 2.025835e+00 2.361348e+00 2.472519e+00
<GCONST> 1.026537e+02
<STATE> 4
<MEAN> 25
 1.362054e+00 1.285423e-01 4.811644e-01 -1.464291e-01 -4.212404e-01 -2.568052e-01 -9.001492e-02 2.111945e-01 4.115875e-01 -5.331685e-02 -6.645156e-01 9.170216e-02 -3.537223e-02 2.054176e-02 -1.677667e-03 -4.676306e-02 5.214329e-02 5.479106e-02 4.365465e-02 -8.391579e-03 -1.442404e-02 -1.074121e-03 -1.001082e-03 8.031596e-03 -7.489059e-02
<VARIANCE> 25
 4.524474e+01 2.936565e+01 3.547810e+01 8.978883e+01 5.834775e+01 6.821185e+01 3.664011e+01 5.332643e+01 6.240626e+01 3.794860e+01 3.321467e+01 5.070932e+01 1.409360e+00 1.376245e+00 1.687981e+00 2.988462e+00 1.994595e+00 2.585983e+00 1.985082e+00 3.132303e+00 2.642977e+00 2.449075e+00 2.042780e+00 2.354524e+00 2.363983e+00
<GCONST> 1.023182e+02
<TRANSP> 5
 0.000000e+00 1.000000e+00 0.000000e+00 0.000000e+00 0.000000e+00
 0.000000e+00 7.955775e-01 2.044225e-01 0.000000e+00 0.000000e+00
 0.000000e+00 0.000000e+00 7.955773e-01 2.044226e-01 0.000000e+00
 0.000000e+00 0.000000e+00 0.000000e+00 9.273390e-01 7.266104e-02
 0.000000e+00 0.000000e+00 0.000000e+00 0.000000e+00 0.000000e+00
<ENDHMM>
~h "eh"
<BEGINHMM>
<NUMSTATES> 5
<STATE> 2
<MEAN> 25
 5.144823e-01 -4.352830e-01 -6.185464e-01 -3.058323e-01 -6.099617e-01 -1.438706e+00 8.601058e-01 4.168521e-01 1.069660e+00 2.172296e-01 -7.992169e-01 -5.701061e-01 -7.804648e-03 -4.224056e-03 6.012020e-03 1.321463e-02 1.608234e-02 -1.585457e-05 5.707370e-03 4.285656e-03 -8.747870e-03 6.962487e-03 4.846683e-04 6.150343e-03 -3.297658e-02
<VARIANCE> 25
 4.911462e+01 4.119179e+01 3.943043e+01 5.807368e+01 5.970747e+01 6.951550e+01 4.527776e+01 4.373352e+01 4.492968e+01 2.825117e+01 2.937258e+01 3.313069e+01 1.850910e+00 1.667989e+00 1.684519e+00 1.992596e+00 2.187660e+00 2.779331e+00 2.640473e+00 2.871447e+00 2.370392e+00 2.185895e+00 1.965082e+00 1.806653e+00 2.634967e+00
<GCONST> 1.012942e+02
<STATE> 3
<MEAN> 25
 4.657860e-01 -4.576795e-01 -5.824932e-01 -2.281896e-01 -5.203145e-01 -1.419428e+00 8.599797e-01 4.395981e-01 1.011493e+00 2.614997e-01 -7.855705e-01 -5.167777e-01 -1.025447e-02 -4.080556e-03 7.700932e-03 1.706802e-02 1.940868e-02 6.697390e-03 -1.748096e-03 5.704808e-03 -1.501347e-02 1.027250e-02 2.930961e-03 1.178027e-02 -5.267284e-02
<VARIANCE> 25
 4.860445e+01 4.084985e+01 3.939870e+01 5.687259e+01 5.937249e+01 6.802342e+01 4.379251e+01 4.304166e+01 4.462600e+01 2.764121e+01 2.927701e+01 3.245361e+01 1.814060e+00 1.641282e+00 1.665167e+00 1.952811e+00 2.147432e+00 2.738280e+00 2.581589e+00 2.833012e+00 2.336359e+00 2.155080e+00 1.950675e+00 1.773489e+00 2.558415e+00
<GCONST> 1.009032e+02
<STATE> 4
<MEAN> 25
 2.640336e-01 -4.602451e-01 -4.190050e-01 3.852567e-02 -3.395250e-01 -1.449845e+00 7.011038e-01 4.476311e-01 8.709239e-01 4.497235e-01 -7.295592e-01 -3.431937e-01 -1.462064e-02 -6.163356e-03 1.228079e-02 2.406539e-02 2.739850e-02 2.222268e-02 -8.536059e-03 8.655380e-03 -2.422650e-02 1.352524e-02 9.178808e-03 1.826905e-02 -8.191107e-02
<VARIANCE> 25
 4.689997e+01 4.001534e+01 3.894495e+01 5.300199e+01 6.056571e+01 6.562543e+01 4.183792e+01 4.160960e+01 4.367675e+01 2.691234e+01 2.874098e+01 3.016110e+01 1.693900e+00 1.594299e+00 1.608103e+00 1.818810e+00 2.086587e+00 2.595996e+00 2.476824e+00 2.710449e+00 2.251753e+00 2.101906e+00 1.923962e+00 1.690831e+00 2.359082e+00
<GCONST> 9.995351e+01
<TRANSP> 5
 0.000000e+00 1.000000e+00 0.000000e+00 0.000000e+00 0.000000e+00
 0.000000e+00 7.985868e-01 2.014133e-01 0.000000e+00 0.000000e+00
 0.000000e+00 0.000000e+00 7.985868e-01 2.014131e-01 0.000000e+00
 0.000000e+00 0.000000e+00 0.000000e+00 9.341890e-01 6.581094e-02
 0.000000e+00 0.000000e+00 0.000000e+00 0.000000e+00 0.000000e+00
<ENDHMM>
~h "er"
<BEGINHMM>
<NUMSTATES> 5
<STATE> 2
<MEAN> 25
 5.495391e-01 -4.447282e-01 -4.375025e-01 5.278671e-01 2.558087e-01 3.314215e-01 -7.026020e-01 5.600828e-01 1.493363e-01 5.014046e-01 -2.309171e-01 -5.930564e-02 -1.883972e-02 5.017302e-03 9.940887e-03 -5.489537e-03 -2.553361e-04 -1.180803e-02 -6.771745e-03 -1.034728e-02 -1.061208e-02 -1.756272e-03 -6.726525e-03 -1.433583e-02 1.292546e-02
<VARIANCE> 25
 5.156615e+01 3.381554e+01 2.906956e+01 4.350282e+01 5.995428e+01 5.833464e+01 4.213404e+01 4.433556e+01 4.424002e+01 2.843207e+01 2.778984e+01 3.343947e+01 1.812576e+00 1.438211e+00 1.551627e+00 1.895499e+00 2.210813e+00 2.709392e+00 2.462060e+00 2.913489e+00 2.341194e+00 2.285271e+00 2.059985e+00 1.981433e+00 2.121196e+00
<GCONST> 9.985022e+01
<STATE> 3
<MEAN> 25
 4.588611e-01 -4.238548e-01 -3.917565e-01 4.968613e-01 2.574637e-01 2.680313e-01 -7.304683e-01 5.111572e-01 1.028592e-01 4.967969e-01 -2.659644e-01 -1.287403e-01 -1.595243e-02 1.040069e-02 1.359286e-02 -1.300142e-02 -3.117331e-03 -1.635441e-02 -8.049279e-03 -1.610704e-02 -6.942573e-03 -2.813738e-04 -9.839693e-03 -1.417715e-02 2.496879e-02
<VARIANCE> 25
 5.153632e+01 3.404758e+01 2.971546e+01 4.314913e+01 6.016146e+01 5.872604e+01 4.231083e+01 4.489223e+01 4.412412e+01 2.836898e+01 2.820547e+01 3.350493e+01 1.861020e+00 1.463473e+00 1.589359e+00 1.957195e+00 2.233766e+00 2.749763e+00 2.483871e+00 3.042851e+00 2.351331e+00 2.300162e+00 2.083189e+00 1.986571e+00 2.196839e+00
<GCONST> 1.001459e+02
<STATE> 4
<MEAN> 25
 4.063445e-01 -3.631130e-01 -3.243564e-01 3.674012e-01 2.369156e-01 1.030755e-01 -6.332466e-01 4.023184e-01 9.172612e-02 5.012087e-01 -2.837781e-01 -2.114531e-01 -1.388710e-02 1.163182e-02 1.338296e-02 -1.372794e-02 -1.664829e-03 -1.846345e-02 -6.946919e-03 -1.887372e-02 -1.846127e-03 3.082544e-04 -1.187844e-02 -7.859966e-03 2.505609e-02
<VARIANCE> 25
 4.968743e+01 3.365746e+01 2.983204e+01 4.334380e+01 6.180072e+01 6.018472e+01 4.319584e+01 4.517749e+01 4.341542e+01 2.832521e+01 2.859825e+01 3.304121e+01 1.864685e+00 1.500054e+00 1.606595e+00 2.012614e+00 2.253253e+00 2.738415e+00 2.512491e+00 3.206019e+00 2.349298e+00 2.331669e+00 2.102914e+00 1.964453e+00 2.257803e+00
<GCONST> 1.003389e+02
<TRANSP> 5
 0.000000e+00 1.000000e+00 0.000000e+00 0.000000e+00 0.000000e+00
 0.000000e+00 7.954748e-01 2.045252e-01 0.000000e+00 0.000000e+00
 0.000000e+00 0.000000e+00 7.954743e-01 2.045257e-01 0.000000e+00
 0.000000e+00 0.000000e+00 0.000000e+00 9.305845e-01 6.941552e-02
 0.000000e+00 0.000000e+00 0.000000e+00 0.000000e+00 0.000000e+00
<ENDHMM>
~h "ey"
<BEGINHMM>
<NUMSTATES> 5
<STATE> 2
<MEAN> 25
 -3.388192e-01 5.894690e-01 1.635135e+00 3.697517e-01 -1.203543e+00 -9.066352e-01 -7.380141e-02 -4.701776e-01 -7.542101e-01 -8.884330e-02 -9.525230e-03 3.766852e-02 -1.675818e-03 4.318933e-03 1.699668e-04 4.104098e-03 8.321798e-03 1.937075e-02 -4.568570e-03 9.848953e-03 -6.455246e-03 4.891621e-03 -3.691607e-03 6.912284e-03 8.641365e-04
<VARIANCE> 25
 4.856363e+01 4.679076e+01 5.546589e+01 5.462916e+01 8.111140e+01 5.984269e+01 4.046942e+01 4.700266e+01 4.071250e+01 3.146441e+01 2.455951e+01 2.900659e+01 1.934175e+00 1.684619e+00 2.010907e+00 1.977213e+00 2.469654e+00 2.551368e+00 2.743603e+00 2.963741e+00 2.409321e+00 2.145076e+00 1.956615e+00 2.043818e+00 2.572640e+00
<GCONST> 1.019255e+02
<STATE> 3
<MEAN> 25
 -3.402260e-01 6.058584e-01 1.623903e+00 3.701477e-01 -1.165163e+00 -8.072917e-01 -9.075180e-02 -4.281983e-01 -7.704058e-01 -6.845418e-02 -2.394050e-02 7.034398e-02 2.249668e-03 6.579268e-04 -1.190955e-03 -4.155603e-04 7.662614e-03 2.123107e-02 -3.581864e-03 9.883245e-03 -3.043538e-03 5.071511e-03 -2.793917e-03 7.024462e-03 6.194611e-03
<VARIANCE> 25
 4.905205e+01 4.739683e+01 5.554745e+01 5.505124e+01 8.108373e+01 5.953474e+01 4.018103e+01 4.678727e+01 4.024321e+01 3.133105e+01 2.462615e+01 2.892329e+01 1.945305e+00 1.689412e+00 2.009338e+00 2.000949e+00 2.494364e+00 2.571662e+00 2.735106e+00 2.965195e+00 2.405184e+00 2.149376e+00 1.947366e+00 2.042617e+00 2.586675e+00
<GCONST> 1.019597e+02
<STATE> 4
<MEAN> 25
 -2.666981e-01 4.813955e-01 1.504992e+00 7.153274e-02 -1.013751e+00 -5.498429e-01 -5.724911e-02 -4.186223e-01 -7.116255e-01 9.597627e-03 -7.383940e-02 1.102846e-01 5.032950e-03 -5.863798e-03 -1.012912e-02 -8.293889e-03 1.210274e-02 1.999959e-02 -1.024735e-03 9.476169e-03 5.492806e-03 3.490347e-03 -1.746967e-03 5.182664e-03 3.903095e-03
<VARIANCE> 25
 4.930614e+01 5.023344e+01 5.525982e+01 6.072427e+01 8.175410e+01 5.893462e+01 3.952786e+01 4.746455e+01 3.984930e+01 3.294761e+01 2.477029e+01 2.862022e+01 1.905483e+00 1.684335e+00 1.977533e+00 2.078094e+00 2.468453e+00 2.591423e+00 2.691415e+00 2.954539e+00 2.382945e+00 2.170657e+00 1.947481e+00 1.959040e+00 2.605020e+00
<GCONST> 1.020894e+02
<TRANSP> 5
 0.000000e+00 1.000000e+00 0.000000e+00 0.000000e+00 0.000000e+00
 0.000000e+00 7.977599e-01 2.022401e-01 0.000000e+00 0.000000e+00
 0.000000e+00 0.000000e+00 7.977597e-01 2.022403e-01 0.000000e+00
 0.000000e+00 0.000000e+00 0.000000e+00 9.326939e-01 6.730607e-02
 0.000000e+00 0.000000e+00 0.000000e+00 0.000000e+00 0.000000e+00
<ENDHMM>
~h "hh"
<BEGINHMM>
<NUMSTATES> 5
<STATE> 2
<MEAN> 25
 2.745214e-01 -1.190557e-01 -8.366207e-01 -1.771243e+00 -2.299958e-01 2.836979e-02 6.825752e-01 -6.201395e-01 8.101982e-01 -2.970304e-01 -1.239589e-01 -4.913318e-01 1.727386e-03 5.482135e-03 1.452454e-02 -5.716384e-03 1.316269e-02 -2.543218e-02 2.574482e-02 1.706300e-02 3.925565e-03 -1.314377e-03 -2.275353e-02 -2.279082e-02 1.919557e-02
<VARIANCE> 25
 4.416970e+01 4.294920e+01 4.336420e+01 9.989859e+01 5.691235e+01 7.118241e+01 5.522802e+01 6.080478e+01 4.680978e+01 3.789988e+01 3.198849e+01 4.702187e+01 1.636217e+00 1.731709e+00 1.585318e+00 2.634871e+00 2.245367e+00 2.783463e+00 2.781815e+00 2.873326e+00 2.555396e+00 2.343703e+00 2.143346e+00 2.072906e+00 2.408606e+00
<GCONST> 1.036343e+02
<STATE> 3
<MEAN> 25
 3.158287e-01 -7.581612e-02 -8.010169e-01 -1.807232e+00 -1.452148e-01 -5.010410e-02 8.247731e-01 -5.683146e-01 8.381811e-01 -3.000081e-01 -2.316876e-01 -6.122427e-01 9.071849e-03 8.327450e-03 9.235400e-03 -5.778327e-03 1.964120e-02 -1.109706e-02 2.813446e-02 1.049226e-02 4.673535e-03 4.537672e-04 -2.073165e-02 -2.350276e-02 1.790079e-02
<VARIANCE> 25
 4.443805e+01 4.404520e+01 4.374846e+01 9.962880e+01 5.617064e+01 7.126311e+01 5.448500e+01 6.077335e+01 4.686897e+01 3.715665e+01 3.185493e+01 4.742854e+01 1.644800e+00 1.740061e+00 1.578924e+00 2.630720e+00 2.233102e+00 2.788712e+00 2.749233e+00 2.879136e+00 2.542171e+00 2.290353e+00 2.159601e+00 2.062858e+00 2.434922e+00
<GCONST> 1.036079e+02
<STATE> 4
<MEAN> 25
 4.989224e-01 1.325652e-01 -8.482013e-01 -1.927715e+00 6.646552e-03 1.198887e-02 9.493372e-01 -5.847571e-01 9.013497e-01 -2.574166e-01 -2.362882e-01 -6.759423e-01 9.773863e-03 1.206993e-02 7.224762e-03 6.850776e-03 2.466070e-02 1.086113e-02 4.654255e-03 6.103246e-03 -6.713979e-03 1.091007e-02 2.889743e-03 4.828586e-04 -3.794079e-02
<VARIANCE> 25
 4.589613e+01 4.653917e+01 4.325779e+01 1.005390e+02 5.603114e+01 6.978867e+01 5.148417e+01 6.000418e+01 4.669589e+01 3.678004e+01 3.087537e+01 4.698375e+01 1.586887e+00 1.660628e+00 1.544908e+00 2.603407e+00 2.177997e+00 2.772420e+00 2.601474e+00 2.886364e+00 2.464331e+00 2.212659e+00 2.138154e+00 2.021023e+00 2.259750e+00
<GCONST> 1.031767e+02
<TRANSP> 5
 0.000000e+00 1.000000e+00 0.000000e+00 0.000000e+00 0.000000e+00
 0.000000e+00 7.918533e-01 2.081468e-01 0.000000e+00 0.000000e+00
 0.000000e+00 0.000000e+00 7.918535e-01 2.081465e-01 0.000000e+00
 0.000000e+00 0.000000e+00 0.000000e+00 9.234040e-01 7.659592e-02
 0.000000e+00 0.000000e+00 0.000000e+00 0.000000e+00 0.000000e+00
<ENDHMM>
~h "ih"
<BEGINHMM>
<NUMSTATES> 5
<STATE> 2
<MEAN> 25
 -9.572627e-01 1.163592e+00 1.469030e+00 8.569161e-01 -1.140357e+00 -8.831704e-01 -6.086197e-01 -4.739081e-01 -9.764276e-01 2.414306e-03 2.032896e-01 -2.074672e-01 1.791840e-02 2.890877e-03 -7.460765e-03 -7.796298e-03 -2.533271e-03 -6.533692e-04 -6.841214e-03 -7.327911e-03 -2.274413e-03 -5.208036e-03 -3.141679e-03 -1.529349e-03 1.217283e-02
<VARIANCE> 25
 5.717724e+01 5.564006e+01 5.998219e+01 5.171354e+01 7.496509e+01 5.750752e+01 4.453358e+01 4.652207e+01 4.363033e+01 3.083501e+01 2.417558e+01 3.315073e+01 2.185251e+00 1.818299e+00 2.147600e+00 2.096980e+00 2.402155e+00 2.781601e+00 2.470325e+00 2.581345e+00 2.670223e+00 2.321218e+00 2.048561e+00 2.038465e+00 2.390667e+00
<GCONST> 1.027094e+02
<STATE> 3
<MEAN> 25
 -8.775449e-01 1.154211e+00 1.434421e+00 8.163027e-01 -1.154889e+00 -8.878442e-01 -6.385884e-01 -4.982531e-01 -9.825385e-01 -2.235980e-02 1.816699e-01 -1.967269e-01 1.639302e-02 -2.604611e-03 -8.384092e-03 -8.703884e-03 -2.049620e-03 1.257066e-03 -6.082918e-03 -3.893728e-03 -1.449537e-03 -4.786493e-03 -4.715973e-03 1.333643e-03 7.053576e-03
<VARIANCE> 25
 5.701612e+01 5.502335e+01 5.944127e+01 5.281979e+01 7.498021e+01 5.692518e+01 4.438924e+01 4.653086e+01 4.375621e+01 3.103106e+01 2.418573e+01 3.298664e+01 2.172534e+00 1.795762e+00 2.146871e+00 2.120234e+00 2.384133e+00 2.765624e+00 2.451428e+00 2.586100e+00 2.654306e+00 2.333429e+00 2.063010e+00 2.031946e+00 2.375687e+00
<GCONST> 1.026692e+02
<STATE> 4
<MEAN> 25
 -9.956418e-01 1.233368e+00 1.286601e+00 7.513003e-01 -1.176775e+00 -9.076355e-01 -5.992656e-01 -5.103588e-01 -9.528772e-01 7.626720e-02 1.180768e-01 -1.131451e-01 1.148074e-02 -9.698362e-03 -1.341049e-02 -1.013561e-02 9.229115e-03 7.491603e-03 -1.743633e-03 5.047103e-03 6.852876e-04 6.779737e-04 -4.680019e-03 7.716224e-03 -1.988009e-02
<VARIANCE> 25
 5.831679e+01 5.603866e+01 6.045306e+01 5.630252e+01 7.397325e+01 5.647594e+01 4.227228e+01 4.629604e+01 4.401667e+01 3.169210e+01 2.413988e+01 3.152913e+01 2.102603e+00 1.776487e+00 2.154227e+00 2.103751e+00 2.276677e+00 2.714119e+00 2.368236e+00 2.556963e+00 2.581029e+00 2.325650e+00 2.051298e+00 1.973553e+00 2.343925e+00
<GCONST> 1.024570e+02
<TRANSP> 5
 0.000000e+00 1.000000e+00 0.000000e+00 0.000000e+00 0.000000e+00
 0.000000e+00 7.997512e-01 2.002489e-01 0.000000e+00 0.000000e+00
 0.000000e+00 0.000000e+00 7.997514e-01 2.002486e-01 0.000000e+00
 0.000000e+00 0.000000e+00 0.000000e+00 9.345561e-01 6.544386e-02
 0.000000e+00 0.000000e+00 0.000000e+00 0.000000e+00 0.000000e+00
<ENDHMM>
~h "iy"
<BEGINHMM>
<NUMSTATES> 5
<STATE> 2
<MEAN> 25
 2.229604e-01 8.368473e-01 1.474233e+00 5.395899e-01 -7.073517e-01 -8.371657e-01 -2.784519e-01 -5.964654e-01 -7.653053e-01 -1.510345e-01 1.052516e-01 -1.492443e-01 1.168743e-02 3.398694e-04 -9.487338e-03 -1.879097e-02 5.670321e-03 3.866629e-03 7.353347e-03 -2.494365e-03 1.478436e-02 4.548137e-03 7.289202e-03 -7.735591e-03 1.831782e-02
<VARIANCE> 25
 6.340388e+01 6.073718e+01 5.983167e+01 8.110349e+01 7.767846e+01 5.923386e+01 3.987959e+01 5.627682e+01 5.308942e+01 3.914031e+01 2.750424e+01 3.170194e+01 1.906011e+00 1.857049e+00 2.006648e+00 2.422633e+00 2.558243e+00 2.724024e+00 2.424776e+00 2.702880e+00 2.626692e+00 2.206925e+00 2.141097e+00 1.916082e+00 2.137183e+00
<GCONST> 1.038456e+02
<STATE> 3
<MEAN> 25
 2.765323e-01 8.331056e-01 1.417530e+00 4.465225e-01 -6.799376e-01 -8.128918e-01 -2.454946e-01 -6.005877e-01 -6.862802e-01 -1.333553e-01 1.418547e-01 -1.800141e-01 9.394076e-03 -2.418859e-03 -1.226166e-02 -1.938383e-02 6.285715e-03 4.917152e-03 6.555107e-03 6.753141e-04 1.543392e-02 3.126097e-03 7.824008e-03 -6.679155e-03 1.651837e-02
<VARIANCE> 25
 6.320914e+01 6.052653e+01 5.977682e+01 8.158910e+01 7.712002e+01 5.887651e+01 3.971817e+01 5.615823e+01 5.356505e+01 3.916168e+01 2.762530e+01 3.184682e+01 1.892710e+00 1.844046e+00 1.993439e+00 2.425791e+00 2.542661e+00 2.724580e+00 2.430260e+00 2.704950e+00 2.620985e+00 2.208257e+00 2.161414e+00 1.936728e+00 2.150012e+00
<GCONST> 1.038454e+02
<STATE> 4
<MEAN> 25
 3.239060e-01 8.154176e-01 1.295886e+00 3.979426e-01 -6.501498e-01 -7.733395e-01 -3.479641e-01 -5.156782e-01 -5.320531e-01 -1.628960e-01 1.950037e-01 -1.434954e-01 5.937590e-03 -7.945112e-03 -1.939800e-02 -1.695052e-02 7.454249e-03 8.503538e-03 4.852461e-03 7.582674e-03 1.658946e-02 5.360459e-04 5.634242e-03 -1.522955e-03 7.125105e-03
<VARIANCE> 25
 6.197039e+01 6.262710e+01 5.851448e+01 8.900956e+01 7.714722e+01 5.723013e+01 3.804242e+01 5.616468e+01 5.423116e+01 4.190854e+01 2.797392e+01 3.036782e+01 1.824498e+00 1.843292e+00 1.897691e+00 2.400153e+00 2.455902e+00 2.666226e+00 2.353196e+00 2.630131e+00 2.554395e+00 2.213564e+00 2.148091e+00 1.883580e+00 2.023828e+00
<GCONST> 1.035681e+02
<TRANSP> 5
 0.000000e+00 1.000000e+00 0.000000e+00 0.000000e+00 0.000000e+00
 0.000000e+00 8.058884e-01 1.941116e-01 0.000000e+00 0.000000e+00
 0.000000e+00 0.000000e+00 8.058879e-01 1.941121e-01 0.000000e+00
 0.000000e+00 0.000000e+00 0.000000e+00 9.432901e-01 5.670991e-02
 0.000000e+00 0.000000e+00 0.000000e+00 0.000000e+00 0.000000e+00
<ENDHMM>
~h "jh"
<BEGINHMM>
<NUMSTATES> 5
<STATE> 2
<MEAN> 25
 -1.117881e-01 -1.280726e+00 -4.187672e-01 -6.192077e-02 9.136369e-01 1.717305e+00 1.159344e+00 4.269795e-02 4.186563e-02 1.611376e-01 -2.707750e-01 2.625141e-01 2.119059e-02 -1.357448e-02 -2.106129e-03 -5.308206e-02 -7.489913e-03 -8.580021e-03 2.858051e-02 -3.569187e-02 3.333666e-02 -4.176462e-02 -5.665590e-03 -4.049237e-02 1.155236e-01
<VARIANCE> 25
 4.718073e+01 4.399849e+01 3.535962e+01 6.404157e+01 6.532937e+01 5.338677e+01 5.250409e+01 3.360142e+01 4.616917e+01 2.377662e+01 2.561313e+01 2.957633e+01 2.521578e+00 1.746283e+00 1.419921e+00 2.003779e+00 2.144259e+00 2.781949e+00 2.838891e+00 2.380581e+00 2.265387e+00 1.707189e+00 2.182190e+00 1.642886e+00 2.660657e+00
<GCONST> 1.004064e+02
<STATE> 3
<MEAN> 25
 -1.217354e-02 -1.307087e+00 -4.359144e-01 -3.624595e-01 8.099023e-01 1.616483e+00 1.283908e+00 -1.185134e-01 2.225149e-01 -5.125644e-02 -3.012399e-01 6.563026e-02 1.871331e-02 1.143737e-03 -3.189000e-03 -6.698761e-02 -3.194055e-02 -2.629476e-02 2.176321e-02 -3.412487e-02 4.252238e-02 -4.562596e-02 -5.732818e-03 -4.161435e-02 1.400551e-01
<VARIANCE> 25
 4.608614e+01 4.506038e+01 3.673168e+01 6.821052e+01 6.461135e+01 5.425235e+01 5.106658e+01 3.418170e+01 4.923656e+01 2.371983e+01 2.452248e+01 3.187395e+01 2.520064e+00 1.706185e+00 1.466420e+00 2.021516e+00 2.129108e+00 2.806441e+00 2.865533e+00 2.476314e+00 2.319029e+00 1.721768e+00 2.140628e+00 1.685790e+00 2.800423e+00
<GCONST> 1.007528e+02
<STATE> 4
<MEAN> 25
 1.405469e-01 -9.873553e-01 -4.299671e-01 -1.212354e+00 1.689046e-01 1.032668e+00 1.351086e+00 -3.019037e-01 6.662914e-01 -5.364661e-01 -4.108737e-01 -1.747162e-01 8.995002e-03 3.263200e-02 -4.307125e-03 -7.039725e-02 -6.498682e-02 -4.800817e-02 -6.104179e-05 -2.099704e-02 4.679878e-02 -4.275150e-02 -4.391228e-03 -2.194259e-02 1.272288e-01
<VARIANCE> 25
 4.719255e+01 4.971260e+01 4.066055e+01 8.004232e+01 6.616917e+01 5.936555e+01 4.926082e+01 3.469206e+01 5.519871e+01 2.477319e+01 2.325598e+01 3.498539e+01 2.633082e+00 1.686868e+00 1.569774e+00 2.087857e+00 2.140623e+00 2.953293e+00 2.907155e+00 2.626023e+00 2.390887e+00 1.814263e+00 2.050192e+00 1.741483e+00 2.775308e+00
<GCONST> 1.017525e+02
<TRANSP> 5
 0.000000e+00 1.000000e+00 0.000000e+00 0.000000e+00 0.000000e+00
 0.000000e+00 7.898148e-01 2.101853e-01 0.000000e+00 0.000000e+00
 0.000000e+00 0.000000e+00 7.898146e-01 2.101854e-01 0.000000e+00
 0.000000e+00 0.000000e+00 0.000000e+00 9.200916e-01 7.990840e-02
 0.000000e+00 0.000000e+00 0.000000e+00 0.000000e+00 0.000000e+00
<ENDHMM>
~h "ng"
<BEGINHMM>
<NUMSTATES> 5
<STATE> 2
<MEAN> 25
 1.089442e+00 -1.619986e+00 -1.191721e-01 -1.970500e-01 8.054675e-01 4.093892e-01 -2.163260e-01 -4.183754e-01 1.724385e-01 7.239476e-01 -2.431750e-01 -6.992879e-01 -2.644016e-02 -1.888338e-02 -1.028791e-02 2.877701e-03 9.567657e-03 4.328338e-02 -1.340707e-02 1.106366e-02 6.837225e-03 1.321819e-03 6.097496e-04 1.890329e-02 -9.739769e-02
<VARIANCE> 25
 3.179805e+01 3.589367e+01 4.790816e+01 7.501333e+01 6.055355e+01 3.948346e+01 3.694211e+01 5.026089e+01 4.848598e+01 3.336087e+01 2.286014e+01 2.924379e+01 1.295256e+00 1.504018e+00 1.684368e+00 2.020355e+00 2.103305e+00 2.269430e+00 2.102597e+00 2.632522e+00 2.461853e+00 2.126260e+00 2.028037e+00 1.786767e+00 1.754764e+00
<GCONST> 9.904430e+01
<STATE> 3
<MEAN> 25
 9.315476e-01 -1.709272e+00 -1.667760e-01 -1.767606e-01 8.543411e-01 6.360170e-01 -2.736565e-01 -3.620648e-01 2.024621e-01 7.348867e-01 -2.297039e-01 -5.851181e-01 -3.127620e-02 -8.772505e-03 -6.437147e-03 -5.302894e-03 2.727336e-03 3.893778e-02 -7.423832e-03 -1.044919e-03 9.041373e-03 6.702202e-03 -8.152247e-04 2.046415e-02 -8.893063e-02
<VARIANCE> 25
 3.125130e+01 3.495111e+01 4.709898e+01 7.705918e+01 5.908608e+01 3.916163e+01 3.583287e+01 5.091153e+01 4.834409e+01 3.430489e+01 2.265034e+01 2.883733e+01 1.264135e+00 1.427492e+00 1.671149e+00 2.068109e+00 2.076722e+00 2.239201e+00 2.036430e+00 2.761953e+00 2.395508e+00 2.135832e+00 2.041563e+00 1.781876e+00 1.737695e+00
<GCONST> 9.886179e+01
<STATE> 4
<MEAN> 25
 6.055468e-01 -1.821307e+00 -1.740669e-01 -1.361099e-02 1.139155e+00 1.131528e+00 -1.168163e-01 -3.271696e-01 1.836346e-01 8.841682e-01 -1.283372e-01 -3.452059e-01 -4.167691e-02 5.099482e-03 5.521509e-04 -1.296390e-02 -8.906861e-03 2.416144e-02 -3.359424e-03 -1.701256e-02 1.280881e-02 9.985493e-03 4.375794e-03 2.620240e-02 -8.121587e-02
<VARIANCE> 25
 2.978303e+01 3.592807e+01 4.606211e+01 8.396940e+01 5.647070e+01 3.742432e+01 3.077937e+01 5.210597e+01 4.983751e+01 3.743113e+01 2.190488e+01 2.870942e+01 1.104959e+00 1.336117e+00 1.656935e+00 2.133168e+00 2.048385e+00 2.204235e+00 1.882353e+00 3.045686e+00 2.286195e+00 2.129650e+00 2.036664e+00 1.779322e+00 1.630786e+00
<GCONST> 9.845947e+01
<TRANSP> 5
 0.000000e+00 1.000000e+00 0.000000e+00 0.000000e+00 0.000000e+00
 0.000000e+00 8.080297e-01 1.919703e-01 0.000000e+00 0.000000e+00
 0.000000e+00 0.000000e+00 8.080299e-01 1.919701e-01 0.000000e+00
 0.000000e+00 0.000000e+00 0.000000e+00 9.440814e-01 5.591862e-02
 0.000000e+00 0.000000e+00 0.000000e+00 0.000000e+00 0.000000e+00
<ENDHMM>
~h "ow"
<BEGINHMM>
<NUMSTATES> 5
<STATE> 2
<MEAN> 25
 1.474855e+00 1.311543e+00 -5.719047e-01 -2.077931e+00 -7.543191e-01 1.628938e+00 -1.023269e+00 6.549360e-02 7.983558e-01 -1.271042e+00 6.599110e-01 1.543282e+00 -8.982434e-04 -1.449917e-02 2.385318e-03 -8.318528e-03 4.631077e-03 8.353509e-03 2.897131e-03 1.801489e-02 -9.999397e-03 -6.036149e-03 7.620740e-03 -3.452177e-03 -2.781730e-02
<VARIANCE> 25
 5.849685e+01 6.938355e+01 3.460442e+01 1.607421e+02 5.831524e+01 5.875056e+01 3.267937e+01 5.394241e+01 5.031809e+01 5.862886e+01 2.930625e+01 2.789986e+01 1.425398e+00 1.474573e+00 1.469959e+00 3.008172e+00 1.937425e+00 2.748601e+00 2.241184e+00 2.528648e+00 2.441408e+00 2.573205e+00 1.965949e+00 1.750521e+00 1.742438e+00
<GCONST> 1.024546e+02
<STATE> 3
<MEAN> 25
 1.481615e+00 1.218486e+00 -5.529507e-01 -2.106581e+00 -7.181583e-01 1.656626e+00 -1.004996e+00 1.654472e-01 7.334545e-01 -1.284839e+00 6.818120e-01 1.515820e+00 -3.546153e-03 -1.848819e-02 4.490801e-03 3.858367e-04 8.216447e-03 9.202247e-04 2.225631e-03 1.845301e-02 -1.249405e-02 -2.513583e-03 3.500930e-03 -8.030266e-03 -3.142510e-02
<VARIANCE> 25
 5.794897e+01 6.878809e+01 3.397285e+01 1.591415e+02 5.801717e+01 5.783344e+01 3.255143e+01 5.264184e+01 5.004150e+01 5.865824e+01 2.846104e+01 2.745275e+01 1.419218e+00 1.458682e+00 1.432700e+00 2.967956e+00 1.938282e+00 2.695972e+00 2.218716e+00 2.498335e+00 2.402174e+00 2.564261e+00 1.926393e+00 1.724977e+00 1.739085e+00
<GCONST> 1.021565e+02
<STATE> 4
<MEAN> 25
 1.567060e+00 1.060482e+00 -4.950729e-01 -2.087037e+00 -5.813954e-01 1.344268e+00 -9.218712e-01 3.083474e-01 5.987340e-01 -1.236046e+00 6.599979e-01 1.347615e+00 -1.674144e-02 -2.357300e-02 1.389564e-02 2.839651e-02 2.171010e-02 -1.555897e-02 6.407873e-03 1.299756e-02 -1.948945e-02 1.474606e-02 -8.115708e-03 -1.417376e-02 -4.540461e-02
<VARIANCE> 25
 5.600459e+01 7.016187e+01 3.302679e+01 1.547703e+02 5.817543e+01 5.609221e+01 3.083285e+01 5.116185e+01 5.050895e+01 6.097094e+01 2.736496e+01 2.589091e+01 1.344335e+00 1.473519e+00 1.354810e+00 2.822243e+00 1.913661e+00 2.583079e+00 2.151303e+00 2.508397e+00 2.352463e+00 2.553107e+00 1.841771e+00 1.664073e+00 1.709783e+00
<GCONST> 1.015698e+02
<TRANSP> 5
 0.000000e+00 1.000000e+00 0.000000e+00 0.000000e+00 0.000000e+00
 0.000000e+00 8.117839e-01 1.882162e-01 0.000000e+00 0.000000e+00
 0.000000e+00 0.000000e+00 8.117839e-01 1.882161e-01 0.000000e+00
 0.000000e+00 0.000000e+00 0.000000e+00 9.485999e-01 5.140009e-02
 0.000000e+00 0.000000e+00 0.000000e+00 0.000000e+00 0.000000e+00
<ENDHMM>
~h "oy"
<BEGINHMM>
<NUMSTATES> 5
<STATE> 2
<MEAN> 25
 2.785794e-01 1.273914e+00 -9.094843e-01 -1.821903e+00 3.324486e-01 -1.080661e-02 8.824302e-01 -8.197476e-01 1.225835e+00 5.974481e-01 3.739804e-01 -1.625066e-01 -2.871250e-02 -4.120355e-02 -4.286254e-04 5.011905e-02 7.414006e-02 1.110754e-02 1.427044e-02 3.905420e-02 -2.142873e-02 3.019980e-02 -4.020879e-03 1.046409e-02 -8.961980e-02
<VARIANCE> 25
 9.760384e+01 8.532413e+01 3.861036e+01 1.340410e+02 1.080486e+02 1.069066e+02 5.174384e+01 4.579499e+01 6.971201e+01 5.178293e+01 2.335698e+01 1.902771e+01 2.500590e+00 2.001871e+00 2.372002e+00 3.636059e+00 2.756558e+00 4.294494e+00 3.041916e+00 2.696556e+00 3.489489e+00 3.294276e+00 1.667567e+00 1.996155e+00 1.532543e+00
<GCONST> 1.073517e+02
<STATE> 3
<MEAN> 25
 1.226953e-01 1.033073e+00 -8.960943e-01 -1.534556e+00 7.309078e-01 6.334238e-02 9.572085e-01 -5.995985e-01 1.104024e+00 7.537495e-01 3.501672e-01 -1.106006e-01 -2.744598e-02 -4.539581e-02 1.791466e-03 4.995370e-02 6.891189e-02 1.781629e-02 1.170383e-02 4.016663e-02 -2.091322e-02 2.611236e-02 -3.220736e-03 8.360114e-03 -9.227218e-02
<VARIANCE> 25
 9.522991e+01 8.522256e+01 3.645484e+01 1.302734e+02 1.047424e+02 1.013873e+02 5.055877e+01 4.524755e+01 6.739445e+01 4.901653e+01 2.247189e+01 1.869646e+01 2.446268e+00 1.939815e+00 2.275990e+00 3.468727e+00 2.681315e+00 4.072203e+00 2.967808e+00 2.635733e+00 3.346876e+00 3.169681e+00 1.624327e+00 1.958512e+00 1.479290e+00
<GCONST> 1.065446e+02
<STATE> 4
<MEAN> 25
 -8.669685e-02 5.477033e-01 -8.340595e-01 -1.128313e+00 1.337355e+00 3.604556e-01 1.077509e+00 -2.132937e-01 9.708977e-01 9.883705e-01 3.601292e-01 -8.124395e-02 -1.806530e-02 -4.646922e-02 4.721817e-03 4.063667e-02 4.739199e-02 2.879096e-02 3.989649e-03 3.598734e-02 -1.641278e-02 1.502554e-02 -2.444895e-03 3.873244e-03 -8.176111e-02
<VARIANCE> 25
 9.103439e+01 8.376044e+01 3.305439e+01 1.254746e+02 9.791216e+01 8.950991e+01 4.825673e+01 4.443272e+01 6.491666e+01 4.434077e+01 2.133372e+01 1.842056e+01 2.369156e+00 1.825188e+00 2.160259e+00 3.186341e+00 2.568562e+00 3.651121e+00 2.855844e+00 2.535218e+00 3.145010e+00 2.937654e+00 1.576331e+00 1.939860e+00 1.433154e+00
<GCONST> 1.052164e+02
<TRANSP> 5
 0.000000e+00 1.000000e+00 0.000000e+00 0.000000e+00 0.000000e+00
 0.000000e+00 8.184162e-01 1.815838e-01 0.000000e+00 0.000000e+00
 0.000000e+00 0.000000e+00 8.184163e-01 1.815837e-01 0.000000e+00
 0.000000e+00 0.000000e+00 0.000000e+00 9.530301e-01 4.696987e-02
 0.000000e+00 0.000000e+00 0.000000e+00 0.000000e+00 0.000000e+00
<ENDHMM>
~h "sh"
<BEGINHMM>
<NUMSTATES> 5
<STATE> 2
<MEAN> 25
 -9.483454e-01 -1.176309e+00 1.227085e+00 2.021544e+00 -3.117143e-02 -4.513018e-01 -1.298763e-01 8.114182e-01 -1.591331e+00 -4.895850e-01 8.376213e-02 7.685037e-01 -8.417197e-03 -1.549356e-02 -4.230193e-02 -2.665943e-03 4.374392e-02 5.702339e-02 -1.209959e-02 3.905478e-02 -1.804591e-02 3.474243e-03 -7.229773e-03 8.731863e-03 -9.794731e-02
<VARIANCE> 25
 4.308350e+01 2.196260e+01 3.835023e+01 2.817857e+01 6.026187e+01 4.832527e+01 2.890055e+01 3.536369e+01 3.850992e+01 2.418589e+01 1.906249e+01 2.053240e+01 1.845240e+00 9.721032e-01 1.467839e+00 1.409844e+00 1.781218e+00 2.323694e+00 2.265783e+00 2.395327e+00 2.262185e+00 1.968711e+00 1.615539e+00 1.465958e+00 1.688414e+00
<GCONST> 9.480049e+01
<STATE> 3
<MEAN> 25
 -9.849862e-01 -1.240464e+00 1.027500e+00 1.990973e+00 1.413322e-01 -2.092850e-01 -1.820414e-01 9.667135e-01 -1.652583e+00 -4.800206e-01 5.195215e-02 7.923325e-01 -1.151824e-02 -8.247952e-03 -3.999808e-02 -1.155436e-02 3.034100e-02 4.796185e-02 -1.109245e-02 2.496163e-02 -8.666459e-03 3.998685e-03 -7.026819e-03 4.674778e-03 -6.997789e-02
<VARIANCE> 25
 4.095770e+01 2.154262e+01 3.731272e+01 2.882666e+01 5.822202e+01 4.762527e+01 2.856891e+01 3.540844e+01 3.874363e+01 2.401121e+01 1.870793e+01 2.062584e+01 1.782373e+00 9.758044e-01 1.456035e+00 1.413988e+00 1.784288e+00 2.315719e+00 2.263360e+00 2.466126e+00 2.265022e+00 1.955867e+00 1.631994e+00 1.457238e+00 1.753901e+00
<GCONST> 9.467843e+01
<STATE> 4
<MEAN> 25
 -1.023189e+00 -1.222801e+00 6.625065e-01 1.786490e+00 9.728458e-02 -4.025232e-02 -9.441226e-02 8.867134e-01 -1.434235e+00 -5.106080e-01 8.739530e-02 6.802273e-01 -1.041348e-02 5.495470e-03 -3.140263e-02 -2.407927e-02 1.038318e-02 2.420809e-02 -3.711138e-03 -1.692292e-03 9.855036e-03 4.284882e-03 -6.999823e-03 -1.919670e-03 -1.622683e-02
<VARIANCE> 25
 4.152313e+01 2.360628e+01 3.752482e+01 3.337930e+01 5.941312e+01 4.736408e+01 2.958503e+01 3.779403e+01 3.868537e+01 2.521629e+01 1.871264e+01 2.258652e+01 1.776990e+00 1.070052e+00 1.512735e+00 1.532971e+00 1.870331e+00 2.369601e+00 2.270989e+00 2.703105e+00 2.238362e+00 1.973029e+00 1.675018e+00 1.504530e+00 2.031349e+00
<GCONST> 9.576447e+01
<TRANSP> 5
 0.000000e+00 1.000000e+00 0.000000e+00 0.000000e+00 0.000000e+00
 0.000000e+00 7.872822e-01 2.127178e-01 0.000000e+00 0.000000e+00
 0.000000e+00 0.000000e+00 7.872827e-01 2.127172e-01 0.000000e+00
 0.000000e+00 0.000000e+00 0.000000e+00 9.206583e-01 7.934157e-02
 0.000000e+00 0.000000e+00 0.000000e+00 0.000000e+00 0.000000e+00
<ENDHMM>
~h "th"
<BEGINHMM>
<NUMSTATES> 5
<STATE> 2
<MEAN> 25
 6.130537e-02 -1.020679e+00 7.658113e-01 7.386957e-01 3.329142e-01 -8.656482e-01 5.725920e-01 1.520286e-01 -4.617853e-01 -2.453643e-01 -2.725558e-01 -5.150990e-01 7.019363e-03 -1.796498e-02 7.948421e-03 2.159476e-04 1.349598e-02 6.232135e-03 -1.625676e-02 8.603743e-03 -4.737507e-03 2.084114e-02 -1.087657e-02 -1.857246e-03 -4.737589e-02
<VARIANCE> 25
 5.632231e+01 3.996048e+01 4.537932e+01 5.566476e+01 6.526256e+01 6.940164e+01 3.923321e+01 4.340054e+01 4.831852e+01 3.926119e+01 2.736170e+01 2.974363e+01 2.015152e+00 1.436851e+00 1.582109e+00 1.948478e+00 2.166890e+00 2.584387e+00 2.165772e+00 2.376178e+00 2.321534e+00 2.124756e+00 1.882516e+00 1.810661e+00 1.869116e+00
<GCONST> 1.006061e+02
<STATE> 3
<MEAN> 25
 9.198272e-02 -1.100758e+00 7.993808e-01 7.399042e-01 3.934141e-01 -8.254149e-01 4.865142e-01 1.803183e-01 -4.794130e-01 -1.461047e-01 -3.198726e-01 -5.252127e-01 2.716909e-03 -1.304185e-02 1.054357e-02 4.944294e-04 9.915884e-03 1.346037e-02 -1.779038e-02 -1.902176e-03 -2.776889e-03 1.852352e-02 -6.962671e-03 9.252352e-04 -4.364304e-02
<VARIANCE> 25
 5.523947e+01 3.896128e+01 4.573800e+01 5.586099e+01 6.499039e+01 6.867770e+01 3.883688e+01 4.359660e+01 4.872404e+01 3.835315e+01 2.722881e+01 2.941830e+01 1.961990e+00 1.408379e+00 1.583203e+00 1.909813e+00 2.174693e+00 2.546788e+00 2.139965e+00 2.459606e+00 2.308721e+00 2.088331e+00 1.871061e+00 1.794536e+00 1.897888e+00
<GCONST> 1.004443e+02
<STATE> 4
<MEAN> 25
 1.269983e-02 -1.068604e+00 1.229072e+00 1.011585e+00 2.152607e-01 -6.404614e-01 2.306672e-02 9.835723e-04 -7.110230e-01 -9.764127e-02 -2.368464e-01 -3.848036e-01 -4.088936e-03 7.874332e-05 1.101689e-02 -4.061641e-03 -1.685046e-03 1.428466e-02 -1.354060e-02 -1.454350e-02 3.893605e-03 1.129499e-02 -2.452464e-03 3.444574e-03 -1.736495e-02
<VARIANCE> 25
 5.601248e+01 3.997500e+01 4.820568e+01 6.069443e+01 6.702714e+01 6.328209e+01 3.765207e+01 4.666359e+01 4.864215e+01 3.836519e+01 2.591168e+01 2.786277e+01 1.913416e+00 1.412996e+00 1.581159e+00 1.902568e+00 2.191231e+00 2.395823e+00 2.031177e+00 2.579482e+00 2.260239e+00 2.028052e+00 1.829857e+00 1.774864e+00 1.851175e+00
<GCONST> 1.003064e+02
<TRANSP> 5
 0.000000e+00 1.000000e+00 0.000000e+00 0.000000e+00 0.000000e+00
 0.000000e+00 8.113351e-01 1.886649e-01 0.000000e+00 0.000000e+00
 0.000000e+00 0.000000e+00 8.113351e-01 1.886650e-01 0.000000e+00
 0.000000e+00 0.000000e+00 0.000000e+00 9.484525e-01 5.154749e-02
 0.000000e+00 0.000000e+00 0.000000e+00 0.000000e+00 0.000000e+00
<ENDHMM>
~h "uh"
<BEGINHMM>
<NUMSTATES> 5
<STATE> 2
<MEAN> 25
 6.417365e-01 8.060981e-01 -5.521547e-02 -3.836643e-02 -5.036150e-01 2.267674e+00 -1.293765e+00 2.963280e-01 1.157358e-01 -2.112701e+00 -8.175351e-02 2.423901e+00 5.669242e-03 3.809598e-02 -3.711758e-02 -1.187030e-01 -1.577059e-01 -6.897527e-02 -2.993715e-02 -9.366014e-02 1.281479e-02 -5.556512e-02 6.019197e-03 -1.682885e-02 2.374019e-01
<VARIANCE> 25
 3.171869e+01 3.975005e+01 4.563240e+01 1.040336e+02 8.291865e+01 7.066331e+01 4.609290e+01 8.484566e+01 3.578883e+01 5.994015e+01 2.191625e+01 3.072693e+01 1.447637e+00 1.597966e+00 2.005090e+00 3.299241e+00 2.734717e+00 3.622760e+00 2.834727e+00 4.095372e+00 2.152368e+00 2.751400e+00 1.525936e+00 1.904306e+00 2.915321e+00
<GCONST> 1.040709e+02
<STATE> 3
<MEAN> 25
 6.457023e-01 9.708068e-01 -2.004218e-01 -6.050046e-01 -1.277678e+00 1.859967e+00 -1.443516e+00 -1.382871e-01 1.770626e-01 -2.337210e+00 -5.453525e-02 2.284385e+00 -9.916658e-04 3.304587e-02 -2.815660e-02 -1.111266e-01 -1.573545e-01 -9.114243e-02 -2.677530e-02 -8.530691e-02 1.253960e-02 -4.251027e-02 5.684293e-03 -3.334050e-02 2.446043e-01
<VARIANCE> 25
 3.344464e+01 4.157410e+01 4.844679e+01 1.060196e+02 8.487440e+01 8.000202e+01 5.078789e+01 8.576590e+01 3.557183e+01 6.141435e+01 2.251158e+01 3.389047e+01 1.570370e+00 1.706998e+00 2.120426e+00 3.498178e+00 2.860972e+00 3.831753e+00 2.978820e+00 4.251456e+00 2.192852e+00 2.827961e+00 1.550007e+00 1.968914e+00 3.108724e+00
<GCONST> 1.052551e+02
<STATE> 4
<MEAN> 25
 4.856553e-01 1.156282e+00 -1.119499e-01 -1.288019e+00 -2.724765e+00 6.466171e-01 -1.571481e+00 -7.234657e-01 1.489702e-01 -2.335428e+00 6.902011e-02 1.578548e+00 -1.043648e-02 2.067124e-02 5.471740e-03 -5.402644e-02 -1.241037e-01 -1.263775e-01 3.742000e-03 -4.858467e-02 6.181739e-03 1.648366e-03 3.856786e-03 -7.243504e-02 2.085390e-01
<VARIANCE> 25
 3.671536e+01 4.369886e+01 5.077297e+01 1.007542e+02 8.642153e+01 9.783845e+01 5.790795e+01 8.122663e+01 3.452340e+01 5.815073e+01 2.338691e+01 3.901189e+01 1.786576e+00 1.861722e+00 2.163166e+00 3.475167e+00 2.849837e+00 4.068455e+00 3.130429e+00 4.113895e+00 2.265609e+00 2.843790e+00 1.647333e+00 2.016159e+00 3.204151e+00
<GCONST> 1.062397e+02
<TRANSP> 5
 0.000000e+00 1.000000e+00 0.000000e+00 0.000000e+00 0.000000e+00
 0.000000e+00 7.935235e-01 2.064765e-01 0.000000e+00 0.000000e+00
 0.000000e+00 0.000000e+00 7.935234e-01 2.064766e-01 0.000000e+00
 0.000000e+00 0.000000e+00 0.000000e+00 9.248410e-01 7.515898e-02
 0.000000e+00 0.000000e+00 0.000000e+00 0.000000e+00 0.000000e+00
<ENDHMM>
~h "uw"
<BEGINHMM>
<NUMSTATES> 5
<STATE> 2
<MEAN> 25
 5.926841e-01 6.313074e-01 -1.642656e-01 -1.340284e-01 -4.184406e-01 5.801856e-02 -1.377698e+00 -9.757371e-01 3.276775e-01 -5.808766e-01 9.240775e-01 -4.414736e-02 5.960479e-03 5.963630e-03 -6.048304e-03 -1.552541e-02 7.043363e-03 -1.197053e-02 1.022196e-02 6.728208e-03 4.538877e-03 5.694247e-03 -2.390502e-03 -3.307630e-03 1.431896e-02
<VARIANCE> 25
 6.578240e+01 5.342441e+01 3.637831e+01 6.469346e+01 7.267419e+01 6.186616e+01 4.773774e+01 5.999459e+01 4.260215e+01 5.336000e+01 2.647009e+01 3.105253e+01 2.355471e+00 1.763873e+00 1.709889e+00 2.057925e+00 2.504249e+00 3.027107e+00 2.496363e+00 2.899824e+00 2.788517e+00 3.022900e+00 2.054861e+00 2.136297e+00 2.184227e+00
<GCONST> 1.037665e+02
<STATE> 3
<MEAN> 25
 6.113648e-01 6.498160e-01 -1.773721e-01 -1.985942e-01 -3.739250e-01 -5.502316e-03 -1.324931e+00 -9.245193e-01 3.373481e-01 -5.466248e-01 9.095771e-01 -5.985211e-02 5.090851e-04 -8.332795e-04 -4.798817e-03 -1.179688e-02 1.318862e-02 -8.076080e-03 1.330554e-02 1.398042e-02 9.026192e-05 7.572628e-03 -4.188935e-03 -1.984472e-03 9.420884e-04
<VARIANCE> 25
 6.619128e+01 5.391040e+01 3.714149e+01 6.421810e+01 7.306850e+01 6.241655e+01 4.763409e+01 5.972066e+01 4.261610e+01 5.298925e+01 2.655592e+01 3.105682e+01 2.352756e+00 1.769998e+00 1.708563e+00 2.045850e+00 2.505424e+00 3.034860e+00 2.488224e+00 2.895534e+00 2.760182e+00 2.989061e+00 2.052033e+00 2.123368e+00 2.163259e+00
<GCONST> 1.037548e+02
<STATE> 4
<MEAN> 25
 4.409349e-01 7.433691e-01 6.993168e-02 -2.446189e-01 -2.764288e-01 -1.268549e-01 -1.176205e+00 -8.038308e-01 1.563346e-01 -6.837017e-01 8.939567e-01 8.258855e-02 -1.164227e-02 -1.139327e-02 1.249264e-03 3.863173e-05 1.937609e-02 -6.714562e-03 1.517774e-02 2.222233e-02 -8.289612e-03 1.212435e-02 -6.824707e-03 -5.214713e-04 -1.811292e-02
<VARIANCE> 25
 6.577625e+01 5.717635e+01 3.811855e+01 6.645650e+01 7.261600e+01 6.093691e+01 4.481729e+01 5.890655e+01 4.312164e+01 5.486909e+01 2.517467e+01 2.924371e+01 2.259499e+00 1.764504e+00 1.671922e+00 1.992250e+00 2.494919e+00 2.927392e+00 2.382562e+00 2.825474e+00 2.671176e+00 2.898721e+00 1.955335e+00 2.028048e+00 1.989588e+00
<GCONST> 1.032544e+02
<TRANSP> 5
 0.000000e+00 1.000000e+00 0.000000e+00 0.000000e+00 0.000000e+00
 0.000000e+00 7.962988e-01 2.037012e-01 0.000000e+00 0.000000e+00
 0.000000e+00 0.000000e+00 7.962981e-01 2.037019e-01 0.000000e+00
 0.000000e+00 0.000000e+00 0.000000e+00 9.334478e-01 6.655220e-02
 0.000000e+00 0.000000e+00 0.000000e+00 0.000000e+00 0.000000e+00
<ENDHMM>
~h "zh"
<BEGINHMM>
<NUMSTATES> 5
<STATE> 2
<MEAN> 25
 6.384655e-01 5.927945e-01 1.157767e+00 -2.233413e-01 -1.533886e+00 -6.658798e-01 -2.194581e-01 -3.782670e-01 6.091182e-01 -4.521576e-02 -4.798782e-02 -3.268635e-01 -1.744951e-02 -9.621209e-03 -2.793064e-04 2.207982e-03 2.976467e-02 2.362831e-02 -2.497271e-03 9.625797e-03 -1.189495e-02 1.225694e-02 6.200162e-03 1.547602e-02 -6.647389e-02
<VARIANCE> 25
 6.144316e+01 4.031001e+01 5.056417e+01 2.901506e+01 9.535065e+01 6.687670e+01 4.920950e+01 3.750966e+01 4.414412e+01 2.954867e+01 2.426577e+01 2.231535e+01 2.370687e+00 1.587924e+00 1.604571e+00 1.494705e+00 2.259798e+00 2.286721e+00 2.693187e+00 2.021871e+00 2.637716e+00 2.067467e+00 1.889121e+00 1.701370e+00 2.269776e+00
<GCONST> 1.000226e+02
<STATE> 3
<MEAN> 25
 5.386688e-01 5.309574e-01 1.141498e+00 -2.050288e-01 -1.339322e+00 -5.171700e-01 -2.260192e-01 -3.095919e-01 5.303605e-01 2.668290e-02 -1.094745e-02 -2.416578e-01 -1.809077e-02 -1.346792e-02 -5.936958e-03 3.698461e-03 3.718043e-02 2.511986e-02 -1.261340e-03 1.436390e-02 -1.302144e-02 1.199063e-02 6.415727e-03 1.539899e-02 -7.830006e-02
<VARIANCE> 25
 6.007685e+01 3.990284e+01 4.961157e+01 2.895591e+01 9.459594e+01 6.584715e+01 4.764447e+01 3.621997e+01 4.392727e+01 2.948542e+01 2.391735e+01 2.176730e+01 2.326739e+00 1.555540e+00 1.570640e+00 1.473934e+00 2.226942e+00 2.269444e+00 2.645605e+00 1.979711e+00 2.626584e+00 2.066598e+00 1.876204e+00 1.680065e+00 2.203373e+00
<GCONST> 9.964215e+01
<STATE> 4
<MEAN> 25
 3.252616e-01 3.234431e-01 9.869165e-01 -1.714948e-01 -7.793335e-01 -1.781504e-01 -1.429017e-01 -5.717368e-02 2.475493e-01 1.561952e-01 8.402017e-02 -6.147181e-02 -1.733807e-02 -1.570856e-02 -1.151090e-02 3.774838e-03 4.409159e-02 2.608849e-02 5.113905e-03 1.718576e-02 -1.574699e-02 9.833008e-03 6.892207e-03 1.240654e-02 -8.114480e-02
<VARIANCE> 25
 5.370137e+01 3.679984e+01 4.531084e+01 2.870319e+01 9.180310e+01 6.393793e+01 4.519153e+01 3.233625e+01 4.274534e+01 2.890699e+01 2.312252e+01 2.041634e+01 2.108868e+00 1.467231e+00 1.472538e+00 1.395281e+00 2.147835e+00 2.253205e+00 2.598079e+00 1.915194e+00 2.571890e+00 2.102865e+00 1.851054e+00 1.614800e+00 2.082363e+00
<GCONST> 9.849499e+01
<TRANSP> 5
 0.000000e+00 1.000000e+00 0.000000e+00 0.000000e+00 0.000000e+00
 0.000000e+00 8.162668e-01 1.837332e-01 0.000000e+00 0.000000e+00
 0.000000e+00 0.000000e+00 8.162667e-01 1.837333e-01 0.000000e+00
 0.000000e+00 0.000000e+00 0.000000e+00 9.514061e-01 4.859396e-02
 0.000000e+00 0.000000e+00 0.000000e+00 0.000000e+00 0.000000e+00
<ENDHMM>
~h "sil"
<BEGINHMM>
<NUMSTATES> 5
<STATE> 2
<MEAN> 25
 -1.480534e+00 -3.199784e+00 -4.482015e-01 1.840362e+00 1.358007e+00 1.359608e+00 -7.524304e-01 1.309797e+00 -1.673550e+00 1.242951e+00 -9.608176e-02 9.263429e-01 -3.764352e-01 3.565100e-01 2.202679e-01 6.796749e-01 6.364809e-01 8.997560e-03 -2.001992e-02 -3.628726e-01 -3.089069e-01 -1.999711e-01 2.752104e-01 2.802515e-01 -3.958028e-01
<VARIANCE> 25
