~h "ae"
<BEGINHMM>
<NUMSTATES> 5
<STATE> 2
<MEAN> 25
 1.417616e-07 -1.344591e-08 6.744688e-09 3.520858e-08 1.539470e-08 -2.960128e-08 -2.596451e-08 -3.361477e-08 -1.956032e-08 2.204521e-08 1.919085e-08 1.169997e-08 -6.469213e-03 7.915574e-03 7.846633e-03 7.105639e-03 8.445180e-03 -3.366752e-04 -1.303187e-03 -7.868514e-03 -5.922113e-03 3.942743e-04 1.563429e-03 4.659003e-03 -2.882905e-03
<VARIANCE> 25
 5.294691e+01 4.963992e+01 4.432232e+01 7.569560e+01 6.260971e+01 5.816381e+01 3.991302e+01 5.058298e+01 4.723607e+01 3.758217e+01 2.628475e+01 3.142200e+01 1.848056e+00 1.592366e+00 1.743356e+00 2.282314e+00 2.269823e+00 2.684780e+00 2.440277e+00 2.933924e+00 2.493926e+00 2.308038e+00 2.002368e+00 1.925660e+00 2.247548e+00
<GCONST> 1.020937e+02
<STATE> 3
<MEAN> 25
 1.417616e-07 -1.344591e-08 6.744688e-09 3.520858e-08 1.539470e-08 -2.960128e-08 -2.596451e-08 -3.361477e-08 -1.956032e-08 2.204521e-08 1.919085e-08 1.169997e-08 -6.469213e-03 7.915574e-03 7.846633e-03 7.105639e-03 8.445180e-03 -3.366752e-04 -1.303187e-03 -7.868514e-03 -5.922113e-03 3.942743e-04 1.563429e-03 4.659003e-03 -2.882905e-03
<VARIANCE> 25
 5.294691e+01 4.963992e+01 4.432232e+01 7.569560e+01 6.260971e+01 5.816381e+01 3.991302e+01 5.058298e+01 4.723607e+01 3.758217e+01 2.628475e+01 3.142200e+01 1.848056e+00 1.592366e+00 1.743356e+00 2.282314e+00 2.269823e+00 2.684780e+00 2.440277e+00 2.933924e+00 2.493926e+00 2.308038e+00 2.002368e+00 1.925660e+00 2.247548e+00
<GCONST> 1.020937e+02
<STATE> 4
<MEAN> 25
 1.417616e-07 -1.344591e-08 6.744688e-09 3.520858e-08 1.539470e-08 -2.960128e-08 -2.596451e-08 -3.361477e-08 -1.956032e-08 2.204521e-08 1.919085e-08 1.169997e-08 -6.469213e-03 7.915574e-03 7.846633e-03 7.105639e-03 8.445180e-03 -3.366752e-04 -1.303187e-03 -7.868514e-03 -5.922113e-03 3.942743e-04 1.563429e-03 4.659003e-03 -2.882905e-03
<VARIANCE> 25
 5.294691e+01 4.963992e+01 4.432232e+01 7.569560e+01 6.260971e+01 5.816381e+01 3.991302e+01 5.058298e+01 4.723607e+01 3.758217e+01 2.628475e+01 3.142200e+01 1.848056e+00 1.592366e+00 1.743356e+00 2.282314e+00 2.269823e+00 2.684780e+00 2.440277e+00 2.933924e+00 2.493926e+00 2.308038e+00 2.002368e+00 1.925660e+00 2.247548e+00
<GCONST> 1.020937e+02
<TRANSP> 5
 0.000000e+00 1.000000e+00 0.000000e+00 0.000000e+00 0.000000e+00
 0.000000e+00 6.000000e-01 4.000000e-01 0.000000e+00 0.000000e+00
 0.000000e+00 0.000000e+00 6.000000e-01 4.000000e-01 0.000000e+00
 0.000000e+00 0.000000e+00 0.000000e+00 7.000000e-01 3.000000e-01
 0.000000e+00 0.000000e+00 0.000000e+00 0.000000e+00 0.000000e+00
<ENDHMM>
~h "b"
<BEGINHMM>
<NUMSTATES> 5
<STATE> 2
<MEAN> 25
 1.417616e-07 -1.344591e-08 6.744688e-09 3.520858e-08 1.539470e-08 -2.960128e-08 -2.596451e-08 -3.361477e-08 -1.956032e-08 2.204521e-08 1.919085e-08 1.169997e-08 -6.469213e-03 7.915574e-03 7.846633e-03 7.105639e-03 8.445180e-03 -3.366752e-04 -1.303187e-03 -7.868514e-03 -5.922113e-03 3.942743e-04 1.563429e-03 4.659003e-03 -2.882905e-03
<VARIANCE> 25
 5.294691e+01 4.963992e+01 4.432232e+01 7.569560e+01 6.260971e+01 5.816381e+01 3.991302e+01 5.058298e+01 4.723607e+01 3.758217e+01 2.628475e+01 3.142200e+01 1.848056e+00 1.592366e+00 1.743356e+00 2.282314e+00 2.269823e+00 2.684780e+00 2.440277e+00 2.933924e+00 2.493926e+00 2.308038e+00 2.002368e+00 1.925660e+00 2.247548e+00
<GCONST> 1.020937e+02
<STATE> 3
<MEAN> 25
 1.417616e-07 -1.344591e-08 6.744688e-09 3.520858e-08 1.539470e-08 -2.960128e-08 -2.596451e-08 -3.361477e-08 -1.956032e-08 2.204521e-08 1.919085e-08 1.169997e-08 -6.469213e-03 7.915574e-03 7.846633e-03 7.105639e-03 8.445180e-03 -3.366752e-04 -1.303187e-03 -7.868514e-03 -5.922113e-03 3.942743e-04 1.563429e-03 4.659003e-03 -2.882905e-03
<VARIANCE> 25
 5.294691e+01 4.963992e+01 4.432232e+01 7.569560e+01 6.260971e+01 5.816381e+01 3.991302e+01 5.058298e+01 4.723607e+01 3.758217e+01 2.628475e+01 3.142200e+01 1.848056e+00 1.592366e+00 1.743356e+00 2.282314e+00 2.269823e+00 2.684780e+00 2.440277e+00 2.933924e+00 2.493926e+00 2.308038e+00 2.002368e+00 1.925660e+00 2.247548e+00
<GCONST> 1.020937e+02
<STATE> 4
<MEAN> 25
 1.417616e-07 -1.344591e-08 6.744688e-09 3.520858e-08 1.539470e-08 -2.960128e-08 -2.596451e-08 -3.361477e-08 -1.956032e-08 2.204521e-08 1.919085e-08 1.169997e-08 -6.469213e-03 7.915574e-03 7.846633e-03 7.105639e-03 8.445180e-03 -3.366752e-04 -1.303187e-03 -7.868514e-03 -5.922113e-03 3.942743e-04 1.563429e-03 4.659003e-03 -2.882905e-03
<VARIANCE> 25
 5.294691e+01 4.963992e+01 4.432232e+01 7.569560e+01 6.260971e+01 5.816381e+01 3.991302e+01 5.058298e+01 4.723607e+01 3.758217e+01 2.628475e+01 3.142200e+01 1.848056e+00 1.592366e+00 1.743356e+00 2.282314e+00 2.269823e+00 2.684780e+00 2.440277e+00 2.933924e+00 2.493926e+00 2.308038e+00 2.002368e+00 1.925660e+00 2.247548e+00
<GCONST> 1.020937e+02
<TRANSP> 5
 0.000000e+00 1.000000e+00 0.000000e+00 0.000000e+00 0.000000e+00
 0.000000e+00 6.000000e-01 4.000000e-01 0.000000e+00 0.000000e+00
 0.000000e+00 0.000000e+00 6.000000e-01 4.000000e-01 0.000000e+00
 0.000000e+00 0.000000e+00 0.000000e+00 7.000000e-01 3.000000e-01
 0.000000e+00 0.000000e+00 0.000000e+00 0.000000e+00 0.000000e+00
<ENDHMM>
~h "ah"
<BEGINHMM>
<NUMSTATES> 5
<STATE> 2
<MEAN> 25
 1.417616e-07 -1.344591e-08 6.744688e-09 3.520858e-08 1.539470e-08 -2.960128e-08 -2.596451e-08 -3.361477e-08 -1.956032e-08 2.204521e-08 1.919085e-08 1.169997e-08 -6.469213e-03 7.915574e-03 7.846633e-03 7.105639e-03 8.445180e-03 -3.366752e-04 -1.303187e-03 -7.868514e-03 -5.922113e-03 3.942743e-04 1.563429e-03 4.659003e-03 -2.882905e-03
<VARIANCE> 25
 5.294691e+01 4.963992e+01 4.432232e+01 7.569560e+01 6.260971e+01 5.816381e+01 3.991302e+01 5.058298e+01 4.723607e+01 3.758217e+01 2.628475e+01 3.142200e+01 1.848056e+00 1.592366e+00 1.743356e+00 2.282314e+00 2.269823e+00 2.684780e+00 2.440277e+00 2.933924e+00 2.493926e+00 2.308038e+00 2.002368e+00 1.925660e+00 2.247548e+00
<GCONST> 1.020937e+02
<STATE> 3
<MEAN> 25
 1.417616e-07 -1.344591e-08 6.744688e-09 3.520858e-08 1.539470e-08 -2.960128e-08 -2.596451e-08 -3.361477e-08 -1.956032e-08 2.204521e-08 1.919085e-08 1.169997e-08 -6.469213e-03 7.915574e-03 7.846633e-03 7.105639e-03 8.445180e-03 -3.366752e-04 -1.303187e-03 -7.868514e-03 -5.922113e-03 3.942743e-04 1.563429e-03 4.659003e-03 -2.882905e-03
<VARIANCE> 25
 5.294691e+01 4.963992e+01 4.432232e+01 7.569560e+01 6.260971e+01 5.816381e+01 3.991302e+01 5.058298e+01 4.723607e+01 3.758217e+01 2.628475e+01 3.142200e+01 1.848056e+00 1.592366e+00 1.743356e+00 2.282314e+00 2.269823e+00 2.684780e+00 2.440277e+00 2.933924e+00 2.493926e+00 2.308038e+00 2.002368e+00 1.925660e+00 2.247548e+00
<GCONST> 1.020937e+02
<STATE> 4
<MEAN> 25
 1.417616e-07 -1.344591e-08 6.744688e-09 3.520858e-08 1.539470e-08 -2.960128e-08 -2.596451e-08 -3.361477e-08 -1.956032e-08 2.204521e-08 1.919085e-08 1.169997e-08 -6.469213e-03 7.915574e-03 7.846633e-03 7.105639e-03 8.445180e-03 -3.366752e-04 -1.303187e-03 -7.868514e-03 -5.922113e-03 3.942743e-04 1.563429e-03 4.659003e-03 -2.882905e-03
<VARIANCE> 25
 5.294691e+01 4.963992e+01 4.432232e+01 7.569560e+01 6.260971e+01 5.816381e+01 3.991302e+01 5.058298e+01 4.723607e+01 3.758217e+01 2.628475e+01 3.142200e+01 1.848056e+00 1.592366e+00 1.743356e+00 2.282314e+00 2.269823e+00 2.684780e+00 2.440277e+00 2.933924e+00 2.493926e+00 2.308038e+00 2.002368e+00 1.925660e+00 2.247548e+00
<GCONST> 1.020937e+02
<TRANSP> 5
 0.000000e+00 1.000000e+00 0.000000e+00 0.000000e+00 0.000000e+00
 0.000000e+00 6.000000e-01 4.000000e-01 0.000000e+00 0.000000e+00
 0.000000e+00 0.000000e+00 6.000000e-01 4.000000e-01 0.000000e+00
 0.000000e+00 0.000000e+00 0.000000e+00 7.000000e-01 3.000000e-01
 0.000000e+00 0.000000e+00 0.000000e+00 0.000000e+00 0.000000e+00
<ENDHMM>
~h "l"
<BEGINHMM>
<NUMSTATES> 5
<STATE> 2
<MEAN> 25
 1.417616e-07 -1.344591e-08 6.744688e-09 3.520858e-08 1.539470e-08 -2.960128e-08 -2.596451e-08 -3.361477e-08 -1.956032e-08 2.204521e-08 1.919085e-08 1.169997e-08 -6.469213e-03 7.915574e-03 7.846633e-03 7.105639e-03 8.445180e-03 -3.366752e-04 -1.303187e-03 -7.868514e-03 -5.922113e-03 3.942743e-04 1.563429e-03 4.659003e-03 -2.882905e-03
<VARIANCE> 25
 5.294691e+01 4.963992e+01 4.432232e+01 7.569560e+01 6.260971e+01 5.816381e+01 3.991302e+01 5.058298e+01 4.723607e+01 3.758217e+01 2.628475e+01 3.142200e+01 1.848056e+00 1.592366e+00 1.743356e+00 2.282314e+00 2.269823e+00 2.684780e+00 2.440277e+00 2.933924e+00 2.493926e+00 2.308038e+00 2.002368e+00 1.925660e+00 2.247548e+00
<GCONST> 1.020937e+02
<STATE> 3
<MEAN> 25
 1.417616e-07 -1.344591e-08 6.744688e-09 3.520858e-08 1.539470e-08 -2.960128e-08 -2.596451e-08 -3.361477e-08 -1.956032e-08 2.204521e-08 1.919085e-08 1.169997e-08 -6.469213e-03 7.915574e-03 7.846633e-03 7.105639e-03 8.445180e-03 -3.366752e-04 -1.303187e-03 -7.868514e-03 -5.922113e-03 3.942743e-04 1.563429e-03 4.659003e-03 -2.882905e-03
<VARIANCE> 25
 5.294691e+01 4.963992e+01 4.432232e+01 7.569560e+01 6.260971e+01 5.816381e+01 3.991302e+01 5.058298e+01 4.723607e+01 3.758217e+01 2.628475e+01 3.142200e+01 1.848056e+00 1.592366e+00 1.743356e+00 2.282314e+00 2.269823e+00 2.684780e+00 2.440277e+00 2.933924e+00 2.493926e+00 2.308038e+00 2.002368e+00 1.925660e+00 2.247548e+00
<GCONST> 1.020937e+02
<STATE> 4
<MEAN> 25
 1.417616e-07 -1.344591e-08 6.744688e-09 3.520858e-08 1.539470e-08 -2.960128e-08 -2.596451e-08 -3.361477e-08 -1.956032e-08 2.204521e-08 1.919085e-08 1.169997e-08 -6.469213e-03 7.915574e-03 7.846633e-03 7.105639e-03 8.445180e-03 -3.366752e-04 -1.303187e-03 -7.868514e-03 -5.922113e-03 3.942743e-04 1.563429e-03 4.659003e-03 -2.882905e-03
<VARIANCE> 25
 5.294691e+01 4.963992e+01 4.432232e+01 7.569560e+01 6.260971e+01 5.816381e+01 3.991302e+01 5.058298e+01 4.723607e+01 3.758217e+01 2.628475e+01 3.142200e+01 1.848056e+00 1.592366e+00 1.743356e+00 2.282314e+00 2.269823e+00 2.684780e+00 2.440277e+00 2.933924e+00 2.493926e+00 2.308038e+00 2.002368e+00 1.925660e+00 2.247548e+00
<GCONST> 1.020937e+02
<TRANSP> 5
 0.000000e+00 1.000000e+00 0.000000e+00 0.000000e+00 0.000000e+00
 0.000000e+00 6.000000e-01 4.000000e-01 0.000000e+00 0.000000e+00
 0.000000e+00 0.000000e+00 6.000000e-01 4.000000e-01 0.000000e+00
 0.000000e+00 0.000000e+00 0.000000e+00 7.000000e-01 3.000000e-01
 0.000000e+00 0.000000e+00 0.000000e+00 0.000000e+00 0.000000e+00
<ENDHMM>
~h "ow"
<BEGINHMM>
<NUMSTATES> 5
<STATE> 2
<MEAN> 25
 1.417616e-07 -1.344591e-08 6.744688e-09 3.520858e-08 1.539470e-08 -2.960128e-08 -2.596451e-08 -3.361477e-08 -1.956032e-08 2.204521e-08 1.919085e-08 1.169997e-08 -6.469213e-03 7.915574e-03 7.846633e-03 7.105639e-03 8.445180e-03 -3.366752e-04 -1.303187e-03 -7.868514e-03 -5.922113e-03 3.942743e-04 1.563429e-03 4.659003e-03 -2.882905e-03
<VARIANCE> 25
 5.294691e+01 4.963992e+01 4.432232e+01 7.569560e+01 6.260971e+01 5.816381e+01 3.991302e+01 5.058298e+01 4.723607e+01 3.758217e+01 2.628475e+01 3.142200e+01 1.848056e+00 1.592366e+00 1.743356e+00 2.282314e+00 2.269823e+00 2.684780e+00 2.440277e+00 2.933924e+00 2.493926e+00 2.308038e+00 2.002368e+00 1.925660e+00 2.247548e+00
<GCONST> 1.020937e+02
<STATE> 3
<MEAN> 25
 1.417616e-07 -1.344591e-08 6.744688e-09 3.520858e-08 1.539470e-08 -2.960128e-08 -2.596451e-08 -3.361477e-08 -1.956032e-08 2.204521e-08 1.919085e-08 1.169997e-08 -6.469213e-03 7.915574e-03 7.846633e-03 7.105639e-03 8.445180e-03 -3.366752e-04 -1.303187e-03 -7.868514e-03 -5.922113e-03 3.942743e-04 1.563429e-03 4.659003e-03 -2.882905e-03
<VARIANCE> 25
 5.294691e+01 4.963992e+01 4.432232e+01 7.569560e+01 6.260971e+01 5.816381e+01 3.991302e+01 5.058298e+01 4.723607e+01 3.758217e+01 2.628475e+01 3.142200e+01 1.848056e+00 1.592366e+00 1.743356e+00 2.282314e+00 2.269823e+00 2.684780e+00 2.440277e+00 2.933924e+00 2.493926e+00 2.308038e+00 2.002368e+00 1.925660e+00 2.247548e+00
<GCONST> 1.020937e+02
<STATE> 4
<MEAN> 25
 1.417616e-07 -1.344591e-08 6.744688e-09 3.520858e-08 1.539470e-08 -2.960128e-08 -2.596451e-08 -3.361477e-08 -1.956032e-08 2.204521e-08 1.919085e-08 1.169997e-08 -6.469213e-03 7.915574e-03 7.846633e-03 7.105639e-03 8.445180e-03 -3.366752e-04 -1.303187e-03 -7.868514e-03 -5.922113e-03 3.942743e-04 1.563429e-03 4.659003e-03 -2.882905e-03
<VARIANCE> 25
 5.294691e+01 4.963992e+01 4.432232e+01 7.569560e+01 6.260971e+01 5.816381e+01 3.991302e+01 5.058298e+01 4.723607e+01 3.758217e+01 2.628475e+01 3.142200e+01 1.848056e+00 1.592366e+00 1.743356e+00 2.282314e+00 2.269823e+00 2.684780e+00 2.440277e+00 2.933924e+00 2.493926e+00 2.308038e+00 2.002368e+00 1.925660e+00 2.247548e+00
<GCONST> 1.020937e+02
<TRANSP> 5
 0.000000e+00 1.000000e+00 0.000000e+00 0.000000e+00 0.000000e+00
 0.000000e+00 6.000000e-01 4.000000e-01 0.000000e+00 0.000000e+00
 0.000000e+00 0.000000e+00 6.000000e-01 4.000000e-01 0.000000e+00
 0.000000e+00 0.000000e+00 0.000000e+00 7.000000e-01 3.000000e-01
 0.000000e+00 0.000000e+00 0.000000e+00 0.000000e+00 0.000000e+00
<ENDHMM>
~h "n"
<BEGINHMM>
<NUMSTATES> 5
<STATE> 2
<MEAN> 25
 1.417616e-07 -1.344591e-08 6.744688e-09 3.520858e-08 1.539470e-08 -2.960128e-08 -2.596451e-08 -3.361477e-08 -1.956032e-08 2.204521e-08 1.919085e-08 1.169997e-08 -6.469213e-03 7.915574e-03 7.846633e-03 7.105639e-03 8.445180e-03 -3.366752e-04 -1.303187e-03 -7.868514e-03 -5.922113e-03 3.942743e-04 1.563429e-03 4.659003e-03 -2.882905e-03
<VARIANCE> 25
 5.294691e+01 4.963992e+01 4.432232e+01 7.569560e+01 6.260971e+01 5.816381e+01 3.991302e+01 5.058298e+01 4.723607e+01 3.758217e+01 2.628475e+01 3.142200e+01 1.848056e+00 1.592366e+00 1.743356e+00 2.282314e+00 2.269823e+00 2.684780e+00 2.440277e+00 2.933924e+00 2.493926e+00 2.308038e+00 2.002368e+00 1.925660e+00 2.247548e+00
<GCONST> 1.020937e+02
<STATE> 3
<MEAN> 25
 1.417616e-07 -1.344591e-08 6.744688e-09 3.520858e-08 1.539470e-08 -2.960128e-08 -2.596451e-08 -3.361477e-08 -1.956032e-08 2.204521e-08 1.919085e-08 1.169997e-08 -6.469213e-03 7.915574e-03 7.846633e-03 7.105639e-03 8.445180e-03 -3.366752e-04 -1.303187e-03 -7.868514e-03 -5.922113e-03 3.942743e-04 1.563429e-03 4.659003e-03 -2.882905e-03
<VARIANCE> 25
 5.294691e+01 4.963992e+01 4.432232e+01 7.569560e+01 6.260971e+01 5.816381e+01 3.991302e+01 5.058298e+01 4.723607e+01 3.758217e+01 2.628475e+01 3.142200e+01 1.848056e+00 1.592366e+00 1.743356e+00 2.282314e+00 2.269823e+00 2.684780e+00 2.440277e+00 2.933924e+00 2.493926e+00 2.308038e+00 2.002368e+00 1.925660e+00 2.247548e+00
<GCONST> 1.020937e+02
<STATE> 4
<MEAN> 25
 1.417616e-07 -1.344591e-08 6.744688e-09 3.520858e-08 1.539470e-08 -2.960128e-08 -2.596451e-08 -3.361477e-08 -1.956032e-08 2.204521e-08 1.919085e-08 1.169997e-08 -6.469213e-03 7.915574e-03 7.846633e-03 7.105639e-03 8.445180e-03 -3.366752e-04 -1.303187e-03 -7.868514e-03 -5.922113e-03 3.942743e-04 1.563429e-03 4.659003e-03 -2.882905e-03
<VARIANCE> 25
 5.294691e+01 4.963992e+01 4.432232e+01 7.569560e+01 6.260971e+01 5.816381e+01 3.991302e+01 5.058298e+01 4.723607e+01 3.758217e+01 2.628475e+01 3.142200e+01 1.848056e+00 1.592366e+00 1.743356e+00 2.282314e+00 2.269823e+00 2.684780e+00 2.440277e+00 2.933924e+00 2.493926e+00 2.308038e+00 2.002368e+00 1.925660e+00 2.247548e+00
<GCONST> 1.020937e+02
<TRANSP> 5
 0.000000e+00 1.000000e+00 0.000000e+00 0.000000e+00 0.000000e+00
 0.000000e+00 6.000000e-01 4.000000e-01 0.000000e+00 0.000000e+00
 0.000000e+00 0.000000e+00 6.000000e-01 4.000000e-01 0.000000e+00
 0.000000e+00 0.000000e+00 0.000000e+00 7.000000e-01 3.000000e-01
 0.000000e+00 0.000000e+00 0.000000e+00 0.000000e+00 0.000000e+00
<ENDHMM>
~h "d"
<BEGINHMM>
<NUMSTATES> 5
<STATE> 2
<MEAN> 25
 1.417616e-07 -1.344591e-08 6.744688e-09 3.520858e-08 1.539470e-08 -2.960128e-08 -2.596451e-08 -3.361477e-08 -1.956032e-08 2.204521e-08 1.919085e-08 1.169997e-08 -6.469213e-03 7.915574e-03 7.846633e-03 7.105639e-03 8.445180e-03 -3.366752e-04 -1.303187e-03 -7.868514e-03 -5.922113e-03 3.942743e-04 1.563429e-03 4.659003e-03 -2.882905e-03
<VARIANCE> 25
 5.294691e+01 4.963992e+01 4.432232e+01 7.569560e+01 6.260971e+01 5.816381e+01 3.991302e+01 5.058298e+01 4.723607e+01 3.758217e+01 2.628475e+01 3.142200e+01 1.848056e+00 1.592366e+00 1.743356e+00 2.282314e+00 2.269823e+00 2.684780e+00 2.440277e+00 2.933924e+00 2.493926e+00 2.308038e+00 2.002368e+00 1.925660e+00 2.247548e+00
<GCONST> 1.020937e+02
<STATE> 3
<MEAN> 25
 1.417616e-07 -1.344591e-08 6.744688e-09 3.520858e-08 1.539470e-08 -2.960128e-08 -2.596451e-08 -3.361477e-08 -1.956032e-08 2.204521e-08 1.919085e-08 1.169997e-08 -6.469213e-03 7.915574e-03 7.846633e-03 7.105639e-03 8.445180e-03 -3.366752e-04 -1.303187e-03 -7.868514e-03 -5.922113e-03 3.942743e-04 1.563429e-03 4.659003e-03 -2.882905e-03
<VARIANCE> 25
 5.294691e+01 4.963992e+01 4.432232e+01 7.569560e+01 6.260971e+01 5.816381e+01 3.991302e+01 5.058298e+01 4.723607e+01 3.758217e+01 2.628475e+01 3.142200e+01 1.848056e+00 1.592366e+00 1.743356e+00 2.282314e+00 2.269823e+00 2.684780e+00 2.440277e+00 2.933924e+00 2.493926e+00 2.308038e+00 2.002368e+00 1.925660e+00 2.247548e+00
<GCONST> 1.020937e+02
<STATE> 4
<MEAN> 25
 1.417616e-07 -1.344591e-08 6.744688e-09 3.520858e-08 1.539470e-08 -2.960128e-08 -2.596451e-08 -3.361477e-08 -1.956032e-08 2.204521e-08 1.919085e-08 1.169997e-08 -6.469213e-03 7.915574e-03 7.846633e-03 7.105639e-03 8.445180e-03 -3.366752e-04 -1.303187e-03 -7.868514e-03 -5.922113e-03 3.942743e-04 1.563429e-03 4.659003e-03 -2.882905e-03
<VARIANCE> 25
 5.294691e+01 4.963992e+01 4.432232e+01 7.569560e+01 6.260971e+01 5.816381e+01 3.991302e+01 5.058298e+01 4.723607e+01 3.758217e+01 2.628475e+01 3.142200e+01 1.848056e+00 1.592366e+00 1.743356e+00 2.282314e+00 2.269823e+00 2.684780e+00 2.440277e+00 2.933924e+00 2.493926e+00 2.308038e+00 2.002368e+00 1.925660e+00 2.247548e+00
<GCONST> 1.020937e+02
<TRANSP> 5
 0.000000e+00 1.000000e+00 0.000000e+00 0.000000e+00 0.000000e+00
 0.000000e+00 6.000000e-01 4.000000e-01 0.000000e+00 0.000000e+00
 0.000000e+00 0.000000e+00 6.000000e-01 4.000000e-01 0.000000e+00
 0.000000e+00 0.000000e+00 0.000000e+00 7.000000e-01 3.000000e-01
 0.000000e+00 0.000000e+00 0.000000e+00 0.000000e+00 0.000000e+00
<ENDHMM>
~h "aa"
<BEGINHMM>
<NUMSTATES> 5
<STATE> 2
<MEAN> 25
 1.417616e-07 -1.344591e-08 6.744688e-09 3.520858e-08 1.539470e-08 -2.960128e-08 -2.596451e-08 -3.361477e-08 -1.956032e-08 2.204521e-08 1.919085e-08 1.169997e-08 -6.469213e-03 7.915574e-03 7.846633e-03 7.105639e-03 8.445180e-03 -3.366752e-04 -1.303187e-03 -7.868514e-03 -5.922113e-03 3.942743e-04 1.563429e-03 4.659003e-03 -2.882905e-03
<VARIANCE> 25
 5.294691e+01 4.963992e+01 4.432232e+01 7.569560e+01 6.260971e+01 5.816381e+01 3.991302e+01 5.058298e+01 4.723607e+01 3.758217e+01 2.628475e+01 3.142200e+01 1.848056e+00 1.592366e+00 1.743356e+00 2.282314e+00 2.269823e+00 2.684780e+00 2.440277e+00 2.933924e+00 2.493926e+00 2.308038e+00 2.002368e+00 1.925660e+00 2.247548e+00
<GCONST> 1.020937e+02
<STATE> 3
<MEAN> 25
 1.417616e-07 -1.344591e-08 6.744688e-09 3.520858e-08 1.539470e-08 -2.960128e-08 -2.596451e-08 -3.361477e-08 -1.956032e-08 2.204521e-08 1.919085e-08 1.169997e-08 -6.469213e-03 7.915574e-03 7.846633e-03 7.105639e-03 8.445180e-03 -3.366752e-04 -1.303187e-03 -7.868514e-03 -5.922113e-03 3.942743e-04 1.563429e-03 4.659003e-03 -2.882905e-03
<VARIANCE> 25
 5.294691e+01 4.963992e+01 4.432232e+01 7.569560e+01 6.260971e+01 5.816381e+01 3.991302e+01 5.058298e+01 4.723607e+01 3.758217e+01 2.628475e+01 3.142200e+01 1.848056e+00 1.592366e+00 1.743356e+00 2.282314e+00 2.269823e+00 2.684780e+00 2.440277e+00 2.933924e+00 2.493926e+00 2.308038e+00 2.002368e+00 1.925660e+00 2.247548e+00
<GCONST> 1.020937e+02
<STATE> 4
<MEAN> 25
 1.417616e-07 -1.344591e-08 6.744688e-09 3.520858e-08 1.539470e-08 -2.960128e-08 -2.596451e-08 -3.361477e-08 -1.956032e-08 2.204521e-08 1.919085e-08 1.169997e-08 -6.469213e-03 7.915574e-03 7.846633e-03 7.105639e-03 8.445180e-03 -3.366752e-04 -1.303187e-03 -7.868514e-03 -5.922113e-03 3.942743e-04 1.563429e-03 4.659003e-03 -2.882905e-03
<VARIANCE> 25
 5.294691e+01 4.963992e+01 4.432232e+01 7.569560e+01 6.260971e+01 5.816381e+01 3.991302e+01 5.058298e+01 4.723607e+01 3.758217e+01 2.628475e+01 3.142200e+01 1.848056e+00 1.592366e+00 1.743356e+00 2.282314e+00 2.269823e+00 2.684780e+00 2.440277e+00 2.933924e+00 2.493926e+00 2.308038e+00 2.002368e+00 1.925660e+00 2.247548e+00
<GCONST> 1.020937e+02
<TRANSP> 5
 0.000000e+00 1.000000e+00 0.000000e+00 0.000000e+00 0.000000e+00
 0.000000e+00 6.000000e-01 4.000000e-01 0.000000e+00 0.000000e+00
 0.000000e+00 0.000000e+00 6.000000e-01 4.000000e-01 0.000000e+00
 0.000000e+00 0.000000e+00 0.000000e+00 7.000000e-01 3.000000e-01
 0.000000e+00 0.000000e+00 0.000000e+00 0.000000e+00 0.000000e+00
<ENDHMM>
~h "m"
<BEGINHMM>
<NUMSTATES> 5
<STATE> 2
<MEAN> 25
 1.417616e-07 -1.344591e-08 6.744688e-09 3.520858e-08 1.539470e-08 -2.960128e-08 -2.596451e-08 -3.361477e-08 -1.956032e-08 2.204521e-08 1.919085e-08 1.169997e-08 -6.469213e-03 7.915574e-03 7.846633e-03 7.105639e-03 8.445180e-03 -3.366752e-04 -1.303187e-03 -7.868514e-03 -5.922113e-03 3.942743e-04 1.563429e-03 4.659003e-03 -2.882905e-03
<VARIANCE> 25
 5.294691e+01 4.963992e+01 4.432232e+01 7.569560e+01 6.260971e+01 5.816381e+01 3.991302e+01 5.058298e+01 4.723607e+01 3.758217e+01 2.628475e+01 3.142200e+01 1.848056e+00 1.592366e+00 1.743356e+00 2.282314e+00 2.269823e+00 2.684780e+00 2.440277e+00 2.933924e+00 2.493926e+00 2.308038e+00 2.002368e+00 1.925660e+00 2.247548e+00
<GCONST> 1.020937e+02
<STATE> 3
<MEAN> 25
 1.417616e-07 -1.344591e-08 6.744688e-09 3.520858e-08 1.539470e-08 -2.960128e-08 -2.596451e-08 -3.361477e-08 -1.956032e-08 2.204521e-08 1.919085e-08 1.169997e-08 -6.469213e-03 7.915574e-03 7.846633e-03 7.105639e-03 8.445180e-03 -3.366752e-04 -1.303187e-03 -7.868514e-03 -5.922113e-03 3.942743e-04 1.563429e-03 4.659003e-03 -2.882905e-03
<VARIANCE> 25
 5.294691e+01 4.963992e+01 4.432232e+01 7.569560e+01 6.260971e+01 5.816381e+01 3.991302e+01 5.058298e+01 4.723607e+01 3.758217e+01 2.628475e+01 3.142200e+01 1.848056e+00 1.592366e+00 1.743356e+00 2.282314e+00 2.269823e+00 2.684780e+00 2.440277e+00 2.933924e+00 2.493926e+00 2.308038e+00 2.002368e+00 1.925660e+00 2.247548e+00
<GCONST> 1.020937e+02
<STATE> 4
<MEAN> 25
 1.417616e-07 -1.344591e-08 6.744688e-09 3.520858e-08 1.539470e-08 -2.960128e-08 -2.596451e-08 -3.361477e-08 -1.956032e-08 2.204521e-08 1.919085e-08 1.169997e-08 -6.469213e-03 7.915574e-03 7.846633e-03 7.105639e-03 8.445180e-03 -3.366752e-04 -1.303187e-03 -7.868514e-03 -5.922113e-03 3.942743e-04 1.563429e-03 4.659003e-03 -2.882905e-03
<VARIANCE> 25
 5.294691e+01 4.963992e+01 4.432232e+01 7.569560e+01 6.260971e+01 5.816381e+01 3.991302e+01 5.058298e+01 4.723607e+01 3.758217e+01 2.628475e+01 3.142200e+01 1.848056e+00 1.592366e+00 1.743356e+00 2.282314e+00 2.269823e+00 2.684780e+00 2.440277e+00 2.933924e+00 2.493926e+00 2.308038e+00 2.002368e+00 1.925660e+00 2.247548e+00
<GCONST> 1.020937e+02
<TRANSP> 5
 0.000000e+00 1.000000e+00 0.000000e+00 0.000000e+00 0.000000e+00
 0.000000e+00 6.000000e-01 4.000000e-01 0.000000e+00 0.000000e+00
 0.000000e+00 0.000000e+00 6.000000e-01 4.000000e-01 0.000000e+00
 0.000000e+00 0.000000e+00 0.000000e+00 7.000000e-01 3.000000e-01
 0.000000e+00 0.000000e+00 0.000000e+00 0.000000e+00 0.000000e+00
<ENDHMM>
~h "z"
<BEGINHMM>
<NUMSTATES> 5
<STATE> 2
<MEAN> 25
 1.417616e-07 -1.344591e-08 6.744688e-09 3.520858e-08 1.539470e-08 -2.960128e-08 -2.596451e-08 -3.361477e-08 -1.956032e-08 2.204521e-08 1.919085e-08 1.169997e-08 -6.469213e-03 7.915574e-03 7.846633e-03 7.105639e-03 8.445180e-03 -3.366752e-04 -1.303187e-03 -7.868514e-03 -5.922113e-03 3.942743e-04 1.563429e-03 4.659003e-03 -2.882905e-03
<VARIANCE> 25
 5.294691e+01 4.963992e+01 4.432232e+01 7.569560e+01 6.260971e+01 5.816381e+01 3.991302e+01 5.058298e+01 4.723607e+01 3.758217e+01 2.628475e+01 3.142200e+01 1.848056e+00 1.592366e+00 1.743356e+00 2.282314e+00 2.269823e+00 2.684780e+00 2.440277e+00 2.933924e+00 2.493926e+00 2.308038e+00 2.002368e+00 1.925660e+00 2.247548e+00
<GCONST> 1.020937e+02
<STATE> 3
<MEAN> 25
 1.417616e-07 -1.344591e-08 6.744688e-09 3.520858e-08 1.539470e-08 -2.960128e-08 -2.596451e-08 -3.361477e-08 -1.956032e-08 2.204521e-08 1.919085e-08 1.169997e-08 -6.469213e-03 7.915574e-03 7.846633e-03 7.105639e-03 8.445180e-03 -3.366752e-04 -1.303187e-03 -7.868514e-03 -5.922113e-03 3.942743e-04 1.563429e-03 4.659003e-03 -2.882905e-03
<VARIANCE> 25
 5.294691e+01 4.963992e+01 4.432232e+01 7.569560e+01 6.260971e+01 5.816381e+01 3.991302e+01 5.058298e+01 4.723607e+01 3.758217e+01 2.628475e+01 3.142200e+01 1.848056e+00 1.592366e+00 1.743356e+00 2.282314e+00 2.269823e+00 2.684780e+00 2.440277e+00 2.933924e+00 2.493926e+00 2.308038e+00 2.002368e+00 1.925660e+00 2.247548e+00
<GCONST> 1.020937e+02
<STATE> 4
<MEAN> 25
 1.417616e-07 -1.344591e-08 6.744688e-09 3.520858e-08 1.539470e-08 -2.960128e-08 -2.596451e-08 -3.361477e-08 -1.956032e-08 2.204521e-08 1.919085e-08 1.169997e-08 -6.469213e-03 7.915574e-03 7.846633e-03 7.105639e-03 8.445180e-03 -3.366752e-04 -1.303187e-03 -7.868514e-03 -5.922113e-03 3.942743e-04 1.563429e-03 4.659003e-03 -2.882905e-03
<VARIANCE> 25
 5.294691e+01 4.963992e+01 4.432232e+01 7.569560e+01 6.260971e+01 5.816381e+01 3.991302e+01 5.058298e+01 4.723607e+01 3.758217e+01 2.628475e+01 3.142200e+01 1.848056e+00 1.592366e+00 1.743356e+00 2.282314e+00 2.269823e+00 2.684780e+00 2.440277e+00 2.933924e+00 2.493926e+00 2.308038e+00 2.002368e+00 1.925660e+00 2.247548e+00
<GCONST> 1.020937e+02
<TRANSP> 5
 0.000000e+00 1.000000e+00 0.000000e+00 0.000000e+00 0.000000e+00
 0.000000e+00 6.000000e-01 4.000000e-01 0.000000e+00 0.000000e+00
 0.000000e+00 0.000000e+00 6.000000e-01 4.000000e-01 0.000000e+00
 0.000000e+00 0.000000e+00 0.000000e+00 7.000000e-01 3.000000e-01
 0.000000e+00 0.000000e+00 0.000000e+00 0.000000e+00 0.000000e+00
<ENDHMM>
~h "ih"
<BEGINHMM>
<NUMSTATES> 5
<STATE> 2
<MEAN> 25
 1.417616e-07 -1.344591e-08 6.744688e-09 3.520858e-08 1.539470e-08 -2.960128e-08 -2.596451e-08 -3.361477e-08 -1.956032e-08 2.204521e-08 1.919085e-08 1.169997e-08 -6.469213e-03 7.915574e-03 7.846633e-03 7.105639e-03 8.445180e-03 -3.366752e-04 -1.303187e-03 -7.868514e-03 -5.922113e-03 3.942743e-04 1.563429e-03 4.659003e-03 -2.882905e-03
<VARIANCE> 25
 5.294691e+01 4.963992e+01 4.432232e+01 7.569560e+01 6.260971e+01 5.816381e+01 3.991302e+01 5.058298e+01 4.723607e+01 3.758217e+01 2.628475e+01 3.142200e+01 1.848056e+00 1.592366e+00 1.743356e+00 2.282314e+00 2.269823e+00 2.684780e+00 2.440277e+00 2.933924e+00 2.493926e+00 2.308038e+00 2.002368e+00 1.925660e+00 2.247548e+00
<GCONST> 1.020937e+02
<STATE> 3
<MEAN> 25
 1.417616e-07 -1.344591e-08 6.744688e-09 3.520858e-08 1.539470e-08 -2.960128e-08 -2.596451e-08 -3.361477e-08 -1.956032e-08 2.204521e-08 1.919085e-08 1.169997e-08 -6.469213e-03 7.915574e-03 7.846633e-03 7.105639e-03 8.445180e-03 -3.366752e-04 -1.303187e-03 -7.868514e-03 -5.922113e-03 3.942743e-04 1.563429e-03 4.659003e-03 -2.882905e-03
<VARIANCE> 25
 5.294691e+01 4.963992e+01 4.432232e+01 7.569560e+01 6.260971e+01 5.816381e+01 3.991302e+01 5.058298e+01 4.723607e+01 3.758217e+01 2.628475e+01 3.142200e+01 1.848056e+00 1.592366e+00 1.743356e+00 2.282314e+00 2.269823e+00 2.684780e+00 2.440277e+00 2.933924e+00 2.493926e+00 2.308038e+00 2.002368e+00 1.925660e+00 2.247548e+00
<GCONST> 1.020937e+02
<STATE> 4
<MEAN> 25
 1.417616e-07 -1.344591e-08 6.744688e-09 3.520858e-08 1.539470e-08 -2.960128e-08 -2.596451e-08 -3.361477e-08 -1.956032e-08 2.204521e-08 1.919085e-08 1.169997e-08 -6.469213e-03 7.915574e-03 7.846633e-03 7.105639e-03 8.445180e-03 -3.366752e-04 -1.303187e-03 -7.868514e-03 -5.922113e-03 3.942743e-04 1.563429e-03 4.659003e-03 -2.882905e-03
<VARIANCE> 25
 5.294691e+01 4.963992e+01 4.432232e+01 7.569560e+01 6.260971e+01 5.816381e+01 3.991302e+01 5.058298e+01 4.723607e+01 3.758217e+01 2.628475e+01 3.142200e+01 1.848056e+00 1.592366e+00 1.743356e+00 2.282314e+00 2.269823e+00 2.684780e+00 2.440277e+00 2.933924e+00 2.493926e+00 2.308038e+00 2.002368e+00 1.925660e+00 2.247548e+00
<GCONST> 1.020937e+02
<TRANSP> 5
 0.000000e+00 1.000000e+00 0.000000e+00 0.000000e+00 0.000000e+00
 0.000000e+00 6.000000e-01 4.000000e-01 0.000000e+00 0.000000e+00
 0.000000e+00 0.000000e+00 6.000000e-01 4.000000e-01 0.000000e+00
 0.000000e+00 0.000000e+00 0.000000e+00 7.000000e-01 3.000000e-01
 0.000000e+00 0.000000e+00 0.000000e+00 0.000000e+00 0.000000e+00
<ENDHMM>
~h "sh"
<BEGINHMM>
<NUMSTATES> 5
<STATE> 2
<MEAN> 25
 1.417616e-07 -1.344591e-08 6.744688e-09 3.520858e-08 1.539470e-08 -2.960128e-08 -2.596451e-08 -3.361477e-08 -1.956032e-08 2.204521e-08 1.919085e-08 1.169997e-08 -6.469213e-03 7.915574e-03 7.846633e-03 7.105639e-03 8.445180e-03 -3.366752e-04 -1.303187e-03 -7.868514e-03 -5.922113e-03 3.942743e-04 1.563429e-03 4.659003e-03 -2.882905e-03
<VARIANCE> 25
 5.294691e+01 4.963992e+01 4.432232e+01 7.569560e+01 6.260971e+01 5.816381e+01 3.991302e+01 5.058298e+01 4.723607e+01 3.758217e+01 2.628475e+01 3.142200e+01 1.848056e+00 1.592366e+00 1.743356e+00 2.282314e+00 2.269823e+00 2.684780e+00 2.440277e+00 2.933924e+00 2.493926e+00 2.308038e+00 2.002368e+00 1.925660e+00 2.247548e+00
<GCONST> 1.020937e+02
<STATE> 3
<MEAN> 25
 1.417616e-07 -1.344591e-08 6.744688e-09 3.520858e-08 1.539470e-08 -2.960128e-08 -2.596451e-08 -3.361477e-08 -1.956032e-08 2.204521e-08 1.919085e-08 1.169997e-08 -6.469213e-03 7.915574e-03 7.846633e-03 7.105639e-03 8.445180e-03 -3.366752e-04 -1.303187e-03 -7.868514e-03 -5.922113e-03 3.942743e-04 1.563429e-03 4.659003e-03 -2.882905e-03
<VARIANCE> 25
 5.294691e+01 4.963992e+01 4.432232e+01 7.569560e+01 6.260971e+01 5.816381e+01 3.991302e+01 5.058298e+01 4.723607e+01 3.758217e+01 2.628475e+01 3.142200e+01 1.848056e+00 1.592366e+00 1.743356e+00 2.282314e+00 2.269823e+00 2.684780e+00 2.440277e+00 2.933924e+00 2.493926e+00 2.308038e+00 2.002368e+00 1.925660e+00 2.247548e+00
<GCONST> 1.020937e+02
<STATE> 4
<MEAN> 25
 1.417616e-07 -1.344591e-08 6.744688e-09 3.520858e-08 1.539470e-08 -2.960128e-08 -2.596451e-08 -3.361477e-08 -1.956032e-08 2.204521e-08 1.919085e-08 1.169997e-08 -6.469213e-03 7.915574e-03 7.846633e-03 7.105639e-03 8.445180e-03 -3.366752e-04 -1.303187e-03 -7.868514e-03 -5.922113e-03 3.942743e-04 1.563429e-03 4.659003e-03 -2.882905e-03
<VARIANCE> 25
 5.294691e+01 4.963992e+01 4.432232e+01 7.569560e+01 6.260971e+01 5.816381e+01 3.991302e+01 5.058298e+01 4.723607e+01 3.758217e+01 2.628475e+01 3.142200e+01 1.848056e+00 1.592366e+00 1.743356e+00 2.282314e+00 2.269823e+00 2.684780e+00 2.440277e+00 2.933924e+00 2.493926e+00 2.308038e+00 2.002368e+00 1.925660e+00 2.247548e+00
<GCONST> 1.020937e+02
<TRANSP> 5
 0.000000e+00 1.000000e+00 0.000000e+00 0.000000e+00 0.000000e+00
 0.000000e+00 6.000000e-01 4.000000e-01 0.000000e+00 0.000000e+00
 0.000000e+00 0.000000e+00 6.000000e-01 4.000000e-01 0.000000e+00
 0.000000e+00 0.000000e+00 0.000000e+00 7.000000e-01 3.000000e-01
 0.000000e+00 0.000000e+00 0.000000e+00 0.000000e+00 0.000000e+00
<ENDHMM>
~h "aw"
<BEGINHMM>
<NUMSTATES> 5
<STATE> 2
<MEAN> 25
 1.417616e-07 -1.344591e-08 6.744688e-09 3.520858e-08 1.539470e-08 -2.960128e-08 -2.596451e-08 -3.361477e-08 -1.956032e-08 2.204521e-08 1.919085e-08 1.169997e-08 -6.469213e-03 7.915574e-03 7.846633e-03 7.105639e-03 8.445180e-03 -3.366752e-04 -1.303187e-03 -7.868514e-03 -5.922113e-03 3.942743e-04 1.563429e-03 4.659003e-03 -2.882905e-03
<VARIANCE> 25
 5.294691e+01 4.963992e+01 4.432232e+01 7.569560e+01 6.260971e+01 5.816381e+01 3.991302e+01 5.058298e+01 4.723607e+01 3.758217e+01 2.628475e+01 3.142200e+01 1.848056e+00 1.592366e+00 1.743356e+00 2.282314e+00 2.269823e+00 2.684780e+00 2.440277e+00 2.933924e+00 2.493926e+00 2.308038e+00 2.002368e+00 1.925660e+00 2.247548e+00
<GCONST> 1.020937e+02
<STATE> 3
<MEAN> 25
 1.417616e-07 -1.344591e-08 6.744688e-09 3.520858e-08 1.539470e-08 -2.960128e-08 -2.596451e-08 -3.361477e-08 -1.956032e-08 2.204521e-08 1.919085e-08 1.169997e-08 -6.469213e-03 7.915574e-03 7.846633e-03 7.105639e-03 8.445180e-03 -3.366752e-04 -1.303187e-03 -7.868514e-03 -5.922113e-03 3.942743e-04 1.563429e-03 4.659003e-03 -2.882905e-03
<VARIANCE> 25
 5.294691e+01 4.963992e+01 4.432232e+01 7.569560e+01 6.260971e+01 5.816381e+01 3.991302e+01 5.058298e+01 4.723607e+01 3.758217e+01 2.628475e+01 3.142200e+01 1.848056e+00 1.592366e+00 1.743356e+00 2.282314e+00 2.269823e+00 2.684780e+00 2.440277e+00 2.933924e+00 2.493926e+00 2.308038e+00 2.002368e+00 1.925660e+00 2.247548e+00
<GCONST> 1.020937e+02
<STATE> 4
<MEAN> 25
 1.417616e-07 -1.344591e-08 6.744688e-09 3.520858e-08 1.539470e-08 -2.960128e-08 -2.596451e-08 -3.361477e-08 -1.956032e-08 2.204521e-08 1.919085e-08 1.169997e-08 -6.469213e-03 7.915574e-03 7.846633e-03 7.105639e-03 8.445180e-03 -3.366752e-04 -1.303187e-03 -7.868514e-03 -5.922113e-03 3.942743e-04 1.563429e-03 4.659003e-03 -2.882905e-03
<VARIANCE> 25
 5.294691e+01 4.963992e+01 4.432232e+01 7.569560e+01 6.260971e+01 5.816381e+01 3.991302e+01 5.058298e+01 4.723607e+01 3.758217e+01 2.628475e+01 3.142200e+01 1.848056e+00 1.592366e+00 1.743356e+00 2.282314e+00 2.269823e+00 2.684780e+00 2.440277e+00 2.933924e+00 2.493926e+00 2.308038e+00 2.002368e+00 1.925660e+00 2.247548e+00
<GCONST> 1.020937e+02
<TRANSP> 5
 0.000000e+00 1.000000e+00 0.000000e+00 0.000000e+00 0.000000e+00
 0.000000e+00 6.000000e-01 4.000000e-01 0.000000e+00 0.000000e+00
 0.000000e+00 0.000000e+00 6.000000e-01 4.000000e-01 0.000000e+00
 0.000000e+00 0.000000e+00 0.000000e+00 7.000000e-01 3.000000e-01
 0.000000e+00 0.000000e+00 0.000000e+00 0.000000e+00 0.000000e+00
<ENDHMM>
~h "ng"
<BEGINHMM>
<NUMSTATES> 5
<STATE> 2
<MEAN> 25
 1.417616e-07 -1.344591e-08 6.744688e-09 3.520858e-08 1.539470e-08 -2.960128e-08 -2.596451e-08 -3.361477e-08 -1.956032e-08 2.204521e-08 1.919085e-08 1.169997e-08 -6.469213e-03 7.915574e-03 7.846633e-03 7.105639e-03 8.445180e-03 -3.366752e-04 -1.303187e-03 -7.868514e-03 -5.922113e-03 3.942743e-04 1.563429e-03 4.659003e-03 -2.882905e-03
<VARIANCE> 25
 5.294691e+01 4.963992e+01 4.432232e+01 7.569560e+01 6.260971e+01 5.816381e+01 3.991302e+01 5.058298e+01 4.723607e+01 3.758217e+01 2.628475e+01 3.142200e+01 1.848056e+00 1.592366e+00 1.743356e+00 2.282314e+00 2.269823e+00 2.684780e+00 2.440277e+00 2.933924e+00 2.493926e+00 2.308038e+00 2.002368e+00 1.925660e+00 2.247548e+00
<GCONST> 1.020937e+02
<STATE> 3
<MEAN> 25
 1.417616e-07 -1.344591e-08 6.744688e-09 3.520858e-08 1.539470e-08 -2.960128e-08 -2.596451e-08 -3.361477e-08 -1.956032e-08 2.204521e-08 1.919085e-08 1.169997e-08 -6.469213e-03 7.915574e-03 7.846633e-03 7.105639e-03 8.445180e-03 -3.366752e-04 -1.303187e-03 -7.868514e-03 -5.922113e-03 3.942743e-04 1.563429e-03 4.659003e-03 -2.882905e-03
<VARIANCE> 25
 5.294691e+01 4.963992e+01 4.432232e+01 7.569560e+01 6.260971e+01 5.816381e+01 3.991302e+01 5.058298e+01 4.723607e+01 3.758217e+01 2.628475e+01 3.142200e+01 1.848056e+00 1.592366e+00 1.743356e+00 2.282314e+00 2.269823e+00 2.684780e+00 2.440277e+00 2.933924e+00 2.493926e+00 2.308038e+00 2.002368e+00 1.925660e+00 2.247548e+00
<GCONST> 1.020937e+02
<STATE> 4
<MEAN> 25
 1.417616e-07 -1.344591e-08 6.744688e-09 3.520858e-08 1.539470e-08 -2.960128e-08 -2.596451e-08 -3.361477e-08 -1.956032e-08 2.204521e-08 1.919085e-08 1.169997e-08 -6.469213e-03 7.915574e-03 7.846633e-03 7.105639e-03 8.445180e-03 -3.366752e-04 -1.303187e-03 -7.868514e-03 -5.922113e-03 3.942743e-04 1.563429e-03 4.659003e-03 -2.882905e-03
<VARIANCE> 25
 5.294691e+01 4.963992e+01 4.432232e+01 7.569560e+01 6.260971e+01 5.816381e+01 3.991302e+01 5.058298e+01 4.723607e+01 3.758217e+01 2.628475e+01 3.142200e+01 1.848056e+00 1.592366e+00 1.743356e+00 2.282314e+00 2.269823e+00 2.684780e+00 2.440277e+00 2.933924e+00 2.493926e+00 2.308038e+00 2.002368e+00 1.925660e+00 2.247548e+00
<GCONST> 1.020937e+02
<TRANSP> 5
 0.000000e+00 1.000000e+00 0.000000e+00 0.000000e+00 0.000000e+00
 0.000000e+00 6.000000e-01 4.000000e-01 0.000000e+00 0.000000e+00
 0.000000e+00 0.000000e+00 6.000000e-01 4.000000e-01 0.000000e+00
 0.000000e+00 0.000000e+00 0.000000e+00 7.000000e-01 3.000000e-01
 0.000000e+00 0.000000e+00 0.000000e+00 0.000000e+00 0.000000e+00
<ENDHMM>
~h "t"
<BEGINHMM>
<NUMSTATES> 5
<STATE> 2
<MEAN> 25
 1.417616e-07 -1.344591e-08 6.744688e-09 3.520858e-08 1.539470e-08 -2.960128e-08 -2.596451e-08 -3.361477e-08 -1.956032e-08 2.204521e-08 1.919085e-08 1.169997e-08 -6.469213e-03 7.915574e-03 7.846633e-03 7.105639e-03 8.445180e-03 -3.366752e-04 -1.303187e-03 -7.868514e-03 -5.922113e-03 3.942743e-04 1.563429e-03 4.659003e-03 -2.882905e-03
<VARIANCE> 25
 5.294691e+01 4.963992e+01 4.432232e+01 7.569560e+01 6.260971e+01 5.816381e+01 3.991302e+01 5.058298e+01 4.723607e+01 3.758217e+01 2.628475e+01 3.142200e+01 1.848056e+00 1.592366e+00 1.743356e+00 2.282314e+00 2.269823e+00 2.684780e+00 2.440277e+00 2.933924e+00 2.493926e+00 2.308038e+00 2.002368e+00 1.925660e+00 2.247548e+00
<GCONST> 1.020937e+02
<STATE> 3
<MEAN> 25
 1.417616e-07 -1.344591e-08 6.744688e-09 3.520858e-08 1.539470e-08 -2.960128e-08 -2.596451e-08 -3.361477e-08 -1.956032e-08 2.204521e-08 1.919085e-08 1.169997e-08 -6.469213e-03 7.915574e-03 7.846633e-03 7.105639e-03 8.445180e-03 -3.366752e-04 -1.303187e-03 -7.868514e-03 -5.922113e-03 3.942743e-04 1.563429e-03 4.659003e-03 -2.882905e-03
<VARIANCE> 25
 5.294691e+01 4.963992e+01 4.432232e+01 7.569560e+01 6.260971e+01 5.816381e+01 3.991302e+01 5.058298e+01 4.723607e+01 3.758217e+01 2.628475e+01 3.142200e+01 1.848056e+00 1.592366e+00 1.743356e+00 2.282314e+00 2.269823e+00 2.684780e+00 2.440277e+00 2.933924e+00 2.493926e+00 2.308038e+00 2.002368e+00 1.925660e+00 2.247548e+00
<GCONST> 1.020937e+02
<STATE> 4
<MEAN> 25
 1.417616e-07 -1.344591e-08 6.744688e-09 3.520858e-08 1.539470e-08 -2.960128e-08 -2.596451e-08 -3.361477e-08 -1.956032e-08 2.204521e-08 1.919085e-08 1.169997e-08 -6.469213e-03 7.915574e-03 7.846633e-03 7.105639e-03 8.445180e-03 -3.366752e-04 -1.303187e-03 -7.868514e-03 -5.922113e-03 3.942743e-04 1.563429e-03 4.659003e-03 -2.882905e-03
<VARIANCE> 25
 5.294691e+01 4.963992e+01 4.432232e+01 7.569560e+01 6.260971e+01 5.816381e+01 3.991302e+01 5.058298e+01 4.723607e+01 3.758217e+01 2.628475e+01 3.142200e+01 1.848056e+00 1.592366e+00 1.743356e+00 2.282314e+00 2.269823e+00 2.684780e+00 2.440277e+00 2.933924e+00 2.493926e+00 2.308038e+00 2.002368e+00 1.925660e+00 2.247548e+00
<GCONST> 1.020937e+02
<TRANSP> 5
 0.000000e+00 1.000000e+00 0.000000e+00 0.000000e+00 0.000000e+00
 0.000000e+00 6.000000e-01 4.000000e-01 0.000000e+00 0.000000e+00
 0.000000e+00 0.000000e+00 6.000000e-01 4.000000e-01 0.000000e+00
 0.000000e+00 0.000000e+00 0.000000e+00 7.000000e-01 3.000000e-01
 0.000000e+00 0.000000e+00 0.000000e+00 0.000000e+00 0.000000e+00
<ENDHMM>
~h "k"
<BEGINHMM>
<NUMSTATES> 5
<STATE> 2
<MEAN> 25
 1.417616e-07 -1.344591e-08 6.744688e-09 3.520858e-08 1.539470e-08 -2.960128e-08 -2.596451e-08 -3.361477e-08 -1.956032e-08 2.204521e-08 1.919085e-08 1.169997e-08 -6.469213e-03 7.915574e-03 7.846633e-03 7.105639e-03 8.445180e-03 -3.366752e-04 -1.303187e-03 -7.868514e-03 -5.922113e-03 3.942743e-04 1.563429e-03 4.659003e-03 -2.882905e-03
<VARIANCE> 25
 5.294691e+01 4.963992e+01 4.432232e+01 7.569560e+01 6.260971e+01 5.816381e+01 3.991302e+01 5.058298e+01 4.723607e+01 3.758217e+01 2.628475e+01 3.142200e+01 1.848056e+00 1.592366e+00 1.743356e+00 2.282314e+00 2.269823e+00 2.684780e+00 2.440277e+00 2.933924e+00 2.493926e+00 2.308038e+00 2.002368e+00 1.925660e+00 2.247548e+00
<GCONST> 1.020937e+02
<STATE> 3
<MEAN> 25
 1.417616e-07 -1.344591e-08 6.744688e-09 3.520858e-08 1.539470e-08 -2.960128e-08 -2.596451e-08 -3.361477e-08 -1.956032e-08 2.204521e-08 1.919085e-08 1.169997e-08 -6.469213e-03 7.915574e-03 7.846633e-03 7.105639e-03 8.445180e-03 -3.366752e-04 -1.303187e-03 -7.868514e-03 -5.922113e-03 3.942743e-04 1.563429e-03 4.659003e-03 -2.882905e-03
<VARIANCE> 25
 5.294691e+01 4.963992e+01 4.432232e+01 7.569560e+01 6.260971e+01 5.816381e+01 3.991302e+01 5.058298e+01 4.723607e+01 3.758217e+01 2.628475e+01 3.142200e+01 1.848056e+00 1.592366e+00 1.743356e+00 2.282314e+00 2.269823e+00 2.684780e+00 2.440277e+00 2.933924e+00 2.493926e+00 2.308038e+00 2.002368e+00 1.925660e+00 2.247548e+00
<GCONST> 1.020937e+02
<STATE> 4
<MEAN> 25
 1.417616e-07 -1.344591e-08 6.744688e-09 3.520858e-08 1.539470e-08 -2.960128e-08 -2.596451e-08 -3.361477e-08 -1.956032e-08 2.204521e-08 1.919085e-08 1.169997e-08 -6.469213e-03 7.915574e-03 7.846633e-03 7.105639e-03 8.445180e-03 -3.366752e-04 -1.303187e-03 -7.868514e-03 -5.922113e-03 3.942743e-04 1.563429e-03 4.659003e-03 -2.882905e-03
<VARIANCE> 25
 5.294691e+01 4.963992e+01 4.432232e+01 7.569560e+01 6.260971e+01 5.816381e+01 3.991302e+01 5.058298e+01 4.723607e+01 3.758217e+01 2.628475e+01 3.142200e+01 1.848056e+00 1.592366e+00 1.743356e+00 2.282314e+00 2.269823e+00 2.684780e+00 2.440277e+00 2.933924e+00 2.493926e+00 2.308038e+00 2.002368e+00 1.925660e+00 2.247548e+00
<GCONST> 1.020937e+02
<TRANSP> 5
 0.000000e+00 1.000000e+00 0.000000e+00 0.000000e+00 0.000000e+00
 0.000000e+00 6.000000e-01 4.000000e-01 0.000000e+00 0.000000e+00
 0.000000e+00 0.000000e+00 6.000000e-01 4.000000e-01 0.000000e+00
 0.000000e+00 0.000000e+00 0.000000e+00 7.000000e-01 3.000000e-01
 0.000000e+00 0.000000e+00 0.000000e+00 0.000000e+00 0.000000e+00
<ENDHMM>
~h "ch"
<BEGINHMM>
<NUMSTATES> 5
<STATE> 2
<MEAN> 25
 1.417616e-07 -1.344591e-08 6.744688e-09 3.520858e-08 1.539470e-08 -2.960128e-08 -2.596451e-08 -3.361477e-08 -1.956032e-08 2.204521e-08 1.919085e-08 1.169997e-08 -6.469213e-03 7.915574e-03 7.846633e-03 7.105639e-03 8.445180e-03 -3.366752e-04 -1.303187e-03 -7.868514e-03 -5.922113e-03 3.942743e-04 1.563429e-03 4.659003e-03 -2.882905e-03
<VARIANCE> 25
 5.294691e+01 4.963992e+01 4.432232e+01 7.569560e+01 6.260971e+01 5.816381e+01 3.991302e+01 5.058298e+01 4.723607e+01 3.758217e+01 2.628475e+01 3.142200e+01 1.848056e+00 1.592366e+00 1.743356e+00 2.282314e+00 2.269823e+00 2.684780e+00 2.440277e+00 2.933924e+00 2.493926e+00 2.308038e+00 2.002368e+00 1.925660e+00 2.247548e+00
<GCONST> 1.020937e+02
<STATE> 3
<MEAN> 25
 1.417616e-07 -1.344591e-08 6.744688e-09 3.520858e-08 1.539470e-08 -2.960128e-08 -2.596451e-08 -3.361477e-08 -1.956032e-08 2.204521e-08 1.919085e-08 1.169997e-08 -6.469213e-03 7.915574e-03 7.846633e-03 7.105639e-03 8.445180e-03 -3.366752e-04 -1.303187e-03 -7.868514e-03 -5.922113e-03 3.942743e-04 1.563429e-03 4.659003e-03 -2.882905e-03
<VARIANCE> 25
 5.294691e+01 4.963992e+01 4.432232e+01 7.569560e+01 6.260971e+01 5.816381e+01 3.991302e+01 5.058298e+01 4.723607e+01 3.758217e+01 2.628475e+01 3.142200e+01 1.848056e+00 1.592366e+00 1.743356e+00 2.282314e+00 2.269823e+00 2.684780e+00 2.440277e+00 2.933924e+00 2.493926e+00 2.308038e+00 2.002368e+00 1.925660e+00 2.247548e+00
<GCONST> 1.020937e+02
<STATE> 4
<MEAN> 25
 1.417616e-07 -1.344591e-08 6.744688e-09 3.520858e-08 1.539470e-08 -2.960128e-08 -2.596451e-08 -3.361477e-08 -1.956032e-08 2.204521e-08 1.919085e-08 1.169997e-08 -6.469213e-03 7.915574e-03 7.846633e-03 7.105639e-03 8.445180e-03 -3.366752e-04 -1.303187e-03 -7.868514e-03 -5.922113e-03 3.942743e-04 1.563429e-03 4.659003e-03 -2.882905e-03
<VARIANCE> 25
 5.294691e+01 4.963992e+01 4.432232e+01 7.569560e+01 6.260971e+01 5.816381e+01 3.991302e+01 5.058298e+01 4.723607e+01 3.758217e+01 2.628475e+01 3.142200e+01 1.848056e+00 1.592366e+00 1.743356e+00 2.282314e+00 2.269823e+00 2.684780e+00 2.440277e+00 2.933924e+00 2.493926e+00 2.308038e+00 2.002368e+00 1.925660e+00 2.247548e+00
<GCONST> 1.020937e+02
<TRANSP> 5
 0.000000e+00 1.000000e+00 0.000000e+00 0.000000e+00 0.000000e+00
 0.000000e+00 6.000000e-01 4.000000e-01 0.000000e+00 0.000000e+00
 0.000000e+00 0.000000e+00 6.000000e-01 4.000000e-01 0.000000e+00
 0.000000e+00 0.000000e+00 0.000000e+00 7.000000e-01 3.000000e-01
 0.000000e+00 0.000000e+00 0.000000e+00 0.000000e+00 0.000000e+00
<ENDHMM>
~h "iy"
<BEGINHMM>
<NUMSTATES> 5
<STATE> 2
<MEAN> 25
 1.417616e-07 -1.344591e-08 6.744688e-09 3.520858e-08 1.539470e-08 -2.960128e-08 -2.596451e-08 -3.361477e-08 -1.956032e-08 2.204521e-08 1.919085e-08 1.169997e-08 -6.469213e-03 7.915574e-03 7.846633e-03 7.105639e-03 8.445180e-03 -3.366752e-04 -1.303187e-03 -7.868514e-03 -5.922113e-03 3.942743e-04 1.563429e-03 4.659003e-03 -2.882905e-03
<VARIANCE> 25
 5.294691e+01 4.963992e+01 4.432232e+01 7.569560e+01 6.260971e+01 5.816381e+01 3.991302e+01 5.058298e+01 4.723607e+01 3.758217e+01 2.628475e+01 3.142200e+01 1.848056e+00 1.592366e+00 1.743356e+00 2.282314e+00 2.269823e+00 2.684780e+00 2.440277e+00 2.933924e+00 2.493926e+00 2.308038e+00 2.002368e+00 1.925660e+00 2.247548e+00
<GCONST> 1.020937e+02
<STATE> 3
<MEAN> 25
 1.417616e-07 -1.344591e-08 6.744688e-09 3.520858e-08 1.539470e-08 -2.960128e-08 -2.596451e-08 -3.361477e-08 -1.956032e-08 2.204521e-08 1.919085e-08 1.169997e-08 -6.469213e-03 7.915574e-03 7.846633e-03 7.105639e-03 8.445180e-03 -3.366752e-04 -1.303187e-03 -7.868514e-03 -5.922113e-03 3.942743e-04 1.563429e-03 4.659003e-03 -2.882905e-03
<VARIANCE> 25
 5.294691e+01 4.963992e+01 4.432232e+01 7.569560e+01 6.260971e+01 5.816381e+01 3.991302e+01 5.058298e+01 4.723607e+01 3.758217e+01 2.628475e+01 3.142200e+01 1.848056e+00 1.592366e+00 1.743356e+00 2.282314e+00 2.269823e+00 2.684780e+00 2.440277e+00 2.933924e+00 2.493926e+00 2.308038e+00 2.002368e+00 1.925660e+00 2.247548e+00
<GCONST> 1.020937e+02
<STATE> 4
<MEAN> 25
 1.417616e-07 -1.344591e-08 6.744688e-09 3.520858e-08 1.539470e-08 -2.960128e-08 -2.596451e-08 -3.361477e-08 -1.956032e-08 2.204521e-08 1.919085e-08 1.169997e-08 -6.469213e-03 7.915574e-03 7.846633e-03 7.105639e-03 8.445180e-03 -3.366752e-04 -1.303187e-03 -7.868514e-03 -5.922113e-03 3.942743e-04 1.563429e-03 4.659003e-03 -2.882905e-03
<VARIANCE> 25
 5.294691e+01 4.963992e+01 4.432232e+01 7.569560e+01 6.260971e+01 5.816381e+01 3.991302e+01 5.058298e+01 4.723607e+01 3.758217e+01 2.628475e+01 3.142200e+01 1.848056e+00 1.592366e+00 1.743356e+00 2.282314e+00 2.269823e+00 2.684780e+00 2.440277e+00 2.933924e+00 2.493926e+00 2.308038e+00 2.002368e+00 1.925660e+00 2.247548e+00
<GCONST> 1.020937e+02
<TRANSP> 5
 0.000000e+00 1.000000e+00 0.000000e+00 0.000000e+00 0.000000e+00
 0.000000e+00 6.000000e-01 4.000000e-01 0.000000e+00 0.000000e+00
 0.000000e+00 0.000000e+00 6.000000e-01 4.000000e-01 0.000000e+00
 0.000000e+00 0.000000e+00 0.000000e+00 7.000000e-01 3.000000e-01
 0.000000e+00 0.000000e+00 0.000000e+00 0.000000e+00 0.000000e+00
<ENDHMM>
~h "v"
<BEGINHMM>
<NUMSTATES> 5
<STATE> 2
<MEAN> 25
 1.417616e-07 -1.344591e-08 6.744688e-09 3.520858e-08 1.539470e-08 -2.960128e-08 -2.596451e-08 -3.361477e-08 -1.956032e-08 2.204521e-08 1.919085e-08 1.169997e-08 -6.469213e-03 7.915574e-03 7.846633e-03 7.105639e-03 8.445180e-03 -3.366752e-04 -1.303187e-03 -7.868514e-03 -5.922113e-03 3.942743e-04 1.563429e-03 4.659003e-03 -2.882905e-03
<VARIANCE> 25
 5.294691e+01 4.963992e+01 4.432232e+01 7.569560e+01 6.260971e+01 5.816381e+01 3.991302e+01 5.058298e+01 4.723607e+01 3.758217e+01 2.628475e+01 3.142200e+01 1.848056e+00 1.592366e+00 1.743356e+00 2.282314e+00 2.269823e+00 2.684780e+00 2.440277e+00 2.933924e+00 2.493926e+00 2.308038e+00 2.002368e+00 1.925660e+00 2.247548e+00
<GCONST> 1.020937e+02
<STATE> 3
<MEAN> 25
 1.417616e-07 -1.344591e-08 6.744688e-09 3.520858e-08 1.539470e-08 -2.960128e-08 -2.596451e-08 -3.361477e-08 -1.956032e-08 2.204521e-08 1.919085e-08 1.169997e-08 -6.469213e-03 7.915574e-03 7.846633e-03 7.105639e-03 8.445180e-03 -3.366752e-04 -1.303187e-03 -7.868514e-03 -5.922113e-03 3.942743e-04 1.563429e-03 4.659003e-03 -2.882905e-03
<VARIANCE> 25
 5.294691e+01 4.963992e+01 4.432232e+01 7.569560e+01 6.260971e+01 5.816381e+01 3.991302e+01 5.058298e+01 4.723607e+01 3.758217e+01 2.628475e+01 3.142200e+01 1.848056e+00 1.592366e+00 1.743356e+00 2.282314e+00 2.269823e+00 2.684780e+00 2.440277e+00 2.933924e+00 2.493926e+00 2.308038e+00 2.002368e+00 1.925660e+00 2.247548e+00
<GCONST> 1.020937e+02
<STATE> 4
<MEAN> 25
 1.417616e-07 -1.344591e-08 6.744688e-09 3.520858e-08 1.539470e-08 -2.960128e-08 -2.596451e-08 -3.361477e-08 -1.956032e-08 2.204521e-08 1.919085e-08 1.169997e-08 -6.469213e-03 7.915574e-03 7.846633e-03 7.105639e-03 8.445180e-03 -3.366752e-04 -1.303187e-03 -7.868514e-03 -5.922113e-03 3.942743e-04 1.563429e-03 4.659003e-03 -2.882905e-03
<VARIANCE> 25
 5.294691e+01 4.963992e+01 4.432232e+01 7.569560e+01 6.260971e+01 5.816381e+01 3.991302e+01 5.058298e+01 4.723607e+01 3.758217e+01 2.628475e+01 3.142200e+01 1.848056e+00 1.592366e+00 1.743356e+00 2.282314e+00 2.269823e+00 2.684780e+00 2.440277e+00 2.933924e+00 2.493926e+00 2.308038e+00 2.002368e+00 1.925660e+00 2.247548e+00
<GCONST> 1.020937e+02
<TRANSP> 5
 0.000000e+00 1.000000e+00 0.000000e+00 0.000000e+00 0.000000e+00
 0.000000e+00 6.000000e-01 4.000000e-01 0.000000e+00 0.000000e+00
 0.000000e+00 0.000000e+00 6.000000e-01 4.000000e-01 0.000000e+00
 0.000000e+00 0.000000e+00 0.000000e+00 7.000000e-01 3.000000e-01
 0.000000e+00 0.000000e+00 0.000000e+00 0.000000e+00 0.000000e+00
<ENDHMM>
~h "w"
<BEGINHMM>
<NUMSTATES> 5
<STATE> 2
<MEAN> 25
 1.417616e-07 -1.344591e-08 6.744688e-09 3.520858e-08 1.539470e-08 -2.960128e-08 -2.596451e-08 -3.361477e-08 -1.956032e-08 2.204521e-08 1.919085e-08 1.169997e-08 -6.469213e-03 7.915574e-03 7.846633e-03 7.105639e-03 8.445180e-03 -3.366752e-04 -1.303187e-03 -7.868514e-03 -5.922113e-03 3.942743e-04 1.563429e-03 4.659003e-03 -2.882905e-03
<VARIANCE> 25
 5.294691e+01 4.963992e+01 4.432232e+01 7.569560e+01 6.260971e+01 5.816381e+01 3.991302e+01 5.058298e+01 4.723607e+01 3.758217e+01 2.628475e+01 3.142200e+01 1.848056e+00 1.592366e+00 1.743356e+00 2.282314e+00 2.269823e+00 2.684780e+00 2.440277e+00 2.933924e+00 2.493926e+00 2.308038e+00 2.002368e+00 1.925660e+00 2.247548e+00
<GCONST> 1.020937e+02
<STATE> 3
<MEAN> 25
 1.417616e-07 -1.344591e-08 6.744688e-09 3.520858e-08 1.539470e-08 -2.960128e-08 -2.596451e-08 -3.361477e-08 -1.956032e-08 2.204521e-08 1.919085e-08 1.169997e-08 -6.469213e-03 7.915574e-03 7.846633e-03 7.105639e-03 8.445180e-03 -3.366752e-04 -1.303187e-03 -7.868514e-03 -5.922113e-03 3.942743e-04 1.563429e-03 4.659003e-03 -2.882905e-03
<VARIANCE> 25
 5.294691e+01 4.963992e+01 4.432232e+01 7.569560e+01 6.260971e+01 5.816381e+01 3.991302e+01 5.058298e+01 4.723607e+01 3.758217e+01 2.628475e+01 3.142200e+01 1.848056e+00 1.592366e+00 1.743356e+00 2.282314e+00 2.269823e+00 2.684780e+00 2.440277e+00 2.933924e+00 2.493926e+00 2.308038e+00 2.002368e+00 1.925660e+00 2.247548e+00
<GCONST> 1.020937e+02
<STATE> 4
<MEAN> 25
 1.417616e-07 -1.344591e-08 6.744688e-09 3.520858e-08 1.539470e-08 -2.960128e-08 -2.596451e-08 -3.361477e-08 -1.956032e-08 2.204521e-08 1.919085e-08 1.169997e-08 -6.469213e-03 7.915574e-03 7.846633e-03 7.105639e-03 8.445180e-03 -3.366752e-04 -1.303187e-03 -7.868514e-03 -5.922113e-03 3.942743e-04 1.563429e-03 4.659003e-03 -2.882905e-03
<VARIANCE> 25
 5.294691e+01 4.963992e+01 4.432232e+01 7.569560e+01 6.260971e+01 5.816381e+01 3.991302e+01 5.058298e+01 4.723607e+01 3.758217e+01 2.628475e+01 3.142200e+01 1.848056e+00 1.592366e+00 1.743356e+00 2.282314e+00 2.269823e+00 2.684780e+00 2.440277e+00 2.933924e+00 2.493926e+00 2.308038e+00 2.002368e+00 1.925660e+00 2.247548e+00
<GCONST> 1.020937e+02
<TRANSP> 5
 0.000000e+00 1.000000e+00 0.000000e+00 0.000000e+00 0.000000e+00
 0.000000e+00 6.000000e-01 4.000000e-01 0.000000e+00 0.000000e+00
 0.000000e+00 0.000000e+00 6.000000e-01 4.000000e-01 0.000000e+00
 0.000000e+00 0.000000e+00 0.000000e+00 7.000000e-01 3.000000e-01
 0.000000e+00 0.000000e+00 0.000000e+00 0.000000e+00 0.000000e+00
<ENDHMM>
~h "y"
<BEGINHMM>
<NUMSTATES> 5
<STATE> 2
<MEAN> 25
 1.417616e-07 -1.344591e-08 6.744688e-09 3.520858e-08 1.539470e-08 -2.960128e-08 -2.596451e-08 -3.361477e-08 -1.956032e-08 2.204521e-08 1.919085e-08 1.169997e-08 -6.469213e-03 7.915574e-03 7.846633e-03 7.105639e-03 8.445180e-03 -3.366752e-04 -1.303187e-03 -7.868514e-03 -5.922113e-03 3.942743e-04 1.563429e-03 4.659003e-03 -2.882905e-03
<VARIANCE> 25
 5.294691e+01 4.963992e+01 4.432232e+01 7.569560e+01 6.260971e+01 5.816381e+01 3.991302e+01 5.058298e+01 4.723607e+01 3.758217e+01 2.628475e+01 3.142200e+01 1.848056e+00 1.592366e+00 1.743356e+00 2.282314e+00 2.269823e+00 2.684780e+00 2.440277e+00 2.933924e+00 2.493926e+00 2.308038e+00 2.002368e+00 1.925660e+00 2.247548e+00
<GCONST> 1.020937e+02
<STATE> 3
<MEAN> 25
 1.417616e-07 -1.344591e-08 6.744688e-09 3.520858e-08 1.539470e-08 -2.960128e-08 -2.596451e-08 -3.361477e-08 -1.956032e-08 2.204521e-08 1.919085e-08 1.169997e-08 -6.469213e-03 7.915574e-03 7.846633e-03 7.105639e-03 8.445180e-03 -3.366752e-04 -1.303187e-03 -7.868514e-03 -5.922113e-03 3.942743e-04 1.563429e-03 4.659003e-03 -2.882905e-03
<VARIANCE> 25
 5.294691e+01 4.963992e+01 4.432232e+01 7.569560e+01 6.260971e+01 5.816381e+01 3.991302e+01 5.058298e+01 4.723607e+01 3.758217e+01 2.628475e+01 3.142200e+01 1.848056e+00 1.592366e+00 1.743356e+00 2.282314e+00 2.269823e+00 2.684780e+00 2.440277e+00 2.933924e+00 2.493926e+00 2.308038e+00 2.002368e+00 1.925660e+00 2.247548e+00
<GCONST> 1.020937e+02
<STATE> 4
<MEAN> 25
 1.417616e-07 -1.344591e-08 6.744688e-09 3.520858e-08 1.539470e-08 -2.960128e-08 -2.596451e-08 -3.361477e-08 -1.956032e-08 2.204521e-08 1.919085e-08 1.169997e-08 -6.469213e-03 7.915574e-03 7.846633e-03 7.105639e-03 8.445180e-03 -3.366752e-04 -1.303187e-03 -7.868514e-03 -5.922113e-03 3.942743e-04 1.563429e-03 4.659003e-03 -2.882905e-03
<VARIANCE> 25
 5.294691e+01 4.963992e+01 4.432232e+01 7.569560e+01 6.260971e+01 5.816381e+01 3.991302e+01 5.058298e+01 4.723607e+01 3.758217e+01 2.628475e+01 3.142200e+01 1.848056e+00 1.592366e+00 1.743356e+00 2.282314e+00 2.269823e+00 2.684780e+00 2.440277e+00 2.933924e+00 2.493926e+00 2.308038e+00 2.002368e+00 1.925660e+00 2.247548e+00
<GCONST> 1.020937e+02
<TRANSP> 5
 0.000000e+00 1.000000e+00 0.000000e+00 0.000000e+00 0.000000e+00
 0.000000e+00 6.000000e-01 4.000000e-01 0.000000e+00 0.000000e+00
 0.000000e+00 0.000000e+00 6.000000e-01 4.000000e-01 0.000000e+00
 0.000000e+00 0.000000e+00 0.000000e+00 7.000000e-01 3.000000e-01
 0.000000e+00 0.000000e+00 0.000000e+00 0.000000e+00 0.000000e+00
<ENDHMM>
~h "uw"
<BEGINHMM>
<NUMSTATES> 5
<STATE> 2
<MEAN> 25
 1.417616e-07 -1.344591e-08 6.744688e-09 3.520858e-08 1.539470e-08 -2.960128e-08 -2.596451e-08 -3.361477e-08 -1.956032e-08 2.204521e-08 1.919085e-08 1.169997e-08 -6.469213e-03 7.915574e-03 7.846633e-03 7.105639e-03 8.445180e-03 -3.366752e-04 -1.303187e-03 -7.868514e-03 -5.922113e-03 3.942743e-04 1.563429e-03 4.659003e-03 -2.882905e-03
<VARIANCE> 25
 5.294691e+01 4.963992e+01 4.432232e+01 7.569560e+01 6.260971e+01 5.816381e+01 3.991302e+01 5.058298e+01 4.723607e+01 3.758217e+01 2.628475e+01 3.142200e+01 1.848056e+00 1.592366e+00 1.743356e+00 2.282314e+00 2.269823e+00 2.684780e+00 2.440277e+00 2.933924e+00 2.493926e+00 2.308038e+00 2.002368e+00 1.925660e+00 2.247548e+00
<GCONST> 1.020937e+02
<STATE> 3
<MEAN> 25
 1.417616e-07 -1.344591e-08 6.744688e-09 3.520858e-08 1.539470e-08 -2.960128e-08 -2.596451e-08 -3.361477e-08 -1.956032e-08 2.204521e-08 1.919085e-08 1.169997e-08 -6.469213e-03 7.915574e-03 7.846633e-03 7.105639e-03 8.445180e-03 -3.366752e-04 -1.303187e-03 -7.868514e-03 -5.922113e-03 3.942743e-04 1.563429e-03 4.659003e-03 -2.882905e-03
<VARIANCE> 25
 5.294691e+01 4.963992e+01 4.432232e+01 7.569560e+01 6.260971e+01 5.816381e+01 3.991302e+01 5.058298e+01 4.723607e+01 3.758217e+01 2.628475e+01 3.142200e+01 1.848056e+00 1.592366e+00 1.743356e+00 2.282314e+00 2.269823e+00 2.684780e+00 2.440277e+00 2.933924e+00 2.493926e+00 2.308038e+00 2.002368e+00 1.925660e+00 2.247548e+00
<GCONST> 1.020937e+02
<STATE> 4
<MEAN> 25
 1.417616e-07 -1.344591e-08 6.744688e-09 3.520858e-08 1.539470e-08 -2.960128e-08 -2.596451e-08 -3.361477e-08 -1.956032e-08 2.204521e-08 1.919085e-08 1.169997e-08 -6.469213e-03 7.915574e-03 7.846633e-03 7.105639e-03 8.445180e-03 -3.366752e-04 -1.303187e-03 -7.868514e-03 -5.922113e-03 3.942743e-04 1.563429e-03 4.659003e-03 -2.882905e-03
<VARIANCE> 25
 5.294691e+01 4.963992e+01 4.432232e+01 7.569560e+01 6.260971e+01 5.816381e+01 3.991302e+01 5.058298e+01 4.723607e+01 3.758217e+01 2.628475e+01 3.142200e+01 1.848056e+00 1.592366e+00 1.743356e+00 2.282314e+00 2.269823e+00 2.684780e+00 2.440277e+00 2.933924e+00 2.493926e+00 2.308038e+00 2.002368e+00 1.925660e+00 2.247548e+00
<GCONST> 1.020937e+02
<TRANSP> 5
 0.000000e+00 1.000000e+00 0.000000e+00 0.000000e+00 0.000000e+00
 0.000000e+00 6.000000e-01 4.000000e-01 0.000000e+00 0.000000e+00
 0.000000e+00 0.000000e+00 6.000000e-01 4.000000e-01 0.000000e+00
 0.000000e+00 0.000000e+00 0.000000e+00 7.000000e-01 3.000000e-01
 0.000000e+00 0.000000e+00 0.000000e+00 0.000000e+00 0.000000e+00
<ENDHMM>
~h "p"
<BEGINHMM>
<NUMSTATES> 5
<STATE> 2
<MEAN> 25
 1.417616e-07 -1.344591e-08 6.744688e-09 3.520858e-08 1.539470e-08 -2.960128e-08 -2.596451e-08 -3.361477e-08 -1.956032e-08 2.204521e-08 1.919085e-08 1.169997e-08 -6.469213e-03 7.915574e-03 7.846633e-03 7.105639e-03 8.445180e-03 -3.366752e-04 -1.303187e-03 -7.868514e-03 -5.922113e-03 3.942743e-04 1.563429e-03 4.659003e-03 -2.882905e-03
<VARIANCE> 25
 5.294691e+01 4.963992e+01 4.432232e+01 7.569560e+01 6.260971e+01 5.816381e+01 3.991302e+01 5.058298e+01 4.723607e+01 3.758217e+01 2.628475e+01 3.142200e+01 1.848056e+00 1.592366e+00 1.743356e+00 2.282314e+00 2.269823e+00 2.684780e+00 2.440277e+00 2.933924e+00 2.493926e+00 2.308038e+00 2.002368e+00 1.925660e+00 2.247548e+00
<GCONST> 1.020937e+02
<STATE> 3
<MEAN> 25
 1.417616e-07 -1.344591e-08 6.744688e-09 3.520858e-08 1.539470e-08 -2.960128e-08 -2.596451e-08 -3.361477e-08 -1.956032e-08 2.204521e-08 1.919085e-08 1.169997e-08 -6.469213e-03 7.915574e-03 7.846633e-03 7.105639e-03 8.445180e-03 -3.366752e-04 -1.303187e-03 -7.868514e-03 -5.922113e-03 3.942743e-04 1.563429e-03 4.659003e-03 -2.882905e-03
<VARIANCE> 25
 5.294691e+01 4.963992e+01 4.432232e+01 7.569560e+01 6.260971e+01 5.816381e+01 3.991302e+01 5.058298e+01 4.723607e+01 3.758217e+01 2.628475e+01 3.142200e+01 1.848056e+00 1.592366e+00 1.743356e+00 2.282314e+00 2.269823e+00 2.684780e+00 2.440277e+00 2.933924e+00 2.493926e+00 2.308038e+00 2.002368e+00 1.925660e+00 2.247548e+00
<GCONST> 1.020937e+02
<STATE> 4
<MEAN> 25
 1.417616e-07 -1.344591e-08 6.744688e-09 3.520858e-08 1.539470e-08 -2.960128e-08 -2.596451e-08 -3.361477e-08 -1.956032e-08 2.204521e-08 1.919085e-08 1.169997e-08 -6.469213e-03 7.915574e-03 7.846633e-03 7.105639e-03 8.445180e-03 -3.366752e-04 -1.303187e-03 -7.868514e-03 -5.922113e-03 3.942743e-04 1.563429e-03 4.659003e-03 -2.882905e-03
<VARIANCE> 25
 5.294691e+01 4.963992e+01 4.432232e+01 7.569560e+01 6.260971e+01 5.816381e+01 3.991302e+01 5.058298e+01 4.723607e+01 3.758217e+01 2.628475e+01 3.142200e+01 1.848056e+00 1.592366e+00 1.743356e+00 2.282314e+00 2.269823e+00 2.684780e+00 2.440277e+00 2.933924e+00 2.493926e+00 2.308038e+00 2.002368e+00 1.925660e+00 2.247548e+00
<GCONST> 1.020937e+02
<TRANSP> 5
 0.000000e+00 1.000000e+00 0.000000e+00 0.000000e+00 0.000000e+00
 0.000000e+00 6.000000e-01 4.000000e-01 0.000000e+00 0.000000e+00
 0.000000e+00 0.000000e+00 6.000000e-01 4.000000e-01 0.000000e+00
 0.000000e+00 0.000000e+00 0.000000e+00 7.000000e-01 3.000000e-01
 0.000000e+00 0.000000e+00 0.000000e+00 0.000000e+00 0.000000e+00
<ENDHMM>
~h "er"
<BEGINHMM>
<NUMSTATES> 5
<STATE> 2
<MEAN> 25
 1.417616e-07 -1.344591e-08 6.744688e-09 3.520858e-08 1.539470e-08 -2.960128e-08 -2.596451e-08 -3.361477e-08 -1.956032e-08 2.204521e-08 1.919085e-08 1.169997e-08 -6.469213e-03 7.915574e-03 7.846633e-03 7.105639e-03 8.445180e-03 -3.366752e-04 -1.303187e-03 -7.868514e-03 -5.922113e-03 3.942743e-04 1.563429e-03 4.659003e-03 -2.882905e-03
<VARIANCE> 25
 5.294691e+01 4.963992e+01 4.432232e+01 7.569560e+01 6.260971e+01 5.816381e+01 3.991302e+01 5.058298e+01 4.723607e+01 3.758217e+01 2.628475e+01 3.142200e+01 1.848056e+00 1.592366e+00 1.743356e+00 2.282314e+00 2.269823e+00 2.684780e+00 2.440277e+00 2.933924e+00 2.493926e+00 2.308038e+00 2.002368e+00 1.925660e+00 2.247548e+00
<GCONST> 1.020937e+02
<STATE> 3
<MEAN> 25
 1.417616e-07 -1.344591e-08 6.744688e-09 3.520858e-08 1.539470e-08 -2.960128e-08 -2.596451e-08 -3.361477e-08 -1.956032e-08 2.204521e-08 1.919085e-08 1.169997e-08 -6.469213e-03 7.915574e-03 7.846633e-03 7.105639e-03 8.445180e-03 -3.366752e-04 -1.303187e-03 -7.868514e-03 -5.922113e-03 3.942743e-04 1.563429e-03 4.659003e-03 -2.882905e-03
<VARIANCE> 25
 5.294691e+01 4.963992e+01 4.432232e+01 7.569560e+01 6.260971e+01 5.816381e+01 3.991302e+01 5.058298e+01 4.723607e+01 3.758217e+01 2.628475e+01 3.142200e+01 1.848056e+00 1.592366e+00 1.743356e+00 2.282314e+00 2.269823e+00 2.684780e+00 2.440277e+00 2.933924e+00 2.493926e+00 2.308038e+00 2.002368e+00 1.925660e+00 2.247548e+00
<GCONST> 1.020937e+02
<STATE> 4
<MEAN> 25
 1.417616e-07 -1.344591e-08 6.744688e-09 3.520858e-08 1.539470e-08 -2.960128e-08 -2.596451e-08 -3.361477e-08 -1.956032e-08 2.204521e-08 1.919085e-08 1.169997e-08 -6.469213e-03 7.915574e-03 7.846633e-03 7.105639e-03 8.445180e-03 -3.366752e-04 -1.303187e-03 -7.868514e-03 -5.922113e-03 3.942743e-04 1.563429e-03 4.659003e-03 -2.882905e-03
<VARIANCE> 25
 5.294691e+01 4.963992e+01 4.432232e+01 7.569560e+01 6.260971e+01 5.816381e+01 3.991302e+01 5.058298e+01 4.723607e+01 3.758217e+01 2.628475e+01 3.142200e+01 1.848056e+00 1.592366e+00 1.743356e+00 2.282314e+00 2.269823e+00 2.684780e+00 2.440277e+00 2.933924e+00 2.493926e+00 2.308038e+00 2.002368e+00 1.925660e+00 2.247548e+00
<GCONST> 1.020937e+02
<TRANSP> 5
 0.000000e+00 1.000000e+00 0.000000e+00 0.000000e+00 0.000000e+00
 0.000000e+00 6.000000e-01 4.000000e-01 0.000000e+00 0.000000e+00
 0.000000e+00 0.000000e+00 6.000000e-01 4.000000e-01 0.000000e+00
 0.000000e+00 0.000000e+00 0.000000e+00 7.000000e-01 3.000000e-01
 0.000000e+00 0.000000e+00 0.000000e+00 0.000000e+00 0.000000e+00
<ENDHMM>
~h "eh"
<BEGINHMM>
<NUMSTATES> 5
<STATE> 2
<MEAN> 25
 1.417616e-07 -1.344591e-08 6.744688e-09 3.520858e-08 1.539470e-08 -2.960128e-08 -2.596451e-08 -3.361477e-08 -1.956032e-08 2.204521e-08 1.919085e-08 1.169997e-08 -6.469213e-03 7.915574e-03 7.846633e-03 7.105639e-03 8.445180e-03 -3.366752e-04 -1.303187e-03 -7.868514e-03 -5.922113e-03 3.942743e-04 1.563429e-03 4.659003e-03 -2.882905e-03
<VARIANCE> 25
 5.294691e+01 4.963992e+01 4.432232e+01 7.569560e+01 6.260971e+01 5.816381e+01 3.991302e+01 5.058298e+01 4.723607e+01 3.758217e+01 2.628475e+01 3.142200e+01 1.848056e+00 1.592366e+00 1.743356e+00 2.282314e+00 2.269823e+00 2.684780e+00 2.440277e+00 2.933924e+00 2.493926e+00 2.308038e+00 2.002368e+00 1.925660e+00 2.247548e+00
<GCONST> 1.020937e+02
<STATE> 3
<MEAN> 25
 1.417616e-07 -1.344591e-08 6.744688e-09 3.520858e-08 1.539470e-08 -2.960128e-08 -2.596451e-08 -3.361477e-08 -1.956032e-08 2.204521e-08 1.919085e-08 1.169997e-08 -6.469213e-03 7.915574e-03 7.846633e-03 7.105639e-03 8.445180e-03 -3.366752e-04 -1.303187e-03 -7.868514e-03 -5.922113e-03 3.942743e-04 1.563429e-03 4.659003e-03 -2.882905e-03
<VARIANCE> 25
 5.294691e+01 4.963992e+01 4.432232e+01 7.569560e+01 6.260971e+01 5.816381e+01 3.991302e+01 5.058298e+01 4.723607e+01 3.758217e+01 2.628475e+01 3.142200e+01 1.848056e+00 1.592366e+00 1.743356e+00 2.282314e+00 2.269823e+00 2.684780e+00 2.440277e+00 2.933924e+00 2.493926e+00 2.308038e+00 2.002368e+00 1.925660e+00 2.247548e+00
<GCONST> 1.020937e+02
<STATE> 4
<MEAN> 25
 1.417616e-07 -1.344591e-08 6.744688e-09 3.520858e-08 1.539470e-08 -2.960128e-08 -2.596451e-08 -3.361477e-08 -1.956032e-08 2.204521e-08 1.919085e-08 1.169997e-08 -6.469213e-03 7.915574e-03 7.846633e-03 7.105639e-03 8.445180e-03 -3.366752e-04 -1.303187e-03 -7.868514e-03 -5.922113e-03 3.942743e-04 1.563429e-03 4.659003e-03 -2.882905e-03
<VARIANCE> 25
 5.294691e+01 4.963992e+01 4.432232e+01 7.569560e+01 6.260971e+01 5.816381e+01 3.991302e+01 5.058298e+01 4.723607e+01 3.758217e+01 2.628475e+01 3.142200e+01 1.848056e+00 1.592366e+00 1.743356e+00 2.282314e+00 2.269823e+00 2.684780e+00 2.440277e+00 2.933924e+00 2.493926e+00 2.308038e+00 2.002368e+00 1.925660e+00 2.247548e+00
<GCONST> 1.020937e+02
<TRANSP> 5
 0.000000e+00 1.000000e+00 0.000000e+00 0.000000e+00 0.000000e+00
 0.000000e+00 6.000000e-01 4.000000e-01 0.000000e+00 0.000000e+00
 0.000000e+00 0.000000e+00 6.000000e-01 4.000000e-01 0.000000e+00
 0.000000e+00 0.000000e+00 0.000000e+00 7.000000e-01 3.000000e-01
 0.000000e+00 0.000000e+00 0.000000e+00 0.000000e+00 0.000000e+00
<ENDHMM>
~h "r"
<BEGINHMM>
<NUMSTATES> 5
<STATE> 2
<MEAN> 25
 1.417616e-07 -1.344591e-08 6.744688e-09 3.520858e-08 1.539470e-08 -2.960128e-08 -2.596451e-08 -3.361477e-08 -1.956032e-08 2.204521e-08 1.919085e-08 1.169997e-08 -6.469213e-03 7.915574e-03 7.846633e-03 7.105639e-03 8.445180e-03 -3.366752e-04 -1.303187e-03 -7.868514e-03 -5.922113e-03 3.942743e-04 1.563429e-03 4.659003e-03 -2.882905e-03
<VARIANCE> 25
 5.294691e+01 4.963992e+01 4.432232e+01 7.569560e+01 6.260971e+01 5.816381e+01 3.991302e+01 5.058298e+01 4.723607e+01 3.758217e+01 2.628475e+01 3.142200e+01 1.848056e+00 1.592366e+00 1.743356e+00 2.282314e+00 2.269823e+00 2.684780e+00 2.440277e+00 2.933924e+00 2.493926e+00 2.308038e+00 2.002368e+00 1.925660e+00 2.247548e+00
<GCONST> 1.020937e+02
<STATE> 3
<MEAN> 25
 1.417616e-07 -1.344591e-08 6.744688e-09 3.520858e-08 1.539470e-08 -2.960128e-08 -2.596451e-08 -3.361477e-08 -1.956032e-08 2.204521e-08 1.919085e-08 1.169997e-08 -6.469213e-03 7.915574e-03 7.846633e-03 7.105639e-03 8.445180e-03 -3.366752e-04 -1.303187e-03 -7.868514e-03 -5.922113e-03 3.942743e-04 1.563429e-03 4.659003e-03 -2.882905e-03
<VARIANCE> 25
 5.294691e+01 4.963992e+01 4.432232e+01 7.569560e+01 6.260971e+01 5.816381e+01 3.991302e+01 5.058298e+01 4.723607e+01 3.758217e+01 2.628475e+01 3.142200e+01 1.848056e+00 1.592366e+00 1.743356e+00 2.282314e+00 2.269823e+00 2.684780e+00 2.440277e+00 2.933924e+00 2.493926e+00 2.308038e+00 2.002368e+00 1.925660e+00 2.247548e+00
<GCONST> 1.020937e+02
<STATE> 4
<MEAN> 25
 1.417616e-07 -1.344591e-08 6.744688e-09 3.520858e-08 1.539470e-08 -2.960128e-08 -2.596451e-08 -3.361477e-08 -1.956032e-08 2.204521e-08 1.919085e-08 1.169997e-08 -6.469213e-03 7.915574e-03 7.846633e-03 7.105639e-03 8.445180e-03 -3.366752e-04 -1.303187e-03 -7.868514e-03 -5.922113e-03 3.942743e-04 1.563429e-03 4.659003e-03 -2.882905e-03
<VARIANCE> 25
 5.294691e+01 4.963992e+01 4.432232e+01 7.569560e+01 6.260971e+01 5.816381e+01 3.991302e+01 5.058298e+01 4.723607e+01 3.758217e+01 2.628475e+01 3.142200e+01 1.848056e+00 1.592366e+00 1.743356e+00 2.282314e+00 2.269823e+00 2.684780e+00 2.440277e+00 2.933924e+00 2.493926e+00 2.308038e+00 2.002368e+00 1.925660e+00 2.247548e+00
<GCONST> 1.020937e+02
<TRANSP> 5
 0.000000e+00 1.000000e+00 0.000000e+00 0.000000e+00 0.000000e+00
 0.000000e+00 6.000000e-01 4.000000e-01 0.000000e+00 0.000000e+00
 0.000000e+00 0.000000e+00 6.000000e-01 4.000000e-01 0.000000e+00
 0.000000e+00 0.000000e+00 0.000000e+00 7.000000e-01 3.000000e-01
 0.000000e+00 0.000000e+00 0.000000e+00 0.000000e+00 0.000000e+00
<ENDHMM>
~h "f"
<BEGINHMM>
<NUMSTATES> 5
<STATE> 2
<MEAN> 25
 1.417616e-07 -1.344591e-08 6.744688e-09 3.520858e-08 1.539470e-08 -2.960128e-08 -2.596451e-08 -3.361477e-08 -1.956032e-08 2.204521e-08 1.919085e-08 1.169997e-08 -6.469213e-03 7.915574e-03 7.846633e-03 7.105639e-03 8.445180e-03 -3.366752e-04 -1.303187e-03 -7.868514e-03 -5.922113e-03 3.942743e-04 1.563429e-03 4.659003e-03 -2.882905e-03
<VARIANCE> 25
 5.294691e+01 4.963992e+01 4.432232e+01 7.569560e+01 6.260971e+01 5.816381e+01 3.991302e+01 5.058298e+01 4.723607e+01 3.758217e+01 2.628475e+01 3.142200e+01 1.848056e+00 1.592366e+00 1.743356e+00 2.282314e+00 2.269823e+00 2.684780e+00 2.440277e+00 2.933924e+00 2.493926e+00 2.308038e+00 2.002368e+00 1.925660e+00 2.247548e+00
<GCONST> 1.020937e+02
<STATE> 3
<MEAN> 25
 1.417616e-07 -1.344591e-08 6.744688e-09 3.520858e-08 1.539470e-08 -2.960128e-08 -2.596451e-08 -3.361477e-08 -1.956032e-08 2.204521e-08 1.919085e-08 1.169997e-08 -6.469213e-03 7.915574e-03 7.846633e-03 7.105639e-03 8.445180e-03 -3.366752e-04 -1.303187e-03 -7.868514e-03 -5.922113e-03 3.942743e-04 1.563429e-03 4.659003e-03 -2.882905e-03
<VARIANCE> 25
 5.294691e+01 4.963992e+01 4.432232e+01 7.569560e+01 6.260971e+01 5.816381e+01 3.991302e+01 5.058298e+01 4.723607e+01 3.758217e+01 2.628475e+01 3.142200e+01 1.848056e+00 1.592366e+00 1.743356e+00 2.282314e+00 2.269823e+00 2.684780e+00 2.440277e+00 2.933924e+00 2.493926e+00 2.308038e+00 2.002368e+00 1.925660e+00 2.247548e+00
<GCONST> 1.020937e+02
<STATE> 4
<MEAN> 25
 1.417616e-07 -1.344591e-08 6.744688e-09 3.520858e-08 1.539470e-08 -2.960128e-08 -2.596451e-08 -3.361477e-08 -1.956032e-08 2.204521e-08 1.919085e-08 1.169997e-08 -6.469213e-03 7.915574e-03 7.846633e-03 7.105639e-03 8.445180e-03 -3.366752e-04 -1.303187e-03 -7.868514e-03 -5.922113e-03 3.942743e-04 1.563429e-03 4.659003e-03 -2.882905e-03
<VARIANCE> 25
 5.294691e+01 4.963992e+01 4.432232e+01 7.569560e+01 6.260971e+01 5.816381e+01 3.991302e+01 5.058298e+01 4.723607e+01 3.758217e+01 2.628475e+01 3.142200e+01 1.848056e+00 1.592366e+00 1.743356e+00 2.282314e+00 2.269823e+00 2.684780e+00 2.440277e+00 2.933924e+00 2.493926e+00 2.308038e+00 2.002368e+00 1.925660e+00 2.247548e+00
<GCONST> 1.020937e+02
<TRANSP> 5
 0.000000e+00 1.000000e+00 0.000000e+00 0.000000e+00 0.000000e+00
 0.000000e+00 6.000000e-01 4.000000e-01 0.000000e+00 0.000000e+00
 0.000000e+00 0.000000e+00 6.000000e-01 4.000000e-01 0.000000e+00
 0.000000e+00 0.000000e+00 0.000000e+00 7.000000e-01 3.000000e-01
 0.000000e+00 0.000000e+00 0.000000e+00 0.000000e+00 0.000000e+00
<ENDHMM>
~h "g"
<BEGINHMM>
<NUMSTATES> 5
<STATE> 2
<MEAN> 25
 1.417616e-07 -1.344591e-08 6.744688e-09 3.520858e-08 1.539470e-08 -2.960128e-08 -2.596451e-08 -3.361477e-08 -1.956032e-08 2.204521e-08 1.919085e-08 1.169997e-08 -6.469213e-03 7.915574e-03 7.846633e-03 7.105639e-03 8.445180e-03 -3.366752e-04 -1.303187e-03 -7.868514e-03 -5.922113e-03 3.942743e-04 1.563429e-03 4.659003e-03 -2.882905e-03
<VARIANCE> 25
 5.294691e+01 4.963992e+01 4.432232e+01 7.569560e+01 6.260971e+01 5.816381e+01 3.991302e+01 5.058298e+01 4.723607e+01 3.758217e+01 2.628475e+01 3.142200e+01 1.848056e+00 1.592366e+00 1.743356e+00 2.282314e+00 2.269823e+00 2.684780e+00 2.440277e+00 2.933924e+00 2.493926e+00 2.308038e+00 2.002368e+00 1.925660e+00 2.247548e+00
<GCONST> 1.020937e+02
<STATE> 3
<MEAN> 25
 1.417616e-07 -1.344591e-08 6.744688e-09 3.520858e-08 1.539470e-08 -2.960128e-08 -2.596451e-08 -3.361477e-08 -1.956032e-08 2.204521e-08 1.919085e-08 1.169997e-08 -6.469213e-03 7.915574e-03 7.846633e-03 7.105639e-03 8.445180e-03 -3.366752e-04 -1.303187e-03 -7.868514e-03 -5.922113e-03 3.942743e-04 1.563429e-03 4.659003e-03 -2.882905e-03
<VARIANCE> 25
 5.294691e+01 4.963992e+01 4.432232e+01 7.569560e+01 6.260971e+01 5.816381e+01 3.991302e+01 5.058298e+01 4.723607e+01 3.758217e+01 2.628475e+01 3.142200e+01 1.848056e+00 1.592366e+00 1.743356e+00 2.282314e+00 2.269823e+00 2.684780e+00 2.440277e+00 2.933924e+00 2.493926e+00 2.308038e+00 2.002368e+00 1.925660e+00 2.247548e+00
<GCONST> 1.020937e+02
<STATE> 4
<MEAN> 25
 1.417616e-07 -1.344591e-08 6.744688e-09 3.520858e-08 1.539470e-08 -2.960128e-08 -2.596451e-08 -3.361477e-08 -1.956032e-08 2.204521e-08 1.919085e-08 1.169997e-08 -6.469213e-03 7.915574e-03 7.846633e-03 7.105639e-03 8.445180e-03 -3.366752e-04 -1.303187e-03 -7.868514e-03 -5.922113e-03 3.942743e-04 1.563429e-03 4.659003e-03 -2.882905e-03
<VARIANCE> 25
 5.294691e+01 4.963992e+01 4.432232e+01 7.569560e+01 6.260971e+01 5.816381e+01 3.991302e+01 5.058298e+01 4.723607e+01 3.758217e+01 2.628475e+01 3.142200e+01 1.848056e+00 1.592366e+00 1.743356e+00 2.282314e+00 2.269823e+00 2.684780e+00 2.440277e+00 2.933924e+00 2.493926e+00 2.308038e+00 2.002368e+00 1.925660e+00 2.247548e+00
<GCONST> 1.020937e+02
<TRANSP> 5
 0.000000e+00 1.000000e+00 0.000000e+00 0.000000e+00 0.000000e+00
 0.000000e+00 6.000000e-01 4.000000e-01 0.000000e+00 0.000000e+00
 0.000000e+00 0.000000e+00 6.000000e-01 4.000000e-01 0.000000e+00
 0.000000e+00 0.000000e+00 0.000000e+00 7.000000e-01 3.000000e-01
 0.000000e+00 0.000000e+00 0.000000e+00 0.000000e+00 0.000000e+00
<ENDHMM>
~h "s"
<BEGINHMM>
<NUMSTATES> 5
<STATE> 2
<MEAN> 25
 1.417616e-07 -1.344591e-08 6.744688e-09 3.520858e-08 1.539470e-08 -2.960128e-08 -2.596451e-08 -3.361477e-08 -1.956032e-08 2.204521e-08 1.919085e-08 1.169997e-08 -6.469213e-03 7.915574e-03 7.846633e-03 7.105639e-03 8.445180e-03 -3.366752e-04 -1.303187e-03 -7.868514e-03 -5.922113e-03 3.942743e-04 1.563429e-03 4.659003e-03 -2.882905e-03
<VARIANCE> 25
 5.294691e+01 4.963992e+01 4.432232e+01 7.569560e+01 6.260971e+01 5.816381e+01 3.991302e+01 5.058298e+01 4.723607e+01 3.758217e+01 2.628475e+01 3.142200e+01 1.848056e+00 1.592366e+00 1.743356e+00 2.282314e+00 2.269823e+00 2.684780e+00 2.440277e+00 2.933924e+00 2.493926e+00 2.308038e+00 2.002368e+00 1.925660e+00 2.247548e+00
<GCONST> 1.020937e+02
<STATE> 3
<MEAN> 25
 1.417616e-07 -1.344591e-08 6.744688e-09 3.520858e-08 1.539470e-08 -2.960128e-08 -2.596451e-08 -3.361477e-08 -1.956032e-08 2.204521e-08 1.919085e-08 1.169997e-08 -6.469213e-03 7.915574e-03 7.846633e-03 7.105639e-03 8.445180e-03 -3.366752e-04 -1.303187e-03 -7.868514e-03 -5.922113e-03 3.942743e-04 1.563429e-03 4.659003e-03 -2.882905e-03
<VARIANCE> 25
 5.294691e+01 4.963992e+01 4.432232e+01 7.569560e+01 6.260971e+01 5.816381e+01 3.991302e+01 5.058298e+01 4.723607e+01 3.758217e+01 2.628475e+01 3.142200e+01 1.848056e+00 1.592366e+00 1.743356e+00 2.282314e+00 2.269823e+00 2.684780e+00 2.440277e+00 2.933924e+00 2.493926e+00 2.308038e+00 2.002368e+00 1.925660e+00 2.247548e+00
<GCONST> 1.020937e+02
<STATE> 4
<MEAN> 25
 1.417616e-07 -1.344591e-08 6.744688e-09 3.520858e-08 1.539470e-08 -2.960128e-08 -2.596451e-08 -3.361477e-08 -1.956032e-08 2.204521e-08 1.919085e-08 1.169997e-08 -6.469213e-03 7.915574e-03 7.846633e-03 7.105639e-03 8.445180e-03 -3.366752e-04 -1.303187e-03 -7.868514e-03 -5.922113e-03 3.942743e-04 1.563429e-03 4.659003e-03 -2.882905e-03
<VARIANCE> 25
 5.294691e+01 4.963992e+01 4.432232e+01 7.569560e+01 6.260971e+01 5.816381e+01 3.991302e+01 5.058298e+01 4.723607e+01 3.758217e+01 2.628475e+01 3.142200e+01 1.848056e+00 1.592366e+00 1.743356e+00 2.282314e+00 2.269823e+00 2.684780e+00 2.440277e+00 2.933924e+00 2.493926e+00 2.308038e+00 2.002368e+00 1.925660e+00 2.247548e+00
<GCONST> 1.020937e+02
<TRANSP> 5
 0.000000e+00 1.000000e+00 0.000000e+00 0.000000e+00 0.000000e+00
 0.000000e+00 6.000000e-01 4.000000e-01 0.000000e+00 0.000000e+00
 0.000000e+00 0.000000e+00 6.000000e-01 4.000000e-01 0.000000e+00
 0.000000e+00 0.000000e+00 0.000000e+00 7.000000e-01 3.000000e-01
 0.000000e+00 0.000000e+00 0.000000e+00 0.000000e+00 0.000000e+00
<ENDHMM>
~h "th"
<BEGINHMM>
<NUMSTATES> 5
<STATE> 2
<MEAN> 25
 1.417616e-07 -1.344591e-08 6.744688e-09 3.520858e-08 1.539470e-08 -2.960128e-08 -2.596451e-08 -3.361477e-08 -1.956032e-08 2.204521e-08 1.919085e-08 1.169997e-08 -6.469213e-03 7.915574e-03 7.846633e-03 7.105639e-03 8.445180e-03 -3.366752e-04 -1.303187e-03 -7.868514e-03 -5.922113e-03 3.942743e-04 1.563429e-03 4.659003e-03 -2.882905e-03
<VARIANCE> 25
 5.294691e+01 4.963992e+01 4.432232e+01 7.569560e+01 6.260971e+01 5.816381e+01 3.991302e+01 5.058298e+01 4.723607e+01 3.758217e+01 2.628475e+01 3.142200e+01 1.848056e+00 1.592366e+00 1.743356e+00 2.282314e+00 2.269823e+00 2.684780e+00 2.440277e+00 2.933924e+00 2.493926e+00 2.308038e+00 2.002368e+00 1.925660e+00 2.247548e+00
<GCONST> 1.020937e+02
<STATE> 3
<MEAN> 25
 1.417616e-07 -1.344591e-08 6.744688e-09 3.520858e-08 1.539470e-08 -2.960128e-08 -2.596451e-08 -3.361477e-08 -1.956032e-08 2.204521e-08 1.919085e-08 1.169997e-08 -6.469213e-03 7.915574e-03 7.846633e-03 7.105639e-03 8.445180e-03 -3.366752e-04 -1.303187e-03 -7.868514e-03 -5.922113e-03 3.942743e-04 1.563429e-03 4.659003e-03 -2.882905e-03
<VARIANCE> 25
 5.294691e+01 4.963992e+01 4.432232e+01 7.569560e+01 6.260971e+01 5.816381e+01 3.991302e+01 5.058298e+01 4.723607e+01 3.758217e+01 2.628475e+01 3.142200e+01 1.848056e+00 1.592366e+00 1.743356e+00 2.282314e+00 2.269823e+00 2.684780e+00 2.440277e+00 2.933924e+00 2.493926e+00 2.308038e+00 2.002368e+00 1.925660e+00 2.247548e+00
<GCONST> 1.020937e+02
<STATE> 4
<MEAN> 25
 1.417616e-07 -1.344591e-08 6.744688e-09 3.520858e-08 1.539470e-08 -2.960128e-08 -2.596451e-08 -3.361477e-08 -1.956032e-08 2.204521e-08 1.919085e-08 1.169997e-08 -6.469213e-03 7.915574e-03 7.846633e-03 7.105639e-03 8.445180e-03 -3.366752e-04 -1.303187e-03 -7.868514e-03 -5.922113e-03 3.942743e-04 1.563429e-03 4.659003e-03 -2.882905e-03
<VARIANCE> 25
 5.294691e+01 4.963992e+01 4.432232e+01 7.569560e+01 6.260971e+01 5.816381e+01 3.991302e+01 5.058298e+01 4.723607e+01 3.758217e+01 2.628475e+01 3.142200e+01 1.848056e+00 1.592366e+00 1.743356e+00 2.282314e+00 2.269823e+00 2.684780e+00 2.440277e+00 2.933924e+00 2.493926e+00 2.308038e+00 2.002368e+00 1.925660e+00 2.247548e+00
<GCONST> 1.020937e+02
<TRANSP> 5
 0.000000e+00 1.000000e+00 0.000000e+00 0.000000e+00 0.000000e+00
 0.000000e+00 6.000000e-01 4.000000e-01 0.000000e+00 0.000000e+00
 0.000000e+00 0.000000e+00 6.000000e-01 4.000000e-01 0.000000e+00
 0.000000e+00 0.000000e+00 0.000000e+00 7.000000e-01 3.000000e-01
 0.000000e+00 0.000000e+00 0.000000e+00 0.000000e+00 0.000000e+00
<ENDHMM>
~h "hh"
<BEGINHMM>
<NUMSTATES> 5
<STATE> 2
<MEAN> 25
 1.417616e-07 -1.344591e-08 6.744688e-09 3.520858e-08 1.539470e-08 -2.960128e-08 -2.596451e-08 -3.361477e-08 -1.956032e-08 2.204521e-08 1.919085e-08 1.169997e-08 -6.469213e-03 7.915574e-03 7.846633e-03 7.105639e-03 8.445180e-03 -3.366752e-04 -1.303187e-03 -7.868514e-03 -5.922113e-03 3.942743e-04 1.563429e-03 4.659003e-03 -2.882905e-03
<VARIANCE> 25
 5.294691e+01 4.963992e+01 4.432232e+01 7.569560e+01 6.260971e+01 5.816381e+01 3.991302e+01 5.058298e+01 4.723607e+01 3.758217e+01 2.628475e+01 3.142200e+01 1.848056e+00 1.592366e+00 1.743356e+00 2.282314e+00 2.269823e+00 2.684780e+00 2.440277e+00 2.933924e+00 2.493926e+00 2.308038e+00 2.002368e+00 1.925660e+00 2.247548e+00
<GCONST> 1.020937e+02
<STATE> 3
<MEAN> 25
 1.417616e-07 -1.344591e-08 6.744688e-09 3.520858e-08 1.539470e-08 -2.960128e-08 -2.596451e-08 -3.361477e-08 -1.956032e-08 2.204521e-08 1.919085e-08 1.169997e-08 -6.469213e-03 7.915574e-03 7.846633e-03 7.105639e-03 8.445180e-03 -3.366752e-04 -1.303187e-03 -7.868514e-03 -5.922113e-03 3.942743e-04 1.563429e-03 4.659003e-03 -2.882905e-03
<VARIANCE> 25
 5.294691e+01 4.963992e+01 4.432232e+01 7.569560e+01 6.260971e+01 5.816381e+01 3.991302e+01 5.058298e+01 4.723607e+01 3.758217e+01 2.628475e+01 3.142200e+01 1.848056e+00 1.592366e+00 1.743356e+00 2.282314e+00 2.269823e+00 2.684780e+00 2.440277e+00 2.933924e+00 2.493926e+00 2.308038e+00 2.002368e+00 1.925660e+00 2.247548e+00
<GCONST> 1.020937e+02
<STATE> 4
<MEAN> 25
 1.417616e-07 -1.344591e-08 6.744688e-09 3.520858e-08 1.539470e-08 -2.960128e-08 -2.596451e-08 -3.361477e-08 -1.956032e-08 2.204521e-08 1.919085e-08 1.169997e-08 -6.469213e-03 7.915574e-03 7.846633e-03 7.105639e-03 8.445180e-03 -3.366752e-04 -1.303187e-03 -7.868514e-03 -5.922113e-03 3.942743e-04 1.563429e-03 4.659003e-03 -2.882905e-03
<VARIANCE> 25
 5.294691e+01 4.963992e+01 4.432232e+01 7.569560e+01 6.260971e+01 5.816381e+01 3.991302e+01 5.058298e+01 4.723607e+01 3.758217e+01 2.628475e+01 3.142200e+01 1.848056e+00 1.592366e+00 1.743356e+00 2.282314e+00 2.269823e+00 2.684780e+00 2.440277e+00 2.933924e+00 2.493926e+00 2.308038e+00 2.002368e+00 1.925660e+00 2.247548e+00
<GCONST> 1.020937e+02
<TRANSP> 5
 0.000000e+00 1.000000e+00 0.000000e+00 0.000000e+00 0.000000e+00
 0.000000e+00 6.000000e-01 4.000000e-01 0.000000e+00 0.000000e+00
 0.000000e+00 0.000000e+00 6.000000e-01 4.000000e-01 0.000000e+00
 0.000000e+00 0.000000e+00 0.000000e+00 7.000000e-01 3.000000e-01
 0.000000e+00 0.000000e+00 0.000000e+00 0.000000e+00 0.000000e+00
<ENDHMM>
~h "ey"
<BEGINHMM>
<NUMSTATES> 5
<STATE> 2
<MEAN> 25
 1.417616e-07 -1.344591e-08 6.744688e-09 3.520858e-08 1.539470e-08 -2.960128e-08 -2.596451e-08 -3.361477e-08 -1.956032e-08 2.204521e-08 1.919085e-08 1.169997e-08 -6.469213e-03 7.915574e-03 7.846633e-03 7.105639e-03 8.445180e-03 -3.366752e-04 -1.303187e-03 -7.868514e-03 -5.922113e-03 3.942743e-04 1.563429e-03 4.659003e-03 -2.882905e-03
<VARIANCE> 25
 5.294691e+01 4.963992e+01 4.432232e+01 7.569560e+01 6.260971e+01 5.816381e+01 3.991302e+01 5.058298e+01 4.723607e+01 3.758217e+01 2.628475e+01 3.142200e+01 1.848056e+00 1.592366e+00 1.743356e+00 2.282314e+00 2.269823e+00 2.684780e+00 2.440277e+00 2.933924e+00 2.493926e+00 2.308038e+00 2.002368e+00 1.925660e+00 2.247548e+00
<GCONST> 1.020937e+02
<STATE> 3
<MEAN> 25
 1.417616e-07 -1.344591e-08 6.744688e-09 3.520858e-08 1.539470e-08 -2.960128e-08 -2.596451e-08 -3.361477e-08 -1.956032e-08 2.204521e-08 1.919085e-08 1.169997e-08 -6.469213e-03 7.915574e-03 7.846633e-03 7.105639e-03 8.445180e-03 -3.366752e-04 -1.303187e-03 -7.868514e-03 -5.922113e-03 3.942743e-04 1.563429e-03 4.659003e-03 -2.882905e-03
<VARIANCE> 25
 5.294691e+01 4.963992e+01 4.432232e+01 7.569560e+01 6.260971e+01 5.816381e+01 3.991302e+01 5.058298e+01 4.723607e+01 3.758217e+01 2.628475e+01 3.142200e+01 1.848056e+00 1.592366e+00 1.743356e+00 2.282314e+00 2.269823e+00 2.684780e+00 2.440277e+00 2.933924e+00 2.493926e+00 2.308038e+00 2.002368e+00 1.925660e+00 2.247548e+00
<GCONST> 1.020937e+02
<STATE> 4
<MEAN> 25
 1.417616e-07 -1.344591e-08 6.744688e-09 3.520858e-08 1.539470e-08 -2.960128e-08 -2.596451e-08 -3.361477e-08 -1.956032e-08 2.204521e-08 1.919085e-08 1.169997e-08 -6.469213e-03 7.915574e-03 7.846633e-03 7.105639e-03 8.445180e-03 -3.366752e-04 -1.303187e-03 -7.868514e-03 -5.922113e-03 3.942743e-04 1.563429e-03 4.659003e-03 -2.882905e-03
<VARIANCE> 25
 5.294691e+01 4.963992e+01 4.432232e+01 7.569560e+01 6.260971e+01 5.816381e+01 3.991302e+01 5.058298e+01 4.723607e+01 3.758217e+01 2.628475e+01 3.142200e+01 1.848056e+00 1.592366e+00 1.743356e+00 2.282314e+00 2.269823e+00 2.684780e+00 2.440277e+00 2.933924e+00 2.493926e+00 2.308038e+00 2.002368e+00 1.925660e+00 2.247548e+00
<GCONST> 1.020937e+02
<TRANSP> 5
 0.000000e+00 1.000000e+00 0.000000e+00 0.000000e+00 0.000000e+00
 0.000000e+00 6.000000e-01 4.000000e-01 0.000000e+00 0.000000e+00
 0.000000e+00 0.000000e+00 6.000000e-01 4.000000e-01 0.000000e+00
 0.000000e+00 0.000000e+00 0.000000e+00 7.000000e-01 3.000000e-01
 0.000000e+00 0.000000e+00 0.000000e+00 0.000000e+00 0.000000e+00
<ENDHMM>
~h "dh"
<BEGINHMM>
<NUMSTATES> 5
<STATE> 2
<MEAN> 25
 1.417616e-07 -1.344591e-08 6.744688e-09 3.520858e-08 1.539470e-08 -2.960128e-08 -2.596451e-08 -3.361477e-08 -1.956032e-08 2.204521e-08 1.919085e-08 1.169997e-08 -6.469213e-03 7.915574e-03 7.846633e-03 7.105639e-03 8.445180e-03 -3.366752e-04 -1.303187e-03 -7.868514e-03 -5.922113e-03 3.942743e-04 1.563429e-03 4.659003e-03 -2.882905e-03
<VARIANCE> 25
 5.294691e+01 4.963992e+01 4.432232e+01 7.569560e+01 6.260971e+01 5.816381e+01 3.991302e+01 5.058298e+01 4.723607e+01 3.758217e+01 2.628475e+01 3.142200e+01 1.848056e+00 1.592366e+00 1.743356e+00 2.282314e+00 2.269823e+00 2.684780e+00 2.440277e+00 2.933924e+00 2.493926e+00 2.308038e+00 2.002368e+00 1.925660e+00 2.247548e+00
<GCONST> 1.020937e+02
<STATE> 3
<MEAN> 25
 1.417616e-07 -1.344591e-08 6.744688e-09 3.520858e-08 1.539470e-08 -2.960128e-08 -2.596451e-08 -3.361477e-08 -1.956032e-08 2.204521e-08 1.919085e-08 1.169997e-08 -6.469213e-03 7.915574e-03 7.846633e-03 7.105639e-03 8.445180e-03 -3.366752e-04 -1.303187e-03 -7.868514e-03 -5.922113e-03 3.942743e-04 1.563429e-03 4.659003e-03 -2.882905e-03
<VARIANCE> 25
 5.294691e+01 4.963992e+01 4.432232e+01 7.569560e+01 6.260971e+01 5.816381e+01 3.991302e+01 5.058298e+01 4.723607e+01 3.758217e+01 2.628475e+01 3.142200e+01 1.848056e+00 1.592366e+00 1.743356e+00 2.282314e+00 2.269823e+00 2.684780e+00 2.440277e+00 2.933924e+00 2.493926e+00 2.308038e+00 2.002368e+00 1.925660e+00 2.247548e+00
<GCONST> 1.020937e+02
<STATE> 4
<MEAN> 25
 1.417616e-07 -1.344591e-08 6.744688e-09 3.520858e-08 1.539470e-08 -2.960128e-08 -2.596451e-08 -3.361477e-08 -1.956032e-08 2.204521e-08 1.919085e-08 1.169997e-08 -6.469213e-03 7.915574e-03 7.846633e-03 7.105639e-03 8.445180e-03 -3.366752e-04 -1.303187e-03 -7.868514e-03 -5.922113e-03 3.942743e-04 1.563429e-03 4.659003e-03 -2.882905e-03
<VARIANCE> 25
 5.294691e+01 4.963992e+01 4.432232e+01 7.569560e+01 6.260971e+01 5.816381e+01 3.991302e+01 5.058298e+01 4.723607e+01 3.758217e+01 2.628475e+01 3.142200e+01 1.848056e+00 1.592366e+00 1.743356e+00 2.282314e+00 2.269823e+00 2.684780e+00 2.440277e+00 2.933924e+00 2.493926e+00 2.308038e+00 2.002368e+00 1.925660e+00 2.247548e+00
<GCONST> 1.020937e+02
<TRANSP> 5
 0.000000e+00 1.000000e+00 0.000000e+00 0.000000e+00 0.000000e+00
 0.000000e+00 6.000000e-01 4.000000e-01 0.000000e+00 0.000000e+00
 0.000000e+00 0.000000e+00 6.000000e-01 4.000000e-01 0.000000e+00
 0.000000e+00 0.000000e+00 0.000000e+00 7.000000e-01 3.000000e-01
 0.000000e+00 0.000000e+00 0.000000e+00 0.000000e+00 0.000000e+00
<ENDHMM>
~h "ao"
<BEGINHMM>
<NUMSTATES> 5
<STATE> 2
<MEAN> 25
 1.417616e-07 -1.344591e-08 6.744688e-09 3.520858e-08 1.539470e-08 -2.960128e-08 -2.596451e-08 -3.361477e-08 -1.956032e-08 2.204521e-08 1.919085e-08 1.169997e-08 -6.469213e-03 7.915574e-03 7.846633e-03 7.105639e-03 8.445180e-03 -3.366752e-04 -1.303187e-03 -7.868514e-03 -5.922113e-03 3.942743e-04 1.563429e-03 4.659003e-03 -2.882905e-03
<VARIANCE> 25
 5.294691e+01 4.963992e+01 4.432232e+01 7.569560e+01 6.260971e+01 5.816381e+01 3.991302e+01 5.058298e+01 4.723607e+01 3.758217e+01 2.628475e+01 3.142200e+01 1.848056e+00 1.592366e+00 1.743356e+00 2.282314e+00 2.269823e+00 2.684780e+00 2.440277e+00 2.933924e+00 2.493926e+00 2.308038e+00 2.002368e+00 1.925660e+00 2.247548e+00
<GCONST> 1.020937e+02
<STATE> 3
<MEAN> 25
 1.417616e-07 -1.344591e-08 6.744688e-09 3.520858e-08 1.539470e-08 -2.960128e-08 -2.596451e-08 -3.361477e-08 -1.956032e-08 2.204521e-08 1.919085e-08 1.169997e-08 -6.469213e-03 7.915574e-03 7.846633e-03 7.105639e-03 8.445180e-03 -3.366752e-04 -1.303187e-03 -7.868514e-03 -5.922113e-03 3.942743e-04 1.563429e-03 4.659003e-03 -2.882905e-03
<VARIANCE> 25
 5.294691e+01 4.963992e+01 4.432232e+01 7.569560e+01 6.260971e+01 5.816381e+01 3.991302e+01 5.058298e+01 4.723607e+01 3.758217e+01 2.628475e+01 3.142200e+01 1.848056e+00 1.592366e+00 1.743356e+00 2.282314e+00 2.269823e+00 2.684780e+00 2.440277e+00 2.933924e+00 2.493926e+00 2.308038e+00 2.002368e+00 1.925660e+00 2.247548e+00
<GCONST> 1.020937e+02
<STATE> 4
<MEAN> 25
 1.417616e-07 -1.344591e-08 6.744688e-09 3.520858e-08 1.539470e-08 -2.960128e-08 -2.596451e-08 -3.361477e-08 -1.956032e-08 2.204521e-08 1.919085e-08 1.169997e-08 -6.469213e-03 7.915574e-03 7.846633e-03 7.105639e-03 8.445180e-03 -3.366752e-04 -1.303187e-03 -7.868514e-03 -5.922113e-03 3.942743e-04 1.563429e-03 4.659003e-03 -2.882905e-03
<VARIANCE> 25
 5.294691e+01 4.963992e+01 4.432232e+01 7.569560e+01 6.260971e+01 5.816381e+01 3.991302e+01 5.058298e+01 4.723607e+01 3.758217e+01 2.628475e+01 3.142200e+01 1.848056e+00 1.592366e+00 1.743356e+00 2.282314e+00 2.269823e+00 2.684780e+00 2.440277e+00 2.933924e+00 2.493926e+00 2.308038e+00 2.002368e+00 1.925660e+00 2.247548e+00
<GCONST> 1.020937e+02
<TRANSP> 5
 0.000000e+00 1.000000e+00 0.000000e+00 0.000000e+00 0.000000e+00
 0.000000e+00 6.000000e-01 4.000000e-01 0.000000e+00 0.000000e+00
 0.000000e+00 0.000000e+00 6.000000e-01 4.000000e-01 0.000000e+00
 0.000000e+00 0.000000e+00 0.000000e+00 7.000000e-01 3.000000e-01
 0.000000e+00 0.000000e+00 0.000000e+00 0.000000e+00 0.000000e+00
<ENDHMM>
~h "ay"
<BEGINHMM>
<NUMSTATES> 5
<STATE> 2
<MEAN> 25
 1.417616e-07 -1.344591e-08 6.744688e-09 3.520858e-08 1.539470e-08 -2.960128e-08 -2.596451e-08 -3.361477e-08 -1.956032e-08 2.204521e-08 1.919085e-08 1.169997e-08 -6.469213e-03 7.915574e-03 7.846633e-03 7.105639e-03 8.445180e-03 -3.366752e-04 -1.303187e-03 -7.868514e-03 -5.922113e-03 3.942743e-04 1.563429e-03 4.659003e-03 -2.882905e-03
<VARIANCE> 25
 5.294691e+01 4.963992e+01 4.432232e+01 7.569560e+01 6.260971e+01 5.816381e+01 3.991302e+01 5.058298e+01 4.723607e+01 3.758217e+01 2.628475e+01 3.142200e+01 1.848056e+00 1.592366e+00 1.743356e+00 2.282314e+00 2.269823e+00 2.684780e+00 2.440277e+00 2.933924e+00 2.493926e+00 2.308038e+00 2.002368e+00 1.925660e+00 2.247548e+00
<GCONST> 1.020937e+02
<STATE> 3
<MEAN> 25
 1.417616e-07 -1.344591e-08 6.744688e-09 3.520858e-08 1.539470e-08 -2.960128e-08 -2.596451e-08 -3.361477e-08 -1.956032e-08 2.204521e-08 1.919085e-08 1.169997e-08 -6.469213e-03 7.915574e-03 7.846633e-03 7.105639e-03 8.445180e-03 -3.366752e-04 -1.303187e-03 -7.868514e-03 -5.922113e-03 3.942743e-04 1.563429e-03 4.659003e-03 -2.882905e-03
<VARIANCE> 25
 5.294691e+01 4.963992e+01 4.432232e+01 7.569560e+01 6.260971e+01 5.816381e+01 3.991302e+01 5.058298e+01 4.723607e+01 3.758217e+01 2.628475e+01 3.142200e+01 1.848056e+00 1.592366e+00 1.743356e+00 2.282314e+00 2.269823e+00 2.684780e+00 2.440277e+00 2.933924e+00 2.493926e+00 2.308038e+00 2.002368e+00 1.925660e+00 2.247548e+00
<GCONST> 1.020937e+02
<STATE> 4
<MEAN> 25
 1.417616e-07 -1.344591e-08 6.744688e-09 3.520858e-08 1.539470e-08 -2.960128e-08 -2.596451e-08 -3.361477e-08 -1.956032e-08 2.204521e-08 1.919085e-08 1.169997e-08 -6.469213e-03 7.915574e-03 7.846633e-03 7.105639e-03 8.445180e-03 -3.366752e-04 -1.303187e-03 -7.868514e-03 -5.922113e-03 3.942743e-04 1.563429e-03 4.659003e-03 -2.882905e-03
<VARIANCE> 25
 5.294691e+01 4.963992e+01 4.432232e+01 7.569560e+01 6.260971e+01 5.816381e+01 3.991302e+01 5.058298e+01 4.723607e+01 3.758217e+01 2.628475e+01 3.142200e+01 1.848056e+00 1.592366e+00 1.743356e+00 2.282314e+00 2.269823e+00 2.684780e+00 2.440277e+00 2.933924e+00 2.493926e+00 2.308038e+00 2.002368e+00 1.925660e+00 2.247548e+00
<GCONST> 1.020937e+02
<TRANSP> 5
 0.000000e+00 1.000000e+00 0.000000e+00 0.000000e+00 0.000000e+00
 0.000000e+00 6.000000e-01 4.000000e-01 0.000000e+00 0.000000e+00
 0.000000e+00 0.000000e+00 6.000000e-01 4.000000e-01 0.000000e+00
 0.000000e+00 0.000000e+00 0.000000e+00 7.000000e-01 3.000000e-01
 0.000000e+00 0.000000e+00 0.000000e+00 0.000000e+00 0.000000e+00
<ENDHMM>
~h "zh"
<BEGINHMM>
<NUMSTATES> 5
<STATE> 2
<MEAN> 25
 1.417616e-07 -1.344591e-08 6.744688e-09 3.520858e-08 1.539470e-08 -2.960128e-08 -2.596451e-08 -3.361477e-08 -1.956032e-08 2.204521e-08 1.919085e-08 1.169997e-08 -6.469213e-03 7.915574e-03 7.846633e-03 7.105639e-03 8.445180e-03 -3.366752e-04 -1.303187e-03 -7.868514e-03 -5.922113e-03 3.942743e-04 1.563429e-03 4.659003e-03 -2.882905e-03
<VARIANCE> 25
 5.294691e+01 4.963992e+01 4.432232e+01 7.569560e+01 6.260971e+01 5.816381e+01 3.991302e+01 5.058298e+01 4.723607e+01 3.758217e+01 2.628475e+01 3.142200e+01 1.848056e+00 1.592366e+00 1.743356e+00 2.282314e+00 2.269823e+00 2.684780e+00 2.440277e+00 2.933924e+00 2.493926e+00 2.308038e+00 2.002368e+00 1.925660e+00 2.247548e+00
<GCONST> 1.020937e+02
<STATE> 3
<MEAN> 25
 1.417616e-07 -1.344591e-08 6.744688e-09 3.520858e-08 1.539470e-08 -2.960128e-08 -2.596451e-08 -3.361477e-08 -1.956032e-08 2.204521e-08 1.919085e-08 1.169997e-08 -6.469213e-03 7.915574e-03 7.846633e-03 7.105639e-03 8.445180e-03 -3.366752e-04 -1.303187e-03 -7.868514e-03 -5.922113e-03 3.942743e-04 1.563429e-03 4.659003e-03 -2.882905e-03
<VARIANCE> 25
 5.294691e+01 4.963992e+01 4.432232e+01 7.569560e+01 6.260971e+01 5.816381e+01 3.991302e+01 5.058298e+01 4.723607e+01 3.758217e+01 2.628475e+01 3.142200e+01 1.848056e+00 1.592366e+00 1.743356e+00 2.282314e+00 2.269823e+00 2.684780e+00 2.440277e+00 2.933924e+00 2.493926e+00 2.308038e+00 2.002368e+00 1.925660e+00 2.247548e+00
<GCONST> 1.020937e+02
<STATE> 4
<MEAN> 25
 1.417616e-07 -1.344591e-08 6.744688e-09 3.520858e-08 1.539470e-08 -2.960128e-08 -2.596451e-08 -3.361477e-08 -1.956032e-08 2.204521e-08 1.919085e-08 1.169997e-08 -6.469213e-03 7.915574e-03 7.846633e-03 7.105639e-03 8.445180e-03 -3.366752e-04 -1.303187e-03 -7.868514e-03 -5.922113e-03 3.942743e-04 1.563429e-03 4.659003e-03 -2.882905e-03
<VARIANCE> 25
 5.294691e+01 4.963992e+01 4.432232e+01 7.569560e+01 6.260971e+01 5.816381e+01 3.991302e+01 5.058298e+01 4.723607e+01 3.758217e+01 2.628475e+01 3.142200e+01 1.848056e+00 1.592366e+00 1.743356e+00 2.282314e+00 2.269823e+00 2.684780e+00 2.440277e+00 2.933924e+00 2.493926e+00 2.308038e+00 2.002368e+00 1.925660e+00 2.247548e+00
<GCONST> 1.020937e+02
<TRANSP> 5
 0.000000e+00 1.000000e+00 0.000000e+00 0.000000e+00 0.000000e+00
 0.000000e+00 6.000000e-01 4.000000e-01 0.000000e+00 0.000000e+00
 0.000000e+00 0.000000e+00 6.000000e-01 4.000000e-01 0.000000e+00
 0.000000e+00 0.000000e+00 0.000000e+00 7.000000e-01 3.000000e-01
 0.000000e+00 0.000000e+00 0.000000e+00 0.000000e+00 0.000000e+00
<ENDHMM>
~h "uh"
<BEGINHMM>
<NUMSTATES> 5
<STATE> 2
<MEAN> 25
 1.417616e-07 -1.344591e-08 6.744688e-09 3.520858e-08 1.539470e-08 -2.960128e-08 -2.596451e-08 -3.361477e-08 -1.956032e-08 2.204521e-08 1.919085e-08 1.169997e-08 -6.469213e-03 7.915574e-03 7.846633e-03 7.105639e-03 8.445180e-03 -3.366752e-04 -1.303187e-03 -7.868514e-03 -5.922113e-03 3.942743e-04 1.563429e-03 4.659003e-03 -2.882905e-03
<VARIANCE> 25
 5.294691e+01 4.963992e+01 4.432232e+01 7.569560e+01 6.260971e+01 5.816381e+01 3.991302e+01 5.058298e+01 4.723607e+01 3.758217e+01 2.628475e+01 3.142200e+01 1.848056e+00 1.592366e+00 1.743356e+00 2.282314e+00 2.269823e+00 2.684780e+00 2.440277e+00 2.933924e+00 2.493926e+00 2.308038e+00 2.002368e+00 1.925660e+00 2.247548e+00
<GCONST> 1.020937e+02
<STATE> 3
<MEAN> 25
 1.417616e-07 -1.344591e-08 6.744688e-09 3.520858e-08 1.539470e-08 -2.960128e-08 -2.596451e-08 -3.361477e-08 -1.956032e-08 2.204521e-08 1.919085e-08 1.169997e-08 -6.469213e-03 7.915574e-03 7.846633e-03 7.105639e-03 8.445180e-03 -3.366752e-04 -1.303187e-03 -7.868514e-03 -5.922113e-03 3.942743e-04 1.563429e-03 4.659003e-03 -2.882905e-03
<VARIANCE> 25
 5.294691e+01 4.963992e+01 4.432232e+01 7.569560e+01 6.260971e+01 5.816381e+01 3.991302e+01 5.058298e+01 4.723607e+01 3.758217e+01 2.628475e+01 3.142200e+01 1.848056e+00 1.592366e+00 1.743356e+00 2.282314e+00 2.269823e+00 2.684780e+00 2.440277e+00 2.933924e+00 2.493926e+00 2.308038e+00 2.002368e+00 1.925660e+00 2.247548e+00
<GCONST> 1.020937e+02
<STATE> 4
<MEAN> 25
 1.417616e-07 -1.344591e-08 6.744688e-09 3.520858e-08 1.539470e-08 -2.960128e-08 -2.596451e-08 -3.361477e-08 -1.956032e-08 2.204521e-08 1.919085e-08 1.169997e-08 -6.469213e-03 7.915574e-03 7.846633e-03 7.105639e-03 8.445180e-03 -3.366752e-04 -1.303187e-03 -7.868514e-03 -5.922113e-03 3.942743e-04 1.563429e-03 4.659003e-03 -2.882905e-03
<VARIANCE> 25
 5.294691e+01 4.963992e+01 4.432232e+01 7.569560e+01 6.260971e+01 5.816381e+01 3.991302e+01 5.058298e+01 4.723607e+01 3.758217e+01 2.628475e+01 3.142200e+01 1.848056e+00 1.592366e+00 1.743356e+00 2.282314e+00 2.269823e+00 2.684780e+00 2.440277e+00 2.933924e+00 2.493926e+00 2.308038e+00 2.002368e+00 1.925660e+00 2.247548e+00
<GCONST> 1.020937e+02
<TRANSP> 5
 0.000000e+00 1.000000e+00 0.000000e+00 0.000000e+00 0.000000e+00
 0.000000e+00 6.000000e-01 4.000000e-01 0.000000e+00 0.000000e+00
 0.000000e+00 0.000000e+00 6.000000e-01 4.000000e-01 0.000000e+00
 0.000000e+00 0.000000e+00 0.000000e+00 7.000000e-01 3.000000e-01
 0.000000e+00 0.000000e+00 0.000000e+00 0.000000e+00 0.000000e+00
<ENDHMM>
~h "oy"
<BEGINHMM>
<NUMSTATES> 5
<STATE> 2
<MEAN> 25
 1.417616e-07 -1.344591e-08 6.744688e-09 3.520858e-08 1.539470e-08 -2.960128e-08 -2.596451e-08 -3.361477e-08 -1.956032e-08 2.204521e-08 1.919085e-08 1.169997e-08 -6.469213e-03 7.915574e-03 7.846633e-03 7.105639e-03 8.445180e-03 -3.366752e-04 -1.303187e-03 -7.868514e-03 -5.922113e-03 3.942743e-04 1.563429e-03 4.659003e-03 -2.882905e-03
<VARIANCE> 25
 5.294691e+01 4.963992e+01 4.432232e+01 7.569560e+01 6.260971e+01 5.816381e+01 3.991302e+01 5.058298e+01 4.723607e+01 3.758217e+01 2.628475e+01 3.142200e+01 1.848056e+00 1.592366e+00 1.743356e+00 2.282314e+00 2.269823e+00 2.684780e+00 2.440277e+00 2.933924e+00 2.493926e+00 2.308038e+00 2.002368e+00 1.925660e+00 2.247548e+00
<GCONST> 1.020937e+02
<STATE> 3
<MEAN> 25
 1.417616e-07 -1.344591e-08 6.744688e-09 3.520858e-08 1.539470e-08 -2.960128e-08 -2.596451e-08 -3.361477e-08 -1.956032e-08 2.204521e-08 1.919085e-08 1.169997e-08 -6.469213e-03 7.915574e-03 7.846633e-03 7.105639e-03 8.445180e-03 -3.366752e-04 -1.303187e-03 -7.868514e-03 -5.922113e-03 3.942743e-04 1.563429e-03 4.659003e-03 -2.882905e-03
<VARIANCE> 25
 5.294691e+01 4.963992e+01 4.432232e+01 7.569560e+01 6.260971e+01 5.816381e+01 3.991302e+01 5.058298e+01 4.723607e+01 3.758217e+01 2.628475e+01 3.142200e+01 1.848056e+00 1.592366e+00 1.743356e+00 2.282314e+00 2.269823e+00 2.684780e+00 2.440277e+00 2.933924e+00 2.493926e+00 2.308038e+00 2.002368e+00 1.925660e+00 2.247548e+00
<GCONST> 1.020937e+02
<STATE> 4
<MEAN> 25
 1.417616e-07 -1.344591e-08 6.744688e-09 3.520858e-08 1.539470e-08 -2.960128e-08 -2.596451e-08 -3.361477e-08 -1.956032e-08 2.204521e-08 1.919085e-08 1.169997e-08 -6.469213e-03 7.915574e-03 7.846633e-03 7.105639e-03 8.445180e-03 -3.366752e-04 -1.303187e-03 -7.868514e-03 -5.922113e-03 3.942743e-04 1.563429e-03 4.659003e-03 -2.882905e-03
<VARIANCE> 25
 5.294691e+01 4.963992e+01 4.432232e+01 7.569560e+01 6.260971e+01 5.816381e+01 3.991302e+01 5.058298e+01 4.723607e+01 3.758217e+01 2.628475e+01 3.142200e+01 1.848056e+00 1.592366e+00 1.743356e+00 2.282314e+00 2.269823e+00 2.684780e+00 2.440277e+00 2.933924e+00 2.493926e+00 2.308038e+00 2.002368e+00 1.925660e+00 2.247548e+00
<GCONST> 1.020937e+02
<TRANSP> 5
 0.000000e+00 1.000000e+00 0.000000e+00 0.000000e+00 0.000000e+00
 0.000000e+00 6.000000e-01 4.000000e-01 0.000000e+00 0.000000e+00
 0.000000e+00 0.000000e+00 6.000000e-01 4.000000e-01 0.000000e+00
 0.000000e+00 0.000000e+00 0.000000e+00 7.000000e-01 3.000000e-01
 0.000000e+00 0.000000e+00 0.000000e+00 0.000000e+00 0.000000e+00
<ENDHMM>
~h "jh"
<BEGINHMM>
<NUMSTATES> 5
<STATE> 2
<MEAN> 25
 1.417616e-07 -1.344591e-08 6.744688e-09 3.520858e-08 1.539470e-08 -2.960128e-08 -2.596451e-08 -3.361477e-08 -1.956032e-08 2.204521e-08 1.919085e-08 1.169997e-08 -6.469213e-03 7.915574e-03 7.846633e-03 7.105639e-03 8.445180e-03 -3.366752e-04 -1.303187e-03 -7.868514e-03 -5.922113e-03 3.942743e-04 1.563429e-03 4.659003e-03 -2.882905e-03
<VARIANCE> 25
 5.294691e+01 4.963992e+01 4.432232e+01 7.569560e+01 6.260971e+01 5.816381e+01 3.991302e+01 5.058298e+01 4.723607e+01 3.758217e+01 2.628475e+01 3.142200e+01 1.848056e+00 1.592366e+00 1.743356e+00 2.282314e+00 2.269823e+00 2.684780e+00 2.440277e+00 2.933924e+00 2.493926e+00 2.308038e+00 2.002368e+00 1.925660e+00 2.247548e+00
<GCONST> 1.020937e+02
<STATE> 3
<MEAN> 25
 1.417616e-07 -1.344591e-08 6.744688e-09 3.520858e-08 1.539470e-08 -2.960128e-08 -2.596451e-08 -3.361477e-08 -1.956032e-08 2.204521e-08 1.919085e-08 1.169997e-08 -6.469213e-03 7.915574e-03 7.846633e-03 7.105639e-03 8.445180e-03 -3.366752e-04 -1.303187e-03 -7.868514e-03 -5.922113e-03 3.942743e-04 1.563429e-03 4.659003e-03 -2.882905e-03
<VARIANCE> 25
 5.294691e+01 4.963992e+01 4.432232e+01 7.569560e+01 6.260971e+01 5.816381e+01 3.991302e+01 5.058298e+01 4.723607e+01 3.758217e+01 2.628475e+01 3.142200e+01 1.848056e+00 1.592366e+00 1.743356e+00 2.282314e+00 2.269823e+00 2.684780e+00 2.440277e+00 2.933924e+00 2.493926e+00 2.308038e+00 2.002368e+00 1.925660e+00 2.247548e+00
<GCONST> 1.020937e+02
<STATE> 4
<MEAN> 25
 1.417616e-07 -1.344591e-08 6.744688e-09 3.520858e-08 1.539470e-08 -2.960128e-08 -2.596451e-08 -3.361477e-08 -1.956032e-08 2.204521e-08 1.919085e-08 1.169997e-08 -6.469213e-03 7.915574e-03 7.846633e-03 7.105639e-03 8.445180e-03 -3.366752e-04 -1.303187e-03 -7.868514e-03 -5.922113e-03 3.942743e-04 1.563429e-03 4.659003e-03 -2.882905e-03
<VARIANCE> 25
 5.294691e+01 4.963992e+01 4.432232e+01 7.569560e+01 6.260971e+01 5.816381e+01 3.991302e+01 5.058298e+01 4.723607e+01 3.758217e+01 2.628475e+01 3.142200e+01 1.848056e+00 1.592366e+00 1.743356e+00 2.282314e+00 2.269823e+00 2.684780e+00 2.440277e+00 2.933924e+00 2.493926e+00 2.308038e+00 2.002368e+00 1.925660e+00 2.247548e+00
<GCONST> 1.020937e+02
<TRANSP> 5
 0.000000e+00 1.000000e+00 0.000000e+00 0.000000e+00 0.000000e+00
 0.000000e+00 6.000000e-01 4.000000e-01 0.000000e+00 0.000000e+00
 0.000000e+00 0.000000e+00 6.000000e-01 4.000000e-01 0.000000e+00
 0.000000e+00 0.000000e+00 0.000000e+00 7.000000e-01 3.000000e-01
 0.000000e+00 0.000000e+00 0.000000e+00 0.000000e+00 0.000000e+00
<ENDHMM>
~h "sil"
<BEGINHMM>
<NUMSTATES> 5
<STATE> 2
<MEAN> 25
 1.417616e-07 -1.344591e-08 6.744688e-09 3.520858e-08 1.539470e-08 -2.960128e-08 -2.596451e-08 -3.361477e-08 -1.956032e-08 2.204521e-08 1.919085e-08 1.169997e-08 -6.469213e-03 7.915574e-03 7.846633e-03 7.105639e-03 8.445180e-03 -3.366752e-04 -1.303187e-03 -7.868514e-03 -5.922113e-03 3.942743e-04 1.563429e-03 4.659003e-03 -2.882905e-03
<VARIANCE> 25
 5.294691e+01 4.963992e+01 4.432232e+01 7.569560e+01 6.260971e+01 5.816381e+01 3.991302e+01 5.058298e+01 4.723607e+01 3.758217e+01 2.628475e+01 3.142200e+01 1.848056e+00 1.592366e+00 1.743356e+00 2.282314e+00 2.269823e+00 2.684780e+00 2.440277e+00 2.933924e+00 2.493926e+00 2.308038e+00 2.002368e+00 1.925660e+00 2.247548e+00
<GCONST> 1.020937e+02
<STATE> 3
<MEAN> 25
